%YAML:1.0
opencv_ml_svm:
   format: 3
   svmType: ONE_CLASS
   kernel:
      type: RBF
      gamma: 1.0000000000000001e-01
   nu: 1.0000000000000001e-01
   term_criteria: { iterations:500 }
   var_count: 960
   class_count: 1
   sv_total: 45
   support_vectors:
      - [ 3.14576930e-04, -1.17800413e-02, 1.11673574e-03,
          1.17800413e-02, 2.72914451e-02, -6.43073246e-02,
          2.75710709e-02, 6.43073246e-02, 1.26831541e-02,
          -1.79861896e-02, 1.43406950e-02, 1.85107403e-02,
          2.79485219e-04, 1.12662667e-04, 3.32575932e-04, 1.12662667e-04,
          -1.56109026e-02, -1.86091624e-02, 1.63306724e-02,
          1.99258700e-02, 3.09852481e-01, -1.86267853e-01,
          3.09852481e-01, 1.97375253e-01, 3.33038330e-01,
          -1.14401877e-01, 3.33038330e-01, 1.14401877e-01,
          5.00206091e-03, -1.86538801e-03, 5.44543378e-03,
          1.90026918e-03, -9.03752749e-04, 1.26146423e-02,
          9.41166095e-03, 1.63281579e-02, 2.73047566e-01, 1.54553920e-01,
          2.73047566e-01, 1.54553920e-01, 3.54272753e-01, 9.06851441e-02,
          3.54272753e-01, 9.06851441e-02, 4.50669229e-03, 1.11169938e-03,
          4.92018647e-03, 1.64183148e-03, 2.52844438e-05, 9.01192892e-03,
          1.62200455e-03, 9.01192892e-03, 3.31889652e-02, 4.99557480e-02,
          3.31889652e-02, 4.99557480e-02, 2.21958682e-02, 1.79579593e-02,
          2.24282183e-02, 1.81903057e-02, -5.07714576e-04,
          -3.39055492e-04, 5.07714576e-04, 4.26431419e-04,
          1.75445879e-04, -8.36140476e-03, 9.49467532e-04,
          8.36140476e-03, 2.85111591e-02, -4.32872958e-02,
          2.85111591e-02, 4.32872958e-02, 1.78645365e-02,
          -1.15303593e-02, 1.79248005e-02, 1.19551551e-02,
          -8.31469137e-04, 3.29274044e-04, 8.31469137e-04,
          3.29274044e-04, 4.65762382e-03, -2.24144291e-02,
          7.34262913e-03, 2.24144291e-02, 2.80228674e-01,
          -1.89608142e-01, 2.80228674e-01, 1.89608142e-01,
          3.24263394e-01, -7.11406022e-02, 3.24263394e-01,
          8.55070502e-02, -2.42265314e-03, 2.61954591e-03,
          2.92779203e-03, 2.93870736e-03, 1.63319230e-03, 2.19723098e-02,
          4.28559398e-03, 2.19723098e-02, 2.93846041e-01, 1.00660615e-01,
          3.06531847e-01, 1.13863416e-01, 3.82541120e-01, 9.84893069e-02,
          3.82541120e-01, 9.84893069e-02, -3.72717669e-03,
          1.48948445e-03, 3.75931361e-03, 3.14108748e-03, 4.92310675e-04,
          5.78842824e-03, 1.36669690e-03, 5.78842824e-03, 5.42040542e-02,
          7.93648064e-02, 5.44251055e-02, 7.93648064e-02, 1.66425630e-02,
          4.87128645e-02, 2.69075111e-02, 4.87128645e-02,
          -2.04065908e-03, 5.87618619e-04, 2.13269144e-03,
          1.74910668e-03, -1.42375636e-03, 4.27276362e-03,
          2.12326995e-03, 4.39633057e-03, -2.26443559e-02,
          5.00653684e-02, 2.27737799e-02, 5.00653684e-02, 7.85592720e-02,
          6.70691952e-02, 7.85592720e-02, 6.70691952e-02, 1.10936053e-02,
          6.03876309e-03, 1.12544727e-02, 6.65727444e-03, 1.60755590e-02,
          -1.65306665e-02, 1.64816193e-02, 1.65306665e-02,
          -7.16519803e-02, 1.45741627e-02, 8.40349793e-02,
          4.83727232e-02, 5.70764065e-01, 5.98591007e-03, 5.70764065e-01,
          6.89266101e-02, 2.23435331e-02, -2.14264542e-02,
          3.69384587e-02, 2.26446297e-02, 2.33287886e-02,
          -8.26808996e-03, 2.33287886e-02, 8.85437522e-03,
          2.15957407e-02, 3.81730311e-02, 5.67205958e-02, 4.56019193e-02,
          3.69384944e-01, -5.98737486e-02, 3.69384944e-01,
          8.54814649e-02, 2.10936666e-02, -2.69319210e-02,
          3.28124948e-02, 2.74135899e-02, 3.47249676e-03,
          -1.31243572e-03, 3.47353518e-03, 1.31243572e-03,
          1.06481044e-02, -8.08873679e-03, 1.16652669e-02,
          9.10589844e-03, 2.16116235e-02, -1.53904986e-02,
          2.26540715e-02, 1.53904986e-02, 6.62562298e-03,
          -4.81404550e-03, 6.65826816e-03, 4.87933541e-03,
          1.06432466e-02, 5.42594912e-03, 1.08898645e-02, 5.92382206e-03,
          2.93472800e-02, 5.91385253e-02, 2.93472800e-02, 5.91385253e-02,
          2.94512417e-02, 4.17590253e-02, 4.11519520e-02, 4.17590253e-02,
          -2.65108831e-02, 2.94298143e-03, 2.65108831e-02,
          3.31758452e-03, 1.08091563e-01, 8.41771998e-03, 1.08129166e-01,
          1.42490640e-02, 2.74847806e-01, 1.56618670e-01, 2.74847806e-01,
          1.74398080e-01, 1.12208851e-01, 2.45167285e-01, 1.60284460e-01,
          2.45167285e-01, -1.20349236e-01, 9.12553594e-02,
          1.20349236e-01, 9.12553594e-02, 6.75303712e-02, 1.71690732e-02,
          6.75679892e-02, 2.24654134e-02, 3.92510176e-01,
          -9.57850516e-02, 3.92510176e-01, 1.32689625e-01,
          2.88104117e-01, 6.27957880e-02, 2.88104117e-01, 9.59079191e-02,
          -6.47077560e-02, 1.68529470e-02, 6.47077560e-02,
          3.90287191e-02, 1.76577456e-03, 3.48413642e-03, 1.86918443e-03,
          3.79542680e-03, 5.18933460e-02, -2.28776108e-03,
          5.18933460e-02, 9.72301606e-03, 5.97789995e-02, 2.57520657e-03,
          7.07539991e-02, 1.50877377e-02, -2.25341860e-02,
          -1.00716501e-02, 2.25341860e-02, 1.00716501e-02,
          3.14032147e-03, -5.02331706e-04, 3.14032147e-03,
          5.02331706e-04, 2.65699327e-02, -2.48904806e-02,
          2.65699327e-02, 2.48904806e-02, 7.22463802e-02,
          -2.86455471e-02, 7.22463802e-02, 2.86455471e-02,
          7.67021114e-03, -2.43375474e-03, 8.93861894e-03,
          2.48484500e-03, 7.86858797e-03, -3.13200035e-05,
          7.86858797e-03, 4.06221347e-03, 8.35258439e-02,
          -6.89641088e-02, 8.35258439e-02, 9.90450606e-02,
          5.14576554e-01, -1.44838199e-01, 5.14576554e-01,
          1.44838199e-01, 7.14332163e-02, -2.84306277e-02,
          7.52665326e-02, 2.84746047e-02, 1.59257259e-02, 6.66548684e-03,
          1.59257259e-02, 6.74912101e-03, 6.64808378e-02, 1.21025659e-01,
          6.64808378e-02, 1.21025659e-01, 3.84028912e-01, 8.74547139e-02,
          3.84028912e-01, 1.06061272e-01, 7.05898255e-02, 9.43921600e-03,
          7.52329901e-02, 2.50543170e-02, 3.37010226e-03,
          -7.04761696e-05, 3.37010226e-03, 9.82620550e-05,
          9.94143263e-03, -2.28439970e-03, 9.94143263e-03,
          2.28439970e-03, 6.29533753e-02, -9.36553173e-04,
          6.29533753e-02, 8.94083921e-03, 1.24099199e-02, 4.76980873e-04,
          1.30466651e-02, 3.20372963e-03, 4.22159024e-03,
          -2.53077340e-03, 4.50605573e-03, 3.47204041e-03,
          6.84653036e-03, 1.81043781e-02, 1.32554425e-02, 3.18625122e-02,
          -1.37711619e-03, 2.82276403e-02, 1.78302247e-02,
          2.98807863e-02, 7.81593192e-03, 3.33421747e-03, 7.81593192e-03,
          3.33421747e-03, 3.44917886e-02, -3.64488326e-02,
          3.50084305e-02, 3.64488326e-02, 1.33794010e-01,
          -2.61001408e-01, 1.36410445e-01, 2.61001408e-01,
          2.44033709e-01, -1.61867868e-02, 2.46650174e-01,
          1.08235776e-01, 4.84381281e-02, 1.48220230e-02, 4.84381281e-02,
          1.58696920e-02, 3.02331056e-02, -4.12441120e-02,
          3.54073606e-02, 4.12441120e-02, 3.02425861e-01,
          -1.04645893e-01, 3.02425861e-01, 1.48104325e-01,
          4.63240027e-01, 7.19180107e-02, 4.63240027e-01, 9.30088386e-02,
          2.40080208e-02, -3.56405711e-04, 2.43143141e-02,
          1.03823794e-02, 9.41384770e-03, -5.24405972e-04,
          9.88668855e-03, 3.61969252e-03, 6.95887953e-02, 3.42692770e-02,
          6.95887953e-02, 3.42692770e-02, 3.67884599e-02,
          -1.42994348e-03, 3.67884599e-02, 1.38705997e-02,
          5.55123761e-03, -2.33228807e-03, 5.55123761e-03,
          2.90056993e-03, 6.30103517e-04, 3.91182257e-03, 4.68724547e-03,
          3.91182257e-03, 1.01861186e-01, 3.19114998e-02, 1.01861186e-01,
          3.19114998e-02, 4.03616624e-03, 1.45886047e-02, 1.84512362e-02,
          1.45886047e-02, -1.03754271e-03, 1.87523256e-04,
          1.03754271e-03, 4.27463208e-04, 2.24528965e-02, 3.44860628e-02,
          3.12982947e-02, 3.44860628e-02, 5.38073421e-01, 1.37516633e-01,
          5.38073421e-01, 1.37516633e-01, -2.70846393e-02,
          4.70811166e-02, 1.16096653e-01, 4.70811166e-02,
          -6.04914222e-03, 1.26182502e-02, 6.04914222e-03,
          1.26182502e-02, 3.03016324e-02, 2.68599298e-03, 3.05395611e-02,
          6.63247798e-03, 3.87196392e-01, -7.41070434e-02,
          3.87196392e-01, 7.68884942e-02, 5.47088236e-02,
          -6.18645959e-02, 8.28041360e-02, 6.47298396e-02,
          -2.20127474e-03, 5.35742892e-03, 3.16975382e-03,
          5.35742892e-03, 3.42910085e-03, 4.98717884e-04, 3.42910085e-03,
          5.40213659e-04, 4.83023897e-02, -5.50203398e-03,
          4.83023897e-02, 5.57504641e-03, 1.90983564e-02,
          -3.99032468e-03, 1.90983564e-02, 4.69660759e-03,
          5.09699923e-04, 4.18675219e-04, 8.74298974e-04, 4.73020336e-04,
          -4.77420818e-03, -2.33010622e-03, 5.63761452e-03,
          2.89117196e-03, -5.13239689e-02, -2.32827328e-02,
          5.13239689e-02, 2.40719449e-02, 5.21279201e-02,
          -1.30399205e-02, 5.21279201e-02, 1.81856863e-02,
          6.79823430e-03, 1.32019201e-03, 6.79823430e-03, 1.39851531e-03,
          -7.90972542e-03, -3.70562114e-02, 2.49096993e-02,
          3.70562114e-02, -3.20952922e-01, -6.80812672e-02,
          3.20952922e-01, 9.67898965e-02, 4.91227090e-01,
          -5.47973961e-02, 4.91227090e-01, 7.06967413e-02,
          2.91835107e-02, -2.78663486e-02, 2.96117552e-02,
          2.91092154e-02, 2.19360106e-02, -1.41580021e-02,
          2.43528262e-02, 1.41580021e-02, -1.90018609e-01,
          1.58724084e-01, 1.96040913e-01, 1.65942088e-01, 1.73420236e-01,
          -5.35542332e-02, 2.02146217e-01, 1.66177720e-01,
          -7.56533584e-03, -7.49564320e-02, 1.88194662e-02,
          7.49564320e-02, 4.07236302e-03, -1.54354086e-03,
          4.07764968e-03, 1.65180990e-03, -3.92909534e-02,
          -3.28294151e-02, 4.45637964e-02, 3.34350578e-02,
          -3.85809205e-02, -9.67976823e-02, 3.85809205e-02,
          9.67976823e-02, -7.08552543e-03, -1.87143479e-02,
          7.08552543e-03, 1.87143479e-02, 7.30504049e-03, 8.55366467e-04,
          7.61301955e-03, 1.36198429e-03, 9.59296227e-02,
          -6.92262081e-04, 9.59296227e-02, 3.46227712e-03,
          -3.18684131e-02, 1.12691903e-02, 3.38837504e-02,
          1.12691903e-02, -1.01563986e-03, 9.81232966e-04,
          1.45708106e-03, 9.81232966e-04, 1.81779899e-02, 4.74312119e-02,
          3.01795080e-02, 4.74312119e-02, 5.89173734e-01, 5.19844592e-02,
          5.89173734e-01, 7.56940991e-02, -1.67850301e-01,
          -4.68441360e-02, 1.97615489e-01, 6.66471869e-02,
          -1.01974458e-02, 2.54164473e-03, 1.10273948e-02,
          4.18126304e-03, 2.19650473e-03, 4.84675765e-02, 1.19555052e-02,
          4.84675765e-02, 2.00678572e-01, 1.79356206e-02, 2.07578793e-01,
          1.36275694e-01, -1.06094725e-01, -1.81947336e-01,
          1.06094725e-01, 1.81947336e-01, -7.30740093e-03,
          -8.61672778e-03, 7.30740093e-03, 8.61672778e-03,
          4.77038877e-04, 9.23309010e-04, 9.46285203e-04, 1.12237188e-03,
          -1.12211872e-02, -7.25467084e-03, 1.12211872e-02,
          7.92954396e-03, -3.58972279e-03, -2.09510978e-03,
          4.68005007e-03, 4.73059481e-03, -8.34844774e-04,
          -3.06353875e-04, 8.34844774e-04, 4.31357767e-04,
          -6.79390971e-03, -8.83983914e-04, 6.79390971e-03,
          8.83983914e-04, 2.74901628e-03, 5.97036385e-04, 2.13252231e-02,
          3.33527732e-03, 6.97325543e-02, 7.77902640e-03, 6.97325543e-02,
          7.77902640e-03, 2.17076228e-03, 2.70440127e-04, 2.40384066e-03,
          2.86252849e-04, -4.50440347e-02, -1.06886467e-02,
          4.50440347e-02, 1.06886467e-02, 1.21476829e-01,
          -7.69097533e-04, 1.84066832e-01, 3.29062529e-02,
          4.58124578e-01, 5.50150909e-02, 4.58124578e-01, 5.50150909e-02,
          -5.38612134e-04, -7.47951539e-03, 1.55400205e-02,
          9.22548492e-03, -3.81979607e-02, -6.67842804e-03,
          3.81979607e-02, 6.67842804e-03, 1.56662852e-01,
          -2.95544136e-02, 1.92781419e-01, 2.95544136e-02,
          4.62903082e-01, -3.77633907e-02, 4.62903082e-01,
          4.21017222e-02, -3.65232527e-02, -2.31287070e-02,
          3.65232527e-02, 2.31287070e-02, -4.45403205e-03,
          -8.41975154e-04, 4.45403205e-03, 8.41975154e-04,
          1.97911467e-02, -9.91180306e-04, 2.39062496e-02,
          1.24138489e-03, 5.28590269e-02, -1.78418178e-02,
          5.34734055e-02, 1.78418178e-02, -6.68458268e-03,
          -3.99207138e-03, 6.72635157e-03, 3.99207138e-03,
          1.47593953e-02, -4.13833885e-03, 1.47593953e-02,
          4.13833885e-03, 2.60247178e-02, -6.83008786e-03,
          2.99599413e-02, 7.97086954e-03, -1.26374941e-02,
          -1.58307725e-04, 1.26374941e-02, 5.00419317e-03,
          -2.18901459e-05, -5.71369193e-04, 2.18901459e-05,
          5.71369193e-04, 1.05146132e-01, -2.05411129e-02,
          1.05146132e-01, 2.05411129e-02, 3.71887565e-01,
          -1.07674196e-03, 3.71887565e-01, 5.71326204e-02,
          -1.33517221e-01, 8.44948888e-02, 1.33517221e-01,
          8.44948888e-02, -5.58653241e-03, 2.88950861e-03,
          5.58653241e-03, 4.93665226e-03, 1.07623264e-01,
          -1.83059555e-02, 1.07623264e-01, 1.83349289e-02,
          5.28978944e-01, -4.95062359e-02, 5.28978944e-01,
          7.13264495e-02, -1.10770307e-01, 6.73101693e-02,
          1.12575836e-01, 8.01413655e-02, -1.56007893e-02,
          7.68273231e-03, 1.56007893e-02, 7.68273231e-03, 1.37636084e-02,
          -1.53120549e-03, 1.40080275e-02, 2.15820759e-03,
          9.02339742e-02, -1.13317408e-02, 9.02339742e-02,
          1.23521648e-02, -5.19678649e-03, -4.48096450e-03,
          9.96178668e-03, 4.69920831e-03, -2.26538233e-03,
          2.95394595e-04, 2.26538233e-03, 3.37227539e-04,
          -8.06471240e-03, -4.33048559e-03, 8.06538761e-03,
          4.33882279e-03, -1.38811702e-02, -2.08517201e-02,
          3.41515839e-02, 2.34977957e-02, 5.91915511e-02, 1.79712269e-02,
          5.91915511e-02, 2.08420902e-02, 1.48905627e-03, 2.52558640e-03,
          1.53962686e-03, 2.52558640e-03, -6.63227588e-02,
          -2.95248162e-02, 6.63227588e-02, 2.95248162e-02,
          2.33675167e-01, -4.08187415e-03, 3.14043015e-01,
          7.50122517e-02, 3.92834961e-01, 6.37703836e-02, 3.92834961e-01,
          9.13481861e-02, 8.70226067e-04, -4.76430077e-03,
          3.51345073e-03, 7.96114560e-03, -5.45013621e-02,
          -1.15934014e-02, 5.45013621e-02, 1.15934014e-02,
          3.13648075e-01, -4.82870676e-02, 3.42027694e-01,
          4.93340604e-02, 3.57852459e-01, -3.50345559e-02,
          3.57852459e-01, 5.49780875e-02, 5.32885967e-03, 1.11255576e-04,
          5.72695676e-03, 5.13243256e-03, -6.00052299e-03,
          -7.83624710e-04, 6.00052299e-03, 7.83624710e-04,
          4.98819575e-02, 4.82757064e-03, 5.25060445e-02, 4.94808285e-03,
          5.76630533e-02, 1.29833044e-02, 5.76630533e-02, 1.29833044e-02,
          2.05311560e-04, 1.19138311e-03, 3.94672155e-04, 1.23863365e-03,
          9.62482486e-03, -1.40798194e-02, 9.92535055e-03,
          1.40798194e-02, 5.90618737e-02, -9.29939896e-02,
          5.90618737e-02, 9.50272828e-02, -2.34439597e-02,
          -9.35311317e-02, 3.07915043e-02, 9.61296260e-02,
          -4.78373235e-03, -3.34108504e-03, 4.80242399e-03,
          3.41408374e-03, 8.99116471e-02, -1.32151134e-02,
          9.13716033e-02, 1.53759858e-02, 3.80220205e-01, 4.71780002e-02,
          3.95190448e-01, 1.47177458e-01, -9.88889039e-02,
          2.70024817e-02, 1.09439544e-01, 1.83604702e-01, 5.60889812e-03,
          3.01909610e-03, 6.49467111e-03, 8.24446138e-03, 9.09936354e-02,
          -1.50427669e-02, 9.30613950e-02, 1.51040591e-02,
          4.91053104e-01, -9.13268924e-02, 4.91053104e-01,
          9.13268924e-02, -1.10269040e-01, 1.56187294e-02,
          1.11793838e-01, 3.49001139e-02, 9.54597548e-04, 2.79690465e-03,
          9.54597548e-04, 2.79690465e-03, 1.11687370e-02,
          -1.52688182e-03, 1.14270383e-02, 1.58030947e-03,
          8.47888142e-02, -7.57396640e-03, 8.47888142e-02,
          7.84254447e-03, -8.36988632e-03, -3.24694585e-04,
          8.63253884e-03, 1.01372448e-03, -2.30820169e-05,
          -3.02043481e-05, 8.58966159e-05, 8.58966159e-05,
          -3.94348800e-03, -1.13240434e-02, 3.94348800e-03,
          1.15097957e-02, 8.63764808e-03, -3.70265432e-02,
          2.03507114e-02, 3.89358886e-02, 2.20556036e-02, 2.47116257e-02,
          2.38492489e-02, 2.78268661e-02, -1.56611833e-03,
          8.99820216e-03, 1.57066097e-03, 8.99820216e-03,
          -2.37431545e-02, -3.84157076e-02, 2.37431545e-02,
          3.84157076e-02, 2.99980253e-01, -2.07427293e-01,
          3.00636321e-01, 2.07427293e-01, 3.43551397e-01,
          -2.21101835e-01, 3.43551397e-01, 2.23871872e-01,
          6.03274815e-03, -4.08599265e-02, 1.71149764e-02,
          4.74511646e-02, -1.83735192e-02, -4.52645635e-03,
          2.00084075e-02, 4.92064096e-03, 3.77463132e-01, 1.02328412e-01,
          3.77463132e-01, 1.02328412e-01, 1.52633071e-01, 7.44692758e-02,
          1.74054623e-01, 9.45919901e-02, -2.70435144e-03,
          -1.52130462e-02, 6.39696885e-03, 1.88164078e-02,
          5.18178917e-04, -9.87280742e-04, 2.40444206e-03,
          1.01465208e-03, 6.29438236e-02, 6.39630063e-03, 6.29438236e-02,
          6.39630063e-03, 1.19593441e-02, 4.11920395e-04, 1.87277086e-02,
          1.76805840e-03, -9.59358760e-04, 4.70690167e-04,
          1.01465569e-03, 4.70690167e-04, 1.31383608e-03, 5.12210318e-05,
          1.31383608e-03, 1.52263063e-04, 2.75469385e-02, 1.71982162e-02,
          2.77007055e-02, 1.71982162e-02, 2.89064106e-02, 2.09021978e-02,
          3.59610021e-02, 2.60143504e-02, -8.78469925e-03,
          -5.67294192e-03, 8.85568745e-03, 5.68308309e-03,
          1.31623792e-02, -1.46889978e-03, 1.32662579e-02,
          3.79327359e-03, 3.50011200e-01, 6.83870390e-02, 3.50011200e-01,
          8.40488151e-02, -1.92614973e-01, -1.08727917e-01,
          2.65917152e-01, 1.57961637e-01, -6.36062622e-02,
          -3.84733155e-02, 6.36062622e-02, 3.84733155e-02,
          9.49257147e-03, -3.45903891e-03, 9.82309971e-03,
          6.83449022e-03, 2.71830589e-01, -9.26025435e-02,
          2.74831206e-01, 1.08685240e-01, -3.64548713e-01,
          -2.62328267e-01, 3.64548713e-01, 2.62328267e-01,
          -2.98447683e-02, -3.99223808e-03, 2.98447683e-02,
          1.05440412e-02, 2.54996610e-03, -1.03313701e-04,
          2.54996610e-03, 1.17594597e-03, 5.63056767e-03,
          -1.79194491e-02, 1.64169241e-02, 1.89285856e-02,
          -4.27719057e-02, -2.65335124e-02, 4.49369438e-02,
          2.66099758e-02, 7.82255374e-04, 1.59529562e-03, 2.14934535e-03,
          1.68578629e-03 ]
      - [ -5.86163311e-04, 1.82884140e-03, 5.86163311e-04,
          1.82884140e-03, 3.22152413e-02, 2.45114174e-02, 3.22152413e-02,
          2.45114174e-02, 7.40525872e-02, 1.59288477e-02, 7.40525872e-02,
          1.87877081e-02, 1.21113192e-02, -5.70524950e-03,
          1.21113192e-02, 5.73177589e-03, 3.08227865e-03, 2.57328525e-02,
          5.26866596e-03, 2.57328525e-02, 2.68835902e-01, 1.62355125e-01,
          2.68835902e-01, 1.62355125e-01, 3.76188695e-01, 1.41985923e-01,
          3.76188695e-01, 1.41985923e-01, 2.91184317e-02, 2.95121297e-02,
          3.01358327e-02, 3.61708961e-02, 2.82755168e-03, 1.11151917e-03,
          2.82755168e-03, 1.93666876e-03, 1.81078389e-01,
          -7.29898810e-02, 1.81078389e-01, 8.15432593e-02,
          3.53268236e-01, -2.45803073e-01, 3.53268236e-01,
          2.45803073e-01, 5.04927151e-02, -4.35228907e-02,
          5.21810539e-02, 4.83216792e-02, 0., 0., 0., 0., 1.08231157e-02,
          -1.97206275e-03, 1.08231157e-02, 4.58257645e-03,
          7.11655896e-03, -1.58700868e-02, 1.09319575e-02,
          1.99739505e-02, 6.73292298e-03, -9.49555449e-03,
          6.76609157e-03, 9.52872355e-03, 7.00704101e-03,
          -1.76105637e-03, 7.06384657e-03, 1.76105637e-03,
          8.37395042e-02, -1.16580557e-02, 8.37395042e-02,
          1.16580557e-02, -3.69971152e-04, -2.12667766e-03,
          2.20047086e-02, 3.66189587e-03, -2.86129327e-03,
          -3.22312117e-04, 2.89655826e-03, 3.22312117e-04,
          4.94363159e-02, 1.27500240e-02, 4.94363159e-02, 1.27771627e-02,
          5.40054440e-01, -1.82222389e-02, 5.40054440e-01,
          3.98253053e-02, 3.94124240e-02, -5.49852178e-02,
          1.67360872e-01, 5.64521365e-02, -2.44527441e-02,
          -3.20384838e-03, 2.46221125e-02, 3.41712940e-03,
          4.42528501e-02, 4.09620851e-02, 4.42528501e-02, 4.09620851e-02,
          3.75846535e-01, 1.38173684e-01, 3.75846535e-01, 1.40291825e-01,
          5.30051887e-02, 2.97674853e-02, 1.35389328e-01, 5.77038638e-02,
          -2.24050395e-02, 7.45349191e-03, 2.24390291e-02,
          8.26134160e-03, 5.79130324e-03, 6.97542867e-03, 5.79130324e-03,
          6.97542867e-03, 2.15000622e-02, 2.47035790e-02, 2.26615611e-02,
          2.47035790e-02, 5.58440341e-03, -1.63325889e-03,
          1.15256980e-02, 5.51342685e-03, -3.06566805e-03,
          7.20850308e-04, 3.06566805e-03, 9.63600585e-04, 1.37176842e-03,
          -6.87669264e-04, 1.37176842e-03, 6.87669264e-04,
          4.73201424e-02, 1.08257066e-02, 4.73201424e-02, 1.19078755e-02,
          3.47683276e-03, 1.25325499e-02, 3.83845866e-02, 2.33770590e-02,
          -1.59752984e-02, -1.12210289e-02, 1.59752984e-02,
          1.12210289e-02, 2.01842245e-02, 7.92491250e-03, 2.01842245e-02,
          8.58169608e-03, 3.50878805e-01, 8.63121152e-02, 3.50878805e-01,
          8.63121152e-02, -3.25482577e-01, -1.64917231e-01,
          4.14491177e-01, 1.73932567e-01, -1.54824033e-01,
          -3.78852598e-02, 1.54824033e-01, 4.11897711e-02,
          2.84507740e-02, -1.58610434e-04, 2.84507740e-02,
          3.26478574e-03, 1.79648921e-01, -1.09989889e-01,
          1.79648921e-01, 1.23442411e-01, -3.00422698e-01,
          -6.38552159e-02, 3.06342393e-01, 1.56778157e-01,
          -9.82791185e-02, 7.63358995e-02, 9.82791185e-02,
          7.63358995e-02, 2.33055232e-03, 1.32780580e-03, 2.33055232e-03,
          1.32780580e-03, 1.89028382e-02, -1.57474971e-03,
          1.89028382e-02, 9.93999094e-03, 2.97423340e-02, 4.18566242e-02,
          2.97423340e-02, 4.18566242e-02, -7.40899297e-04,
          1.74176842e-02, 2.67140707e-03, 1.74176842e-02, 1.74730638e-04,
          -3.61352274e-03, 4.18601237e-04, 3.66654503e-03,
          2.77606174e-02, -2.58118380e-03, 2.77872328e-02,
          1.04204724e-02, 5.18024638e-02, 3.26464418e-03, 5.18024638e-02,
          1.22802295e-02, 5.42274350e-03, -5.14858728e-03,
          5.42274350e-03, 6.50172494e-03, 1.51350917e-02,
          -2.96757347e-03, 1.51350917e-02, 9.23190359e-03,
          3.18936944e-01, 7.46356919e-02, 3.18936944e-01, 8.17332491e-02,
          3.83574180e-02, -1.00935116e-01, 1.50503680e-01,
          1.31473079e-01, -3.00616194e-02, -8.24703500e-02,
          3.27143297e-02, 8.24703500e-02, 2.30401121e-02,
          -2.18754681e-03, 2.30401121e-02, 6.12017559e-03,
          1.83745548e-01, -1.55188397e-01, 1.98487595e-01,
          1.56701565e-01, -2.71265179e-01, -4.38162953e-01,
          2.79575169e-01, 4.38162953e-01, -7.08457902e-02,
          -8.99157673e-02, 7.08457902e-02, 8.99157673e-02,
          2.03066878e-03, -2.43626768e-03, 2.03066878e-03,
          2.43626768e-03, -1.30389528e-02, -3.73946317e-02,
          2.11213380e-02, 3.73946317e-02, -7.31720403e-02,
          -7.05482513e-02, 7.31720403e-02, 7.05748722e-02,
          -8.41486361e-03, -9.14444122e-03, 8.41700286e-03,
          9.32122301e-03, -3.23920487e-03, 6.46562557e-06,
          3.23920487e-03, 4.81629453e-04, -6.38579624e-03,
          -4.64890152e-03, 6.81879371e-03, 6.99791033e-03,
          1.75439077e-03, -6.59775082e-03, 3.03022237e-03,
          8.33679922e-03, 9.22862819e-05, 1.37141324e-03, 5.19092369e-04,
          1.37693470e-03, -2.70258579e-02, -4.05199528e-02,
          2.70258579e-02, 4.05199528e-02, -5.96566983e-02,
          -2.56886870e-01, 7.27718323e-02, 2.56886870e-01,
          2.26941615e-01, -5.65792471e-02, 2.26941615e-01,
          1.27591938e-01, 2.93975398e-02, 4.31527495e-02, 3.09881363e-02,
          4.31527495e-02, -1.52284699e-02, -4.02669013e-02,
          1.52284699e-02, 4.02669013e-02, 8.02366883e-02,
          -1.46071047e-01, 1.11988254e-01, 1.46071047e-01,
          5.59168994e-01, 5.96598871e-02, 5.59168994e-01, 8.48084390e-02,
          5.02512641e-02, 3.35555412e-02, 5.19931652e-02, 3.38930972e-02,
          -1.13235670e-03, 2.13681068e-03, 1.13334320e-03,
          2.17266707e-03, 1.64026041e-02, 1.59829750e-03, 1.85815785e-02,
          9.07505024e-03, 8.87164846e-02, -1.54801449e-02,
          8.87164846e-02, 1.55877341e-02, 9.39221028e-03,
          -2.16791523e-03, 9.43004247e-03, 2.19999929e-03,
          1.83648104e-03, -9.02185217e-04, 2.05012434e-03,
          2.10006628e-03, 3.97252142e-02, -4.39343527e-02,
          3.97252142e-02, 4.39343527e-02, 4.65985872e-02,
          -2.94738021e-02, 4.70361225e-02, 3.11334357e-02,
          -1.26337621e-03, 3.23179248e-03, 2.15665181e-03,
          3.23179248e-03, 9.50578321e-03, 4.57349867e-02, 1.48040699e-02,
          4.57349867e-02, -9.26430076e-02, 1.20818794e-01,
          1.75680742e-01, 1.97594523e-01, 5.03591537e-01,
          -1.06125042e-01, 5.03591537e-01, 1.40782297e-01,
          6.46419777e-03, -1.89530775e-02, 2.06180774e-02,
          1.97788477e-02, 4.09968533e-02, -1.94445644e-02,
          4.09968533e-02, 2.82427724e-02, -1.48952290e-01,
          1.92976385e-01, 1.64002851e-01, 2.45243311e-01, 2.43228763e-01,
          1.23610608e-01, 2.52715707e-01, 1.87630162e-01,
          -3.27184275e-02, -4.83304635e-02, 3.54110077e-02,
          4.83304635e-02, 7.48386094e-03, -1.02551272e-02,
          7.48386094e-03, 1.02551272e-02, 1.96946766e-02,
          -6.32188544e-02, 1.96946766e-02, 6.32188544e-02,
          -1.07208723e-02, -6.49874657e-02, 1.12593891e-02,
          6.49874657e-02, -7.96605647e-03, -1.03658792e-02,
          7.96605647e-03, 1.03658792e-02, -5.00630494e-03,
          3.56987631e-03, 5.00630494e-03, 3.56987631e-03, 1.35750901e-02,
          1.45884249e-02, 2.10293867e-02, 1.45884249e-02, 6.26119152e-02,
          2.67319102e-02, 6.26119152e-02, 2.67319102e-02, 3.71109881e-03,
          4.12028469e-03, 4.13223356e-03, 4.12028469e-03,
          -4.03945595e-02, 8.38983990e-03, 4.03945595e-02,
          9.29559208e-03, 1.34372532e-01, 7.81636238e-02, 2.07418799e-01,
          7.81636238e-02, 4.42301720e-01, 1.11702807e-01, 4.42301720e-01,
          1.11702807e-01, 1.19911032e-02, 3.92354652e-03, 1.61191840e-02,
          3.99936829e-03, -4.25883681e-02, -7.96218123e-03,
          4.25883681e-02, 8.43509287e-03, 1.50736004e-01,
          -8.75516012e-02, 2.26868480e-01, 8.75516012e-02,
          4.23837304e-01, -1.28602996e-01, 4.23837304e-01,
          1.28602996e-01, 1.38891377e-02, -1.30297551e-02,
          1.57435816e-02, 1.34770153e-02, -5.78167662e-03,
          -3.18555813e-03, 5.78167662e-03, 3.18555813e-03,
          9.86084621e-03, -1.79873854e-02, 2.06762049e-02,
          1.79873854e-02, 4.69589010e-02, -4.42291833e-02,
          4.69589010e-02, 4.42291833e-02, 5.14109991e-03,
          -7.22683733e-03, 5.14109991e-03, 7.22683733e-03,
          -3.15284589e-03, -5.44229243e-03, 3.15339817e-03,
          5.45120705e-03, -5.37545932e-03, -1.35450158e-02,
          1.64528899e-02, 1.68736801e-02, 3.13121043e-02, 3.43552120e-02,
          3.19268927e-02, 3.43724228e-02, 4.96617611e-03, 7.49269826e-03,
          4.96617611e-03, 7.49269826e-03, -9.21301637e-03,
          -2.30546910e-02, 9.48351715e-03, 2.30546910e-02,
          2.45601460e-01, 4.22158744e-03, 2.50955403e-01, 5.23572937e-02,
          3.84528220e-01, 1.36229515e-01, 3.84528220e-01, 1.36229515e-01,
          1.52140381e-02, 1.33549497e-02, 1.62987951e-02, 1.39435288e-02,
          -3.47228046e-03, -1.85692776e-03, 5.22944983e-03,
          1.85692776e-03, 3.00232887e-01, -5.44789694e-02,
          3.00232887e-01, 5.44789694e-02, 4.01073486e-01,
          -8.57779533e-02, 4.01073486e-01, 8.57779533e-02,
          8.63867812e-03, -5.38072316e-03, 1.26558365e-02,
          5.41703263e-03, -8.82395194e-04, 1.00142228e-04,
          8.82395194e-04, 1.71336593e-04, 2.86407061e-02,
          -1.09094689e-02, 2.89139878e-02, 1.09262597e-02,
          6.32622764e-02, -1.88592970e-02, 6.32622764e-02,
          1.88592970e-02, 3.01572424e-03, -8.51188903e-04,
          3.20810638e-03, 1.00881467e-03, 6.40331954e-03,
          -1.50874676e-02, 7.40539795e-03, 1.50874676e-02,
          1.32331066e-02, -7.56253395e-03, 4.32326235e-02,
          2.07999665e-02, -1.75787006e-02, 8.44766758e-03,
          1.75787006e-02, 8.44766758e-03, -5.65633760e-04,
          -9.12941105e-05, 5.65633760e-04, 4.59698727e-04,
          8.77732709e-02, -2.12382320e-02, 1.03554413e-01,
          4.01325598e-02, 4.88753974e-01, -5.53491451e-02,
          5.77171206e-01, 9.89386812e-02, -1.76080450e-01,
          5.71030974e-02, 1.76080450e-01, 5.71030974e-02,
          -6.88282214e-03, 5.44550270e-03, 6.88282214e-03,
          5.44550270e-03, 8.02081972e-02, 7.74012655e-02, 8.39599147e-02,
          7.74012655e-02, 3.47167820e-01, 7.08332509e-02, 3.47167820e-01,
          1.58849090e-01, -1.03503913e-01, -2.27818917e-03,
          1.03503913e-01, 3.74340080e-02, -1.49871763e-02,
          4.01892746e-03, 1.49871763e-02, 5.23765385e-03, 5.90836164e-03,
          9.91310831e-03, 5.90836164e-03, 9.91310831e-03,
          -3.75064951e-03, 2.61369627e-02, 1.20793991e-02,
          2.61369627e-02, -1.01136947e-02, 3.54678393e-03,
          1.01136947e-02, 3.54678393e-03, -1.78292196e-03,
          3.27441841e-04, 1.78292196e-03, 3.30674753e-04, 3.63385514e-03,
          -1.57864022e-04, 3.66330915e-03, 6.05908048e-04,
          4.76352908e-02, 3.34338434e-02, 4.76352908e-02, 3.34509313e-02,
          3.16602215e-02, 5.83044477e-02, 3.16602215e-02, 5.83044477e-02,
          2.55509070e-03, 6.32777670e-03, 2.55509070e-03, 6.32777670e-03,
          3.19951326e-02, 2.04463545e-02, 3.32948156e-02, 2.04463545e-02,
          4.80959058e-01, 1.24448761e-01, 4.80959058e-01, 1.24448761e-01,
          1.65713862e-01, 1.05852969e-01, 1.69833392e-01, 1.05852969e-01,
          -8.57279729e-03, -3.71717295e-04, 1.01345899e-02,
          6.31249556e-03, 1.53967775e-02, 1.86244939e-02, 1.75732821e-02,
          1.86244939e-02, 3.93060923e-01, -6.11167178e-02,
          3.93060923e-01, 7.82627985e-02, 1.84349209e-01,
          -6.83337897e-02, 1.88872993e-01, 6.88662454e-02,
          -2.02724729e-02, -5.57243126e-04, 2.02724729e-02,
          2.04638322e-03, 5.31907499e-05, 1.06441687e-04, 6.79123681e-04,
          1.56745795e-04, 3.53061520e-02, -2.12789550e-02,
          3.54458205e-02, 2.12789550e-02, 4.34974656e-02,
          -2.81575155e-02, 4.34974656e-02, 2.81575155e-02,
          -2.39604549e-03, -1.20567426e-03, 2.66779494e-03,
          1.20567426e-03, -1.14607904e-03, 2.82667024e-05,
          1.67917134e-03, 7.39246316e-04, 7.14021474e-02, 2.28476394e-02,
          7.14021474e-02, 2.40168404e-02, 1.45127237e-01,
          -4.48628366e-02, 1.45127237e-01, 4.75854538e-02,
          1.95639357e-02, -2.24611647e-02, 1.95639357e-02,
          2.24611647e-02, 1.62847172e-02, 1.10320095e-02, 2.04341132e-02,
          1.14574004e-02, 4.10661966e-01, 9.39066410e-02, 4.10661966e-01,
          1.05740368e-01, 1.14285909e-01, -3.47268641e-01,
          2.14686230e-01, 3.52286220e-01, 4.08427753e-02,
          -1.57495528e-01, 4.18995321e-02, 1.57495528e-01,
          1.77103058e-02, 1.82630736e-02, 1.82393435e-02, 1.82630736e-02,
          2.05478340e-01, -6.76349849e-02, 2.05478340e-01,
          9.25589129e-02, -1.88874200e-01, -1.60853267e-01,
          1.88874200e-01, 1.63754806e-01, 7.77047314e-03,
          -8.63904878e-03, 1.92245692e-02, 2.88695469e-02,
          1.40708254e-03, 4.35837917e-03, 1.40708254e-03, 4.35945811e-03,
          2.46785290e-04, 1.63791627e-02, 6.22442365e-03, 1.74359158e-02,
          -1.14548625e-02, 7.70622259e-03, 1.14548625e-02,
          1.07837711e-02, 4.80356533e-03, 1.93879101e-03, 4.80356533e-03,
          1.93879101e-03, 1.37427971e-02, -8.99809878e-03,
          1.37427971e-02, 9.02635697e-03, 1.75158307e-02,
          -4.92782332e-02, 4.48930077e-02, 4.95342426e-02,
          -5.16785495e-02, 1.26586892e-02, 5.17679974e-02,
          1.98840201e-02, 1.43029820e-03, 1.85962883e-03, 1.43029820e-03,
          2.66614393e-03, 2.78341509e-02, -1.23773776e-02,
          3.13584767e-02, 1.95413418e-02, 3.27529132e-01,
          -3.42856854e-01, 3.27529132e-01, 3.42856854e-01,
          4.66787256e-02, -8.31585005e-02, 1.45887569e-01,
          1.66608214e-01, 2.56192144e-02, 4.90947254e-02, 2.66560856e-02,
          4.90947254e-02, 3.39344889e-03, 1.69847980e-02, 8.11618101e-03,
          1.74917039e-02, 2.57937968e-01, 6.41030073e-02, 2.57937968e-01,
          7.10844472e-02, 3.78373504e-01, 1.02352753e-01, 3.78373504e-01,
          1.34202257e-01, 1.67770348e-02, 1.14115456e-03, 3.29979658e-02,
          4.09803875e-02, 1.87155628e-03, -3.30961746e-04,
          1.94418104e-03, 6.86488929e-04, 2.94465702e-02,
          -1.11005632e-02, 2.95586009e-02, 1.11452863e-02,
          2.20707972e-02, -5.34248874e-02, 2.43587755e-02,
          5.34248874e-02, -5.07439999e-03, -1.51863489e-02,
          5.07439999e-03, 1.51863489e-02, 3.71527998e-03,
          -7.99035747e-03, 3.71527998e-03, 8.09778739e-03,
          -1.12806242e-02, -4.20228802e-02, 1.47399539e-02,
          4.31112535e-02, 5.72844734e-03, -1.18489880e-02,
          2.08112001e-02, 1.51613504e-02, 1.20572979e-02, 3.18144471e-03,
          1.20572979e-02, 3.18144471e-03, 1.16328150e-02,
          -2.90703196e-02, 1.19855832e-02, 2.90703196e-02,
          4.87731844e-02, -2.48511076e-01, 5.64805381e-02,
          2.48511076e-01, 3.40173572e-01, -7.97674432e-02,
          3.40173572e-01, 9.91086140e-02, 9.78059992e-02, 1.63315088e-02,
          9.78059992e-02, 1.63315088e-02, 7.92808540e-04, 8.74242280e-03,
          1.86489534e-03, 8.74242280e-03, 4.16855961e-02, 9.77248140e-03,
          5.77094629e-02, 3.33813429e-02, 5.20715475e-01, 7.28614107e-02,
          5.20715475e-01, 8.38530883e-02, 9.27301720e-02, 1.51395183e-02,
          9.27301720e-02, 1.52296787e-02, -1.24873500e-03,
          1.39739807e-03, 1.24873500e-03, 1.39739807e-03, 1.66930910e-02,
          1.53466919e-02, 1.93358101e-02, 1.53466919e-02, 8.44408646e-02,
          3.21645103e-02, 8.44408646e-02, 3.21645103e-02, 9.87309590e-03,
          1.98745634e-03, 9.87309590e-03, 2.01484421e-03,
          -6.07119035e-03, -1.39462331e-03, 6.44515688e-03,
          1.43945613e-03, -5.22855371e-02, -2.15838272e-02,
          5.22855371e-02, 2.15838272e-02, 1.06530543e-02,
          -1.22478036e-02, 2.42855754e-02, 1.54412221e-02,
          8.85799248e-03, 5.23034541e-04, 8.85799248e-03, 1.82842417e-03,
          -6.29624426e-02, -1.68424882e-02, 6.40067756e-02,
          1.69455297e-02, -3.23932976e-01, -1.63723573e-01,
          3.23932976e-01, 1.63723573e-01, 2.62930423e-01,
          -7.01028761e-03, 2.67425835e-01, 6.10430427e-02,
          6.23169951e-02, 1.99815780e-02, 6.23169951e-02, 1.99815780e-02,
          -7.35946447e-02, -3.08739338e-02, 7.44252950e-02,
          3.08739338e-02, -1.96577713e-01, -1.26720846e-01,
          2.43456438e-01, 1.26720846e-01, 4.43814665e-01, 5.46898246e-02,
          4.43814665e-01, 6.15383685e-02, 6.17925338e-02, 1.94894914e-02,
          6.17925338e-02, 1.94894914e-02, -9.52336844e-03,
          -4.69717523e-03, 9.56665259e-03, 4.69717523e-03,
          -3.98945296e-03, -1.23154353e-02, 3.03226076e-02,
          1.23154353e-02, 8.21129382e-02, 5.42304059e-03, 8.21129382e-02,
          6.05655927e-03, 8.39203503e-03, 1.06975448e-03, 8.39203503e-03,
          1.11966603e-03, 3.37819592e-03, -1.90785469e-03,
          3.85018368e-03, 1.96576025e-03, 5.68267889e-02,
          -1.97967179e-02, 5.68267889e-02, 1.97967179e-02,
          1.85521785e-02, -6.93362486e-03, 1.89772192e-02,
          7.07838358e-03, -2.55573570e-04, 3.76810858e-05,
          2.55573570e-04, 6.68923894e-05, 7.55740097e-03,
          -4.16260166e-03, 1.96216479e-02, 5.13039203e-03,
          3.98627460e-01, -1.06465064e-01, 3.98627460e-01,
          1.06465064e-01, 2.36379638e-01, -4.76979613e-02,
          2.36379638e-01, 5.18828928e-02, -2.40774569e-03,
          2.33250670e-03, 2.40774569e-03, 2.36901920e-03, 1.99083262e-03,
          1.13100912e-02, 1.98479816e-02, 1.73549540e-02, 4.09171283e-01,
          2.01970950e-01, 4.09171283e-01, 2.18022496e-01, 2.14532346e-01,
          7.45155364e-02, 2.14532346e-01, 7.78571963e-02,
          -6.71719026e-04, -1.87174592e-04, 2.56348448e-03,
          1.27726491e-03, 3.15499096e-03, 5.38019231e-03, 5.16412966e-03,
          5.38019231e-03, 4.81521338e-02, 2.91928966e-02, 4.81521338e-02,
          2.97175944e-02, 2.86856736e-03, 3.88548523e-03, 4.21155524e-03,
          6.53778436e-03, 2.17726283e-05, -3.11991986e-04,
          2.28369478e-04, 3.11991986e-04 ]
      - [ 2.25158967e-03, 3.34267592e-04, 2.25158967e-03, 1.10449246e-03,
          2.86227483e-02, 6.01060642e-03, 2.86227483e-02, 8.85781832e-03,
          5.48777878e-02, -5.18141408e-03, 5.48777878e-02,
          5.42977778e-03, -2.63016950e-03, 1.19239418e-03,
          3.06070549e-03, 1.19239418e-03, 2.46696230e-02,
          -2.66402913e-03, 2.50844117e-02, 2.93487776e-03,
          3.16912115e-01, 9.75618064e-02, 3.16912115e-01, 1.05164073e-01,
          2.65686303e-01, 1.85877934e-01, 2.65686303e-01, 1.85877934e-01,
          -1.73945073e-02, 5.87748969e-03, 2.03556716e-02,
          7.92033505e-03, 9.89844371e-03, -2.47290055e-03,
          9.89844371e-03, 4.92758444e-03, 4.17375475e-01,
          -1.35369658e-01, 4.17375475e-01, 1.35369658e-01,
          2.69214422e-01, -9.29626375e-02, 2.69214422e-01,
          9.29626375e-02, -1.39586693e-02, -8.55252263e-04,
          1.69198345e-02, 5.02786785e-03, 5.01105213e-04,
          -2.96125829e-04, 5.16893109e-04, 2.96125829e-04,
          5.62188178e-02, -1.10627357e-02, 5.62188178e-02,
          1.10627357e-02, 3.57638262e-02, -2.42164433e-02,
          3.57638262e-02, 2.42164433e-02, 1.31777383e-03,
          -2.71159341e-03, 2.17460073e-03, 2.97441450e-03,
          4.76858672e-03, -5.30275807e-04, 4.76858672e-03,
          5.52322192e-04, 5.41967526e-02, -1.01906538e-03,
          5.41967526e-02, 1.31141171e-02, 2.68096756e-02,
          -2.50578113e-03, 3.97013128e-02, 9.71931033e-03,
          -1.22973863e-02, -3.80483130e-03, 1.22973863e-02,
          3.80483130e-03, 3.31213959e-02, 3.46273906e-03, 3.31213959e-02,
          3.58401751e-03, 4.21631664e-01, 1.13082364e-01, 4.21631664e-01,
          1.13082364e-01, -6.73987046e-02, -8.46484229e-02,
          2.13695303e-01, 1.21728204e-01, -6.27990142e-02,
          -2.15495750e-02, 6.27990142e-02, 2.33366173e-02,
          3.53272669e-02, -6.73884572e-03, 3.53272669e-02,
          7.78188836e-03, 3.07072997e-01, -2.75795728e-01,
          3.07072997e-01, 2.75795728e-01, -1.32174179e-01,
          -2.58526564e-01, 1.66018367e-01, 2.58526564e-01,
          -2.88687423e-02, -8.70149676e-03, 2.98432801e-02,
          1.28788529e-02, 2.01743329e-03, -6.28877489e-04,
          2.01743329e-03, 6.28877489e-04, 2.39133071e-02,
          -1.85818113e-02, 2.39133071e-02, 1.94827057e-02,
          7.76812434e-03, -1.58425476e-02, 1.78512577e-02,
          1.58425476e-02, -7.68518017e-04, -5.22767135e-04,
          2.22762651e-03, 7.46444450e-04, 6.92614028e-03,
          -1.22733843e-02, 6.92614028e-03, 1.22733843e-02,
          1.06968023e-02, -5.00015318e-02, 1.44660724e-02,
          5.00603095e-02, 6.70088967e-03, -1.37747489e-02,
          8.34559090e-03, 1.44290309e-02, -1.72852550e-03,
          -7.19331438e-04, 1.72852550e-03, 8.06617725e-04,
          4.48594503e-02, -4.94010933e-02, 4.48594503e-02,
          4.94010933e-02, 3.17356825e-01, -2.98105717e-01,
          3.17356825e-01, 2.98105717e-01, 2.06197619e-01,
          -1.50551081e-01, 2.06197619e-01, 1.50551081e-01,
          -3.91515950e-03, -9.06912051e-03, 4.61885706e-03,
          9.37461387e-03, 3.01051326e-02, 3.10430452e-02, 3.01051326e-02,
          3.10430452e-02, 3.72287631e-01, 1.70529500e-01, 3.72287631e-01,
          1.70529500e-01, 2.21970901e-01, 1.11683041e-01, 2.21970901e-01,
          1.16486765e-01, 6.45817537e-03, 1.36880642e-02, 6.45817537e-03,
          1.36880642e-02, 3.40303499e-03, 9.56793409e-03, 3.41607351e-03,
          9.56793409e-03, 3.94231007e-02, 4.93499823e-02, 3.94231007e-02,
          4.93499823e-02, 1.94615703e-02, 3.16562317e-02, 1.95765905e-02,
          3.16796936e-02, 2.98908999e-04, 2.82277795e-03, 5.49431308e-04,
          3.00146430e-03, 1.96659584e-02, 1.07823657e-02, 1.97035316e-02,
          1.07823657e-02, 1.42417580e-01, -3.87158385e-03,
          1.42417580e-01, 2.36142781e-02, -1.21166734e-02,
          -2.92075761e-02, 3.33652422e-02, 2.92075761e-02,
          -5.57322521e-03, 8.37103755e-04, 5.57561545e-03,
          1.61104288e-03, 5.39522655e-02, 1.04409605e-01, 5.82733415e-02,
          1.04409605e-01, 5.61573982e-01, 1.73179090e-01, 5.61573982e-01,
          1.80265591e-01, -2.23687049e-02, -3.11927497e-02,
          1.20111942e-01, 7.64783844e-02, -2.45625228e-02,
          4.69457265e-03, 2.45625228e-02, 1.08759999e-02,
          -1.18131675e-02, 4.53364886e-02, 1.78456344e-02,
          4.53364886e-02, 1.52416423e-01, -1.03413045e-01,
          1.62460685e-01, 1.47762001e-01, 1.39986500e-02,
          -2.42974699e-01, 5.46996780e-02, 2.42974699e-01,
          -1.68830752e-02, -2.01670099e-02, 1.68830752e-02,
          2.01670099e-02, -6.18912512e-03, 4.07725573e-03,
          6.18912512e-03, 4.27987520e-03, -1.40060773e-02,
          1.37170600e-02, 1.40060773e-02, 1.45093240e-02, 6.47151726e-04,
          -3.80877662e-03, 4.96592978e-03, 8.44243914e-03,
          -2.48566177e-03, -1.94903207e-03, 2.48566177e-03,
          2.09238590e-03, 2.39217631e-03, 1.90820778e-03, 2.39217631e-03,
          1.98370591e-03, 3.87779847e-02, 2.66394438e-03, 3.87779847e-02,
          1.40783601e-02, 3.21933851e-02, 2.32648058e-03, 3.21933851e-02,
          1.10182185e-02, 2.86280381e-04, 2.02684593e-03, 2.31526559e-03,
          2.41233944e-03, 1.47338584e-03, 3.30547616e-02, 6.46193558e-03,
          3.30547616e-02, 1.06213547e-01, 2.27253009e-02, 1.45853490e-01,
          1.28560036e-01, 3.06429923e-01, -6.44159615e-02,
          3.06429923e-01, 1.09779522e-01, 6.71839516e-05, 1.86783876e-02,
          2.96967980e-02, 2.11648755e-02, 2.38413215e-02, 6.17257785e-03,
          2.38413215e-02, 2.42894255e-02, -1.00726306e-01,
          1.63965777e-01, 1.31733060e-01, 2.00306371e-01, 4.82969761e-01,
          1.68446019e-01, 4.82969761e-01, 2.07324103e-01, 1.11648217e-02,
          5.21810018e-02, 6.09643459e-02, 5.75240850e-02, 7.95215368e-03,
          -1.72689185e-02, 7.95215368e-03, 1.72689185e-02,
          -2.12843027e-02, -1.31991893e-01, 2.74523720e-02,
          1.31991893e-01, 8.38047937e-02, -1.43724099e-01,
          8.38047937e-02, 1.43724099e-01, 5.63294394e-04,
          -1.97792128e-02, 1.04631055e-02, 1.97792128e-02,
          -1.01408670e-02, -8.95437691e-03, 1.01408670e-02,
          8.95437691e-03, -6.12816811e-02, -7.42294118e-02,
          6.12816811e-02, 7.42294118e-02, -2.49916296e-02,
          -3.42622548e-02, 2.49916296e-02, 3.45874690e-02,
          -2.34250096e-03, 1.02136668e-03, 2.34250096e-03,
          1.23125117e-03, -1.01028308e-01, -7.32398033e-02,
          1.01028308e-01, 7.32398033e-02, -2.67626315e-01,
          -4.51486051e-01, 2.73349881e-01, 4.51486051e-01,
          1.88323617e-01, -1.66316167e-01, 1.92893356e-01,
          1.68601051e-01, 3.81453615e-03, -1.45366148e-03,
          8.37149378e-03, 4.54594707e-03, -1.02120854e-01,
          -3.70653830e-02, 1.02120854e-01, 3.70653830e-02,
          -2.09614895e-02, -5.60903624e-02, 2.14929357e-01,
          9.70351323e-02, 2.89031655e-01, 3.56806517e-02, 2.89031655e-01,
          4.98327017e-02, 2.56279064e-03, -2.89456057e-03,
          5.87840099e-03, 6.00243732e-03, -1.12103056e-02,
          9.57476674e-04, 1.12103056e-02, 1.65434263e-03, 1.62552670e-02,
          2.76175588e-02, 2.90962700e-02, 2.76175588e-02, 4.12745811e-02,
          4.10049669e-02, 4.12745811e-02, 4.10049669e-02,
          -2.55831028e-03, 4.50071786e-03, 2.55831028e-03,
          4.54705022e-03, 1.05369859e-03, 8.16709871e-05, 1.05369859e-03,
          1.69274063e-04, 8.87713674e-03, 1.05042113e-02, 9.24745388e-03,
          1.05042113e-02, 3.03088725e-02, 2.99382992e-02, 3.03088725e-02,
          2.99382992e-02, 9.19603091e-03, 6.54284330e-03, 9.19603091e-03,
          6.54284330e-03, 7.97313172e-03, 5.19205956e-03, 7.97313172e-03,
          5.19205956e-03, 1.36415258e-01, 3.88926566e-02, 1.36415258e-01,
          5.27148470e-02, 3.73501241e-01, 1.29607558e-01, 3.73501241e-01,
          1.34393856e-01, 6.69808015e-02, 3.94427702e-02, 6.69808015e-02,
          3.94427702e-02, 2.11968290e-04, 4.12886310e-03, 3.75775946e-03,
          4.82471706e-03, 9.26823616e-02, -9.13834423e-02,
          1.06450774e-01, 9.31265280e-02, 5.20366192e-01,
          -5.29726669e-02, 5.20366192e-01, 9.19423923e-02,
          7.32195675e-02, 7.82489777e-03, 7.32195675e-02, 8.29514209e-03,
          -8.13379418e-04, -6.68393695e-05, 8.31649930e-04,
          7.64993136e-04, 2.13557240e-02, 2.62356047e-02, 2.39959043e-02,
          2.62356047e-02, 9.63004306e-02, 5.59065081e-02, 9.63004306e-02,
          5.59065081e-02, 7.55827734e-03, 6.62471168e-03, 7.70820305e-03,
          6.62471168e-03, 2.58582731e-04, -8.06993397e-04,
          5.08917088e-04, 1.11398613e-03, 1.44615602e-02, 3.48757976e-03,
          1.49516854e-02, 9.50115174e-03, 5.38437553e-02,
          -1.54552413e-02, 5.38437553e-02, 1.90731511e-02,
          1.13657247e-02, -4.14901972e-03, 1.13657247e-02,
          4.14901972e-03, -4.56957678e-05, -1.87185407e-02,
          2.63667828e-03, 1.87185407e-02, 7.99233466e-02,
          -1.78408861e-01, 8.21434408e-02, 1.78408861e-01,
          3.19606215e-01, -1.24081485e-01, 3.19606215e-01,
          1.31727144e-01, 8.58322978e-02, -7.43382610e-03,
          8.58322978e-02, 1.29105216e-02, -4.75846650e-03,
          -1.83578543e-02, 4.75846650e-03, 1.83578543e-02,
          1.66174486e-01, -7.79580250e-02, 1.78657398e-01,
          1.08198144e-01, 4.90902603e-01, 1.57238126e-01, 4.90902603e-01,
          1.78995252e-01, 7.93199316e-02, 3.24853472e-02, 7.93199316e-02,
          3.24853472e-02, -3.38777143e-04, 6.66080625e-04,
          6.78737881e-04, 7.40028569e-04, 5.19444495e-02, 2.69619618e-02,
          5.25044315e-02, 2.69619618e-02, 9.82777923e-02, 5.19977361e-02,
          9.82777923e-02, 5.19977361e-02, 7.31726689e-03, 5.46536688e-03,
          7.31869880e-03, 5.46536688e-03, -1.42486082e-04,
          -1.32205954e-03, 3.21702886e-04, 1.43781374e-03,
          9.37100220e-03, -1.81619041e-02, 9.40467138e-03,
          1.87734608e-02, 3.74712385e-02, -3.25172357e-02,
          3.74712385e-02, 3.25172357e-02, 1.05345063e-02,
          -4.58420627e-03, 1.05345063e-02, 4.58420627e-03,
          -4.25121980e-03, -1.92786604e-02, 4.36183019e-03,
          1.92786604e-02, 2.28108037e-02, -1.72816470e-01,
          6.38355464e-02, 1.72816470e-01, 3.33454728e-01,
          -6.29399046e-02, 3.33454728e-01, 1.08477995e-01,
          8.22051540e-02, 1.18165510e-02, 8.22051540e-02, 1.51420794e-02,
          -5.83853666e-03, -1.04877055e-02, 5.83853666e-03,
          1.04877055e-02, 5.72475009e-02, -4.25962843e-02,
          1.17471226e-01, 6.51174486e-02, 5.46162784e-01, 9.12759900e-02,
          5.46162784e-01, 1.01787686e-01, 8.51786584e-02, 3.06536313e-02,
          8.51786584e-02, 3.06536313e-02, -4.69457998e-04,
          2.52736965e-04, 4.69457998e-04, 2.52736965e-04, 2.10526343e-02,
          1.59784593e-02, 2.26510186e-02, 1.59784593e-02, 9.57847610e-02,
          2.87128501e-02, 9.57847610e-02, 2.87128501e-02, 1.14972489e-02,
          3.67867574e-03, 1.14972489e-02, 3.67867574e-03, 3.56687931e-03,
          -7.46078230e-03, 3.56687931e-03, 7.46078230e-03,
          4.70921658e-02, -1.96777117e-02, 4.70921658e-02,
          2.25214902e-02, 2.14696694e-02, 1.13622064e-03, 2.14885566e-02,
          8.66048783e-03, -6.45143446e-04, -1.95381348e-04,
          7.01986195e-04, 2.96048092e-04, 4.26802859e-02, 1.39036251e-03,
          4.26802859e-02, 7.41910795e-03, 4.69362974e-01, 8.21174756e-02,
          4.69362974e-01, 8.25872868e-02, 1.01707950e-01, 7.88399652e-02,
          1.30242288e-01, 7.88399652e-02, -1.12682497e-02,
          2.82502663e-03, 1.12682497e-02, 3.04772379e-03, 4.27076444e-02,
          -1.98261626e-03, 4.27076444e-02, 2.31607864e-03,
          4.64815438e-01, -7.53130093e-02, 4.64815438e-01,
          7.53130093e-02, 1.18846022e-01, -5.17320223e-02,
          1.40730366e-01, 5.32754175e-02, -1.13887843e-02,
          2.34047417e-03, 1.13887843e-02, 2.34047417e-03, 5.57770627e-03,
          4.72612970e-04, 5.57770627e-03, 4.72612970e-04, 6.05368242e-02,
          -3.71555449e-04, 6.05368242e-02, 2.58476706e-03,
          2.64766254e-02, -3.81692522e-03, 2.64766254e-02,
          3.81692522e-03, -1.30122539e-03, -9.99340409e-06,
          1.30122539e-03, 1.28628846e-04, -3.94800305e-03,
          -1.55537901e-03, 3.94800305e-03, 1.55537901e-03,
          3.82381608e-03, -1.85597723e-03, 1.40209850e-02,
          1.37636904e-02, 4.49240133e-02, 4.43131700e-02, 4.57321815e-02,
          4.56402302e-02, 1.89688075e-02, 1.67253315e-02, 1.89688075e-02,
          1.67253315e-02, -9.35019366e-03, 2.03798129e-03,
          9.35019366e-03, 8.56957119e-03, 1.63059995e-01, 1.16518058e-01,
          1.69047713e-01, 1.16518058e-01, 4.82997447e-01, 3.44833061e-02,
          4.82997447e-01, 1.91092834e-01, 1.72066167e-01,
          -3.95775121e-03, 1.72066167e-01, 5.08196950e-02,
          -4.40966617e-03, -6.70395419e-03, 5.26100583e-03,
          9.53588169e-03, 9.54625756e-02, -7.76723325e-02,
          9.54625756e-02, 8.40912983e-02, 1.74461216e-01,
          -2.87492722e-01, 2.03911364e-01, 2.92000681e-01,
          1.48390234e-01, -8.87092128e-02, 1.48390234e-01,
          9.00512636e-02, 2.14731135e-05, -1.62466126e-03,
          1.48311758e-03, 1.86036259e-03, 1.36895888e-02,
          -3.48287052e-03, 1.36895888e-02, 1.23726046e-02,
          3.92981917e-02, 5.11716679e-02, 4.14307714e-02, 5.11716679e-02,
          1.61444265e-02, 1.46781979e-02, 1.61444265e-02, 1.46781979e-02,
          8.36321502e-04, 3.96080752e-04, 1.19526300e-03, 5.14772197e-04,
          4.35307063e-02, 1.24989999e-02, 4.35307063e-02, 1.25470525e-02,
          3.12923491e-02, 2.32072603e-02, 3.13063040e-02, 2.32072603e-02,
          -7.77607493e-04, 4.94979462e-03, 7.77607493e-04,
          4.94979462e-03, 2.13539246e-02, 1.11740623e-02, 2.15241648e-02,
          1.13084419e-02, 3.49972993e-01, 1.04997948e-01, 3.49972993e-01,
          1.04997948e-01, 2.77552933e-01, 1.36516988e-01, 2.77552933e-01,
          1.36516988e-01, -4.66437981e-04, 2.79839206e-02,
          8.55693035e-03, 2.79839206e-02, 1.95684209e-02,
          -3.10576684e-03, 1.95684209e-02, 5.16895112e-03,
          2.79725134e-01, -1.57883078e-01, 2.79725134e-01,
          1.57883078e-01, 3.22805464e-01, -2.31728360e-01,
          3.22805464e-01, 2.31728360e-01, 9.62060317e-03,
          -2.17592921e-02, 1.33223031e-02, 2.23052204e-02,
          7.07744912e-05, -1.18414487e-03, 4.11590299e-04,
          1.19296077e-03, 2.05032304e-02, -2.12345440e-02,
          2.05032304e-02, 2.22385507e-02, 4.22329344e-02,
          -3.05922348e-02, 4.22329344e-02, 3.27970050e-02,
          4.28808061e-03, -4.53688297e-03, 4.28808061e-03,
          4.62159235e-03, 5.49587375e-03, -1.51067441e-02,
          5.50941750e-03, 1.51067441e-02, 5.37068807e-02,
          -2.67500281e-02, 5.37440740e-02, 2.82142591e-02,
          3.35733825e-03, 7.10118795e-03, 1.30235273e-02, 7.10118795e-03,
          -1.84661767e-04, 1.84661767e-04, 1.84661767e-04,
          1.84661767e-04, 8.68141279e-02, 1.61852092e-02, 8.68141279e-02,
          4.41518761e-02, 5.47265589e-01, 5.09125218e-02, 5.47265589e-01,
          1.05324164e-01, 3.67282704e-02, -4.49002534e-02,
          1.20165832e-01, 7.32798725e-02, -5.01109380e-03,
          -1.27231702e-03, 5.34838671e-03, 4.44451813e-03,
          9.20142308e-02, 2.54043732e-02, 9.20142308e-02, 2.54043732e-02,
          2.38174543e-01, -4.83833030e-02, 2.52701193e-01,
          1.12536900e-01, 6.44497294e-03, -2.97207773e-01,
          6.84608817e-02, 2.97207773e-01, 1.54687967e-02,
          -2.21869964e-02, 1.69330239e-02, 2.25020591e-02,
          1.21274488e-02, 4.01904981e-04, 1.21274488e-02, 6.03885448e-04,
          4.62251529e-03, 5.76864462e-03, 2.72141360e-02, 7.23287323e-03,
          -7.69771868e-03, 4.41858498e-03, 1.83510929e-02,
          1.75462831e-02, 6.96061272e-03, 5.32083446e-04, 6.96061272e-03,
          1.48360641e-03, 7.56703317e-04, -1.19910380e-02,
          7.56703317e-04, 1.19910380e-02, 1.57279372e-02,
          -8.17890391e-02, 1.57279372e-02, 8.17890391e-02,
          2.22121943e-02, -5.15628532e-02, 2.25766581e-02,
          5.15628532e-02, -2.68748758e-04, -3.02838092e-03,
          3.95504321e-04, 3.02838092e-03, 2.27843737e-03,
          -8.96546151e-03, 2.27843737e-03, 1.94952413e-02,
          9.05533433e-02, -1.15371779e-01, 9.39845592e-02,
          1.72600925e-01, 4.31947500e-01, -1.21961609e-01,
          4.31947500e-01, 1.21961609e-01, 8.16263910e-03, 5.02255862e-04,
          9.71779786e-03, 6.74028136e-03, 6.96671056e-03, 4.47498783e-02,
          6.96671056e-03, 4.47498783e-02, 1.87485479e-02, 3.54006678e-01,
          2.92400271e-02, 3.54006678e-01, 2.98359603e-01, 1.84704214e-01,
          2.98359603e-01, 2.05859095e-01, 1.90629438e-02, 1.48899737e-03,
          1.90629438e-02, 7.44933588e-03, 1.39350013e-03, 4.04768111e-03,
          1.41711137e-03, 4.15615086e-03, 1.10566169e-02, 3.13169584e-02,
          1.10566169e-02, 3.15030441e-02, 1.13676861e-02, 3.14691663e-02,
          1.16144521e-02, 3.16501334e-02, 1.72218977e-04, 1.09865342e-03,
          5.96115482e-04, 1.23557181e-03, -1.60183327e-03,
          -3.02773988e-04, 1.66319334e-03, 5.68519521e-04,
          3.49159911e-02, 2.48007458e-02, 3.78251337e-02, 2.52520945e-02,
          8.52256715e-02, 4.12823744e-02, 8.52256715e-02, 4.12823744e-02,
          -1.38441697e-04, 2.46679469e-04, 3.57894762e-03,
          1.56126975e-03, 7.02411518e-04, 2.29721470e-03, 6.45157462e-03,
          5.29054599e-03, 4.08578634e-01, 1.31710932e-01, 4.08578634e-01,
          1.31710932e-01, 3.30880672e-01, -2.47773752e-02,
          3.30880672e-01, 1.11643374e-01, -1.68259293e-02,
          -2.85979342e-02, 1.73391290e-02, 2.85979342e-02,
          1.04050329e-02, -3.88821092e-04, 1.04050329e-02,
          1.67437189e-03, 3.45342517e-01, -8.55487958e-02,
          3.45342517e-01, 8.96180868e-02, 1.51706561e-01,
          -1.83795497e-01, 1.57824874e-01, 1.83795497e-01,
          -1.08667677e-02, -2.75611375e-02, 1.08667677e-02,
          2.75611375e-02, 6.33000862e-04, -2.35708321e-05,
          6.33000862e-04, 2.35708321e-05, 3.30340005e-02,
          -7.97884446e-03, 3.30340005e-02, 7.97884446e-03,
          2.06084084e-02, -1.91518143e-02, 2.06084084e-02,
          1.91518143e-02, -5.81828877e-04, -1.90690078e-03,
          1.15177431e-03, 1.90690078e-03 ]
      - [ 1.57210417e-02, 3.10640931e-02, 1.57210417e-02, 3.10640931e-02,
          5.29233404e-02, 6.48271888e-02, 6.00592755e-02, 6.48271888e-02,
          1.47645891e-01, -3.40990424e-02, 1.47645891e-01,
          3.64479087e-02, 3.65113001e-03, -2.59645469e-02,
          1.47907576e-02, 2.59645469e-02, -2.02450625e-04,
          3.22189592e-02, 1.02462089e-02, 3.69570032e-02,
          -7.17343539e-02, -3.99259701e-02, 1.27111912e-01,
          7.87607133e-02, 5.21711767e-01, -1.55915692e-01,
          5.21711767e-01, 1.79559723e-01, 1.60835627e-02,
          -5.54485992e-02, 3.37099172e-02, 5.56755960e-02,
          -7.10209133e-03, 6.17309147e-03, 8.52645282e-03,
          9.61524993e-03, -1.11365505e-02, 1.69025376e-01,
          9.84053686e-02, 1.69025376e-01, 2.85932839e-01, 1.72036201e-01,
          2.85932839e-01, 1.77683264e-01, 2.39527877e-02,
          -1.39848003e-02, 2.67327204e-02, 1.60413571e-02,
          1.23915495e-03, 6.43233128e-04, 1.43702189e-03, 1.50398095e-03,
          1.19866636e-02, 3.01741110e-03, 1.19866636e-02, 5.68064395e-03,
          2.16331333e-02, -6.63314713e-03, 2.16331333e-02,
          6.63314713e-03, 1.55914517e-04, -2.34716805e-03,
          1.03916775e-03, 2.34716805e-03, 1.26332015e-04,
          -7.95759819e-03, 1.61534722e-03, 7.96132442e-03,
          2.13337373e-02, -2.15436053e-02, 2.15168726e-02,
          2.22648494e-02, 5.74131962e-03, 1.55311879e-02, 1.17895510e-02,
          1.55311879e-02, -3.60662234e-03, 3.89414956e-03,
          3.60662234e-03, 3.89414956e-03, 2.77628805e-02,
          -2.08731033e-02, 3.10159307e-02, 2.90770326e-02,
          3.16992521e-01, -8.03129375e-02, 3.16992521e-01,
          9.76519063e-02, 3.60705554e-01, 4.47245426e-02, 3.61806363e-01,
          9.14024562e-02, -3.14053409e-02, 4.18839604e-02,
          3.14053409e-02, 4.18839604e-02, 3.43679748e-02, 2.32681688e-02,
          3.43679748e-02, 2.32681688e-02, 2.57322997e-01, 1.09764338e-01,
          2.57322997e-01, 1.09764338e-01, 4.07238215e-01,
          -3.13715227e-02, 4.07238215e-01, 4.73287478e-02,
          -1.97456572e-02, -5.34264743e-03, 2.78501585e-02,
          8.69594608e-03, 5.03191212e-03, 4.18137806e-03, 5.03191212e-03,
          4.18137806e-03, 1.86680388e-02, 1.14704147e-02, 1.87386908e-02,
          1.14704147e-02, 3.88253815e-02, -1.00547699e-02,
          3.88253815e-02, 1.07199475e-02, -1.68361352e-03,
          -3.52315791e-03, 2.60948949e-03, 3.52315791e-03,
          -1.00233279e-04, -5.43665234e-03, 7.31128617e-04,
          5.43665234e-03, 2.66673137e-02, -2.82291677e-02,
          2.66673137e-02, 2.82291677e-02, 2.36833040e-02, 1.11566074e-02,
          2.41728928e-02, 1.49625605e-02, -2.87063047e-03,
          3.75585095e-03, 2.88041169e-03, 3.92685737e-03,
          -4.24386375e-03, -1.09191751e-02, 5.23815723e-03,
          1.09191751e-02, 2.38530338e-01, -8.36421773e-02,
          2.38530338e-01, 1.07089348e-01, 4.52345818e-01,
          -7.23337010e-02, 4.52345818e-01, 1.03315696e-01,
          -1.21906204e-02, 2.62270756e-02, 2.82616243e-02,
          2.74831243e-02, 1.55220898e-02, 1.66462064e-02, 1.70857646e-02,
          1.86366830e-02, 2.18566313e-01, 2.41209000e-01, 2.18566313e-01,
          2.41209000e-01, 3.19136918e-01, 5.62542304e-02, 3.19136918e-01,
          1.08359478e-01, 1.60928257e-02, -2.03994196e-02,
          3.14468369e-02, 2.07951237e-02, 4.88505699e-03, 6.24885596e-03,
          4.88505699e-03, 6.24885596e-03, 1.38620418e-02, 1.89072527e-02,
          1.38620418e-02, 1.89379603e-02, 1.13148009e-02,
          -8.62474961e-04, 1.13148009e-02, 6.48672367e-03,
          2.94564827e-03, -6.84197759e-04, 3.60103836e-03,
          1.67483545e-03, 5.41907595e-03, -1.48666371e-02,
          5.45452628e-03, 1.48666371e-02, -5.11039468e-03,
          -7.76406452e-02, 1.21670878e-02, 7.76406452e-02,
          1.25254979e-02, -2.40821559e-02, 1.52098527e-02,
          2.44801622e-02, -4.48322913e-04, -1.18226635e-04,
          7.26935454e-04, 7.42262579e-04, 1.71210300e-02,
          -4.26137960e-03, 1.83406230e-02, 3.40405740e-02,
          1.30992129e-01, -8.68737400e-02, 1.30992129e-01,
          2.26717576e-01, 3.17458391e-01, -9.12706032e-02,
          3.17458391e-01, 1.04024246e-01, 2.87035527e-03,
          -3.27876303e-03, 7.49780238e-03, 4.52586822e-03,
          1.16233192e-02, 9.24996883e-02, 1.59245320e-02, 9.24996883e-02,
          -7.56369084e-02, 5.03124237e-01, 1.01052158e-01,
          5.03124237e-01, 1.69231668e-01, 1.82773650e-01, 1.81196347e-01,
          1.82773650e-01, 4.89164889e-03, 3.14169470e-03, 6.64987694e-03,
          3.36079043e-03, -2.61136307e-03, 7.19147560e-04,
          2.61136307e-03, 3.30941193e-03, -2.21508946e-02,
          -1.41373626e-03, 2.21508946e-02, 1.55725637e-02,
          -5.80935320e-03, 1.11347511e-02, 8.36229138e-03,
          1.55426394e-02, -2.15968280e-03, -2.86631263e-03,
          2.20209803e-03, 2.86631263e-03, 3.43431951e-03, 1.19628850e-04,
          3.43431951e-03, 2.83193513e-04, 2.03250460e-02,
          -2.04342097e-04, 2.03250460e-02, 4.17331187e-03,
          -3.73079032e-02, -1.28027087e-03, 3.73079032e-02,
          9.35065560e-03, -1.53085496e-02, -2.15500750e-05,
          1.53272571e-02, 4.15576901e-03, 2.91916542e-02,
          -3.23703326e-03, 2.91916542e-02, 6.91480050e-03,
          5.24579287e-02, -3.52270678e-02, 6.88261464e-02,
          4.79512289e-02, 1.51462719e-01, 1.48517892e-01, 2.25690991e-01,
          1.98866963e-01, -8.88471305e-02, 1.29678100e-01,
          8.88471305e-02, 1.29678100e-01, 2.15078443e-02,
          -9.67696402e-03, 2.15078443e-02, 9.74711031e-03,
          3.76268290e-02, -1.02575228e-01, 6.73609599e-02,
          1.02575228e-01, 6.02233708e-01, -1.22295395e-02,
          6.02233708e-01, 7.89553449e-02, -1.22583183e-02,
          7.37640038e-02, 8.21560845e-02, 7.37640038e-02, 1.03527296e-03,
          -3.09284806e-04, 1.04433333e-03, 3.23489687e-04,
          1.48570267e-02, -7.91997369e-03, 1.48570267e-02,
          7.91997369e-03, 9.82144028e-02, 3.18333553e-03, 9.82144028e-02,
          5.64411702e-03, 1.19799180e-02, 6.11954508e-03, 1.75856128e-02,
          6.11954508e-03, 6.43946914e-05, -2.21469454e-04,
          6.11190335e-04, 4.09451750e-04, -3.34735140e-02,
          1.43824518e-02, 3.34735140e-02, 1.54518895e-02,
          -2.95192804e-02, 2.06345301e-02, 3.08957789e-02,
          2.68773492e-02, 1.19438133e-04, -3.56394984e-03,
          1.72629172e-03, 3.79594229e-03, 7.30906962e-04,
          -2.17208639e-03, 2.40581133e-03, 2.26192339e-03,
          9.90485251e-02, 1.36615008e-01, 1.38340786e-01, 1.47762686e-01,
          -2.55706966e-01, 4.49466646e-01, 2.79249340e-01,
          4.49466646e-01, -5.30418083e-02, 3.32848579e-02,
          5.37316762e-02, 3.37243825e-02, -9.71970294e-05,
          -6.76732138e-03, 2.63617584e-03, 6.76732138e-03,
          2.93104678e-01, -7.67946318e-02, 2.93104678e-01,
          7.67946318e-02, 2.72807498e-02, 1.58416107e-01, 2.97897130e-01,
          1.91702604e-01, -9.09067392e-02, 6.15811795e-02,
          9.09067392e-02, 6.15811795e-02, 7.34842615e-04,
          -7.33177993e-04, 7.34842615e-04, 7.33177993e-04,
          3.16954218e-02, -5.71689149e-03, 3.16954218e-02,
          5.71689149e-03, 6.08422495e-02, 3.63721017e-04, 6.35463521e-02,
          1.33534847e-02, -1.01587186e-02, 8.10667779e-03,
          1.01587186e-02, 8.21337849e-03, -3.44958249e-03,
          -2.38529901e-04, 3.95686598e-03, 2.17677327e-03,
          7.89374113e-02, -2.30005030e-02, 7.89374113e-02,
          2.40740776e-02, 5.05071767e-02, -5.69976419e-02,
          5.05419783e-02, 5.87262437e-02, -2.35691271e-03,
          -1.00407694e-02, 2.35691271e-03, 1.08812647e-02,
          -3.01596355e-02, 5.70890866e-03, 3.35835069e-02,
          7.17110699e-03, 4.42214668e-01, 7.60334507e-02, 4.42214668e-01,
          9.39210951e-02, -2.34804526e-02, -7.61331692e-02,
          1.42431334e-01, 1.15742505e-01, -3.02368216e-02,
          -4.19518314e-02, 3.02368216e-02, 4.19518314e-02,
          -3.63043211e-02, 3.34052742e-02, 3.67610790e-02,
          3.34052742e-02, 2.58103073e-01, -1.12024337e-01,
          2.68855870e-01, 1.92255273e-01, -1.28104866e-01,
          -3.66832018e-01, 1.51195750e-01, 3.66832018e-01,
          -2.19804272e-02, -4.19007763e-02, 2.20268313e-02,
          4.19007763e-02, -5.45489462e-03, 1.10456990e-02,
          5.54600731e-03, 1.10843107e-02, -2.81963367e-02,
          6.30075336e-02, 2.81963367e-02, 6.30075336e-02,
          -4.13227715e-02, 2.75242366e-02, 4.13227715e-02,
          3.04816831e-02, -2.40680133e-03, -1.13379130e-04,
          2.48962268e-03, 2.88979965e-03, -3.84153379e-03,
          7.50978885e-04, 3.84153379e-03, 8.57126259e-04, 1.72501244e-02,
          -3.81728681e-03, 2.42530257e-02, 5.53307263e-03,
          6.73242584e-02, -1.04101412e-02, 6.73242584e-02,
          1.08383559e-02, 5.70327649e-03, 2.12792703e-03, 5.70327649e-03,
          2.14128918e-03, -1.28694763e-02, 1.92478932e-02,
          1.40439328e-02, 1.96872689e-02, -2.40419339e-02,
          1.15636453e-01, 1.17216110e-01, 1.21084876e-01, 4.88180906e-01,
          -4.58307900e-02, 4.88180906e-01, 5.59976846e-02,
          5.86363077e-02, -2.50279205e-03, 5.87666184e-02,
          8.34931806e-03, 3.56923137e-03, 3.42087895e-02, 7.52872881e-03,
          3.42087895e-02, -1.19509563e-01, 3.59358758e-01,
          1.27626121e-01, 3.59358758e-01, 2.16398403e-01, 8.73753652e-02,
          2.73242384e-01, 1.49578199e-01, 6.57693148e-02,
          -2.60536689e-02, 6.57693148e-02, 2.60536689e-02,
          -3.07321409e-03, 6.13972452e-03, 3.38825723e-03,
          6.13972452e-03, -1.45491352e-02, 1.19608501e-02,
          2.13072952e-02, 2.32286956e-02, -3.15332823e-02,
          -7.76959956e-03, 3.94035280e-02, 1.70897655e-02,
          1.00843655e-02, -4.68060514e-03, 1.00843655e-02,
          4.68060514e-03, 7.40912231e-03, 2.70313979e-03, 8.87500867e-03,
          2.71273381e-03, 9.77129862e-02, 2.83969138e-02, 9.77129862e-02,
          2.83969138e-02, 5.08304127e-03, 7.58746732e-03, 3.50962952e-02,
          7.58746732e-03, -1.35454005e-02, 3.28427792e-04,
          1.35454005e-02, 8.23146140e-04, 7.52120987e-02, 1.99935250e-02,
          7.91348740e-02, 2.02337913e-02, 5.24639249e-01, 6.64110407e-02,
          5.24639249e-01, 9.27710384e-02, -7.76927397e-02,
          -1.27161011e-01, 1.87021345e-01, 1.34136483e-01,
          -9.80666652e-02, -2.11627409e-02, 9.80666652e-02,
          2.11627409e-02, 8.43961835e-02, 2.11840030e-02, 8.45657438e-02,
          2.14002412e-02, 2.51927972e-01, -4.54650111e-02,
          2.57738680e-01, 9.23758373e-02, -1.45340696e-01,
          -2.12369710e-01, 1.51680514e-01, 2.12369710e-01,
          -8.12761188e-02, -1.58696994e-02, 8.12761188e-02,
          1.58696994e-02, 1.24320406e-02, 1.67532580e-03, 1.24320406e-02,
          1.87850138e-03, 1.33178523e-02, 7.18424609e-03, 1.75800622e-02,
          7.83887599e-03, -1.66347735e-02, 1.41524412e-02,
          1.69254076e-02, 1.41930543e-02, -1.11921681e-02,
          1.14782888e-03, 1.11921681e-02, 1.22708746e-03,
          -1.44437095e-03, -9.46250744e-03, 2.85282684e-03,
          9.46250744e-03, -7.09736124e-02, -3.27080004e-02,
          7.09736124e-02, 3.27080004e-02, 3.94357406e-02, 6.12185430e-03,
          4.55031209e-02, 7.86068384e-03, 1.01632411e-02, 2.17885521e-04,
          1.01632411e-02, 9.87047795e-04, -2.10917126e-02,
          -5.79266017e-03, 2.16981228e-02, 1.33457920e-02,
          -2.94674009e-01, -6.71892166e-02, 2.94674009e-01,
          8.22095945e-02, 4.01637375e-01, 1.10602742e-02, 4.01637375e-01,
          3.53272893e-02, 5.19958101e-02, 4.48631076e-03, 5.22414558e-02,
          5.10709034e-03, -1.93254147e-02, 4.59658215e-03,
          2.15218831e-02, 6.52585132e-03, -3.04836899e-01,
          8.48649368e-02, 3.04836899e-01, 8.48649368e-02, 3.48811805e-01,
          -4.25383300e-02, 3.51120353e-01, 8.19035992e-02,
          5.25523946e-02, -3.00366115e-02, 5.25523946e-02,
          3.04961223e-02, -7.70744984e-04, -2.30679405e-04,
          1.34279393e-03, 3.98283126e-04, -4.52673174e-02,
          1.30252149e-02, 4.52673174e-02, 1.30252149e-02,
          -1.72429963e-03, -2.01866347e-02, 2.30003782e-02,
          2.24569030e-02, 5.43749146e-03, -9.83519107e-03,
          5.43749146e-03, 9.99076385e-03, -4.73650638e-03,
          -2.97093089e-03, 4.73650638e-03, 2.97093089e-03,
          8.32622405e-03, 1.61245428e-02, 1.98388901e-02, 2.25098580e-02,
          4.11891341e-02, 4.89204936e-02, 4.11891341e-02, 4.90468219e-02,
          5.13389986e-03, 5.78927156e-03, 5.13389986e-03, 5.78927156e-03,
          -1.10654486e-02, -1.68322083e-02, 1.75120216e-02,
          1.68322083e-02, 3.56277257e-01, 1.18998460e-01, 3.57029974e-01,
          1.29124343e-01, 2.13032797e-01, 1.78556934e-01, 2.17950866e-01,
          1.78556934e-01, 9.47783119e-04, -5.41962043e-04,
          8.05794168e-03, 6.97789947e-03, -1.70509724e-04,
          1.16401538e-03, 1.20036034e-02, 1.19228996e-02, 4.20589775e-01,
          -1.17771655e-01, 4.20589775e-01, 1.26945183e-01,
          2.52144963e-01, -9.16094184e-02, 2.58265018e-01,
          1.19380258e-01, -1.49742346e-02, 3.88696417e-03,
          1.49742346e-02, 1.34774214e-02, 8.22183094e-04, 6.58110774e-04,
          1.03786669e-03, 1.25185098e-03, 1.97452214e-02,
          -9.45838355e-03, 1.98163204e-02, 1.31113781e-02,
          4.13040482e-02, -5.06745316e-02, 4.13544811e-02,
          5.08008637e-02, -1.26240111e-03, -8.60989280e-03,
          1.87286094e-03, 8.60989280e-03, 2.70379731e-03, 7.68662954e-04,
          2.90987967e-03, 7.69095786e-04, 2.31305324e-03, 6.25510607e-03,
          8.39958433e-03, 6.92408299e-03, 5.29136136e-02, 4.38264236e-02,
          5.29405847e-02, 4.38264236e-02, 2.02534208e-03, 7.18245469e-03,
          2.52056518e-03, 7.18245469e-03, 2.08108705e-02,
          -3.07562550e-05, 2.17633564e-02, 2.46084621e-03,
          1.40578613e-01, 9.97638106e-02, 1.46019191e-01, 9.97638106e-02,
          4.67575371e-01, 1.14810884e-01, 4.67575371e-01, 1.14810884e-01,
          -5.12780668e-03, 6.40925532e-03, 1.01277698e-02,
          9.29956418e-03, 1.79410968e-02, -6.96578529e-04,
          1.97285563e-02, 4.46037017e-03, 1.36110216e-01,
          -1.01192400e-01, 1.36110216e-01, 1.17730513e-01,
          3.80671084e-01, -2.28276312e-01, 3.80671084e-01,
          2.28276312e-01, -6.27185125e-03, -3.43071632e-02,
          8.92525073e-03, 3.43071632e-02, -1.30345009e-03,
          2.48094019e-03, 1.30345009e-03, 2.48094019e-03, 1.58280076e-03,
          -9.79726762e-03, 7.35598570e-03, 1.69909131e-02,
          2.17035301e-02, -4.70737964e-02, 2.24299710e-02,
          4.70737964e-02, 1.64103718e-03, -1.05048949e-02,
          1.64103718e-03, 1.05048949e-02, -5.42850047e-03,
          2.10585678e-03, 5.42850047e-03, 2.10585678e-03,
          -1.17184157e-02, -3.67979240e-03, 1.18214851e-02,
          5.87087311e-03, 1.29645765e-02, 1.32873766e-02, 2.13026255e-02,
          1.71956904e-02, 1.14214013e-03, 2.55945232e-03, 1.57791690e-03,
          2.60277977e-03, -6.68216348e-02, 2.36322936e-02,
          6.68216348e-02, 2.36322936e-02, 1.95514131e-03, 7.61270374e-02,
          1.70102432e-01, 8.82311761e-02, 2.53463000e-01, 2.45050013e-01,
          2.67238468e-01, 2.48427570e-01, 1.76094621e-02, 6.81957304e-02,
          2.21406408e-02, 6.81957304e-02, -8.26819465e-02,
          3.59021313e-02, 8.26819465e-02, 3.59021313e-02,
          -6.97773769e-02, 1.30333416e-02, 2.99374312e-01,
          1.09607451e-01, 4.84443545e-01, -2.23392285e-02,
          4.84443545e-01, 1.30636245e-01, 1.12327047e-01, 8.67055431e-02,
          1.12327047e-01, 8.68546143e-02, -1.18995989e-02,
          7.09810265e-05, 1.18995989e-02, 1.34990283e-03,
          -5.25070876e-02, -9.34270583e-03, 5.25070876e-02,
          1.09993843e-02, 9.93325412e-02, -2.96994057e-02,
          9.93325412e-02, 2.96994057e-02, 1.80297606e-02,
          -6.52820338e-03, 1.80770066e-02, 6.52820338e-03,
          -2.58375378e-03, 9.72831680e-04, 2.61003664e-03,
          9.72831680e-04, 3.10506150e-02, 1.40252791e-03, 3.19954306e-02,
          2.91858404e-03, 5.75621165e-02, 5.27473516e-04, 5.75621165e-02,
          1.74036575e-03, 1.62773344e-04, 3.83299193e-05, 1.06677413e-03,
          1.34408765e-04, -2.91723199e-02, 5.56599349e-03,
          2.95745078e-02, 5.56599349e-03, 2.50336409e-01, 1.06477011e-02,
          2.67815202e-01, 1.99987236e-02, 3.84770274e-01, 6.35306314e-02,
          3.84770274e-01, 6.35306314e-02, -4.36957506e-03,
          8.13120278e-04, 8.03860836e-03, 1.27328432e-03,
          -3.98504920e-02, 5.94021985e-03, 4.08522524e-02,
          5.97329857e-03, 2.57443190e-01, -6.58562258e-02,
          3.17234725e-01, 6.66791350e-02, 4.22264040e-01,
          -2.80547496e-02, 4.22264040e-01, 3.37106399e-02,
          -8.85793287e-03, 2.39043104e-04, 8.85793287e-03,
          1.90790847e-03, -7.04626273e-03, 1.28913508e-03,
          7.30756437e-03, 1.28913508e-03, 2.80592274e-02,
          -2.79782386e-03, 4.66411412e-02, 5.38863195e-03,
          6.87150657e-02, -8.08932353e-03, 6.87150657e-02,
          8.08932353e-03, -8.44003749e-04, 2.39576577e-04,
          1.02199137e-03, 3.45357636e-04, 6.76364696e-04,
          -8.36983230e-03, 7.86158373e-04, 8.36983230e-03,
          4.80653299e-03, -4.03231643e-02, 5.83565887e-03,
          4.03708480e-02, 3.01539875e-03, -1.96702145e-02,
          4.53004427e-03, 2.01538540e-02, 4.45372891e-04,
          -2.48125114e-04, 4.72857268e-04, 3.01625405e-04,
          9.84191243e-03, -4.05302532e-02, 9.84191243e-03,
          4.11660783e-02, 7.33819455e-02, -3.72420490e-01,
          7.74671435e-02, 3.72420490e-01, 3.06233615e-01,
          -2.58242786e-01, 3.06233615e-01, 2.58242786e-01,
          1.14744799e-02, -2.86841742e-03, 2.11009067e-02,
          3.93209374e-03, -9.78201441e-03, 4.18368503e-02,
          1.15255006e-02, 4.18368503e-02, -1.55349541e-03,
          1.89162880e-01, 6.37740940e-02, 1.89162880e-01, 3.72223347e-01,
          1.04397036e-01, 3.72223347e-01, 1.08559325e-01, 2.71160505e-03,
          -8.93470459e-03, 2.44934522e-02, 9.27360822e-03,
          -3.70219769e-03, -2.88485992e-03, 3.74880037e-03,
          2.88485992e-03, 8.09542742e-03, -5.48728742e-03,
          1.37782404e-02, 7.81340618e-03, 2.75321901e-02,
          -2.52295914e-03, 2.75321901e-02, 5.49963582e-03,
          1.29216618e-03, -1.36386615e-03, 1.73481263e-03,
          1.62969646e-03 ]
      - [ -2.78292864e-04, -9.39459074e-03, 1.41380215e-03,
          9.39459074e-03, 3.21274810e-02, -5.46816848e-02,
          3.21274810e-02, 5.46816848e-02, 1.29709365e-02,
          -1.55541496e-02, 1.70961432e-02, 1.71710476e-02,
          -1.97354425e-03, 1.22681167e-03, 1.98858418e-03,
          1.22681167e-03, -7.68541126e-03, -1.73069481e-02,
          1.02100354e-02, 1.99174602e-02, 2.84824908e-01,
          -1.60021067e-01, 2.84824908e-01, 1.66313350e-01,
          3.56077194e-01, -1.09102175e-01, 3.56077194e-01,
          1.09472148e-01, -5.09496778e-03, 4.66378126e-03,
          9.03975870e-03, 4.66378126e-03, -1.36188380e-02,
          6.08337857e-03, 1.74968056e-02, 7.19229877e-03, 3.03265303e-01,
          8.48603696e-02, 3.03265303e-01, 8.48603696e-02, 3.65946651e-01,
          9.76759568e-02, 3.65946651e-01, 9.76759568e-02,
          -2.61110812e-03, 1.03899627e-03, 7.00045889e-03,
          1.62452285e-03, -1.15548633e-03, 9.40101314e-03,
          1.30378024e-03, 9.40101314e-03, 4.18380462e-02, 4.63043600e-02,
          4.20596674e-02, 4.63043600e-02, 3.44791710e-02, 1.59002598e-02,
          3.44791710e-02, 1.59002598e-02, -1.29026629e-03,
          1.69865991e-04, 1.29026629e-03, 2.01644449e-04,
          -6.52653922e-04, -6.98998151e-03, 1.25745230e-03,
          6.98998151e-03, 3.72077003e-02, -3.90320942e-02,
          3.72077003e-02, 3.90320942e-02, 3.44588794e-02,
          -1.69455558e-02, 3.45508456e-02, 1.71026308e-02,
          -5.80471999e-04, 7.94201158e-04, 7.16202776e-04,
          7.94201158e-04, -4.60447138e-03, 5.17420797e-03,
          1.09784026e-02, 1.43233566e-02, 2.21995175e-01,
          -1.02529369e-01, 2.22846851e-01, 1.03381060e-01,
          3.72059822e-01, -1.12948634e-01, 3.72059822e-01,
          1.12948634e-01, 8.09727237e-03, -6.10237708e-03,
          9.05090757e-03, 7.12331897e-03, -2.25820411e-02,
          2.18504500e-02, 2.27298923e-02, 2.18504500e-02, 2.19253629e-01,
          2.32598215e-01, 2.36578658e-01, 2.32598215e-01, 3.36675137e-01,
          2.33200207e-01, 3.36675137e-01, 2.34051898e-01, 2.75216415e-03,
          1.19823199e-02, 7.26354169e-03, 1.60927176e-02,
          -8.12038998e-05, 7.23448209e-03, 1.11410581e-03,
          7.23448209e-03, 4.67824973e-02, 5.86359277e-02, 4.67824973e-02,
          5.90659715e-02, 2.90492829e-02, 4.55185883e-02, 2.90492829e-02,
          4.67992350e-02, -1.45497220e-03, 6.34097587e-03,
          1.53779099e-03, 6.38415245e-03, -6.56346744e-03,
          -1.00865569e-02, 6.56346744e-03, 1.00865569e-02,
          3.65596749e-02, -9.70599577e-02, 3.95157374e-02,
          9.70599577e-02, 5.26893921e-02, -8.61387551e-02,
          5.36728725e-02, 8.61387551e-02, 1.13343829e-02, 8.05231452e-04,
          1.13619892e-02, 2.89531169e-03, -3.60869989e-02,
          -2.14435421e-02, 3.60869989e-02, 2.14435421e-02,
          2.84972936e-01, 2.75215898e-02, 3.04068297e-01, 1.18923016e-01,
          2.99918056e-01, -6.10625558e-02, 2.99918056e-01,
          1.32164896e-01, 1.60290137e-01, -1.54910143e-02,
          1.60290137e-01, 1.94991846e-02, -3.12459525e-02,
          3.47316712e-02, 3.12459525e-02, 3.47316712e-02, 2.48508677e-01,
          9.57418531e-02, 2.50413537e-01, 1.74223766e-01, 3.18628669e-01,
          1.33673161e-01, 3.18628669e-01, 2.13175029e-01, 1.33679107e-01,
          1.80376470e-02, 1.33679107e-01, 2.89422106e-02,
          -4.38550534e-03, 1.29786842e-02, 4.38550534e-03,
          1.29786842e-02, 1.59720164e-02, 9.36860368e-02, 1.77000090e-02,
          9.36860368e-02, 6.57202005e-02, 8.03941935e-02, 6.57202005e-02,
          8.03941935e-02, 9.91745479e-03, 8.36692285e-03, 9.91745479e-03,
          8.36692285e-03, 7.89773476e-04, -5.71492128e-03,
          1.17399846e-03, 5.71492128e-03, 6.78761676e-02,
          -2.97917668e-02, 6.78761676e-02, 2.97917668e-02,
          3.48175578e-02, -2.11421028e-02, 3.92588302e-02,
          2.15289555e-02, -4.54911077e-03, -4.53989813e-03,
          4.61554108e-03, 4.53989813e-03, 1.11995293e-02, 1.82280783e-02,
          1.17237661e-02, 2.37866454e-02, 3.86974126e-01,
          -4.22075838e-02, 3.86974126e-01, 1.15928248e-01,
          2.13242128e-01, -1.63722262e-01, 2.39222571e-01,
          1.64541230e-01, -1.52169145e-03, -3.11816856e-03,
          1.57974232e-02, 1.50946211e-02, 1.29631599e-02, 1.27473678e-02,
          1.32063515e-02, 1.33666741e-02, 2.78175950e-01, 1.67268887e-01,
          2.78994948e-01, 1.67268887e-01, 2.61621714e-01, 2.54193753e-01,
          2.61621714e-01, 2.54193753e-01, 2.62504071e-02, 4.86766808e-02,
          2.62504071e-02, 4.86766808e-02, 9.38414189e-04, 8.66912119e-03,
          1.39565684e-03, 8.66912119e-03, 6.65780678e-02, 6.96293265e-02,
          6.65780678e-02, 6.96293265e-02, 3.68216075e-02, 5.75767010e-02,
          3.68347466e-02, 5.78685887e-02, 1.25138753e-03, 4.94857458e-03,
          1.76097802e-03, 5.35447290e-03, 7.22810742e-04, 7.40844553e-05,
          7.22810742e-04, 7.18783936e-04, 3.89115326e-02, 2.34956425e-02,
          3.89115326e-02, 2.34956425e-02, 5.62399216e-02, 3.20659429e-02,
          5.62399216e-02, 3.42740789e-02, 2.24421942e-03,
          -2.39086384e-03, 3.25469230e-03, 4.55102138e-03,
          1.63464993e-02, 1.88208523e-03, 1.63464993e-02, 3.72988638e-03,
          4.15758938e-01, 1.30770177e-01, 4.15758938e-01, 1.30770177e-01,
          -1.17146978e-02, -1.53587176e-03, 1.82076797e-01,
          1.21777348e-01, -3.28764468e-02, -5.45466170e-02,
          3.28764468e-02, 5.45466170e-02, 1.13327010e-02,
          -5.68101835e-03, 1.13327010e-02, 6.32613385e-03,
          3.84336144e-01, -2.41574764e-01, 3.84336144e-01,
          2.41574764e-01, 6.51859194e-02, -1.44751817e-01,
          2.00780883e-01, 2.24084109e-01, -2.22496334e-02,
          5.71385212e-02, 2.86188740e-02, 5.78238666e-02, 3.30272131e-04,
          -8.19472538e-04, 3.30272131e-04, 8.19472538e-04,
          1.12207094e-02, -2.65721977e-02, 1.35518489e-02,
          2.66451370e-02, 4.14498076e-02, -6.72180504e-02,
          4.15590256e-02, 6.72180504e-02, 5.42646460e-03,
          -1.00437962e-02, 5.57809835e-03, 1.00437962e-02,
          6.82197418e-03, -3.52857693e-04, 7.20811216e-03,
          1.10603950e-03, 1.95575450e-02, 1.73775833e-02, 2.87957992e-02,
          1.73775833e-02, 1.43068135e-02, -1.25773170e-06,
          2.41396073e-02, 1.34548228e-02, 9.39488411e-03, 7.27447274e-04,
          1.00282272e-02, 3.19885043e-03, 6.29891604e-02, 9.57568549e-03,
          6.71244413e-02, 1.19683174e-02, 2.67897636e-01, 1.08119316e-01,
          2.89296478e-01, 1.33885145e-01, -2.57005740e-04,
          3.10872555e-01, 9.01055411e-02, 3.10872555e-01, 6.60460768e-03,
          -1.39177823e-02, 2.92597674e-02, 2.50869635e-02,
          2.28727665e-02, 4.94783511e-03, 2.65503265e-02, 9.65894107e-03,
          4.72550154e-01, -1.32845491e-01, 4.72550154e-01,
          1.32845491e-01, 1.47692099e-01, 1.28806025e-01, 1.81246579e-01,
          1.38667971e-01, -3.83181721e-02, 4.74372879e-02,
          3.87406610e-02, 4.77066152e-02, 3.80587648e-04,
          -1.29487447e-03, 8.75850732e-04, 1.29487447e-03,
          7.36438781e-02, -7.13144941e-03, 7.36438781e-02,
          7.13144941e-03, 6.17909096e-02, 6.22694707e-03, 6.17909096e-02,
          9.09062941e-03, -4.57817130e-03, 2.46959319e-03,
          5.26591437e-03, 3.69550916e-03, -2.09228545e-02,
          -9.13720857e-03, 2.09311675e-02, 9.14884824e-03,
          -6.78554997e-02, -1.15297297e-02, 7.27413371e-02,
          1.82631947e-02, 4.40496951e-02, 4.41601686e-02, 4.43605334e-02,
          4.42637801e-02, -5.15483366e-03, 1.02455821e-02,
          5.15483366e-03, 1.02472454e-02, -1.03827387e-01,
          -4.86214273e-02, 1.03827387e-01, 4.86214273e-02,
          -2.29871929e-01, 1.66715253e-02, 2.96841532e-01,
          8.38795155e-02, 5.11251330e-01, -1.73301809e-02,
          5.11251330e-01, 8.15620050e-02, 2.07217364e-03, 3.13099995e-02,
          3.16977277e-02, 3.59100588e-02, -5.38971722e-02,
          -2.18169019e-02, 5.38971722e-02, 2.30533555e-02,
          -1.01033598e-01, 1.60282165e-01, 1.10722937e-01,
          1.71510532e-01, 2.89057732e-01, 1.51464948e-02, 2.91635364e-01,
          1.01247847e-01, 5.93941398e-02, -1.61677841e-02,
          6.00067265e-02, 2.03730762e-02, -3.57759674e-03,
          -4.27889451e-03, 4.71062446e-03, 4.27889451e-03,
          1.09981373e-02, 7.66160293e-03, 1.82550233e-02, 1.36873247e-02,
          2.12549535e-03, 1.38489064e-02, 1.47586679e-02, 1.83966607e-02,
          7.99748860e-03, -4.14478639e-03, 7.99748860e-03,
          4.14478639e-03, 4.04760707e-03, -5.59942424e-03,
          4.04760707e-03, 5.59942424e-03, 1.72637776e-02,
          -3.57255936e-02, 2.25919634e-02, 3.57255936e-02,
          -1.60789192e-02, -2.38427613e-02, 1.60789192e-02,
          2.38427613e-02, 2.97293020e-03, -2.70150998e-03,
          2.97293020e-03, 2.70150998e-03, 1.77599322e-02,
          -2.34755687e-03, 1.77599322e-02, 6.48549711e-03,
          3.26377809e-01, 1.34354189e-01, 3.26377809e-01, 1.58042774e-01,
          -2.01290622e-01, 2.14664370e-01, 2.01290622e-01,
          2.20693603e-01, 1.76603664e-02, 4.65625012e-03, 2.13085320e-02,
          1.03551056e-02, 1.78338252e-02, -4.08139732e-03,
          1.78811923e-02, 4.08139732e-03, 4.68697220e-01,
          -9.71330926e-02, 4.68697220e-01, 1.22713797e-01,
          -1.40402928e-01, 4.58963923e-02, 1.89147174e-01,
          1.61755711e-01, -7.36245280e-03, 2.49652565e-02,
          1.48361372e-02, 2.51328219e-02, 1.33551518e-03, 4.01550642e-04,
          1.37406774e-03, 4.14710899e-04, 3.94893587e-02,
          -2.51786839e-02, 3.97266597e-02, 2.55060755e-02,
          7.01686973e-03, -5.89305535e-02, 9.89030767e-03,
          5.89305535e-02, 1.11688906e-03, -5.30470582e-03,
          1.62643322e-03, 5.30470582e-03, 9.24671628e-03,
          -4.32831747e-03, 9.24671628e-03, 4.32831747e-03,
          -2.95114890e-03, -2.06349930e-03, 1.75636001e-02,
          1.44402441e-02, -1.58501342e-02, 7.00371265e-02,
          3.09751295e-02, 7.00371265e-02, -1.68367848e-02,
          1.52440015e-02, 1.68367848e-02, 1.52458912e-02, 6.44690320e-02,
          1.61177486e-05, 6.44690320e-02, 5.60351089e-03, 5.60782813e-02,
          -2.66250758e-03, 1.01257585e-01, 1.01869591e-01,
          3.37856084e-01, -2.32084971e-02, 4.24070209e-01,
          1.44189999e-01, -1.73883855e-01, -3.67438123e-02,
          1.73883855e-01, 7.14694485e-02, 9.03076455e-02,
          -7.44256377e-03, 9.03076455e-02, 9.29274410e-03,
          7.47568160e-02, 1.07297413e-01, 1.09820396e-01, 2.09574223e-01,
          -7.97831863e-02, -1.57155275e-01, 3.45414758e-01,
          2.69002408e-01, -2.84826666e-01, -1.36340007e-01,
          2.84826666e-01, 1.36340007e-01, 1.14246756e-02,
          -4.54859296e-03, 1.14246756e-02, 4.57530329e-03,
          1.46768754e-03, -8.42837617e-02, 1.27624301e-02,
          8.42837617e-02, -8.50750580e-02, -1.16610222e-01,
          8.50750580e-02, 1.16610222e-01, -4.42876555e-02,
          -2.08560079e-02, 4.42876555e-02, 2.08560079e-02,
          -2.81152246e-03, -6.41862163e-03, 2.81152246e-03,
          6.41862163e-03, 3.32113691e-02, -2.84006563e-03,
          3.38934325e-02, 1.75152160e-02, 3.94776948e-02, 1.92565750e-02,
          3.94776948e-02, 1.97076108e-02, 1.48298498e-03, 1.40458433e-04,
          1.68071606e-03, 2.00373656e-03, 1.93412956e-02,
          -2.07473543e-02, 2.95547042e-02, 2.07473543e-02,
          4.79064703e-01, 8.70069861e-02, 4.79064703e-01, 1.02793656e-01,
          8.28602836e-02, 2.67430153e-02, 1.19667254e-01, 6.67690113e-02,
          -1.04959738e-02, -1.32117029e-02, 1.06228692e-02,
          1.43771525e-02, 4.48903814e-02, -6.95227599e-03,
          4.59946990e-02, 6.95227599e-03, 4.59558368e-01,
          -9.49099585e-02, 4.59558368e-01, 9.49099585e-02,
          9.62855145e-02, -6.35023862e-02, 1.05690517e-01,
          7.40363523e-02, -1.27313379e-03, 1.73060782e-02,
          6.86041918e-03, 1.73060782e-02, 4.86599375e-03,
          -1.58894167e-03, 4.86599375e-03, 1.61952025e-03,
          6.61908016e-02, -2.03586463e-02, 6.61908016e-02,
          2.03586463e-02, 3.38877812e-02, -3.13246693e-03,
          3.38877812e-02, 5.26845269e-03, 3.02863703e-03, 1.49749429e-03,
          3.03748669e-03, 1.49749429e-03, -3.63830128e-04,
          1.60701849e-04, 5.27957280e-04, 1.96438094e-04, 3.94952297e-02,
          -6.11433713e-03, 3.94952297e-02, 6.23039901e-03,
          6.47086129e-02, -5.58458781e-03, 6.47086129e-02,
          7.85272382e-03, 1.80297636e-03, 9.14923614e-04, 1.89918617e-03,
          9.80231562e-04, -6.61521079e-03, 2.36912165e-02,
          7.27190124e-03, 2.36912165e-02, 1.26200840e-01, 5.91988750e-02,
          1.47901252e-01, 9.45794210e-02, 4.93369758e-01,
          -1.05653122e-01, 4.93369758e-01, 1.05653122e-01,
          2.34202780e-02, 1.93036496e-04, 2.62133125e-02, 4.36330913e-03,
          -8.91191047e-03, 4.42885123e-02, 8.98548774e-03,
          4.42885123e-02, -1.78469252e-02, 3.10863078e-01,
          5.09835891e-02, 3.10863078e-01, 3.07118326e-01, 1.20106161e-01,
          3.07118326e-01, 1.41267270e-01, 3.16670761e-02,
          -1.98732782e-02, 3.21782716e-02, 1.98984165e-02,
          -6.68943976e-04, 3.27675283e-04, 7.13442045e-04,
          9.14898934e-04, -6.18833466e-04, 6.90154824e-03,
          2.77969963e-03, 1.00514852e-02, 6.47363393e-03, 3.18504544e-03,
          6.47363393e-03, 7.18030659e-03, 1.27972430e-03,
          -2.78183911e-03, 1.27972430e-03, 2.78183911e-03,
          -1.18362484e-03, -5.24987420e-03, 1.32462964e-03,
          5.24987420e-03, 4.70105223e-02, -4.12620511e-03,
          4.78147790e-02, 1.24335568e-02, 4.87039275e-02, 5.40163694e-03,
          4.87039275e-02, 6.85993070e-03, -1.27810461e-03,
          7.74461078e-05, 1.31557533e-03, 4.09847795e-04, 7.22651510e-03,
          8.84546724e-04, 7.79188471e-03, 5.57082379e-03, 3.93668532e-01,
          5.88917099e-02, 3.93668532e-01, 5.97764924e-02, 3.02051127e-01,
          4.59824279e-02, 3.03530008e-01, 4.59824279e-02,
          -1.01589747e-02, 5.19444002e-03, 1.01731727e-02,
          5.19444002e-03, 9.14632902e-03, -6.43255422e-03,
          1.29525801e-02, 6.67622359e-03, 4.11451429e-01,
          -1.59969758e-02, 4.11451429e-01, 2.67883036e-02,
          2.48733103e-01, -8.57378691e-02, 2.48733103e-01,
          8.57378691e-02, -5.42126596e-03, -1.26930205e-02,
          5.46386046e-03, 1.26930205e-02, 2.10341089e-03, 6.00533909e-04,
          2.93746940e-03, 6.00533909e-04, 5.16069420e-02, 4.95610479e-03,
          5.16069420e-02, 4.95610479e-03, 2.54960265e-02,
          -4.12635086e-03, 2.55568679e-02, 5.55883953e-03,
          1.60294203e-05, -1.30554126e-03, 6.14841338e-05,
          1.30554126e-03, 2.47574132e-03, -4.06274310e-04,
          3.47405788e-03, 4.08940978e-04, 5.18248193e-02,
          -3.02716182e-03, 5.18248193e-02, 4.04600985e-03,
          -2.84553226e-02, -6.23937789e-03, 3.19770277e-02,
          6.23937789e-03, -7.82640371e-03, -1.13648479e-03,
          7.82640371e-03, 1.13648479e-03, 1.86280273e-02,
          -1.73893152e-03, 2.61762049e-02, 2.29891832e-03,
          3.71284544e-01, 4.45841514e-02, 3.71284544e-01, 4.45841514e-02,
          -2.63774008e-01, 1.33992210e-02, 2.67096430e-01,
          2.81558353e-02, -5.00450209e-02, -2.60655419e-03,
          5.00838049e-02, 3.60622886e-03, 2.06984747e-02,
          -7.55201280e-03, 2.94533968e-02, 7.55201280e-03,
          4.28202450e-01, -4.33681644e-02, 4.28202450e-01,
          4.57848161e-02, -2.92972118e-01, 2.76157651e-02,
          2.98224032e-01, 3.09381932e-02, -5.20885661e-02,
          3.02577100e-04, 5.25568500e-02, 2.16515898e-03, 2.21528905e-03,
          -3.41240113e-04, 3.74827441e-03, 3.73374205e-04,
          6.28623813e-02, -1.37652634e-02, 6.28623813e-02,
          1.37652634e-02, -2.78338157e-02, -8.81764665e-03,
          3.78481112e-02, 1.04697831e-02, -8.22908152e-03,
          2.06554454e-04, 8.38477071e-03, 5.15423773e-04, 5.16713713e-04,
          -1.94946001e-03, 7.10626366e-04, 1.94946001e-03,
          -8.12597293e-03, -2.00292915e-02, 8.78299493e-03,
          2.00292915e-02, 6.53481204e-03, -2.61366684e-02,
          8.04975722e-03, 2.61366684e-02, 5.27331140e-03, 3.38833593e-03,
          5.35989460e-03, 3.38833593e-03, -7.31839938e-03,
          -2.53877770e-02, 8.12240317e-03, 2.53877770e-02,
          -1.47257417e-01, -3.03351909e-01, 1.47257417e-01,
          3.03351909e-01, 2.81941175e-01, -7.60214031e-02,
          2.81941175e-01, 1.85963139e-01, 7.50651443e-03,
          -2.88815759e-02, 4.87487540e-02, 3.26438285e-02,
          -6.56698877e-03, -7.09533272e-03, 7.43013155e-03,
          1.51943723e-02, -1.17718160e-01, 1.23322504e-02,
          1.83097407e-01, 1.54066250e-01, 3.87194037e-01,
          -1.04032703e-01, 4.28171039e-01, 1.72320649e-01,
          -1.51907369e-01, -1.31842732e-01, 1.51907369e-01,
          1.31842732e-01, 6.86084852e-04, 4.99617355e-03, 3.01910727e-03,
          5.10091614e-03, -2.50629969e-02, 2.57925782e-02,
          2.50629969e-02, 2.99955066e-02, -9.02592838e-02,
          -8.25682133e-02, 9.02592838e-02, 8.25682133e-02,
          -3.86880748e-02, -3.77917960e-02, 3.86880748e-02,
          3.77917960e-02, -1.61085126e-03, 3.20983515e-03,
          2.87218345e-03, 6.90597855e-03, -2.60281824e-02,
          1.61058456e-02, 2.69434527e-02, 1.92249045e-02, 9.53998324e-03,
          -9.62938555e-03, 1.08533772e-02, 1.53840771e-02,
          2.16885610e-03, -1.95375830e-03, 2.24999478e-03,
          1.97483459e-03, 4.67120893e-02, -1.20405659e-01,
          4.88093570e-02, 1.20405659e-01, 1.69979811e-01,
          -7.68190995e-03, 2.49407172e-01, 2.11631149e-01,
          -2.92037893e-02, 2.37194136e-01, 4.98494506e-02,
          2.37194136e-01, 1.73956603e-02, 1.66213717e-02, 1.73956603e-02,
          1.68932155e-02, 9.14434567e-02, 1.40494499e-02, 9.14434567e-02,
          4.97177206e-02, 5.73021948e-01, 4.37817574e-02, 5.73021948e-01,
          9.69382599e-02, -6.43189996e-02, 5.51301539e-02,
          7.35564977e-02, 8.28296468e-02, 1.19781226e-03, 6.85043074e-03,
          1.19781226e-03, 6.85043074e-03, 7.30387541e-03, 1.37344366e-02,
          7.30387541e-03, 1.37344366e-02, 3.56332883e-02, 1.92901511e-02,
          3.56332883e-02, 2.00471822e-02, -4.49032756e-04,
          -2.30130344e-03, 4.23091929e-03, 5.67413960e-03,
          4.54606234e-05, 4.46493999e-04, 2.55546969e-04, 4.46493999e-04 ]
      - [ 1.24715094e-03, -1.17315399e-03, 1.24715094e-03,
          1.17315399e-03, 4.02877331e-02, -2.58761458e-03,
          4.02877331e-02, 1.01567712e-02, 4.30877991e-02,
          -8.98554735e-03, 4.30877991e-02, 1.30522670e-02,
          -5.77050960e-04, -2.07751407e-03, 1.44447642e-03,
          2.07751407e-03, 1.78195350e-02, 8.33488128e-04, 1.78195350e-02,
          4.47402522e-03, 3.62935603e-01, 1.04111731e-01, 3.62935603e-01,
          1.08402684e-01, 1.88724637e-01, 1.46469384e-01, 1.88724637e-01,
          1.46469384e-01, -9.29300208e-03, 5.88581897e-03,
          9.83415730e-03, 6.73889276e-03, 1.06145451e-02,
          -5.50547056e-03, 1.09439557e-02, 5.96701168e-03,
          4.41760689e-01, -1.61559135e-01, 4.41760689e-01,
          1.61559135e-01, 2.20727175e-01, -9.33906585e-02,
          2.38385573e-01, 1.43764183e-01, -2.15349197e-02,
          -1.07356021e-02, 2.15349197e-02, 1.20911757e-02, 0., 0., 0.,
          0., 3.35735232e-02, -2.38456223e-02, 3.35735232e-02,
          2.38456223e-02, 3.88266146e-02, -5.54989129e-02,
          3.88266146e-02, 5.54989129e-02, -1.05300790e-03,
          -5.68294572e-03, 1.66789570e-03, 5.68294572e-03,
          4.73369099e-03, 2.81252456e-03, 4.73369099e-03, 2.81387358e-03,
          -8.24137777e-03, 5.65154292e-02, 1.34741236e-02,
          5.65154292e-02, -2.88999695e-02, 8.28638226e-02,
          2.88999695e-02, 8.28638226e-02, -2.75234086e-03,
          1.08572301e-02, 2.79296283e-03, 1.08572301e-02, 5.77741750e-02,
          2.98466813e-03, 5.77741750e-02, 1.09260548e-02, 2.11171165e-01,
          2.15458289e-01, 2.11171165e-01, 2.17549622e-01,
          -8.39673206e-02, 4.26702768e-01, 1.14480227e-01,
          4.26702768e-01, -3.97740304e-02, 6.57612607e-02,
          3.97740304e-02, 6.57612607e-02, 6.89413920e-02,
          -2.79600341e-02, 6.89413920e-02, 2.79600341e-02,
          3.55587423e-01, -1.60686657e-01, 3.55587423e-01,
          1.60686657e-01, 3.17805558e-02, -1.02537975e-01,
          1.18222103e-01, 1.51617870e-01, -3.97682972e-02,
          -4.42666840e-03, 3.97682972e-02, 2.15796996e-02,
          8.06761067e-03, -6.66126143e-03, 8.06761067e-03,
          6.66126143e-03, 5.02996519e-02, -6.24204688e-02,
          5.02996519e-02, 6.24204688e-02, 7.10306223e-03,
          -7.24814236e-02, 1.44006908e-02, 7.24814236e-02,
          -4.22093598e-03, -9.57841892e-03, 4.22093598e-03,
          9.57841892e-03, 4.67051007e-03, 5.29972313e-04, 4.67051007e-03,
          5.29972313e-04, 2.28510927e-02, 6.77186390e-03, 2.28510927e-02,
          9.73047502e-03, 4.72388342e-02, 2.49877460e-02, 4.72388342e-02,
          2.66068261e-02, 2.41131685e-03, 3.64684546e-03, 2.41131685e-03,
          3.64684546e-03, 2.85591166e-02, 6.43827021e-03, 2.85591166e-02,
          7.34223472e-03, 3.47509742e-01, 1.53490007e-01, 3.47509742e-01,
          1.58417150e-01, 3.17134649e-01, 1.86088681e-01, 3.17134649e-01,
          1.86088681e-01, 2.61090766e-03, 1.09950947e-02, 5.79305878e-03,
          1.09950947e-02, 3.37211788e-02, 4.27956507e-03, 3.37211788e-02,
          4.27956507e-03, 3.06109577e-01, -5.50979786e-02,
          3.06109577e-01, 7.80774876e-02, 2.54749060e-01,
          -2.21252337e-01, 2.54749060e-01, 2.21252337e-01,
          4.57120780e-03, -2.02034470e-02, 8.32342356e-03,
          2.02034470e-02, 4.99046873e-03, 1.05531630e-03, 4.99046873e-03,
          1.05531630e-03, 1.56857558e-02, -5.76619990e-03,
          1.56857558e-02, 5.76619990e-03, 1.81371644e-02,
          -2.76159793e-02, 1.81371644e-02, 2.76159793e-02,
          3.24956654e-03, -5.95410168e-03, 3.24956654e-03,
          5.95410168e-03, 7.44196866e-03, -3.15212761e-03,
          7.44196866e-03, 3.15212761e-03, 6.11721389e-02,
          -3.26827727e-02, 6.11721389e-02, 3.26827727e-02,
          4.38051559e-02, -2.80836299e-02, 4.38051559e-02,
          2.80836299e-02, 9.89141641e-04, -2.13602721e-03,
          1.40703225e-03, 2.13602721e-03, 3.77583876e-02, 3.29079689e-03,
          3.77583876e-02, 1.20250257e-02, 3.73013198e-01,
          -7.63035491e-02, 3.73013198e-01, 1.00009389e-01,
          3.18848372e-01, -1.22689456e-01, 3.18848372e-01,
          1.22689456e-01, 1.53160216e-02, -1.77482776e-02,
          1.55778136e-02, 1.77482776e-02, 2.94676255e-02, 4.01539765e-02,
          2.94676255e-02, 4.01539765e-02, 2.86503166e-01, 2.10021123e-01,
          2.86503166e-01, 2.10021123e-01, 2.64528304e-01, 1.38560787e-01,
          2.64528304e-01, 1.43055677e-01, 1.59810875e-02, 1.05385818e-02,
          1.59810875e-02, 1.23705175e-02, 4.22355393e-03, 6.91910367e-03,
          4.22355393e-03, 6.91910367e-03, 3.64006832e-02, 5.50193228e-02,
          3.64006832e-02, 5.50193228e-02, 2.86423843e-02, 4.94049601e-02,
          2.86423843e-02, 4.94049601e-02, 1.34846976e-03, 6.05246518e-03,
          1.39948516e-03, 6.05246518e-03, 3.05359275e-03,
          -1.01755541e-02, 3.05359275e-03, 1.01755541e-02,
          2.51291934e-02, -7.27624297e-02, 2.51291934e-02,
          7.27624297e-02, 2.94227358e-02, -6.18795380e-02,
          2.94227358e-02, 6.18795380e-02, 6.33328920e-03,
          -4.35034558e-03, 6.33328920e-03, 4.37266519e-03,
          6.79282658e-03, -2.34223772e-02, 7.21437903e-03,
          2.34223772e-02, 1.89098909e-01, -2.04953149e-01,
          1.89098909e-01, 2.04953149e-01, 3.61836553e-01,
          -1.14508338e-01, 3.61836553e-01, 1.16709724e-01,
          6.81249276e-02, -7.14114460e-04, 6.81249276e-02,
          9.32874903e-03, 4.59744735e-03, 4.12525469e-03, 6.13050954e-03,
          8.13893229e-03, 2.29242787e-01, 7.63163045e-02, 2.29242787e-01,
          7.85176829e-02, 4.28819656e-01, 1.00512080e-01, 4.28819656e-01,
          1.00512080e-01, 6.84702173e-02, 1.09778028e-02, 6.84702173e-02,
          1.10449838e-02, 2.28855992e-03, 5.99463761e-04, 2.28855992e-03,
          8.88139941e-04, 3.26887406e-02, 8.75261426e-03, 3.26887406e-02,
          1.00026662e-02, 5.64075410e-02, -5.12047485e-03,
          5.64075410e-02, 6.51136599e-03, 8.42770096e-03,
          -1.52037526e-03, 8.42770096e-03, 1.52037526e-03,
          3.10262665e-03, -6.40160730e-03, 3.10262665e-03,
          6.40160730e-03, 2.58684158e-02, -3.54312062e-02,
          2.58684158e-02, 3.54312062e-02, 1.23769473e-02,
          -1.69808809e-02, 1.23769473e-02, 1.79829337e-02,
          3.17792903e-04, -3.79578531e-04, 7.03482132e-04,
          1.01270585e-03, 3.62101290e-03, -1.77064762e-02,
          5.96343400e-03, 1.77064762e-02, 1.53095245e-01,
          -2.68122792e-01, 1.53095245e-01, 2.68122792e-01,
          3.31296474e-01, -1.69313073e-01, 3.31296474e-01,
          1.69313073e-01, 1.13019198e-02, 1.18420331e-03, 1.68324914e-02,
          1.02402177e-02, -4.39379783e-03, -1.16271013e-02,
          4.88119898e-03, 1.16271013e-02, 2.09491268e-01, 1.46494200e-02,
          2.24643558e-01, 9.27667245e-02, 4.30913299e-01, 1.28732130e-01,
          4.34789181e-01, 1.32607982e-01, -3.67852743e-03,
          -1.01977512e-02, 1.66310109e-02, 1.01977512e-02,
          5.29219105e-05, -1.88456068e-03, 7.94046791e-05,
          1.88456068e-03, 4.11354974e-02, -2.26647742e-02,
          4.12275419e-02, 2.26647742e-02, 5.38615510e-02,
          -4.04680595e-02, 5.38615510e-02, 4.04680595e-02,
          -3.27786361e-03, -4.41517774e-03, 3.27786361e-03,
          4.41517774e-03, 3.63557570e-04, -2.18539964e-03,
