%YAML:1.0
opencv_ml_svm:
   format: 3
   svmType: ONE_CLASS
   kernel:
      type: RBF
      gamma: 2.0000000000000001e-01
   nu: 5.0000000000000003e-02
   term_criteria: { iterations:500 }
   var_count: 24
   class_count: 1
   sv_total: 618
   support_vectors:
      - [ 78., 145., 89., 15., 86., 144., 94., 21., 92., 143., 59., 23.,
          87., 141., 89., 27., 92., 140., 74., 28., 77., 140., 73., 32. ]
      - [ 64., 145., 81., 28., 54., 145., 89., 29., 59., 144., 69., 32.,
          79., 141., 76., 32., 84., 140., 90., 32., 65., 139., 89., 35. ]
      - [ 71., 149., 82., 26., 76., 146., 74., 28., 71., 144., 63., 32.,
          84., 141., 70., 32., 81., 139., 73., 32., 83., 134., 80., 36. ]
      - [ 53., 146., 51., 20., 58., 144., 65., 21., 56., 142., 54., 26.,
          62., 140., 62., 26., 64., 135., 65., 27., 76., 131., 70., 27. ]
      - [ 56., 146., 66., 26., 53., 141., 77., 26., 84., 136., 73., 30.,
          91., 134., 76., 30., 81., 134., 79., 30., 86., 133., 69., 32. ]
      - [ 68., 144., 36., 22., 66., 144., 27., 25., 64., 144., 35., 25.,
          62., 144., 40., 30., 103., 137., 42., 31., 101., 136., 58.,
          31. ]
      - [ 101., 149., 85., 37., 91., 149., 87., 43., 103., 144., 62.,
          122., 100., 144., 69., 125., 93., 144., 66., 127., 88., 138.,
          106., 132. ]
      - [ 77., 128., 103., 26., 71., 126., 102., 28., 65., 126., 101.,
          30., 67., 122., 92., 34., 65., 122., 98., 36., 81., 116., 112.,
          39. ]
      - [ 79., 145., 79., 15., 79., 140., 87., 19., 77., 140., 75., 20.,
          83., 137., 80., 23., 89., 134., 89., 26., 80., 132., 67., 28. ]
      - [ 48., 138., 67., 13., 64., 135., 67., 16., 96., 134., 76., 29.,
          54., 134., 72., 31., 52., 133., 72., 34., 76., 112., 98., 39. ]
      - [ 64., 145., 93., 44., 81., 144., 96., 47., 76., 144., 27., 52.,
          101., 137., 97., 53., 103., 132., 95., 54., 91., 128., 33.,
          55. ]
      - [ 100., 128., 88., 21., 108., 119., 68., 26., 111., 116., 70.,
          26., 106., 116., 76., 27., 106., 113., 87., 27., 108., 112.,
          88., 44. ]
      - [ 95., 106., 76., 13., 88., 104., 78., 13., 85., 103., 84., 15.,
          101., 94., 71., 16., 98., 87., 75., 16., 126., 85., 90., 16. ]
      - [ 81., 147., 76., 16., 85., 145., 81., 16., 82., 145., 86., 16.,
          46., 101., 79., 21., 48., 85., 83., 22., 58., 78., 95., 22. ]
      - [ 63., 143., 62., 25., 77., 141., 66., 26., 79., 140., 74., 26.,
          70., 138., 77., 29., 64., 137., 70., 30., 77., 135., 60., 31. ]
      - [ 48., 140., 92., 26., 102., 135., 86., 27., 54., 135., 95., 27.,
          50., 135., 79., 34., 107., 130., 89., 38., 108., 125., 91.,
          38. ]
      - [ 95., 123., 120., 30., 94., 121., 69., 34., 95., 119., 117.,
          36., 96., 117., 113., 38., 80., 115., 123., 41., 94., 113.,
          117., 47. ]
      - [ 63., 145., 74., 15., 53., 142., 93., 24., 82., 140., 97., 25.,
          87., 137., 99., 25., 85., 137., 66., 31., 82., 137., 107., 31. ]
      - [ 105., 133., 81., 23., 103., 132., 71., 24., 94., 128., 75.,
          32., 98., 125., 91., 33., 91., 125., 77., 35., 79., 122., 80.,
          39. ]
      - [ 76., 132., 73., 113., 74., 131., 51., 117., 67., 131., 40.,
          118., 55., 131., 45., 118., 52., 131., 55., 122., 55., 126.,
          50., 123. ]
      - [ 74., 144., 72., 26., 69., 144., 68., 27., 62., 142., 78., 30.,
          50., 141., 61., 34., 100., 127., 69., 34., 98., 127., 60., 36. ]
      - [ 68., 146., 93., 28., 98., 144., 84., 38., 58., 144., 87., 40.,
          56., 144., 92., 40., 105., 139., 80., 45., 102., 139., 93.,
          45. ]
      - [ 77., 144., 84., 15., 72., 144., 72., 16., 101., 128., 87., 16.,
          111., 127., 68., 21., 107., 127., 72., 23., 111., 122., 75.,
          28. ]
      - [ 78., 140., 80., 25., 65., 138., 78., 26., 78., 133., 83., 26.,
          65., 121., 87., 26., 62., 120., 85., 27., 74., 117., 76., 31. ]
      - [ 85., 133., 80., 24., 79., 130., 75., 26., 84., 127., 77., 26.,
          87., 126., 82., 26., 70., 125., 72., 30., 61., 122., 83., 31. ]
      - [ 87., 140., 83., 22., 79., 134., 77., 31., 87., 124., 90., 32.,
          91., 123., 93., 32., 69., 122., 64., 88., 69., 120., 55., 92. ]
      - [ 80., 144., 58., 26., 84., 140., 91., 26., 89., 139., 93., 26.,
          77., 139., 95., 26., 72., 139., 74., 33., 107., 136., 93., 34. ]
      - [ 73., 141., 71., 21., 67., 140., 84., 23., 69., 136., 90., 24.,
          77., 134., 82., 25., 68., 130., 85., 26., 73., 129., 66., 28. ]
      - [ 55., 143., 60., 30., 75., 140., 72., 30., 61., 140., 62., 31.,
          68., 137., 55., 33., 79., 135., 65., 33., 79., 132., 72., 34. ]
      - [ 80., 146., 95., 18., 77., 130., 96., 23., 90., 122., 94., 24.,
          96., 120., 78., 28., 88., 120., 94., 28., 68., 120., 76., 30. ]
      - [ 73., 134., 78., 31., 68., 133., 80., 31., 112., 129., 90., 35.,
          76., 129., 100., 35., 80., 128., 90., 39., 69., 128., 91., 41. ]
      - [ 115., 116., 61., 16., 84., 114., 89., 27., 81., 113., 78., 29.,
          104., 112., 80., 29., 87., 112., 89., 30., 85., 112., 94., 31. ]
      - [ 97., 144., 88., 15., 93., 144., 91., 16., 102., 141., 97., 16.,
          95., 137., 93., 24., 104., 135., 66., 25., 102., 135., 92.,
          26. ]
      - [ 98., 143., 70., 22., 66., 143., 63., 24., 90., 142., 66., 25.,
          65., 141., 69., 26., 71., 140., 73., 26., 103., 139., 75., 28. ]
      - [ 73., 144., 107., 47., 68., 144., 94., 48., 90., 139., 108.,
          51., 73., 139., 108., 104., 89., 134., 119., 104., 76., 134.,
          63., 109. ]
      - [ 60., 143., 93., 28., 90., 140., 76., 34., 69., 140., 78., 35.,
          92., 138., 106., 35., 98., 137., 88., 40., 57., 137., 111.,
          40. ]
      - [ 76., 132., 103., 34., 70., 132., 108., 35., 64., 126., 82.,
          44., 72., 94., 79., 45., 75., 93., 136., 52., 77., 92., 138.,
          52. ]
      - [ 95., 127., 79., 25., 99., 124., 87., 29., 95., 122., 75., 30.,
          102., 119., 77., 31., 99., 119., 88., 31., 97., 119., 86., 34. ]
      - [ 74., 141., 66., 24., 69., 141., 65., 26., 63., 140., 62., 28.,
          67., 135., 59., 29., 80., 133., 69., 29., 87., 130., 68., 33. ]
      - [ 50., 137., 76., 33., 105., 134., 79., 34., 94., 132., 81., 35.,
          76., 132., 72., 37., 63., 132., 86., 39., 59., 130., 88., 39. ]
      - [ 69., 144., 80., 17., 96., 135., 74., 26., 101., 132., 94., 27.,
          97., 132., 76., 28., 78., 125., 78., 28., 55., 125., 75., 30. ]
      - [ 62., 139., 82., 16., 57., 134., 84., 28., 90., 113., 70., 29.,
          86., 112., 80., 29., 80., 90., 75., 30., 61., 68., 85., 30. ]
      - [ 69., 136., 86., 24., 88., 133., 90., 27., 73., 133., 80., 28.,
          107., 119., 89., 29., 62., 81., 80., 30., 59., 68., 88., 33. ]
      - [ 82., 146., 75., 24., 67., 144., 79., 26., 84., 141., 76., 27.,
          82., 141., 71., 28., 72., 140., 73., 29., 77., 134., 83., 29. ]
      - [ 86., 140., 88., 26., 86., 133., 83., 28., 93., 129., 85., 28.,
          72., 127., 82., 31., 67., 123., 92., 32., 87., 106., 89., 37. ]
      - [ 94., 137., 93., 23., 65., 137., 82., 29., 94., 135., 93., 30.,
          62., 134., 87., 34., 93., 133., 97., 34., 82., 133., 78., 35. ]
      - [ 79., 148., 81., 28., 81., 147., 68., 29., 100., 144., 84., 29.,
          79., 144., 66., 30., 77., 144., 66., 33., 75., 144., 63., 36. ]
      - [ 85., 146., 70., 40., 91., 142., 73., 42., 90., 139., 77., 44.,
          63., 139., 79., 47., 97., 138., 56., 49., 95., 138., 105., 52. ]
      - [ 67., 145., 88., 16., 98., 137., 91., 16., 98., 135., 88., 19.,
          91., 135., 83., 21., 88., 135., 71., 25., 104., 134., 74., 26. ]
      - [ 86., 144., 95., 13., 81., 144., 90., 14., 87., 141., 85., 16.,
          72., 140., 91., 16., 103., 130., 104., 19., 110., 127., 102.,
          20. ]
      - [ 85., 141., 81., 22., 91., 139., 74., 23., 80., 138., 88., 23.,
          84., 136., 79., 24., 90., 132., 79., 29., 95., 128., 67., 32. ]
      - [ 53., 143., 62., 25., 50., 138., 64., 30., 53., 137., 75., 30.,
          77., 127., 66., 31., 74., 127., 73., 31., 81., 124., 75., 32. ]
      - [ 90., 144., 72., 16., 94., 135., 77., 16., 61., 133., 81., 16.,
          55., 128., 95., 35., 53., 123., 123., 37., 45., 116., 113.,
          39. ]
      - [ 104., 141., 74., 27., 94., 141., 86., 32., 101., 137., 79.,
          33., 98., 136., 68., 35., 104., 135., 78., 35., 63., 123., 64.,
          37. ]
      - [ 83., 144., 81., 20., 68., 144., 66., 24., 88., 140., 70., 24.,
          63., 140., 81., 26., 97., 138., 72., 30., 56., 137., 61., 34. ]
      - [ 82., 149., 89., 30., 84., 144., 76., 38., 71., 144., 95., 39.,
          89., 143., 98., 40., 66., 143., 97., 42., 61., 143., 94., 48. ]
      - [ 92., 147., 72., 20., 72., 111., 77., 23., 66., 109., 69., 30.,
          76., 102., 68., 32., 72., 99., 74., 37., 96., 98., 70., 39. ]
      - [ 103., 134., 68., 16., 90., 134., 79., 16., 88., 134., 81., 16.,
          90., 129., 83., 16., 69., 127., 76., 19., 103., 125., 62., 20. ]
      - [ 104., 135., 83., 16., 105., 133., 99., 16., 88., 87., 78., 21.,
          62., 72., 83., 21., 85., 69., 99., 21., 80., 68., 104., 21. ]
      - [ 74., 147., 79., 30., 84., 144., 82., 30., 103., 140., 84., 31.,
          88., 140., 68., 32., 72., 140., 68., 34., 77., 138., 80., 35. ]
      - [ 96., 143., 98., 29., 94., 143., 106., 36., 94., 138., 106.,
          39., 60., 138., 80., 40., 99., 137., 78., 41., 55., 137., 99.,
          41. ]
      - [ 82., 145., 70., 16., 77., 141., 74., 16., 76., 139., 70., 20.,
          128., 135., 67., 22., 72., 133., 84., 41., 121., 129., 74.,
          58. ]
      - [ 102., 103., 92., 16., 98., 103., 97., 16., 109., 96., 87., 20.,
          106., 96., 102., 20., 70., 96., 97., 21., 72., 95., 73., 24. ]
      - [ 98., 137., 79., 15., 72., 137., 84., 16., 81., 136., 86., 19.,
          74., 132., 82., 20., 90., 127., 69., 25., 88., 125., 76., 25. ]
      - [ 91., 116., 89., 23., 53., 107., 86., 24., 95., 105., 78., 25.,
          99., 102., 80., 26., 80., 90., 81., 29., 79., 87., 73., 34. ]
      - [ 82., 147., 76., 33., 71., 143., 78., 34., 67., 139., 68., 40.,
          96., 138., 89., 40., 90., 138., 97., 40., 71., 138., 67., 42. ]
      - [ 77., 132., 88., 28., 70., 129., 92., 38., 84., 127., 72., 39.,
          77., 124., 53., 47., 77., 115., 73., 64., 98., 109., 63., 71. ]
      - [ 80., 147., 40., 42., 72., 147., 77., 43., 62., 146., 80., 43.,
          82., 145., 83., 44., 72., 144., 39., 45., 69., 144., 87., 45. ]
      - [ 87., 134., 89., 20., 85., 134., 89., 24., 88., 127., 80., 25.,
          87., 123., 83., 25., 82., 123., 76., 29., 87., 117., 78., 31. ]
      - [ 89., 109., 89., 15., 93., 108., 78., 16., 111., 106., 87., 21.,
          73., 106., 82., 24., 112., 104., 90., 24., 54., 99., 81., 26. ]
      - [ 55., 147., 69., 27., 58., 146., 62., 30., 63., 138., 75., 31.,
          89., 135., 61., 32., 87., 135., 65., 32., 78., 131., 73., 32. ]
      - [ 82., 133., 83., 20., 76., 133., 83., 26., 71., 133., 85., 27.,
          85., 132., 82., 28., 72., 131., 87., 28., 80., 124., 85., 29. ]
      - [ 76., 144., 72., 29., 71., 144., 75., 36., 77., 138., 79., 39.,
          88., 129., 78., 41., 53., 126., 73., 42., 96., 124., 66., 45. ]
      - [ 76., 145., 101., 24., 78., 143., 93., 28., 74., 140., 86., 34.,
          83., 139., 89., 34., 88., 136., 101., 35., 80., 136., 96., 37. ]
      - [ 88., 101., 71., 15., 28., 99., 76., 16., 29., 97., 75., 28.,
          28., 95., 73., 29., 28., 91., 70., 30., 28., 88., 67., 31. ]
      - [ 80., 141., 74., 23., 74., 138., 76., 23., 67., 138., 74., 28.,
          92., 135., 80., 28., 80., 134., 81., 33., 76., 133., 74., 34. ]
      - [ 84., 136., 83., 24., 90., 131., 81., 25., 83., 129., 84., 26.,
          89., 125., 87., 26., 77., 125., 89., 29., 69., 122., 95., 32. ]
      - [ 70., 146., 77., 30., 75., 144., 74., 31., 73., 144., 68., 36.,
          70., 144., 85., 37., 97., 139., 78., 40., 103., 134., 73., 42. ]
      - [ 113., 136., 77., 31., 115., 134., 72., 33., 115., 132., 86.,
          41., 51., 131., 77., 43., 87., 129., 89., 47., 113., 127.,
          101., 50. ]
      - [ 60., 143., 67., 28., 59., 137., 74., 29., 56., 137., 80., 29.,
          61., 136., 72., 32., 96., 127., 81., 32., 92., 125., 71., 34. ]
      - [ 68., 145., 88., 13., 73., 144., 84., 17., 66., 140., 88., 18.,
          104., 136., 78., 19., 90., 122., 83., 19., 84., 110., 74., 20. ]
      - [ 65., 148., 69., 15., 56., 146., 71., 15., 48., 146., 85., 15.,
          72., 145., 65., 17., 59., 144., 89., 17., 51., 144., 62., 31. ]
      - [ 82., 145., 102., 41., 78., 138., 109., 45., 72., 135., 96.,
          46., 74., 130., 99., 49., 59., 130., 110., 53., 67., 128.,
          103., 55. ]
      - [ 76., 146., 71., 24., 71., 144., 67., 26., 73., 141., 59., 27.,
          76., 140., 73., 27., 103., 138., 63., 28., 86., 137., 68., 28. ]
      - [ 53., 137., 60., 42., 100., 136., 77., 43., 109., 133., 55.,
          44., 52., 133., 53., 45., 95., 132., 81., 45., 78., 132., 81.,
          47. ]
      - [ 111., 98., 89., 16., 108., 90., 93., 16., 109., 88., 84., 23.,
          76., 78., 89., 23., 108., 77., 89., 25., 53., 72., 109., 27. ]
      - [ 77., 145., 74., 14., 123., 127., 77., 16., 117., 125., 80.,
          16., 119., 121., 72., 20., 122., 120., 77., 21., 124., 119.,
          77., 23. ]
      - [ 115., 135., 83., 10., 98., 135., 93., 16., 37., 135., 98., 16.,
          115., 130., 98., 25., 113., 130., 45., 30., 111., 130., 57.,
          30. ]
      - [ 74., 119., 72., 16., 75., 115., 45., 26., 39., 97., 50., 27.,
          34., 95., 45., 33., 39., 92., 62., 34., 39., 88., 64., 35. ]
      - [ 91., 147., 89., 25., 90., 145., 86., 26., 75., 140., 83., 27.,
          83., 139., 98., 31., 82., 137., 72., 34., 79., 137., 97., 35. ]
      - [ 90., 149., 99., 30., 93., 144., 97., 31., 79., 144., 98., 34.,
          99., 143., 107., 43., 74., 143., 95., 45., 96., 141., 85., 50. ]
      - [ 84., 137., 86., 25., 79., 136., 90., 28., 66., 133., 81., 29.,
          72., 131., 83., 29., 77., 130., 85., 29., 71., 129., 76., 30. ]
      - [ 93., 146., 86., 15., 100., 145., 80., 17., 93., 144., 104.,
          22., 82., 144., 105., 27., 104., 143., 67., 28., 100., 141.,
          80., 30. ]
      - [ 83., 144., 71., 39., 73., 144., 73., 39., 87., 114., 69., 40.,
          80., 114., 66., 42., 76., 107., 81., 47., 75., 105., 75., 50. ]
      - [ 70., 147., 84., 16., 61., 139., 76., 28., 48., 139., 82., 33.,
          80., 136., 34., 36., 48., 136., 81., 36., 85., 134., 37., 40. ]
      - [ 97., 150., 63., 18., 97., 146., 96., 18., 101., 144., 101.,
          19., 98., 144., 60., 20., 79., 137., 65., 21., 107., 129., 96.,
          21. ]
      - [ 108., 150., 124., 15., 119., 147., 95., 16., 130., 144., 88.,
          17., 119., 144., 90., 17., 117., 144., 108., 26., 88., 141.,
          111., 26. ]
      - [ 107., 139., 84., 18., 115., 134., 89., 21., 113., 134., 90.,
          29., 63., 134., 104., 30., 58., 134., 79., 31., 104., 124.,
          104., 32. ]
      - [ 89., 138., 87., 15., 65., 136., 95., 22., 95., 133., 101., 28.,
          57., 132., 105., 28., 95., 131., 99., 30., 101., 130., 97.,
          31. ]
      - [ 57., 138., 71., 25., 56., 136., 65., 30., 77., 132., 59., 33.,
          72., 132., 71., 33., 56., 130., 73., 33., 77., 129., 65., 34. ]
      - [ 86., 149., 96., 28., 90., 144., 95., 30., 87., 144., 111., 36.,
          96., 143., 103., 37., 62., 143., 101., 41., 93., 141., 103.,
          41. ]
      - [ 50., 108., 62., 26., 39., 101., 62., 30., 53., 87., 67., 34.,
          55., 86., 50., 38., 38., 86., 52., 38., 39., 83., 122., 39. ]
      - [ 65., 147., 62., 23., 70., 146., 68., 25., 64., 144., 58., 28.,
          73., 137., 71., 29., 72., 134., 61., 30., 77., 126., 68., 30. ]
      - [ 114., 135., 76., 26., 77., 132., 78., 31., 115., 130., 90.,
          35., 91., 130., 99., 35., 98., 129., 66., 39., 70., 128., 90.,
          39. ]
      - [ 50., 138., 78., 22., 57., 133., 59., 24., 48., 133., 75., 26.,
          50., 132., 65., 28., 89., 131., 77., 28., 56., 129., 64., 30. ]
      - [ 88., 124., 77., 12., 85., 123., 72., 16., 85., 121., 75., 16.,
          73., 119., 67., 18., 95., 117., 66., 23., 97., 116., 74., 24. ]
      - [ 48., 137., 94., 25., 93., 136., 100., 25., 51., 136., 106.,
          36., 44., 133., 53., 91., 102., 130., 77., 93., 39., 130., 53.,
          95. ]
      - [ 93., 145., 82., 11., 91., 141., 85., 16., 95., 136., 75., 19.,
          67., 136., 84., 20., 101., 135., 86., 20., 93., 135., 84., 26. ]
      - [ 96., 145., 70., 24., 90., 136., 75., 26., 97., 131., 66., 28.,
          89., 130., 76., 28., 79., 129., 67., 30., 94., 127., 75., 30. ]
      - [ 93., 141., 74., 30., 85., 140., 86., 30., 94., 136., 83., 32.,
          84., 128., 64., 37., 63., 125., 94., 37., 75., 116., 78., 38. ]
      - [ 87., 148., 76., 23., 85., 144., 66., 48., 82., 144., 68., 48.,
          98., 119., 103., 91., 121., 114., 96., 106., 117., 113., 119.,
          109. ]
      - [ 97., 144., 83., 27., 101., 128., 70., 29., 102., 125., 77.,
          29., 103., 122., 83., 31., 107., 121., 81., 35., 81., 119.,
          61., 48. ]
      - [ 61., 149., 88., 25., 81., 146., 84., 26., 63., 144., 90., 26.,
          81., 143., 82., 27., 65., 140., 87., 27., 62., 139., 90., 29. ]
      - [ 72., 149., 66., 48., 90., 144., 64., 49., 81., 144., 74., 58.,
          77., 144., 70., 68., 72., 144., 70., 70., 95., 139., 74., 71. ]
      - [ 90., 149., 70., 22., 90., 144., 64., 28., 85., 140., 71., 28.,
          69., 140., 59., 31., 66., 138., 61., 32., 71., 137., 71., 32. ]
      - [ 82., 144., 86., 25., 84., 139., 80., 27., 77., 135., 83., 27.,
          76., 125., 91., 28., 90., 117., 79., 29., 87., 98., 77., 30. ]
      - [ 114., 120., 55., 43., 108., 119., 35., 50., 48., 91., 55., 56.,
          103., 82., 99., 62., 101., 69., 35., 64., 94., 69., 35., 66. ]
      - [ 74., 145., 85., 24., 79., 136., 76., 32., 82., 135., 74., 34.,
          88., 134., 76., 34., 69., 130., 90., 34., 83., 129., 80., 35. ]
      - [ 72., 140., 72., 13., 93., 136., 61., 14., 95., 135., 65., 16.,
          91., 135., 78., 17., 82., 135., 59., 19., 79., 135., 62., 19. ]
      - [ 90., 141., 75., 26., 88., 140., 66., 33., 71., 140., 78., 34.,
          85., 139., 64., 37., 95., 138., 72., 37., 77., 138., 82., 39. ]
      - [ 68., 140., 78., 14., 72., 139., 82., 16., 70., 139., 68., 17.,
          51., 133., 71., 32., 48., 130., 68., 34., 40., 128., 72., 35. ]
      - [ 94., 144., 81., 31., 90., 144., 83., 31., 71., 140., 90., 39.,
          60., 133., 87., 41., 81., 128., 80., 42., 81., 122., 70., 46. ]
      - [ 60., 145., 77., 27., 50., 145., 74., 28., 55., 144., 82., 29.,
          89., 141., 67., 30., 78., 141., 70., 30., 84., 140., 73., 30. ]
      - [ 95., 146., 72., 26., 89., 141., 74., 26., 70., 135., 75., 28.,
          78., 134., 77., 28., 77., 132., 68., 30., 98., 131., 70., 31. ]
      - [ 90., 122., 84., 37., 100., 119., 90., 37., 91., 86., 87., 38.,
          62., 69., 96., 38., 63., 67., 93., 40., 91., 61., 96., 41. ]
      - [ 40., 142., 92., 29., 45., 140., 101., 31., 62., 139., 101.,
          34., 77., 138., 86., 36., 56., 138., 81., 40., 82., 137., 78.,
          41. ]
      - [ 50., 129., 79., 11., 68., 123., 77., 16., 81., 118., 64., 20.,
          82., 115., 66., 21., 69., 109., 73., 31., 84., 107., 67., 33. ]
      - [ 88., 146., 82., 28., 87., 144., 80., 31., 84., 144., 83., 31.,
          79., 142., 73., 32., 92., 140., 85., 32., 90., 140., 76., 34. ]
      - [ 85., 139., 96., 25., 70., 137., 85., 26., 92., 134., 99., 26.,
          61., 134., 81., 27., 69., 133., 96., 27., 85., 132., 86., 30. ]
      - [ 78., 146., 87., 16., 69., 145., 90., 16., 74., 144., 83., 19.,
          67., 140., 86., 23., 60., 136., 95., 24., 78., 133., 90., 25. ]
      - [ 82., 133., 66., 23., 84., 132., 80., 24., 81., 129., 81., 26.,
          79., 127., 72., 30., 82., 126., 80., 31., 77., 116., 80., 34. ]
      - [ 69., 149., 72., 37., 92., 144., 72., 106., 89., 144., 85.,
          106., 70., 144., 88., 106., 62., 144., 83., 107., 89., 140.,
          87., 109. ]
      - [ 65., 122., 79., 23., 79., 121., 76., 24., 88., 102., 88., 24.,
          80., 96., 83., 30., 83., 95., 95., 32., 100., 93., 88., 33. ]
      - [ 44., 141., 60., 32., 28., 140., 48., 34., 28., 138., 52., 34.,
          98., 127., 50., 36., 115., 126., 42., 40., 110., 123., 48.,
          41. ]
      - [ 63., 149., 83., 26., 96., 145., 81., 27., 58., 145., 76., 28.,
          63., 144., 74., 29., 103., 141., 89., 30., 98., 140., 68., 32. ]
      - [ 93., 134., 75., 15., 88., 133., 90., 16., 88., 130., 66., 17.,
          86., 130., 63., 19., 79., 106., 81., 20., 88., 98., 52., 24. ]
      - [ 80., 130., 82., 14., 99., 128., 87., 16., 79., 128., 82., 20.,
          97., 121., 85., 20., 90., 121., 93., 21., 91., 113., 91., 22. ]
      - [ 83., 143., 77., 36., 89., 141., 80., 37., 83., 140., 71., 38.,
          89., 139., 76., 40., 78., 138., 71., 42., 89., 137., 75., 43. ]
      - [ 48., 136., 60., 31., 40., 136., 56., 35., 43., 135., 58., 35.,
          43., 133., 56., 37., 93., 131., 52., 38., 110., 130., 54., 38. ]
      - [ 85., 146., 89., 26., 83., 139., 83., 27., 74., 137., 86., 28.,
          89., 135., 93., 29., 66., 130., 82., 30., 76., 125., 91., 30. ]
      - [ 60., 150., 76., 24., 71., 146., 78., 26., 85., 140., 100., 28.,
          69., 139., 48., 29., 55., 138., 67., 29., 53., 133., 69., 29. ]
      - [ 100., 143., 100., 29., 99., 138., 97., 30., 97., 138., 101.,
          31., 94., 138., 99., 32., 91., 138., 84., 34., 68., 138., 98.,
          34. ]
      - [ 99., 145., 79., 15., 94., 145., 76., 16., 106., 141., 84., 19.,
          88., 141., 75., 22., 100., 140., 83., 24., 97., 135., 103.,
          24. ]
      - [ 101., 145., 79., 24., 92., 145., 81., 26., 64., 145., 77., 27.,
          96., 144., 85., 27., 69., 144., 67., 29., 68., 142., 72., 29. ]
      - [ 83., 146., 84., 26., 81., 139., 82., 27., 64., 138., 91., 27.,
          71., 137., 85., 28., 87., 135., 92., 29., 75., 134., 90., 30. ]
      - [ 47., 122., 77., 20., 45., 122., 79., 20., 54., 119., 74., 24.,
          79., 118., 67., 28., 77., 102., 74., 33., 68., 102., 84., 37. ]
      - [ 74., 149., 72., 30., 91., 147., 77., 30., 88., 144., 79., 30.,
          73., 144., 73., 32., 68., 140., 97., 36., 63., 140., 87., 37. ]
      - [ 87., 149., 85., 32., 85., 144., 93., 32., 80., 144., 83., 43.,
          57., 144., 86., 45., 92., 143., 76., 47., 61., 140., 100., 47. ]
      - [ 77., 137., 74., 19., 49., 137., 79., 25., 82., 135., 89., 32.,
          72., 126., 98., 33., 83., 120., 88., 34., 74., 120., 102., 34. ]
      - [ 103., 149., 107., 33., 108., 144., 113., 34., 106., 144., 106.,
          36., 95., 144., 55., 101., 91., 144., 55., 103., 114., 137.,
          83., 104. ]
      - [ 98., 141., 80., 32., 86., 140., 78., 34., 97., 139., 90., 34.,
          96., 137., 93., 34., 65., 127., 79., 40., 61., 76., 82., 42. ]
      - [ 80., 144., 73., 26., 95., 143., 78., 26., 86., 143., 77., 28.,
          74., 143., 74., 29., 64., 143., 70., 30., 95., 138., 90., 30. ]
      - [ 95., 144., 78., 31., 90., 144., 75., 34., 76., 144., 85., 39.,
          71., 144., 83., 40., 96., 139., 69., 42., 70., 138., 88., 48. ]
      - [ 74., 146., 76., 30., 83., 144., 95., 38., 77., 144., 68., 39.,
          71., 144., 85., 40., 69., 140., 74., 43., 95., 139., 70., 45. ]
      - [ 58., 143., 72., 24., 93., 134., 76., 24., 83., 134., 69., 26.,
          88., 133., 78., 26., 63., 133., 75., 27., 95., 131., 61., 28. ]
      - [ 63., 125., 83., 23., 88., 121., 90., 23., 68., 119., 85., 24.,
          57., 112., 86., 26., 71., 68., 98., 27., 75., 59., 96., 28. ]
      - [ 90., 139., 72., 22., 90., 132., 78., 24., 94., 130., 81., 25.,
          97., 129., 86., 27., 81., 129., 79., 28., 73., 127., 84., 28. ]
      - [ 88., 144., 65., 35., 82., 144., 73., 35., 77., 144., 77., 35.,
          94., 143., 80., 35., 84., 142., 77., 40., 101., 141., 65., 41. ]
      - [ 86., 137., 94., 25., 84., 137., 90., 28., 69., 137., 92., 28.,
          76., 136., 69., 30., 70., 135., 91., 37., 83., 133., 94., 37. ]
      - [ 91., 145., 85., 26., 88., 145., 82., 27., 98., 125., 83., 36.,
          85., 122., 75., 38., 86., 120., 92., 40., 87., 116., 76., 41. ]
      - [ 100., 139., 76., 26., 73., 136., 79., 26., 79., 135., 73., 28.,
          89., 134., 78., 28., 101., 133., 68., 29., 81., 130., 71., 30. ]
      - [ 77., 149., 86., 27., 103., 139., 85., 46., 96., 139., 82., 48.,
          67., 139., 85., 48., 91., 137., 86., 51., 96., 134., 87., 53. ]
      - [ 63., 140., 74., 26., 60., 139., 77., 26., 89., 126., 64., 27.,
          91., 125., 66., 27., 54., 115., 70., 30., 88., 111., 80., 30. ]
      - [ 88., 140., 75., 22., 82., 140., 66., 23., 94., 139., 73., 24.,
          78., 139., 66., 25., 84., 137., 74., 26., 83., 135., 76., 26. ]
      - [ 111., 135., 91., 27., 116., 130., 86., 28., 61., 126., 104.,
          46., 120., 125., 99., 47., 50., 125., 63., 66., 48., 125.,
          101., 66. ]
      - [ 82., 149., 82., 16., 83., 144., 85., 16., 80., 144., 91., 16.,
          78., 136., 99., 29., 66., 136., 62., 131., 81., 134., 70.,
          131. ]
      - [ 57., 142., 74., 21., 61., 139., 83., 23., 96., 138., 81., 24.,
          67., 138., 79., 26., 92., 134., 77., 34., 63., 134., 68., 38. ]
      - [ 64., 134., 95., 16., 87., 113., 103., 23., 91., 112., 93., 26.,
          78., 108., 95., 26., 76., 106., 107., 26., 93., 100., 87., 27. ]
      - [ 85., 135., 68., 16., 79., 135., 68., 19., 71., 133., 63., 20.,
          71., 131., 75., 22., 98., 107., 69., 24., 94., 102., 50., 25. ]
      - [ 80., 149., 76., 14., 83., 141., 72., 15., 85., 140., 75., 19.,
          84., 136., 81., 19., 93., 131., 77., 24., 86., 118., 73., 26. ]
      - [ 94., 149., 89., 34., 78., 149., 87., 35., 96., 146., 97., 41.,
          89., 146., 80., 42., 94., 144., 95., 42., 89., 144., 91., 44. ]
      - [ 108., 137., 82., 34., 115., 135., 92., 37., 61., 132., 84.,
          38., 67., 129., 90., 38., 62., 129., 72., 40., 87., 128., 72.,
          45. ]
      - [ 103., 144., 67., 16., 100., 144., 95., 26., 93., 144., 85.,
          29., 105., 138., 105., 33., 103., 132., 89., 43., 110., 112.,
          95., 43. ]
      - [ 88., 149., 94., 18., 92., 147., 76., 25., 94., 145., 97., 26.,
          74., 145., 75., 29., 89., 144., 81., 31., 96., 142., 83., 34. ]
      - [ 74., 149., 59., 25., 72., 149., 73., 25., 80., 147., 67., 26.,
          78., 144., 76., 26., 72., 144., 94., 26., 70., 144., 96., 26. ]
      - [ 77., 146., 77., 16., 72., 119., 81., 16., 61., 81., 81., 21.,
          59., 80., 71., 26., 52., 59., 66., 29., 50., 58., 68., 30. ]
      - [ 89., 144., 84., 10., 101., 133., 83., 16., 63., 133., 72., 20.,
          59., 133., 66., 21., 75., 126., 72., 23., 82., 120., 62., 27. ]
      - [ 101., 144., 82., 16., 94., 143., 81., 20., 100., 139., 66.,
          27., 60., 133., 61., 31., 108., 122., 78., 34., 84., 120., 74.,
          53. ]
      - [ 77., 133., 76., 16., 59., 133., 72., 19., 81., 132., 75., 25.,
          79., 132., 64., 27., 72., 132., 66., 27., 73., 128., 81., 32. ]
      - [ 71., 144., 70., 15., 89., 138., 78., 16., 68., 136., 65., 30.,
          71., 124., 80., 34., 64., 106., 78., 35., 78., 104., 83., 35. ]
      - [ 83., 146., 83., 28., 79., 142., 82., 30., 66., 141., 80., 33.,
          78., 140., 76., 34., 76., 140., 89., 35., 79., 138., 91., 35. ]
      - [ 80., 123., 66., 25., 77., 117., 80., 25., 83., 114., 82., 25.,
          84., 108., 80., 28., 83., 91., 64., 29., 73., 88., 71., 29. ]
      - [ 74., 139., 57., 27., 81., 138., 51., 30., 88., 134., 59., 30.,
          82., 132., 52., 33., 75., 131., 72., 33., 66., 128., 61., 34. ]
      - [ 62., 146., 59., 26., 64., 144., 62., 27., 57., 144., 49., 30.,
          64., 141., 64., 30., 60., 138., 56., 31., 50., 137., 54., 34. ]
      - [ 23., 127., 66., 23., 78., 123., 68., 23., 70., 123., 73., 23.,
          84., 122., 46., 26., 74., 121., 63., 26., 78., 118., 67., 26. ]
      - [ 88., 147., 93., 26., 93., 144., 92., 28., 87., 144., 87., 33.,
          99., 141., 90., 34., 94., 141., 91., 39., 86., 141., 87., 47. ]
      - [ 77., 151., 71., 16., 77., 149., 80., 16., 83., 146., 83., 16.,
          89., 144., 71., 19., 84., 144., 69., 21., 85., 140., 71., 21. ]
      - [ 82., 144., 78., 38., 78., 144., 70., 39., 73., 141., 79., 40.,
          87., 140., 87., 42., 60., 139., 73., 43., 85., 138., 82., 43. ]
      - [ 96., 108., 74., 16., 82., 108., 87., 34., 93., 107., 90., 35.,
          85., 106., 70., 42., 39., 102., 80., 43., 66., 101., 55., 84. ]
      - [ 70., 142., 78., 26., 66., 142., 80., 27., 64., 142., 82., 28.,
          75., 141., 85., 29., 75., 138., 87., 29., 93., 90., 61., 30. ]
      - [ 84., 144., 82., 30., 78., 144., 85., 32., 89., 143., 87., 34.,
          65., 143., 76., 41., 60., 143., 79., 42., 53., 143., 97., 45. ]
      - [ 88., 108., 78., 18., 60., 107., 68., 20., 86., 105., 67., 22.,
          90., 104., 68., 26., 85., 102., 70., 27., 69., 67., 81., 28. ]
      - [ 98., 144., 99., 38., 101., 139., 97., 39., 99., 139., 95., 40.,
          59., 136., 87., 42., 52., 133., 75., 44., 71., 132., 88., 49. ]
      - [ 93., 146., 66., 29., 95., 141., 72., 30., 92., 140., 70., 31.,
          100., 139., 79., 34., 99., 131., 77., 35., 96., 130., 61., 37. ]
      - [ 72., 139., 78., 24., 82., 137., 87., 30., 76., 130., 89., 31.,
          75., 128., 86., 32., 73., 127., 88., 33., 71., 127., 83., 35. ]
      - [ 85., 149., 77., 13., 60., 149., 77., 15., 90., 144., 88., 15.,
          85., 144., 79., 16., 78., 144., 81., 16., 74., 144., 85., 16. ]
      - [ 93., 122., 77., 15., 69., 119., 83., 15., 69., 116., 78., 17.,
          67., 114., 88., 17., 79., 106., 73., 18., 78., 101., 76., 33. ]
      - [ 71., 149., 70., 27., 75., 145., 79., 31., 76., 140., 65., 32.,
          72., 140., 77., 32., 95., 137., 78., 34., 90., 136., 66., 36. ]
      - [ 119., 140., 101., 16., 117., 140., 96., 19., 112., 140., 92.,
          24., 117., 135., 96., 25., 112., 135., 101., 27., 93., 135.,
          87., 28. ]
      - [ 90., 147., 80., 16., 52., 105., 87., 16., 40., 103., 71., 26.,
          27., 103., 72., 29., 27., 101., 76., 30., 54., 100., 83., 34. ]
      - [ 48., 138., 71., 29., 101., 134., 78., 30., 62., 134., 77., 32.,
          57., 133., 78., 34., 78., 132., 83., 34., 64., 132., 58., 38. ]
      - [ 84., 134., 77., 24., 85., 120., 80., 26., 80., 116., 72., 27.,
          82., 111., 81., 30., 69., 105., 83., 31., 83., 104., 72., 32. ]
      - [ 103., 132., 89., 16., 101., 132., 99., 16., 96., 132., 110.,
          24., 101., 127., 98., 27., 98., 127., 100., 28., 68., 116.,
          122., 32. ]
      - [ 109., 139., 86., 36., 98., 135., 85., 39., 109., 134., 66.,
          57., 104., 134., 115., 61., 101., 134., 103., 80., 62., 134.,
          106., 82. ]
      - [ 83., 140., 90., 25., 94., 136., 91., 28., 90., 136., 84., 29.,
          83., 134., 75., 30., 90., 133., 77., 31., 77., 133., 81., 31. ]
      - [ 104., 144., 79., 34., 62., 140., 72., 36., 109., 139., 66.,
          42., 105., 139., 76., 42., 103., 139., 66., 44., 51., 138.,
          86., 44. ]
      - [ 83., 144., 91., 28., 85., 142., 97., 36., 87., 140., 82., 37.,
          89., 139., 85., 39., 93., 133., 92., 47., 84., 132., 69., 53. ]
      - [ 78., 147., 72., 16., 83., 144., 77., 16., 78., 138., 67., 22.,
          61., 115., 69., 22., 39., 101., 83., 22., 39., 98., 51., 27. ]
      - [ 88., 144., 80., 22., 92., 131., 78., 30., 88., 129., 83., 32.,
          81., 127., 77., 33., 89., 117., 84., 37., 101., 109., 82., 40. ]
      - [ 67., 141., 79., 24., 90., 138., 79., 26., 62., 136., 73., 27.,
          94., 134., 87., 28., 89., 133., 75., 30., 74., 123., 69., 31. ]
      - [ 81., 124., 74., 15., 78., 124., 90., 16., 86., 121., 85., 19.,
          78., 121., 84., 21., 69., 120., 83., 23., 80., 114., 78., 24. ]
      - [ 83., 141., 72., 22., 77., 138., 68., 27., 84., 134., 80., 27.,
          79., 133., 79., 29., 76., 131., 81., 30., 80., 122., 78., 31. ]
      - [ 76., 144., 84., 30., 88., 141., 83., 33., 86., 141., 81., 36.,
          80., 139., 81., 38., 90., 137., 64., 45., 96., 136., 88., 51. ]
      - [ 80., 140., 77., 33., 45., 139., 68., 35., 74., 135., 79., 36.,
          77., 129., 91., 36., 50., 126., 82., 37., 62., 124., 68., 38. ]
      - [ 80., 146., 81., 16., 74., 130., 86., 16., 75., 127., 85., 23.,
          76., 125., 75., 27., 95., 120., 83., 29., 82., 115., 86., 29. ]
      - [ 50., 133., 83., 10., 71., 90., 67., 14., 73., 89., 72., 16.,
          71., 86., 72., 19., 61., 86., 45., 26., 77., 85., 50., 27. ]
      - [ 77., 147., 89., 15., 75., 147., 78., 16., 78., 144., 85., 16.,
          73., 140., 78., 19., 73., 135., 64., 24., 68., 135., 70., 24. ]
      - [ 88., 145., 61., 17., 74., 140., 72., 18., 66., 138., 57., 22.,
          89., 136., 77., 22., 88., 129., 75., 23., 62., 129., 62., 28. ]
      - [ 74., 136., 89., 28., 61., 135., 80., 30., 96., 134., 84., 30.,
          92., 134., 76., 31., 78., 134., 81., 32., 70., 134., 88., 32. ]
      - [ 88., 149., 66., 16., 94., 144., 61., 22., 88., 144., 63., 22.,
          83., 138., 64., 25., 60., 66., 54., 27., 69., 65., 56., 27. ]
      - [ 68., 134., 68., 40., 117., 133., 68., 44., 94., 133., 79., 44.,
          91., 132., 71., 45., 86., 132., 91., 45., 119., 131., 71., 53. ]
      - [ 95., 137., 80., 14., 58., 137., 68., 16., 71., 134., 79., 16.,
          74., 133., 78., 19., 100., 132., 102., 27., 95., 132., 85.,
          33. ]
      - [ 72., 138., 82., 28., 79., 133., 90., 28., 74., 133., 84., 29.,
          70., 133., 75., 40., 94., 127., 110., 111., 94., 125., 100.,
          114. ]
      - [ 65., 125., 79., 23., 66., 122., 80., 29., 97., 121., 83., 33.,
          82., 115., 69., 38., 94., 112., 68., 40., 100., 99., 58., 53. ]
      - [ 63., 149., 85., 28., 58., 145., 70., 30., 76., 141., 70., 33.,
          61., 140., 81., 33., 85., 136., 79., 34., 83., 136., 63., 36. ]
      - [ 75., 136., 79., 15., 94., 134., 87., 19., 97., 129., 71., 20.,
          93., 127., 79., 20., 88., 127., 74., 23., 98., 124., 89., 23. ]
      - [ 91., 149., 87., 39., 91., 144., 93., 41., 70., 144., 79., 45.,
          96., 143., 81., 45., 65., 143., 90., 49., 66., 138., 78., 50. ]
      - [ 93., 143., 80., 30., 95., 139., 101., 30., 70., 133., 76., 31.,
          65., 132., 99., 31., 63., 129., 66., 34., 79., 128., 83., 35. ]
      - [ 73., 146., 71., 16., 87., 144., 66., 23., 77., 144., 71., 27.,
          74., 144., 52., 28., 64., 135., 58., 30., 56., 134., 62., 31. ]
      - [ 87., 144., 81., 33., 83., 144., 85., 34., 86., 139., 95., 37.,
          61., 138., 94., 42., 80., 133., 78., 43., 77., 128., 95., 45. ]
      - [ 74., 146., 90., 22., 80., 133., 82., 23., 85., 129., 84., 23.,
          71., 129., 80., 25., 77., 124., 71., 26., 77., 120., 78., 26. ]
      - [ 92., 150., 83., 15., 100., 145., 80., 16., 106., 134., 95.,
          20., 71., 133., 66., 39., 69., 133., 62., 41., 57., 131., 92.,
          41. ]
      - [ 84., 149., 67., 16., 83., 147., 76., 16., 77., 144., 62., 21.,
          72., 139., 67., 22., 97., 112., 60., 26., 72., 104., 74., 34. ]
      - [ 70., 144., 65., 26., 81., 143., 69., 29., 77., 140., 58., 30.,
          81., 139., 67., 30., 76., 137., 74., 30., 71., 136., 69., 31. ]
      - [ 67., 143., 79., 10., 69., 136., 76., 13., 62., 136., 74., 15.,
          74., 131., 79., 16., 61., 128., 86., 18., 76., 123., 68., 20. ]
      - [ 62., 139., 94., 13., 97., 138., 90., 16., 55., 134., 82., 17.,
          102., 133., 84., 17., 51., 132., 96., 17., 69., 127., 84., 19. ]
      - [ 69., 145., 82., 30., 66., 145., 81., 32., 93., 141., 78., 35.,
          63., 141., 80., 35., 51., 139., 79., 37., 82., 138., 81., 37. ]
      - [ 61., 147., 60., 35., 66., 145., 63., 35., 39., 109., 58., 41.,
          27., 105., 66., 41., 32., 104., 54., 42., 25., 100., 69., 42. ]
      - [ 43., 138., 42., 24., 39., 135., 46., 24., 43., 133., 41., 28.,
          39., 125., 38., 35., 45., 117., 45., 35., 47., 115., 60., 37. ]
      - [ 92., 143., 88., 40., 67., 143., 99., 45., 92., 138., 101., 45.,
          68., 138., 82., 53., 98., 137., 97., 53., 63., 137., 100., 53. ]
      - [ 91., 147., 87., 35., 83., 146., 73., 36., 77., 146., 79., 36.,
          88., 144., 77., 37., 93., 140., 66., 47., 58., 140., 67., 50. ]
      - [ 98., 139., 87., 24., 73., 137., 83., 25., 73., 135., 93., 25.,
          98., 134., 90., 28., 77., 134., 79., 30., 64., 132., 90., 32. ]
      - [ 84., 144., 61., 39., 80., 144., 54., 41., 77., 144., 50., 42.,
          82., 138., 56., 52., 89., 137., 52., 53., 108., 132., 55., 55. ]
      - [ 109., 146., 66., 31., 97., 141., 89., 42., 89., 141., 62., 45.,
          119., 140., 70., 45., 102., 138., 85., 45., 95., 138., 80.,
          48. ]
      - [ 77., 146., 80., 22., 69., 146., 83., 22., 69., 144., 81., 24.,
          79., 141., 77., 25., 74., 132., 75., 27., 85., 129., 70., 29. ]
      - [ 83., 147., 81., 24., 76., 147., 80., 26., 80., 144., 84., 29.,
          87., 142., 71., 32., 77., 141., 72., 34., 80., 139., 65., 42. ]
      - [ 79., 134., 75., 29., 85., 131., 72., 34., 78., 120., 80., 34.,
          92., 119., 68., 35., 96., 116., 76., 35., 61., 114., 82., 37. ]
      - [ 78., 136., 69., 17., 97., 130., 72., 18., 80., 129., 89., 18.,
          92., 128., 67., 19., 100., 127., 95., 19., 98., 126., 65., 21. ]
      - [ 80., 132., 91., 16., 117., 131., 96., 16., 79., 127., 98., 21.,
          110., 126., 87., 25., 106., 126., 88., 28., 102., 126., 95.,
          28. ]
      - [ 64., 149., 73., 22., 69., 145., 61., 23., 64., 144., 59., 24.,
          71., 140., 81., 24., 66., 140., 58., 26., 70., 138., 72., 26. ]
      - [ 88., 145., 77., 15., 101., 139., 91., 16., 97., 131., 71., 20.,
          82., 125., 102., 21., 80., 123., 69., 22., 55., 122., 69., 24. ]
      - [ 95., 144., 79., 34., 108., 143., 81., 34., 101., 143., 90.,
          34., 90., 143., 76., 35., 95., 140., 83., 35., 87., 139., 85.,
          35. ]
      - [ 66., 144., 84., 57., 95., 139., 88., 57., 48., 139., 95., 58.,
          46., 139., 93., 59., 95., 134., 88., 60., 92., 134., 95., 64. ]
      - [ 82., 149., 86., 32., 90., 147., 85., 34., 87., 144., 75., 38.,
          92., 141., 101., 56., 69., 141., 77., 64., 94., 136., 74., 67. ]
      - [ 108., 136., 59., 26., 114., 135., 45., 28., 109., 130., 62.,
          29., 115., 127., 70., 32., 105., 126., 65., 34., 107., 124.,
          47., 37. ]
      - [ 76., 123., 70., 31., 71., 123., 82., 33., 52., 121., 64., 34.,
          61., 120., 60., 35., 75., 118., 45., 36., 72., 118., 62., 36. ]
      - [ 74., 146., 71., 32., 76., 145., 72., 35., 89., 144., 60., 36.,
          84., 144., 76., 36., 71., 144., 85., 41., 87., 142., 60., 42. ]
      - [ 101., 140., 67., 18., 74., 140., 68., 20., 92., 139., 60., 21.,
          101., 138., 62., 21., 75., 136., 58., 23., 84., 135., 86., 23. ]
      - [ 82., 149., 77., 27., 87., 144., 91., 27., 82., 144., 74., 28.,
          92., 142., 77., 29., 77., 140., 60., 34., 97., 135., 63., 34. ]
      - [ 74., 149., 73., 24., 71., 147., 77., 29., 87., 144., 73., 30.,
          74., 144., 75., 32., 92., 143., 78., 33., 69., 143., 82., 33. ]
      - [ 76., 146., 94., 16., 73., 144., 101., 16., 68., 144., 99., 20.,
          63., 141., 94., 27., 103., 138., 88., 29., 111., 135., 99.,
          31. ]
      - [ 80., 142., 70., 25., 74., 142., 80., 25., 88., 141., 65., 28.,
          69., 141., 75., 28., 56., 140., 69., 29., 83., 137., 75., 30. ]
      - [ 68., 149., 66., 27., 78., 145., 63., 29., 85., 144., 60., 38.,
          69., 144., 72., 38., 89., 143., 43., 42., 64., 143., 52., 43. ]
      - [ 76., 145., 79., 11., 104., 135., 66., 16., 120., 133., 75.,
          17., 122., 127., 66., 20., 117., 124., 58., 32., 122., 122.,
          63., 34. ]
      - [ 81., 144., 84., 16., 86., 127., 94., 23., 77., 123., 69., 34.,
          91., 121., 68., 37., 74., 121., 91., 37., 100., 119., 94., 38. ]
      - [ 88., 148., 64., 27., 84., 147., 66., 27., 89., 146., 103., 27.,
          91., 145., 98., 53., 89., 144., 61., 92., 77., 141., 85., 104. ]
      - [ 88., 145., 73., 27., 93., 144., 68., 28., 96., 141., 78., 29.,
          92., 141., 68., 35., 86., 141., 71., 35., 97., 137., 78., 35. ]
      - [ 56., 138., 80., 13., 68., 136., 83., 16., 96., 134., 88., 16.,
          107., 133., 78., 22., 67., 133., 83., 23., 63., 133., 73., 25. ]
      - [ 66., 145., 82., 15., 98., 140., 78., 20., 58., 140., 59., 24.,
          61., 138., 72., 25., 97., 135., 75., 25., 60., 135., 79., 25. ]
      - [ 90., 134., 85., 16., 74., 134., 77., 19., 84., 132., 79., 19.,
          82., 129., 74., 21., 96., 128., 81., 21., 77., 128., 87., 21. ]
      - [ 82., 149., 89., 34., 74., 149., 88., 42., 86., 144., 90., 42.,
          81., 144., 78., 44., 74., 144., 74., 45., 69., 144., 76., 45. ]
      - [ 60., 145., 63., 26., 65., 141., 67., 26., 48., 141., 72., 29.,
          57., 139., 59., 30., 67., 134., 63., 31., 71., 127., 69., 33. ]
      - [ 70., 145., 88., 9., 65., 144., 82., 16., 66., 137., 89., 16.,
          69., 134., 66., 23., 111., 132., 72., 23., 99., 132., 70., 52. ]
      - [ 63., 144., 67., 16., 71., 142., 69., 18., 55., 142., 73., 19.,
          59., 138., 61., 21., 57., 138., 67., 23., 54., 138., 73., 23. ]
      - [ 51., 125., 85., 28., 47., 88., 40., 36., 85., 85., 38., 37.,
          74., 58., 42., 40., 42., 53., 42., 44., 72., 52., 74., 44. ]
      - [ 94., 145., 77., 24., 103., 131., 115., 35., 101., 131., 99.,
          38., 105., 129., 83., 48., 102., 129., 79., 49., 100., 104.,
          105., 49. ]
      - [ 109., 125., 73., 16., 104., 125., 73., 20., 100., 122., 71.,
          23., 103., 121., 70., 36., 109., 119., 66., 37., 108., 117.,
          78., 38. ]
      - [ 65., 149., 65., 22., 63., 149., 60., 26., 56., 146., 55., 28.,
          64., 144., 57., 29., 62., 144., 69., 31., 71., 125., 67., 32. ]
      - [ 75., 145., 80., 30., 81., 144., 80., 32., 86., 138., 70., 36.,
          83., 138., 86., 37., 80., 132., 89., 38., 93., 120., 78., 41. ]
      - [ 82., 149., 90., 15., 82., 144., 93., 15., 77., 141., 73., 16.,
          74., 141., 93., 22., 64., 87., 83., 27., 58., 87., 88., 28. ]
      - [ 74., 138., 91., 35., 53., 138., 79., 41., 83., 137., 98., 41.,
          66., 137., 79., 43., 48., 137., 63., 44., 71., 132., 76., 46. ]
      - [ 70., 139., 79., 16., 44., 139., 71., 22., 62., 135., 84., 29.,
          72., 133., 93., 41., 42., 133., 71., 50., 53., 132., 93., 53. ]
      - [ 82., 144., 50., 22., 87., 135., 61., 23., 80., 133., 59., 24.,
          78., 133., 56., 26., 84., 132., 62., 26., 81., 131., 54., 27. ]
      - [ 67., 139., 67., 16., 67., 134., 72., 16., 62., 129., 62., 20.,
          57., 124., 67., 20., 54., 124., 73., 20., 47., 93., 73., 23. ]
      - [ 87., 148., 67., 16., 89., 147., 79., 16., 87., 144., 87., 32.,
          84., 144., 80., 34., 75., 144., 87., 114., 72., 144., 81.,
          115. ]
      - [ 74., 144., 92., 18., 73., 135., 86., 21., 74., 132., 89., 23.,
          78., 131., 81., 26., 71., 131., 77., 28., 96., 129., 80., 28. ]
      - [ 88., 144., 64., 22., 86., 144., 80., 22., 93., 143., 89., 22.,
          80., 143., 77., 23., 70., 143., 75., 24., 101., 138., 64., 26. ]
      - [ 109., 138., 70., 25., 108., 135., 95., 25., 82., 132., 100.,
          27., 77., 131., 66., 29., 101., 130., 77., 31., 90., 129., 92.,
          32. ]
      - [ 87., 149., 89., 34., 87., 144., 96., 39., 92., 143., 93., 40.,
          71., 143., 79., 41., 67., 143., 77., 42., 65., 143., 60., 46. ]
      - [ 83., 138., 72., 16., 85., 134., 77., 16., 83., 133., 67., 25.,
          79., 133., 50., 26., 76., 133., 55., 27., 81., 129., 61., 27. ]
      - [ 97., 138., 80., 25., 92., 135., 79., 28., 87., 133., 73., 30.,
          68., 132., 82., 30., 99., 130., 82., 32., 65., 130., 83., 34. ]
      - [ 87., 138., 93., 34., 92., 137., 92., 36., 57., 137., 87., 42.,
          87., 136., 102., 45., 62., 136., 102., 48., 93., 132., 66.,
          53. ]
      - [ 84., 146., 71., 20., 71., 146., 81., 24., 77., 144., 57., 25.,
          81., 141., 73., 29., 81., 135., 75., 30., 79., 135., 83., 30. ]
      - [ 47., 137., 76., 22., 49., 135., 65., 27., 47., 135., 67., 27.,
          87., 134., 62., 28., 85., 129., 64., 29., 74., 118., 74., 29. ]
      - [ 97., 121., 96., 25., 95., 120., 99., 25., 79., 112., 68., 30.,
          83., 108., 104., 30., 79., 100., 113., 30., 57., 93., 101.,
          36. ]
      - [ 74., 153., 79., 18., 74., 151., 81., 18., 81., 146., 77., 25.,
          89., 145., 68., 27., 87., 144., 71., 28., 65., 137., 80., 29. ]
      - [ 65., 139., 89., 32., 88., 138., 84., 34., 71., 138., 88., 34.,
          78., 133., 85., 36., 77., 131., 79., 37., 87., 128., 87., 37. ]
      - [ 74., 139., 72., 16., 67., 138., 74., 16., 60., 138., 77., 19.,
          66., 136., 83., 19., 64., 135., 79., 20., 79., 132., 75., 21. ]
      - [ 65., 142., 56., 25., 82., 138., 63., 25., 75., 137., 73., 25.,
          55., 135., 66., 26., 79., 134., 64., 29., 81., 133., 60., 30. ]
      - [ 73., 147., 87., 26., 83., 146., 83., 28., 79., 145., 85., 29.,
          72., 145., 97., 37., 83., 144., 93., 40., 64., 143., 70., 42. ]
      - [ 100., 144., 80., 39., 82., 144., 65., 116., 105., 138., 63.,
          117., 98., 138., 60., 120., 82., 138., 96., 123., 77., 138.,
          88., 130. ]
      - [ 55., 137., 67., 16., 66., 136., 75., 23., 111., 134., 81., 26.,
          69., 134., 90., 26., 62., 134., 79., 30., 75., 133., 67., 31. ]
      - [ 66., 114., 76., 14., 63., 114., 66., 16., 55., 111., 72., 16.,
          67., 109., 64., 18., 64., 109., 79., 18., 120., 107., 72., 19. ]
      - [ 110., 137., 78., 31., 112., 135., 98., 34., 56., 131., 90.,
          39., 113., 130., 93., 40., 110., 129., 85., 44., 99., 129.,
          92., 45. ]
      - [ 90., 145., 84., 32., 82., 145., 78., 33., 82., 141., 60., 55.,
          67., 135., 63., 56., 72., 132., 66., 57., 76., 126., 60., 80. ]
      - [ 64., 149., 59., 30., 65., 144., 56., 31., 49., 143., 49., 32.,
          78., 142., 66., 32., 82., 138., 59., 33., 77., 137., 56., 35. ]
      - [ 89., 131., 73., 14., 86., 126., 77., 16., 89., 125., 71., 17.,
          70., 123., 65., 19., 76., 122., 83., 24., 72., 121., 66., 27. ]
      - [ 95., 132., 82., 16., 107., 95., 77., 20., 78., 95., 64., 22.,
          107., 84., 81., 23., 87., 50., 74., 25., 73., 39., 79., 25. ]
      - [ 90., 140., 82., 25., 96., 136., 84., 25., 64., 136., 78., 31.,
          90., 133., 71., 34., 65., 130., 84., 34., 84., 127., 81., 35. ]
      - [ 88., 147., 72., 15., 90., 145., 76., 17., 85., 144., 71., 18.,
          80., 143., 71., 20., 80., 140., 74., 21., 87., 139., 66., 23. ]
      - [ 77., 144., 80., 31., 72., 144., 82., 34., 70., 141., 74., 38.,
          70., 139., 79., 39., 72., 138., 80., 44., 65., 135., 72., 49. ]
      - [ 83., 144., 72., 16., 83., 141., 82., 16., 84., 128., 89., 16.,
          88., 125., 94., 20., 85., 125., 67., 21., 91., 121., 48., 25. ]
      - [ 94., 127., 87., 24., 84., 127., 72., 40., 75., 122., 69., 86.,
          72., 121., 64., 88., 81., 112., 91., 91., 100., 108., 73., 95. ]
      - [ 109., 135., 67., 16., 63., 135., 75., 16., 52., 135., 80., 24.,
          102., 134., 75., 25., 97., 134., 67., 26., 85., 134., 76., 30. ]
      - [ 74., 144., 80., 25., 74., 139., 83., 25., 75., 133., 75., 27.,
          84., 130., 87., 27., 85., 127., 79., 28., 90., 125., 85., 28. ]
      - [ 86., 147., 93., 34., 78., 146., 88., 100., 92., 144., 98.,
          103., 87., 144., 96., 105., 97., 140., 101., 106., 101., 135.,
          86., 109. ]
      - [ 82., 144., 103., 40., 78., 139., 114., 41., 83., 138., 109.,
          42., 81., 134., 116., 46., 79., 133., 104., 47., 87., 123.,
          110., 47. ]
      - [ 91., 135., 75., 24., 99., 134., 78., 24., 96., 134., 81., 25.,
          98., 129., 80., 29., 94., 129., 70., 31., 86., 98., 80., 32. ]
      - [ 84., 144., 40., 55., 89., 137., 40., 60., 103., 132., 28., 64.,
          98., 132., 39., 66., 88., 132., 28., 71., 40., 132., 28., 76. ]
      - [ 86., 141., 88., 24., 81., 131., 87., 26., 78., 126., 81., 28.,
          80., 125., 91., 28., 98., 123., 98., 29., 82., 123., 80., 33. ]
      - [ 82., 149., 95., 32., 85., 144., 80., 36., 83., 144., 91., 41.,
          95., 143., 80., 48., 69., 143., 82., 48., 63., 141., 98., 51. ]
      - [ 86., 146., 94., 15., 84., 146., 77., 16., 77., 146., 87., 16.,
          75., 146., 89., 16., 89., 144., 88., 18., 78., 144., 101., 20. ]
      - [ 82., 149., 86., 20., 90., 147., 82., 22., 87., 144., 87., 23.,
          82., 144., 96., 24., 80., 144., 84., 27., 92., 141., 83., 31. ]
      - [ 96., 139., 78., 24., 78., 136., 80., 24., 94., 135., 74., 25.,
          68., 135., 73., 27., 64., 135., 76., 31., 100., 134., 79., 32. ]
      - [ 77., 136., 80., 14., 71., 132., 90., 14., 79., 131., 86., 16.,
          78., 127., 95., 16., 74., 126., 82., 17., 74., 123., 79., 18. ]
      - [ 80., 133., 52., 24., 84., 132., 55., 25., 49., 131., 69., 36.,
          80., 130., 70., 39., 87., 127., 58., 45., 85., 127., 74., 47. ]
      - [ 63., 141., 75., 25., 69., 138., 78., 25., 58., 137., 73., 26.,
          73., 134., 68., 28., 70., 133., 80., 28., 70., 131., 70., 29. ]
      - [ 72., 149., 87., 28., 73., 144., 84., 30., 68., 144., 87., 32.,
          67., 139., 89., 43., 61., 137., 88., 45., 61., 135., 97., 46. ]
      - [ 95., 145., 68., 14., 88., 144., 67., 16., 98., 140., 72., 16.,
          94., 140., 76., 20., 80., 140., 66., 27., 99., 136., 71., 29. ]
      - [ 77., 144., 97., 27., 72., 139., 86., 28., 114., 134., 93., 28.,
          111., 134., 90., 31., 108., 134., 96., 60., 104., 134., 107.,
          70. ]
      - [ 101., 138., 89., 16., 94., 138., 94., 21., 69., 136., 82., 39.,
          91., 134., 56., 131., 103., 133., 56., 133., 99., 133., 59.,
          133. ]
      - [ 93., 143., 84., 29., 104., 140., 86., 31., 67., 132., 79., 35.,
          69., 131., 79., 37., 65., 129., 93., 37., 55., 123., 84., 40. ]
      - [ 47., 136., 75., 20., 53., 133., 77., 21., 59., 130., 70., 22.,
          58., 127., 59., 24., 82., 74., 85., 38., 59., 72., 58., 39. ]
      - [ 102., 144., 80., 28., 97., 144., 81., 31., 74., 144., 76., 35.,
          103., 139., 74., 36., 88., 139., 93., 38., 79., 139., 71., 39. ]
      - [ 53., 149., 61., 28., 67., 144., 60., 31., 64., 144., 58., 32.,
          53., 144., 67., 38., 48., 144., 59., 44., 46., 139., 71., 45. ]
      - [ 88., 140., 89., 13., 72., 133., 94., 16., 96., 110., 87., 17.,
          94., 105., 86., 22., 94., 103., 94., 50., 94., 98., 94., 64. ]
      - [ 70., 139., 82., 15., 66., 139., 73., 16., 63., 139., 76., 17.,
          66., 137., 78., 17., 53., 135., 71., 19., 100., 134., 79., 19. ]
      - [ 80., 146., 67., 27., 84., 142., 74., 27., 82., 141., 72., 30.,
          79., 140., 80., 30., 75., 135., 84., 30., 73., 130., 72., 32. ]
      - [ 117., 134., 71., 16., 106., 133., 81., 16., 114., 132., 67.,
          23., 109., 132., 53., 28., 47., 126., 90., 43., 42., 125., 35.,
          120. ]
      - [ 74., 138., 75., 16., 96., 137., 80., 17., 88., 137., 85., 17.,
          96., 135., 82., 21., 81., 134., 72., 23., 87., 133., 84., 27. ]
      - [ 69., 133., 70., 38., 72., 132., 69., 40., 66., 132., 80., 47.,
          88., 131., 98., 47., 90., 130., 76., 48., 73., 130., 101., 48. ]
      - [ 94., 145., 80., 23., 87., 143., 74., 26., 72., 143., 63., 29.,
          92., 141., 68., 29., 90., 140., 87., 29., 76., 135., 80., 30. ]
      - [ 72., 143., 83., 14., 66., 143., 80., 16., 65., 139., 86., 16.,
          71., 131., 84., 20., 70., 128., 91., 20., 106., 119., 96., 21. ]
      - [ 92., 144., 74., 15., 61., 144., 86., 15., 60., 140., 62., 21.,
          97., 139., 69., 21., 56., 138., 71., 21., 54., 138., 83., 24. ]
      - [ 77., 144., 93., 15., 103., 140., 90., 24., 72., 140., 39., 71.,
          101., 135., 49., 90., 94., 135., 71., 91., 91., 135., 50., 92. ]
      - [ 90., 142., 75., 18., 85., 138., 83., 18., 89., 136., 75., 23.,
          84., 132., 72., 24., 81., 131., 78., 25., 68., 128., 71., 26. ]
      - [ 96., 138., 103., 33., 92., 138., 101., 34., 76., 135., 93.,
          39., 69., 135., 103., 40., 70., 125., 83., 41., 90., 78., 90.,
          41. ]
      - [ 70., 144., 71., 16., 126., 130., 89., 16., 118., 129., 83.,
          17., 86., 129., 67., 22., 122., 128., 75., 35., 125., 127.,
          71., 37. ]
      - [ 93., 136., 71., 24., 70., 119., 69., 25., 117., 113., 79., 26.,
          90., 112., 73., 29., 107., 102., 76., 29., 38., 95., 75., 42. ]
      - [ 111., 136., 77., 13., 76., 134., 88., 13., 111., 133., 80.,
          14., 107., 133., 85., 14., 82., 133., 74., 15., 98., 131., 91.,
          15. ]
      - [ 65., 136., 100., 16., 62., 136., 108., 34., 60., 132., 90.,
          42., 60., 127., 104., 44., 119., 123., 93., 45., 115., 123.,
          94., 48. ]
      - [ 85., 122., 87., 30., 78., 122., 78., 33., 68., 114., 80., 37.,
          62., 114., 81., 40., 120., 87., 95., 63., 120., 81., 103., 69. ]
      - [ 72., 148., 75., 22., 72., 146., 77., 22., 75., 145., 76., 24.,
          70., 145., 70., 28., 87., 138., 81., 28., 61., 135., 72., 33. ]
      - [ 81., 146., 73., 29., 91., 144., 65., 32., 89., 144., 85., 33.,
          84., 144., 64., 35., 78., 144., 83., 35., 72., 144., 71., 39. ]
      - [ 80., 140., 58., 25., 82., 139., 56., 28., 52., 136., 64., 28.,
          87., 135., 48., 31., 74., 134., 63., 31., 80., 133., 65., 31. ]
      - [ 112., 141., 85., 16., 107., 141., 87., 16., 111., 138., 72.,
          19., 109., 138., 96., 19., 71., 133., 70., 21., 121., 132.,
          103., 21. ]
      - [ 69., 141., 67., 15., 72., 137., 69., 15., 70., 136., 64., 16.,
          67., 136., 68., 17., 64., 136., 89., 23., 106., 128., 91., 24. ]
      - [ 53., 144., 96., 14., 48., 142., 112., 22., 49., 137., 114.,
          26., 39., 136., 85., 38., 82., 130., 84., 41., 52., 127., 54.,
          72. ]
      - [ 90., 144., 71., 31., 86., 144., 81., 32., 106., 142., 72., 34.,
          81., 142., 81., 34., 74., 142., 73., 37., 84., 141., 87., 39. ]
      - [ 34., 125., 67., 24., 32., 125., 70., 26., 60., 117., 62., 29.,
          51., 114., 71., 29., 60., 112., 78., 29., 56., 108., 71., 32. ]
      - [ 73., 146., 64., 35., 88., 144., 66., 36., 85., 144., 66., 39.,
          83., 144., 56., 41., 93., 141., 65., 41., 95., 136., 64., 45. ]
      - [ 71., 136., 77., 40., 76., 128., 75., 41., 64., 128., 102., 42.,
          79., 127., 73., 43., 66., 127., 86., 46., 69., 126., 103., 47. ]
      - [ 63., 144., 82., 26., 62., 142., 74., 30., 61., 140., 87., 31.,
          93., 134., 78., 33., 99., 130., 86., 33., 91., 129., 77., 35. ]
      - [ 48., 139., 74., 28., 106., 135., 78., 29., 98., 135., 82., 30.,
          57., 134., 71., 42., 53., 134., 90., 42., 47., 134., 99., 50. ]
      - [ 63., 145., 82., 22., 68., 141., 81., 25., 62., 137., 75., 27.,
          94., 134., 68., 31., 89., 133., 69., 33., 82., 122., 76., 34. ]
      - [ 130., 149., 46., 24., 68., 149., 41., 26., 64., 149., 45., 26.,
          69., 146., 37., 27., 63., 146., 44., 28., 126., 144., 39., 29. ]
      - [ 28., 141., 72., 17., 65., 131., 76., 19., 74., 130., 79., 20.,
          79., 129., 72., 22., 62., 128., 66., 23., 85., 124., 66., 25. ]
      - [ 58., 133., 75., 15., 60., 132., 61., 28., 48., 127., 70., 29.,
          47., 122., 60., 30., 55., 117., 63., 30., 93., 109., 85., 30. ]
      - [ 65., 132., 89., 16., 75., 131., 98., 25., 66., 130., 89., 30.,
          71., 125., 72., 33., 74., 124., 77., 34., 60., 119., 76., 37. ]
      - [ 79., 138., 63., 28., 101., 132., 81., 28., 99., 132., 61., 30.,
          86., 128., 71., 31., 93., 122., 76., 31., 98., 119., 48., 33. ]
      - [ 82., 139., 85., 26., 83., 137., 85., 29., 73., 136., 76., 30.,
          82., 65., 84., 34., 76., 61., 75., 35., 97., 59., 71., 47. ]
      - [ 92., 147., 97., 13., 83., 147., 105., 15., 105., 145., 101.,
          16., 103., 144., 95., 18., 92., 144., 141., 22., 87., 144.,
          92., 23. ]
      - [ 75., 144., 80., 16., 77., 142., 82., 16., 77., 125., 85., 16.,
          93., 118., 93., 27., 94., 109., 77., 29., 90., 106., 92., 30. ]
      - [ 102., 146., 87., 27., 106., 145., 80., 31., 100., 145., 84.,
          31., 111., 143., 89., 34., 85., 143., 92., 38., 103., 141.,
          87., 39. ]
      - [ 98., 140., 93., 13., 40., 140., 87., 16., 86., 138., 84., 26.,
          51., 136., 90., 26., 99., 135., 92., 33., 97., 135., 93., 35. ]
      - [ 80., 144., 82., 34., 68., 144., 93., 38., 86., 143., 93., 40.,
          63., 143., 93., 42., 72., 142., 80., 43., 89., 139., 83., 48. ]
      - [ 95., 138., 74., 24., 93., 138., 69., 26., 54., 137., 72., 26.,
          51., 137., 75., 26., 90., 136., 71., 28., 56., 136., 68., 29. ]
      - [ 72., 144., 66., 16., 64., 100., 72., 16., 68., 89., 71., 21.,
          66., 88., 50., 22., 69., 87., 62., 25., 65., 86., 45., 26. ]
      - [ 59., 81., 72., 15., 52., 68., 87., 16., 63., 67., 73., 21.,
          74., 45., 66., 32., 82., 43., 69., 33., 68., 37., 67., 34. ]
      - [ 96., 145., 83., 19., 68., 140., 76., 22., 99., 138., 101., 22.,
          103., 137., 66., 23., 84., 124., 82., 23., 109., 101., 62.,
          28. ]
      - [ 85., 149., 95., 31., 96., 146., 104., 31., 86., 146., 101.,
          32., 105., 144., 94., 38., 102., 144., 98., 39., 92., 144.,
          103., 40. ]
      - [ 68., 146., 86., 17., 74., 144., 52., 18., 70., 139., 92., 20.,
          56., 137., 80., 25., 83., 134., 74., 26., 65., 134., 59., 27. ]
      - [ 74., 145., 42., 24., 63., 145., 45., 26., 69., 144., 39., 29.,
          72., 140., 37., 31., 70., 140., 50., 31., 79., 134., 36., 34. ]
      - [ 95., 145., 92., 32., 91., 144., 94., 33., 85., 140., 97., 34.,
          82., 140., 103., 37., 73., 123., 109., 37., 70., 122., 100.,
          38. ]
      - [ 72., 66., 90., 23., 99., 64., 81., 29., 80., 62., 80., 31.,
          84., 57., 80., 33., 76., 56., 89., 41., 114., 54., 103., 42. ]
      - [ 75., 149., 92., 25., 91., 144., 94., 25., 86., 144., 85., 26.,
          77., 144., 87., 27., 89., 77., 90., 30., 72., 77., 88., 37. ]
      - [ 83., 144., 79., 11., 53., 134., 72., 16., 45., 128., 76., 17.,
          85., 125., 75., 21., 50., 123., 69., 22., 80., 122., 60., 32. ]
      - [ 80., 141., 75., 25., 74., 139., 78., 27., 68., 139., 81., 27.,
          90., 135., 72., 30., 76., 133., 79., 31., 96., 132., 70., 32. ]
      - [ 50., 141., 66., 16., 50., 125., 70., 16., 45., 125., 80., 16.,
          112., 123., 83., 16., 55., 120., 53., 18., 53., 120., 76., 19. ]
      - [ 59., 146., 63., 26., 61., 144., 67., 26., 57., 139., 61., 27.,
          69., 126., 71., 29., 52., 126., 59., 30., 68., 121., 69., 30. ]
      - [ 73., 145., 85., 21., 74., 140., 81., 24., 79., 137., 83., 24.,
          72., 135., 87., 27., 81., 129., 85., 28., 81., 117., 77., 30. ]
      - [ 75., 144., 79., 12., 69., 140., 81., 15., 85., 139., 74., 16.,
          76., 139., 76., 16., 87., 138., 64., 18., 76., 136., 63., 20. ]
      - [ 86., 146., 75., 26., 66., 146., 82., 26., 69., 141., 86., 26.,
          60., 141., 89., 27., 81., 140., 80., 28., 67., 140., 85., 28. ]
      - [ 93., 143., 77., 16., 89., 140., 83., 16., 108., 138., 66., 21.,
          111., 136., 89., 21., 100., 136., 77., 30., 85., 136., 71.,
          37. ]
      - [ 105., 145., 69., 22., 105., 143., 105., 27., 112., 142., 88.,
          32., 94., 141., 89., 34., 90., 141., 78., 38., 88., 141., 99.,
          39. ]
      - [ 82., 144., 75., 13., 84., 141., 67., 16., 83., 139., 80., 16.,
          82., 136., 87., 16., 46., 60., 90., 16., 47., 57., 98., 28. ]
      - [ 71., 142., 65., 23., 66., 140., 72., 23., 72., 136., 73., 25.,
          58., 136., 62., 26., 56., 136., 67., 26., 67., 129., 58., 28. ]
      - [ 72., 131., 85., 16., 69., 128., 84., 23., 72., 127., 78., 25.,
          84., 125., 80., 25., 85., 117., 82., 25., 103., 106., 71., 32. ]
      - [ 94., 144., 61., 14., 98., 141., 69., 14., 86., 138., 66., 16.,
          72., 138., 68., 19., 67., 137., 62., 25., 64., 137., 66., 25. ]
      - [ 74., 139., 80., 24., 94., 138., 78., 29., 92., 138., 73., 33.,
          59., 129., 77., 33., 74., 123., 87., 34., 60., 123., 72., 36. ]
      - [ 84., 144., 89., 29., 78., 139., 86., 30., 78., 135., 88., 34.,
          76., 135., 92., 35., 74., 135., 95., 35., 87., 124., 84., 37. ]
      - [ 82., 149., 75., 38., 95., 144., 80., 38., 88., 144., 76., 40.,
          82., 144., 79., 42., 100., 138., 83., 43., 70., 135., 78., 44. ]
      - [ 78., 145., 107., 54., 83., 138., 122., 61., 78., 136., 123.,
          76., 101., 133., 107., 101., 90., 133., 111., 119., 88., 133.,
          111., 122. ]
      - [ 68., 146., 69., 24., 62., 144., 64., 26., 67., 138., 73., 29.,
          63., 138., 61., 36., 61., 134., 61., 38., 56., 134., 65., 38. ]
      - [ 94., 145., 84., 26., 103., 144., 87., 27., 99., 144., 97., 27.,
          95., 140., 82., 28., 93., 139., 86., 29., 66., 137., 98., 29. ]
      - [ 73., 149., 78., 26., 71., 144., 83., 26., 89., 143., 64., 27.,
          77., 143., 91., 35., 66., 143., 88., 36., 90., 138., 79., 39. ]
      - [ 94., 147., 84., 28., 91., 146., 78., 31., 85., 146., 87., 31.,
          103., 145., 83., 32., 80., 145., 89., 33., 90., 144., 80., 34. ]
      - [ 115., 144., 106., 40., 113., 144., 110., 42., 76., 144., 99.,
          56., 73., 144., 106., 64., 70., 144., 94., 69., 96., 128., 97.,
          70. ]
      - [ 81., 119., 76., 16., 85., 116., 79., 16., 104., 103., 79., 20.,
          103., 100., 84., 22., 91., 99., 88., 31., 102., 98., 34., 73. ]
      - [ 85., 143., 72., 30., 85., 135., 75., 31., 65., 88., 65., 50.,
          61., 88., 63., 51., 57., 75., 61., 52., 65., 74., 59., 53. ]
      - [ 86., 144., 77., 28., 81., 141., 91., 29., 86., 136., 90., 31.,
          82., 136., 79., 32., 63., 80., 80., 34., 66., 78., 80., 36. ]
      - [ 59., 58., 76., 14., 95., 57., 71., 16., 75., 51., 75., 16.,
          99., 48., 82., 16., 63., 48., 84., 16., 100., 46., 86., 16. ]
      - [ 56., 140., 88., 22., 56., 129., 86., 24., 95., 121., 84., 25.,
          90., 117., 90., 25., 86., 114., 87., 32., 98., 113., 103., 33. ]
      - [ 84., 147., 88., 26., 80., 144., 93., 30., 99., 129., 82., 31.,
          94., 127., 84., 33., 88., 121., 86., 33., 67., 110., 95., 33. ]
      - [ 72., 144., 79., 20., 70., 144., 73., 22., 77., 143., 86., 22.,
          64., 143., 77., 23., 56., 143., 70., 24., 69., 141., 74., 24. ]
      - [ 67., 147., 75., 15., 91., 145., 69., 26., 84., 144., 63., 29.,
          82., 144., 74., 31., 70., 144., 82., 37., 96., 143., 85., 37. ]
      - [ 72., 139., 70., 26., 83., 134., 68., 27., 79., 133., 72., 27.,
          71., 132., 62., 30., 94., 124., 73., 30., 89., 123., 64., 31. ]
      - [ 72., 144., 71., 20., 89., 142., 68., 26., 85., 142., 72., 26.,
          79., 141., 68., 28., 93., 138., 73., 29., 79., 138., 59., 30. ]
      - [ 73., 137., 79., 11., 91., 132., 92., 15., 68., 119., 78., 16.,
          64., 117., 88., 16., 62., 117., 90., 16., 70., 112., 100., 16. ]
      - [ 71., 125., 104., 15., 57., 120., 119., 26., 56., 114., 100.,
          29., 61., 111., 103., 31., 66., 110., 89., 32., 59., 110.,
          110., 34. ]
      - [ 69., 143., 68., 26., 64., 142., 64., 30., 93., 141., 66., 32.,
          80., 141., 76., 33., 50., 141., 65., 34., 86., 140., 59., 36. ]
      - [ 71., 143., 77., 16., 93., 139., 83., 19., 75., 139., 82., 22.,
          75., 136., 85., 25., 72., 136., 76., 26., 88., 130., 66., 28. ]
      - [ 97., 132., 82., 16., 95., 131., 89., 16., 98., 120., 94., 22.,
          61., 100., 87., 24., 26., 60., 95., 27., 96., 40., 84., 28. ]
      - [ 99., 138., 80., 15., 95., 138., 75., 17., 91., 138., 98., 23.,
          97., 137., 102., 26., 80., 132., 100., 27., 56., 132., 62.,
          29. ]
      - [ 69., 146., 89., 14., 68., 144., 64., 16., 66., 144., 72., 16.,
          64., 144., 81., 16., 62., 144., 64., 19., 78., 138., 84., 19. ]
      - [ 96., 144., 72., 16., 64., 144., 73., 19., 101., 137., 74., 21.,
          59., 137., 101., 35., 62., 135., 112., 39., 110., 132., 116.,
          40. ]
      - [ 90., 145., 83., 16., 84., 142., 88., 16., 98., 140., 75., 19.,
          81., 139., 72., 21., 72., 136., 95., 24., 106., 135., 88., 26. ]
      - [ 94., 144., 89., 26., 89., 144., 88., 29., 77., 140., 80., 36.,
          98., 139., 93., 36., 72., 138., 103., 36., 70., 133., 95., 37. ]
      - [ 105., 143., 77., 13., 92., 143., 88., 14., 102., 137., 72.,
          16., 86., 137., 82., 16., 116., 136., 84., 16., 107., 115.,
          88., 16. ]
      - [ 100., 117., 104., 13., 114., 106., 113., 15., 74., 91., 90.,
          16., 101., 45., 94., 16., 92., 45., 98., 16., 98., 44., 101.,
          16. ]
      - [ 75., 47., 87., 16., 98., 44., 90., 16., 76., 44., 96., 16.,
          101., 43., 100., 16., 88., 43., 110., 27., 104., 42., 58., 28. ]
      - [ 67., 138., 68., 20., 83., 125., 83., 20., 97., 105., 62., 25.,
          101., 104., 64., 26., 95., 102., 69., 26., 93., 102., 49., 30. ]
      - [ 79., 144., 73., 27., 86., 143., 77., 27., 99., 139., 75., 28.,
          85., 135., 80., 29., 67., 130., 68., 32., 103., 129., 69., 34. ]
      - [ 83., 140., 79., 15., 77., 136., 81., 15., 85., 135., 85., 16.,
          80., 133., 80., 17., 78., 133., 88., 28., 70., 131., 99., 31. ]
      - [ 67., 144., 92., 14., 82., 130., 78., 16., 80., 119., 85., 17.,
          66., 111., 77., 20., 70., 108., 73., 22., 74., 107., 79., 36. ]
      - [ 116., 109., 84., 16., 109., 109., 87., 16., 108., 107., 89.,
          16., 82., 89., 79., 19., 85., 88., 84., 20., 27., 86., 77.,
          24. ]
      - [ 79., 144., 73., 24., 79., 142., 64., 29., 91., 124., 72., 29.,
          75., 118., 75., 29., 67., 62., 66., 30., 69., 61., 78., 31. ]
      - [ 71., 140., 76., 16., 82., 135., 71., 20., 75., 131., 76., 21.,
          76., 129., 78., 21., 82., 124., 87., 21., 87., 118., 71., 27. ]
      - [ 78., 149., 92., 48., 78., 145., 86., 50., 79., 105., 66., 53.,
          63., 100., 86., 58., 99., 92., 75., 61., 66., 74., 70., 62. ]
      - [ 64., 149., 77., 28., 60., 146., 78., 30., 70., 145., 80., 30.,
          65., 144., 72., 32., 100., 142., 74., 33., 64., 142., 79., 33. ]
      - [ 96., 121., 86., 16., 105., 116., 81., 19., 97., 116., 84., 22.,
          95., 115., 81., 31., 87., 115., 95., 33., 78., 113., 90., 34. ]
      - [ 77., 144., 73., 35., 83., 143., 77., 35., 71., 143., 80., 35.,
          91., 138., 63., 40., 70., 138., 77., 40., 63., 138., 80., 41. ]
      - [ 70., 145., 109., 16., 94., 142., 103., 17., 96., 138., 109.,
          18., 59., 138., 116., 22., 102., 137., 105., 38., 101., 133.,
          117., 55. ]
      - [ 70., 123., 74., 28., 89., 122., 74., 30., 87., 122., 70., 31.,
          83., 122., 77., 31., 74., 122., 79., 32., 72., 122., 81., 33. ]
      - [ 82., 150., 73., 28., 66., 149., 108., 28., 58., 145., 85., 29.,
          79., 144., 98., 32., 76., 144., 75., 116., 72., 144., 74.,
          120. ]
      - [ 49., 149., 83., 22., 49., 147., 78., 28., 61., 145., 54., 36.,
          55., 144., 62., 37., 52., 144., 49., 39., 50., 144., 54., 39. ]
      - [ 50., 146., 70., 26., 48., 146., 79., 27., 55., 144., 67., 28.,
          76., 134., 65., 29., 74., 134., 63., 31., 72., 134., 65., 32. ]
      - [ 78., 140., 68., 16., 79., 138., 63., 23., 85., 135., 101., 30.,
          52., 131., 91., 34., 77., 115., 116., 38., 75., 100., 116.,
          40. ]
      - [ 64., 149., 88., 32., 71., 144., 96., 37., 65., 143., 95., 39.,
          60., 143., 97., 41., 65., 139., 77., 46., 84., 138., 74., 47. ]
      - [ 64., 143., 84., 22., 66., 137., 82., 23., 94., 136., 80., 26.,
          87., 134., 83., 26., 91., 133., 76., 28., 97., 129., 88., 28. ]
      - [ 67., 144., 71., 47., 63., 140., 84., 56., 111., 135., 80., 75.,
          107., 135., 82., 114., 63., 135., 85., 120., 60., 135., 58.,
          135. ]
      - [ 60., 110., 77., 14., 58., 110., 67., 16., 54., 109., 69., 16.,
          58., 100., 73., 16., 58., 98., 69., 20., 52., 90., 62., 22. ]
      - [ 74., 139., 69., 22., 79., 137., 85., 24., 64., 129., 67., 26.,
          68., 125., 70., 27., 70., 120., 74., 29., 63., 116., 67., 30. ]
      - [ 72., 143., 87., 16., 96., 139., 91., 16., 72., 139., 93., 16.,
          64., 139., 109., 71., 103., 134., 113., 72., 100., 134., 37.,
          92. ]
      - [ 79., 145., 84., 21., 111., 139., 78., 23., 95., 139., 88., 26.,
          112., 135., 91., 26., 109., 134., 80., 28., 77., 134., 85.,
          29. ]
      - [ 80., 146., 80., 14., 101., 144., 80., 16., 96., 144., 91., 16.,
          83., 139., 70., 27., 52., 139., 72., 27., 91., 136., 92., 28. ]
      - [ 85., 138., 52., 26., 77., 136., 63., 26., 56., 135., 57., 27.,
          81., 134., 60., 28., 87., 133., 58., 29., 56., 133., 62., 29. ]
      - [ 72., 124., 82., 23., 95., 117., 77., 24., 74., 116., 53., 29.,
          72., 116., 53., 31., 68., 114., 66., 35., 92., 112., 84., 37. ]
      - [ 87., 142., 85., 15., 84., 141., 87., 18., 85., 137., 86., 23.,
          61., 137., 91., 23., 56., 137., 96., 38., 58., 136., 94., 39. ]
      - [ 104., 144., 79., 30., 98., 144., 83., 32., 92., 143., 92., 32.,
          102., 139., 80., 34., 84., 139., 82., 34., 105., 138., 74.,
          42. ]
      - [ 65., 145., 78., 28., 58., 141., 72., 30., 63., 138., 85., 31.,
          92., 134., 66., 32., 61., 133., 90., 35., 97., 130., 67., 36. ]
      - [ 82., 140., 79., 11., 89., 138., 68., 16., 87., 138., 76., 16.,
          64., 136., 83., 32., 58., 135., 77., 38., 60., 122., 78., 40. ]
      - [ 97., 124., 77., 30., 95., 123., 85., 30., 85., 121., 79., 31.,
          74., 109., 82., 31., 71., 109., 95., 47., 57., 107., 78., 49. ]
      - [ 83., 144., 79., 9., 79., 144., 76., 14., 77., 144., 86., 15.,
          90., 138., 90., 18., 68., 138., 67., 21., 60., 138., 69., 21. ]
      - [ 81., 132., 89., 14., 66., 111., 77., 16., 73., 109., 95., 16.,
          70., 108., 84., 17., 74., 106., 77., 20., 58., 101., 73., 22. ]
      - [ 113., 141., 79., 20., 117., 139., 101., 21., 114., 139., 99.,
          28., 112., 135., 101., 28., 87., 134., 101., 33., 111., 133.,
          116., 33. ]
      - [ 133., 85., 96., 16., 117., 81., 96., 21., 132., 77., 96., 23.,
          133., 72., 101., 23., 132., 63., 122., 26., 132., 53., 105.,
          28. ]
      - [ 90., 140., 104., 22., 81., 139., 91., 23., 76., 136., 89., 24.,
          89., 135., 93., 24., 82., 132., 87., 25., 77., 131., 86., 28. ]
      - [ 74., 146., 83., 13., 82., 144., 86., 16., 78., 144., 81., 19.,
          75., 144., 86., 19., 73., 143., 69., 39., 87., 141., 81., 42. ]
      - [ 86., 128., 83., 24., 78., 124., 87., 29., 85., 122., 76., 30.,
          80., 119., 70., 32., 87., 116., 84., 32., 77., 116., 77., 33. ]
      - [ 100., 143., 88., 47., 61., 143., 88., 50., 72., 141., 98., 56.,
          96., 140., 88., 59., 105., 138., 79., 61., 96., 138., 81., 62. ]
      - [ 88., 144., 86., 35., 83., 144., 88., 36., 93., 140., 85., 38.,
          78., 140., 88., 40., 66., 140., 84., 42., 78., 137., 65., 43. ]
      - [ 77., 144., 82., 16., 75., 139., 88., 16., 92., 136., 81., 30.,
          88., 132., 71., 40., 88., 129., 80., 41., 69., 127., 72., 42. ]
      - [ 73., 138., 77., 23., 64., 138., 79., 25., 60., 138., 70., 27.,
          68., 134., 83., 27., 75., 133., 81., 29., 59., 120., 82., 31. ]
      - [ 95., 144., 71., 37., 100., 141., 69., 38., 106., 137., 85.,
          40., 85., 136., 78., 51., 74., 136., 103., 59., 69., 133.,
          105., 61. ]
      - [ 72., 141., 57., 24., 76., 138., 54., 25., 66., 138., 51., 27.,
          68., 135., 44., 30., 75., 132., 47., 32., 79., 101., 39., 33. ]
      - [ 108., 103., 94., 16., 105., 99., 99., 22., 104., 90., 89., 27.,
          70., 83., 95., 27., 105., 78., 86., 29., 69., 78., 91., 29. ]
      - [ 107., 135., 85., 44., 101., 135., 76., 46., 95., 135., 77.,
          50., 93., 135., 76., 53., 55., 135., 66., 57., 43., 90., 67.,
          60. ]
      - [ 91., 144., 84., 40., 89., 144., 80., 42., 84., 144., 85., 42.,
          71., 143., 85., 59., 95., 139., 35., 91., 71., 138., 82., 117. ]
      - [ 94., 148., 78., 22., 92., 147., 76., 24., 92., 144., 72., 26.,
          90., 144., 79., 26., 87., 144., 74., 27., 85., 144., 76., 28. ]
      - [ 48., 137., 95., 14., 48., 132., 90., 16., 113., 126., 95., 23.,
          119., 125., 111., 27., 118., 122., 109., 28., 125., 120., 110.,
          31. ]
      - [ 72., 146., 74., 26., 92., 144., 76., 28., 67., 142., 72., 30.,
          73., 141., 70., 32., 79., 110., 81., 32., 82., 109., 72., 33. ]
      - [ 48., 136., 95., 30., 100., 133., 98., 31., 102., 131., 74.,
          39., 91., 131., 72., 42., 74., 131., 74., 42., 48., 131., 85.,
          43. ]
      - [ 71., 146., 84., 21., 73., 145., 62., 26., 79., 143., 66., 26.,
          60., 141., 65., 28., 50., 128., 56., 32., 51., 122., 73., 32. ]
      - [ 90., 144., 66., 23., 95., 137., 95., 23., 58., 137., 46., 27.,
          96., 132., 53., 27., 68., 132., 48., 28., 63., 132., 51., 28. ]
      - [ 64., 149., 86., 14., 91., 146., 88., 15., 82., 146., 95., 15.,
          79., 146., 80., 16., 76., 145., 105., 16., 95., 144., 105.,
          37. ]
      - [ 58., 114., 63., 14., 60., 113., 68., 14., 58., 103., 72., 16.,
          114., 100., 58., 17., 79., 100., 76., 19., 77., 100., 66., 20. ]
      - [ 77., 149., 82., 11., 72., 149., 87., 16., 78., 144., 89., 16.,
          72., 144., 74., 18., 78., 140., 71., 21., 83., 138., 94., 22. ]
      - [ 87., 141., 79., 19., 83., 141., 84., 19., 90., 136., 78., 26.,
          87., 136., 75., 27., 81., 136., 75., 30., 67., 136., 53., 31. ]
      - [ 70., 142., 80., 25., 77., 141., 82., 25., 77., 139., 73., 26.,
          72., 137., 84., 26., 70., 136., 85., 29., 78., 135., 76., 31. ]
      - [ 94., 135., 71., 22., 79., 127., 77., 30., 75., 127., 79., 30.,
          64., 127., 82., 30., 95., 122., 90., 34., 79., 100., 89., 36. ]
      - [ 60., 141., 88., 16., 62., 138., 94., 16., 61., 136., 86., 19.,
          59., 136., 84., 24., 56., 136., 87., 24., 53., 136., 65., 48. ]
      - [ 98., 140., 89., 15., 88., 140., 99., 19., 79., 138., 97., 21.,
          95., 137., 105., 22., 82., 136., 97., 23., 72., 136., 67., 25. ]
      - [ 102., 137., 63., 16., 111., 132., 81., 20., 103., 131., 64.,
          22., 111., 130., 59., 23., 27., 122., 65., 30., 42., 107., 74.,
          32. ]
      - [ 86., 147., 68., 16., 87., 144., 80., 20., 91., 141., 84., 22.,
          77., 141., 96., 22., 64., 141., 86., 25., 86., 139., 78., 26. ]
      - [ 87., 131., 86., 22., 90., 128., 74., 27., 108., 99., 82., 31.,
          107., 96., 79., 38., 107., 89., 64., 40., 108., 86., 85., 41. ]
      - [ 84., 144., 59., 75., 78., 137., 35., 76., 71., 137., 35., 90.,
          76., 132., 62., 91., 72., 132., 35., 96., 42., 101., 47., 100. ]
      - [ 80., 145., 74., 23., 69., 125., 76., 23., 71., 123., 86., 26.,
          110., 117., 83., 27., 78., 117., 96., 27., 76., 117., 78., 33. ]
      - [ 59., 136., 76., 16., 41., 134., 81., 16., 111., 133., 74., 22.,
          108., 133., 66., 25., 109., 128., 72., 28., 93., 128., 83.,
          28. ]
      - [ 47., 144., 62., 27., 66., 142., 55., 31., 59., 141., 65., 31.,
          49., 137., 67., 32., 49., 135., 46., 36., 55., 128., 47., 38. ]
      - [ 89., 125., 68., 16., 87., 125., 74., 16., 90., 120., 83., 16.,
          58., 114., 63., 20., 91., 111., 88., 20., 92., 109., 68., 21. ]
      - [ 86., 145., 74., 28., 80., 140., 79., 29., 83., 136., 70., 30.,
          73., 136., 74., 30., 92., 135., 71., 35., 88., 130., 80., 35. ]
      - [ 79., 149., 68., 27., 77., 149., 61., 34., 50., 149., 64., 34.,
          78., 144., 62., 37., 72., 144., 65., 42., 60., 144., 69., 42. ]
      - [ 88., 148., 78., 26., 99., 139., 95., 26., 101., 138., 82., 27.,
          104., 137., 93., 27., 113., 135., 86., 28., 107., 135., 65.,
          90. ]
      - [ 78., 137., 84., 25., 85., 131., 72., 30., 76., 131., 76., 30.,
          89., 130., 81., 30., 79., 125., 81., 32., 77., 125., 84., 32. ]
      - [ 90., 149., 80., 22., 88., 149., 77., 30., 91., 144., 78., 32.,
          79., 144., 80., 34., 76., 144., 73., 40., 96., 143., 73., 42. ]
      - [ 81., 145., 82., 11., 78., 144., 86., 16., 73., 144., 75., 37.,
          83., 140., 59., 48., 68., 140., 93., 48., 58., 140., 58., 50. ]
      - [ 71., 144., 86., 14., 66., 144., 82., 16., 77., 143., 84., 21.,
          89., 139., 82., 22., 85., 139., 89., 22., 78., 139., 85., 23. ]
      - [ 61., 144., 96., 25., 63., 141., 103., 27., 56., 141., 88., 28.,
          57., 139., 99., 31., 51., 139., 93., 32., 59., 138., 89., 34. ]
      - [ 97., 149., 87., 15., 90., 147., 92., 15., 87., 147., 80., 16.,
          101., 145., 96., 19., 96., 144., 84., 24., 102., 140., 93.,
          29. ]
      - [ 76., 146., 80., 17., 74., 137., 67., 32., 64., 133., 64., 33.,
          105., 117., 58., 60., 95., 117., 29., 64., 28., 95., 28., 71. ]
      - [ 66., 137., 79., 35., 77., 136., 77., 36., 72., 135., 57., 44.,
          67., 134., 54., 45., 101., 133., 82., 45., 55., 133., 55., 47. ]
      - [ 84., 139., 88., 26., 78., 138., 79., 28., 90., 135., 82., 28.,
          83., 133., 90., 28., 77., 121., 80., 31., 74., 114., 95., 32. ]
      - [ 82., 139., 78., 26., 76., 139., 81., 26., 89., 134., 86., 26.,
          70., 134., 76., 28., 85., 132., 78., 29., 61., 131., 88., 30. ]
      - [ 80., 119., 104., 34., 73., 119., 106., 37., 82., 114., 108.,
          38., 61., 111., 103., 42., 78., 108., 108., 48., 71., 108.,
          96., 50. ]
      - [ 69., 145., 111., 14., 58., 144., 105., 15., 69., 140., 111.,
          16., 67., 139., 93., 67., 53., 135., 95., 72., 61., 128., 97.,
          72. ]
      - [ 99., 137., 58., 28., 103., 136., 69., 28., 104., 133., 70.,
          30., 99., 133., 77., 30., 56., 133., 84., 30., 85., 132., 80.,
          31. ]
      - [ 68., 138., 66., 21., 61., 134., 58., 24., 64., 133., 61., 25.,
          68., 129., 67., 29., 69., 127., 65., 32., 75., 124., 81., 33. ]
      - [ 109., 147., 91., 27., 114., 139., 89., 30., 112., 139., 87.,
          33., 119., 136., 85., 35., 80., 134., 75., 42., 85., 133.,
          100., 44. ]
      - [ 52., 139., 70., 15., 42., 139., 74., 16., 92., 134., 77., 16.,
          86., 134., 81., 29., 53., 134., 80., 32., 50., 134., 59., 37. ]
      - [ 76., 147., 107., 24., 73., 145., 112., 27., 89., 138., 106.,
          70., 87., 137., 102., 72., 93., 131., 106., 74., 95., 128.,
          102., 76. ]
      - [ 83., 144., 57., 30., 53., 143., 58., 32., 79., 140., 46., 34.,
          49., 138., 56., 34., 107., 136., 87., 34., 75., 136., 35., 36. ]
      - [ 77., 145., 71., 16., 77., 139., 67., 23., 77., 137., 71., 28.,
          35., 71., 54., 32., 50., 68., 35., 51., 35., 68., 35., 56. ]
      - [ 107., 97., 107., 15., 70., 95., 89., 16., 109., 88., 103., 16.,
          71., 87., 84., 23., 87., 45., 87., 26., 84., 44., 77., 27. ]
      - [ 78., 146., 88., 34., 82., 144., 60., 52., 78., 144., 55., 55.,
          87., 141., 51., 57., 62., 139., 51., 59., 57., 136., 48., 60. ]
      - [ 100., 147., 80., 48., 99., 144., 65., 53., 94., 144., 67., 58.,
          69., 136., 95., 58., 72., 134., 85., 112., 81., 132., 73.,
          127. ]
      - [ 76., 148., 91., 15., 90., 147., 95., 16., 74., 146., 94., 21.,
          90., 144., 94., 23., 87., 144., 80., 26., 92., 140., 93., 26. ]
      - [ 107., 138., 76., 16., 98., 134., 69., 26., 104., 133., 72.,
          26., 104., 130., 84., 28., 112., 112., 81., 29., 92., 112.,
          94., 32. ]
      - [ 60., 147., 74., 16., 76., 145., 49., 22., 68., 144., 43., 24.,
          77., 143., 41., 27., 53., 140., 39., 28., 97., 137., 31., 32. ]
      - [ 106., 116., 87., 16., 104., 113., 93., 16., 98., 110., 82.,
          21., 103., 103., 87., 21., 71., 100., 93., 21., 69., 100., 98.,
          21. ]
      - [ 95., 139., 88., 16., 85., 139., 83., 21., 94., 134., 108., 25.,
          92., 134., 111., 26., 89., 134., 84., 27., 85., 134., 99., 39. ]
      - [ 96., 146., 107., 22., 85., 141., 109., 22., 93., 130., 106.,
          26., 59., 130., 117., 28., 63., 125., 112., 35., 77., 122.,
          117., 37. ]
      - [ 91., 144., 70., 16., 103., 141., 81., 16., 96., 141., 64., 19.,
          81., 141., 87., 19., 105., 136., 69., 20., 103., 136., 80.,
          21. ]
      - [ 83., 143., 76., 22., 100., 140., 75., 24., 91., 140., 77., 25.,
          74., 138., 67., 27., 72., 138., 78., 27., 101., 134., 77., 32. ]
      - [ 50., 149., 62., 31., 58., 144., 61., 33., 53., 144., 63., 34.,
          39., 144., 60., 35., 34., 144., 74., 38., 32., 138., 76., 38. ]
      - [ 59., 133., 82., 10., 49., 133., 82., 16., 76., 132., 55., 26.,
          75., 126., 60., 27., 99., 122., 65., 27., 95., 122., 79., 35. ]
      - [ 77., 143., 103., 27., 72., 139., 95., 28., 63., 135., 88., 29.,
          114., 134., 89., 35., 104., 134., 92., 35., 74., 134., 92.,
          37. ]
      - [ 77., 145., 67., 16., 112., 121., 72., 16., 112., 111., 62.,
          21., 109., 100., 47., 26., 104., 99., 59., 26., 101., 98., 68.,
          38. ]
      - [ 81., 150., 75., 16., 94., 146., 80., 17., 99., 140., 80., 20.,
          55., 133., 75., 21., 99., 130., 85., 23., 43., 126., 92., 24. ]
      - [ 91., 125., 97., 28., 94., 124., 102., 30., 87., 106., 97., 31.,
          86., 104., 99., 31., 94., 102., 96., 33., 86., 92., 106., 35. ]
      - [ 67., 140., 80., 16., 72., 138., 86., 16., 106., 133., 79., 26.,
          104., 133., 83., 26., 113., 130., 88., 35., 86., 122., 98.,
          39. ]
      - [ 82., 133., 87., 15., 43., 128., 82., 21., 37., 125., 86., 24.,
          93., 119., 90., 24., 96., 117., 82., 25., 100., 116., 84., 25. ]
      - [ 83., 145., 83., 32., 77., 144., 74., 48., 71., 144., 75., 50.,
          79., 139., 64., 57., 72., 138., 92., 58., 77., 129., 79., 68. ]
      - [ 108., 104., 96., 13., 105., 88., 86., 14., 70., 83., 89., 16.,
          71., 80., 94., 16., 106., 77., 99., 16., 74., 75., 99., 22. ]
      - [ 69., 146., 70., 19., 55., 145., 60., 28., 60., 144., 74., 28.,
          60., 142., 78., 31., 63., 138., 60., 32., 67., 135., 77., 33. ]
      - [ 76., 136., 72., 24., 83., 135., 73., 26., 78., 135., 64., 27.,
          62., 135., 74., 32., 72., 133., 71., 33., 72., 129., 74., 34. ]
      - [ 85., 144., 72., 27., 82., 144., 75., 28., 85., 140., 91., 28.,
          82., 139., 98., 28., 76., 138., 70., 30., 86., 137., 81., 30. ]
      - [ 96., 146., 86., 24., 70., 143., 71., 26., 101., 138., 78., 27.,
          71., 136., 69., 28., 67., 135., 61., 29., 94., 134., 66., 29. ]
      - [ 74., 147., 76., 16., 86., 144., 84., 18., 92., 141., 88., 22.,
          70., 141., 84., 24., 58., 141., 75., 50., 96., 140., 47., 74. ]
      - [ 57., 144., 89., 37., 52., 144., 87., 38., 48., 144., 65., 42.,
          103., 139., 76., 43., 51., 139., 82., 43., 101., 136., 86.,
          45. ]
      - [ 84., 140., 89., 25., 82., 137., 86., 26., 79., 137., 83., 27.,
          76., 137., 98., 31., 80., 135., 72., 34., 88., 125., 97., 35. ]
      - [ 69., 146., 80., 42., 69., 140., 82., 45., 65., 138., 80., 46.,
          72., 135., 75., 48., 69., 135., 97., 48., 67., 135., 112., 66. ]
      - [ 83., 149., 78., 16., 80., 149., 84., 16., 78., 149., 69., 20.,
          76., 149., 70., 23., 86., 146., 71., 26., 83., 144., 81., 26. ]
      - [ 97., 119., 90., 22., 75., 117., 93., 26., 85., 109., 99., 26.,
          88., 94., 101., 27., 87., 92., 101., 29., 85., 82., 96., 32. ]
      - [ 96., 146., 66., 26., 93., 143., 64., 27., 101., 140., 73., 28.,
          95., 140., 70., 29., 93., 140., 90., 29., 102., 138., 84., 30. ]
      - [ 113., 138., 88., 20., 98., 135., 74., 22., 95., 133., 93., 25.,
          103., 132., 89., 28., 50., 132., 99., 29., 48., 132., 97., 32. ]
      - [ 62., 144., 85., 24., 56., 142., 84., 26., 61., 140., 74., 31.,
          65., 139., 76., 32., 91., 129., 87., 33., 101., 125., 93., 36. ]
      - [ 79., 144., 77., 26., 87., 141., 80., 26., 77., 141., 83., 26.,
          87., 136., 86., 28., 78., 134., 77., 29., 82., 130., 79., 29. ]
      - [ 96., 138., 76., 28., 63., 127., 85., 28., 98., 125., 79., 36.,
          96., 121., 96., 40., 106., 116., 96., 43., 71., 116., 68., 69. ]
      - [ 109., 139., 73., 16., 95., 139., 78., 16., 52., 139., 96., 26.,
          109., 134., 64., 27., 104., 134., 64., 40., 52., 134., 55.,
          51. ]
      - [ 47., 141., 58., 26., 40., 141., 65., 27., 53., 139., 63., 31.,
          48., 136., 62., 35., 79., 133., 65., 35., 83., 128., 72., 38. ]
      - [ 75., 145., 85., 23., 68., 137., 89., 23., 83., 134., 76., 24.,
          84., 121., 87., 24., 78., 67., 80., 25., 67., 66., 85., 25. ]
      - [ 100., 129., 97., 18., 101., 122., 103., 18., 93., 122., 101.,
          20., 85., 122., 106., 20., 98., 114., 116., 25., 91., 109.,
          92., 26. ]
      - [ 72., 141., 64., 6., 67., 141., 78., 14., 78., 139., 73., 15.,
          80., 134., 83., 15., 83., 132., 78., 16., 81., 132., 63., 20. ]
      - [ 90., 149., 78., 28., 97., 144., 81., 30., 92., 144., 74., 32.,
          85., 144., 80., 32., 103., 139., 76., 33., 100., 139., 83.,
          33. ]
      - [ 89., 143., 85., 34., 60., 138., 83., 35., 51., 137., 74., 39.,
          62., 136., 76., 40., 54., 136., 93., 40., 53., 132., 79., 42. ]
      - [ 95., 142., 71., 20., 96., 140., 87., 24., 96., 130., 76., 29.,
          70., 114., 78., 30., 59., 113., 93., 30., 66., 111., 83., 32. ]
      - [ 85., 149., 87., 15., 87., 144., 74., 24., 82., 144., 70., 27.,
          84., 140., 83., 27., 116., 115., 78., 28., 113., 114., 71.,
          31. ]
      - [ 89., 151., 88., 19., 65., 149., 82., 20., 83., 147., 87., 21.,
          93., 144., 89., 23., 73., 144., 92., 27., 71., 144., 83., 28. ]
      - [ 73., 144., 87., 29., 68., 144., 82., 30., 62., 144., 86., 31.,
          57., 144., 83., 33., 81., 142., 81., 34., 62., 142., 77., 36. ]
      - [ 51., 143., 64., 26., 91., 127., 67., 26., 87., 125., 66., 28.,
          72., 124., 71., 29., 88., 123., 59., 30., 93., 122., 70., 33. ]
      - [ 91., 144., 85., 22., 86., 141., 87., 25., 67., 138., 80., 27.,
          72., 136., 85., 27., 66., 133., 76., 28., 101., 131., 88., 28. ]
      - [ 103., 135., 83., 32., 104., 121., 87., 32., 89., 116., 78.,
          33., 83., 111., 76., 38., 64., 110., 97., 38., 61., 108., 83.,
          39. ]
      - [ 76., 145., 103., 25., 80., 144., 74., 30., 74., 114., 85., 30.,
          75., 112., 105., 31., 105., 105., 82., 32., 109., 102., 82.,
          34. ]
      - [ 71., 144., 70., 24., 76., 140., 69., 26., 94., 133., 58., 27.,
          95., 131., 64., 27., 86., 123., 66., 27., 59., 109., 71., 27. ]
      - [ 62., 134., 88., 16., 60., 134., 90., 16., 106., 129., 112.,
          26., 58., 129., 114., 26., 98., 127., 104., 29., 100., 125.,
          114., 29. ]
      - [ 91., 144., 77., 24., 69., 144., 75., 25., 96., 141., 70., 29.,
          64., 141., 78., 36., 64., 138., 82., 37., 94., 136., 79., 39. ]
      - [ 88., 145., 93., 12., 90., 144., 88., 16., 82., 144., 84., 23.,
          80., 144., 67., 26., 77., 144., 71., 27., 75., 122., 92., 27. ]
      - [ 83., 146., 94., 24., 87., 145., 91., 25., 73., 144., 96., 28.,
          69., 144., 85., 34., 96., 141., 89., 37., 94., 138., 88., 39. ]
      - [ 78., 145., 91., 30., 72., 141., 90., 34., 96., 140., 64., 35.,
          71., 139., 67., 35., 73., 138., 98., 41., 103., 137., 63., 42. ]
      - [ 60., 136., 72., 24., 50., 136., 61., 25., 58., 135., 64., 27.,
          56., 135., 74., 28., 53., 130., 62., 29., 73., 124., 77., 29. ]
      - [ 100., 134., 89., 20., 94., 133., 82., 23., 95., 130., 85., 23.,
          97., 129., 90., 27., 69., 128., 84., 30., 99., 125., 76., 34. ]
      - [ 59., 146., 74., 26., 57., 138., 72., 27., 89., 131., 78., 31.,
          78., 131., 71., 33., 84., 130., 75., 35., 90., 126., 71., 37. ]
      - [ 75., 135., 72., 16., 50., 127., 67., 20., 58., 124., 69., 23.,
          52., 124., 68., 35., 68., 105., 74., 37., 66., 101., 66., 48. ]
      - [ 89., 130., 74., 33., 94., 125., 85., 39., 83., 123., 71., 41.,
          73., 123., 79., 42., 89., 121., 70., 48., 80., 120., 78., 48. ]
      - [ 94., 142., 72., 16., 83., 138., 77., 17., 89., 137., 75., 19.,
          93., 133., 72., 26., 92., 131., 67., 27., 80., 129., 73., 31. ]
      - [ 80., 136., 84., 29., 86., 125., 79., 31., 72., 114., 91., 34.,
          80., 111., 91., 36., 73., 106., 82., 39., 74., 104., 75., 44. ]
      - [ 70., 144., 79., 21., 77., 143., 75., 29., 65., 143., 76., 32.,
          58., 143., 81., 33., 70., 140., 74., 36., 85., 138., 77., 36. ]
      - [ 81., 129., 82., 23., 98., 113., 92., 24., 93., 112., 92., 27.,
          101., 111., 91., 30., 87., 106., 76., 38., 67., 92., 85., 38. ]
      - [ 94., 138., 89., 22., 60., 138., 89., 28., 100., 133., 80., 29.,
          61., 133., 85., 32., 56., 127., 62., 71., 50., 127., 71., 73. ]
      - [ 81., 146., 83., 43., 95., 126., 93., 44., 97., 125., 101., 55.,
          98., 123., 96., 56., 96., 122., 81., 57., 74., 114., 104., 64. ]
      - [ 91., 140., 96., 33., 85., 138., 96., 35., 82., 138., 81., 39.,
          69., 137., 93., 39., 97., 135., 90., 41., 76., 135., 94., 42. ]
      - [ 98., 144., 90., 42., 96., 144., 86., 43., 88., 144., 83., 125.,
          96., 138., 84., 130., 101., 137., 75., 132., 80., 135., 111.,
          132. ]
      - [ 82., 143., 71., 22., 83., 135., 75., 22., 57., 135., 62., 26.,
          88., 132., 69., 26., 63., 128., 68., 28., 92., 105., 78., 28. ]
      - [ 70., 145., 77., 20., 81., 144., 74., 21., 64., 144., 80., 26.,
          83., 142., 83., 26., 87., 140., 82., 28., 58., 140., 77., 35. ]
      - [ 84., 144., 81., 19., 68., 144., 83., 25., 88., 140., 68., 27.,
          63., 140., 74., 29., 97., 135., 72., 35., 94., 135., 59., 36. ]
      - [ 72., 146., 78., 26., 72., 144., 73., 27., 73., 141., 81., 28.,
          74., 139., 65., 33., 79., 138., 66., 36., 69., 136., 64., 38. ]
      - [ 77., 144., 89., 14., 75., 144., 82., 16., 77., 142., 84., 16.,
          59., 132., 79., 23., 62., 127., 92., 30., 77., 125., 77., 31. ]
      - [ 48., 136., 69., 30., 112., 134., 68., 32., 108., 134., 48.,
          34., 92., 133., 48., 39., 109., 132., 52., 41., 66., 132., 48.,
          42. ]
      - [ 81., 144., 72., 38., 76., 144., 54., 40., 73., 144., 62., 42.,
          69., 144., 80., 42., 100., 141., 82., 42., 87., 141., 52., 43. ]
      - [ 66., 146., 77., 21., 59., 143., 79., 22., 67., 140., 79., 26.,
          67., 138., 76., 27., 97., 136., 82., 30., 61., 136., 64., 31. ]
      - [ 82., 146., 101., 32., 77., 145., 113., 33., 87., 144., 101.,
          34., 91., 141., 116., 35., 87., 138., 101., 36., 102., 135.,
          121., 36. ]
      - [ 82., 146., 99., 24., 77., 144., 79., 30., 73., 141., 89., 35.,
          74., 136., 79., 37., 70., 136., 55., 89., 66., 136., 90., 102. ]
      - [ 94., 144., 76., 34., 79., 144., 80., 35., 99., 143., 79., 37.,
          74., 143., 78., 39., 79., 140., 89., 41., 101., 138., 68., 42. ]
      - [ 77., 145., 69., 27., 75., 139., 80., 28., 72., 139., 83., 29.,
          63., 133., 84., 31., 63., 127., 76., 38., 58., 124., 74., 39. ]
      - [ 77., 144., 87., 16., 106., 139., 90., 16., 72., 139., 94., 16.,
          64., 139., 96., 26., 104., 134., 99., 26., 74., 134., 90., 31. ]
      - [ 96., 150., 81., 26., 94., 143., 85., 26., 66., 138., 88., 26.,
          102., 136., 92., 26., 93., 136., 83., 27., 98., 133., 90., 27. ]
      - [ 63., 140., 91., 38., 58., 140., 101., 41., 92., 139., 99., 42.,
          60., 139., 103., 42., 101., 138., 84., 47., 106., 137., 95.,
          50. ]
      - [ 57., 149., 74., 26., 64., 146., 66., 27., 59., 144., 77., 27.,
          93., 142., 63., 29., 60., 142., 70., 32., 99., 138., 83., 32. ]
      - [ 93., 147., 87., 16., 91., 145., 76., 20., 81., 138., 85., 24.,
          79., 135., 70., 26., 81., 121., 74., 27., 93., 115., 85., 27. ]
      - [ 35., 123., 69., 14., 66., 113., 71., 15., 116., 110., 66., 17.,
          55., 110., 67., 22., 101., 109., 75., 26., 64., 109., 80., 27. ]
      - [ 77., 97., 72., 16., 78., 93., 75., 16., 95., 88., 67., 21.,
          64., 81., 59., 25., 67., 80., 64., 26., 41., 72., 68., 26. ]
      - [ 53., 81., 89., 16., 53., 79., 94., 17., 53., 77., 86., 21.,
          72., 69., 66., 29., 52., 53., 70., 29., 53., 50., 82., 30. ]
      - [ 88., 135., 78., 24., 69., 135., 81., 24., 79., 130., 83., 27.,
          74., 127., 76., 29., 72., 125., 82., 33., 75., 124., 74., 35. ]
      - [ 93., 144., 84., 32., 98., 141., 87., 32., 93., 139., 86., 34.,
          80., 139., 93., 40., 75., 139., 93., 42., 72., 139., 84., 48. ]
      - [ 102., 143., 80., 30., 110., 140., 63., 34., 109., 138., 79.,
          36., 106., 138., 90., 38., 104., 138., 76., 39., 48., 137.,
          78., 39. ]
      - [ 82., 135., 83., 21., 60., 129., 84., 24., 57., 128., 73., 25.,
          98., 111., 76., 25., 74., 103., 81., 25., 73., 96., 74., 28. ]
      - [ 92., 136., 62., 23., 90., 136., 67., 23., 89., 127., 87., 25.,
          61., 113., 72., 26., 77., 109., 82., 30., 76., 104., 81., 33. ]
   decision_functions:
      -
         sv_count: 618
         rho: 1.9199029126213593e-01
         alpha: [ 1.2500000000000000e-01, 1.2500000000000000e-01,
             1.2500000000000000e-01, 1.2500000000000000e-01,
             1.2500000000000000e-01, 1.2500000000000000e-01,
             1.2500000000000000e-01, 1.2500000000000000e-01,
             1.2500000000000000e-01, 1.2500000000000000e-01,
             1.2500000000000000e-01, 1.2500000000000000e-01,
             1.2500000000000000e-01, 1.2500000000000000e-01,
             1.2500000000000000e-01, 1.2500000000000000e-01,
             1.2500000000000000e-01, 1.2500000000000000e-01,
             1.2500000000000000e-01, 1.2500000000000000e-01,
             1.2500000000000000e-01, 1.2500000000000000e-01,
             1.2500000000000000e-01, 1.2500000000000000e-01,
             1.2500000000000000e-01, 1.2500000000000000e-01,
             1.2500000000000000e-01, 1.2500000000000000e-01,
             1.2500000000000000e-01, 1.2500000000000000e-01,
             1.2500000000000000e-01, 1.2500000000000000e-01,
             1.2500000000000000e-01, 1.2500000000000000e-01,
             1.2500000000000000e-01, 1.2500000000000000e-01,
             1.2500000000000000e-01, 1.2500000000000000e-01,
             1.2500000000000000e-01, 1.2500000000000000e-01,
             1.2500000000000000e-01, 1.2500000000000000e-01,
             1.2500000000000000e-01, 1.2500000000000000e-01,
             1.2500000000000000e-01, 1.2500000000000000e-01,
             1.2500000000000000e-01, 1.2500000000000000e-01,
             1.2500000000000000e-01, 1.2500000000000000e-01,
             1.2500000000000000e-01, 1.2500000000000000e-01,
             1.2500000000000000e-01, 1.2500000000000000e-01,
             1.2500000000000000e-01, 1.2500000000000000e-01,
             1.2500000000000000e-01, 1.2500000000000000e-01,
             1.2500000000000000e-01, 1.2500000000000000e-01,
             1.2500000000000000e-01, 1.2500000000000000e-01,
             1.2500000000000000e-01, 1.2500000000000000e-01,
             1.2500000000000000e-01, 1.2500000000000000e-01,
             1.2500000000000000e-01, 1.2500000000000000e-01,
             1.2500000000000000e-01, 1.2500000000000000e-01,
             1.2500000000000000e-01, 1.2500000000000000e-01,
             1.2500000000000000e-01, 1.2500000000000000e-01,
             1.2500000000000000e-01, 1.2500000000000000e-01,
             1.2500000000000000e-01, 1.2500000000000000e-01,
             1.2500000000000000e-01, 1.2500000000000000e-01,
             1.2500000000000000e-01, 1.2500000000000000e-01,
             1.2500000000000000e-01, 1.2500000000000000e-01,
             1.2500000000000000e-01, 1.2500000000000000e-01,
             1.2500000000000000e-01, 1.2500000000000000e-01,
             1.2500000000000000e-01, 1.2500000000000000e-01,
             1.2500000000000000e-01, 1.2500000000000000e-01,
             1.2500000000000000e-01, 1.2500000000000000e-01,
             1.2500000000000000e-01, 1.2500000000000000e-01,
             1.2500000000000000e-01, 1.2500000000000000e-01,
             1.2500000000000000e-01, 1.2500000000000000e-01,
             1.2500000000000000e-01, 1.2500000000000000e-01,
             1.2500000000000000e-01, 1.2500000000000000e-01,
             1.2500000000000000e-01, 1.2500000000000000e-01,
             1.2500000000000000e-01, 1.2500000000000000e-01,
             1.2500000000000000e-01, 1.2500000000000000e-01,
             1.2500000000000000e-01, 1.2500000000000000e-01,
             1.2500000000000000e-01, 1.2500000000000000e-01,
             1.2500000000000000e-01, 1.2500000000000000e-01,
             1.2500000000000000e-01, 1.2500000000000000e-01,
             1.2500000000000000e-01, 1.2500000000000000e-01,
             1.2500000000000000e-01, 1.2500000000000000e-01,
             1.2500000000000000e-01, 1.2500000000000000e-01,
             1.2500000000000000e-01, 1.2500000000000000e-01,
             1.2500000000000000e-01, 1.2500000000000000e-01,
             1.2500000000000000e-01, 1.2500000000000000e-01,
             1.2500000000000000e-01, 1.2500000000000000e-01,
             1.2500000000000000e-01, 1.2500000000000000e-01,
             1.2500000000000000e-01, 1.2500000000000000e-01,
             1.2500000000000000e-01, 1.2500000000000000e-01,
             1.2500000000000000e-01, 1.2500000000000000e-01,
             1.2500000000000000e-01, 1.2500000000000000e-01,
             1.2500000000000000e-01, 2.5000000000000000e-01,
             2.5000000000000000e-01, 2.5000000000000000e-01,
             2.5000000000000000e-01, 2.5000000000000000e-01,
             2.5000000000000000e-01, 2.5000000000000000e-01,
             2.5000000000000000e-01, 2.5000000000000000e-01,
             2.5000000000000000e-01, 2.5000000000000000e-01,
             2.5000000000000000e-01, 2.5000000000000000e-01,
             2.5000000000000000e-01, 2.5000000000000000e-01,
             2.5000000000000000e-01, 2.5000000000000000e-01,
             2.5000000000000000e-01, 2.5000000000000000e-01,
             2.5000000000000000e-01, 2.5000000000000000e-01,
             2.5000000000000000e-01, 2.5000000000000000e-01,
             2.5000000000000000e-01, 2.5000000000000000e-01,
             2.5000000000000000e-01, 2.5000000000000000e-01,
             2.5000000000000000e-01, 2.5000000000000000e-01,
             2.5000000000000000e-01, 2.5000000000000000e-01,
             2.5000000000000000e-01, 2.5000000000000000e-01,
             2.5000000000000000e-01, 2.5000000000000000e-01,
             2.5000000000000000e-01, 2.5000000000000000e-01,
             2.5000000000000000e-01, 2.5000000000000000e-01,
             2.5000000000000000e-01, 2.5000000000000000e-01,
             2.5000000000000000e-01, 2.5000000000000000e-01,
             2.5000000000000000e-01, 2.5000000000000000e-01,
             2.5000000000000000e-01, 2.5000000000000000e-01,
             2.5000000000000000e-01, 2.5000000000000000e-01,
             2.5000000000000000e-01, 2.5000000000000000e-01,
             2.5000000000000000e-01, 2.5000000000000000e-01,
             2.5000000000000000e-01, 2.5000000000000000e-01,
             2.5000000000000000e-01, 2.5000000000000000e-01,
             2.5000000000000000e-01, 2.5000000000000000e-01,
             2.5000000000000000e-01, 2.5000000000000000e-01,
             2.5000000000000000e-01, 2.5000000000000000e-01,
             2.5000000000000000e-01, 2.5000000000000000e-01,
             2.5000000000000000e-01, 2.5000000000000000e-01,
             2.5000000000000000e-01, 2.5000000000000000e-01,
             2.5000000000000000e-01, 2.5000000000000000e-01,
             2.5000000000000000e-01, 2.5000000000000000e-01,
             2.5000000000000000e-01, 2.5000000000000000e-01,
             2.5000000000000000e-01, 2.5000000000000000e-01,
             2.5000000000000000e-01, 2.5000000000000000e-01,
             2.5000000000000000e-01, 2.5000000000000000e-01,
