%YAML:1.0
opencv_ml_svm:
   format: 3
   svmType: ONE_CLASS
   kernel:
      type: RBF
      gamma: 1.0000000000000001e-01
   nu: 1.0000000000000001e-01
   term_criteria: { iterations:500 }
   var_count: 960
   class_count: 1
   sv_total: 45
   support_vectors:
      - [ -5.86163311e-04, 1.82884140e-03, 5.86163311e-04,
          1.82884140e-03, 3.22152413e-02, 2.45114174e-02, 3.22152413e-02,
          2.45114174e-02, 7.40525872e-02, 1.59288477e-02, 7.40525872e-02,
          1.87877081e-02, 1.21113192e-02, -5.70524950e-03,
          1.21113192e-02, 5.73177589e-03, 3.08227865e-03, 2.57328525e-02,
          5.26866596e-03, 2.57328525e-02, 2.68835902e-01, 1.62355125e-01,
          2.68835902e-01, 1.62355125e-01, 3.76188695e-01, 1.41985923e-01,
          3.76188695e-01, 1.41985923e-01, 2.91184317e-02, 2.95121297e-02,
          3.01358327e-02, 3.61708961e-02, 2.82755168e-03, 1.11151917e-03,
          2.82755168e-03, 1.93666876e-03, 1.81078389e-01,
          -7.29898810e-02, 1.81078389e-01, 8.15432593e-02,
          3.53268236e-01, -2.45803073e-01, 3.53268236e-01,
          2.45803073e-01, 5.04927151e-02, -4.35228907e-02,
          5.21810539e-02, 4.83216792e-02, 0., 0., 0., 0., 1.08231157e-02,
          -1.97206275e-03, 1.08231157e-02, 4.58257645e-03,
          7.11655896e-03, -1.58700868e-02, 1.09319575e-02,
          1.99739505e-02, 6.73292298e-03, -9.49555449e-03,
          6.76609157e-03, 9.52872355e-03, 7.00704101e-03,
          -1.76105637e-03, 7.06384657e-03, 1.76105637e-03,
          8.37395042e-02, -1.16580557e-02, 8.37395042e-02,
          1.16580557e-02, -3.69971152e-04, -2.12667766e-03,
          2.20047086e-02, 3.66189587e-03, -2.86129327e-03,
          -3.22312117e-04, 2.89655826e-03, 3.22312117e-04,
          4.94363159e-02, 1.27500240e-02, 4.94363159e-02, 1.27771627e-02,
          5.40054440e-01, -1.82222389e-02, 5.40054440e-01,
          3.98253053e-02, 3.94124240e-02, -5.49852178e-02,
          1.67360872e-01, 5.64521365e-02, -2.44527441e-02,
          -3.20384838e-03, 2.46221125e-02, 3.41712940e-03,
          4.42528501e-02, 4.09620851e-02, 4.42528501e-02, 4.09620851e-02,
          3.75846535e-01, 1.38173684e-01, 3.75846535e-01, 1.40291825e-01,
          5.30051887e-02, 2.97674853e-02, 1.35389328e-01, 5.77038638e-02,
          -2.24050395e-02, 7.45349191e-03, 2.24390291e-02,
          8.26134160e-03, 5.79130324e-03, 6.97542867e-03, 5.79130324e-03,
          6.97542867e-03, 2.15000622e-02, 2.47035790e-02, 2.26615611e-02,
          2.47035790e-02, 5.58440341e-03, -1.63325889e-03,
          1.15256980e-02, 5.51342685e-03, -3.06566805e-03,
          7.20850308e-04, 3.06566805e-03, 9.63600585e-04, 1.37176842e-03,
          -6.87669264e-04, 1.37176842e-03, 6.87669264e-04,
          4.73201424e-02, 1.08257066e-02, 4.73201424e-02, 1.19078755e-02,
          3.47683276e-03, 1.25325499e-02, 3.83845866e-02, 2.33770590e-02,
          -1.59752984e-02, -1.12210289e-02, 1.59752984e-02,
          1.12210289e-02, 2.01842245e-02, 7.92491250e-03, 2.01842245e-02,
          8.58169608e-03, 3.50878805e-01, 8.63121152e-02, 3.50878805e-01,
          8.63121152e-02, -3.25482577e-01, -1.64917231e-01,
          4.14491177e-01, 1.73932567e-01, -1.54824033e-01,
          -3.78852598e-02, 1.54824033e-01, 4.11897711e-02,
          2.84507740e-02, -1.58610434e-04, 2.84507740e-02,
          3.26478574e-03, 1.79648921e-01, -1.09989889e-01,
          1.79648921e-01, 1.23442411e-01, -3.00422698e-01,
          -6.38552159e-02, 3.06342393e-01, 1.56778157e-01,
          -9.82791185e-02, 7.63358995e-02, 9.82791185e-02,
          7.63358995e-02, 2.33055232e-03, 1.32780580e-03, 2.33055232e-03,
          1.32780580e-03, 1.89028382e-02, -1.57474971e-03,
          1.89028382e-02, 9.93999094e-03, 2.97423340e-02, 4.18566242e-02,
          2.97423340e-02, 4.18566242e-02, -7.40899297e-04,
          1.74176842e-02, 2.67140707e-03, 1.74176842e-02, 1.74730638e-04,
          -3.61352274e-03, 4.18601237e-04, 3.66654503e-03,
          2.77606174e-02, -2.58118380e-03, 2.77872328e-02,
          1.04204724e-02, 5.18024638e-02, 3.26464418e-03, 5.18024638e-02,
          1.22802295e-02, 5.42274350e-03, -5.14858728e-03,
          5.42274350e-03, 6.50172494e-03, 1.51350917e-02,
          -2.96757347e-03, 1.51350917e-02, 9.23190359e-03,
          3.18936944e-01, 7.46356919e-02, 3.18936944e-01, 8.17332491e-02,
          3.83574180e-02, -1.00935116e-01, 1.50503680e-01,
          1.31473079e-01, -3.00616194e-02, -8.24703500e-02,
          3.27143297e-02, 8.24703500e-02, 2.30401121e-02,
          -2.18754681e-03, 2.30401121e-02, 6.12017559e-03,
          1.83745548e-01, -1.55188397e-01, 1.98487595e-01,
          1.56701565e-01, -2.71265179e-01, -4.38162953e-01,
          2.79575169e-01, 4.38162953e-01, -7.08457902e-02,
          -8.99157673e-02, 7.08457902e-02, 8.99157673e-02,
          2.03066878e-03, -2.43626768e-03, 2.03066878e-03,
          2.43626768e-03, -1.30389528e-02, -3.73946317e-02,
          2.11213380e-02, 3.73946317e-02, -7.31720403e-02,
          -7.05482513e-02, 7.31720403e-02, 7.05748722e-02,
          -8.41486361e-03, -9.14444122e-03, 8.41700286e-03,
          9.32122301e-03, -3.23920487e-03, 6.46562557e-06,
          3.23920487e-03, 4.81629453e-04, -6.38579624e-03,
          -4.64890152e-03, 6.81879371e-03, 6.99791033e-03,
          1.75439077e-03, -6.59775082e-03, 3.03022237e-03,
          8.33679922e-03, 9.22862819e-05, 1.37141324e-03, 5.19092369e-04,
          1.37693470e-03, -2.70258579e-02, -4.05199528e-02,
          2.70258579e-02, 4.05199528e-02, -5.96566983e-02,
          -2.56886870e-01, 7.27718323e-02, 2.56886870e-01,
          2.26941615e-01, -5.65792471e-02, 2.26941615e-01,
          1.27591938e-01, 2.93975398e-02, 4.31527495e-02, 3.09881363e-02,
          4.31527495e-02, -1.52284699e-02, -4.02669013e-02,
          1.52284699e-02, 4.02669013e-02, 8.02366883e-02,
          -1.46071047e-01, 1.11988254e-01, 1.46071047e-01,
          5.59168994e-01, 5.96598871e-02, 5.59168994e-01, 8.48084390e-02,
          5.02512641e-02, 3.35555412e-02, 5.19931652e-02, 3.38930972e-02,
          -1.13235670e-03, 2.13681068e-03, 1.13334320e-03,
          2.17266707e-03, 1.64026041e-02, 1.59829750e-03, 1.85815785e-02,
          9.07505024e-03, 8.87164846e-02, -1.54801449e-02,
          8.87164846e-02, 1.55877341e-02, 9.39221028e-03,
          -2.16791523e-03, 9.43004247e-03, 2.19999929e-03,
          1.83648104e-03, -9.02185217e-04, 2.05012434e-03,
          2.10006628e-03, 3.97252142e-02, -4.39343527e-02,
          3.97252142e-02, 4.39343527e-02, 4.65985872e-02,
          -2.94738021e-02, 4.70361225e-02, 3.11334357e-02,
          -1.26337621e-03, 3.23179248e-03, 2.15665181e-03,
          3.23179248e-03, 9.50578321e-03, 4.57349867e-02, 1.48040699e-02,
          4.57349867e-02, -9.26430076e-02, 1.20818794e-01,
          1.75680742e-01, 1.97594523e-01, 5.03591537e-01,
          -1.06125042e-01, 5.03591537e-01, 1.40782297e-01,
          6.46419777e-03, -1.89530775e-02, 2.06180774e-02,
          1.97788477e-02, 4.09968533e-02, -1.94445644e-02,
          4.09968533e-02, 2.82427724e-02, -1.48952290e-01,
          1.92976385e-01, 1.64002851e-01, 2.45243311e-01, 2.43228763e-01,
          1.23610608e-01, 2.52715707e-01, 1.87630162e-01,
          -3.27184275e-02, -4.83304635e-02, 3.54110077e-02,
          4.83304635e-02, 7.48386094e-03, -1.02551272e-02,
          7.48386094e-03, 1.02551272e-02, 1.96946766e-02,
          -6.32188544e-02, 1.96946766e-02, 6.32188544e-02,
          -1.07208723e-02, -6.49874657e-02, 1.12593891e-02,
          6.49874657e-02, -7.96605647e-03, -1.03658792e-02,
          7.96605647e-03, 1.03658792e-02, -5.00630494e-03,
          3.56987631e-03, 5.00630494e-03, 3.56987631e-03, 1.35750901e-02,
          1.45884249e-02, 2.10293867e-02, 1.45884249e-02, 6.26119152e-02,
          2.67319102e-02, 6.26119152e-02, 2.67319102e-02, 3.71109881e-03,
          4.12028469e-03, 4.13223356e-03, 4.12028469e-03,
          -4.03945595e-02, 8.38983990e-03, 4.03945595e-02,
          9.29559208e-03, 1.34372532e-01, 7.81636238e-02, 2.07418799e-01,
          7.81636238e-02, 4.42301720e-01, 1.11702807e-01, 4.42301720e-01,
          1.11702807e-01, 1.19911032e-02, 3.92354652e-03, 1.61191840e-02,
          3.99936829e-03, -4.25883681e-02, -7.96218123e-03,
          4.25883681e-02, 8.43509287e-03, 1.50736004e-01,
          -8.75516012e-02, 2.26868480e-01, 8.75516012e-02,
          4.23837304e-01, -1.28602996e-01, 4.23837304e-01,
          1.28602996e-01, 1.38891377e-02, -1.30297551e-02,
          1.57435816e-02, 1.34770153e-02, -5.78167662e-03,
          -3.18555813e-03, 5.78167662e-03, 3.18555813e-03,
          9.86084621e-03, -1.79873854e-02, 2.06762049e-02,
          1.79873854e-02, 4.69589010e-02, -4.42291833e-02,
          4.69589010e-02, 4.42291833e-02, 5.14109991e-03,
          -7.22683733e-03, 5.14109991e-03, 7.22683733e-03,
          -3.15284589e-03, -5.44229243e-03, 3.15339817e-03,
          5.45120705e-03, -5.37545932e-03, -1.35450158e-02,
          1.64528899e-02, 1.68736801e-02, 3.13121043e-02, 3.43552120e-02,
          3.19268927e-02, 3.43724228e-02, 4.96617611e-03, 7.49269826e-03,
          4.96617611e-03, 7.49269826e-03, -9.21301637e-03,
          -2.30546910e-02, 9.48351715e-03, 2.30546910e-02,
          2.45601460e-01, 4.22158744e-03, 2.50955403e-01, 5.23572937e-02,
          3.84528220e-01, 1.36229515e-01, 3.84528220e-01, 1.36229515e-01,
          1.52140381e-02, 1.33549497e-02, 1.62987951e-02, 1.39435288e-02,
          -3.47228046e-03, -1.85692776e-03, 5.22944983e-03,
          1.85692776e-03, 3.00232887e-01, -5.44789694e-02,
          3.00232887e-01, 5.44789694e-02, 4.01073486e-01,
          -8.57779533e-02, 4.01073486e-01, 8.57779533e-02,
          8.63867812e-03, -5.38072316e-03, 1.26558365e-02,
          5.41703263e-03, -8.82395194e-04, 1.00142228e-04,
          8.82395194e-04, 1.71336593e-04, 2.86407061e-02,
          -1.09094689e-02, 2.89139878e-02, 1.09262597e-02,
          6.32622764e-02, -1.88592970e-02, 6.32622764e-02,
          1.88592970e-02, 3.01572424e-03, -8.51188903e-04,
          3.20810638e-03, 1.00881467e-03, 6.40331954e-03,
          -1.50874676e-02, 7.40539795e-03, 1.50874676e-02,
          1.32331066e-02, -7.56253395e-03, 4.32326235e-02,
          2.07999665e-02, -1.75787006e-02, 8.44766758e-03,
          1.75787006e-02, 8.44766758e-03, -5.65633760e-04,
          -9.12941105e-05, 5.65633760e-04, 4.59698727e-04,
          8.77732709e-02, -2.12382320e-02, 1.03554413e-01,
          4.01325598e-02, 4.88753974e-01, -5.53491451e-02,
          5.77171206e-01, 9.89386812e-02, -1.76080450e-01,
          5.71030974e-02, 1.76080450e-01, 5.71030974e-02,
          -6.88282214e-03, 5.44550270e-03, 6.88282214e-03,
          5.44550270e-03, 8.02081972e-02, 7.74012655e-02, 8.39599147e-02,
          7.74012655e-02, 3.47167820e-01, 7.08332509e-02, 3.47167820e-01,
          1.58849090e-01, -1.03503913e-01, -2.27818917e-03,
          1.03503913e-01, 3.74340080e-02, -1.49871763e-02,
          4.01892746e-03, 1.49871763e-02, 5.23765385e-03, 5.90836164e-03,
          9.91310831e-03, 5.90836164e-03, 9.91310831e-03,
          -3.75064951e-03, 2.61369627e-02, 1.20793991e-02,
          2.61369627e-02, -1.01136947e-02, 3.54678393e-03,
          1.01136947e-02, 3.54678393e-03, -1.78292196e-03,
          3.27441841e-04, 1.78292196e-03, 3.30674753e-04, 3.63385514e-03,
          -1.57864022e-04, 3.66330915e-03, 6.05908048e-04,
          4.76352908e-02, 3.34338434e-02, 4.76352908e-02, 3.34509313e-02,
          3.16602215e-02, 5.83044477e-02, 3.16602215e-02, 5.83044477e-02,
          2.55509070e-03, 6.32777670e-03, 2.55509070e-03, 6.32777670e-03,
          3.19951326e-02, 2.04463545e-02, 3.32948156e-02, 2.04463545e-02,
          4.80959058e-01, 1.24448761e-01, 4.80959058e-01, 1.24448761e-01,
          1.65713862e-01, 1.05852969e-01, 1.69833392e-01, 1.05852969e-01,
          -8.57279729e-03, -3.71717295e-04, 1.01345899e-02,
          6.31249556e-03, 1.53967775e-02, 1.86244939e-02, 1.75732821e-02,
          1.86244939e-02, 3.93060923e-01, -6.11167178e-02,
          3.93060923e-01, 7.82627985e-02, 1.84349209e-01,
          -6.83337897e-02, 1.88872993e-01, 6.88662454e-02,
          -2.02724729e-02, -5.57243126e-04, 2.02724729e-02,
          2.04638322e-03, 5.31907499e-05, 1.06441687e-04, 6.79123681e-04,
          1.56745795e-04, 3.53061520e-02, -2.12789550e-02,
          3.54458205e-02, 2.12789550e-02, 4.34974656e-02,
          -2.81575155e-02, 4.34974656e-02, 2.81575155e-02,
          -2.39604549e-03, -1.20567426e-03, 2.66779494e-03,
          1.20567426e-03, -1.14607904e-03, 2.82667024e-05,
          1.67917134e-03, 7.39246316e-04, 7.14021474e-02, 2.28476394e-02,
          7.14021474e-02, 2.40168404e-02, 1.45127237e-01,
          -4.48628366e-02, 1.45127237e-01, 4.75854538e-02,
          1.95639357e-02, -2.24611647e-02, 1.95639357e-02,
          2.24611647e-02, 1.62847172e-02, 1.10320095e-02, 2.04341132e-02,
          1.14574004e-02, 4.10661966e-01, 9.39066410e-02, 4.10661966e-01,
          1.05740368e-01, 1.14285909e-01, -3.47268641e-01,
          2.14686230e-01, 3.52286220e-01, 4.08427753e-02,
          -1.57495528e-01, 4.18995321e-02, 1.57495528e-01,
          1.77103058e-02, 1.82630736e-02, 1.82393435e-02, 1.82630736e-02,
          2.05478340e-01, -6.76349849e-02, 2.05478340e-01,
          9.25589129e-02, -1.88874200e-01, -1.60853267e-01,
          1.88874200e-01, 1.63754806e-01, 7.77047314e-03,
          -8.63904878e-03, 1.92245692e-02, 2.88695469e-02,
          1.40708254e-03, 4.35837917e-03, 1.40708254e-03, 4.35945811e-03,
          2.46785290e-04, 1.63791627e-02, 6.22442365e-03, 1.74359158e-02,
          -1.14548625e-02, 7.70622259e-03, 1.14548625e-02,
          1.07837711e-02, 4.80356533e-03, 1.93879101e-03, 4.80356533e-03,
          1.93879101e-03, 1.37427971e-02, -8.99809878e-03,
          1.37427971e-02, 9.02635697e-03, 1.75158307e-02,
          -4.92782332e-02, 4.48930077e-02, 4.95342426e-02,
          -5.16785495e-02, 1.26586892e-02, 5.17679974e-02,
          1.98840201e-02, 1.43029820e-03, 1.85962883e-03, 1.43029820e-03,
          2.66614393e-03, 2.78341509e-02, -1.23773776e-02,
          3.13584767e-02, 1.95413418e-02, 3.27529132e-01,
          -3.42856854e-01, 3.27529132e-01, 3.42856854e-01,
          4.66787256e-02, -8.31585005e-02, 1.45887569e-01,
          1.66608214e-01, 2.56192144e-02, 4.90947254e-02, 2.66560856e-02,
          4.90947254e-02, 3.39344889e-03, 1.69847980e-02, 8.11618101e-03,
          1.74917039e-02, 2.57937968e-01, 6.41030073e-02, 2.57937968e-01,
          7.10844472e-02, 3.78373504e-01, 1.02352753e-01, 3.78373504e-01,
          1.34202257e-01, 1.67770348e-02, 1.14115456e-03, 3.29979658e-02,
          4.09803875e-02, 1.87155628e-03, -3.30961746e-04,
          1.94418104e-03, 6.86488929e-04, 2.94465702e-02,
          -1.11005632e-02, 2.95586009e-02, 1.11452863e-02,
          2.20707972e-02, -5.34248874e-02, 2.43587755e-02,
          5.34248874e-02, -5.07439999e-03, -1.51863489e-02,
          5.07439999e-03, 1.51863489e-02, 3.71527998e-03,
          -7.99035747e-03, 3.71527998e-03, 8.09778739e-03,
          -1.12806242e-02, -4.20228802e-02, 1.47399539e-02,
          4.31112535e-02, 5.72844734e-03, -1.18489880e-02,
          2.08112001e-02, 1.51613504e-02, 1.20572979e-02, 3.18144471e-03,
          1.20572979e-02, 3.18144471e-03, 1.16328150e-02,
          -2.90703196e-02, 1.19855832e-02, 2.90703196e-02,
          4.87731844e-02, -2.48511076e-01, 5.64805381e-02,
          2.48511076e-01, 3.40173572e-01, -7.97674432e-02,
          3.40173572e-01, 9.91086140e-02, 9.78059992e-02, 1.63315088e-02,
          9.78059992e-02, 1.63315088e-02, 7.92808540e-04, 8.74242280e-03,
          1.86489534e-03, 8.74242280e-03, 4.16855961e-02, 9.77248140e-03,
          5.77094629e-02, 3.33813429e-02, 5.20715475e-01, 7.28614107e-02,
          5.20715475e-01, 8.38530883e-02, 9.27301720e-02, 1.51395183e-02,
          9.27301720e-02, 1.52296787e-02, -1.24873500e-03,
          1.39739807e-03, 1.24873500e-03, 1.39739807e-03, 1.66930910e-02,
          1.53466919e-02, 1.93358101e-02, 1.53466919e-02, 8.44408646e-02,
          3.21645103e-02, 8.44408646e-02, 3.21645103e-02, 9.87309590e-03,
          1.98745634e-03, 9.87309590e-03, 2.01484421e-03,
          -6.07119035e-03, -1.39462331e-03, 6.44515688e-03,
          1.43945613e-03, -5.22855371e-02, -2.15838272e-02,
          5.22855371e-02, 2.15838272e-02, 1.06530543e-02,
          -1.22478036e-02, 2.42855754e-02, 1.54412221e-02,
          8.85799248e-03, 5.23034541e-04, 8.85799248e-03, 1.82842417e-03,
          -6.29624426e-02, -1.68424882e-02, 6.40067756e-02,
          1.69455297e-02, -3.23932976e-01, -1.63723573e-01,
          3.23932976e-01, 1.63723573e-01, 2.62930423e-01,
          -7.01028761e-03, 2.67425835e-01, 6.10430427e-02,
          6.23169951e-02, 1.99815780e-02, 6.23169951e-02, 1.99815780e-02,
          -7.35946447e-02, -3.08739338e-02, 7.44252950e-02,
          3.08739338e-02, -1.96577713e-01, -1.26720846e-01,
          2.43456438e-01, 1.26720846e-01, 4.43814665e-01, 5.46898246e-02,
          4.43814665e-01, 6.15383685e-02, 6.17925338e-02, 1.94894914e-02,
          6.17925338e-02, 1.94894914e-02, -9.52336844e-03,
          -4.69717523e-03, 9.56665259e-03, 4.69717523e-03,
          -3.98945296e-03, -1.23154353e-02, 3.03226076e-02,
          1.23154353e-02, 8.21129382e-02, 5.42304059e-03, 8.21129382e-02,
          6.05655927e-03, 8.39203503e-03, 1.06975448e-03, 8.39203503e-03,
          1.11966603e-03, 3.37819592e-03, -1.90785469e-03,
          3.85018368e-03, 1.96576025e-03, 5.68267889e-02,
          -1.97967179e-02, 5.68267889e-02, 1.97967179e-02,
          1.85521785e-02, -6.93362486e-03, 1.89772192e-02,
          7.07838358e-03, -2.55573570e-04, 3.76810858e-05,
          2.55573570e-04, 6.68923894e-05, 7.55740097e-03,
          -4.16260166e-03, 1.96216479e-02, 5.13039203e-03,
          3.98627460e-01, -1.06465064e-01, 3.98627460e-01,
          1.06465064e-01, 2.36379638e-01, -4.76979613e-02,
          2.36379638e-01, 5.18828928e-02, -2.40774569e-03,
          2.33250670e-03, 2.40774569e-03, 2.36901920e-03, 1.99083262e-03,
          1.13100912e-02, 1.98479816e-02, 1.73549540e-02, 4.09171283e-01,
          2.01970950e-01, 4.09171283e-01, 2.18022496e-01, 2.14532346e-01,
          7.45155364e-02, 2.14532346e-01, 7.78571963e-02,
          -6.71719026e-04, -1.87174592e-04, 2.56348448e-03,
          1.27726491e-03, 3.15499096e-03, 5.38019231e-03, 5.16412966e-03,
          5.38019231e-03, 4.81521338e-02, 2.91928966e-02, 4.81521338e-02,
          2.97175944e-02, 2.86856736e-03, 3.88548523e-03, 4.21155524e-03,
          6.53778436e-03, 2.17726283e-05, -3.11991986e-04,
          2.28369478e-04, 3.11991986e-04 ]
      - [ 2.25158967e-03, 3.34267592e-04, 2.25158967e-03, 1.10449246e-03,
          2.86227483e-02, 6.01060642e-03, 2.86227483e-02, 8.85781832e-03,
          5.48777878e-02, -5.18141408e-03, 5.48777878e-02,
          5.42977778e-03, -2.63016950e-03, 1.19239418e-03,
          3.06070549e-03, 1.19239418e-03, 2.46696230e-02,
          -2.66402913e-03, 2.50844117e-02, 2.93487776e-03,
          3.16912115e-01, 9.75618064e-02, 3.16912115e-01, 1.05164073e-01,
          2.65686303e-01, 1.85877934e-01, 2.65686303e-01, 1.85877934e-01,
          -1.73945073e-02, 5.87748969e-03, 2.03556716e-02,
          7.92033505e-03, 9.89844371e-03, -2.47290055e-03,
          9.89844371e-03, 4.92758444e-03, 4.17375475e-01,
          -1.35369658e-01, 4.17375475e-01, 1.35369658e-01,
          2.69214422e-01, -9.29626375e-02, 2.69214422e-01,
          9.29626375e-02, -1.39586693e-02, -8.55252263e-04,
          1.69198345e-02, 5.02786785e-03, 5.01105213e-04,
          -2.96125829e-04, 5.16893109e-04, 2.96125829e-04,
          5.62188178e-02, -1.10627357e-02, 5.62188178e-02,
          1.10627357e-02, 3.57638262e-02, -2.42164433e-02,
          3.57638262e-02, 2.42164433e-02, 1.31777383e-03,
          -2.71159341e-03, 2.17460073e-03, 2.97441450e-03,
          4.76858672e-03, -5.30275807e-04, 4.76858672e-03,
          5.52322192e-04, 5.41967526e-02, -1.01906538e-03,
          5.41967526e-02, 1.31141171e-02, 2.68096756e-02,
          -2.50578113e-03, 3.97013128e-02, 9.71931033e-03,
          -1.22973863e-02, -3.80483130e-03, 1.22973863e-02,
          3.80483130e-03, 3.31213959e-02, 3.46273906e-03, 3.31213959e-02,
          3.58401751e-03, 4.21631664e-01, 1.13082364e-01, 4.21631664e-01,
          1.13082364e-01, -6.73987046e-02, -8.46484229e-02,
          2.13695303e-01, 1.21728204e-01, -6.27990142e-02,
          -2.15495750e-02, 6.27990142e-02, 2.33366173e-02,
          3.53272669e-02, -6.73884572e-03, 3.53272669e-02,
          7.78188836e-03, 3.07072997e-01, -2.75795728e-01,
          3.07072997e-01, 2.75795728e-01, -1.32174179e-01,
          -2.58526564e-01, 1.66018367e-01, 2.58526564e-01,
          -2.88687423e-02, -8.70149676e-03, 2.98432801e-02,
          1.28788529e-02, 2.01743329e-03, -6.28877489e-04,
          2.01743329e-03, 6.28877489e-04, 2.39133071e-02,
          -1.85818113e-02, 2.39133071e-02, 1.94827057e-02,
          7.76812434e-03, -1.58425476e-02, 1.78512577e-02,
          1.58425476e-02, -7.68518017e-04, -5.22767135e-04,
          2.22762651e-03, 7.46444450e-04, 6.92614028e-03,
          -1.22733843e-02, 6.92614028e-03, 1.22733843e-02,
          1.06968023e-02, -5.00015318e-02, 1.44660724e-02,
          5.00603095e-02, 6.70088967e-03, -1.37747489e-02,
          8.34559090e-03, 1.44290309e-02, -1.72852550e-03,
          -7.19331438e-04, 1.72852550e-03, 8.06617725e-04,
          4.48594503e-02, -4.94010933e-02, 4.48594503e-02,
          4.94010933e-02, 3.17356825e-01, -2.98105717e-01,
          3.17356825e-01, 2.98105717e-01, 2.06197619e-01,
          -1.50551081e-01, 2.06197619e-01, 1.50551081e-01,
          -3.91515950e-03, -9.06912051e-03, 4.61885706e-03,
          9.37461387e-03, 3.01051326e-02, 3.10430452e-02, 3.01051326e-02,
          3.10430452e-02, 3.72287631e-01, 1.70529500e-01, 3.72287631e-01,
          1.70529500e-01, 2.21970901e-01, 1.11683041e-01, 2.21970901e-01,
          1.16486765e-01, 6.45817537e-03, 1.36880642e-02, 6.45817537e-03,
          1.36880642e-02, 3.40303499e-03, 9.56793409e-03, 3.41607351e-03,
          9.56793409e-03, 3.94231007e-02, 4.93499823e-02, 3.94231007e-02,
          4.93499823e-02, 1.94615703e-02, 3.16562317e-02, 1.95765905e-02,
          3.16796936e-02, 2.98908999e-04, 2.82277795e-03, 5.49431308e-04,
          3.00146430e-03, 1.96659584e-02, 1.07823657e-02, 1.97035316e-02,
          1.07823657e-02, 1.42417580e-01, -3.87158385e-03,
          1.42417580e-01, 2.36142781e-02, -1.21166734e-02,
          -2.92075761e-02, 3.33652422e-02, 2.92075761e-02,
          -5.57322521e-03, 8.37103755e-04, 5.57561545e-03,
          1.61104288e-03, 5.39522655e-02, 1.04409605e-01, 5.82733415e-02,
          1.04409605e-01, 5.61573982e-01, 1.73179090e-01, 5.61573982e-01,
          1.80265591e-01, -2.23687049e-02, -3.11927497e-02,
          1.20111942e-01, 7.64783844e-02, -2.45625228e-02,
          4.69457265e-03, 2.45625228e-02, 1.08759999e-02,
          -1.18131675e-02, 4.53364886e-02, 1.78456344e-02,
          4.53364886e-02, 1.52416423e-01, -1.03413045e-01,
          1.62460685e-01, 1.47762001e-01, 1.39986500e-02,
          -2.42974699e-01, 5.46996780e-02, 2.42974699e-01,
          -1.68830752e-02, -2.01670099e-02, 1.68830752e-02,
          2.01670099e-02, -6.18912512e-03, 4.07725573e-03,
          6.18912512e-03, 4.27987520e-03, -1.40060773e-02,
          1.37170600e-02, 1.40060773e-02, 1.45093240e-02, 6.47151726e-04,
          -3.80877662e-03, 4.96592978e-03, 8.44243914e-03,
          -2.48566177e-03, -1.94903207e-03, 2.48566177e-03,
          2.09238590e-03, 2.39217631e-03, 1.90820778e-03, 2.39217631e-03,
          1.98370591e-03, 3.87779847e-02, 2.66394438e-03, 3.87779847e-02,
          1.40783601e-02, 3.21933851e-02, 2.32648058e-03, 3.21933851e-02,
          1.10182185e-02, 2.86280381e-04, 2.02684593e-03, 2.31526559e-03,
          2.41233944e-03, 1.47338584e-03, 3.30547616e-02, 6.46193558e-03,
          3.30547616e-02, 1.06213547e-01, 2.27253009e-02, 1.45853490e-01,
          1.28560036e-01, 3.06429923e-01, -6.44159615e-02,
          3.06429923e-01, 1.09779522e-01, 6.71839516e-05, 1.86783876e-02,
          2.96967980e-02, 2.11648755e-02, 2.38413215e-02, 6.17257785e-03,
          2.38413215e-02, 2.42894255e-02, -1.00726306e-01,
          1.63965777e-01, 1.31733060e-01, 2.00306371e-01, 4.82969761e-01,
          1.68446019e-01, 4.82969761e-01, 2.07324103e-01, 1.11648217e-02,
          5.21810018e-02, 6.09643459e-02, 5.75240850e-02, 7.95215368e-03,
          -1.72689185e-02, 7.95215368e-03, 1.72689185e-02,
          -2.12843027e-02, -1.31991893e-01, 2.74523720e-02,
          1.31991893e-01, 8.38047937e-02, -1.43724099e-01,
          8.38047937e-02, 1.43724099e-01, 5.63294394e-04,
          -1.97792128e-02, 1.04631055e-02, 1.97792128e-02,
          -1.01408670e-02, -8.95437691e-03, 1.01408670e-02,
          8.95437691e-03, -6.12816811e-02, -7.42294118e-02,
          6.12816811e-02, 7.42294118e-02, -2.49916296e-02,
          -3.42622548e-02, 2.49916296e-02, 3.45874690e-02,
          -2.34250096e-03, 1.02136668e-03, 2.34250096e-03,
          1.23125117e-03, -1.01028308e-01, -7.32398033e-02,
          1.01028308e-01, 7.32398033e-02, -2.67626315e-01,
          -4.51486051e-01, 2.73349881e-01, 4.51486051e-01,
          1.88323617e-01, -1.66316167e-01, 1.92893356e-01,
          1.68601051e-01, 3.81453615e-03, -1.45366148e-03,
          8.37149378e-03, 4.54594707e-03, -1.02120854e-01,
          -3.70653830e-02, 1.02120854e-01, 3.70653830e-02,
          -2.09614895e-02, -5.60903624e-02, 2.14929357e-01,
          9.70351323e-02, 2.89031655e-01, 3.56806517e-02, 2.89031655e-01,
          4.98327017e-02, 2.56279064e-03, -2.89456057e-03,
          5.87840099e-03, 6.00243732e-03, -1.12103056e-02,
          9.57476674e-04, 1.12103056e-02, 1.65434263e-03, 1.62552670e-02,
          2.76175588e-02, 2.90962700e-02, 2.76175588e-02, 4.12745811e-02,
          4.10049669e-02, 4.12745811e-02, 4.10049669e-02,
          -2.55831028e-03, 4.50071786e-03, 2.55831028e-03,
          4.54705022e-03, 1.05369859e-03, 8.16709871e-05, 1.05369859e-03,
          1.69274063e-04, 8.87713674e-03, 1.05042113e-02, 9.24745388e-03,
          1.05042113e-02, 3.03088725e-02, 2.99382992e-02, 3.03088725e-02,
          2.99382992e-02, 9.19603091e-03, 6.54284330e-03, 9.19603091e-03,
          6.54284330e-03, 7.97313172e-03, 5.19205956e-03, 7.97313172e-03,
          5.19205956e-03, 1.36415258e-01, 3.88926566e-02, 1.36415258e-01,
          5.27148470e-02, 3.73501241e-01, 1.29607558e-01, 3.73501241e-01,
          1.34393856e-01, 6.69808015e-02, 3.94427702e-02, 6.69808015e-02,
          3.94427702e-02, 2.11968290e-04, 4.12886310e-03, 3.75775946e-03,
          4.82471706e-03, 9.26823616e-02, -9.13834423e-02,
          1.06450774e-01, 9.31265280e-02, 5.20366192e-01,
          -5.29726669e-02, 5.20366192e-01, 9.19423923e-02,
          7.32195675e-02, 7.82489777e-03, 7.32195675e-02, 8.29514209e-03,
          -8.13379418e-04, -6.68393695e-05, 8.31649930e-04,
          7.64993136e-04, 2.13557240e-02, 2.62356047e-02, 2.39959043e-02,
          2.62356047e-02, 9.63004306e-02, 5.59065081e-02, 9.63004306e-02,
          5.59065081e-02, 7.55827734e-03, 6.62471168e-03, 7.70820305e-03,
          6.62471168e-03, 2.58582731e-04, -8.06993397e-04,
          5.08917088e-04, 1.11398613e-03, 1.44615602e-02, 3.48757976e-03,
          1.49516854e-02, 9.50115174e-03, 5.38437553e-02,
          -1.54552413e-02, 5.38437553e-02, 1.90731511e-02,
          1.13657247e-02, -4.14901972e-03, 1.13657247e-02,
          4.14901972e-03, -4.56957678e-05, -1.87185407e-02,
          2.63667828e-03, 1.87185407e-02, 7.99233466e-02,
          -1.78408861e-01, 8.21434408e-02, 1.78408861e-01,
          3.19606215e-01, -1.24081485e-01, 3.19606215e-01,
          1.31727144e-01, 8.58322978e-02, -7.43382610e-03,
          8.58322978e-02, 1.29105216e-02, -4.75846650e-03,
          -1.83578543e-02, 4.75846650e-03, 1.83578543e-02,
          1.66174486e-01, -7.79580250e-02, 1.78657398e-01,
          1.08198144e-01, 4.90902603e-01, 1.57238126e-01, 4.90902603e-01,
          1.78995252e-01, 7.93199316e-02, 3.24853472e-02, 7.93199316e-02,
          3.24853472e-02, -3.38777143e-04, 6.66080625e-04,
          6.78737881e-04, 7.40028569e-04, 5.19444495e-02, 2.69619618e-02,
          5.25044315e-02, 2.69619618e-02, 9.82777923e-02, 5.19977361e-02,
          9.82777923e-02, 5.19977361e-02, 7.31726689e-03, 5.46536688e-03,
          7.31869880e-03, 5.46536688e-03, -1.42486082e-04,
          -1.32205954e-03, 3.21702886e-04, 1.43781374e-03,
          9.37100220e-03, -1.81619041e-02, 9.40467138e-03,
          1.87734608e-02, 3.74712385e-02, -3.25172357e-02,
          3.74712385e-02, 3.25172357e-02, 1.05345063e-02,
          -4.58420627e-03, 1.05345063e-02, 4.58420627e-03,
          -4.25121980e-03, -1.92786604e-02, 4.36183019e-03,
          1.92786604e-02, 2.28108037e-02, -1.72816470e-01,
          6.38355464e-02, 1.72816470e-01, 3.33454728e-01,
          -6.29399046e-02, 3.33454728e-01, 1.08477995e-01,
          8.22051540e-02, 1.18165510e-02, 8.22051540e-02, 1.51420794e-02,
          -5.83853666e-03, -1.04877055e-02, 5.83853666e-03,
          1.04877055e-02, 5.72475009e-02, -4.25962843e-02,
          1.17471226e-01, 6.51174486e-02, 5.46162784e-01, 9.12759900e-02,
          5.46162784e-01, 1.01787686e-01, 8.51786584e-02, 3.06536313e-02,
          8.51786584e-02, 3.06536313e-02, -4.69457998e-04,
          2.52736965e-04, 4.69457998e-04, 2.52736965e-04, 2.10526343e-02,
          1.59784593e-02, 2.26510186e-02, 1.59784593e-02, 9.57847610e-02,
          2.87128501e-02, 9.57847610e-02, 2.87128501e-02, 1.14972489e-02,
          3.67867574e-03, 1.14972489e-02, 3.67867574e-03, 3.56687931e-03,
          -7.46078230e-03, 3.56687931e-03, 7.46078230e-03,
          4.70921658e-02, -1.96777117e-02, 4.70921658e-02,
          2.25214902e-02, 2.14696694e-02, 1.13622064e-03, 2.14885566e-02,
          8.66048783e-03, -6.45143446e-04, -1.95381348e-04,
          7.01986195e-04, 2.96048092e-04, 4.26802859e-02, 1.39036251e-03,
          4.26802859e-02, 7.41910795e-03, 4.69362974e-01, 8.21174756e-02,
          4.69362974e-01, 8.25872868e-02, 1.01707950e-01, 7.88399652e-02,
          1.30242288e-01, 7.88399652e-02, -1.12682497e-02,
          2.82502663e-03, 1.12682497e-02, 3.04772379e-03, 4.27076444e-02,
          -1.98261626e-03, 4.27076444e-02, 2.31607864e-03,
          4.64815438e-01, -7.53130093e-02, 4.64815438e-01,
          7.53130093e-02, 1.18846022e-01, -5.17320223e-02,
          1.40730366e-01, 5.32754175e-02, -1.13887843e-02,
          2.34047417e-03, 1.13887843e-02, 2.34047417e-03, 5.57770627e-03,
          4.72612970e-04, 5.57770627e-03, 4.72612970e-04, 6.05368242e-02,
          -3.71555449e-04, 6.05368242e-02, 2.58476706e-03,
          2.64766254e-02, -3.81692522e-03, 2.64766254e-02,
          3.81692522e-03, -1.30122539e-03, -9.99340409e-06,
          1.30122539e-03, 1.28628846e-04, -3.94800305e-03,
          -1.55537901e-03, 3.94800305e-03, 1.55537901e-03,
          3.82381608e-03, -1.85597723e-03, 1.40209850e-02,
          1.37636904e-02, 4.49240133e-02, 4.43131700e-02, 4.57321815e-02,
          4.56402302e-02, 1.89688075e-02, 1.67253315e-02, 1.89688075e-02,
          1.67253315e-02, -9.35019366e-03, 2.03798129e-03,
          9.35019366e-03, 8.56957119e-03, 1.63059995e-01, 1.16518058e-01,
          1.69047713e-01, 1.16518058e-01, 4.82997447e-01, 3.44833061e-02,
          4.82997447e-01, 1.91092834e-01, 1.72066167e-01,
          -3.95775121e-03, 1.72066167e-01, 5.08196950e-02,
          -4.40966617e-03, -6.70395419e-03, 5.26100583e-03,
          9.53588169e-03, 9.54625756e-02, -7.76723325e-02,
          9.54625756e-02, 8.40912983e-02, 1.74461216e-01,
          -2.87492722e-01, 2.03911364e-01, 2.92000681e-01,
          1.48390234e-01, -8.87092128e-02, 1.48390234e-01,
          9.00512636e-02, 2.14731135e-05, -1.62466126e-03,
          1.48311758e-03, 1.86036259e-03, 1.36895888e-02,
          -3.48287052e-03, 1.36895888e-02, 1.23726046e-02,
          3.92981917e-02, 5.11716679e-02, 4.14307714e-02, 5.11716679e-02,
          1.61444265e-02, 1.46781979e-02, 1.61444265e-02, 1.46781979e-02,
          8.36321502e-04, 3.96080752e-04, 1.19526300e-03, 5.14772197e-04,
          4.35307063e-02, 1.24989999e-02, 4.35307063e-02, 1.25470525e-02,
          3.12923491e-02, 2.32072603e-02, 3.13063040e-02, 2.32072603e-02,
          -7.77607493e-04, 4.94979462e-03, 7.77607493e-04,
          4.94979462e-03, 2.13539246e-02, 1.11740623e-02, 2.15241648e-02,
          1.13084419e-02, 3.49972993e-01, 1.04997948e-01, 3.49972993e-01,
          1.04997948e-01, 2.77552933e-01, 1.36516988e-01, 2.77552933e-01,
          1.36516988e-01, -4.66437981e-04, 2.79839206e-02,
          8.55693035e-03, 2.79839206e-02, 1.95684209e-02,
          -3.10576684e-03, 1.95684209e-02, 5.16895112e-03,
          2.79725134e-01, -1.57883078e-01, 2.79725134e-01,
          1.57883078e-01, 3.22805464e-01, -2.31728360e-01,
          3.22805464e-01, 2.31728360e-01, 9.62060317e-03,
          -2.17592921e-02, 1.33223031e-02, 2.23052204e-02,
          7.07744912e-05, -1.18414487e-03, 4.11590299e-04,
          1.19296077e-03, 2.05032304e-02, -2.12345440e-02,
          2.05032304e-02, 2.22385507e-02, 4.22329344e-02,
          -3.05922348e-02, 4.22329344e-02, 3.27970050e-02,
          4.28808061e-03, -4.53688297e-03, 4.28808061e-03,
          4.62159235e-03, 5.49587375e-03, -1.51067441e-02,
          5.50941750e-03, 1.51067441e-02, 5.37068807e-02,
          -2.67500281e-02, 5.37440740e-02, 2.82142591e-02,
          3.35733825e-03, 7.10118795e-03, 1.30235273e-02, 7.10118795e-03,
          -1.84661767e-04, 1.84661767e-04, 1.84661767e-04,
          1.84661767e-04, 8.68141279e-02, 1.61852092e-02, 8.68141279e-02,
          4.41518761e-02, 5.47265589e-01, 5.09125218e-02, 5.47265589e-01,
          1.05324164e-01, 3.67282704e-02, -4.49002534e-02,
          1.20165832e-01, 7.32798725e-02, -5.01109380e-03,
          -1.27231702e-03, 5.34838671e-03, 4.44451813e-03,
          9.20142308e-02, 2.54043732e-02, 9.20142308e-02, 2.54043732e-02,
          2.38174543e-01, -4.83833030e-02, 2.52701193e-01,
          1.12536900e-01, 6.44497294e-03, -2.97207773e-01,
          6.84608817e-02, 2.97207773e-01, 1.54687967e-02,
          -2.21869964e-02, 1.69330239e-02, 2.25020591e-02,
          1.21274488e-02, 4.01904981e-04, 1.21274488e-02, 6.03885448e-04,
          4.62251529e-03, 5.76864462e-03, 2.72141360e-02, 7.23287323e-03,
          -7.69771868e-03, 4.41858498e-03, 1.83510929e-02,
          1.75462831e-02, 6.96061272e-03, 5.32083446e-04, 6.96061272e-03,
          1.48360641e-03, 7.56703317e-04, -1.19910380e-02,
          7.56703317e-04, 1.19910380e-02, 1.57279372e-02,
          -8.17890391e-02, 1.57279372e-02, 8.17890391e-02,
          2.22121943e-02, -5.15628532e-02, 2.25766581e-02,
          5.15628532e-02, -2.68748758e-04, -3.02838092e-03,
          3.95504321e-04, 3.02838092e-03, 2.27843737e-03,
          -8.96546151e-03, 2.27843737e-03, 1.94952413e-02,
          9.05533433e-02, -1.15371779e-01, 9.39845592e-02,
          1.72600925e-01, 4.31947500e-01, -1.21961609e-01,
          4.31947500e-01, 1.21961609e-01, 8.16263910e-03, 5.02255862e-04,
          9.71779786e-03, 6.74028136e-03, 6.96671056e-03, 4.47498783e-02,
          6.96671056e-03, 4.47498783e-02, 1.87485479e-02, 3.54006678e-01,
          2.92400271e-02, 3.54006678e-01, 2.98359603e-01, 1.84704214e-01,
          2.98359603e-01, 2.05859095e-01, 1.90629438e-02, 1.48899737e-03,
          1.90629438e-02, 7.44933588e-03, 1.39350013e-03, 4.04768111e-03,
          1.41711137e-03, 4.15615086e-03, 1.10566169e-02, 3.13169584e-02,
          1.10566169e-02, 3.15030441e-02, 1.13676861e-02, 3.14691663e-02,
          1.16144521e-02, 3.16501334e-02, 1.72218977e-04, 1.09865342e-03,
          5.96115482e-04, 1.23557181e-03, -1.60183327e-03,
          -3.02773988e-04, 1.66319334e-03, 5.68519521e-04,
          3.49159911e-02, 2.48007458e-02, 3.78251337e-02, 2.52520945e-02,
          8.52256715e-02, 4.12823744e-02, 8.52256715e-02, 4.12823744e-02,
          -1.38441697e-04, 2.46679469e-04, 3.57894762e-03,
          1.56126975e-03, 7.02411518e-04, 2.29721470e-03, 6.45157462e-03,
          5.29054599e-03, 4.08578634e-01, 1.31710932e-01, 4.08578634e-01,
          1.31710932e-01, 3.30880672e-01, -2.47773752e-02,
          3.30880672e-01, 1.11643374e-01, -1.68259293e-02,
          -2.85979342e-02, 1.73391290e-02, 2.85979342e-02,
          1.04050329e-02, -3.88821092e-04, 1.04050329e-02,
          1.67437189e-03, 3.45342517e-01, -8.55487958e-02,
          3.45342517e-01, 8.96180868e-02, 1.51706561e-01,
          -1.83795497e-01, 1.57824874e-01, 1.83795497e-01,
          -1.08667677e-02, -2.75611375e-02, 1.08667677e-02,
          2.75611375e-02, 6.33000862e-04, -2.35708321e-05,
          6.33000862e-04, 2.35708321e-05, 3.30340005e-02,
          -7.97884446e-03, 3.30340005e-02, 7.97884446e-03,
          2.06084084e-02, -1.91518143e-02, 2.06084084e-02,
          1.91518143e-02, -5.81828877e-04, -1.90690078e-03,
          1.15177431e-03, 1.90690078e-03 ]
      - [ 1.57210417e-02, 3.10640931e-02, 1.57210417e-02, 3.10640931e-02,
          5.29233404e-02, 6.48271888e-02, 6.00592755e-02, 6.48271888e-02,
          1.47645891e-01, -3.40990424e-02, 1.47645891e-01,
          3.64479087e-02, 3.65113001e-03, -2.59645469e-02,
          1.47907576e-02, 2.59645469e-02, -2.02450625e-04,
          3.22189592e-02, 1.02462089e-02, 3.69570032e-02,
          -7.17343539e-02, -3.99259701e-02, 1.27111912e-01,
          7.87607133e-02, 5.21711767e-01, -1.55915692e-01,
          5.21711767e-01, 1.79559723e-01, 1.60835627e-02,
          -5.54485992e-02, 3.37099172e-02, 5.56755960e-02,
          -7.10209133e-03, 6.17309147e-03, 8.52645282e-03,
          9.61524993e-03, -1.11365505e-02, 1.69025376e-01,
          9.84053686e-02, 1.69025376e-01, 2.85932839e-01, 1.72036201e-01,
          2.85932839e-01, 1.77683264e-01, 2.39527877e-02,
          -1.39848003e-02, 2.67327204e-02, 1.60413571e-02,
          1.23915495e-03, 6.43233128e-04, 1.43702189e-03, 1.50398095e-03,
          1.19866636e-02, 3.01741110e-03, 1.19866636e-02, 5.68064395e-03,
          2.16331333e-02, -6.63314713e-03, 2.16331333e-02,
          6.63314713e-03, 1.55914517e-04, -2.34716805e-03,
          1.03916775e-03, 2.34716805e-03, 1.26332015e-04,
          -7.95759819e-03, 1.61534722e-03, 7.96132442e-03,
          2.13337373e-02, -2.15436053e-02, 2.15168726e-02,
          2.22648494e-02, 5.74131962e-03, 1.55311879e-02, 1.17895510e-02,
          1.55311879e-02, -3.60662234e-03, 3.89414956e-03,
          3.60662234e-03, 3.89414956e-03, 2.77628805e-02,
          -2.08731033e-02, 3.10159307e-02, 2.90770326e-02,
          3.16992521e-01, -8.03129375e-02, 3.16992521e-01,
          9.76519063e-02, 3.60705554e-01, 4.47245426e-02, 3.61806363e-01,
          9.14024562e-02, -3.14053409e-02, 4.18839604e-02,
          3.14053409e-02, 4.18839604e-02, 3.43679748e-02, 2.32681688e-02,
          3.43679748e-02, 2.32681688e-02, 2.57322997e-01, 1.09764338e-01,
          2.57322997e-01, 1.09764338e-01, 4.07238215e-01,
          -3.13715227e-02, 4.07238215e-01, 4.73287478e-02,
          -1.97456572e-02, -5.34264743e-03, 2.78501585e-02,
          8.69594608e-03, 5.03191212e-03, 4.18137806e-03, 5.03191212e-03,
          4.18137806e-03, 1.86680388e-02, 1.14704147e-02, 1.87386908e-02,
          1.14704147e-02, 3.88253815e-02, -1.00547699e-02,
          3.88253815e-02, 1.07199475e-02, -1.68361352e-03,
          -3.52315791e-03, 2.60948949e-03, 3.52315791e-03,
          -1.00233279e-04, -5.43665234e-03, 7.31128617e-04,
          5.43665234e-03, 2.66673137e-02, -2.82291677e-02,
          2.66673137e-02, 2.82291677e-02, 2.36833040e-02, 1.11566074e-02,
          2.41728928e-02, 1.49625605e-02, -2.87063047e-03,
          3.75585095e-03, 2.88041169e-03, 3.92685737e-03,
          -4.24386375e-03, -1.09191751e-02, 5.23815723e-03,
          1.09191751e-02, 2.38530338e-01, -8.36421773e-02,
          2.38530338e-01, 1.07089348e-01, 4.52345818e-01,
          -7.23337010e-02, 4.52345818e-01, 1.03315696e-01,
          -1.21906204e-02, 2.62270756e-02, 2.82616243e-02,
          2.74831243e-02, 1.55220898e-02, 1.66462064e-02, 1.70857646e-02,
          1.86366830e-02, 2.18566313e-01, 2.41209000e-01, 2.18566313e-01,
          2.41209000e-01, 3.19136918e-01, 5.62542304e-02, 3.19136918e-01,
          1.08359478e-01, 1.60928257e-02, -2.03994196e-02,
          3.14468369e-02, 2.07951237e-02, 4.88505699e-03, 6.24885596e-03,
          4.88505699e-03, 6.24885596e-03, 1.38620418e-02, 1.89072527e-02,
          1.38620418e-02, 1.89379603e-02, 1.13148009e-02,
          -8.62474961e-04, 1.13148009e-02, 6.48672367e-03,
          2.94564827e-03, -6.84197759e-04, 3.60103836e-03,
          1.67483545e-03, 5.41907595e-03, -1.48666371e-02,
          5.45452628e-03, 1.48666371e-02, -5.11039468e-03,
          -7.76406452e-02, 1.21670878e-02, 7.76406452e-02,
          1.25254979e-02, -2.40821559e-02, 1.52098527e-02,
          2.44801622e-02, -4.48322913e-04, -1.18226635e-04,
          7.26935454e-04, 7.42262579e-04, 1.71210300e-02,
          -4.26137960e-03, 1.83406230e-02, 3.40405740e-02,
          1.30992129e-01, -8.68737400e-02, 1.30992129e-01,
          2.26717576e-01, 3.17458391e-01, -9.12706032e-02,
          3.17458391e-01, 1.04024246e-01, 2.87035527e-03,
          -3.27876303e-03, 7.49780238e-03, 4.52586822e-03,
          1.16233192e-02, 9.24996883e-02, 1.59245320e-02, 9.24996883e-02,
          -7.56369084e-02, 5.03124237e-01, 1.01052158e-01,
          5.03124237e-01, 1.69231668e-01, 1.82773650e-01, 1.81196347e-01,
          1.82773650e-01, 4.89164889e-03, 3.14169470e-03, 6.64987694e-03,
          3.36079043e-03, -2.61136307e-03, 7.19147560e-04,
          2.61136307e-03, 3.30941193e-03, -2.21508946e-02,
          -1.41373626e-03, 2.21508946e-02, 1.55725637e-02,
          -5.80935320e-03, 1.11347511e-02, 8.36229138e-03,
          1.55426394e-02, -2.15968280e-03, -2.86631263e-03,
          2.20209803e-03, 2.86631263e-03, 3.43431951e-03, 1.19628850e-04,
          3.43431951e-03, 2.83193513e-04, 2.03250460e-02,
          -2.04342097e-04, 2.03250460e-02, 4.17331187e-03,
          -3.73079032e-02, -1.28027087e-03, 3.73079032e-02,
          9.35065560e-03, -1.53085496e-02, -2.15500750e-05,
          1.53272571e-02, 4.15576901e-03, 2.91916542e-02,
          -3.23703326e-03, 2.91916542e-02, 6.91480050e-03,
          5.24579287e-02, -3.52270678e-02, 6.88261464e-02,
          4.79512289e-02, 1.51462719e-01, 1.48517892e-01, 2.25690991e-01,
          1.98866963e-01, -8.88471305e-02, 1.29678100e-01,
          8.88471305e-02, 1.29678100e-01, 2.15078443e-02,
          -9.67696402e-03, 2.15078443e-02, 9.74711031e-03,
          3.76268290e-02, -1.02575228e-01, 6.73609599e-02,
          1.02575228e-01, 6.02233708e-01, -1.22295395e-02,
          6.02233708e-01, 7.89553449e-02, -1.22583183e-02,
          7.37640038e-02, 8.21560845e-02, 7.37640038e-02, 1.03527296e-03,
          -3.09284806e-04, 1.04433333e-03, 3.23489687e-04,
          1.48570267e-02, -7.91997369e-03, 1.48570267e-02,
          7.91997369e-03, 9.82144028e-02, 3.18333553e-03, 9.82144028e-02,
          5.64411702e-03, 1.19799180e-02, 6.11954508e-03, 1.75856128e-02,
          6.11954508e-03, 6.43946914e-05, -2.21469454e-04,
          6.11190335e-04, 4.09451750e-04, -3.34735140e-02,
          1.43824518e-02, 3.34735140e-02, 1.54518895e-02,
          -2.95192804e-02, 2.06345301e-02, 3.08957789e-02,
          2.68773492e-02, 1.19438133e-04, -3.56394984e-03,
          1.72629172e-03, 3.79594229e-03, 7.30906962e-04,
          -2.17208639e-03, 2.40581133e-03, 2.26192339e-03,
          9.90485251e-02, 1.36615008e-01, 1.38340786e-01, 1.47762686e-01,
          -2.55706966e-01, 4.49466646e-01, 2.79249340e-01,
          4.49466646e-01, -5.30418083e-02, 3.32848579e-02,
          5.37316762e-02, 3.37243825e-02, -9.71970294e-05,
          -6.76732138e-03, 2.63617584e-03, 6.76732138e-03,
          2.93104678e-01, -7.67946318e-02, 2.93104678e-01,
          7.67946318e-02, 2.72807498e-02, 1.58416107e-01, 2.97897130e-01,
          1.91702604e-01, -9.09067392e-02, 6.15811795e-02,
          9.09067392e-02, 6.15811795e-02, 7.34842615e-04,
          -7.33177993e-04, 7.34842615e-04, 7.33177993e-04,
          3.16954218e-02, -5.71689149e-03, 3.16954218e-02,
          5.71689149e-03, 6.08422495e-02, 3.63721017e-04, 6.35463521e-02,
          1.33534847e-02, -1.01587186e-02, 8.10667779e-03,
          1.01587186e-02, 8.21337849e-03, -3.44958249e-03,
          -2.38529901e-04, 3.95686598e-03, 2.17677327e-03,
          7.89374113e-02, -2.30005030e-02, 7.89374113e-02,
          2.40740776e-02, 5.05071767e-02, -5.69976419e-02,
          5.05419783e-02, 5.87262437e-02, -2.35691271e-03,
          -1.00407694e-02, 2.35691271e-03, 1.08812647e-02,
          -3.01596355e-02, 5.70890866e-03, 3.35835069e-02,
          7.17110699e-03, 4.42214668e-01, 7.60334507e-02, 4.42214668e-01,
          9.39210951e-02, -2.34804526e-02, -7.61331692e-02,
          1.42431334e-01, 1.15742505e-01, -3.02368216e-02,
          -4.19518314e-02, 3.02368216e-02, 4.19518314e-02,
          -3.63043211e-02, 3.34052742e-02, 3.67610790e-02,
          3.34052742e-02, 2.58103073e-01, -1.12024337e-01,
          2.68855870e-01, 1.92255273e-01, -1.28104866e-01,
          -3.66832018e-01, 1.51195750e-01, 3.66832018e-01,
          -2.19804272e-02, -4.19007763e-02, 2.20268313e-02,
          4.19007763e-02, -5.45489462e-03, 1.10456990e-02,
          5.54600731e-03, 1.10843107e-02, -2.81963367e-02,
          6.30075336e-02, 2.81963367e-02, 6.30075336e-02,
          -4.13227715e-02, 2.75242366e-02, 4.13227715e-02,
          3.04816831e-02, -2.40680133e-03, -1.13379130e-04,
          2.48962268e-03, 2.88979965e-03, -3.84153379e-03,
          7.50978885e-04, 3.84153379e-03, 8.57126259e-04, 1.72501244e-02,
          -3.81728681e-03, 2.42530257e-02, 5.53307263e-03,
          6.73242584e-02, -1.04101412e-02, 6.73242584e-02,
          1.08383559e-02, 5.70327649e-03, 2.12792703e-03, 5.70327649e-03,
          2.14128918e-03, -1.28694763e-02, 1.92478932e-02,
          1.40439328e-02, 1.96872689e-02, -2.40419339e-02,
          1.15636453e-01, 1.17216110e-01, 1.21084876e-01, 4.88180906e-01,
          -4.58307900e-02, 4.88180906e-01, 5.59976846e-02,
          5.86363077e-02, -2.50279205e-03, 5.87666184e-02,
          8.34931806e-03, 3.56923137e-03, 3.42087895e-02, 7.52872881e-03,
          3.42087895e-02, -1.19509563e-01, 3.59358758e-01,
          1.27626121e-01, 3.59358758e-01, 2.16398403e-01, 8.73753652e-02,
          2.73242384e-01, 1.49578199e-01, 6.57693148e-02,
          -2.60536689e-02, 6.57693148e-02, 2.60536689e-02,
          -3.07321409e-03, 6.13972452e-03, 3.38825723e-03,
          6.13972452e-03, -1.45491352e-02, 1.19608501e-02,
          2.13072952e-02, 2.32286956e-02, -3.15332823e-02,
          -7.76959956e-03, 3.94035280e-02, 1.70897655e-02,
          1.00843655e-02, -4.68060514e-03, 1.00843655e-02,
          4.68060514e-03, 7.40912231e-03, 2.70313979e-03, 8.87500867e-03,
          2.71273381e-03, 9.77129862e-02, 2.83969138e-02, 9.77129862e-02,
          2.83969138e-02, 5.08304127e-03, 7.58746732e-03, 3.50962952e-02,
          7.58746732e-03, -1.35454005e-02, 3.28427792e-04,
          1.35454005e-02, 8.23146140e-04, 7.52120987e-02, 1.99935250e-02,
          7.91348740e-02, 2.02337913e-02, 5.24639249e-01, 6.64110407e-02,
          5.24639249e-01, 9.27710384e-02, -7.76927397e-02,
          -1.27161011e-01, 1.87021345e-01, 1.34136483e-01,
          -9.80666652e-02, -2.11627409e-02, 9.80666652e-02,
          2.11627409e-02, 8.43961835e-02, 2.11840030e-02, 8.45657438e-02,
          2.14002412e-02, 2.51927972e-01, -4.54650111e-02,
          2.57738680e-01, 9.23758373e-02, -1.45340696e-01,
          -2.12369710e-01, 1.51680514e-01, 2.12369710e-01,
          -8.12761188e-02, -1.58696994e-02, 8.12761188e-02,
          1.58696994e-02, 1.24320406e-02, 1.67532580e-03, 1.24320406e-02,
          1.87850138e-03, 1.33178523e-02, 7.18424609e-03, 1.75800622e-02,
          7.83887599e-03, -1.66347735e-02, 1.41524412e-02,
          1.69254076e-02, 1.41930543e-02, -1.11921681e-02,
          1.14782888e-03, 1.11921681e-02, 1.22708746e-03,
          -1.44437095e-03, -9.46250744e-03, 2.85282684e-03,
          9.46250744e-03, -7.09736124e-02, -3.27080004e-02,
          7.09736124e-02, 3.27080004e-02, 3.94357406e-02, 6.12185430e-03,
          4.55031209e-02, 7.86068384e-03, 1.01632411e-02, 2.17885521e-04,
          1.01632411e-02, 9.87047795e-04, -2.10917126e-02,
          -5.79266017e-03, 2.16981228e-02, 1.33457920e-02,
          -2.94674009e-01, -6.71892166e-02, 2.94674009e-01,
          8.22095945e-02, 4.01637375e-01, 1.10602742e-02, 4.01637375e-01,
          3.53272893e-02, 5.19958101e-02, 4.48631076e-03, 5.22414558e-02,
          5.10709034e-03, -1.93254147e-02, 4.59658215e-03,
          2.15218831e-02, 6.52585132e-03, -3.04836899e-01,
          8.48649368e-02, 3.04836899e-01, 8.48649368e-02, 3.48811805e-01,
          -4.25383300e-02, 3.51120353e-01, 8.19035992e-02,
          5.25523946e-02, -3.00366115e-02, 5.25523946e-02,
          3.04961223e-02, -7.70744984e-04, -2.30679405e-04,
          1.34279393e-03, 3.98283126e-04, -4.52673174e-02,
          1.30252149e-02, 4.52673174e-02, 1.30252149e-02,
          -1.72429963e-03, -2.01866347e-02, 2.30003782e-02,
          2.24569030e-02, 5.43749146e-03, -9.83519107e-03,
          5.43749146e-03, 9.99076385e-03, -4.73650638e-03,
          -2.97093089e-03, 4.73650638e-03, 2.97093089e-03,
          8.32622405e-03, 1.61245428e-02, 1.98388901e-02, 2.25098580e-02,
          4.11891341e-02, 4.89204936e-02, 4.11891341e-02, 4.90468219e-02,
          5.13389986e-03, 5.78927156e-03, 5.13389986e-03, 5.78927156e-03,
          -1.10654486e-02, -1.68322083e-02, 1.75120216e-02,
          1.68322083e-02, 3.56277257e-01, 1.18998460e-01, 3.57029974e-01,
          1.29124343e-01, 2.13032797e-01, 1.78556934e-01, 2.17950866e-01,
          1.78556934e-01, 9.47783119e-04, -5.41962043e-04,
          8.05794168e-03, 6.97789947e-03, -1.70509724e-04,
          1.16401538e-03, 1.20036034e-02, 1.19228996e-02, 4.20589775e-01,
          -1.17771655e-01, 4.20589775e-01, 1.26945183e-01,
          2.52144963e-01, -9.16094184e-02, 2.58265018e-01,
          1.19380258e-01, -1.49742346e-02, 3.88696417e-03,
          1.49742346e-02, 1.34774214e-02, 8.22183094e-04, 6.58110774e-04,
          1.03786669e-03, 1.25185098e-03, 1.97452214e-02,
          -9.45838355e-03, 1.98163204e-02, 1.31113781e-02,
          4.13040482e-02, -5.06745316e-02, 4.13544811e-02,
          5.08008637e-02, -1.26240111e-03, -8.60989280e-03,
          1.87286094e-03, 8.60989280e-03, 2.70379731e-03, 7.68662954e-04,
          2.90987967e-03, 7.69095786e-04, 2.31305324e-03, 6.25510607e-03,
          8.39958433e-03, 6.92408299e-03, 5.29136136e-02, 4.38264236e-02,
          5.29405847e-02, 4.38264236e-02, 2.02534208e-03, 7.18245469e-03,
          2.52056518e-03, 7.18245469e-03, 2.08108705e-02,
          -3.07562550e-05, 2.17633564e-02, 2.46084621e-03,
          1.40578613e-01, 9.97638106e-02, 1.46019191e-01, 9.97638106e-02,
          4.67575371e-01, 1.14810884e-01, 4.67575371e-01, 1.14810884e-01,
          -5.12780668e-03, 6.40925532e-03, 1.01277698e-02,
          9.29956418e-03, 1.79410968e-02, -6.96578529e-04,
          1.97285563e-02, 4.46037017e-03, 1.36110216e-01,
          -1.01192400e-01, 1.36110216e-01, 1.17730513e-01,
          3.80671084e-01, -2.28276312e-01, 3.80671084e-01,
          2.28276312e-01, -6.27185125e-03, -3.43071632e-02,
          8.92525073e-03, 3.43071632e-02, -1.30345009e-03,
          2.48094019e-03, 1.30345009e-03, 2.48094019e-03, 1.58280076e-03,
          -9.79726762e-03, 7.35598570e-03, 1.69909131e-02,
          2.17035301e-02, -4.70737964e-02, 2.24299710e-02,
          4.70737964e-02, 1.64103718e-03, -1.05048949e-02,
          1.64103718e-03, 1.05048949e-02, -5.42850047e-03,
          2.10585678e-03, 5.42850047e-03, 2.10585678e-03,
          -1.17184157e-02, -3.67979240e-03, 1.18214851e-02,
          5.87087311e-03, 1.29645765e-02, 1.32873766e-02, 2.13026255e-02,
          1.71956904e-02, 1.14214013e-03, 2.55945232e-03, 1.57791690e-03,
          2.60277977e-03, -6.68216348e-02, 2.36322936e-02,
          6.68216348e-02, 2.36322936e-02, 1.95514131e-03, 7.61270374e-02,
          1.70102432e-01, 8.82311761e-02, 2.53463000e-01, 2.45050013e-01,
          2.67238468e-01, 2.48427570e-01, 1.76094621e-02, 6.81957304e-02,
          2.21406408e-02, 6.81957304e-02, -8.26819465e-02,
          3.59021313e-02, 8.26819465e-02, 3.59021313e-02,
          -6.97773769e-02, 1.30333416e-02, 2.99374312e-01,
          1.09607451e-01, 4.84443545e-01, -2.23392285e-02,
          4.84443545e-01, 1.30636245e-01, 1.12327047e-01, 8.67055431e-02,
          1.12327047e-01, 8.68546143e-02, -1.18995989e-02,
          7.09810265e-05, 1.18995989e-02, 1.34990283e-03,
          -5.25070876e-02, -9.34270583e-03, 5.25070876e-02,
          1.09993843e-02, 9.93325412e-02, -2.96994057e-02,
          9.93325412e-02, 2.96994057e-02, 1.80297606e-02,
          -6.52820338e-03, 1.80770066e-02, 6.52820338e-03,
          -2.58375378e-03, 9.72831680e-04, 2.61003664e-03,
          9.72831680e-04, 3.10506150e-02, 1.40252791e-03, 3.19954306e-02,
          2.91858404e-03, 5.75621165e-02, 5.27473516e-04, 5.75621165e-02,
          1.74036575e-03, 1.62773344e-04, 3.83299193e-05, 1.06677413e-03,
          1.34408765e-04, -2.91723199e-02, 5.56599349e-03,
          2.95745078e-02, 5.56599349e-03, 2.50336409e-01, 1.06477011e-02,
          2.67815202e-01, 1.99987236e-02, 3.84770274e-01, 6.35306314e-02,
          3.84770274e-01, 6.35306314e-02, -4.36957506e-03,
          8.13120278e-04, 8.03860836e-03, 1.27328432e-03,
          -3.98504920e-02, 5.94021985e-03, 4.08522524e-02,
          5.97329857e-03, 2.57443190e-01, -6.58562258e-02,
          3.17234725e-01, 6.66791350e-02, 4.22264040e-01,
          -2.80547496e-02, 4.22264040e-01, 3.37106399e-02,
          -8.85793287e-03, 2.39043104e-04, 8.85793287e-03,
          1.90790847e-03, -7.04626273e-03, 1.28913508e-03,
          7.30756437e-03, 1.28913508e-03, 2.80592274e-02,
          -2.79782386e-03, 4.66411412e-02, 5.38863195e-03,
          6.87150657e-02, -8.08932353e-03, 6.87150657e-02,
          8.08932353e-03, -8.44003749e-04, 2.39576577e-04,
          1.02199137e-03, 3.45357636e-04, 6.76364696e-04,
          -8.36983230e-03, 7.86158373e-04, 8.36983230e-03,
          4.80653299e-03, -4.03231643e-02, 5.83565887e-03,
          4.03708480e-02, 3.01539875e-03, -1.96702145e-02,
          4.53004427e-03, 2.01538540e-02, 4.45372891e-04,
          -2.48125114e-04, 4.72857268e-04, 3.01625405e-04,
          9.84191243e-03, -4.05302532e-02, 9.84191243e-03,
          4.11660783e-02, 7.33819455e-02, -3.72420490e-01,
          7.74671435e-02, 3.72420490e-01, 3.06233615e-01,
          -2.58242786e-01, 3.06233615e-01, 2.58242786e-01,
          1.14744799e-02, -2.86841742e-03, 2.11009067e-02,
          3.93209374e-03, -9.78201441e-03, 4.18368503e-02,
          1.15255006e-02, 4.18368503e-02, -1.55349541e-03,
          1.89162880e-01, 6.37740940e-02, 1.89162880e-01, 3.72223347e-01,
          1.04397036e-01, 3.72223347e-01, 1.08559325e-01, 2.71160505e-03,
          -8.93470459e-03, 2.44934522e-02, 9.27360822e-03,
          -3.70219769e-03, -2.88485992e-03, 3.74880037e-03,
          2.88485992e-03, 8.09542742e-03, -5.48728742e-03,
          1.37782404e-02, 7.81340618e-03, 2.75321901e-02,
          -2.52295914e-03, 2.75321901e-02, 5.49963582e-03,
          1.29216618e-03, -1.36386615e-03, 1.73481263e-03,
          1.62969646e-03 ]
      - [ -7.93195271e-04, -1.34717219e-03, 8.82863533e-04,
          1.34717219e-03, 6.07633451e-03, 9.31543484e-03, 7.94488844e-03,
          1.67361349e-02, 1.00311674e-02, 3.80088314e-02, 1.15618873e-02,
          3.85033265e-02, 9.29073431e-04, 6.35994459e-03, 1.16878585e-03,
          6.35994459e-03, 2.37348769e-02, -6.13413984e-03,
          2.39972919e-02, 1.41779101e-02, 2.56885827e-01, 2.10516676e-01,
          2.56885827e-01, 2.13949367e-01, 1.45616189e-01, 3.31392437e-01,
          1.55613035e-01, 3.31392437e-01, -1.37742115e-02,
          3.65640670e-02, 1.46400398e-02, 3.65640670e-02, 5.50777279e-02,
          -3.66689004e-02, 5.50777279e-02, 3.66689004e-02,
          4.29882884e-01, -9.83808339e-02, 4.29882884e-01,
          1.22668147e-01, 1.86650664e-01, 7.81566836e-03, 1.96647525e-01,
          7.42121935e-02, -1.74632315e-02, 1.46457758e-02,
          1.74632315e-02, 1.46457758e-02, 1.08132092e-02,
          -7.43693253e-03, 1.08132092e-02, 7.43693253e-03,
          7.79540986e-02, -4.23332192e-02, 7.79540986e-02,
          4.23332192e-02, 4.54479679e-02, -2.52179373e-02,
          4.54479679e-02, 2.52179373e-02, -1.18540914e-03,
          -1.93747424e-03, 1.54508080e-03, 1.93747424e-03,
          1.27021945e-03, -7.63849681e-03, 1.30152039e-03,
          7.63849681e-03, 2.38377880e-02, -4.93875109e-02,
          2.38377880e-02, 4.93875109e-02, 3.98840159e-02,
          -3.96405980e-02, 3.98840159e-02, 3.96405980e-02,
          6.05454808e-03, -3.70108709e-03, 6.05454808e-03,
          3.70108709e-03, 2.36989162e-03, -2.38981061e-02,
          4.49008821e-03, 2.38981061e-02, 2.17323169e-01,
          -1.69224694e-01, 2.17323169e-01, 1.69224694e-01,
          3.54357064e-01, -1.18060596e-01, 3.54357064e-01,
          1.18060596e-01, 5.01587130e-02, -7.45708682e-03,
          5.01587130e-02, 1.22474395e-02, 7.19202170e-03, 1.71918478e-02,
          9.13888216e-03, 2.12655794e-02, 2.55030215e-01, 1.73494518e-01,
          2.55030215e-01, 1.77951947e-01, 3.65248799e-01, 1.73500255e-01,
          3.65248799e-01, 1.73500255e-01, 4.74227034e-02, 1.78087745e-02,
          4.74227034e-02, 1.78087745e-02, 2.53220974e-03, 9.30623896e-03,
          2.53220974e-03, 9.30623896e-03, 3.66787352e-02, 6.87001646e-02,
          3.66787352e-02, 6.87001646e-02, 4.73251976e-02, 6.50480092e-02,
          4.73251976e-02, 6.50480092e-02, 5.04207518e-03, 6.98463805e-03,
          5.05060889e-03, 6.98463805e-03, -6.49429439e-03,
          -1.12130092e-02, 6.49429439e-03, 1.12130092e-02,
          -1.85081270e-02, -8.22641626e-02, 1.85081270e-02,
          8.22641626e-02, 2.65969727e-02, -7.68456683e-02,
          2.65969727e-02, 7.68456683e-02, 8.27169418e-03,
          -7.58096715e-03, 8.27169418e-03, 7.58096715e-03,
          -4.04356755e-02, -5.15997075e-02, 4.04356755e-02,
          5.15997075e-02, -9.81054455e-02, -3.03085595e-01,
          9.81054455e-02, 3.03085595e-01, 2.86091357e-01,
          -2.41703749e-01, 2.86091357e-01, 2.52780527e-01,
          8.95386264e-02, -1.11324508e-02, 8.95386264e-02,
          1.97968092e-02, -3.00687868e-02, -2.21245904e-02,
          3.00687868e-02, 2.21245904e-02, -1.02258688e-02,
          -1.80482734e-02, 1.03503987e-01, 1.15015715e-01,
          4.15495902e-01, 1.38913244e-01, 4.15495902e-01, 1.45457521e-01,
          1.03505164e-01, 3.12364493e-02, 1.03505164e-01, 3.12364493e-02,
          5.46222436e-05, -9.03528708e-04, 7.21568940e-04,
          9.03528708e-04, 2.87980065e-02, 2.51129698e-02, 3.04486733e-02,
          2.51129698e-02, 7.66112208e-02, 5.54706976e-02, 7.66112208e-02,
          5.54706976e-02, 1.58378016e-02, 8.81823432e-03, 1.58378016e-02,
          8.81823432e-03, 6.74308510e-03, 2.00679046e-04, 6.74308510e-03,
          4.11371875e-04, 4.44710813e-02, -2.19730442e-04,
          4.44710813e-02, 1.62339734e-03, 3.60621102e-02,
          -5.26592042e-03, 3.60621102e-02, 5.26592042e-03,
          4.01587505e-03, -1.07514590e-03, 4.01587505e-03,
          1.07514590e-03, 3.76408994e-02, 9.45099816e-03, 3.76408994e-02,
          9.45099816e-03, 2.41137967e-01, -1.64387152e-02,
          2.41137967e-01, 4.64459285e-02, 2.46920809e-01,
          -2.06228010e-02, 2.46920809e-01, 7.87019953e-02,
          3.04529089e-02, 5.56822727e-03, 3.04529089e-02, 1.11701014e-02,
          2.45727189e-02, 4.70354949e-04, 2.45727189e-02, 8.61862674e-03,
          3.26252341e-01, 1.82782352e-01, 3.26252341e-01, 2.67616689e-01,
          3.31024349e-01, 2.97266185e-01, 3.31024349e-01, 2.97266185e-01,
          4.30953829e-03, 1.56794321e-02, 1.16117839e-02, 1.71935707e-02,
          1.09270904e-02, 1.25652272e-02, 1.09270904e-02, 1.25981905e-02,
          5.62329255e-02, 8.77113342e-02, 5.86197823e-02, 8.86032134e-02,
          -2.05882289e-03, 2.55788416e-02, 1.93152521e-02,
          3.78935896e-02, -2.14497698e-03, -1.74078846e-03,
          2.14497698e-03, 1.74078846e-03, 2.44314340e-03,
          -2.68431241e-03, 2.44314340e-03, 2.68431241e-03,
          1.01537267e-02, -1.98093448e-02, 1.01537267e-02,
          1.98093448e-02, 3.16340700e-02, -1.07349427e-02,
          3.16340700e-02, 1.11421244e-02, 9.69807967e-04, 7.88461010e-04,
          2.07766192e-03, 8.08824669e-04, 1.99165512e-02,
          -1.68772042e-02, 1.99165512e-02, 1.68772042e-02,
          5.94033860e-02, -1.15362711e-01, 6.39930889e-02,
          1.15362711e-01, 3.90123993e-01, 1.62041467e-02, 3.90123993e-01,
          5.60031198e-02, -9.35672258e-04, 8.86144210e-03,
          1.62591711e-02, 9.15344153e-03, 1.96505785e-02,
          -8.63835961e-03, 1.96505785e-02, 8.63835961e-03,
          1.17384747e-01, -6.40730709e-02, 1.17384747e-01,
          6.40730709e-02, 5.44174731e-01, 5.98473661e-02, 5.44174731e-01,
          5.98473661e-02, -1.78144034e-02, 9.14750807e-03,
          2.15100739e-02, 9.14750807e-03, 2.30274233e-03,
          -4.00151213e-04, 2.30274233e-03, 6.40253187e-04,
          3.00989505e-02, -6.04854058e-03, 3.27276811e-02,
          6.04854058e-03, 8.20598900e-02, -6.93492778e-03,
          8.20598900e-02, 1.57340337e-02, -3.71863157e-03,
          -1.19874300e-03, 3.72418365e-03, 1.95714203e-03,
          3.25125502e-03, -3.42583936e-03, 3.25125502e-03,
          3.42583936e-03, 1.35820815e-02, -2.09836233e-02,
          1.35820815e-02, 2.09836233e-02, 2.49883384e-02,
          -9.86841228e-03, 2.49883384e-02, 1.04725389e-02,
          6.21359271e-04, 8.94229219e-04, 1.25176983e-03, 1.06695783e-03,
          2.33203657e-02, -2.03512143e-02, 2.33203657e-02,
          2.03512143e-02, 8.91013294e-02, -1.44818187e-01,
          8.91013294e-02, 1.44818187e-01, 3.52918863e-01,
          -1.60171706e-02, 3.52918863e-01, 8.59617218e-02,
          1.81081775e-03, 6.34993613e-03, 1.70202293e-02, 6.80859294e-03,
          2.40744185e-02, -1.43205635e-02, 2.40744185e-02,
          1.43205635e-02, 1.55058593e-01, -9.75254551e-02,
          1.55058593e-01, 9.75254551e-02, 5.35659015e-01, 9.12773609e-02,
          5.35659015e-01, 9.12773609e-02, -1.91750489e-02,
          9.48329084e-03, 2.06883643e-02, 9.53878462e-03, 3.18891159e-03,
          -1.00419321e-03, 3.18891159e-03, 1.04306173e-03,
          4.73743677e-02, -7.60770403e-04, 4.74853553e-02,
          7.24235829e-03, 8.63511264e-02, 1.51686249e-02, 8.71734023e-02,
          1.65656526e-02, -5.62595436e-03, 6.96295581e-04,
          5.62595436e-03, 7.51789485e-04, 6.24225754e-03, 1.83838524e-03,
          6.24225754e-03, 1.99530716e-03, 8.65692720e-02, 1.27230138e-02,
          8.65692720e-02, 1.37331337e-02, 9.42594954e-04,
          -2.27199984e-03, 2.30834372e-02, 5.01454948e-03,
          1.97195914e-03, -3.39245562e-05, 1.97195914e-03,
          3.39245562e-05, 5.21284938e-02, 1.78718101e-02, 5.21284938e-02,
          1.78718101e-02, 5.23150146e-01, 1.02449961e-01, 5.23150146e-01,
          1.02449961e-01, -5.00740446e-02, 2.38332376e-02,
          8.20324719e-02, 2.67616287e-02, 1.38231944e-02, 2.88903271e-03,
          1.38231944e-02, 2.88903271e-03, 4.50289436e-02, 1.63189638e-02,
          4.50289436e-02, 1.63189638e-02, 3.99287403e-01,
          -1.36293381e-01, 3.99287403e-01, 1.45493478e-01,
          5.85014001e-03, -1.03828713e-01, 9.48323458e-02,
          1.03828713e-01, 1.50753865e-02, 1.64611440e-03, 1.50753865e-02,
          2.27607973e-03, 3.65462643e-03, 8.17545631e-04, 3.65462643e-03,
          8.75655969e-04, 3.26882824e-02, -4.33395896e-03,
          3.26882824e-02, 1.15610920e-02, 3.16527523e-02,
          -2.22261460e-03, 3.16527523e-02, 7.48719834e-03,
          3.06642428e-03, 8.98550265e-04, 3.06642428e-03, 8.98550265e-04,
          -1.47615734e-03, -5.40397770e-04, 1.47615734e-03,
          5.41372690e-04, -7.32306484e-03, -4.62243147e-03,
          7.32306484e-03, 5.21826185e-03, 2.83143343e-03, 5.11382846e-03,
          3.64991394e-03, 8.80479999e-03, 8.44511320e-04, 2.52687046e-03,
          8.44511320e-04, 2.71495385e-03, -1.37797119e-02,
          -1.00113982e-02, 1.37797119e-02, 1.00113982e-02,
          -3.61610427e-02, -6.35568947e-02, 4.93969582e-02,
          6.35568947e-02, 3.46777022e-01, 1.57156527e-01, 3.46777022e-01,
          1.67602956e-01, 1.52347302e-02, 6.64768964e-02, 1.61054134e-02,
          6.64768964e-02, -1.40764099e-02, -6.40397100e-03,
          1.40764099e-02, 6.40397100e-03, -4.79289740e-02,
          -6.00119159e-02, 4.94403802e-02, 6.00119159e-02,
          5.72444022e-01, -4.41260114e-02, 5.72444022e-01,
          5.07306717e-02, 1.04501676e-02, -1.82417594e-02,
          1.85597502e-02, 1.82417594e-02, -2.36956147e-03,
          2.67395633e-04, 2.36956147e-03, 8.39748303e-04,
          -2.05652392e-03, 3.27761262e-03, 9.17158462e-03,
          5.44195063e-03, 7.42637515e-02, -5.03983581e-04,
          7.42637515e-02, 6.26598997e-03, 1.19131342e-04,
          -1.24539016e-03, 2.05293973e-03, 1.30019523e-03,
          -1.45704282e-04, 3.99064411e-05, 3.60652921e-04,
          4.10100300e-04, 5.66184800e-03, 9.50103812e-03, 5.93495648e-03,
          1.10267475e-02, 1.15082804e-02, 2.45199986e-02, 1.15082804e-02,
          2.45199986e-02, 1.86470291e-03, 4.60912008e-03, 1.86470291e-03,
          4.63647069e-03, 8.38463288e-03, -5.97473653e-03,
          1.26144644e-02, 6.44855853e-03, 3.13709229e-01, 2.26316705e-01,
          3.13709229e-01, 2.27503598e-01, 5.41488416e-02, 3.24915200e-01,
          5.99305332e-02, 3.24915200e-01, -9.02681553e-04,
          2.27042418e-02, 6.33783406e-03, 3.00652348e-02, 9.25857015e-03,
          -8.75184871e-03, 1.67597216e-02, 8.75184871e-03,
          4.49064165e-01, -1.14456154e-01, 4.49064165e-01,
          1.14456154e-01, -3.57954986e-02, -1.33438066e-01,
          6.50258735e-02, 1.33438066e-01, -7.84455333e-03,
          -1.41011579e-02, 7.84455333e-03, 1.41011579e-02,
          -1.07013322e-04, -4.31843247e-04, 8.61752836e-04,
          4.81778028e-04, 5.70245385e-02, -1.13204345e-02,
          5.70245385e-02, 1.27522778e-02, 5.32227242e-03,
          -5.96976746e-03, 1.96951348e-02, 6.47135451e-03,
          -1.25620558e-04, -2.45133037e-04, 1.25620558e-04,
          2.45133037e-04, 3.14981234e-03, -3.20947520e-03,
          3.15293786e-03, 3.20947520e-03, 1.97586361e-02,
          -3.07084527e-03, 2.10899767e-02, 8.32978543e-03,
          -1.13227041e-02, 3.92882852e-03, 1.13227041e-02,
          4.12582653e-03, 0., 0., 0., 0., 2.71457899e-02,
          -2.08236370e-02, 2.75182612e-02, 2.08236370e-02,
          3.35841745e-01, 4.63666441e-03, 3.35841745e-01, 5.81841469e-02,
          -1.58898413e-01, 6.64518476e-02, 1.58898413e-01,
          6.64518476e-02, -2.03027885e-04, 2.31501809e-03,
          2.03027885e-04, 2.31501809e-03, 2.51518898e-02,
          -1.69640835e-02, 2.51518898e-02, 1.69640835e-02,
          5.40784717e-01, -5.65101840e-02, 5.40784717e-01,
          6.66674450e-02, -1.90903947e-01, 9.60467979e-02,
          1.95144847e-01, 9.60467979e-02, -6.62826467e-03,
          4.43382980e-03, 6.62826467e-03, 4.74210968e-03, 2.01983750e-03,
          -1.50436745e-03, 2.04133685e-03, 1.50436745e-03,
          8.53081197e-02, -3.33556049e-02, 8.53081197e-02,
          3.33556049e-02, -1.12800114e-02, -3.27483974e-02,
          3.06197405e-02, 3.98412757e-02, -2.45865504e-03,
          -4.95928386e-03, 2.49254610e-03, 5.82992192e-03,
          -1.86301442e-03, -2.95103854e-03, 1.86301442e-03,
          3.62796895e-03, 5.62359877e-02, -2.16260049e-02,
          5.71229048e-02, 2.30581108e-02, 5.81355318e-02,
          -2.06029546e-02, 6.23502806e-02, 2.23966613e-02,
          -3.14338785e-03, 7.82439136e-04, 3.14338785e-03,
          7.82439136e-04, -2.30450439e-03, 1.45047242e-02,
          2.90492061e-03, 1.45047242e-02, 1.64432675e-01, 6.81712031e-02,
          1.64432675e-01, 9.44774076e-02, 4.85014588e-01,
          -1.17480837e-01, 4.85014588e-01, 1.17480837e-01,
          -1.22684222e-02, -3.16263596e-03, 1.53934537e-02,
          4.51332191e-03, 5.04492922e-03, 3.13864909e-02, 5.72487200e-03,
          3.13864909e-02, 1.09599471e-01, 3.07145834e-01, 1.09599471e-01,
          3.07145834e-01, 2.74897158e-01, 1.50103688e-01, 2.75555342e-01,
          1.62086830e-01, 2.40547606e-03, -9.69676394e-03,
          8.99116695e-03, 1.03353783e-02, 2.11813231e-03, 5.87225705e-03,
          2.11813231e-03, 5.90568921e-03, 1.15590980e-02, 2.82909460e-02,
          1.26919467e-02, 3.05570718e-02, 2.33278330e-03, 9.49943345e-03,
          5.67312678e-03, 1.39001543e-02, -1.99455433e-04,
          4.09474713e-04, 3.02022469e-04, 4.09474713e-04, 1.93134486e-03,
          -7.15737091e-03, 2.40076194e-03, 7.24137342e-03,
          -2.88060540e-03, -2.50347909e-02, 7.80708855e-03,
          2.88230292e-02, -1.32590148e-03, 2.78233760e-03,
          2.86742067e-03, 7.64642190e-03, -5.85988237e-05,
          2.61927955e-04, 5.85988237e-05, 2.61927955e-04, 5.23967342e-03,
          -3.48365568e-02, 9.15797334e-03, 3.72448340e-02,
          7.72271529e-02, -3.68438959e-01, 7.85030201e-02,
          3.69714797e-01, 2.82894313e-01, -1.76362187e-01,
          2.83912987e-01, 1.85975999e-01, -1.58083672e-03,
          7.48382555e-03, 8.16481654e-03, 7.48382555e-03,
          -8.11357889e-03, 6.65892847e-03, 8.11357889e-03,
          6.65892847e-03, 6.54524639e-02, 6.29542395e-02, 9.58127007e-02,
          6.42300993e-02, 4.64529604e-01, 1.06562041e-01, 4.64529604e-01,
          1.06562041e-01, -1.18126879e-02, 4.94552497e-03,
          1.41603304e-02, 5.67597756e-03, -1.21455849e-03,
          2.71176430e-03, 1.21455849e-03, 2.71176430e-03, 2.69454978e-02,
          2.28981432e-02, 3.07124816e-02, 2.28981432e-02, 4.81174961e-02,
          1.64518487e-02, 4.90504242e-02, 1.74237061e-02,
          -2.51826737e-03, -6.22383843e-04, 2.51826737e-03,
          6.22383843e-04, -7.92889972e-04, -1.29363232e-03,
          1.03825773e-03, 1.29363232e-03, 7.30692521e-02,
          -2.08538231e-02, 7.30692521e-02, 2.19748169e-02,
          9.10845492e-03, -1.89979654e-02, 2.65537966e-02,
          1.99316796e-02, -1.28578197e-03, -2.14343588e-03,
          1.28578197e-03, 2.14343588e-03, -8.58616736e-03,
          -1.92643073e-03, 8.58616736e-03, 1.98871153e-03,
          4.32490021e-01, -1.11386418e-01, 4.32490021e-01,
          1.11386418e-01, 1.55265525e-01, -6.20533824e-02,
          2.30823532e-01, 6.20533824e-02, -7.76163128e-04,
          -1.40093791e-03, 7.76163128e-04, 1.40093791e-03,
          5.27235772e-03, 6.18238151e-02, 8.37047398e-03, 6.26847669e-02,
          2.91193187e-01, 3.80745620e-01, 2.91193187e-01, 3.80745620e-01,
          9.05002430e-02, 4.71985862e-02, 1.42653272e-01, 5.78740239e-02,
          0., 0., 0., 0., 6.71888934e-04, 6.27118815e-03, 9.58720106e-04,
          7.80189736e-03, -7.25651439e-03, 1.19385831e-02,
          9.91535559e-03, 2.51740590e-02, -8.08403362e-03,
          -3.66288680e-03, 8.08403362e-03, 4.64182952e-03, 0., 0., 0.,
          0., 1.48835359e-02, -7.07245563e-05, 1.49880396e-02,
          1.89224258e-03, 8.06197077e-02, -1.42074395e-02,
          1.02283396e-01, 1.73490606e-02, -3.27742249e-02,
          1.36879156e-03, 3.27742249e-02, 7.59971282e-03,
          -9.62441554e-05, 3.59823171e-04, 1.20126424e-04,
          3.59823171e-04, 6.25980422e-02, 2.95103397e-02, 6.28039166e-02,
          2.95103397e-02, 5.91581285e-01, -4.09734845e-02,
          5.94259620e-01, 9.96915251e-02, -2.16248229e-01,
          -3.94626819e-02, 2.16248229e-01, 4.88499999e-02,
          9.32597439e-04, 1.91260086e-04, 9.32597439e-04, 4.16857097e-03,
          1.90018248e-02, 8.53133947e-02, 1.96773745e-02, 8.53133947e-02,
          2.20099211e-01, 5.28878570e-02, 2.31766135e-01, 1.41319841e-01,
          -6.71753734e-02, -6.59058988e-02, 6.71753734e-02,
          6.59058988e-02, 0., 0., 0., 0., -3.73392773e-04,
          -9.74056195e-04, 7.67969526e-04, 1.69520732e-03,
          -2.83081247e-03, -8.10328405e-04, 4.35135700e-03,
          4.36552428e-03, 8.77694110e-04, 5.14530158e-03, 1.23137655e-03,
          5.14530158e-03, -1.91371291e-04, 1.07245566e-03,
          1.91371291e-04, 1.07245566e-03, 8.21344089e-03,
          -1.12803746e-03, 8.42096191e-03, 1.83263235e-03,
          7.63093457e-02, -3.42887524e-03, 7.64624476e-02,
          5.84255857e-03, -2.66630147e-02, 8.22922774e-03,
          2.66630147e-02, 8.70956015e-03, -4.64457262e-04,
          2.86721537e-04, 4.64457262e-04, 2.89528602e-04, 3.56807299e-02,
          1.58974007e-02, 3.60308103e-02, 1.58974007e-02, 5.59549212e-01,
          -3.25726867e-02, 5.59549212e-01, 5.36300950e-02,
          -1.88862562e-01, -3.51890288e-02, 1.88862562e-01,
          4.61261161e-02, -3.67436995e-04, 4.68264800e-04,
          3.67436995e-04, 4.68264800e-04, 1.99316666e-02, 5.21094091e-02,
          2.00847648e-02, 5.21094091e-02, 3.39241117e-01, 4.92346585e-02,
          3.39241117e-01, 1.05104782e-01, -1.05183542e-01,
          -5.68958819e-02, 1.05183542e-01, 5.68958819e-02, 0., 0., 0.,
          0., 1.79280687e-04, 4.02505975e-03, 3.57627665e-04,
          4.47848858e-03, 7.84677104e-04, 6.25107065e-03, 5.55559294e-03,
          8.86120554e-03, -5.48824377e-04, -1.11406285e-03,
          5.48824377e-04, 2.39001727e-03, -5.22508844e-06,
          8.81520318e-05, 5.22508844e-06, 8.81520318e-05 ]
      - [ 9.46725195e-04, -1.10331839e-05, 9.46725195e-04,
          1.35394381e-04, 1.44296549e-02, 1.60008539e-02, 1.45741813e-02,
          1.60008539e-02, 1.55832507e-02, 5.06013557e-02, 1.55982058e-02,
          5.06013557e-02, 1.30008813e-03, 8.88174213e-03, 1.65081653e-03,
          8.88174213e-03, 8.11842363e-03, -1.87099969e-03,
          8.11842363e-03, 2.27881037e-03, 3.43548119e-01, 1.04985639e-01,
          3.43548119e-01, 1.08811677e-01, 2.13414073e-01, 1.50212035e-01,
          2.17875570e-01, 2.03132108e-01, -2.26837546e-02,
          -2.09139544e-03, 2.48574372e-02, 3.29158865e-02,
          8.76545999e-03, -3.44609306e-03, 8.78912862e-03,
          3.88792995e-03, 2.82077521e-01, -1.68786436e-01,
          2.82077521e-01, 1.69431895e-01, 4.36934382e-02,
          -4.10341889e-01, 9.69268680e-02, 4.10341889e-01,
          -3.20127979e-02, -6.09080344e-02, 3.20127979e-02,
          6.09287433e-02, 2.30645219e-05, 1.17901196e-04, 7.92362916e-05,
          1.27349922e-04, 5.21910563e-03, -1.22275893e-02,
          5.55181876e-03, 1.29120760e-02, 8.19656358e-04,
          -1.89438108e-02, 2.45982176e-03, 1.96969658e-02,
          -7.08380481e-04, -1.06381997e-03, 7.40960648e-04,
          1.39941857e-03, 9.00530664e-04, -4.02747828e-04,
          1.05515390e-03, 5.61385474e-04, -2.64880303e-02,
          2.59869471e-02, 2.69100778e-02, 2.63762530e-02,
          -3.01356148e-02, 3.78131792e-02, 3.01854685e-02,
          3.81438956e-02, 3.82046594e-04, 2.05298862e-03, 9.15368611e-04,
          2.05298862e-03, 8.20445828e-03, -6.00364991e-03,
          9.71941743e-03, 6.94382191e-03, 1.73060507e-01, 1.29901662e-01,
          1.93874270e-01, 1.49524406e-01, -2.01052755e-01,
          4.65969324e-01, 2.17818499e-01, 4.65969324e-01,
          -2.95994375e-02, 5.49433865e-02, 3.14368904e-02,
          5.49433865e-02, 5.12322504e-03, -1.87462452e-03,
          6.28634263e-03, 2.55032838e-03, 3.70181233e-01,
          -3.66724320e-02, 3.70181233e-01, 4.08638716e-02,
          2.32910439e-02, 8.87654498e-02, 2.06412956e-01, 1.12317920e-01,
          -5.71561828e-02, 2.39534974e-02, 5.71561828e-02,
          2.39534974e-02, 7.04153674e-04, 2.11602019e-05, 7.11827946e-04,
          1.27965701e-04, 4.15440351e-02, -1.46971634e-02,
          4.15440351e-02, 1.46971634e-02, 1.86466593e-02,
          -3.01229879e-02, 2.80838031e-02, 3.01229879e-02,
          -7.93213677e-03, -1.09372346e-03, 7.93213677e-03,
          1.28507812e-03, 8.90240481e-04, 2.03087693e-03, 8.90240481e-04,
          2.03087693e-03, 6.99756993e-03, 1.26933828e-02, 1.08995289e-02,
          1.26933828e-02, 8.87498781e-02, 4.62208539e-02, 8.87498781e-02,
          4.62208539e-02, -7.21274037e-03, 2.85791536e-03,
          7.75812101e-03, 4.38609300e-03, 1.11582270e-02, 6.07183203e-04,
          1.11582270e-02, 6.42868970e-03, 3.24262306e-02,
          -2.93004513e-02, 1.41665563e-01, 4.77537997e-02,
          4.43703383e-01, -2.62189180e-01, 5.08876204e-01,
          2.78577834e-01, -1.21069126e-01, -1.19974427e-01,
          1.21069126e-01, 1.19974427e-01, -1.51923522e-02,
          2.67619584e-02, 1.78470798e-02, 2.92512383e-02, 9.75683853e-02,
          1.55319393e-01, 1.54619068e-01, 1.66435122e-01, 3.05540883e-03,
          1.55297130e-01, 2.78946638e-01, 2.32476532e-01,
          -1.24211445e-01, 2.52302345e-02, 1.24211445e-01,
          6.49944544e-02, -7.77483080e-03, -1.29410941e-02,
          7.77483080e-03, 1.29410941e-02, 4.18050587e-02,
          -5.98442368e-02, 4.31280509e-02, 5.98442368e-02,
          2.99764629e-02, -2.56981496e-02, 3.54422145e-02,
          3.30700316e-02, -5.54296607e-03, 1.02102701e-02,
          6.70081517e-03, 1.07927099e-02, -1.50920369e-03,
          1.38372590e-03, 1.55524584e-03, 1.40603515e-03, 7.40873292e-02,
          -2.21896376e-02, 7.40873292e-02, 2.33109202e-02,
          4.91638333e-02, -3.92077900e-02, 5.55995107e-02,
          3.93671319e-02, -4.52303886e-03, 2.99229665e-04,
          4.52303886e-03, 1.05646206e-03, -3.40980105e-02,
          4.39782552e-02, 3.40980105e-02, 4.39782552e-02, 1.56903505e-01,
          -3.13620754e-02, 2.39216566e-01, 1.00937463e-01,
          4.33400214e-01, -1.94679245e-01, 4.33400214e-01,
          1.94679245e-01, 7.89511832e-04, -1.19853187e-02,
          8.95980373e-03, 1.24251787e-02, -5.63192889e-02,
          3.54290195e-02, 5.71838990e-02, 3.62362936e-02, 5.59651526e-04,
          2.88417220e-01, 2.05793664e-01, 2.88417220e-01, 2.95686275e-01,
          1.26516312e-01, 2.95686275e-01, 1.30386159e-01, 7.21957767e-03,
          -4.70589520e-03, 8.50375462e-03, 4.70589520e-03,
          -2.15924392e-03, 3.50358809e-04, 2.58692261e-03,
          1.25856535e-03, -4.78336297e-04, 3.10675167e-02,
          1.01823322e-02, 3.11306361e-02, 7.76436692e-03, 1.26616303e-02,
          8.42650142e-03, 1.30447242e-02, -2.09070233e-04,
          -6.30936702e-04, 5.05726552e-04, 6.30936702e-04,
          9.91900568e-04, 8.41634988e-04, 2.12707743e-03, 1.23687065e-03,
          8.34131911e-02, 3.93321514e-02, 8.34131911e-02, 3.93321514e-02,
          2.42063869e-02, 6.52493071e-03, 3.39192078e-02, 2.13158987e-02,
          -3.28644016e-03, -5.29567851e-03, 3.29902349e-03,
          5.29567851e-03, 3.17734368e-02, 1.25738177e-02, 3.44178043e-02,
          1.25738177e-02, 5.21322727e-01, 1.09647006e-01, 5.21322727e-01,
          1.14310272e-01, -1.61082059e-01, -9.52227861e-02,
          1.90826386e-01, 1.04391441e-01, -1.48842083e-02,
          -1.55599155e-02, 1.51592139e-02, 1.55599155e-02,
          4.14324626e-02, 1.34719983e-02, 4.37924191e-02, 1.36727728e-02,
          3.46500635e-01, -5.72361685e-02, 3.46500635e-01,
          7.67385215e-02, -1.63181499e-01, -9.42986161e-02,
          1.63181499e-01, 9.74390283e-02, -6.03253068e-03,
          -1.51691120e-05, 6.37836847e-03, 4.85259295e-03,
          3.59410979e-03, 5.18147834e-03, 3.64208547e-03, 5.18147834e-03,
          2.16975007e-02, 1.39140268e-03, 2.16975007e-02, 8.58035963e-03,
          -6.51159463e-03, -2.49607954e-03, 6.61550043e-03,
          4.94133076e-03, -1.21168909e-03, 6.95807044e-04,
          1.21168909e-03, 7.71195162e-04, -8.96146521e-04,
          5.69123484e-04, 1.41358445e-03, 6.37871446e-04,
          -4.34757546e-02, -1.36600491e-02, 4.34757546e-02,
          1.36600491e-02, 4.63034445e-03, 1.51499780e-02, 2.06718855e-02,
          1.86068267e-02, 2.43240176e-03, 8.37259553e-03, 2.46938644e-03,
          8.37259553e-03, -2.62954868e-02, -7.53007503e-03,
          2.70872284e-02, 8.96832161e-03, -2.92442501e-01,
          -1.43797293e-01, 2.92442501e-01, 1.43797293e-01,
          3.28555822e-01, -1.17452377e-02, 3.29418600e-01,
          7.10558817e-02, 2.59295404e-02, 1.60136130e-02, 3.05980705e-02,
          1.79772079e-02, -4.61122543e-02, -2.44386308e-02,
          4.62147780e-02, 2.44386308e-02, -2.02394053e-01,
          -1.25253573e-01, 2.34787062e-01, 1.29136026e-01,
          4.50070322e-01, 3.24069709e-02, 4.50070322e-01, 6.02952614e-02,
          1.79042351e-02, 3.41382489e-04, 2.90245321e-02, 5.08979196e-03,
          -7.99907837e-03, -3.04892543e-03, 7.99907837e-03,
          3.04892543e-03, 7.01244688e-03, 5.82124805e-03, 3.08965240e-02,
          1.41062997e-02, 6.79600462e-02, 2.56575476e-02, 6.79600462e-02,
          2.57692784e-02, 8.46142415e-04, 3.72415059e-04, 2.55061709e-03,
          1.35556445e-03, -5.35122352e-03, -2.97477189e-03,
          5.35122352e-03, 2.97477189e-03, 4.08147275e-02,
          -6.88969716e-03, 4.51258160e-02, 7.48003647e-03,
          4.39112298e-02, 1.19666103e-02, 4.57750596e-02, 1.22162141e-02,
          -4.33331449e-03, 2.96962704e-03, 4.33331449e-03,
          2.96962704e-03, -2.91415863e-02, -1.10454885e-02,
          2.91415863e-02, 1.10454885e-02, 2.90826917e-01,
          -5.92317805e-02, 3.02263826e-01, 5.92317805e-02,
          4.07262802e-01, -6.02815524e-02, 4.08121318e-01,
          6.24540187e-02, -3.29462662e-02, 2.79722793e-04,
          3.29462662e-02, 2.76094396e-03, -1.50559573e-02,
          -6.38965005e-03, 1.54545316e-02, 6.58893725e-03,
          3.01095366e-01, 7.48900920e-02, 3.01885486e-01, 7.56801814e-02,
          3.58777046e-01, 9.21164546e-03, 3.60108703e-01, 5.58182597e-02,
          -2.57546380e-02, -1.11300144e-02, 2.57546380e-02,
          1.11445002e-02, 2.25582728e-04, 1.66636688e-04, 1.42893370e-03,
          5.00728958e-04, 5.54091856e-02, 1.89907346e-02, 5.54091856e-02,
          1.89907346e-02, 1.67265292e-02, -2.23221636e-04,
          2.32705865e-02, 1.15541155e-02, -2.87315412e-03,
          -2.95415404e-03, 2.87315412e-03, 2.95415404e-03,
          -3.80160927e-04, -9.81045538e-04, 8.16075888e-04,
          9.81045538e-04, -2.02090070e-02, -1.28586581e-02,
          2.07636189e-02, 1.40484944e-02, -6.75321789e-03,
          1.94918085e-02, 1.48501368e-02, 2.33859289e-02,
          -4.51500807e-03, 7.65704829e-03, 4.51535406e-03,
          7.65704829e-03, -1.89295653e-02, -1.83588546e-02,
          1.89295653e-02, 1.84901580e-02, -1.91136628e-01,
          -2.75507718e-01, 1.91136628e-01, 2.75507718e-01,
          2.43296251e-01, -1.48363203e-01, 2.43296251e-01,
          1.54572695e-01, -2.27184668e-02, 1.80361455e-03,
          2.27184668e-02, 8.47086217e-03, -4.33313735e-02,
          -4.50016931e-02, 4.33313735e-02, 4.50016931e-02,
          8.26796889e-03, -1.45579800e-01, 1.80177897e-01,
          1.84168696e-01, 4.47109699e-01, 2.07140863e-01, 4.47109699e-01,
          2.09828526e-01, -1.95993073e-02, 3.33623067e-02,
          1.95993073e-02, 3.33623067e-02, -3.41946632e-03,
          -3.61366221e-03, 3.45210149e-03, 3.64629761e-03,
          5.19693345e-02, 1.06438780e-02, 5.33431396e-02, 1.43527379e-02,
          8.04698542e-02, 2.86446959e-02, 8.05473402e-02, 2.86877397e-02,
          -4.89005633e-03, 2.11083889e-03, 4.89005633e-03,
          2.69482308e-03, 8.55515059e-03, -4.92204167e-03,
          8.55515059e-03, 4.92204167e-03, 1.69340689e-02,
          -2.06811167e-02, 3.02448533e-02, 2.39681210e-02,
          -7.00666057e-03, 4.23514172e-02, 1.22804139e-02,
          4.25582454e-02, -8.70457443e-05, 8.87854304e-03,
          2.70357064e-04, 8.87854304e-03, 4.22749519e-02,
          -4.10065381e-03, 4.24295031e-02, 6.99684676e-03,
          4.41800624e-01, 6.86450675e-02, 4.41800624e-01, 9.34432000e-02,
          1.33096408e-02, 1.19013228e-01, 7.41125867e-02, 1.19013228e-01,
          5.45590976e-03, 1.18556712e-02, 6.30670041e-03, 1.18556712e-02,
          3.41017991e-02, -2.42252159e-03, 3.78115885e-02,
          7.48918205e-03, 4.90702450e-01, -1.15971021e-01,
          4.90702450e-01, 1.18860833e-01, 7.07633495e-02, 7.02608051e-03,
          1.00906990e-01, 6.84879124e-02, 7.48782698e-03, 1.44738359e-02,
          9.03603528e-03, 2.09390465e-02, 7.51513464e-04,
          -1.38455920e-03, 2.21605226e-03, 1.39495288e-03,
          6.58054799e-02, -4.25737798e-02, 6.58054799e-02,
          4.25737798e-02, 3.15944664e-02, -4.88502532e-02,
          3.24460007e-02, 4.88502532e-02, -2.38295202e-03,
          -9.02053900e-03, 2.38295202e-03, 9.02053900e-03,
          6.09545794e-04, 9.03341803e-04, 9.40856058e-04, 2.08279281e-03,
          6.55390471e-02, 2.56835166e-02, 6.61533922e-02, 2.63302904e-02,
          9.77534130e-02, 1.07899085e-02, 9.77534130e-02, 3.02940160e-02,
          -4.34177043e-03, -6.37860876e-03, 4.87669464e-03,
          6.74033491e-03, -2.76819896e-03, 9.92975477e-03,
          6.32865075e-03, 9.92975477e-03, 3.96708876e-01,
          -1.16013372e-02, 3.96708876e-01, 3.05635631e-02,
          3.27284932e-01, -2.16480419e-01, 3.31766069e-01,
          2.16480419e-01, -1.58342049e-02, -3.44419517e-02,
          1.60086509e-02, 3.44419517e-02, -6.75267912e-03,
          4.68618143e-03, 7.96203967e-03, 5.50771318e-03, 3.40859324e-01,
          9.05369893e-02, 3.40859324e-01, 9.05369893e-02, 2.02752858e-01,
          3.83860804e-02, 2.03116521e-01, 4.18869965e-02,
          -2.53994763e-03, -1.56240875e-03, 3.04798200e-03,
          3.28891445e-03, 8.86138529e-04, 1.18837587e-03, 1.31518056e-03,
          1.25348347e-03, 4.59467657e-02, 9.45083331e-03, 4.59467657e-02,
          9.45083331e-03, 1.99416671e-02, -2.59584072e-03,
          2.14657225e-02, 3.60282720e-03, -8.60778207e-04,
          -5.95901161e-04, 8.60778207e-04, 5.95901161e-04,
          3.98826320e-03, -2.41020368e-03, 4.00217669e-03,
          3.99048440e-03, 1.32385157e-02, 8.14190600e-03, 1.96384452e-02,
          1.90784950e-02, 1.27346262e-01, 1.95203361e-03, 1.27346262e-01,
          2.08858997e-02, 1.07897064e-02, -1.01130819e-02,
          1.21335657e-02, 1.05701666e-02, 3.14288624e-02, 2.25496516e-02,
          3.14288624e-02, 2.25496516e-02, 2.21306961e-02, 1.00874469e-01,
          7.16556311e-02, 1.00874469e-01, 5.22798419e-01,
          -1.14514939e-01, 5.22798419e-01, 1.14514939e-01,
          5.38599119e-02, -3.54718566e-02, 5.56074418e-02,
          3.55270170e-02, 3.27747911e-02, 1.39995608e-02, 3.27747911e-02,
          1.39995608e-02, -4.94513847e-02, 6.44201785e-02,
          8.87737572e-02, 6.44201785e-02, 3.97216737e-01, 5.11246435e-02,
          3.97216737e-01, 5.51744923e-02, 6.03698865e-02,
          -1.49304362e-03, 6.07170910e-02, 4.20769956e-03,
          3.21787526e-03, 3.28743714e-03, 3.35499924e-03, 3.28743714e-03,
          -5.47991833e-03, 6.67145196e-03, 9.11783613e-03,
          8.77894275e-03, 4.92046662e-02, 1.08948583e-02, 4.92046662e-02,
          1.24330018e-02, 7.81325251e-03, -1.16399198e-03,
          7.82716554e-03, 1.77420548e-03, 6.63448824e-04,
          -2.78557040e-04, 9.25479108e-04, 4.20890166e-04,
          4.70415540e-02, 1.90657564e-02, 4.70415540e-02, 1.90657564e-02,
          -4.36279131e-03, 4.89723012e-02, 2.58297715e-02,
          4.89723012e-02, -5.16059808e-03, 4.98423446e-03,
          5.20593766e-03, 5.00947144e-03, 1.61721988e-03,
          -1.13189890e-05, 7.47057376e-03, 2.40025017e-03,
          4.39127952e-01, -2.85576247e-02, 4.39127952e-01,
          3.62602398e-02, 1.64969355e-01, 6.44529164e-02, 2.53628939e-01,
          9.08060297e-02, -4.57135998e-02, 4.03513089e-02,
          4.57135998e-02, 4.03513089e-02, -4.76101227e-03,
          5.79635985e-03, 1.08877774e-02, 5.79635985e-03, 4.21214372e-01,
          4.09219190e-02, 4.21214372e-01, 4.09219190e-02, 2.44618490e-01,
          3.88232898e-03, 2.46820092e-01, 2.00062655e-02,
          -1.77610312e-02, 1.12230442e-02, 1.77610312e-02,
          1.27604306e-02, -1.72355340e-03, 3.93607887e-04,
          2.30383757e-03, 4.70971019e-04, 6.35718778e-02, 5.44480886e-03,
          6.35718778e-02, 5.44480886e-03, 2.55645011e-02, 1.10644381e-03,
          2.65270025e-02, 3.81921348e-03, -4.40474949e-04,
          -7.36163172e-04, 4.86593810e-04, 8.27900949e-04,
          1.48311043e-02, -8.78890278e-04, 1.49264690e-02,
          1.15496642e-03, 4.67415862e-02, 1.18870428e-03, 4.67415862e-02,
          2.89092888e-03, -8.85606837e-03, 4.56253346e-03,
          8.85606837e-03, 4.99978336e-03, -1.13797389e-04,
          9.90870874e-04, 3.80695332e-04, 1.29169133e-03, 1.05052069e-01,
          -4.13662754e-03, 1.06723040e-01, 4.27965587e-03,
          3.90497655e-01, 4.19973396e-02, 3.90497655e-01, 4.53551374e-02,
          -2.87362766e-02, 7.28348345e-02, 4.09691110e-02,
          7.94623494e-02, -3.97181474e-02, -1.92565601e-02,
          3.97181474e-02, 2.52653845e-02, 1.01027384e-01,
          -8.29056650e-03, 1.02230392e-01, 8.43369495e-03,
          4.72384036e-01, -4.49078754e-02, 4.72384036e-01,
          4.87355180e-02, -2.03403756e-01, -1.22202195e-01,
          2.03403756e-01, 1.31580591e-01, -8.83421004e-02,
          -7.03200325e-02, 8.83421004e-02, 7.03200325e-02,
          1.10922446e-02, -2.14673486e-03, 1.13492133e-02,
          2.30113603e-03, 8.03228244e-02, -2.15196833e-02,
          8.03761110e-02, 2.15196833e-02, -8.50701034e-02,
          -4.73635606e-02, 8.50701034e-02, 4.73635606e-02,
          -1.10504860e-02, -8.49733502e-03, 1.10763405e-02,
          8.49818997e-03, -5.54742105e-03, -2.81811081e-04,
          5.54917566e-03, 3.94922128e-04, -5.08120358e-02,
          -1.31100640e-02, 5.08120358e-02, 1.31100640e-02,
          3.84665020e-02, -3.83988000e-03, 3.93305123e-02,
          6.66437671e-03, 6.18860545e-03, 1.37207878e-03, 6.20922586e-03,
          1.46247831e-03, -4.94486950e-02, -2.01885146e-03,
          4.95043434e-02, 3.45619256e-03, -3.55515540e-01,
          -4.08174023e-02, 3.55515540e-01, 4.08174023e-02,
          3.51684451e-01, -8.94381665e-03, 3.51684451e-01,
          1.79443620e-02, 5.23365177e-02, 4.34253318e-03, 5.24366274e-02,
          6.44898228e-03, -4.91197556e-02, 5.97536750e-03,
          4.91197556e-02, 6.76999893e-03, -3.51490796e-01,
          6.75342754e-02, 3.51490796e-01, 6.75342754e-02, 3.15088063e-01,
          6.29421498e-04, 3.15088063e-01, 1.97898708e-02, 5.48641309e-02,
          -6.41070399e-03, 5.48641309e-02, 6.41070399e-03,
          -5.93035063e-03, 1.64100528e-03, 5.95223671e-03,
          1.65693928e-03, -6.04228787e-02, 8.64540040e-03,
          6.04228787e-02, 8.64540040e-03, 3.88603993e-02,
          -1.89350496e-04, 3.98242734e-02, 1.80195272e-03,
          7.74048129e-03, -3.15266981e-04, 7.74048129e-03,
          3.15801211e-04, 7.01211207e-03, -1.97441527e-03,
          8.03733245e-03, 2.80233147e-03, 8.12666938e-02,
          -2.60866117e-02, 8.12666938e-02, 2.60866117e-02,
          1.24971839e-02, -2.17699562e-03, 1.43375080e-02,
          4.55846870e-03, -7.67944381e-04, 7.91436527e-04,
          7.67944381e-04, 7.91436527e-04, 1.38918329e-02, 4.83127907e-02,
          3.60863134e-02, 4.86326739e-02, 5.32850027e-01, 1.29353002e-01,
          5.32850027e-01, 1.43117338e-01, 1.11783735e-01,
          -2.60698237e-02, 1.21853039e-01, 2.60698237e-02,
          -5.43409074e-03, -8.73785466e-03, 5.43409074e-03,
          9.66688897e-03, 3.84406769e-03, 5.53718247e-02, 1.62514504e-02,
          5.63314632e-02, 8.85240287e-02, -9.78213921e-02,
          1.66575894e-01, 2.54625410e-01, 1.24244280e-01,
          -3.03292900e-01, 1.29768685e-01, 3.03292900e-01,
          4.46422782e-04, -1.47962701e-02, 6.03946950e-03,
          1.47962701e-02, -3.88981751e-03, -1.70917064e-03,
          3.88981751e-03, 1.76427071e-03, -3.91051620e-02,
          -3.13443504e-02, 3.91051620e-02, 3.61840688e-02,
          4.09632884e-02, -3.45799737e-02, 4.09632884e-02,
          3.87092121e-02, 3.66058806e-03, -3.37726646e-03,
          3.66058806e-03, 3.37726646e-03 ]
      - [ -8.09795165e-06, 1.55896952e-04, 8.09795165e-06,
          1.55896952e-04, 5.69821894e-02, -1.63606051e-02,
          5.69821894e-02, 1.66176911e-02, 7.57754035e-03, 1.84216816e-02,
          5.11485599e-02, 2.38660295e-02, -1.71061326e-02,
          1.30247418e-02, 1.71061326e-02, 1.30247418e-02, 2.37137056e-03,
          7.20112724e-03, 3.99815105e-03, 9.12119821e-03, 1.98684603e-01,
          -1.73457917e-02, 2.03513563e-01, 5.14443703e-02,
          4.08878535e-01, -9.02291089e-02, 4.34065074e-01,
          1.03811510e-01, -7.92681575e-02, 2.49407757e-02,
          7.92681575e-02, 2.70539392e-02, 1.96024962e-02, 1.12444283e-02,
          1.96024962e-02, 1.63947046e-02, 1.74775034e-01, 4.05032665e-01,
          1.74775034e-01, 4.05032665e-01, 1.55289829e-01, 7.57320225e-02,
          2.30087087e-01, 1.63664147e-01, -4.33298759e-02,
          -2.56131664e-02, 4.33298759e-02, 2.62731649e-02,
          8.77450686e-03, -3.81186348e-03, 8.77450686e-03,
          3.81186348e-03, 1.98027007e-02, -3.40230763e-02,
          3.39358486e-02, 3.40230763e-02, -2.81662531e-02,
          -5.14896102e-02, 2.81662531e-02, 5.14896102e-02,
          -3.09377979e-03, -4.33313195e-03, 3.11332522e-03,
          4.33313195e-03, 8.20249598e-03, -2.71767005e-03,
          8.20249598e-03, 2.71767005e-03, 5.43680079e-02, 8.59935768e-03,
          5.43680079e-02, 1.00457584e-02, 7.43643660e-03, 8.21449701e-03,
          1.69621687e-02, 1.27110807e-02, -2.99351232e-04,
          -2.79230787e-03, 9.10664909e-04, 3.34322685e-03,
          7.56073743e-02, -8.34683981e-03, 7.56073743e-02,
          8.34683981e-03, 4.92123783e-01, 2.48811338e-02, 4.92123783e-01,
          3.64041738e-02, -1.56116992e-01, -7.50062689e-02,
          1.72108546e-01, 8.90406594e-02, -1.37512358e-02,
          -1.66002512e-02, 1.67000536e-02, 1.66002512e-02,
          8.09651613e-02, 1.34108504e-02, 8.09651613e-02, 1.34108504e-02,
          3.85522217e-01, -1.76383031e-03, 3.85522217e-01,
          5.93087226e-02, -2.04455331e-01, -1.12895206e-01,
          2.04455331e-01, 1.12895206e-01, -2.13008933e-03,
          -3.45706660e-03, 2.90986151e-03, 3.63745796e-03,
          9.49020032e-03, 4.20929957e-03, 9.49020032e-03, 4.20929957e-03,
          2.84853596e-02, -1.78984250e-03, 3.00673451e-02,
          8.42108764e-03, -2.33458802e-02, -1.10096456e-02,
          2.33458802e-02, 1.10096456e-02, 3.46161949e-04,
          -2.96068931e-04, 3.46161949e-04, 2.96068931e-04,
          -3.95565713e-03, -6.10355660e-03, 3.95565713e-03,
          6.10355660e-03, 2.18074806e-02, -2.92315446e-02,
          2.26193219e-02, 2.92315446e-02, 4.77265343e-02,
          -1.48811080e-02, 4.77265343e-02, 1.48811080e-02,
          6.05941983e-03, 6.91354915e-04, 6.08719466e-03, 7.05242273e-04,
          -1.18806474e-02, -2.58488823e-02, 1.18806474e-02,
          2.58488823e-02, 2.26254538e-01, -1.03163607e-01,
          2.26254538e-01, 1.03163607e-01, 4.14673805e-01,
          -5.66752963e-02, 4.14673805e-01, 6.32363334e-02,
          5.22554964e-02, -1.18442310e-03, 5.30402251e-02,
          2.44585937e-03, 2.16869591e-03, 7.13647995e-03, 6.37985626e-03,
          1.12472344e-02, 2.46453241e-01, 8.26211199e-02, 2.46453241e-01,
          8.26211199e-02, 4.20893490e-01, 5.22935316e-02, 4.20893490e-01,
          5.88545762e-02, 4.48014513e-02, -2.35595438e-03,
          4.57856357e-02, 4.30128537e-03, 1.91282586e-03, 4.87556355e-03,
          1.91282586e-03, 4.87556355e-03, 3.10980845e-02, 3.54867764e-02,
          3.10980845e-02, 3.54867764e-02, 4.80730496e-02, 2.26723738e-02,
          4.80730496e-02, 2.26723738e-02, 3.48907150e-03,
          -4.93598869e-04, 3.79986572e-03, 6.51151640e-04,
          5.40907122e-03, -8.78744759e-03, 5.40907122e-03,
          9.33728274e-03, -1.95095316e-02, -3.69606055e-02,
          2.39073560e-02, 4.40074578e-02, -5.30065000e-02,
          1.03896949e-02, 5.30065000e-02, 2.20454391e-02,
          -5.47628058e-03, 7.03980029e-03, 5.47628058e-03,
          7.03980029e-03, 4.72566113e-02, -8.88556018e-02,
          4.72566113e-02, 8.88556018e-02, 1.75412923e-01,
          -4.17499453e-01, 1.89554676e-01, 4.17499453e-01,
          5.49578667e-02, -6.57402351e-02, 1.31976262e-01,
          1.29571185e-01, -7.59315304e-03, 3.98170315e-02,
          9.89643950e-03, 3.98170315e-02, 5.34070656e-02,
          -5.92300110e-03, 5.34070656e-02, 2.50526462e-02,
          3.78223091e-01, 6.69158809e-03, 3.78223091e-01, 1.28568292e-01,
          2.86139756e-01, 9.32213441e-02, 2.86139756e-01, 9.85058621e-02,
          1.38824712e-02, 2.08375193e-02, 1.53391985e-02, 2.08375193e-02,
          7.69132189e-03, 9.28727444e-03, 7.69132189e-03, 9.28727444e-03,
          5.21853380e-02, 5.58382161e-02, 5.21853380e-02, 5.58382161e-02,
          3.06283124e-02, 3.43268663e-02, 3.06283124e-02, 3.43268663e-02,
          1.56032376e-03, 1.55499612e-03, 1.67657970e-03, 1.55499612e-03,
          -7.68060097e-03, -2.84072571e-03, 7.68060097e-03,
          2.84072571e-03, -1.82264857e-02, -4.18676389e-03,
          1.82264857e-02, 8.86506587e-03, 2.27414165e-03, 1.79940984e-02,
          5.61655592e-03, 2.04764437e-02, -2.30362033e-03,
          4.52499744e-03, 2.30362033e-03, 4.52499744e-03,
          -4.78817336e-02, -1.70994345e-02, 4.78817336e-02,
          1.70994345e-02, 7.50487894e-02, -3.52532649e-03,
          1.30773380e-01, 5.87608851e-02, 2.15231866e-01, 2.46171787e-01,
          2.15231866e-01, 2.46171787e-01, -1.11880796e-02,
          6.38928190e-02, 1.27944937e-02, 6.38928190e-02,
          -4.60159257e-02, -2.39110850e-02, 4.60159257e-02,
          2.39110850e-02, 2.21691087e-01, -1.43840313e-01,
          2.54531890e-01, 1.43840313e-01, 5.16142726e-01, 4.83039320e-02,
          5.16142726e-01, 1.06384099e-01, 2.70132199e-02, 6.31863698e-02,
          3.51928547e-02, 6.31863698e-02, -7.16836145e-03,
          -1.00736250e-03, 7.16836145e-03, 1.78491254e-03,
          3.23328339e-02, -1.63158067e-02, 3.91565450e-02,
          1.79677494e-02, 1.07780136e-01, -1.82854384e-02,
          1.07780136e-01, 1.91221647e-02, 1.17739392e-02, 1.84913597e-03,
          1.18661309e-02, 2.70332047e-03, 1.60873239e-03,
          -2.18456914e-03, 1.60873239e-03, 2.18456914e-03,
          3.28619964e-02, -7.64943287e-03, 3.28619964e-02,
          7.64943287e-03, 3.15944552e-02, -8.91432457e-04,
          3.15944552e-02, 2.62347772e-03, 6.18739519e-04,
          -4.01500671e-04, 1.08075922e-03, 9.26326495e-04,
          1.29742278e-02, -5.44144074e-03, 1.29742278e-02,
          5.44144074e-03, 2.98821151e-01, 1.39425043e-02, 2.98821151e-01,
          3.58790308e-02, 3.01980436e-01, 1.11465342e-01, 3.01980436e-01,
          1.11465342e-01, -5.60294185e-03, 2.32622474e-02,
          1.04151508e-02, 2.32827608e-02, 1.74225904e-02,
          -1.63498595e-02, 1.74225904e-02, 1.63498595e-02,
          3.61723363e-01, -9.60151851e-02, 3.61723363e-01,
          9.60151851e-02, 3.85901183e-01, -4.16234396e-02,
          3.85901183e-01, 7.45580792e-02, 6.88151456e-04, 7.58172339e-03,
          1.60833653e-02, 1.29640410e-02, 1.69429090e-03,
          -4.04416677e-03, 1.78761804e-03, 4.04416677e-03,
          5.03200367e-02, -3.78797874e-02, 5.03200367e-02,
          3.78797874e-02, 6.38402626e-02, -4.30644080e-02,
          6.38402626e-02, 4.30644080e-02, 2.65444955e-03,
          -4.76094568e-03, 3.39269708e-03, 4.76094568e-03,
          -3.81802046e-03, -5.44077391e-03, 3.81802046e-03,
          5.44077391e-03, -4.40379977e-03, -3.31509747e-02,
          1.00402711e-02, 3.31509747e-02, 3.10083386e-02,
          -2.72681881e-02, 3.10083386e-02, 2.72681881e-02,
          5.35324123e-03, -5.00174414e-04, 5.35324123e-03,
