%YAML:1.0
opencv_ml_svm:
   format: 3
   svmType: ONE_CLASS
   kernel:
      type: RBF
      gamma: 1.0000000000000001e-01
   nu: 1.0000000000000001e-01
   term_criteria: { iterations:500 }
   var_count: 1280
   class_count: 1
   sv_total: 65
   support_vectors:
      - [ 0., 0., 0., 0., 1.52523164e-02, 7.36664934e-03, 1.52523164e-02,
          7.36664934e-03, 3.74573916e-02, 4.66374308e-02, 5.90203367e-02,
          4.76415753e-02, -5.52309903e-05, 7.58917117e-03,
          1.42306020e-03, 8.15614033e-03, 0., 0., 0., 0., 1.10457398e-01,
          -7.55567709e-03, 1.10457398e-01, 4.51798216e-02,
          3.86574447e-01, 2.21734010e-02, 4.21275944e-01, 2.02522352e-01,
          -1.36635238e-02, -1.07600894e-02, 1.64133534e-02,
          1.20963296e-02, 0., 0., 0., 0., 1.01361685e-01,
          -1.31065818e-02, 1.01361685e-01, 6.19061776e-02,
          1.80692077e-01, -3.06258053e-01, 4.50425357e-01,
          4.69711781e-01, -1.66329909e-02, -1.88736469e-02,
          3.89258564e-02, 9.43845510e-02, 0., 0., 0., 0., 0., 0., 0., 0.,
          4.87057343e-02, 1.68553852e-02, 5.53138666e-02, 5.25662415e-02,
          -7.02573033e-03, -9.68834199e-03, 7.02573033e-03,
          9.68834199e-03, 0., 0., 0., 0., 4.46843021e-02, 6.86147762e-03,
          4.46843021e-02, 6.97043678e-03, 1.88873298e-02, 2.47957800e-02,
          3.10814548e-02, 2.58072019e-02, -5.04489639e-04,
          3.55510623e-03, 1.22894987e-03, 4.22321120e-03, 0., 0., 0., 0.,
          1.90351397e-01, 1.45091601e-02, 1.90351397e-01, 6.95251673e-02,
          2.91418582e-01, 1.53095881e-02, 3.71944129e-01, 1.83272049e-01,
          -2.95046531e-02, -4.96004373e-02, 3.23419310e-02,
          5.02686724e-02, 0., 0., 0., 0., 5.76834045e-02,
          -4.87989523e-02, 5.76834045e-02, 4.87989523e-02,
          1.57155901e-01, -3.00698996e-01, 4.19983864e-01,
          5.77171385e-01, -9.95159522e-03, 2.67224982e-02,
          4.14757133e-02, 7.71565214e-02, 0., 0., 0., 0., 0., 0., 0., 0.,
          3.63220759e-02, -3.95436734e-02, 4.98606376e-02,
          3.95436734e-02, -7.01440498e-03, -1.00856917e-02,
          7.01440498e-03, 1.00856917e-02, 0., 0., 0., 0., 0., 0., 0., 0.,
          0., 0., 0., 0., 0., 0., 0., 0., 0., 0., 0., 0., 4.36964668e-02,
          4.36964668e-02, 4.36964668e-02, 4.36964668e-02,
          -3.09208850e-03, 3.56862277e-01, 1.84648618e-01,
          3.56862277e-01, 2.49518100e-02, 6.01595789e-02, 3.35190073e-02,
          6.01595789e-02, 0., 0., 0., 0., 1.05599634e-01,
          -4.03738059e-02, 1.05599634e-01, 4.03738059e-02,
          1.13144383e-01, -6.24530353e-02, 7.58654594e-01,
          2.06722781e-01, 1.09736130e-01, -1.96572468e-02,
          1.13476850e-01, 3.11468933e-02, 0., 0., 0., 0., 0., 0., 0., 0.,
          8.40464421e-03, -5.14369644e-02, 4.58623245e-02,
          5.14369644e-02, 1.09669212e-02, -4.08376241e-03,
          1.09835658e-02, 4.18820558e-03, 0., 0., 0., 0., 8.92591197e-03,
          9.43354610e-03, 8.92591197e-03, 9.43354610e-03, 3.50061245e-02,
          5.12246303e-02, 6.34570643e-02, 5.42071760e-02,
          -1.05625251e-03, 2.07056920e-03, 1.43484259e-03,
          2.98895896e-03, 0., 0., 0., 0., 2.68756419e-01, 4.73799510e-03,
          2.68756419e-01, 1.29306853e-01, 2.49952182e-01, 4.57574390e-02,
          2.99247593e-01, 2.01674089e-01, -1.17924958e-02,
          5.98534569e-03, 1.64307877e-02, 2.04898044e-02, 0., 0., 0., 0.,
          3.65167171e-01, -1.87492222e-02, 3.65167171e-01,
          1.23581603e-01, 1.20268483e-02, -2.84264743e-01,
          2.95908451e-01, 3.93960178e-01, -4.14669327e-02,
          -3.96878310e-02, 4.19978574e-02, 7.36548007e-02, 0., 0., 0.,
          0., 0., 0., 0., 0., 5.23485988e-02, 5.27855009e-02,
          5.99389039e-02, 7.81178176e-02, -7.62756635e-03,
          -6.20500534e-04, 7.62756635e-03, 1.07382853e-02, 0., 0., 0.,
          0., 0., 0., 0., 0., 0., 0., 0., 0., 0., 0., 0., 0., 0., 0., 0.,
          0., 4.21975628e-02, 4.02535237e-02, 4.21975628e-02,
          4.02535237e-02, 3.79885286e-02, 3.01709205e-01, 1.94610342e-01,
          3.01709205e-01, 6.30381750e-03, 6.64513409e-02, 2.87064333e-02,
          6.64513409e-02, 0., 0., 0., 0., 8.35514739e-02,
          -3.82076874e-02, 8.35514739e-02, 3.82076874e-02,
          1.36574104e-01, -1.46642238e-01, 7.66103089e-01,
          3.23123127e-01, 7.67550245e-02, -2.02104356e-02,
          7.94448555e-02, 2.89238114e-02, 0., 0., 0., 0., 0., 0., 0., 0.,
          5.13888255e-04, -5.44994697e-03, 5.07767266e-03,
          5.44994697e-03, 7.61828525e-03, -7.67069217e-03,
          7.74243940e-03, 7.68163288e-03, 0., 0., 0., 0., 0., 0., 0., 0.,
          7.00146600e-04, 7.74842734e-03, 6.58118352e-03, 7.74842734e-03,
          0., 0., 0., 0., 0., 0., 0., 0., 8.15197378e-02, 3.31740491e-02,
          8.15197378e-02, 3.31740491e-02, 1.27766117e-01, 6.88777864e-02,
          7.25259602e-01, 3.12491804e-01, 4.09735972e-03, 5.36495447e-02,
          4.43039238e-02, 5.47229201e-02, 0., 0., 0., 0., 3.64131555e-02,
          -3.54902819e-02, 3.64131555e-02, 3.54902819e-02,
          2.51308113e-01, -1.10584021e-01, 3.70237350e-01,
          3.32222521e-01, -5.93927596e-03, 3.75707005e-03,
          1.62793119e-02, 9.67767462e-03, 0., 0., 0., 0., 1.54306320e-03,
          1.15801801e-03, 1.54306320e-03, 1.15801801e-03, 3.81939486e-02,
          2.49618624e-05, 4.07584533e-02, 1.28340647e-02,
          -2.54647667e-03, -5.07909292e-03, 2.80489470e-03,
          5.20896260e-03, 0., 0., 0., 0., 9.86346626e-04, 9.86346626e-04,
          9.86346626e-04, 9.86346626e-04, 3.13007943e-02, 1.83455311e-02,
          4.34708111e-02, 2.46917009e-02, 2.22232920e-05, 4.70391184e-04,
          3.01621825e-04, 5.41864254e-04, 0., 0., 0., 0., 3.71857524e-01,
          -1.88517869e-02, 3.71857524e-01, 1.40652269e-01,
          6.27342314e-02, 1.11679435e-01, 1.57090038e-01, 1.97002023e-01,
          -3.37020941e-02, 2.15486437e-03, 3.37647200e-02,
          3.78413051e-02, 0., 0., 0., 0., 3.85542899e-01, 1.49413729e-02,
          3.85542899e-01, 1.63372174e-01, -6.29658401e-02,
          -2.13790864e-01, 2.11441562e-01, 4.15937752e-01,
          -5.14339693e-02, -3.03626135e-02, 5.14339693e-02,
          4.97279912e-02, 0., 0., 0., 0., 4.33733367e-04, 1.34790607e-04,
          4.33733367e-04, 4.33733367e-04, 4.53183353e-02, 2.93081906e-02,
          7.18476847e-02, 8.57354999e-02, -8.92358180e-03,
          -3.29520297e-03, 8.92358180e-03, 3.57983983e-03, 0., 0., 0.,
          0., 5.39175533e-02, 1.68849677e-02, 5.39175533e-02,
          2.30230838e-02, 7.07003102e-03, 4.57882276e-03, 1.32294409e-02,
          1.13773607e-02, -8.39251000e-03, -4.75866674e-03,
          8.40078760e-03, 5.99348126e-03, 0., 0., 0., 0., 1.95748553e-01,
          -4.53596897e-02, 1.95748553e-01, 1.23894580e-01,
          1.05727362e-02, 1.10703379e-01, 2.82784194e-01, 6.57875896e-01,
          -3.63931321e-02, -5.54700568e-03, 3.63931321e-02,
          2.54554357e-02, 0., 0., 0., 0., 8.08011070e-02,
          -3.77943031e-02, 8.08011070e-02, 3.77943031e-02,
          2.25780369e-03, -3.73614371e-01, 2.73960233e-01,
          3.73614371e-01, -5.84253436e-03, -6.06063567e-03,
          5.84253436e-03, 6.06063567e-03, 0., 0., 0., 0., 0., 0., 0., 0.,
          0., 0., 0., 0., 0., 0., 0., 0., 0., 0., 0., 0., 2.62889098e-02,
          9.03342199e-03, 2.62889098e-02, 9.03342199e-03, 1.27776992e-02,
          4.46097143e-02, 3.48007493e-02, 4.49793898e-02,
          -1.50722801e-03, 4.08349838e-03, 1.89739838e-03,
          4.36679786e-03, 0., 0., 0., 0., 3.27152759e-01,
          -2.67825667e-02, 3.27152759e-01, 1.01435937e-01,
          -5.80431819e-02, -3.40457439e-01, 1.88601390e-01,
          3.90894443e-01, -3.96408811e-02, -2.95583848e-02,
          4.03844528e-02, 3.10259555e-02, 0., 0., 0., 0., 7.35324770e-02,
          -1.89004075e-02, 7.35324770e-02, 5.14018945e-02,
          4.41919640e-02, 6.55185059e-02, 3.56488496e-01, 5.55067420e-01,
          -3.29220644e-03, 2.83624133e-04, 3.29220644e-03,
          2.91957590e-03, 0., 0., 0., 0., 0., 0., 0., 0., 0., 0., 0., 0.,
          0., 0., 0., 0., 0., 0., 0., 0., 0., 0., 0., 0., 0., 0., 0., 0.,
          0., 0., 0., 0., 0., 0., 0., 0., 3.23762707e-02, 3.23762707e-02,
          3.23762707e-02, 3.23762707e-02, 6.26024082e-02, 2.81193405e-01,
          1.94411904e-01, 2.81193405e-01, -1.76210292e-02,
          6.46754354e-02, 2.06875224e-02, 6.46754354e-02, 0., 0., 0., 0.,
          7.61167407e-02, -3.02977283e-02, 7.61167407e-02,
          3.02977283e-02, 2.00014323e-01, -1.64686769e-01,
          7.81385422e-01, 3.06881636e-01, 1.23117855e-02,
          -1.36175724e-02, 2.38215234e-02, 2.16704942e-02, 0., 0., 0.,
          0., 0., 0., 0., 0., 5.19717636e-04, -5.19717636e-04,
          5.19717636e-04, 5.19717636e-04, 5.67358453e-03,
          -7.04036141e-03, 6.90634875e-03, 7.29667023e-03, 0., 0., 0.,
          0., 0., 0., 0., 0., 0., 0., 0., 0., 0., 0., 0., 0., 0., 0., 0.,
          0., 8.69569853e-02, 3.66211496e-02, 8.69569853e-02,
          3.66211496e-02, 1.11602113e-01, 1.39331400e-01, 6.83928430e-01,
          3.62427145e-01, -3.55304703e-02, 4.31333408e-02,
          3.55304703e-02, 4.31333408e-02, 0., 0., 0., 0., 3.90008651e-02,
          -3.90008651e-02, 3.90008651e-02, 3.90008651e-02,
          3.13947201e-01, -6.51761293e-02, 3.76652390e-01,
          2.94358075e-01, -3.68067771e-02, 8.84586666e-03,
          4.03478071e-02, 2.85784565e-02, 0., 0., 0., 0., 5.43164928e-03,
          3.93425254e-03, 5.43164928e-03, 4.71685361e-03, 3.34375687e-02,
          -4.19547781e-04, 4.01885509e-02, 2.84307785e-02,
          -2.71433173e-03, -3.27342330e-03, 3.51112708e-03,
          3.71570047e-03, 0., 0., 0., 0., 8.46685655e-03, 7.60184927e-03,
          8.46685655e-03, 7.60184927e-03, 2.14174595e-02, 3.95622440e-02,
          4.05558906e-02, 4.06589247e-02, -1.72794200e-04,
          5.49766351e-04, 1.15301239e-03, 8.06426455e-04, 0., 0., 0., 0.,
          3.26259732e-01, -1.47180604e-02, 3.26259732e-01,
          1.14271730e-01, -8.49950463e-02, -3.06160867e-01,
          2.51060367e-01, 4.59580243e-01, -1.84923131e-02,
          -2.13149600e-02, 2.01578401e-02, 2.94215400e-02, 0., 0., 0.,
          0., 7.19999075e-02, -2.11716127e-02, 7.19999075e-02,
          6.41889870e-02, 1.18537173e-02, 2.91028284e-02, 3.23040903e-01,
          5.20288289e-01, 0., 0., 0., 0., 0., 0., 0., 0., 0., 0., 0., 0.,
          0., 0., 0., 0., 0., 0., 0., 0., 0., 0., 0., 0., 0., 0., 0., 0.,
          0., 0., 0., 0., 0., 0., 0., 0., 0., 0., 0., 0., 3.48133333e-02,
          3.38029638e-02, 3.48133333e-02, 3.38029638e-02, 1.39113948e-01,
          2.90338069e-01, 3.03072631e-01, 3.58660847e-01,
          -9.36915260e-03, 6.12313561e-02, 2.75904126e-02,
          6.41438663e-02, 0., 0., 0., 0., 4.25416827e-02,
          -3.34483795e-02, 4.25416827e-02, 3.34483795e-02,
          1.87848628e-01, -2.46655628e-01, 6.41700029e-01,
          3.79460871e-01, 1.19289113e-02, -4.10546958e-02,
          3.30019072e-02, 4.18279208e-02, 0., 0., 0., 0., 0., 0., 0., 0.,
          0., 0., 0., 0., 2.79450836e-03, -5.58426254e-04,
          2.90613784e-03, 1.66364282e-03, 0., 0., 0., 0., 1.25102728e-04,
          1.25102728e-04, 1.25102728e-04, 1.25102728e-04, 5.13797961e-02,
          3.16032395e-02, 6.94810972e-02, 4.31873575e-02,
          -3.37916380e-03, 4.54691937e-03, 3.89448996e-03,
          4.75893589e-03, 0., 0., 0., 0., 1.54686615e-01, 2.79077217e-02,
          1.54686615e-01, 1.00096621e-01, 7.74308890e-02, 5.59862256e-02,
          3.23213309e-01, 6.81372046e-01, -2.34043319e-02,
          -2.99980752e-02, 2.55063903e-02, 2.99980752e-02, 0., 0., 0.,
          0., 9.43671837e-02, -4.08008099e-02, 9.43671837e-02,
          4.08008099e-02, -4.48351726e-02, -3.86099160e-01,
          1.69666111e-01, 3.86099160e-01, 0., 0., 0., 0., 0., 0., 0., 0.,
          0., 0., 0., 0., 0., 0., 0., 0., 0., 0., 0., 0., 0., 0., 0., 0.,
          0., 0., 0., 0., 2.45940257e-02, 2.67943107e-02, 3.15940417e-02,
          2.85283495e-02, -8.89826515e-06, 1.94232166e-03,
          9.47925088e-04, 2.97060725e-03, 0., 0., 0., 0., 2.34564200e-01,
          2.07000244e-02, 2.34564200e-01, 8.55814144e-02, 6.76841289e-02,
          -1.80882603e-01, 4.15795743e-01, 5.54817259e-01,
          -7.48827029e-03, -3.00425496e-02, 1.56546999e-02,
          3.42869312e-02, 0., 0., 0., 0., 1.45827770e-01,
          -2.46143732e-02, 1.45827770e-01, 1.10124588e-01,
          -8.23524892e-02, -7.35870302e-02, 2.53613830e-01,
          4.76328850e-01, 0., 0., 0., 0., 0., 0., 0., 0., 0., 0., 0., 0.,
          0., 0., 0., 0., 0., 0., 0., 0., 0., 0., 0., 0., 0., 0., 0., 0.,
          0., 0., 0., 0., 0., 0., 0., 0., 0., 0., 0., 0., 1.13745667e-01,
          5.42935207e-02, 1.13745667e-01, 5.42935207e-02,
          -5.23175187e-02, 2.39934012e-01, 4.94915098e-01,
          3.33386183e-01, 0., 0., 0., 0., 0., 0., 0., 0., 6.84578568e-02,
          -4.33036126e-02, 6.84578568e-02, 7.05452710e-02,
          2.73721784e-01, 3.40162851e-02, 5.60179412e-01, 3.66293371e-01,
          -5.82373738e-02, 1.14337895e-02, 5.82373738e-02,
          2.00180709e-02, 0., 0., 0., 0., 3.30416597e-02, 1.44159468e-02,
          3.30416597e-02, 2.89545376e-02, 7.04581151e-04,
          -1.13494294e-02, 1.71853937e-02, 1.98755879e-02,
          -9.82988905e-03, -1.99342729e-04, 9.82988905e-03,
          9.54587478e-04, 0., 0., 0., 0., 0., 0., 0., 0., 1.99847240e-02,
          2.89743766e-02, 2.31075864e-02, 3.10127921e-02, 9.21854982e-04,
          3.76174762e-03, 1.47080794e-03, 5.75396884e-03, 0., 0., 0., 0.,
          3.05760503e-01, 2.32839901e-02, 3.05760503e-01, 1.09243236e-01,
          -4.97266874e-02, -1.70551553e-01, 4.11970854e-01,
          6.18855417e-01, -7.79877091e-03, -2.93460712e-02,
          3.56749147e-02, 3.78497280e-02, 0., 0., 0., 0., 1.68803379e-01,
          -3.40859592e-02, 1.68803379e-01, 8.11362043e-02,
          -1.29347250e-01, -7.93871284e-02, 2.08931029e-01,
          2.80090511e-01, 0., 0., 0., 0., 0., 0., 0., 0., 0., 0., 0., 0.,
          0., 0., 0., 0., 0., 0., 0., 0., 0., 0., 0., 0., 0., 0., 0., 0.,
          0., 0., 0., 0., 2.23340074e-04, 6.82927377e-04, 4.38468385e-04,
          6.82927377e-04, 0., 0., 0., 0., 5.64426854e-02, 3.08582224e-02,
          5.64426854e-02, 3.08582224e-02, 2.94489920e-01, 1.54533520e-01,
          4.26622182e-01, 6.97609365e-01, -3.12791578e-02,
          -3.41846701e-03, 3.56051438e-02, 5.72653301e-02, 0., 0., 0.,
          0., 3.19805779e-02, -3.19805779e-02, 3.19805779e-02,
          3.19805779e-02, -4.38914262e-03, -2.92597473e-01,
          1.72774643e-01, 2.92597473e-01, 1.31749846e-02,
          -2.44332664e-02, 1.89746264e-02, 2.44332664e-02, 0., 0., 0.,
          0., 0., 0., 0., 0., 0., 0., 0., 0., 0., 0., 0., 0., 0., 0., 0.,
          0., 0., 0., 0., 0., 5.40723186e-03, 2.16966197e-02,
          5.98085159e-03, 2.16966197e-02, 5.72057383e-04, 9.14919470e-03,
          1.22632098e-03, 9.14919470e-03, 0., 0., 0., 0., 2.51198471e-01,
          6.66636229e-02, 2.51198471e-01, 6.66636229e-02, 4.99099642e-02,
          6.72546625e-02, 4.71806973e-01, 4.97630030e-01,
          -4.14149277e-02, -3.10402866e-02, 4.73728515e-02,
          3.83795388e-02, 0., 0., 0., 0., 1.93532482e-01,
          -6.88461214e-02, 1.93532482e-01, 1.43233076e-01,
          -1.56956315e-01, -2.57418394e-01, 2.42972761e-01,
          3.60536903e-01, 0., 0., 0., 0., 0., 0., 0., 0., 0., 0., 0., 0.,
          0., 0., 0., 0., 0., 0., 0., 0., 0., 0., 0., 0., 0., 0., 0., 0.,
          1.82049125e-02, 4.32433374e-02, 1.82049125e-02, 4.32433374e-02,
          -4.39918367e-03, 4.47340263e-03, 4.39918367e-03,
          4.47340263e-03, 0., 0., 0., 0., 3.68560195e-01, 3.41950096e-02,
          3.68560195e-01, 8.11363906e-02, -2.03568116e-01,
          -1.35499433e-01, 4.43456411e-01, 5.05779147e-01,
          -7.34254997e-03, -1.21943057e-02, 7.34254997e-03,
          1.21943057e-02, 0., 0., 0., 0., 8.50020349e-02,
          -5.65563291e-02, 8.50020349e-02, 5.65563291e-02,
          -5.89413755e-02, -1.13131948e-01, 3.08290958e-01,
          2.66940594e-01, 0., 0., 0., 0., 0., 0., 0., 0., 0., 0., 0., 0.,
          0., 0., 0., 0., 0., 0., 0., 0. ]
      - [ 0., 0., 0., 0., 0., 0., 0., 0., 0., 0., 0., 0., 0., 0., 0., 0.,
          0., 0., 0., 0., 3.13715369e-01, 4.34304588e-02, 5.69011331e-01,
          2.50737339e-01, -3.42051476e-01, 8.90972763e-02,
          3.51846516e-01, 8.96918699e-02, 7.37770647e-02, 6.87512457e-02,
          7.37770647e-02, 6.94206879e-02, 0., 0., 0., 0., 9.15867463e-02,
          -1.22864828e-01, 9.15867463e-02, 1.22864828e-01,
          1.30082339e-01, -7.12821856e-02, 3.14954668e-01,
          2.41111070e-01, 5.79377003e-02, 1.32323448e-02, 5.81613146e-02,
          4.44305837e-02, 0., 0., 0., 0., 0., 0., 0., 0., 4.49924031e-04,
          -4.49924031e-04, 4.49924031e-04, 4.49924031e-04,
          1.42735848e-02, -1.09735020e-02, 1.44161871e-02,
          1.09735020e-02, 0., 0., 0., 0., 0., 0., 0., 0., 0., 0., 0., 0.,
          0., 0., 0., 0., 0., 0., 0., 0., 7.03380778e-02, 7.03380778e-02,
          7.03380778e-02, 7.03380778e-02, -6.37284517e-02,
          2.07835734e-01, 7.37207904e-02, 2.07835734e-01, 2.97052953e-02,
          2.57498827e-02, 2.97052953e-02, 2.57498827e-02, 0., 0., 0., 0.,
          1.24468088e-01, -6.78545162e-02, 1.24468088e-01,
          6.78545162e-02, -3.68528068e-02, -1.19925730e-01,
          7.44807065e-01, 5.02669036e-01, 8.77259821e-02,
          -1.35010749e-03, 8.77259821e-02, 4.96461913e-02, 0., 0., 0.,
          0., 0., 0., 0., 0., 0., 0., 0., 0., 2.11882940e-03,
          -2.94706156e-03, 2.11882940e-03, 2.94706156e-03, 0., 0., 0.,
          0., 0., 0., 0., 0., 0., 0., 0., 0., 3.18789296e-03,
          4.26215958e-03, 3.22055002e-03, 4.33213823e-03, 0., 0., 0., 0.,
          6.49448559e-02, 5.22661246e-02, 6.49448559e-02, 5.22661246e-02,
          2.75327433e-02, 5.37949443e-01, 7.55153075e-02, 5.37949443e-01,
          6.04314953e-02, 4.84260209e-02, 7.06377178e-02, 5.68451732e-02,
          0., 0., 0., 0., 2.63843715e-01, -3.53379287e-02,
          2.63843715e-01, 3.61362211e-02, 2.99969733e-01,
          -6.11622706e-02, 3.54695499e-01, 9.34511125e-02,
          1.71259147e-04, 9.50491708e-03, 1.41760055e-02, 1.28794722e-02,
          0., 0., 0., 0., 1.07863612e-04, 3.43443127e-04, 1.07863612e-04,
          3.43443127e-04, 5.98911270e-02, -6.55935705e-02,
          6.03735186e-02, 6.59009218e-02, -4.60565835e-03,
          -8.99698399e-03, 4.60565835e-03, 8.99698399e-03, 0., 0., 0.,
          0., 0., 0., 0., 0., 0., 0., 0., 0., 0., 0., 0., 0., 0., 0., 0.,
          0., 5.89206740e-02, 1.05246417e-01, 7.49967813e-01,
          2.75703102e-01, -9.07923877e-02, 7.07972124e-02,
          1.39049560e-01, 7.07972124e-02, 5.95262051e-02, 7.90508687e-02,
          5.95262051e-02, 7.99627602e-02, 0., 0., 0., 0., 5.07420190e-02,
          -1.81544065e-01, 9.19490308e-02, 1.81544065e-01,
          2.19505787e-01, -8.24064855e-03, 3.34713221e-01,
          2.19641149e-01, 3.80114242e-02, 7.02175545e-03, 3.84836644e-02,
          1.91309378e-02, 0., 0., 0., 0., 0., 0., 0., 0., 4.92739584e-03,
          -5.06901741e-03, 4.92739584e-03, 5.06901741e-03,
          1.54903140e-02, -1.13549083e-02, 1.56390984e-02,
          1.13549083e-02, 0., 0., 0., 0., 0., 0., 0., 0., 0., 0., 0., 0.,
          0., 0., 0., 0., 0., 0., 0., 0., 9.60304141e-02, 9.39178243e-02,
          9.60304141e-02, 9.39178243e-02, -9.20452997e-02,
          1.80774316e-01, 9.20452997e-02, 1.80774316e-01, 8.48825201e-02,
          7.85058811e-02, 8.71410444e-02, 7.93290511e-02, 0., 0., 0., 0.,
          1.70767382e-01, -9.04887766e-02, 1.70767382e-01,
          9.04887766e-02, -8.53018016e-02, -1.11406133e-01,
          6.63727820e-01, 4.82243270e-01, 1.97155967e-01,
          -1.99913643e-02, 1.97297320e-01, 9.27427933e-02, 0., 0., 0.,
          0., 0., 0., 0., 0., 0., 0., 0., 0., 3.18462262e-03,
          -5.42184291e-03, 3.18721426e-03, 5.42184291e-03, 0., 0., 0.,
          0., 0., 0., 0., 0., 3.40936123e-03, 3.49610969e-02,
          2.49039307e-02, 3.49610969e-02, 5.61626512e-04, 1.33220758e-03,
          7.03918515e-04, 1.33220758e-03, -1.76112560e-04,
          6.55379263e-04, 6.55379263e-04, 6.55379263e-04, 1.99466646e-01,
          1.01076746e-02, 1.99466646e-01, 9.19908211e-02, 2.66433716e-01,
          1.63521007e-01, 4.25032943e-01, 2.56988764e-01,
          -1.38141811e-02, 4.32773679e-02, 2.91135665e-02,
          5.06430566e-02, 3.41206416e-02, 4.00747592e-03, 3.41206416e-02,
          5.42605706e-02, 6.06452413e-02, 4.94426908e-03, 2.84480512e-01,
          2.35035926e-01, 2.38258138e-01, -3.47854882e-01,
          2.43531093e-01, 4.10392940e-01, -3.17431465e-02,
          -4.75561544e-02, 4.87031862e-02, 5.07761203e-02, 0., 0., 0.,
          0., 0., 0., 0., 0., 0., 0., 0., 0., 0., 0., 0., 0., 0., 0., 0.,
          0., 0., 0., 0., 0., 1.00906449e-03, 1.18541496e-03,
          1.00906449e-03, 1.18541496e-03, 8.29331111e-03, 1.82286631e-02,
          1.47350403e-02, 1.82286631e-02, 0., 0., 0., 0., 1.36920273e-01,
          5.05890921e-02, 4.40090656e-01, 4.50841695e-01, 1.62849590e-01,
          1.74995333e-01, 5.28678775e-01, 1.75398320e-01, 2.87782513e-02,
          2.19862964e-02, 4.02710661e-02, 2.43243296e-02, 0., 0., 0., 0.,
          7.28969499e-02, -1.07924514e-01, 7.28969499e-02,
          1.07924514e-01, 8.11894163e-02, -2.13157833e-01,
          2.29749218e-01, 2.13157833e-01, 4.02868539e-02,
          -1.05246745e-01, 4.36293334e-02, 1.05310962e-01, 0., 0., 0.,
          0., 0., 0., 0., 0., 0., 0., 0., 0., 0., 0., 0., 0., 0., 0., 0.,
          0., 0., 0., 0., 0., 5.54983621e-04, 5.54983621e-04,
          5.54983621e-04, 5.54983621e-04, 5.84865268e-03, 1.53334802e-02,
          1.17181158e-02, 1.53334802e-02, 0., 0., 0., 0., 2.76436154e-02,
          1.91283211e-01, 3.85722101e-01, 4.23154831e-01, 2.56674618e-01,
          1.82316288e-01, 4.07161027e-01, 2.37804607e-01, 1.74721815e-02,
          2.23704129e-02, 3.40312049e-02, 2.47848742e-02, 0., 0., 0., 0.,
          8.97951946e-02, -2.19809651e-01, 8.97951946e-02,
          2.19809651e-01, 9.22975913e-02, -2.09870130e-01,
          2.87954390e-01, 2.09870130e-01, 3.05164233e-02,
          -8.80475119e-02, 3.49204056e-02, 8.91185477e-02, 0., 0., 0.,
          0., 0., 0., 0., 0., 0., 0., 0., 0., 0., 0., 0., 0., 0., 0., 0.,
          0., 0., 0., 0., 0., 0., 0., 0., 0., 1.26252207e-03,
          3.97606241e-03, 3.39671923e-03, 3.97606241e-03, 0., 0., 0., 0.,
          1.00037172e-01, 1.00037172e-01, 1.00037172e-01, 1.00037172e-01,
          9.45428014e-02, 2.32638702e-01, 2.85227776e-01, 2.33979642e-01,
          1.42326578e-01, 7.11167976e-02, 1.73565358e-01, 7.44906217e-02,
          0., 0., 0., 0., 1.31178603e-01, -9.86083597e-02,
          1.31178603e-01, 9.86083597e-02, 1.87004693e-02,
          -2.07391232e-01, 5.11606097e-01, 5.40469706e-01,
          8.07118416e-02, -1.33131593e-01, 8.14421251e-02,
          1.33542240e-01, 0., 0., 0., 0., 0., 0., 0., 0., 0., 0., 0., 0.,
          0., 0., 0., 0., 0., 0., 0., 0., 0., 0., 0., 0., 0., 0., 0., 0.,
          1.50868218e-05, 4.85468372e-05, 4.85468372e-05, 4.85468372e-05,
          0., 0., 0., 0., 1.61318123e-01, 8.09990466e-02, 3.55161071e-01,
          2.66185015e-01, 9.51095447e-02, 2.30520263e-01, 4.58087146e-01,
          2.30520263e-01, 1.28450533e-02, 7.90782124e-02, 7.50438869e-02,
          8.06892440e-02, 0., 0., 0., 0., 9.27919745e-02,
          -1.10144839e-01, 9.27919745e-02, 1.10144839e-01,
          2.32066527e-01, -2.19183221e-01, 4.19172972e-01,
          3.05542231e-01, 2.50293948e-02, -7.44784102e-02,
          4.76892255e-02, 7.61658400e-02, 0., 0., 0., 0., 0., 0., 0., 0.,
          0., 0., 0., 0., 4.05887171e-04, -2.95511476e-04,
          4.05887171e-04, 2.95511476e-04, 0., 0., 0., 0., 0., 0., 0., 0.,
          0., 0., 0., 0., 6.66045707e-06, 1.07153028e-05, 6.66045707e-06,
          1.07153028e-05, 0., 0., 0., 0., 6.32468909e-02, 2.88520698e-02,
          6.32468909e-02, 3.06798797e-02, 2.57934332e-01, 3.04329455e-01,
          4.56739277e-01, 3.20865780e-01, -2.12136234e-04,
          4.07783538e-02, 3.50921303e-02, 4.38391007e-02, 2.91405269e-03,
          2.74485414e-04, 2.91405269e-03, 2.72221258e-03, 1.50729027e-02,
          2.29339860e-03, 2.02857524e-01, 2.27556527e-01, 2.97092795e-01,
          -3.28529567e-01, 3.08844149e-01, 3.47151577e-01,
          -4.16562743e-02, -4.38662544e-02, 5.72624356e-02,
          4.97416221e-02, 0., 0., 0., 0., 0., 0., 0., 0., 0., 0., 0., 0.,
          0., 0., 0., 0., 0., 0., 0., 0., 3.29151051e-04,
          -3.00685409e-04, 2.39606667e-02, 2.62857340e-02,
          -1.28586288e-03, 2.04482041e-02, 1.12670148e-02,
          2.04874240e-02, 0., 0., 0., 0., 0., 0., 0., 0., 4.17226940e-01,
          1.57941896e-02, 4.35408443e-01, 1.99320406e-01,
          -3.14219415e-01, 2.05624271e-02, 3.86828631e-01,
          3.34170759e-01, 0., 0., 0., 0., 0., 0., 0., 0., 2.07871810e-01,
          -2.90516540e-02, 2.26481155e-01, 1.97210833e-01,
          -1.08773008e-01, -8.96162167e-02, 2.12935776e-01,
          1.73211396e-01, 0., 0., 0., 0., 1.83086813e-04, 6.43799358e-05,
          1.83086813e-04, 1.83086813e-04, 1.76468119e-02, 1.01005957e-02,
          2.47570332e-02, 1.93539001e-02, -2.36884616e-02,
          -1.22297211e-02, 3.38473842e-02, 3.10465433e-02, 0., 0., 0.,
          0., 0., 0., 0., 0., 0., 0., 0., 0., 5.05627868e-05,
          6.74665847e-04, 4.40432137e-04, 6.74665847e-04, 0., 0., 0., 0.,
          0., 0., 0., 0., 1.26292750e-01, 1.33529052e-01, 2.10246831e-01,
          1.33529052e-01, 1.96026355e-01, 2.68774360e-01, 4.52424198e-01,
          2.97592103e-01, -1.02282483e-02, 1.62378214e-02,
          3.06157246e-02, 3.99688110e-02, 0., 0., 0., 0., 3.24454382e-02,
          -1.39386475e-01, 1.47007450e-01, 1.39386475e-01,
          9.88438278e-02, -4.32029009e-01, 2.23724917e-01,
          4.32029009e-01, 1.95795558e-02, -2.75816061e-02,
          2.65014917e-02, 2.96467040e-02, 0., 0., 0., 0., 0., 0., 0., 0.,
          0., 0., 0., 0., 1.23607651e-05, -1.23607651e-05,
          1.23607651e-05, 1.23607651e-05, 0., 0., 0., 0., 0., 0., 0., 0.,
          1.02432241e-04, 1.02432241e-04, 1.02432241e-04, 1.02432241e-04,
          -6.47196357e-05, 6.47196357e-05, 6.47196357e-05,
          6.47196357e-05, 0., 0., 0., 0., 7.93476850e-02, 7.93476850e-02,
          7.93476850e-02, 7.93476850e-02, 3.38497341e-01, 2.67691404e-01,
          4.87910360e-01, 2.67691404e-01, -2.74801999e-02,
          7.50096589e-02, 4.41336036e-02, 8.45140889e-02, 0., 0., 0., 0.,
          8.51835832e-02, -7.90799186e-02, 8.51835832e-02,
          7.90799186e-02, 7.60203078e-02, -2.95309395e-01,
          4.09096628e-01, 3.74471992e-01, 1.46336518e-02,
          -1.30887538e-01, 3.62822562e-02, 1.30887538e-01, 0., 0., 0.,
          0., 0., 0., 0., 0., 0., 0., 0., 0., 0., 0., 0., 0., 0., 0., 0.,
          0., 3.26766558e-02, 5.29469131e-03, 3.26766558e-02,
          5.54895308e-03, -4.11845418e-03, 1.06733702e-02,
          2.03302130e-02, 1.65587850e-02, -4.63086367e-03,
          -1.82877562e-03, 4.64428170e-03, 1.82877562e-03, 0., 0., 0.,
          0., 1.40533060e-01, 1.00267539e-02, 1.40533060e-01,
          6.29220754e-02, 1.52462289e-01, 1.73337057e-01, 5.49561799e-01,
          2.66008794e-01, -1.13860471e-02, -1.47348735e-03,
          1.13860471e-02, 3.98514140e-03, 0., 0., 0., 0., 3.81225646e-02,
          -3.81225646e-02, 3.81225646e-02, 3.81225646e-02,
          4.87626866e-02, -4.55144316e-01, 2.15310678e-01,
          5.15052378e-01, -3.95447155e-03, 6.59764773e-05,
          3.95447155e-03, 3.95447155e-03, 0., 0., 0., 0., 0., 0., 0., 0.,
          0., 0., 0., 0., 0., 0., 0., 0., 0., 0., 0., 0., 0., 0., 0., 0.,
          0., 0., 0., 0., 0., 0., 0., 0., 0., 0., 0., 0., 4.31700498e-02,
          1.36912419e-02, 2.34676182e-01, 1.59815893e-01,
          -2.08032727e-02, 3.67888123e-01, 7.84946382e-02,
          3.83220285e-01, 0., 0., 0., 0., 0., 0., 0., 0., 4.18926656e-01,
          1.46138377e-03, 4.18926656e-01, 8.77688751e-02,
          -1.83455124e-01, -3.74202989e-02, 3.78342211e-01,
          2.99196988e-01, -6.74597220e-03, 3.58276465e-03,
          6.74597220e-03, 3.58276465e-03, 0., 0., 0., 0., 2.35499498e-02,
          5.55504160e-03, 2.35499498e-02, 7.34929089e-03, 7.83820637e-03,
          -5.25922049e-03, 2.12837998e-02, 1.33659970e-02,
          -6.57729711e-03, -4.59335832e-04, 6.57729711e-03,
          8.16229731e-04, 0., 0., 0., 0., 1.25657618e-02, 5.61963068e-03,
          1.25657618e-02, 5.61963068e-03, 1.60231516e-02, 1.05560916e-02,
          3.07561588e-02, 2.29326934e-02, -5.30122826e-03,
          -2.24886392e-03, 5.30122826e-03, 3.20228701e-03, 0., 0., 0.,
          0., 1.75542116e-01, 2.70762648e-02, 1.75542116e-01,
          8.18772912e-02, 3.22154425e-02, 1.88459277e-01, 5.39845169e-01,
          2.99076498e-01, -1.15539522e-04, -1.15539522e-04,
          1.15539522e-04, 1.15539522e-04, 0., 0., 0., 0., 5.44031672e-02,
          -5.21082692e-02, 5.44031672e-02, 5.21082692e-02,
          1.64114423e-02, -4.19960946e-01, 2.57157207e-01,
          5.07042229e-01, 0., 0., 0., 0., 0., 0., 0., 0., 0., 0., 0., 0.,
          0., 0., 0., 0., 0., 0., 0., 0., 0., 0., 0., 0., 3.04625258e-02,
          1.73467193e-02, 3.04625258e-02, 1.73467193e-02,
          -1.70570612e-02, -2.37121619e-03, 3.60171795e-02,
          2.24747434e-02, 0., 0., 0., 0., 0., 0., 0., 0., 2.71663368e-01,
          -5.42191714e-02, 3.07943642e-01, 1.06210694e-01,
          -1.96151167e-01, 1.94451049e-01, 3.47108334e-01,
          2.60136783e-01, 0., 0., 0., 0., 0., 0., 0., 0., 2.77638078e-01,
          -3.33854817e-02, 2.77638078e-01, 1.45801127e-01,
          -1.84309900e-01, -2.87875324e-01, 3.14875990e-01,
          3.94436687e-01, 0., 0., 0., 0., 0., 0., 0., 0., 0., 0., 0., 0.,
          5.16458589e-04, -3.77317145e-03, 3.77317145e-03,
          3.77317145e-03, 0., 0., 0., 0., 0., 0., 0., 0., 0., 0., 0., 0.,
          0., 0., 0., 0., 0., 0., 0., 0., 0., 0., 0., 0., 4.60869335e-02,
          4.60869335e-02, 4.60869335e-02, 4.60869335e-02, 1.28668010e-01,
          3.93696368e-01, 4.13611770e-01, 3.93696368e-01,
          -3.98550322e-03, 5.90179414e-02, 2.01816782e-02,
          5.90179414e-02, 0., 0., 0., 0., 5.40987812e-02,
          -4.57193404e-02, 5.40987812e-02, 4.57193404e-02,
          1.78002432e-01, -3.88556898e-01, 3.68019998e-01,
          3.88556898e-01, 5.98241016e-03, -4.46259230e-02,
          5.00212833e-02, 5.33936024e-02, 0., 0., 0., 0., 0., 0., 0., 0.,
          0., 0., 0., 0., 7.87078461e-05, -2.07564459e-04,
          1.47495011e-04, 2.07564459e-04, 0., 0., 0., 0., 0., 0., 0., 0.,
          0., 0., 0., 0., 0., 0., 0., 0., 0., 0., 0., 0., 4.43062596e-02,
          4.01667468e-02, 1.35406315e-01, 8.13452229e-02,
          -2.71723140e-02, 3.67476523e-01, 1.45690933e-01,
          3.67476523e-01, 0., 0., 0., 0., 0., 0., 0., 0., 2.04638496e-01,
          -3.78478132e-02, 2.04638496e-01, 6.84731454e-02,
          -6.11424409e-02, -1.37785271e-01, 6.92268252e-01,
          2.83163339e-01, 0., 0., 0., 0., 0., 0., 0., 0., 6.27771253e-03,
          3.73905023e-05, 6.27771253e-03, 3.67737608e-03, 6.12091832e-03,
          -1.46127073e-02, 7.61482790e-02, 3.56760882e-02, 0., 0., 0.,
          0. ]
      - [ 0., 0., 0., 0., 6.74083680e-02, -4.02875070e-04,
          6.74083680e-02, 1.27893426e-02, -4.08670492e-02,
          7.37695955e-03, 6.32226914e-02, 2.88203675e-02, 4.68548294e-03,
          1.16124377e-03, 4.90691001e-03, 1.35745981e-03, 0., 0., 0., 0.,
          4.67869550e-01, 1.92666531e-03, 4.67869550e-01, 5.67645282e-02,
          -9.08134654e-02, 1.24197930e-01, 2.15624854e-01,
          1.53511837e-01, 2.29771552e-03, 3.00448425e-02, 1.75216310e-02,
          3.40556614e-02, 0., 0., 0., 0., 1.24382295e-01,
          -6.91489736e-03, 1.34724453e-01, 1.28062010e-01,
          2.79526651e-01, -1.29027367e-01, 5.00193000e-01,
          1.82422444e-01, 6.20427867e-03, -2.82825693e-03,
          1.05162691e-02, 4.86747967e-03, 1.61364980e-04, 9.57647571e-05,
          1.61364980e-04, 9.57647571e-05, 3.61248627e-02, 6.11175112e-02,
          8.36366042e-02, 7.85872936e-02, -1.09146042e-02,
          -2.43314798e-03, 1.10343304e-02, 6.79439679e-03,
          4.35660360e-04, -6.70607551e-04, 6.37100835e-04,
          6.97127427e-04, 0., 0., 0., 0., 3.98631720e-03, 3.50535382e-03,
          3.98631720e-03, 3.50535382e-03, 2.75438204e-02, 2.99437847e-02,
          8.85327831e-02, 3.10392361e-02, 6.62695966e-04, 9.44504514e-04,
          1.71005994e-03, 1.30844582e-03, 0., 0., 0., 0., 1.35997847e-01,
          2.27892678e-02, 1.35997847e-01, 4.82898876e-02, 1.97227418e-01,
          9.31730419e-02, 5.25491536e-01, 1.73999950e-01,
          -4.05492168e-03, 3.97554450e-02, 2.82552764e-02,
          4.57994267e-02, 0., 0., 0., 0., 7.79700577e-02,
          -3.26234065e-02, 7.79700577e-02, 3.71907465e-02,
          3.36856246e-01, -8.21798518e-02, 6.35342300e-01,
          1.98504418e-01, 4.69551142e-03, 5.23366639e-03, 8.54102150e-03,
          7.48292962e-03, 1.08595508e-04, 7.77233872e-05, 1.08595508e-04,
          7.77233872e-05, 2.56766733e-02, 5.79980910e-02, 5.59403449e-02,
          6.36624619e-02, 1.41931782e-02, 3.61940335e-03, 3.72254066e-02,
          1.62474569e-02, 8.68793402e-04, -1.17003196e-03,
          1.24493276e-03, 1.17484026e-03, 3.14636360e-04,
          -3.59479920e-04, 3.56073491e-04, 3.59479920e-04,
          4.51253764e-02, -4.54824455e-02, 6.68197125e-02,
          7.79168829e-02, -9.62871220e-03, -7.03715050e-05,
          1.60570815e-02, 6.40915660e-03, -8.55311519e-04,
          -8.16208136e-04, 1.66740129e-03, 1.36194611e-03, 0., 0., 0.,
          0., 3.15073133e-01, -7.66277015e-02, 3.17033559e-01,
          1.68328315e-01, 9.26689878e-02, 1.90609731e-02, 3.09859782e-01,
          1.00299940e-01, 2.75000581e-04, -7.18691247e-03,
          2.39869882e-03, 7.24590430e-03, 0., 0., 0., 0., 3.67433816e-01,
          1.49786517e-01, 4.85826880e-01, 4.46640462e-01,
          -4.03729901e-02, -3.94491069e-02, 1.43599525e-01,
          1.11853242e-01, 9.43302759e-04, 3.98654910e-03, 7.86935911e-03,
          5.95735665e-03, 0., 0., 0., 0., 5.16442843e-02,
          -2.01647580e-02, 5.16442843e-02, 2.01647580e-02,
          2.76614586e-03, -1.51186273e-03, 1.35787502e-02,
          9.49499663e-03, 3.85702326e-04, -7.50336447e-04,
          3.35215218e-03, 1.99960661e-03, 0., 0., 0., 0., 4.17417586e-02,
          -2.42963452e-02, 4.17417586e-02, 2.57124808e-02,
          2.02090610e-02, -4.46394123e-02, 5.59815615e-02,
          5.96256033e-02, 7.68350554e-04, -8.09489051e-04,
          1.21269131e-03, 9.68181412e-04, 0., 0., 0., 0., 4.99755889e-02,
          1.39732033e-01, 4.99755889e-02, 1.39732033e-01, 3.36472929e-01,
          9.65585560e-02, 5.28826654e-01, 2.06638753e-01,
          -4.86335671e-03, -3.71513865e-03, 5.91719570e-03,
          3.71513865e-03, 0., 0., 0., 0., 4.18353647e-01,
          -7.44389594e-02, 4.18353647e-01, 1.28710285e-01,
          -2.03871056e-02, 2.81006284e-02, 1.55779183e-01,
          3.08222413e-01, -4.89897793e-03, 8.84075300e-04,
          9.03198589e-03, 5.22769615e-03, 0., 0., 0., 0., 1.98122114e-02,
          -6.63150521e-03, 1.98122114e-02, 6.63150521e-03,
          3.74158956e-02, -1.20106833e-02, 4.07236330e-02,
          1.72215924e-02, -1.46832678e-03, -1.49307787e-04,
          3.53371701e-03, 1.61461637e-03, 0., 0., 0., 0., 4.12958041e-02,
          1.02253156e-02, 4.12958041e-02, 1.02253156e-02,
          -1.93825923e-02, 2.68562436e-02, 6.03760518e-02,
          3.39191146e-02, 6.03525760e-03, 4.89308918e-03, 6.75687939e-03,
          5.11479937e-03, 0., 0., 0., 0., 4.23880577e-01, 2.33829301e-03,
          4.23880577e-01, 5.98534606e-02, -5.57868145e-02,
          1.38546407e-01, 2.97165364e-01, 1.88810989e-01, 2.30861530e-02,
          2.99370755e-02, 3.47958580e-02, 3.80775370e-02, 0., 0., 0., 0.,
          2.11497039e-01, 1.35428846e-01, 2.77605176e-01, 2.46563479e-01,
          2.20044836e-01, -1.00289583e-01, 4.32076186e-01,
          1.60932094e-01, -3.03357665e-04, -4.05480014e-03,
          1.40953483e-02, 5.38297882e-03, 9.19737286e-05, 6.55135082e-05,
          9.19737286e-05, 6.55135082e-05, 3.23864371e-02, 2.98639806e-03,
          5.19177876e-02, 2.87627019e-02, -8.33926257e-03,
          -4.71897982e-03, 1.07845170e-02, 5.78334741e-03,
          2.84064387e-04, -3.48527334e-04, 5.57780906e-04,
          5.67008217e-04, 0., 0., 0., 0., 1.82011612e-02, 8.06481484e-03,
          1.82011612e-02, 8.06481484e-03, 1.60556240e-03, 4.31273617e-02,
          7.56935477e-02, 4.32547741e-02, 2.69566663e-03, 5.25548682e-03,
          3.40425805e-03, 5.25548682e-03, 0., 0., 0., 0., 3.54420632e-01,
          1.76657178e-02, 3.54420632e-01, 7.15847984e-02,
          -2.72489488e-02, 1.48161322e-01, 4.01969165e-01,
          2.25651801e-01, 3.20770293e-02, 3.39044854e-02, 4.43097614e-02,
          3.66902724e-02, 0., 0., 0., 0., 2.19039202e-01, 5.01634218e-02,
          2.45653704e-01, 1.56346887e-01, 2.38982141e-01,
          -8.66964683e-02, 5.09523869e-01, 1.44723952e-01,
          4.70012164e-04, 1.53354311e-03, 1.25700841e-02, 8.96279700e-03,
          2.66571678e-05, 2.66571678e-05, 2.66571678e-05, 2.66571678e-05,
          3.88377830e-02, 4.19932231e-02, 6.87876195e-02, 5.74392229e-02,
          -9.90925916e-03, -5.92448888e-03, 1.15962047e-02,
          6.27849484e-03, 2.36686363e-04, -6.87109539e-04,
          6.98599149e-04, 8.04244657e-04, 3.55007732e-03,
          -5.89240855e-03, 5.95278759e-03, 1.11922426e-02,
          3.18932463e-03, 1.53178852e-02, 1.50198983e-02, 1.87688321e-02,
          -3.40351649e-03, -7.61011429e-03, 7.97577947e-03,
          1.20504471e-02, -1.55253056e-05, -2.62233196e-04,
          3.73614341e-04, 4.86403384e-04, 1.74451750e-02,
          -1.57683212e-02, 1.76323354e-02, 1.57683212e-02,
          3.20039093e-01, -3.21918696e-01, 3.86839420e-01,
          4.20571923e-01, -4.25470918e-02, 4.51169498e-02,
          8.94491971e-02, 8.35284963e-02, 3.01883160e-03, 1.65503484e-03,
          9.28097125e-03, 7.20400643e-03, 0., 0., 0., 0., 3.27981740e-01,
          -4.26086364e-03, 3.27981740e-01, 3.24018031e-01,
          7.64122158e-02, -1.21894576e-01, 2.44306549e-01,
          1.94930851e-01, -1.47219421e-03, 1.36574125e-03,
          1.68291442e-02, 1.72632784e-02, 0., 0., 0., 0., 0., 0., 0., 0.,
          3.71518433e-02, -4.52088416e-02, 3.71518433e-02,
          4.52088416e-02, 1.11138041e-03, -4.08143317e-03,
          2.32281489e-03, 5.88398427e-03, 0., 0., 0., 0., 8.00397024e-02,
          -4.02283184e-02, 8.13701376e-02, 4.30517271e-02,
          -1.43104726e-02, 1.61162185e-04, 2.43880209e-02,
          3.10277473e-02, 2.08896541e-04, -4.57646325e-04,
          2.23795441e-03, 1.24894443e-03, 0., 0., 0., 0., 7.07321241e-02,
          7.12845474e-02, 7.07321241e-02, 1.14974260e-01, 3.65048707e-01,
          1.13861822e-02, 5.38251638e-01, 2.46612892e-01,
          -1.38421776e-03, -8.47267639e-03, 5.48825087e-03,
          8.54343176e-03, 0., 0., 0., 0., 3.90021682e-01,
          -5.50158098e-02, 3.90021682e-01, 1.31653130e-01,
          4.71997932e-02, 3.01413843e-03, 2.02261433e-01, 3.04562479e-01,
          8.52529425e-04, 3.33474623e-03, 1.29749980e-02, 9.02123842e-03,
          0., 0., 0., 0., 2.34931242e-03, -2.34931242e-03,
          2.34931242e-03, 2.34931242e-03, 5.78827448e-02,
          -2.22746786e-02, 6.32297918e-02, 2.58931983e-02,
          -8.19675683e-04, 1.94808366e-04, 3.99239687e-03,
          3.45018692e-03, 0., 0., 0., 0., 2.25106645e-02, 8.35299958e-03,
          2.25106645e-02, 8.35299958e-03, -1.08300447e-02,
          4.38689142e-02, 5.82043789e-02, 4.38689142e-02, 3.45007610e-03,
          1.06587801e-02, 5.38863195e-03, 1.06587801e-02, 0., 0., 0., 0.,
          3.86170864e-01, 5.13630267e-03, 3.86170864e-01, 7.21789226e-02,
          -5.60857616e-02, 1.77462846e-01, 3.40313345e-01,
          2.32989013e-01, 4.23791409e-02, 1.58945415e-02, 5.21536395e-02,
          2.10096538e-02, 0., 0., 0., 0., 2.11900726e-01, 1.61300287e-01,
          2.56586015e-01, 2.62719631e-01, 2.23952502e-01,
          -8.57867524e-02, 4.30159539e-01, 1.56007469e-01,
          -1.02571156e-02, -4.27450147e-03, 1.36964293e-02,
          6.16366742e-03, 0., 0., 0., 0., 3.86049636e-02,
          -1.48635451e-02, 4.63819429e-02, 2.54185777e-02,
          -5.82650909e-03, -5.81671298e-03, 1.02969697e-02,
          9.32444260e-03, 3.18664854e-04, -3.94497911e-04,
          6.17017271e-04, 6.68665976e-04, 0., 0., 0., 0., 4.89091240e-02,
          1.65216438e-02, 4.89829741e-02, 1.65216438e-02,
          -3.17932405e-02, 2.78557744e-02, 5.64484037e-02,
          2.78557744e-02, 9.87140462e-04, 9.00248159e-03, 4.72282991e-03,
          1.00363763e-02, 0., 0., 0., 0., 5.07636726e-01,
          -6.02594316e-02, 5.07636726e-01, 1.32057399e-01,
          -1.48072913e-01, 1.20548606e-01, 2.42491588e-01,
          2.17205733e-01, -3.22589395e-03, 2.26863520e-03,
          1.14679141e-02, 8.68159160e-03, 0., 0., 0., 0., 3.06881130e-01,
          1.68722361e-01, 3.09151888e-01, 2.12922364e-01, 6.47524819e-02,
          -5.13105765e-02, 1.68759957e-01, 8.64286274e-02,
          -9.10287257e-03, -4.13144007e-03, 1.18765188e-02,
          6.06103335e-03, 0., 0., 0., 0., 3.43038477e-02,
          -5.25969081e-03, 3.76728214e-02, 1.35822846e-02,
          -3.36914090e-03, -1.91625406e-03, 9.67862550e-03,
          7.86219444e-03, -8.84911569e-05, -2.12620522e-04,
          9.98561154e-04, 7.22055556e-04, 2.06235825e-04,
          -1.43914978e-04, 2.06235825e-04, 1.43914978e-04,
          4.41431515e-02, 7.53663015e-03, 7.89799467e-02, 5.49765527e-02,
          3.17850220e-03, 1.09676244e-02, 2.25829631e-02, 2.07884982e-02,
          -7.75741879e-04, 2.24483621e-04, 1.80716382e-03,
          9.24860127e-04, 0., 0., 0., 0., 2.76074260e-01,
          -8.18194672e-02, 2.76074260e-01, 3.23771954e-01,
          1.95002347e-01, -7.79747358e-03, 4.36682105e-01,
          1.21784858e-01, 3.47720459e-04, -3.91407218e-03,
          8.24161805e-03, 8.04397184e-03, 0., 0., 0., 0., 4.01578277e-01,
          -8.23756084e-02, 4.01578277e-01, 2.44585574e-01,
          4.94841039e-02, -6.72693104e-02, 1.93578765e-01,
          1.84657469e-01, 1.05164852e-02, 1.97102316e-03, 3.34994234e-02,
          2.07699314e-02, 0., 0., 0., 0., 6.47273031e-04,
          -6.47273031e-04, 6.47273031e-04, 6.47273031e-04,
          5.98352477e-02, -3.45247090e-02, 6.29633963e-02,
          4.19575572e-02, -2.04804540e-03, -1.74213236e-03,
          6.49878103e-03, 6.58425968e-03, 0., 0., 0., 0., 5.42452447e-02,
          -1.27220368e-02, 7.33014569e-02, 4.28388491e-02,
          3.78176034e-03, 4.10392806e-02, 4.66218069e-02, 4.60846089e-02,
          -2.90281046e-03, 1.85835548e-03, 3.55168781e-03,
          3.52806342e-03, 0., 0., 0., 0., 2.35243395e-01,
          -3.80016640e-02, 2.35243395e-01, 2.28180051e-01,
          2.68330008e-01, -2.72025391e-02, 4.89974588e-01,
          2.06223547e-01, -8.61848763e-04, -4.83552227e-03,
          1.19378688e-02, 6.73839636e-03, 0., 0., 0., 0., 4.09816742e-01,
          -5.06552085e-02, 4.09816742e-01, 1.51303083e-01,
          8.37571919e-02, -5.20994477e-02, 2.27090225e-01,
          1.70960784e-01, -8.99485964e-03, 2.87785544e-03,
          3.00271902e-02, 1.54571841e-02, 0., 0., 0., 0., 2.33823038e-03,
          -2.33823038e-03, 2.33823038e-03, 2.33823038e-03,
          5.42942137e-02, -3.76251563e-02, 6.51148856e-02,
          4.46567871e-02, -2.52009742e-03, -7.52851041e-03,
          6.75851386e-03, 8.11126735e-03, 0., 0., 0., 0., 7.57455528e-02,
          -2.27769818e-02, 8.07907283e-02, 3.54995318e-02,
          -7.26396963e-03, 4.71791029e-02, 4.57407869e-02,
          5.12292348e-02, -2.32045189e-03, 1.10417686e-03,
          2.72863870e-03, 2.21769139e-03, 0., 0., 0., 0., 1.67826936e-01,
          1.46201504e-02, 1.67826936e-01, 1.21538177e-01, 3.53319913e-01,
          4.44394071e-03, 5.25285184e-01, 3.48516971e-01,
          -3.02245072e-03, -7.85244443e-03, 9.87713877e-03,
          9.12981946e-03, 0., 0., 0., 0., 2.08141237e-01,
          -5.93442395e-02, 2.08141237e-01, 5.93442395e-02,
          2.93596119e-01, -1.17222793e-01, 3.93880546e-01,
          1.60149664e-01, 3.55710485e-03, 4.08814289e-03, 2.68170834e-02,
          1.76093131e-02, 0., 0., 0., 0., 0., 0., 0., 0., 5.62198088e-02,
          -3.61341089e-02, 5.75392731e-02, 4.03200127e-02,
          -4.16657189e-03, -6.48185611e-03, 1.13047129e-02,
          7.92820100e-03, 0., 0., 0., 0., 0., 0., 0., 0., 5.50085753e-02,
          2.63697784e-02, 6.07689470e-02, 3.28781344e-02,
          -2.47283897e-04, 8.52024474e-04, 1.65030186e-03,
          1.85278908e-03, 0., 0., 0., 0., 1.04751222e-01, 4.83899303e-02,
          1.04751222e-01, 4.83899303e-02, 3.80878896e-01, 1.40599042e-01,
          4.09255296e-01, 1.68819085e-01, -1.25697767e-03,
          1.19370606e-03, 1.32511966e-02, 1.47845997e-02, 0., 0., 0., 0.,
          5.38096540e-02, -5.13017625e-02, 5.38096540e-02,
          5.13017625e-02, 2.09361479e-01, -3.79171938e-01,
          4.60454345e-01, 4.24621850e-01, 4.21737358e-02,
          -1.66139156e-02, 8.93021598e-02, 4.55566607e-02, 0., 0., 0.,
          0., 0., 0., 0., 0., 9.10554081e-03, -7.33785983e-03,
          9.10554081e-03, 7.33785983e-03, -2.25880882e-03,
          -1.13455942e-02, 4.90916939e-03, 1.13455942e-02, 0., 0., 0.,
          0., 5.82653247e-02, 8.88227951e-04, 5.82653247e-02,
          2.73433048e-02, -9.06578731e-03, 5.71649373e-02,
          8.89995918e-02, 6.57093823e-02, -8.98119062e-03,
          5.96373295e-03, 8.98119062e-03, 5.96373295e-03, 0., 0., 0., 0.,
          2.48562679e-01, -1.32787347e-04, 2.48562679e-01,
          1.65318280e-01, 2.59839803e-01, -1.66077390e-02,
          4.52335417e-01, 2.25365609e-01, -1.66593660e-02,
          3.23258201e-03, 3.10874283e-02, 1.47007704e-02, 0., 0., 0., 0.,
          4.60868418e-01, 2.69002514e-03, 4.60868418e-01, 1.49345234e-01,
          6.82137534e-03, 1.88954931e-03, 1.52797595e-01, 1.37213707e-01,
          -1.93515997e-02, -5.60388016e-03, 2.66605057e-02,
          1.47321960e-02, 0., 0., 0., 0., 3.95782031e-02,
          -7.95663148e-03, 3.95782031e-02, 1.12505453e-02,
          9.41230636e-03, -4.79606614e-02, 3.18834372e-02,
          5.83696775e-02, -5.01090568e-03, -1.00069474e-02,
          7.34895235e-03, 1.00069474e-02, 0., 0., 0., 0., 5.31609692e-02,
          -6.20029913e-03, 5.31609692e-02, 1.65540576e-02,
          -5.44658047e-04, 5.16238101e-02, 8.13390911e-02,
          8.16674903e-02, -5.57852304e-03, 5.23656653e-03,
          6.01342926e-03, 5.52846026e-03, 0., 0., 0., 0., 9.15621370e-02,
          4.63782698e-02, 9.15621370e-02, 7.56738335e-02, 4.25397992e-01,
          4.48918641e-02, 5.55800021e-01, 3.37654442e-01,
          -1.44224791e-02, -2.34763860e-03, 2.13776305e-02,
          1.04743894e-02, 0., 0., 0., 0., 3.34653497e-01,
          -2.75993422e-02, 3.34653497e-01, 2.75993422e-02,
          1.52091548e-01, -5.20909056e-02, 2.72072226e-01,
          9.24176946e-02, -7.50790397e-03, -2.36161426e-03,
          2.98758149e-02, 1.62730068e-02, 0., 0., 0., 0., 1.07706888e-02,
          -4.74747689e-03, 1.07706888e-02, 4.74747689e-03,
          4.17582132e-02, -5.19869439e-02, 5.93075454e-02,
          5.28763197e-02, -9.18003637e-03, -1.16328746e-02,
          1.00577381e-02, 1.16328746e-02, 0., 0., 0., 0., 3.85470353e-02,
          2.19390672e-02, 3.85470353e-02, 2.19390672e-02,
          -5.52320760e-03, 5.88538870e-02, 7.20319301e-02,
          6.72094524e-02, -8.99684802e-03, 4.81416844e-03,
          8.99684802e-03, 4.81416844e-03, 0., 0., 0., 0., 2.58856863e-01,
          -3.51375416e-02, 2.58856863e-01, 1.28194228e-01,
          2.45384991e-01, 3.21988836e-02, 4.53420937e-01, 2.60805815e-01,
          -5.24362735e-02, 1.53055070e-02, 6.08942583e-02,
          3.21847685e-02, 0., 0., 0., 0., 4.41908836e-01, 1.54239153e-02,
          4.41908836e-01, 1.11981899e-01, 3.73661853e-02,
          -1.14244763e-02, 1.99094236e-01, 1.42530918e-01,
          -5.21337725e-02, -1.53587619e-02, 5.93764037e-02,
          3.06918509e-02, 0., 0., 0., 0., 1.29345376e-02,
          -1.29345376e-02, 1.29345376e-02, 1.29345376e-02,
          1.24868983e-02, -8.08242857e-02, 4.28378247e-02,
          8.28386396e-02, -2.29275506e-03, -5.71220508e-03,
          3.83571186e-03, 5.71220508e-03, 0., 0., 0., 0., 3.07713579e-02,
          7.13218376e-03, 3.07713579e-02, 7.13218376e-03, 6.80475496e-03,
          4.88469414e-02, 7.79575333e-02, 5.71477115e-02,
          -8.79686326e-03, 7.18090311e-03, 8.79686326e-03,
          7.18090311e-03, 0., 0., 0., 0., 6.92085698e-02, 1.52574219e-02,
          6.92085698e-02, 5.81990965e-02, 4.10523355e-01, 5.57200499e-02,
          5.68511665e-01, 3.93170804e-01, -3.03595476e-02,
          5.57304127e-03, 3.87947857e-02, 1.80879757e-02, 0., 0., 0., 0.,
          1.60414129e-01, -2.57054418e-02, 1.60414129e-01,
          2.57054418e-02, 3.03501248e-01, -5.85247539e-02,
          3.84968191e-01, 8.16189498e-02, -3.28380801e-02,
          -1.75262876e-02, 4.41658609e-02, 3.29688899e-02, 0., 0., 0.,
          0., 6.38896541e-04, -6.38896541e-04, 6.38896541e-04,
          6.38896541e-04, 1.97279360e-02, -7.41283819e-02,
          3.89354303e-02, 7.41283819e-02, -1.85718341e-03,
          -4.90377331e-03, 2.19907262e-03, 4.90377331e-03, 0., 0., 0.,
          0., 8.51102639e-03, 8.51102639e-03, 8.51102639e-03,
          8.51102639e-03, 3.65402573e-03, 7.25596771e-02, 3.23601365e-02,
          7.25596771e-02, -2.55957874e-03, 2.55957874e-03,
          2.55957874e-03, 2.55957874e-03, 0., 0., 0., 0., 9.04066339e-02,
          6.75916905e-03, 9.04066339e-02, 5.44891320e-02, 3.89538348e-01,
          7.14551061e-02, 5.78063905e-01, 3.50521415e-01,
          -7.45778605e-02, 1.98382568e-02, 9.31273103e-02,
          3.31166573e-02, 0., 0., 0., 0., 1.38055697e-01,
          -1.98206939e-02, 1.38055697e-01, 1.98206939e-02,
          3.01139027e-01, -1.38103619e-01, 3.88632298e-01,
          1.66169167e-01, -5.70352338e-02, -2.38143317e-02,
          5.77884614e-02, 4.18817736e-02, 0., 0., 0., 0., 0., 0., 0., 0.,
          4.36684210e-03, -3.63453776e-02, 1.59504637e-02,
          3.63453776e-02, 0., 0., 0., 0., 0., 0., 0., 0., 0., 0., 0., 0.,
          0., 0., 0., 0., 0., 0., 0., 0., 0., 0., 0., 0., 4.63927686e-02,
          4.40680273e-02, 4.63927686e-02, 4.40680273e-02, 2.73339450e-01,
          3.25439960e-01, 3.19057018e-01, 5.28553188e-01,
          -3.56371403e-02, 4.39715460e-02, 3.63131054e-02,
          4.92219552e-02, 0., 0., 0., 0., 4.63927686e-02,
          -4.40680273e-02, 4.63927686e-02, 4.40680273e-02,
          2.03392059e-01, -3.96722913e-01, 2.25434005e-01,
          4.02730733e-01, -6.76128129e-03, -3.22418697e-02,
          2.74064485e-02, 3.57795358e-02, 0., 0., 0., 0., 0., 0., 0., 0.,
          0., 0., 0., 0., 0., 0., 0., 0. ]
      - [ 0., 0., 0., 0., 0., 0., 0., 0., 0., 0., 0., 0., 0., 0., 0., 0.,
          0., 0., 0., 0., 6.35498688e-02, 6.01065792e-02, 6.35498688e-02,
          6.01065792e-02, 3.80632281e-02, 3.86008441e-01, 3.76257986e-01,
          4.19223040e-01, 8.44296228e-05, 3.38958972e-03, 2.08683242e-03,
          3.38958972e-03, 0., 0., 0., 0., 1.90090463e-01,
          -5.06024286e-02, 1.90090463e-01, 5.30275665e-02,
          2.42800504e-01, -8.29017535e-03, 5.72644055e-01,
          1.64819658e-01, -1.48623902e-02, 5.67212030e-02,
          5.14461622e-02, 8.29825625e-02, 0., 0., 0., 0., 3.17246350e-03,
          3.01555730e-04, 3.17246350e-03, 2.30395864e-03, 6.07469082e-02,
          -1.73675213e-02, 7.66082034e-02, 4.77898605e-02,
          -1.54305471e-03, -1.92233929e-04, 2.07824493e-03,
          1.98233803e-03, 0., 0., 0., 0., 0., 0., 0., 0., 0., 0., 0., 0.,
          0., 0., 0., 0., 0., 0., 0., 0., 3.06163311e-01, 5.61259054e-02,
          3.06163311e-01, 5.75478524e-02, -6.36642799e-02,
          3.48981559e-01, 3.70574504e-01, 3.75878662e-01,
          -1.59881506e-02, 5.23294844e-02, 2.19838377e-02,
          5.23294844e-02, 0., 0., 0., 0., 2.45013967e-01,
          -4.97106947e-02, 2.45013967e-01, 1.01977162e-01,
          1.97335467e-01, -7.34725147e-02, 4.17859674e-01,
          1.62089407e-01, -8.36311281e-03, 4.69086971e-03,
          3.88959646e-02, 4.03483994e-02, 0., 0., 0., 0., 1.29289250e-03,
          -1.29289250e-03, 1.29289250e-03, 1.29289250e-03,
          5.61118163e-02, -4.71999124e-02, 6.83326870e-02,
          6.28272220e-02, -1.03005860e-03, 3.18327307e-04,
          2.80770985e-03, 2.02656537e-03, 0., 0., 0., 0., 0., 0., 0., 0.,
          0., 0., 0., 0., 8.66786751e-04, 1.67188165e-03, 8.66786751e-04,
          1.67188165e-03, 0., 0., 0., 0., 1.40774012e-01, 6.04469702e-02,
          1.40774012e-01, 6.04469702e-02, 1.89588100e-01, 3.19195330e-01,
          2.80735672e-01, 4.70635593e-01, 1.51810590e-02, 2.25423723e-02,
          2.12993305e-02, 5.54577559e-02, 0., 0., 0., 0., 3.08643758e-01,
          -4.23102565e-02, 3.08643758e-01, 9.20738354e-02,
          9.06352177e-02, -1.78364351e-01, 3.10171366e-01,
          4.04544562e-01, -1.41256312e-02, -3.95903513e-02,
          3.47798951e-02, 8.35286453e-02, 0., 0., 0., 0., 0., 0., 0., 0.,
          7.78830436e-05, -1.69748452e-03, 1.69748452e-03,
          1.69748452e-03, 0., 0., 0., 0., 0., 0., 0., 0., 6.01667538e-02,
          2.96986126e-03, 6.01667538e-02, 2.86942646e-02,
          -9.32002719e-03, 4.82588969e-02, 2.94780023e-02,
          6.23062700e-02, -1.16372984e-02, 3.97749711e-03,
          1.16372984e-02, 3.97749711e-03, 0., 0., 0., 0., 2.70575911e-01,
          4.86713415e-03, 2.70575911e-01, 9.24642533e-02, 1.69847935e-01,
          -5.23056351e-02, 4.95605171e-01, 1.61615744e-01,
          -5.53394854e-02, 1.96100865e-02, 1.06010638e-01,
          2.45200824e-02, 0., 0., 0., 0., 4.40647453e-01, 3.93615924e-02,
          4.40647453e-01, 1.33080453e-01, -1.79070979e-02,
          2.49486845e-02, 2.48226464e-01, 1.62999183e-01,
          -1.59784537e-02, 4.50381823e-03, 6.25481829e-02,
          2.49101203e-02, 0., 0., 0., 0., 2.68336348e-02,
          -2.07815710e-02, 2.69689206e-02, 2.07815710e-02,
          3.87491807e-02, -3.50660011e-02, 4.84288670e-02,
          4.29477841e-02, -5.42834867e-03, -4.74036759e-04,
          6.44369423e-03, 2.76817731e-03, 0., 0., 0., 0., 0., 0., 0., 0.,
          5.82305752e-02, 2.87079383e-02, 7.74639696e-02, 3.44106890e-02,
          -6.64403022e-04, 1.58485200e-03, 3.91040277e-03,
          2.70615146e-03, 0., 0., 0., 0., 1.14534870e-01, 4.67027277e-02,
          1.14534870e-01, 4.77505624e-02, 3.40123028e-01, 6.88216686e-02,
          4.87078160e-01, 3.57620388e-01, -4.23176736e-02,
          -5.96326031e-02, 5.62420040e-02, 6.59518391e-02, 0., 0., 0.,
          0., 4.99926284e-02, -4.99926284e-02, 4.99926284e-02,
          4.99926284e-02, 1.06568011e-02, -4.46731120e-01,
          2.24072441e-01, 4.46731120e-01, -9.17067926e-04,
          -9.17067926e-04, 9.17067926e-04, 9.17067926e-04, 0., 0., 0.,
          0., 0., 0., 0., 0., 0., 0., 0., 0., 0., 0., 0., 0., 0., 0., 0.,
          0., 2.06218660e-02, 4.78550652e-03, 2.06218660e-02,
          4.78550652e-03, 4.28077914e-02, 9.69404727e-03, 6.45698085e-02,
          1.55971749e-02, -5.01215830e-03, -3.44566279e-03,
          7.11379247e-03, 4.56049759e-03, 0., 0., 0., 0., 2.40980059e-01,
          3.20534036e-02, 2.40980059e-01, 5.50659411e-02, 2.32869282e-01,
          4.18771766e-02, 4.19639915e-01, 1.28979221e-01,
          -5.08609936e-02, -6.12195232e-04, 9.49859843e-02,
          2.00673193e-02, 0., 0., 0., 0., 1.56461701e-01,
          -4.47269119e-02, 1.56461701e-01, 8.42790455e-02,
          2.25274622e-01, -2.30365425e-01, 5.54547727e-01,
          3.65871280e-01, -4.92403805e-02, -4.22180630e-02,
          4.97094095e-02, 4.22180630e-02, 0., 0., 0., 0., 0., 0., 0., 0.,
          4.28723724e-05, -3.13219381e-04, 3.13219381e-04,
          3.13219381e-04, 0., 0., 0., 0., 0., 0., 0., 0., 0., 0., 0., 0.,
          7.31434114e-03, 5.79522289e-02, 2.41460465e-02, 5.79522289e-02,
          0., 0., 0., 0., 0., 0., 0., 0., 1.11436449e-01, 6.67559877e-02,
          1.11436449e-01, 6.67559877e-02, 3.15254658e-01, 1.44128308e-01,
          5.70280850e-01, 2.26246253e-01, -5.31217009e-02,
          4.29916680e-02, 6.74044564e-02, 4.29916680e-02, 0., 0., 0., 0.,
          1.67231977e-01, -6.35179058e-02, 1.67231977e-01,
          6.35179058e-02, 3.01482737e-01, -1.19827896e-01,
          4.76118624e-01, 2.07982689e-01, -2.59602834e-02,
          8.75136442e-03, 5.68166673e-02, 2.44384166e-02, 0., 0., 0., 0.,
          0., 0., 0., 0., 5.02654538e-02, -1.98138468e-02,
          5.69145866e-02, 3.63674201e-02, -4.10623106e-05,
          2.66323565e-04, 3.38727538e-03, 1.68565253e-03, 0., 0., 0., 0.,
          2.46281121e-02, 3.14669460e-02, 2.46281121e-02, 3.14669460e-02,
          -1.04373777e-02, 1.10693403e-01, 2.52473224e-02,
          1.10693403e-01, 0., 0., 0., 0., 0., 0., 0., 0., 3.35954607e-01,
          -2.94645373e-02, 3.35954607e-01, 1.14419810e-01,
          9.12721753e-02, -4.94296141e-02, 4.46098417e-01,
          1.61168531e-01, -9.50510204e-02, 2.34389976e-02,
          9.50510204e-02, 2.34389976e-02, 0., 0., 0., 0., 4.20710176e-01,
          6.31264551e-03, 4.20710176e-01, 9.96209309e-02, 2.49030627e-02,
          3.37207853e-03, 2.47987673e-01, 1.71165869e-01,
          -5.84481172e-02, 2.00360604e-02, 8.92224163e-02,
          2.52689458e-02, 0., 0., 0., 0., 6.36290992e-03,
          -6.81883190e-03, 6.36290992e-03, 6.81883190e-03,
          5.35758063e-02, -2.98954677e-02, 6.12004995e-02,
          3.77137437e-02, -2.80436361e-03, 1.57870018e-04,
          4.66237450e-03, 2.01958721e-03, 0., 0., 0., 0., 2.29319790e-03,
          2.29319790e-03, 2.29319790e-03, 2.29319790e-03,
          -6.45418826e-04, 2.54880190e-02, 9.81821027e-03,
          2.54880190e-02, 0., 0., 0., 0., 0., 0., 0., 0., 2.85235316e-01,
          7.47073768e-03, 2.85235316e-01, 1.00428708e-01,
          -5.24777360e-03, 1.09685652e-01, 5.56586325e-01,
          2.79563874e-01, -1.19728697e-02, 7.84511305e-03,
          1.19728697e-02, 7.84511305e-03, 0., 0., 0., 0., 3.73968512e-01,
          -9.50804038e-04, 3.73968512e-01, 9.32708457e-02,
          6.71915784e-02, 1.98155246e-03, 2.66351432e-01, 1.78736597e-01,
          -9.70405415e-02, 2.47265268e-02, 9.92376506e-02,
          2.47265268e-02, 0., 0., 0., 0., 0., 0., 0., 0., 5.79027794e-02,
          -1.91310886e-02, 6.64839074e-02, 2.79305484e-02,
          -4.81874263e-03, 7.94415886e-04, 7.39563350e-03,
          3.36579839e-03, 0., 0., 0., 0., 0., 0., 0., 0., 6.95882365e-02,
          3.15685794e-02, 8.75683501e-02, 3.87647636e-02,
          -8.79580621e-03, 7.67529826e-04, 1.12432567e-02,
          4.21813410e-03, 0., 0., 0., 0., 3.13130200e-01, 3.57958488e-02,
          3.13130200e-01, 9.22722816e-02, 8.54203999e-02, 3.17984223e-02,
          4.21966732e-01, 2.70442933e-01, -4.12407480e-02,
          -4.44058627e-02, 4.39416990e-02, 4.44058627e-02, 0., 0., 0.,
          0., 5.36189228e-02, -5.36189228e-02, 5.36189228e-02,
          5.36189228e-02, 4.80593145e-02, -4.26483035e-01,
          3.66343409e-01, 4.26483035e-01, 0., 0., 0., 0., 0., 0., 0., 0.,
          0., 0., 0., 0., 0., 0., 0., 0., 0., 0., 0., 0., 0., 0., 0., 0.,
          0., 0., 0., 0., 5.92632554e-02, 2.54194736e-02, 6.55650496e-02,
          2.84222774e-02, -3.89264245e-03, -6.56776247e-04,
          5.43910358e-03, 3.50687397e-03, 0., 0., 0., 0., 7.84875304e-02,
          4.69332486e-02, 7.84875304e-02, 4.69332486e-02, 4.06605750e-01,
          6.09835684e-02, 5.24946809e-01, 2.66070008e-01,
          -7.35529885e-02, -5.22163995e-02, 8.37710798e-02,
          5.97288124e-02, 0., 0., 0., 0., 4.83174957e-02,
          -4.83174957e-02, 4.83174957e-02, 4.83174957e-02,
          7.07296329e-03, -4.39022690e-01, 2.12012008e-01,
          4.39022690e-01, -4.97435278e-04, -4.97435278e-04,
          4.97435278e-04, 4.97435278e-04, 0., 0., 0., 0., 0., 0., 0., 0.,
          0., 0., 0., 0., 0., 0., 0., 0., 0., 0., 0., 0., 0., 0., 0., 0.,
          0., 0., 0., 0., 0., 0., 0., 0., 0., 0., 0., 0., 4.53958102e-02,
          4.53958102e-02, 4.53958102e-02, 4.53958102e-02,
          -1.39697054e-02, 3.31594586e-01, 2.46142864e-01,
          3.31594586e-01, 0., 0., 0., 0., 0., 0., 0., 0., 1.56181335e-01,
          -3.83153446e-02, 1.56181335e-01, 3.83153446e-02,
          2.85766780e-01, 8.98754075e-02, 6.33835912e-01, 3.80303472e-01,
          -4.30032909e-02, 5.56130707e-02, 4.88967597e-02,
          6.15153499e-02, 0., 0., 0., 0., 0., 0., 0., 0., 4.39367443e-02,
          -6.36087880e-02, 4.51938547e-02, 6.36087880e-02,
          1.51873135e-03, -2.07002950e-03, 3.43901617e-03,
          4.96424036e-03, 0., 0., 0., 0., 0., 0., 0., 0., 6.36017025e-02,
          1.54216867e-02, 7.60976300e-02, 2.19882205e-02,
          -8.99335835e-03, -6.75747124e-03, 1.00312177e-02,
          7.88685866e-03, 0., 0., 0., 0., 1.17135130e-01, 4.66460921e-02,
          1.17135130e-01, 5.44060618e-02, 3.09820771e-01,
          -2.82441825e-02, 6.42992616e-01, 3.37803036e-01,
          -7.55202845e-02, -2.19021067e-02, 7.55202845e-02,
          2.67307498e-02, 0., 0., 0., 0., 5.11058271e-02,
          -5.11058271e-02, 5.11058271e-02, 5.11058271e-02,
          -2.11686119e-02, -3.78989875e-01, 1.46547541e-01,
          3.78989875e-01, 0., 0., 0., 0., 0., 0., 0., 0., 0., 0., 0., 0.,
          0., 0., 0., 0., 0., 0., 0., 0., 0., 0., 0., 0., 0., 0., 0., 0.,
          0., 0., 0., 0., 0., 0., 0., 0., 0., 0., 0., 0., 5.24871536e-02,
          3.80819775e-02, 5.24871536e-02, 3.80819775e-02, 1.44457087e-01,
          2.97333598e-01, 5.73902011e-01, 3.35908771e-01,
          -3.63343023e-03, 3.63343023e-03, 3.63343023e-03,
          3.63343023e-03, 0., 0., 0., 0., 9.31565017e-02,
          -3.60097475e-02, 9.31565017e-02, 3.60097475e-02,
          3.12516153e-01, -1.10795669e-01, 5.00605941e-01,
          1.99044406e-01, -7.39236698e-02, 2.94438303e-02,
          7.39236698e-02, 3.36814970e-02, 0., 0., 0., 0., 0., 0., 0., 0.,
          5.41331954e-02, -1.79383215e-02, 5.61682060e-02,
          2.17387937e-02, -7.28055090e-03, 2.90250755e-03,
          7.90763367e-03, 3.52724805e-03, 0., 0., 0., 0., 1.65184587e-03,
          1.14948989e-03, 1.65184587e-03, 1.14948989e-03, 5.92104159e-02,
          1.45372171e-02, 7.70722404e-02, 3.04415338e-02,
          -1.32115753e-02, -4.21876041e-03, 1.32760657e-02,
          4.36482998e-03, 0., 0., 0., 0., 4.44992214e-01, 6.30587852e-03,
          4.44992214e-01, 1.90864280e-01, -2.66256332e-01,
          -3.31751794e-01, 3.97916108e-01, 4.35973316e-01,
          -2.40653288e-03, -2.40653288e-03, 2.40653288e-03,
          2.40653288e-03, 0., 0., 0., 0., 4.62796018e-02,
          -5.82295135e-02, 4.62796018e-02, 5.82295135e-02,
          -4.54058908e-02, -7.72723258e-02, 4.54058908e-02,
          7.72723258e-02, 0., 0., 0., 0., 0., 0., 0., 0., 0., 0., 0., 0.,
          0., 0., 0., 0., 0., 0., 0., 0., 0., 0., 0., 0., 0., 0., 0., 0.,
          6.89793974e-02, 2.94036921e-02, 7.83445761e-02, 3.78533639e-02,
          -1.57431066e-02, -4.00638720e-03, 1.60617698e-02,
          4.18487471e-03, 0., 0., 0., 0., 2.24266812e-01, 5.21495864e-02,
          2.24266812e-01, 5.21495864e-02, 8.25524330e-02,
          -1.12505704e-01, 6.83326960e-01, 3.73884708e-01,
          -1.19493445e-02, -8.24990310e-03, 1.19493445e-02,
          8.24990310e-03, 0., 0., 0., 0., 6.39414042e-02,
          -6.39414042e-02, 6.39414042e-02, 6.39414042e-02,
          -4.54070196e-02, -3.29113632e-01, 1.36270761e-01,
          3.29113632e-01, 0., 0., 0., 0., 0., 0., 0., 0., 0., 0., 0., 0.,
          0., 0., 0., 0., 0., 0., 0., 0., 0., 0., 0., 0., 0., 0., 0., 0.,
          0., 0., 0., 0., 0., 0., 0., 0., 0., 0., 0., 0., 5.61652482e-02,
          5.61652482e-02, 5.61652482e-02, 5.61652482e-02,
          -3.67656276e-02, 3.31510276e-01, 1.07294165e-01,
          3.31510276e-01, 0., 0., 0., 0., 0., 0., 0., 0., 1.36924997e-01,
          -5.08056358e-02, 1.36924997e-01, 5.82763925e-02,
          1.02856889e-01, 4.32938896e-02, 7.79081762e-01, 2.82468796e-01,
          -1.08624147e-02, 6.51209382e-03, 1.08624147e-02,
          6.51209382e-03, 0., 0., 0., 0., 0., 0., 0., 0., 5.80264255e-02,
          -3.62863615e-02, 6.91912547e-02, 4.25811820e-02,
          -1.26423892e-02, 6.54447824e-03, 1.34172868e-02,
          6.84895506e-03, 0., 0., 0., 0., 0., 0., 0., 0., 6.19860925e-02,
          2.32600495e-02, 7.63837397e-02, 3.85199562e-02,
          -1.48101794e-02, -4.49411059e-03, 1.48101794e-02,
          4.49411059e-03, 0., 0., 0., 0., 1.74631298e-01, 4.50270809e-02,
          1.74631298e-01, 4.50270809e-02, 8.37454125e-02,
          -1.08148657e-01, 7.62918890e-01, 3.69654685e-01,
          -6.64425641e-03, -4.37032245e-03, 6.64425641e-03,
          4.37032245e-03, 0., 0., 0., 0., 5.30699305e-02,
          -5.30699305e-02, 5.30699305e-02, 5.30699305e-02,
          -3.94399054e-02, -2.81018823e-01, 1.20342247e-01,
          2.81018823e-01, 0., 0., 0., 0., 0., 0., 0., 0., 0., 0., 0., 0.,
          0., 0., 0., 0., 0., 0., 0., 0., 0., 0., 0., 0., 0., 0., 0., 0.,
          0., 0., 0., 0., 0., 0., 0., 0., 0., 0., 0., 0., 9.02315378e-02,
          8.35259259e-02, 9.02315378e-02, 8.35259259e-02,
          -8.04747492e-02, 2.63447136e-01, 8.04747492e-02,
          2.63447136e-01, 0., 0., 0., 0., 0., 0., 0., 0., 3.98613364e-01,
          -5.38226254e-02, 3.98613364e-01, 7.75803328e-02,
          -2.64815837e-01, 7.28721544e-02, 5.73252857e-01,
          2.67118841e-01, 0., 0., 0., 0., 0., 0., 0., 0., 0., 0., 0., 0.,
          3.61170135e-02, -8.40654969e-03, 1.11017801e-01,
          4.68208231e-02, 0., 0., 0., 0., 0., 0., 0., 0., 2.93835299e-04,
          2.93835299e-04, 2.93835299e-04, 2.93835299e-04, 2.50022169e-02,
          2.61909999e-02, 1.13769487e-01, 5.01239151e-02, 0., 0., 0., 0.,
          0., 0., 0., 0., 3.97224486e-01, 3.35654952e-02, 3.97224486e-01,
          7.08437636e-02, -2.96637088e-01, -2.29191199e-01,
          6.06806278e-01, 3.45122695e-01, 0., 0., 0., 0., 0., 0., 0., 0.,
          5.56107759e-02, -6.26004487e-02, 5.56107759e-02,
          6.26004487e-02, -5.46908900e-02, -8.26495960e-02,
          5.46908900e-02, 8.26495960e-02, 0., 0., 0., 0., 0., 0., 0., 0.,
          0., 0., 0., 0., 0., 0., 0., 0., 0., 0., 0., 0. ]
      - [ 0., 0., 0., 0., 3.91899012e-02, -3.96360382e-02,
          5.91650419e-02, 5.92687428e-02, -1.98628404e-03,
          1.39835086e-02, 2.11067051e-02, 3.95901464e-02, 1.03044417e-03,
          -5.78376581e-04, 2.68218410e-03, 5.35879284e-03, 0., 0., 0.,
          0., 2.47677773e-01, 1.28007843e-04, 2.47677773e-01,
          1.02703117e-01, 1.12791307e-01, 4.69428524e-02, 3.94919932e-01,
          2.15812385e-01, -4.29149391e-03, 2.50358810e-03,
          5.30038495e-03, 3.17527005e-03, 0., 0., 0., 0., 9.18085054e-02,
          -5.59398644e-02, 9.18085054e-02, 5.59398644e-02,
          2.28200778e-01, -2.91102499e-01, 5.11874139e-01,
          4.61486280e-01, 3.92412301e-03, -1.52989412e-02,
          1.29144937e-02, 3.91413830e-02, 0., 0., 0., 0., 0., 0., 0., 0.,
          0., 0., 0., 0., 3.59556958e-04, -1.13037729e-03,
          6.89356588e-04, 1.13037729e-03, 0., 0., 0., 0., 0., 0., 0., 0.,
          1.30290929e-02, 4.61317971e-03, 1.30290929e-02, 6.73421798e-03,
          5.15713403e-03, 3.88753903e-03, 8.77566449e-03, 8.54612142e-03,
          0., 0., 0., 0., 1.15152128e-01, 6.71884194e-02, 1.15152128e-01,
          6.71884194e-02, 2.49841675e-01, 2.55511284e-01, 5.15455484e-01,
          4.63162512e-01, -1.00695761e-02, -1.01630194e-02,
          1.41595649e-02, 1.95425339e-02, 0., 0., 0., 0., 2.05789536e-01,
          -6.02623448e-02, 2.05789536e-01, 6.02623448e-02,
          1.52677819e-01, -7.87888691e-02, 4.58297610e-01,
          1.23325273e-01, -5.86973876e-03, -8.07024539e-04,
          6.50401413e-03, 3.50913126e-03, 0., 0., 0., 0., 0., 0., 0., 0.,
          4.87414636e-02, -2.36736629e-02, 6.30674809e-02,
          3.76092270e-02, -7.62961063e-05, 1.29279666e-04,
          8.60667205e-04, 1.10195088e-03, 0., 0., 0., 0., 5.19698428e-04,
          5.19698428e-04, 5.19698428e-04, 5.19698428e-04, 5.82058355e-02,
          3.77822444e-02, 8.40192214e-02, 5.39826788e-02,
          -3.82813654e-04, 7.99855206e-06, 4.32033371e-03,
          2.39774561e-03, 0., 0., 0., 0., 5.63380159e-02, 5.14449403e-02,
          5.63380159e-02, 5.34550771e-02, 3.53215307e-01, 3.39164734e-02,
          6.59667253e-01, 1.40936226e-01, 2.62756902e-03,
          -2.68163602e-03, 4.74254461e-03, 4.51580109e-03, 0., 0., 0.,
          0., 2.51594752e-01, -3.57229225e-02, 2.51594752e-01,
          4.51085679e-02, 1.61401436e-01, -6.08908050e-02,
          3.89387161e-01, 2.62916744e-01, 3.94208031e-03, 2.82103266e-03,
          4.74496977e-03, 4.42579156e-03, 0., 0., 0., 0., 2.28530771e-04,
          7.10201348e-05, 2.28530771e-04, 2.28530771e-04, 5.95226102e-02,
          -1.42949224e-02, 8.26300457e-02, 3.46448496e-02,
          1.15347246e-03, 1.84972840e-03, 5.74807823e-03, 6.78274315e-03,
          0., 0., 0., 0., 0., 0., 0., 0., 4.13741404e-03, 1.69283729e-02,
          7.44695123e-03, 1.69283729e-02, -1.07694359e-03,
          2.15665717e-03, 1.51588302e-03, 2.15665717e-03, 0., 0., 0., 0.,
          7.11919889e-02, 4.94051427e-02, 7.11919889e-02, 6.61454275e-02,
          3.55314940e-01, 1.84436843e-01, 4.44130123e-01, 4.09408987e-01,
          -1.99801903e-02, 1.06671844e-02, 2.93010455e-02,
          4.24951017e-02, 0., 0., 0., 0., 2.05422372e-01,
          -4.31925431e-02, 2.05422372e-01, 4.84457836e-02,
          1.51117459e-01, -1.76702216e-01, 4.85595226e-01,
          2.66852409e-01, 1.97375682e-03, -2.52219923e-02,
          1.45361545e-02, 4.81150150e-02, 0., 0., 0., 0., 0., 0., 0., 0.,
          1.83743902e-03, -2.33880486e-02, 1.15057779e-02,
          2.33880486e-02, 2.40082009e-05, -7.39692478e-05,
          4.02046717e-05, 7.39692478e-05, 0., 0., 0., 0., 0., 0., 0., 0.,
          3.04517094e-02, 3.82992253e-02, 3.04517094e-02, 4.08398025e-02,
          -8.39576032e-03, 4.75124316e-03, 8.39576032e-03,
          5.89782093e-03, 0., 0., 0., 0., 7.89336488e-02, 5.37026264e-02,
          7.89336488e-02, 5.37026264e-02, 2.68844187e-01, 2.49571741e-01,
          3.93535137e-01, 3.89265537e-01, -1.06499530e-02,
          5.69671253e-03, 4.20914106e-02, 3.00185885e-02, 0., 0., 0., 0.,
          4.50130731e-01, -1.89047065e-02, 4.50130731e-01,
          1.08224913e-01, -9.22083631e-02, -8.41933787e-02,
          2.72868633e-01, 1.29950136e-01, 2.39128130e-03,
          -1.89305982e-03, 5.11212135e-03, 5.06966608e-03, 0., 0., 0.,
          0., 2.27287295e-04, -2.27287295e-04, 2.27287295e-04,
          2.27287295e-04, 4.74254712e-02, -3.10236271e-02,
          5.74120544e-02, 4.45885994e-02, 5.69875177e-04, 1.07145897e-04,
          1.70820416e-03, 1.62612635e-03, 0., 0., 0., 0., 2.72273290e-04,
          2.72273290e-04, 2.72273290e-04, 2.72273290e-04, 5.81848882e-02,
          1.01835746e-02, 8.65964144e-02, 1.85097922e-02,
          -1.80253654e-03, -1.04778633e-03, 1.04861166e-02,
          4.34732297e-03, 0., 0., 0., 0., 7.99568295e-02, 4.75048684e-02,
          7.99568295e-02, 6.25830144e-02, 3.46248567e-01, 5.46085946e-02,
          6.77035153e-01, 1.55705512e-01, 1.90171239e-03, 1.77415693e-03,
          1.52543131e-02, 1.12473080e-02, 0., 0., 0., 0., 2.40596145e-01,
          -3.70513611e-02, 2.40596145e-01, 3.70513611e-02,
          1.86866224e-01, -4.33567390e-02, 3.96701753e-01,
          1.89996704e-01, 1.06572080e-02, 1.02571063e-02, 1.50700854e-02,
          1.34801818e-02, 0., 0., 0., 0., 4.29209933e-04, 1.15336683e-04,
          4.29209933e-04, 4.29209933e-04, 6.80268854e-02,
          -2.07983889e-02, 8.21470395e-02, 4.46816497e-02,
          -9.74828191e-03, -1.04049072e-02, 1.13924984e-02,
          1.28391776e-02, 0., 0., 0., 0., 4.82412428e-02, 2.78596692e-02,
          4.82412428e-02, 2.78596692e-02, -1.15868803e-02,
          5.82550056e-02, 6.21162429e-02, 6.88923150e-02,
          -3.32975574e-03, 1.32620400e-02, 3.32975574e-03,
          1.32620400e-02, 0., 0., 0., 0., 1.52143568e-01, 8.52916948e-03,
          1.52143568e-01, 1.33918270e-01, 2.56777853e-01, 4.55168076e-02,
          4.55304295e-01, 3.53589952e-01, 2.52190442e-03,
          -4.17453749e-03, 1.47344191e-02, 2.18665972e-02, 0., 0., 0.,
          0., 2.60847837e-01, -5.91709279e-02, 2.60847837e-01,
          6.09683394e-02, 1.38161838e-01, -2.07663745e-01,
          4.74561155e-01, 2.86897093e-01, -2.88481708e-03,
          1.07435314e-02, 6.57067215e-03, 1.17171993e-02, 0., 0., 0., 0.,
          0., 0., 0., 0., 1.54349050e-02, -2.77462006e-02,
          1.54349050e-02, 2.77462006e-02, -4.24223545e-04,
          -1.68849230e-02, 2.74458947e-03, 1.68873407e-02, 0., 0., 0.,
          0., 0., 0., 0., 0., 8.05585223e-05, 5.17188339e-04,
          2.59223627e-04, 5.17188339e-04, 1.07727565e-05, 1.07727565e-05,
          1.07727565e-05, 1.07727565e-05, 0., 0., 0., 0., 7.02448264e-02,
          4.68671247e-02, 7.02448264e-02, 6.43795282e-02, 3.10114592e-01,
          2.17567235e-01, 4.26851988e-01, 4.25457031e-01,
          -5.26128570e-03, 1.81601923e-02, 2.57795472e-02,
          3.62510420e-02, 0., 0., 0., 0., 1.08206056e-01,
          -4.67260256e-02, 1.08206056e-01, 4.67260256e-02,
          1.75558001e-01, -2.74146765e-01, 4.84200925e-01,
          3.19218636e-01, 7.52146682e-03, -3.29069011e-02,
          1.93551425e-02, 5.57184294e-02, 0., 0., 0., 0., 0., 0., 0., 0.,
          0., 0., 0., 0., 0., 0., 0., 0., 0., 0., 0., 0., 0., 0., 0., 0.,
          0., 0., 0., 0., 3.15728219e-04, 2.08217694e-04, 3.15728219e-04,
          2.08217694e-04, 0., 0., 0., 0., 1.41312003e-01, 5.83638139e-02,
          1.41312003e-01, 9.93707553e-02, 2.17794448e-01, 2.91665465e-01,
          3.76651376e-01, 4.45034266e-01, 4.83993161e-03, 2.96274181e-02,
          2.52556521e-02, 6.31972179e-02, 0., 0., 0., 0., 2.39432707e-01,
          -5.59088513e-02, 2.39432707e-01, 5.59088513e-02,
          4.36239466e-02, -3.28145683e-01, 3.01271856e-01,
          3.75628978e-01, 6.96227560e-03, -3.77568491e-02,
          2.24863030e-02, 6.70147389e-02, 0., 0., 0., 0., 0., 0., 0., 0.,
          0., 0., 0., 0., 0., 0., 0., 0., 0., 0., 0., 0., 7.53619196e-03,
          7.53619196e-03, 7.53619196e-03, 7.53619196e-03, 6.09797519e-03,
          7.96872526e-02, 6.61738366e-02, 7.96872526e-02,
          -7.04022241e-05, 7.04022241e-05, 7.04022241e-05,
          7.04022241e-05, 0., 0., 0., 0., 1.50051191e-01, 4.99273501e-02,
          1.50051191e-01, 1.20493948e-01, 3.00740361e-01, 8.23581591e-02,
          5.13834894e-01, 3.20996016e-01, -1.85300671e-02,
          2.81313043e-02, 4.49652523e-02, 6.47250712e-02, 0., 0., 0., 0.,
          3.01562220e-01, -5.83842956e-02, 3.01562220e-01,
          6.48297071e-02, 1.34536281e-01, -2.15533286e-01,
          3.42802793e-01, 2.71359742e-01, -1.09391264e-03,
          6.84819557e-03, 8.41169339e-03, 1.27616022e-02, 0., 0., 0., 0.,
          0., 0., 0., 0., 1.13265272e-02, -3.57615799e-02,
          1.24407895e-02, 3.57615799e-02, 4.08976385e-03,
          -1.69099737e-02, 6.40631374e-03, 1.77215263e-02, 0., 0., 0.,
          0., 0., 0., 0., 0., 0., 0., 0., 0., 0., 0., 0., 0., 0., 0., 0.,
          0., 9.67133045e-02, 6.13378398e-02, 9.67133045e-02,
          6.13378398e-02, 8.02290216e-02, 3.99531156e-01, 3.58201832e-01,
          4.35075849e-01, -1.79894902e-02, 6.57192320e-02,
          1.85108017e-02, 6.57192320e-02, 0., 0., 0., 0., 6.70401752e-02,
          -6.23250008e-02, 6.70401752e-02, 6.31095693e-02,
          3.38775665e-01, -1.03522107e-01, 4.97380018e-01,
          2.75747418e-01, 2.84946989e-04, -1.19399456e-02,
          2.10356321e-02, 2.73038596e-02, 0., 0., 0., 0., 2.47855089e-04,
          -2.47855089e-04, 2.47855089e-04, 2.47855089e-04,
          5.17160967e-02, -4.39839475e-02, 7.59224147e-02,
          5.75427674e-02, -3.27040383e-04, -9.13180469e-04,
          8.85447022e-04, 4.50240495e-03, 0., 0., 0., 0., 0., 0., 0., 0.,
          0., 0., 0., 0., 2.44300719e-03, 2.05228780e-03, 2.44300719e-03,
          2.20994931e-03, 0., 0., 0., 0., 2.30075672e-01, 5.35287485e-02,
          2.30075672e-01, 1.22727826e-01, 8.71527269e-02, 2.93073744e-01,
          2.66026765e-01, 4.60435033e-01, 2.02121455e-02, 2.63789538e-02,
          3.03575788e-02, 5.84432930e-02, 0., 0., 0., 0., 2.04059467e-01,
          -5.91490865e-02, 2.04059467e-01, 5.91490865e-02,
          1.88051146e-02, -3.58932823e-01, 2.76231438e-01,
          4.37028706e-01, -1.42121678e-02, -5.12090959e-02,
          1.74500942e-02, 6.77563921e-02, 0., 0., 0., 0., 0., 0., 0., 0.,
          0., 0., 0., 0., 0., 0., 0., 0., 0., 0., 0., 0., 0., 0., 0., 0.,
          0., 0., 0., 0., 0., 0., 0., 0., 0., 0., 0., 0., 8.65968168e-02,
          4.73440252e-02, 8.65968168e-02, 4.73440252e-02, 4.51952666e-02,
          4.00047392e-01, 2.97057956e-01, 4.26904023e-01,
          -1.20958705e-02, 4.62766960e-02, 1.20958705e-02,
          4.62766960e-02, 0., 0., 0., 0., 5.22913970e-02,
          -4.85388450e-02, 5.22913970e-02, 5.11601418e-02,
          3.57879072e-01, -8.44707713e-02, 5.45128286e-01,
          2.93369293e-01, -1.91809684e-02, 7.67912949e-03,
          2.81349234e-02, 3.35084908e-02, 0., 0., 0., 0., 0., 0., 0., 0.,
          3.92784476e-02, -6.25451356e-02, 4.31805253e-02,
          6.90645650e-02, 2.69443030e-04, -4.12060926e-03,
          2.66019884e-03, 5.70273120e-03, 0., 0., 0., 0., 0., 0., 0., 0.,
          0., 0., 0., 0., 5.28881652e-03, 4.41645039e-03, 5.51495189e-03,
          4.84188460e-03, 0., 0., 0., 0., 5.60281835e-02, 5.60281835e-02,
          5.60281835e-02, 5.60281835e-02, 1.32114634e-01, 4.17899251e-01,
          1.74282044e-01, 4.50702548e-01, 4.39156257e-02, 2.13310309e-02,
          6.02941699e-02, 4.45141420e-02, 0., 0., 0., 0., 1.28744155e-01,
          -5.09234890e-02, 1.28744155e-01, 5.09234890e-02,
          2.19610751e-01, -2.25839257e-01, 5.33199131e-01,
          3.53412330e-01, -9.66798514e-03, -4.28977236e-02,
          2.66485196e-02, 6.50572404e-02, 0., 0., 0., 0., 0., 0., 0., 0.,
          5.11255057e-04, -5.58320666e-03, 5.58320666e-03,
          5.58320666e-03, 0., 0., 0., 0., 0., 0., 0., 0., 0., 0., 0., 0.,
          3.18503077e-03, 2.54222192e-03, 3.18503077e-03, 2.54222192e-03,
          1.07772155e-02, 6.84899930e-03, 1.28596593e-02, 7.50126317e-03,
          0., 0., 0., 0., 2.72053570e-01, 4.41328883e-02, 2.72053570e-01,
          9.58656073e-02, 9.69522074e-02, 3.03661376e-01, 2.43471622e-01,
          3.81245881e-01, -1.14340940e-02, -4.30789515e-02,
          2.80108899e-02, 6.61311299e-02, 0., 0., 0., 0., 1.07442915e-01,
          -5.84998131e-02, 1.07442915e-01, 5.84998131e-02,
          -4.54067625e-03, -4.33914125e-01, 3.17394346e-01,
          4.55267936e-01, -1.20859193e-02, -1.58430822e-02,
          1.20859193e-02, 1.58430822e-02, 0., 0., 0., 0., 0., 0., 0., 0.,
          0., 0., 0., 0., 0., 0., 0., 0., 0., 0., 0., 0., 0., 0., 0., 0.,
          0., 0., 0., 0., 5.73739363e-03, 7.85779208e-03, 6.49166293e-03,
          8.81168433e-03, 0., 0., 0., 0., 6.96391910e-02, 6.53421059e-02,
          6.96391910e-02, 6.53421059e-02, 1.63976148e-01, 4.34467852e-01,
          1.80788428e-01, 4.72198099e-01, 2.27468330e-02, 1.03016393e-02,
          4.37116027e-02, 2.36295275e-02, 0., 0., 0., 0., 1.97023228e-01,
          -5.58578111e-02, 1.97023228e-01, 7.54581839e-02,
          1.04612328e-01, -3.00305903e-01, 4.37048584e-01,
          3.47228438e-01, -2.91184578e-02, -5.38980179e-02,
          2.91184578e-02, 5.82334548e-02, 0., 0., 0., 0., 0., 0., 0., 0.,
          0., 0., 0., 0., 0., 0., 0., 0., 0., 0., 0., 0., 5.51913902e-02,
          -1.27715264e-02, 5.51913902e-02, 1.57365035e-02,
          -1.06367404e-02, -5.80539647e-03, 6.04874082e-02,
          2.66490858e-02, -1.82113785e-03, -5.83808986e-04,
          1.82113785e-03, 1.23054790e-03, 0., 0., 0., 0., 1.93652198e-01,
          4.76852395e-02, 1.93652198e-01, 5.70908412e-02, 3.50044519e-02,
          6.78975582e-02, 6.38539135e-01, 2.51903683e-01, 0., 0., 0., 0.,
          0., 0., 0., 0., 6.00797236e-02, -6.00797236e-02,
          6.00797236e-02, 6.00797236e-02, 8.62445589e-03,
          -4.25072640e-01, 2.35643908e-01, 4.25072640e-01, 0., 0., 0.,
          0., 0., 0., 0., 0., 0., 0., 0., 0., 0., 0., 0., 0., 0., 0., 0.,
          0., 0., 0., 0., 0., 0., 0., 0., 0., 1.10864348e-03,
          1.10864348e-03, 1.10864348e-03, 1.10864348e-03, 4.54076566e-03,
          1.15815550e-02, 6.37091976e-03, 1.15815550e-02, 0., 0., 0., 0.,
          2.06059352e-01, 5.14161699e-02, 2.06059352e-01, 7.55222142e-02,
          1.40431911e-01, 3.31500918e-01, 2.99455464e-01, 4.45614129e-01,
          -2.09711678e-03, -2.97652259e-02, 1.78268645e-02,
          5.08861803e-02, 0., 0., 0., 0., 8.90277624e-02,
          -6.04012571e-02, 8.90277624e-02, 6.04012571e-02,
          -1.50298988e-02, -4.47201401e-01, 2.44475350e-01,
          4.47201401e-01, -5.04526915e-03, -2.80066002e-02,
          5.04526915e-03, 2.80066002e-02, 0., 0., 0., 0., 0., 0., 0., 0.,
          0., 0., 0., 0., 0., 0., 0., 0., 0., 0., 0., 0., 0., 0., 0., 0.,
          5.05504087e-02, 3.12395617e-02, 5.53728603e-02, 3.38478424e-02,
          -1.05507243e-02, 1.64566818e-03, 1.05507243e-02,
          4.06928966e-03, 0., 0., 0., 0., 6.75633922e-02, 4.59278636e-02,
          6.75633922e-02, 4.59278636e-02, 2.41210192e-01, 1.14300683e-01,
          5.79074919e-01, 3.83788645e-01, -4.35997657e-02,
          -2.32245121e-02, 4.35997657e-02, 2.32245121e-02, 0., 0., 0.,
          0., 4.68769893e-02, -4.68769893e-02, 4.68769893e-02,
          4.68769893e-02, 2.45930422e-02, -3.67162108e-01,
          3.75375658e-01, 3.67162108e-01, 0., 0., 0., 0., 0., 0., 0., 0.,
          0., 0., 0., 0., 0., 0., 0., 0., 0., 0., 0., 0., 0., 0., 0., 0.,
          0., 0., 0., 0., 3.03361546e-02, 5.19980825e-02, 6.66259527e-02,
          5.52518889e-02, -3.99812730e-03, 1.06063802e-04,
          3.99812730e-03, 1.37120206e-03, 0., 0., 0., 0., 9.02267769e-02,
          5.04553206e-02, 9.02267769e-02, 5.04553206e-02, 1.31784886e-01,
          9.23217554e-03, 7.19672799e-01, 3.80538493e-01,
          -5.89635223e-03, -2.28115963e-03, 5.89635223e-03,
          2.53145257e-03, 0., 0., 0., 0., 5.22000417e-02,
          -5.22000417e-02, 5.22000417e-02, 5.22000417e-02,
          -1.12762088e-02, -3.09890985e-01, 2.90023357e-01,
          3.09890985e-01, 0., 0., 0., 0., 0., 0., 0., 0., 0., 0., 0., 0.,
          0., 0., 0., 0., 0., 0., 0., 0. ]
      - [ 0., 0., 0., 0., 0., 0., 0., 0., 4.02781069e-02, 8.23867414e-03,
          4.80347537e-02, 1.27148973e-02, 5.04650292e-04,
          -5.59550244e-03, 7.93890934e-03, 8.03573430e-03, 0., 0., 0.,
          0., 1.68277785e-01, 5.34811690e-02, 1.68277785e-01,
          5.34811690e-02, 2.50825822e-01, 2.24695355e-01, 4.49797809e-01,
          2.68460810e-01, -2.66681295e-02, 1.19744958e-02,
          5.58546893e-02, 3.43660638e-02, 0., 0., 0., 0., 8.23932886e-02,
          -5.94998263e-02, 8.23932886e-02, 5.94998263e-02,
          1.21490426e-01, -4.81419116e-01, 1.21490426e-01,
          5.00856519e-01, 1.83024127e-02, -3.47322077e-02,
          3.90524827e-02, 6.71901330e-02, 0., 0., 0., 0., 0., 0., 0., 0.,
          0., 0., 0., 0., 0., 0., 0., 0., 0., 0., 0., 0., 5.12034334e-02,
          -1.08301342e-02, 5.12034334e-02, 2.47214027e-02,
          1.48806348e-02, 2.49739792e-02, 5.15987165e-02, 5.20772301e-02,
          -6.37087179e-03, 8.58445838e-03, 7.86777120e-03,
          9.39599238e-03, 0., 0., 0., 0., 1.85828701e-01, 5.38055152e-02,
          1.85828701e-01, 9.77020040e-02, 2.66281992e-01,
          -7.87771214e-03, 4.82325077e-01, 2.46545553e-01,
          -4.45077708e-03, -2.26749829e-03, 7.09591247e-03,
          7.21872086e-03, 0., 0., 0., 0., 1.43464774e-01,
          -6.57211393e-02, 1.43464774e-01, 6.76605850e-02,
          2.89366245e-01, -1.26908556e-01, 5.53968072e-01,
          2.79219121e-01, -5.41685103e-03, 3.00598273e-04,
          7.12164212e-03, 3.90038802e-03, 0., 0., 0., 0., 0., 0., 0., 0.,
          2.06002239e-02, -5.24646565e-02, 2.21923925e-02,
          5.24646565e-02, 4.23153117e-03, -7.79395970e-03,
          5.42843295e-03, 1.23041905e-02, 0., 0., 0., 0., 0., 0., 0., 0.,
          0., 0., 0., 0., 0., 0., 0., 0., 0., 0., 0., 0., 1.09427787e-01,
          5.65598235e-02, 1.09427787e-01, 5.65598235e-02, 2.35367686e-01,
          2.26167589e-01, 4.71408904e-01, 3.53218764e-01,
          -1.69961993e-02, 4.36567999e-02, 2.84821559e-02,
          5.42525984e-02, 0., 0., 0., 0., 8.64244848e-02,
          -5.78335896e-02, 8.64244848e-02, 5.78335896e-02,
          3.22797328e-01, -1.84816182e-01, 4.26827431e-01,
          4.01776493e-01, -1.09642660e-02, -5.80292020e-04,
          1.11871893e-02, 3.89557565e-03, 0., 0., 0., 0., 0., 0., 0., 0.,
          4.41856086e-02, -1.73830874e-02, 5.94961122e-02,
          2.25522649e-02, -2.90017080e-04, -4.91868530e-04,
          1.48945814e-03, 2.95566465e-03, 0., 0., 0., 0., 0., 0., 0., 0.,
          0., 0., 0., 0., 0., 0., 0., 0., 0., 0., 0., 0., 3.75817791e-02,
          3.75817791e-02, 3.75817791e-02, 3.75817791e-02, 6.78516179e-02,
          4.80104029e-01, 1.31324500e-01, 4.80104029e-01, 2.65146680e-02,
          4.45365459e-02, 3.29887234e-02, 5.17012104e-02, 0., 0., 0., 0.,
          9.98151824e-02, -3.43847536e-02, 9.98151824e-02,
          3.43847536e-02, 3.21969688e-01, -2.36502469e-01,
          4.39158559e-01, 3.57581347e-01, -1.79590248e-02,
          3.69315408e-03, 1.80265252e-02, 1.47014800e-02, 0., 0., 0., 0.,
          0., 0., 0., 0., 9.76415444e-03, -2.39623468e-02,
          9.76415444e-03, 2.39623468e-02, 8.32777657e-03,
          -3.97595437e-03, 1.03023229e-02, 5.65504842e-03, 0., 0., 0.,
          0., 0., 0., 0., 0., 0., 0., 0., 0., 0., 0., 0., 0., 0., 0., 0.,
          0., 6.39745668e-02, 6.58586025e-02, 6.39745668e-02,
          6.58586025e-02, 2.86470447e-02, 4.76075619e-01, 1.00231037e-01,
          4.76075619e-01, 7.33562652e-03, 5.82248420e-02, 1.16661694e-02,
          5.82248420e-02, 0., 0., 0., 0., 2.70867527e-01,
          -4.26277854e-02, 2.70867527e-01, 5.46617247e-02,
          1.68970019e-01, -2.50866525e-02, 5.15362680e-01,
          2.05098778e-01, -2.12639011e-03, -5.82617614e-03,
          3.74722481e-02, 6.16262555e-02, 0., 0., 0., 0., 2.53691748e-02,
          4.34786780e-04, 2.53691748e-02, 1.35345822e-02, 2.30404604e-02,
          -2.80199517e-02, 1.11862056e-01, 5.37774600e-02,
          2.31209095e-03, -7.29191396e-03, 3.91353108e-03,
          1.06221093e-02, 0., 0., 0., 0., 6.76017068e-03,
          -1.14772399e-03, 6.76017068e-03, 5.70578454e-03,
          4.74476144e-02, 2.35635657e-02, 8.33253562e-02, 5.16191758e-02,
          -1.03225140e-02, 6.18182216e-03, 1.03225140e-02,
          6.18182216e-03, 0., 0., 0., 0., 1.13445885e-01, 5.18242046e-02,
          1.13445885e-01, 5.34929968e-02, 3.22852135e-01, 3.91516462e-02,
          5.19443631e-01, 2.68038243e-01, -1.20943384e-02,
          9.28385463e-03, 1.84447281e-02, 2.31939349e-02, 0., 0., 0., 0.,
          1.21535920e-01, -5.14690615e-02, 1.21535920e-01,
          6.48162365e-02, 2.85275102e-01, -1.66876569e-01,
          5.16979039e-01, 3.03784162e-01, 3.41476407e-04, 3.60245537e-03,
          4.44583269e-03, 7.94633199e-03, 0., 0., 0., 0., 0., 0., 0., 0.,
          1.41290855e-02, -2.57376730e-02, 1.41290855e-02,
          2.57376730e-02, 2.18649325e-03, -1.21233761e-02,
          4.80976235e-03, 1.30980276e-02, 0., 0., 0., 0., 0., 0., 0., 0.,
          0., 0., 0., 0., 0., 0., 0., 0., 0., 0., 0., 0., 3.90378237e-02,
          3.90378237e-02, 3.90378237e-02, 3.90378237e-02, 6.86208680e-02,
          4.78275716e-01, 1.21689327e-01, 4.78275716e-01, 2.44958475e-02,
          4.30779196e-02, 3.81767824e-02, 5.11632748e-02, 0., 0., 0., 0.,
          1.01388305e-01, -3.57408188e-02, 1.01388305e-01,
          3.57408188e-02, 3.15889776e-01, -2.63461173e-01,
          4.05221254e-01, 3.90680850e-01, -1.43033871e-02,
          4.66588279e-03, 1.47433598e-02, 6.50257058e-03, 0., 0., 0., 0.,
          0., 0., 0., 0., 1.30802710e-02, -9.78629570e-03,
          1.30802710e-02, 9.78629570e-03, 4.64549102e-03,
          -6.06230972e-03, 7.30866240e-03, 9.02418047e-03, 0., 0., 0.,
          0., 0., 0., 0., 0., 0., 0., 0., 0., 0., 0., 0., 0., 0., 0., 0.,
          0., 8.15208405e-02, 5.39439730e-02, 8.15208405e-02,
          5.39439730e-02, 1.70723885e-01, 2.92162955e-01, 4.63512361e-01,
          3.74593586e-01, -1.27789564e-02, 5.69826029e-02,
          2.59721652e-02, 5.69826029e-02, 0., 0., 0., 0., 7.02206492e-02,
          -5.44624403e-02, 7.02206492e-02, 5.44624403e-02,
          3.44512314e-01, -1.23683155e-01, 4.73848641e-01,
          3.48947287e-01, -5.30311977e-03, -5.08735050e-03,
          7.65709626e-03, 1.25249494e-02, 0., 0., 0., 0., 0., 0., 0., 0.,
          4.91588600e-02, -2.05488540e-02, 6.17978945e-02,
          2.95503028e-02, -6.21799903e-04, -1.19720120e-03,
          1.04696874e-03, 2.50867358e-03, 0., 0., 0., 0., 0., 0., 0., 0.,
          0., 0., 0., 0., 0., 0., 0., 0., 0., 0., 0., 0., 7.61159062e-02,
          7.80208930e-02, 7.61159062e-02, 7.80208930e-02, 6.82789609e-02,
          4.26901907e-01, 9.95088443e-02, 4.29943860e-01, 2.04223674e-03,
          4.06420194e-02, 1.64503120e-02, 6.79584146e-02, 0., 0., 0., 0.,
          1.97770149e-01, -6.96016550e-02, 1.97770149e-01,
          7.22206607e-02, 2.12990403e-01, -4.18757163e-02,
          6.00256085e-01, 2.62327492e-01, 2.33377572e-02,
          -4.23035212e-03, 3.83312479e-02, 6.05708696e-02, 0., 0., 0.,
          0., 2.09717033e-03, -6.55680953e-04, 2.09717033e-03,
          6.55680953e-04, 2.24532150e-02, -3.37358229e-02,
          1.10578306e-01, 6.23629540e-02, 4.99630929e-04,
          -4.08233888e-03, 1.31664146e-03, 4.08233888e-03, 0., 0., 0.,
          0., 5.15335761e-02, -2.52086949e-03, 5.15335761e-02,
          1.27980728e-02, 3.47117566e-05, 2.28552222e-02, 3.21950503e-02,
          4.47109416e-02, 7.56133639e-04, 5.11007244e-03, 3.66154290e-03,
          7.51263276e-03, 0., 0., 0., 0., 4.97570544e-01,
          -4.75782482e-03, 4.97570544e-01, 9.09568146e-02,
          -2.38050222e-01, -2.67628849e-01, 3.62906456e-01,
          3.95570695e-01, 1.84060298e-02, -5.52164391e-02,
          2.77024545e-02, 7.60785341e-02, 0., 0., 0., 0., 5.16323857e-02,
          -5.16323857e-02, 5.16323857e-02, 5.16323857e-02,
          -4.58357856e-02, -1.51882172e-01, 4.58357856e-02,
          1.51882172e-01, 0., 0., 0., 0., 0., 0., 0., 0., 0., 0., 0., 0.,
          0., 0., 0., 0., 0., 0., 0., 0., 0., 0., 0., 0., 0., 0., 0., 0.,
          5.35255149e-02, 2.78904811e-02, 6.29744381e-02, 3.18268761e-02,
          -4.71068110e-04, -1.12791940e-06, 1.63648580e-03,
          7.07092229e-04, 0., 0., 0., 0., 1.34426102e-01, 4.68878709e-02,
          1.34426102e-01, 4.68878709e-02, 3.19572449e-01, 9.31972712e-02,
          5.48208416e-01, 3.15130234e-01, -4.84076282e-03,
          -6.27528131e-02, 3.31792831e-02, 8.11836123e-02, 0., 0., 0.,
          0., 5.13108596e-02, -5.13108596e-02, 5.13108596e-02,
          5.13108596e-02, 1.32231349e-02, -4.35245514e-01,
          1.97329819e-01, 4.35245514e-01, 4.87323530e-04,
          -1.81350880e-03, 1.81350880e-03, 1.81350880e-03, 0., 0., 0.,
          0., 0., 0., 0., 0., 0., 0., 0., 0., 0., 0., 0., 0., 0., 0., 0.,
          0., 0., 0., 0., 0., 0., 0., 0., 0., 3.92156537e-04,
          5.42466179e-04, 3.92156537e-04, 5.42466179e-04, 0., 0., 0., 0.,
          5.96129037e-02, 5.96129037e-02, 5.96129037e-02, 5.96129037e-02,
          8.94666091e-02, 4.10705239e-01, 1.37835622e-01, 4.18507814e-01,
          1.82670951e-02, 4.17469218e-02, 2.26306301e-02, 4.88451831e-02,
          0., 0., 0., 0., 1.37630999e-01, -5.58840632e-02,
          1.37630999e-01, 5.58840632e-02, 2.68196851e-01,
          -7.20608458e-02, 6.27068222e-01, 2.73392677e-01,
          -4.55165748e-03, -2.71582752e-02, 2.50355992e-02,
          7.57289305e-02, 0., 0., 0., 0., 0., 0., 0., 0., 1.11409826e-02,
          -6.59312084e-02, 6.95004761e-02, 6.59312084e-02, 0., 0., 0.,
          0., 0., 0., 0., 0., 4.29591388e-02, 7.74651626e-03,
          4.29591388e-02, 1.29860993e-02, -7.47111998e-03,
          5.85233159e-02, 1.37850530e-02, 7.23237470e-02, 3.35776072e-04,
          6.45843893e-03, 2.18684203e-03, 7.64420442e-03, 0., 0., 0., 0.,
          4.88090634e-01, 7.72282598e-04, 4.88090634e-01, 8.83590281e-02,
          -1.67774498e-01, -2.64176667e-01, 3.87743205e-01,
          4.15985644e-01, -7.83887785e-03, -5.40572517e-02,
          1.91785805e-02, 6.89346641e-02, 0., 0., 0., 0., 6.18681423e-02,
          -6.18681423e-02, 6.18681423e-02, 6.18681423e-02,
          -5.69020621e-02, -1.60599872e-01, 5.69020621e-02,
          1.60599872e-01, 0., 0., 0., 0., 0., 0., 0., 0., 0., 0., 0., 0.,
          0., 0., 0., 0., 0., 0., 0., 0., 0., 0., 0., 0., 0., 0., 0., 0.,
          6.43340824e-03, 4.65617105e-02, 3.13334502e-02, 4.65617105e-02,
          0., 0., 0., 0., 0., 0., 0., 0., 4.78627943e-02, 3.71219069e-02,
          4.78627943e-02, 3.71219069e-02, 3.34910691e-01, 1.17308855e-01,
          6.08400345e-01, 2.75953084e-01, -4.59039547e-02,
          3.49779427e-02, 5.29478267e-02, 3.98544706e-02, 0., 0., 0., 0.,
          1.04566932e-01, -3.29617634e-02, 1.04566932e-01,
          3.88408713e-02, 2.82784909e-01, -2.15771079e-01,
          3.98198515e-01, 3.09867054e-01, -4.93207155e-03,
          1.41112255e-02, 2.12806389e-02, 2.48412266e-02, 0., 0., 0., 0.,
          0., 0., 0., 0., 3.93306417e-03, -4.67798626e-03,
          3.93306417e-03, 4.67798626e-03, 1.18932649e-02,
          -5.41785918e-03, 1.43671473e-02, 6.31740503e-03, 0., 0., 0.,
          0., 0., 0., 0., 0., 0., 0., 0., 0., 9.86697967e-04,
          2.35487777e-03, 1.11846859e-03, 2.35487777e-03, 0., 0., 0., 0.,
          7.01980218e-02, 7.01980218e-02, 7.01980218e-02, 7.01980218e-02,
          1.00540519e-01, 4.31359589e-01, 1.00540519e-01, 4.31359589e-01,
          3.40607353e-02, 3.60605605e-02, 4.79177162e-02, 3.92982736e-02,
          0., 0., 0., 0., 1.43880695e-01, -6.67396560e-02,
          1.43880695e-01, 6.67396560e-02, 2.18991622e-01,
          -2.08041310e-01, 5.50911844e-01, 3.60096008e-01,
          -2.56200135e-02, -4.70832251e-02, 2.70991027e-02,
          4.84838970e-02, 0., 0., 0., 0., 0., 0., 0., 0., 1.42643042e-03,
          -1.99845284e-02, 1.15570724e-02, 1.99845284e-02, 0., 0., 0.,
          0., 0., 0., 0., 0., 0., 0., 0., 0., 0., 0., 0., 0., 0., 0., 0.,
          0., 0., 0., 0., 0., 8.13425854e-02, 7.91709125e-02,
          8.13425854e-02, 7.91709125e-02, -3.73049453e-02,
          4.56798315e-01, 8.06234106e-02, 4.56798315e-01,
          -8.21645651e-03, 8.21645651e-03, 8.21645651e-03,
          8.21645651e-03, 0., 0., 0., 0., 1.94401339e-01,
          -5.74950092e-02, 1.94401339e-01, 9.32253301e-02,
          2.20681787e-01, -4.13094051e-02, 4.78554606e-01,
          4.01664734e-01, -8.07813779e-02, -1.00180099e-03,
          8.07813779e-02, 1.61071513e-02, 0., 0., 0., 0., 2.70413347e-02,
          -4.65870881e-03, 2.70413347e-02, 5.65950852e-03,
          1.84720829e-02, -1.47420084e-02, 6.35652170e-02,
          3.02798767e-02, -4.86313738e-03, 1.91237649e-03,
          4.86313738e-03, 2.87951669e-03, 0., 0., 0., 0., 1.92897003e-02,
          -6.05759351e-03, 1.92897003e-02, 8.57808162e-03,
          1.96063668e-02, -1.44303357e-02, 6.70220926e-02,
          2.54745875e-02, -1.58823538e-03, -5.29663695e-04,
          1.58823538e-03, 9.73836810e-04, 0., 0., 0., 0., 2.11817920e-01,
          4.92695086e-02, 2.11817920e-01, 4.92695086e-02, 4.78409939e-02,
          1.30129814e-01, 5.56485713e-01, 2.98836112e-01,
          -1.83053862e-03, -4.06353531e-04, 1.83053862e-03,
          1.29041274e-03, 0., 0., 0., 0., 5.92636093e-02,
          -5.92636093e-02, 5.92636093e-02, 5.92636093e-02,
          2.27659997e-02, -4.65081185e-01, 1.71301499e-01,
          4.69462365e-01, 0., 0., 0., 0., 0., 0., 0., 0., 0., 0., 0., 0.,
          0., 0., 0., 0., 0., 0., 0., 0., 0., 0., 0., 0., 0., 0., 0., 0.,
          0., 0., 0., 0., 0., 0., 0., 0., 0., 0., 0., 0., 6.56370148e-02,
          6.56370148e-02, 6.56370148e-02, 6.56370148e-02,
          -3.92788276e-03, 4.91122574e-01, 9.77654904e-02,
          4.91122574e-01, -2.58682499e-04, 2.58682499e-04,
          2.58682499e-04, 2.58682499e-04, 0., 0., 0., 0., 1.28394619e-01,
          -6.27576038e-02, 1.28394619e-01, 6.27576038e-02,
          1.87336415e-01, -2.09177732e-01, 5.18964589e-01,
          3.05069476e-01, -3.29786427e-02, 1.63321123e-02,
          3.29786427e-02, 1.63321123e-02, 0., 0., 0., 0., 0., 0., 0., 0.,
          4.62202057e-02, -2.64487360e-02, 4.73213606e-02,
          2.84865629e-02, -5.62441163e-03, 3.45735461e-03,
          6.23096991e-03, 4.85794200e-03, 0., 0., 0., 0., 0., 0., 0., 0.,
          0., 0., 0., 0., 0., 0., 0., 0., 0., 0., 0., 0., 8.83549377e-02,
          1.29006326e-01, 8.83549377e-02, 1.29006326e-01,
          -6.01696447e-02, 4.29128885e-01, 7.87878856e-02,
          4.29128885e-01, 0., 0., 0., 0., 0., 0., 0., 0., 2.43238449e-01,
          -1.13759533e-01, 2.43238449e-01, 1.44622311e-01,
          -4.66272682e-02, -9.24049392e-02, 5.91842830e-01,
          2.23866165e-01, -6.82214799e-04, 6.82214799e-04,
          6.82214799e-04, 6.82214799e-04, 0., 0., 0., 0., 0., 0., 0., 0.,
          4.36288267e-02, -1.46324728e-02, 8.24008361e-02,
          2.63172872e-02, -5.70372446e-03, 1.04694534e-03,
          5.70372446e-03, 2.97612185e-03, 0., 0., 0., 0., 2.06990484e-02,
          7.74368644e-03, 2.06990484e-02, 7.74368644e-03, 2.74137943e-03,
          2.98296846e-02, 7.52805546e-02, 4.93483134e-02, 0., 0., 0., 0.,
          0., 0., 0., 0., 2.03847826e-01, 3.61423045e-02, 2.03847826e-01,
          7.62741044e-02, -3.80697325e-02, 6.52481019e-02,
          6.90362036e-01, 2.53965110e-01, 0., 0., 0., 0., 0., 0., 0., 0.,
          6.23694845e-02, -6.23694845e-02, 6.23694845e-02,
          6.23694845e-02, -1.70371756e-02, -3.76121491e-01,
          2.18558013e-01, 3.84580195e-01, 0., 0., 0., 0., 0., 0., 0., 0.,
          0., 0., 0., 0., 0., 0., 0., 0., 0., 0., 0., 0. ]
      - [ 0., 0., 0., 0., 0., 0., 0., 0., 0., 0., 0., 0., 0., 0., 0., 0.,
          0., 0., 0., 0., 5.61804026e-02, 1.66740537e-01, 5.61804026e-02,
          1.66740537e-01, 3.73881832e-02, 7.06349015e-02, 1.60035834e-01,
          9.20587704e-02, 6.20745216e-03, 4.55776826e-02, 2.89208703e-02,
          6.77217543e-02, 0., 0., 0., 0., 4.39800113e-01,
          -1.12844899e-01, 4.39800113e-01, 1.37748241e-01,
          -3.10745448e-01, -6.00782107e-04, 5.85778415e-01,
          1.72737867e-01, 7.23961648e-03, -1.95507463e-02,
          2.71060336e-02, 2.55037993e-02, 0., 0., 0., 0.,
          -1.53086876e-05, -3.33657488e-04, 3.33657488e-04,
          3.33657488e-04, 4.22361336e-04, -4.13498346e-04,
          4.22361336e-04, 4.22361336e-04, 8.31842888e-03,
          -2.35480329e-04, 8.64947028e-03, 3.34688229e-03,
          8.70560296e-04, -2.58372352e-03, 1.99866248e-03,
          2.61346647e-03, 1.57254059e-02, -1.56828426e-02,
          2.20197644e-02, 1.61658507e-02, 1.74834430e-02,
          -1.49130565e-03, 3.67037840e-02, 1.84869654e-02,
          -5.02876192e-03, 6.11439114e-03, 5.02876192e-03,
          6.11439114e-03, 0., 0., 0., 0., 1.36207104e-01, 2.57681776e-02,
          1.36207104e-01, 5.00550047e-02, 2.80043215e-01, 3.60004380e-02,
          6.42187238e-01, 4.36170518e-01, -4.97091524e-02,
          1.76335517e-02, 5.69403917e-02, 3.29159126e-02, 0., 0., 0., 0.,
          2.15087205e-01, -2.34415755e-02, 2.15087205e-01,
          4.67114821e-02, 1.09714255e-01, -8.25541615e-02,
          3.61719787e-01, 1.12827159e-01, -1.38753559e-02,
