%YAML:1.0
opencv_ml_svm:
   format: 3
   svmType: ONE_CLASS
   kernel:
      type: RBF
      gamma: 1.0000000000000001e-01
   nu: 1.0000000000000001e-01
   term_criteria: { iterations:500 }
   var_count: 960
   class_count: 1
   sv_total: 23
   support_vectors:
      - [ 1.75685820e-03, 2.16278611e-04, 1.83069310e-03, 6.45442808e-04,
          2.90868920e-03, 1.23600727e-02, 7.56703736e-03, 1.23600727e-02,
          -6.31480757e-03, 1.14199258e-02, 8.15425441e-03,
          1.21001750e-02, 0., 0., 0., 0., 4.37653027e-02,
          -2.33983416e-02, 4.42955270e-02, 2.43167505e-02,
          1.77199796e-01, 1.76235899e-01, 1.77199796e-01, 1.83518186e-01,
          -7.86872357e-02, 3.07454437e-01, 9.61288512e-02,
          3.07454437e-01, -2.20246930e-02, 3.12127192e-02,
          2.20246930e-02, 3.12127192e-02, 1.25298500e-01,
          -9.70384032e-02, 1.25298500e-01, 9.70384032e-02,
          4.94578332e-01, -1.20347604e-01, 4.94578332e-01,
          1.64129198e-01, 1.17251999e-03, 1.09338142e-01, 1.03617050e-01,
          1.16262808e-01, -3.82604040e-02, 2.19976772e-02,
          3.82604040e-02, 2.19976772e-02, 3.25481370e-02,
          -9.93941352e-03, 3.25481370e-02, 9.93941352e-03,
          1.28942296e-01, -3.35528911e-03, 1.28942296e-01,
          1.34647144e-02, 1.03831105e-02, 2.98032574e-02, 2.33428087e-02,
          2.98032574e-02, -4.89676557e-03, 5.65463817e-03,
          4.89676557e-03, 5.65463817e-03, -5.63166011e-03,
          -7.69132562e-03, 5.63166011e-03, 7.69132562e-03,
          -3.01993582e-02, -6.09220527e-02, 3.01993582e-02,
          6.09220527e-02, -1.11665074e-02, -3.87433022e-02,
          1.11665074e-02, 3.87433022e-02, -3.33704607e-04,
          -1.42699550e-03, 6.29900431e-04, 1.42699550e-03,
          -5.98431639e-02, -5.35418876e-02, 5.98431639e-02,
          5.35418876e-02, -1.30757272e-01, -3.87068778e-01,
          1.44181445e-01, 3.87068778e-01, 1.80456892e-01,
          -2.00478792e-01, 1.81547850e-01, 2.01569721e-01,
          2.05895174e-02, 4.63905744e-03, 2.06733756e-02, 7.96471629e-03,
          -6.48758784e-02, 1.17072428e-03, 6.48758784e-02,
          2.07312349e-02, -3.04848831e-02, 9.37253311e-02,
          1.51098222e-01, 1.93439335e-01, 3.75017315e-01, 2.04276189e-01,
          3.75017315e-01, 2.15207323e-01, 3.59200463e-02, 4.02929634e-02,
          3.59803364e-02, 4.02929634e-02, -6.12025289e-03,
          9.44081135e-03, 6.12025289e-03, 9.44081135e-03, 9.87415295e-03,
          8.92050341e-02, 1.84592530e-02, 8.92050341e-02, 5.02386391e-02,
          8.30603242e-02, 5.02386391e-02, 8.30603242e-02, 3.90825840e-03,
          8.93267151e-03, 4.02713940e-03, 8.93267151e-03,
          -6.56298726e-05, 2.26181559e-03, 2.70334480e-04,
          2.26181559e-03, 1.29664484e-02, 3.16530913e-02, 1.38136949e-02,
          3.16530913e-02, 4.84991595e-02, 3.64758521e-02, 4.84991595e-02,
          3.64758521e-02, 8.23641475e-03, 3.13237193e-03, 8.23641475e-03,
          3.13315098e-03, 6.36345241e-03, 8.22221022e-03, 6.36345241e-03,
          8.22221022e-03, 1.84479505e-01, 1.04985423e-01, 1.84479505e-01,
          1.04985423e-01, 3.46128553e-01, 1.69389486e-01, 3.46128553e-01,
          1.69389486e-01, 4.43620756e-02, 2.78384741e-02, 4.43620756e-02,
          2.78384741e-02, -1.20141800e-03, -9.13102366e-03,
          7.22384080e-03, 9.72133689e-03, 1.98007911e-01,
          -1.86464027e-01, 1.99454218e-01, 1.86464027e-01,
          4.25439864e-01, -1.59737065e-01, 4.25439864e-01,
          1.73184440e-01, 5.02817780e-02, -4.53181611e-03,
          5.02817780e-02, 1.26596373e-02, -5.03721600e-03,
          -2.07226351e-03, 5.03721600e-03, 2.34923162e-03,
          7.41342781e-03, -5.31884432e-02, 2.05042101e-02,
          5.31884432e-02, 7.56131411e-02, -6.26173690e-02,
          7.56131411e-02, 6.26173690e-02, 1.15557211e-02,
          -5.44437999e-03, 1.15557211e-02, 5.44437999e-03,
          2.46050139e-03, -1.66756264e-03, 2.46050139e-03,
          1.69854762e-03, 3.21105756e-02, -2.38216873e-02,
          3.21105756e-02, 2.38216873e-02, 2.26425622e-02,
          -2.10505016e-02, 2.26425622e-02, 2.10505016e-02,
          3.02916067e-03, -1.58361602e-03, 3.02916067e-03,
          1.59662811e-03, -2.04227120e-03, -1.44327786e-02,
          4.88219364e-03, 1.44533738e-02, 2.14414060e-01,
          -1.57867461e-01, 2.14414060e-01, 1.57867461e-01,
          2.87304342e-01, -3.88146825e-02, 2.87304342e-01,
          7.88175985e-02, 4.20664698e-02, 2.36475803e-02, 4.20664698e-02,
          2.39712875e-02, -1.11776348e-02, 1.61650614e-03,
          1.11776348e-02, 5.52214077e-03, 2.65267015e-01, 3.08222417e-02,
          2.65267015e-01, 4.89410236e-02, 4.76704299e-01, 1.45249352e-01,
          4.76704299e-01, 1.45249352e-01, 5.92734702e-02, 4.11621146e-02,
          5.92734702e-02, 4.11621146e-02, -1.43490778e-03,
          3.12211318e-03, 1.49066688e-03, 3.12211318e-03, 4.74191010e-02,
          3.22757699e-02, 4.74191010e-02, 3.22757699e-02, 8.37498829e-02,
          3.78049575e-02, 8.37498829e-02, 3.78049575e-02, 8.19221046e-03,
          4.68410831e-03, 8.19221046e-03, 4.68410831e-03, 4.66947677e-03,
          -1.56398641e-03, 4.66947677e-03, 1.65929727e-03,
          3.69521417e-02, -2.59352122e-02, 3.69521417e-02,
          2.59352122e-02, 4.01427299e-02, -1.79903340e-02,
          4.01427299e-02, 1.79903340e-02, 2.73128529e-03,
          -2.54867598e-04, 2.74129561e-03, 5.94854821e-04,
          1.75947156e-02, -1.59552786e-02, 1.75947156e-02,
          1.59552786e-02, 2.50861228e-01, -1.17962286e-01,
          2.50861228e-01, 1.17962286e-01, 3.66733044e-01,
          -6.42421916e-02, 3.66733044e-01, 6.54912964e-02,
          3.53352018e-02, 3.42536042e-03, 3.53352018e-02, 4.92617814e-03,
          2.82019973e-02, 1.85404555e-03, 2.82019973e-02, 1.18078226e-02,
          2.90713906e-01, 1.35201454e-01, 2.90713906e-01, 1.36570692e-01,
          3.90200168e-01, 1.17572896e-01, 3.90200168e-01, 1.17572896e-01,
          4.22682613e-02, 1.22162160e-02, 4.23122048e-02, 1.22162160e-02,
          7.85649661e-03, 5.85516542e-03, 7.85649661e-03, 5.85516542e-03,
          4.21806835e-02, 4.81345765e-02, 4.21806835e-02, 4.81345765e-02,
          4.07897644e-02, 2.96424497e-02, 4.07897644e-02, 2.96424497e-02,
          3.77252745e-03, 1.40920840e-03, 4.04435955e-03, 1.61183684e-03,
          2.56392937e-02, 1.30724665e-02, 2.56392937e-02, 1.30724665e-02,
          1.09652512e-01, 5.79680540e-02, 1.09652512e-01, 5.79680540e-02,
          -1.74564030e-03, 4.16498631e-03, 2.67367810e-02,
          1.41986851e-02, -5.02076745e-03, -2.73239380e-03,
          5.02076745e-03, 2.73239380e-03, 1.55742079e-01, 4.45782542e-02,
          1.55742079e-01, 4.45782542e-02, 4.64438081e-01, 7.33784139e-02,
          4.64438081e-01, 1.44678891e-01, -1.97274849e-01,
          -5.92088848e-02, 2.04160884e-01, 7.04601705e-02,
          -2.34521721e-02, 1.53288979e-03, 2.34521721e-02,
          4.12007887e-03, 1.25174761e-01, -4.61075688e-03,
          1.25174761e-01, 1.12768421e-02, 3.02611649e-01,
          -2.15671569e-01, 3.02611649e-01, 2.15671569e-01,
          -7.67923146e-02, -1.34731919e-01, 8.85337442e-02,
          1.34731919e-01, -1.21177183e-02, 4.27912548e-03,
          1.21177183e-02, 4.27912548e-03, 1.36035793e-02,
          -4.57385043e-03, 1.36035793e-02, 4.57385043e-03,
          4.69032153e-02, -3.56482118e-02, 4.69032153e-02,
          3.56482118e-02, 1.65691189e-02, -1.07964789e-02,
          1.65691189e-02, 1.11658620e-02, -4.41597047e-04,
          2.65709998e-04, 5.18051442e-04, 2.65709998e-04,
          -4.02271893e-04, 1.26216351e-03, 6.56670425e-04,
          1.26216351e-03, 5.18062301e-02, -3.57001081e-05,
          5.18062301e-02, 1.13978041e-02, 7.55030364e-02,
          -1.31207993e-02, 7.55030364e-02, 2.29757186e-02,
          7.97192194e-03, -3.68835195e-03, 7.97192194e-03,
          5.07170055e-03, -4.57782531e-03, 1.27159460e-02,
          5.94240660e-03, 1.49610061e-02, 2.55364090e-01,
          -1.54681336e-02, 2.57577837e-01, 7.71000311e-02,
          3.88199240e-01, -1.41820803e-01, 3.88199240e-01,
          1.41820803e-01, 4.30648215e-02, -3.69953439e-02,
          4.30648215e-02, 3.69953439e-02, -2.75100628e-03,
          6.19957633e-02, 2.92023900e-03, 6.19957633e-02, 7.91083500e-02,
          3.75520557e-01, 8.74489471e-02, 3.75520557e-01, 2.43746549e-01,
          1.83139965e-01, 2.43746549e-01, 1.83139965e-01, 3.17205749e-02,
          8.78453162e-03, 3.17205749e-02, 1.32281650e-02, 5.43698203e-04,
          2.23092758e-03, 5.94989397e-04, 2.23092758e-03, 4.76148864e-03,
          2.63767093e-02, 6.03747740e-03, 2.63767093e-02, 1.83035396e-02,
          3.17704715e-02, 1.83035396e-02, 3.17704715e-02, 2.30519800e-03,
          1.92318589e-03, 2.30519800e-03, 1.99514721e-03, 3.11386143e-03,
          -9.86080850e-04, 3.11386143e-03, 2.80369492e-03,
          6.37620166e-02, -5.78831472e-02, 6.37620166e-02,
          5.78831472e-02, 8.82756934e-02, -8.30450058e-02,
          8.82756934e-02, 8.30450058e-02, 1.24467527e-02,
          -9.57267638e-03, 1.24467527e-02, 9.57267638e-03,
          -7.64640467e-03, 4.92808968e-02, 8.41321051e-03,
          4.92808968e-02, 1.14119694e-01, 1.16728514e-01, 1.39923602e-01,
          1.58627972e-01, 4.55610871e-01, -1.64798677e-01,
          4.55610871e-01, 1.74180120e-01, 1.01216175e-01,
          -4.27678190e-02, 1.01216175e-01, 4.27678190e-02,
          -3.84408655e-03, 4.77814898e-02, 1.02029014e-02,
          4.77814898e-02, -1.18759334e-01, 3.19553107e-01,
          1.23450078e-01, 3.19553107e-01, 2.15130404e-01, 1.04841143e-01,
          2.23451868e-01, 1.27420351e-01, 8.76486078e-02,
          -1.72040481e-02, 8.76486078e-02, 1.72040481e-02,
          1.49261288e-03, 4.79028141e-03, 1.51159894e-03, 4.79028141e-03,
          -3.02000735e-02, 2.94646155e-02, 3.02000735e-02,
          2.94646155e-02, -3.73800658e-03, 6.43557217e-03,
          2.08096988e-02, 1.25326086e-02, 8.81533138e-03,
          -3.11573944e-03, 8.81533138e-03, 3.11573944e-03,
          2.40002316e-03, -1.44651253e-03, 2.66225450e-03,
          1.50864827e-03, 4.08662111e-02, -5.62485540e-03,
          4.08662111e-02, 6.66526239e-03, -1.34146889e-03,
          2.90820990e-05, 1.61974598e-03, 6.33404299e-04, 1.49797024e-05,
          -1.40986260e-04, 2.44245475e-05, 1.40986260e-04,
          1.33406846e-02, -1.66207980e-02, 2.38055326e-02,
          1.66207980e-02, 4.13459808e-01, 1.06518180e-03, 4.13459808e-01,
          5.04984781e-02, -6.49228320e-02, 3.11113242e-02,
          6.49228320e-02, 3.11113242e-02, -8.21640715e-04,
          -9.02281725e-04, 8.21640715e-04, 9.02281725e-04,
          9.05089919e-03, -9.07195080e-03, 2.67095286e-02,
          9.07195080e-03, 5.46968818e-01, -3.35139707e-02,
          5.46968818e-01, 3.73062380e-02, -1.02439024e-01,
          3.78027447e-02, 1.02439024e-01, 3.78027447e-02,
          -6.38372963e-03, -2.18200544e-03, 6.38372963e-03,
          3.22634517e-03, 1.39741926e-03, 2.17309702e-04, 2.78021535e-03,
          5.15383435e-04, 8.44833180e-02, -1.33287441e-03,
          8.44833180e-02, 2.14147451e-03, -1.07791042e-02,
          3.52057302e-03, 1.54996021e-02, 3.68767278e-03,
          -1.71752763e-03, 2.52642640e-04, 1.71752763e-03,
          2.93157209e-04, 2.32225913e-03, -6.34261267e-03,
          2.48371647e-03, 6.34261267e-03, 4.84237336e-02,
          -5.49193844e-02, 4.84237336e-02, 5.49193844e-02,
          4.89835329e-02, -4.73307483e-02, 4.89835329e-02,
          4.73307483e-02, 1.91813638e-03, -4.17236611e-03,
          2.04366585e-03, 4.17236611e-03, -3.10228998e-03,
          1.04333591e-02, 1.26730548e-02, 1.92396138e-02, 2.62243301e-01,
          -5.29485717e-02, 2.62243301e-01, 1.37654811e-01,
          3.67128789e-01, -1.43017426e-01, 3.67128789e-01,
          1.52015463e-01, 3.15359049e-02, -2.04794127e-02,
          3.15556973e-02, 2.04794127e-02, -8.31218809e-03,
          6.68610632e-02, 8.31218809e-03, 6.68610632e-02, 1.07480258e-01,
          3.89776945e-01, 1.10301197e-01, 3.89776945e-01, 2.16728061e-01,
          1.57181025e-01, 2.16728061e-01, 1.61428764e-01, 3.57029513e-02,
          3.47539457e-03, 3.57029513e-02, 6.51811762e-03, 6.02216751e-04,
          1.27862543e-02, 6.02216751e-04, 1.27862543e-02,
          -1.08897462e-02, 8.30332637e-02, 1.08897462e-02,
          8.30332637e-02, -4.40928573e-03, 5.22480831e-02,
          1.08622443e-02, 5.22480831e-02, 3.62941204e-03, 3.35055566e-03,
          3.62941204e-03, 3.35055566e-03, 2.00584643e-02, 8.32715724e-03,
          2.00584643e-02, 8.32715724e-03, 1.12732932e-01, 3.65652293e-02,
          1.12732932e-01, 3.65652293e-02, 1.57106686e-02, 1.42111899e-02,
          2.19419859e-02, 1.50045827e-02, -3.10301851e-03,
          -1.52630813e-03, 3.10301851e-03, 1.52630813e-03,
          1.09668836e-01, 6.40777498e-02, 1.09668836e-01, 6.40777498e-02,
          5.33453166e-01, 9.02797133e-02, 5.33453166e-01, 1.49306506e-01,
          1.01565511e-03, -7.15485290e-02, 9.96647775e-02,
          8.79373327e-02, -1.67942364e-02, -3.98459937e-03,
          1.70680769e-02, 8.45151488e-03, 5.49654365e-02, 3.77685502e-02,
          5.49654365e-02, 3.77685502e-02, 2.15754479e-01,
          -1.17339857e-01, 2.15754479e-01, 1.37748569e-01,
          -1.37083223e-02, -2.96667367e-01, 3.58172916e-02,
          2.96667367e-01, 4.92851669e-03, -2.68806443e-02,
          7.63311516e-03, 2.68806443e-02, 4.62919852e-04, 5.48584433e-03,
          1.35327945e-03, 5.48584433e-03, -5.53361932e-03,
          2.69644149e-03, 7.10552186e-03, 8.31741001e-03,
          -4.78255935e-03, -1.39234662e-02, 6.87175244e-03,
          1.45055493e-02, 3.32066417e-03, -1.92182558e-03,
          3.32066417e-03, 2.23479210e-03, 9.28782858e-03,
          -2.87256553e-03, 9.28782858e-03, 2.87256553e-03,
          4.63701747e-02, 2.74412055e-02, 4.63701747e-02, 2.74412055e-02,
          -2.94711497e-02, 3.77896316e-02, 2.94711497e-02,
          3.77896316e-02, -5.77304885e-03, 2.61309976e-03,
          5.84818656e-03, 2.71262880e-03, 1.04254790e-01,
          -3.28692468e-03, 1.04254790e-01, 1.30499369e-02,
          4.65957701e-01, 1.60916001e-02, 4.65957701e-01, 6.06782809e-02,
          -1.57247260e-01, 6.95554167e-02, 1.98823571e-01,
          1.11131728e-01, -4.12192754e-02, 2.74617076e-02,
          4.12192754e-02, 2.74617076e-02, 6.94606453e-02, 5.54230139e-02,
          6.94606453e-02, 5.54230139e-02, 3.34596485e-01,
          -4.06243764e-02, 3.41344386e-01, 1.24816395e-01,
          -1.42012492e-01, -2.54640341e-01, 1.42012492e-01,
          2.54640341e-01, -5.89090120e-03, -1.54121788e-02,
          1.35192759e-02, 2.09503863e-02, -1.74594880e-03,
          1.84837636e-02, 2.28364416e-03, 1.84837636e-02,
          -2.29396410e-02, 5.08935377e-02, 2.62481198e-02,
          5.08935377e-02, -3.84704880e-02, -9.13951953e-04,
          3.84704880e-02, 1.99527778e-02, 1.92242872e-03,
          -3.33283376e-03, 2.31015589e-03, 3.53423716e-03,
          -8.11313745e-04, 3.27576825e-04, 8.11313745e-04,
          4.49319545e-04, 2.12510079e-02, 7.32008647e-03, 2.18593609e-02,
          7.42495945e-03, 5.58274984e-02, 2.87484769e-02, 5.58274984e-02,
          2.87484769e-02, 1.46520988e-03, 4.90384595e-03, 1.96543499e-03,
          4.90384595e-03, 5.19361487e-03, -8.26214347e-03,
          5.96505217e-03, 8.26214347e-03, 9.37725604e-02,
          -1.46258380e-02, 9.37725604e-02, 2.61158496e-02,
          4.29949075e-01, -1.02292351e-01, 4.29949075e-01,
          1.05653062e-01, 1.58371665e-02, -1.00685367e-02,
          1.87165160e-02, 1.05847279e-02, 2.37272177e-02,
          -1.73306058e-03, 2.37272177e-02, 9.91569273e-03,
          2.22559184e-01, 2.93032587e-01, 2.22559184e-01, 3.03814769e-01,
          2.48781860e-01, 2.87916601e-01, 2.49956042e-01, 2.89387226e-01,
          1.29545461e-02, -2.87820422e-03, 1.42018469e-02,
          8.65156855e-03, 6.69992156e-03, -5.47264877e-04,
          6.69992156e-03, 6.59402984e-04, 6.78025261e-02, 8.88568908e-03,
          6.78025261e-02, 2.10989509e-02, 6.38631929e-04, 1.16532408e-02,
          1.06502520e-02, 1.39657632e-02, -9.93249356e-04,
          8.03186151e-04, 9.93249356e-04, 8.03186151e-04, 1.68517174e-04,
          -1.34384260e-04, 6.31148694e-04, 4.35647933e-04,
          2.86660679e-02, -1.52677891e-03, 2.86660679e-02,
          3.76220257e-03, 5.49776107e-02, 2.03505568e-02, 5.49776107e-02,
          2.03505568e-02, 1.21735863e-03, 3.65466019e-03, 1.55945262e-03,
          3.65466019e-03, -4.73625929e-04, 6.34949328e-03,
          1.74716883e-03, 6.34949328e-03, 1.29212692e-01,
          -8.26948555e-04, 1.29212692e-01, 3.56163979e-02,
          4.19057697e-01, -1.05622962e-01, 4.19057697e-01,
          1.12937361e-01, 1.27265193e-02, -9.38421115e-03,
          1.47227598e-02, 9.79091134e-03, 1.01466812e-02, 2.78874263e-02,
          1.05841719e-02, 2.78874263e-02, 1.56413242e-01, 3.61456752e-01,
          1.56413242e-01, 3.61456752e-01, 2.40997553e-01, 2.70149320e-01,
          2.41956696e-01, 2.72551924e-01, 1.13744959e-02,
          -1.90651964e-03, 1.21551538e-02, 7.54518621e-03,
          3.41133866e-03, 8.57108273e-03, 3.42351873e-03, 8.59730318e-03,
          1.70020051e-02, 4.24906500e-02, 1.70502942e-02, 4.27499227e-02,
          -1.44638203e-03, 1.23975370e-02, 7.56787183e-03,
          1.30701726e-02, -8.92878394e-04, 5.63473790e-04,
          8.92878394e-04, 5.70494216e-04, -2.80033192e-03,
          -5.64037450e-03, 2.80033192e-03, 5.64037450e-03,
          -7.68342463e-04, -4.30399664e-02, 9.91126895e-03,
          4.30399664e-02, -2.20343769e-02, -1.32249203e-03,
          2.20343769e-02, 1.05227418e-02, -6.89397973e-04,
          6.81091798e-04, 7.62958836e-04, 7.62958836e-04,
          -5.52896596e-02, -4.40296829e-02, 5.52896596e-02,
          4.40296829e-02, 7.96635598e-02, -4.04000163e-01,
          1.08172908e-01, 4.04000163e-01, 1.99059963e-01,
          -2.33884424e-01, 2.05544934e-01, 2.39773080e-01,
          -1.84390729e-03, 7.65509438e-03, 6.14098553e-03,
          1.00087309e-02, -3.07991467e-02, -3.89814042e-02,
          3.23438272e-02, 3.89814042e-02, 1.00441910e-01,
          -4.67969216e-02, 1.22615263e-01, 7.80730993e-02,
          4.31139320e-01, 1.05385974e-01, 4.31139320e-01, 1.17991649e-01,
          -6.37373980e-03, 9.12641734e-03, 9.64583736e-03,
          9.12641734e-03, 7.76035595e-04, -1.88845501e-03,
          1.21190888e-03, 2.15584389e-03, 3.36816162e-02,
          -2.50577251e-03, 3.36816162e-02, 5.85675938e-03,
          6.05775639e-02, -2.32211817e-02, 6.05775639e-02,
          2.32211817e-02, -1.58534007e-04, -3.20212590e-03,
          1.03303290e-03, 3.46571114e-03 ]
      - [ 3.14576930e-04, -1.17800413e-02, 1.11673574e-03,
          1.17800413e-02, 2.72914451e-02, -6.43073246e-02,
          2.75710709e-02, 6.43073246e-02, 1.26831541e-02,
          -1.79861896e-02, 1.43406950e-02, 1.85107403e-02,
          2.79485219e-04, 1.12662667e-04, 3.32575932e-04, 1.12662667e-04,
          -1.56109026e-02, -1.86091624e-02, 1.63306724e-02,
          1.99258700e-02, 3.09852481e-01, -1.86267853e-01,
          3.09852481e-01, 1.97375253e-01, 3.33038330e-01,
          -1.14401877e-01, 3.33038330e-01, 1.14401877e-01,
          5.00206091e-03, -1.86538801e-03, 5.44543378e-03,
          1.90026918e-03, -9.03752749e-04, 1.26146423e-02,
          9.41166095e-03, 1.63281579e-02, 2.73047566e-01, 1.54553920e-01,
          2.73047566e-01, 1.54553920e-01, 3.54272753e-01, 9.06851441e-02,
          3.54272753e-01, 9.06851441e-02, 4.50669229e-03, 1.11169938e-03,
          4.92018647e-03, 1.64183148e-03, 2.52844438e-05, 9.01192892e-03,
          1.62200455e-03, 9.01192892e-03, 3.31889652e-02, 4.99557480e-02,
          3.31889652e-02, 4.99557480e-02, 2.21958682e-02, 1.79579593e-02,
          2.24282183e-02, 1.81903057e-02, -5.07714576e-04,
          -3.39055492e-04, 5.07714576e-04, 4.26431419e-04,
          -8.14480428e-03, -1.31142316e-02, 8.17571767e-03,
          1.31142316e-02, 9.88005428e-04, -5.60606867e-02,
          1.67379044e-02, 5.60606867e-02, 4.40775491e-02,
          -4.93338741e-02, 4.40775491e-02, 4.93338741e-02,
          3.99865117e-03, -2.01802817e-03, 4.16858867e-03,
          2.55137798e-03, -4.49013337e-02, -1.39900008e-02,
          4.49013337e-02, 1.66343804e-02, 2.45914254e-02,
          -1.80994079e-01, 4.96412516e-02, 1.82066038e-01,
          3.72783065e-01, -1.71395496e-01, 3.72783065e-01,
          1.71395496e-01, 6.54230341e-02, -5.70691330e-03,
          6.54230341e-02, 7.36343209e-03, -4.52316776e-02,
          3.26716676e-02, 4.52316776e-02, 3.26716676e-02,
          -3.87950465e-02, 1.88661367e-01, 6.98810145e-02,
          1.88661367e-01, 4.24943119e-01, 2.18399093e-01, 4.24943119e-01,
          2.18399093e-01, 5.89557625e-02, 2.99790525e-03, 5.90725541e-02,
          8.38284381e-03, -4.92830249e-03, 7.77472695e-03,
          4.92830249e-03, 7.77472695e-03, 3.43254273e-04, 7.02044368e-02,
          1.20044621e-02, 7.02044368e-02, 3.68994847e-02, 5.02188094e-02,
          3.68994847e-02, 5.02188094e-02, 2.04386981e-03, 5.01300674e-04,
          2.22278060e-03, 9.91328154e-04, 5.28074277e-04,
          -4.88883757e-04, 5.28074277e-04, 8.81530927e-04,
          1.96874840e-03, 9.83845070e-03, 6.38480112e-03, 1.03647374e-02,
          3.77107263e-02, 3.30402181e-02, 3.77107263e-02, 3.30402181e-02,
          2.54807388e-03, 5.14064962e-03, 2.83586676e-03, 5.14064962e-03,
          2.74939463e-02, -3.77538130e-02, 2.74939463e-02,
          3.77538130e-02, 2.86508024e-01, 6.37983531e-02, 2.86508024e-01,
          1.30909026e-01, 2.28548631e-01, 1.73760757e-01, 2.29723945e-01,
          1.77286759e-01, -6.40719058e-03, -3.51033825e-03,
          1.03704678e-02, 8.30385368e-03, 2.84983180e-02,
          -1.15347411e-02, 2.84983180e-02, 1.65559109e-02,
          5.07229924e-01, -1.46801561e-01, 5.07229924e-01,
          1.46801561e-01, 1.61090314e-01, -8.18763748e-02,
          1.68047622e-01, 8.18763748e-02, -7.48099014e-03,
          -5.65550104e-03, 7.48099014e-03, 5.84624801e-03,
          2.70261336e-03, 1.18738157e-03, 2.70261336e-03, 1.18738157e-03,
          6.55781105e-02, 3.19961412e-03, 6.55781105e-02, 9.66860354e-03,
          2.94991545e-02, -6.03043893e-03, 2.98308413e-02,
          7.22945668e-03, -5.96855592e-04, -1.68753590e-03,
          5.98967134e-04, 1.68753590e-03, 1.06432466e-02, 5.42594912e-03,
          1.08898645e-02, 5.92382206e-03, 2.93472800e-02, 5.91385253e-02,
          2.93472800e-02, 5.91385253e-02, 2.94512417e-02, 4.17590253e-02,
          4.11519520e-02, 4.17590253e-02, -2.65108831e-02,
          2.94298143e-03, 2.65108831e-02, 3.31758452e-03, 1.08091563e-01,
          8.41771998e-03, 1.08129166e-01, 1.42490640e-02, 2.74847806e-01,
          1.56618670e-01, 2.74847806e-01, 1.74398080e-01, 1.12208851e-01,
          2.45167285e-01, 1.60284460e-01, 2.45167285e-01,
          -1.20349236e-01, 9.12553594e-02, 1.20349236e-01,
          9.12553594e-02, 6.75303712e-02, 1.71690732e-02, 6.75679892e-02,
          2.24654134e-02, 3.92510176e-01, -9.57850516e-02,
          3.92510176e-01, 1.32689625e-01, 2.88104117e-01, 6.27957880e-02,
          2.88104117e-01, 9.59079191e-02, -6.47077560e-02,
          1.68529470e-02, 6.47077560e-02, 3.90287191e-02, 1.76577456e-03,
          3.48413642e-03, 1.86918443e-03, 3.79542680e-03, 5.18933460e-02,
          -2.28776108e-03, 5.18933460e-02, 9.72301606e-03,
          5.97789995e-02, 2.57520657e-03, 7.07539991e-02, 1.50877377e-02,
          -2.25341860e-02, -1.00716501e-02, 2.25341860e-02,
          1.00716501e-02, 4.75500152e-03, -4.00593132e-03,
          4.75500152e-03, 4.00593132e-03, -2.17993408e-02,
          -5.35158254e-02, 2.33854037e-02, 5.35158254e-02,
          -7.73507543e-03, -4.20246683e-02, 1.37232132e-02,
          4.20246683e-02, -4.04108578e-04, -7.73344305e-04,
          1.52370567e-03, 1.21460063e-03, 8.91860016e-03,
          -8.18828270e-02, 1.18424827e-02, 8.18828270e-02,
          -5.91421910e-02, -4.72660154e-01, 1.01414256e-01,
          4.72660154e-01, 2.64180452e-01, -1.90147027e-01,
          2.68109173e-01, 1.90147027e-01, 2.03282908e-02,
          -1.08031696e-03, 2.20318213e-02, 6.06639311e-03,
          -3.45619023e-03, 3.26500125e-02, 9.73432511e-03,
          3.58476602e-02, 1.07377768e-01, 2.74371922e-01, 1.14890464e-01,
          2.74371922e-01, 2.22756490e-01, 8.90969932e-02, 2.27557078e-01,
          9.29777473e-02, 3.57715972e-02, -1.05300278e-03,
          3.58031169e-02, 5.16888499e-03, 1.93796051e-03,
          -1.91490795e-03, 1.93796051e-03, 2.72145309e-03,
          -2.99281022e-03, -1.99060235e-02, 9.03045200e-03,
          2.04014927e-02, 1.94296744e-02, -9.54926293e-03,
          1.94296744e-02, 9.69333015e-03, 5.07770479e-03,
          -9.06302070e-04, 5.14653325e-03, 9.51814931e-04,
          4.22159024e-03, -2.53077340e-03, 4.50605573e-03,
          3.47204041e-03, 6.84653036e-03, 1.81043781e-02, 1.32554425e-02,
          3.18625122e-02, -1.37711619e-03, 2.82276403e-02,
          1.78302247e-02, 2.98807863e-02, 7.81593192e-03, 3.33421747e-03,
          7.81593192e-03, 3.33421747e-03, 3.44917886e-02,
          -3.64488326e-02, 3.50084305e-02, 3.64488326e-02,
          1.33794010e-01, -2.61001408e-01, 1.36410445e-01,
          2.61001408e-01, 2.44033709e-01, -1.61867868e-02,
          2.46650174e-01, 1.08235776e-01, 4.84381281e-02, 1.48220230e-02,
          4.84381281e-02, 1.58696920e-02, 3.02331056e-02,
          -4.12441120e-02, 3.54073606e-02, 4.12441120e-02,
          3.02425861e-01, -1.04645893e-01, 3.02425861e-01,
          1.48104325e-01, 4.63240027e-01, 7.19180107e-02, 4.63240027e-01,
          9.30088386e-02, 2.40080208e-02, -3.56405711e-04,
          2.43143141e-02, 1.03823794e-02, 9.41384770e-03,
          -5.24405972e-04, 9.88668855e-03, 3.61969252e-03,
          6.95887953e-02, 3.42692770e-02, 6.95887953e-02, 3.42692770e-02,
          3.67884599e-02, -1.42994348e-03, 3.67884599e-02,
          1.38705997e-02, 5.55123761e-03, -2.33228807e-03,
          5.55123761e-03, 2.90056993e-03, -3.49833048e-04,
          -2.88019166e-03, 1.89890503e-03, 3.26171657e-03,
          1.40958074e-02, -2.83077210e-02, 1.40958074e-02,
          2.83077210e-02, 4.48106192e-02, -9.43462271e-03,
          4.48106192e-02, 9.50219296e-03, 2.46046484e-03,
          -2.62011238e-03, 2.46626907e-03, 2.62011238e-03,
          -4.33167890e-02, -2.21363585e-02, 4.33167890e-02,
          2.27663685e-02, 3.19090068e-01, -7.54453763e-02,
          3.24686110e-01, 1.16430447e-01, 2.93346941e-01, 5.94131313e-02,
          2.93346941e-01, 6.77508190e-02, 1.11003891e-02,
          -4.51685069e-03, 1.11003891e-02, 6.52655214e-03,
          -4.23445851e-02, -1.24833761e-02, 4.23445851e-02,
          1.59273352e-02, 4.75925118e-01, -3.08956392e-02,
          4.75925118e-01, 5.17662056e-02, 1.93003476e-01,
          -1.26646817e-01, 1.94684461e-01, 1.26646817e-01,
          1.48059456e-02, -2.97745634e-02, 1.50472941e-02,
          3.04210521e-02, -3.80513165e-03, 3.53844883e-03,
          3.83651676e-03, 3.69545026e-03, 3.07153892e-02,
          -8.79559666e-03, 3.21323164e-02, 2.13232450e-02,
          -1.09125639e-03, -6.48424998e-02, 1.74633637e-02,
          6.48424998e-02, -2.81679165e-03, -1.65919494e-02,
          2.81679165e-03, 1.65919494e-02, -4.77420818e-03,
          -2.33010622e-03, 5.63761452e-03, 2.89117196e-03,
          -5.13239689e-02, -2.32827328e-02, 5.13239689e-02,
          2.40719449e-02, 5.21279201e-02, -1.30399205e-02,
          5.21279201e-02, 1.81856863e-02, 6.79823430e-03, 1.32019201e-03,
          6.79823430e-03, 1.39851531e-03, -7.90972542e-03,
          -3.70562114e-02, 2.49096993e-02, 3.70562114e-02,
          -3.20952922e-01, -6.80812672e-02, 3.20952922e-01,
          9.67898965e-02, 4.91227090e-01, -5.47973961e-02,
          4.91227090e-01, 7.06967413e-02, 2.91835107e-02,
          -2.78663486e-02, 2.96117552e-02, 2.91092154e-02,
          2.19360106e-02, -1.41580021e-02, 2.43528262e-02,
          1.41580021e-02, -1.90018609e-01, 1.58724084e-01,
          1.96040913e-01, 1.65942088e-01, 1.73420236e-01,
          -5.35542332e-02, 2.02146217e-01, 1.66177720e-01,
          -7.56533584e-03, -7.49564320e-02, 1.88194662e-02,
          7.49564320e-02, 4.07236302e-03, -1.54354086e-03,
          4.07764968e-03, 1.65180990e-03, -3.92909534e-02,
          -3.28294151e-02, 4.45637964e-02, 3.34350578e-02,
          -3.85809205e-02, -9.67976823e-02, 3.85809205e-02,
          9.67976823e-02, -7.08552543e-03, -1.87143479e-02,
          7.08552543e-03, 1.87143479e-02, -1.14696398e-02,
          -1.33662261e-02, 1.14696398e-02, 1.33662261e-02,
          3.05821709e-02, -1.92408450e-02, 4.50383276e-02,
          2.65564080e-02, 2.25616395e-02, 8.68613925e-03, 2.38574892e-02,
          9.45431367e-03, -1.06772571e-03, 1.83825352e-04,
          1.06772571e-03, 2.03956079e-04, 1.55816087e-03,
          -3.94561775e-02, 2.61078998e-02, 3.94561775e-02,
          4.77567852e-01, 5.08905053e-02, 4.77567852e-01, 6.52355924e-02,
          7.31619298e-02, 3.30717824e-02, 1.12877965e-01, 3.41203213e-02,
          -9.42455325e-03, -1.23656087e-03, 9.42455325e-03,
          1.64304418e-03, 3.68205048e-02, -2.41158134e-03,
          3.68626527e-02, 5.99969411e-03, 4.86313730e-01,
          -3.72874439e-02, 4.86313730e-01, 3.78918201e-02,
          5.48458248e-02, -5.08575737e-02, 1.00196056e-01,
          5.08575737e-02, -6.14583399e-03, -2.32223840e-03,
          6.14583399e-03, 3.05450195e-03, 4.70070215e-03,
          -5.95890335e-04, 4.70972154e-03, 6.24039734e-04,
          6.82894811e-02, -7.46096717e-03, 6.82894811e-02,
          7.46096717e-03, 1.22335888e-02, -2.13117735e-03,
          1.52532328e-02, 3.04076564e-03, -7.70368904e-04,
          2.57666048e-04, 7.70368904e-04, 2.60888162e-04, 5.79154002e-04,
          -6.16386300e-04, 1.62219990e-03, 6.41041959e-04,
          -4.75545228e-02, -1.02923037e-02, 4.75545228e-02,
          1.03484765e-02, -1.16134007e-02, 1.16081657e-02,
          2.04213653e-02, 1.41153196e-02, 4.53151995e-03, 5.60318353e-03,
          4.53151995e-03, 5.60318353e-03, 5.48578752e-03,
          -7.58540165e-03, 2.07778718e-02, 7.58540165e-03,
          -3.24635774e-01, -7.09306002e-02, 3.24635774e-01,
          7.09306002e-02, 2.88925767e-01, 1.13473795e-01, 2.98465580e-01,
          1.26200274e-01, 2.23494619e-02, 4.50542755e-02, 2.43579652e-02,
          4.50542755e-02, 2.45602448e-02, -2.41323225e-02,
          2.64310222e-02, 2.41323225e-02, -3.12042415e-01,
          -1.50997136e-02, 3.12042415e-01, 3.33922282e-02,
          4.12312627e-01, -9.14693028e-02, 4.13052827e-01,
          9.80481878e-02, 3.55945528e-02, -1.18479750e-03,
          3.92758846e-02, 1.86168216e-02, 3.95740476e-03,
          -4.45816899e-03, 3.95740476e-03, 4.45816899e-03,
          -2.82521378e-02, -2.18471438e-02, 2.84282211e-02,
          2.18471438e-02, 2.47403923e-02, -2.66982596e-02,
          3.19948308e-02, 2.66982596e-02, 1.09270569e-02,
          -7.23571237e-03, 1.09270569e-02, 7.23571237e-03,
          -9.44346748e-03, -4.70747938e-03, 9.44346748e-03,
          4.70747938e-03, 2.75835898e-02, 1.22373819e-03, 4.14460674e-02,
          1.30956415e-02, 5.76271191e-02, 1.26527334e-02, 5.76271191e-02,
          1.44139957e-02, 4.70142550e-05, -5.00901137e-04,
          4.33870446e-04, 1.00888289e-03, -5.54147325e-02,
          -1.20132864e-02, 5.54147325e-02, 1.20132864e-02,
          3.07969093e-01, -5.10153957e-02, 3.33306074e-01,
          5.30429929e-02, 3.36935341e-01, -3.55847403e-02,
          3.36935341e-01, 4.87402678e-02, 5.16965752e-03,
          -1.77465938e-03, 5.94196795e-03, 4.40057600e-03,
          -4.40245084e-02, -6.00434095e-03, 4.40245084e-02,
          6.58868952e-03, 3.16972703e-01, 1.76168941e-02, 3.39053094e-01,
          2.75864657e-02, 3.87448579e-01, 6.37653545e-02, 3.87448579e-01,
          6.37653545e-02, 3.59106436e-03, 8.31530988e-03, 4.38305782e-03,
          8.51920061e-03, -4.59426781e-03, -8.37827509e-04,
          4.59426781e-03, 8.37827509e-04, 5.64192273e-02, 3.25330487e-03,
          5.71314916e-02, 4.81161755e-03, 5.45700267e-02, 6.17080135e-03,
          5.45700267e-02, 6.17080135e-03, -9.04102228e-04,
          1.30059823e-04, 9.04102228e-04, 5.98583254e-04, 1.74208358e-02,
          -3.28218588e-03, 1.74208358e-02, 3.31978314e-03,
          7.02393204e-02, -1.46166906e-02, 7.02393204e-02,
          1.50328465e-02, -1.43335443e-02, -1.41395640e-03,
          1.43335443e-02, 4.59262822e-03, -2.27393140e-03,
          7.39410636e-04, 2.27393140e-03, 7.39410636e-04, 1.14171334e-01,
          5.40935714e-03, 1.16512649e-01, 1.09270541e-02, 5.31530201e-01,
          1.99109614e-02, 5.31530201e-01, 3.67850550e-02,
          -7.80924037e-02, -1.53414486e-02, 7.80924037e-02,
          1.64101478e-02, -1.44738927e-02, 3.44064407e-04,
          1.44738927e-02, 3.84153822e-03, 1.10751353e-01, 2.24155188e-02,
          1.14691675e-01, 2.24155188e-02, 4.00820285e-01, 2.96861050e-03,
          4.02674347e-01, 6.11276031e-02, -6.84299842e-02,
          -9.10411850e-02, 6.84299842e-02, 9.10411850e-02,
          -6.24360424e-03, -5.53040439e-03, 6.24360424e-03,
          6.00967836e-03, 1.37335546e-02, 9.74765699e-03, 1.39791537e-02,
          9.74765699e-03, 2.33813412e-02, 1.24781905e-02, 3.27228345e-02,
          1.56375803e-02, -1.08184153e-02, -4.26848186e-03,
          1.08864056e-02, 4.39778576e-03, -1.25147868e-04,
          -5.45334537e-04, 1.25147868e-04, 5.45334537e-04,
          7.49264145e-03, -6.04993803e-03, 7.49264145e-03,
          6.04993803e-03, -5.04991226e-03, -8.35799333e-03,
          1.73787531e-02, 1.27852354e-02, 4.11370508e-02, 7.66626373e-03,
          4.31232192e-02, 7.66626373e-03, 3.72229930e-04, 3.28064756e-03,
          3.34596820e-03, 3.28368670e-03, 2.50607077e-02, 1.29657537e-02,
          2.55897269e-02, 2.50462145e-02, 1.13623135e-01,
          -1.23454735e-01, 1.18505612e-01, 1.29066035e-01,
          4.24002349e-01, 1.06393825e-03, 4.24002349e-01, 3.95228602e-02,
          1.99013371e-02, 1.66341923e-02, 3.77408452e-02, 1.74373146e-02,
          -1.24160890e-02, 2.41320934e-02, 1.24160890e-02,
          2.41320934e-02, 4.93683144e-02, 7.42707700e-02, 6.73152581e-02,
          7.42707700e-02, 5.14434099e-01, 6.92197680e-02, 5.14434099e-01,
          6.92197680e-02, 1.11503825e-02, -1.40300521e-03,
          3.25217210e-02, 4.77620866e-03, -1.50323776e-03,
          1.20612851e-03, 1.50323776e-03, 1.25731714e-03, 5.06882183e-03,
          9.18485876e-03, 9.33639612e-03, 9.20139998e-03, 7.40062892e-02,
          1.17741702e-02, 7.40062892e-02, 1.17741702e-02,
          -2.58538895e-03, -5.78452426e-04, 4.73148189e-03,
          1.23423396e-03, 1.07598468e-03, -5.84483985e-03,
          1.11969165e-03, 5.84483985e-03, 1.71457902e-02,
          -3.20149660e-02, 1.73095763e-02, 3.20740938e-02,
          6.41281158e-02, -1.30028864e-02, 6.41281158e-02,
          1.50347576e-02, -6.26103487e-03, -1.68736489e-03,
          6.26103487e-03, 1.70973456e-03, 1.79729389e-03,
          -1.11571038e-02, 3.55918892e-03, 2.21124701e-02,
          1.87064022e-01, -1.13049507e-01, 1.88534886e-01,
          1.42775789e-01, 4.45879310e-01, -1.71514213e-01,
          4.45879310e-01, 1.71514213e-01, -2.63678301e-02,
          -2.70787384e-02, 2.63678301e-02, 2.71011814e-02,
          -7.94193614e-03, 5.26075959e-02, 8.06602277e-03,
          5.26075959e-02, 1.35277420e-01, 3.08626652e-01, 1.55293241e-01,
          3.08626652e-01, 2.36326098e-01, 1.62372679e-01, 2.56230056e-01,
          1.77264377e-01, -1.39868166e-02, -1.06952172e-02,
          1.40392613e-02, 1.07122576e-02, -1.42583007e-03,
          1.81973481e-03, 1.43573177e-03, 2.44191266e-03, 2.79561467e-02,
          3.13096941e-02, 3.09468918e-02, 3.15091908e-02,
          -4.41540638e-03, 2.89976411e-02, 3.12367342e-02,
          2.91680563e-02, -3.78938392e-03, -2.85994000e-04,
          3.93111445e-03, 2.98930419e-04, 2.74388847e-04,
          -3.53950250e-04, 5.44670736e-04, 5.25054813e-04,
          2.36371830e-02, -8.86466820e-03, 2.36371830e-02,
          9.40361992e-03, 8.44308734e-02, -9.63937957e-03,
          8.52864310e-02, 1.58454478e-02, -1.12858145e-02,
          -9.00769234e-03, 1.14061823e-02, 9.17225797e-03,
          6.08592853e-03, -4.67055291e-03, 7.55912624e-03,
          5.28819626e-03, 2.12299868e-01, 7.80672356e-02, 2.14748576e-01,
          9.64060724e-02, 2.25739777e-01, -1.12056509e-01,
          3.48363757e-01, 1.77573845e-01, -9.01253149e-02,
          -6.40810430e-02, 9.06219855e-02, 6.44840971e-02,
          9.08131897e-03, -2.35975999e-02, 9.08131897e-03,
          2.35975999e-02, 1.75012738e-01, -2.52565712e-01,
          1.75012738e-01, 2.52565712e-01, -8.93839747e-02,
          -4.43432122e-01, 1.97919935e-01, 4.43432122e-01,
          -3.29124667e-02, -2.68471576e-02, 4.22696732e-02,
          2.78247539e-02, 5.51786652e-05, -1.33992371e-03,
          2.92884681e-04, 1.33992371e-03, 2.24607158e-03,
          -1.35565754e-02, 3.66904610e-03, 1.35565754e-02,
          -1.63404550e-03, -1.53963109e-02, 4.04067524e-03,
          1.62305664e-02, 2.62465066e-04, 9.33380681e-04, 1.47468376e-03,
          9.62975668e-04 ]
      - [ 6.92368740e-09, 3.70049733e-04, 2.45411415e-04, 3.70049733e-04,
          -1.31849269e-03, 1.14033734e-02, 5.12508862e-03,
          1.14033734e-02, 3.65923755e-02, 7.27081522e-02, 3.96534353e-02,
          7.27081522e-02, 4.08499129e-03, 1.67068057e-02, 5.01197670e-03,
          1.67068057e-02, 4.00428008e-03, 1.54988386e-03, 4.00428008e-03,
          2.53083347e-03, 2.06797868e-01, 1.09578140e-01, 2.13681430e-01,
          1.09578140e-01, 4.71400738e-01, 1.29031673e-01, 4.71400738e-01,
          2.00627044e-01, 7.37192435e-03, -1.72737874e-02,
          2.07362697e-02, 4.67334613e-02, 3.35731613e-03,
          -2.61861552e-03, 3.35731613e-03, 2.61861552e-03,
          1.89903840e-01, -9.55602080e-02, 1.89903840e-01,
          9.55602080e-02, 2.43674606e-01, -2.77467132e-01,
          2.43674606e-01, 2.77467132e-01, 4.36856551e-03,
          -4.24032435e-02, 7.73030426e-03, 4.24032435e-02, 0., 0., 0.,
          0., 6.81819767e-03, -3.86848114e-03, 6.87466841e-03,
          4.10492299e-03, 2.45526563e-02, -1.79735422e-02,
          2.45526563e-02, 1.79735422e-02, 3.31334909e-03,
          -2.30094604e-03, 3.31334909e-03, 2.30094604e-03,
          7.00704101e-03, -1.76105637e-03, 7.06384657e-03,
          1.76105637e-03, 8.37395042e-02, -1.16580557e-02,
          8.37395042e-02, 1.16580557e-02, -3.69971152e-04,
          -2.12667766e-03, 2.20047086e-02, 3.66189587e-03,
          -2.86129327e-03, -3.22312117e-04, 2.89655826e-03,
          3.22312117e-04, 4.94363159e-02, 1.27500240e-02, 4.94363159e-02,
          1.27771627e-02, 5.40054440e-01, -1.82222389e-02,
          5.40054440e-01, 3.98253053e-02, 3.94124240e-02,
          -5.49852178e-02, 1.67360872e-01, 5.64521365e-02,
          -2.44527441e-02, -3.20384838e-03, 2.46221125e-02,
          3.41712940e-03, 4.42528501e-02, 4.09620851e-02, 4.42528501e-02,
          4.09620851e-02, 3.75846535e-01, 1.38173684e-01, 3.75846535e-01,
          1.40291825e-01, 5.30051887e-02, 2.97674853e-02, 1.35389328e-01,
          5.77038638e-02, -2.24050395e-02, 7.45349191e-03,
          2.24390291e-02, 8.26134160e-03, 5.79130324e-03, 6.97542867e-03,
          5.79130324e-03, 6.97542867e-03, 2.15000622e-02, 2.47035790e-02,
          2.26615611e-02, 2.47035790e-02, 5.58440341e-03,
          -1.63325889e-03, 1.15256980e-02, 5.51342685e-03,
          -3.06566805e-03, 7.20850308e-04, 3.06566805e-03,
          9.63600585e-04, -4.36983677e-03, -7.60116940e-03,
          4.36983677e-03, 7.60332448e-03, -2.54645105e-03,
          6.72214292e-03, 8.23181681e-03, 1.45648355e-02,
          -1.61011480e-02, 1.66384280e-02, 1.61011480e-02,
          1.66384280e-02, -2.09263596e-03, 7.15121394e-04,
          2.09263596e-03, 7.39246083e-04, 4.57012951e-02,
          -7.25699812e-02, 4.70134951e-02, 7.25699812e-02,
          2.89239645e-01, -2.05064029e-03, 2.89239645e-01,
          9.92844552e-02, -2.12815344e-01, 5.82698435e-02,
          2.12815344e-01, 5.91153875e-02, -1.75826680e-02,
          3.22514388e-04, 1.75826680e-02, 2.29170476e-03, 9.73690003e-02,
          -2.32635047e-02, 9.73690003e-02, 2.99264099e-02,
          5.19000471e-01, -2.65048444e-02, 5.19000471e-01,
          5.05040996e-02, -2.57596999e-01, 2.40835007e-02,
          2.57596999e-01, 5.14382236e-02, -1.50301233e-02,
          7.90133886e-03, 1.50301233e-02, 7.90133886e-03, 1.52200935e-02,
          5.20078978e-03, 1.52200935e-02, 5.20078978e-03, 5.54267690e-02,
          9.02175065e-03, 5.68914935e-02, 1.34008471e-02,
          -3.04492600e-02, -1.57013852e-02, 3.04492600e-02,
          1.57013852e-02, -6.85633568e-04, -3.47257970e-04,
          8.37244850e-04, 7.40583113e-04, 1.74730638e-04,
          -3.61352274e-03, 4.18601237e-04, 3.66654503e-03,
          2.77606174e-02, -2.58118380e-03, 2.77872328e-02,
          1.04204724e-02, 5.18024638e-02, 3.26464418e-03, 5.18024638e-02,
          1.22802295e-02, 5.42274350e-03, -5.14858728e-03,
          5.42274350e-03, 6.50172494e-03, 1.51350917e-02,
          -2.96757347e-03, 1.51350917e-02, 9.23190359e-03,
          3.18936944e-01, 7.46356919e-02, 3.18936944e-01, 8.17332491e-02,
          3.83574180e-02, -1.00935116e-01, 1.50503680e-01,
          1.31473079e-01, -3.00616194e-02, -8.24703500e-02,
          3.27143297e-02, 8.24703500e-02, 2.30401121e-02,
          -2.18754681e-03, 2.30401121e-02, 6.12017559e-03,
          1.83745548e-01, -1.55188397e-01, 1.98487595e-01,
          1.56701565e-01, -2.71265179e-01, -4.38162953e-01,
          2.79575169e-01, 4.38162953e-01, -7.08457902e-02,
          -8.99157673e-02, 7.08457902e-02, 8.99157673e-02,
          2.03066878e-03, -2.43626768e-03, 2.03066878e-03,
          2.43626768e-03, -1.30389528e-02, -3.73946317e-02,
          2.11213380e-02, 3.73946317e-02, -7.31720403e-02,
          -7.05482513e-02, 7.31720403e-02, 7.05748722e-02,
          -8.41486361e-03, -9.14444122e-03, 8.41700286e-03,
          9.32122301e-03, -4.15861513e-03, -3.73904826e-03,
          4.15861513e-03, 3.93955084e-03, -1.67228300e-02,
          -2.38424782e-02, 1.67228300e-02, 2.39688456e-02,
          8.43792688e-04, -2.18019597e-02, 4.08218754e-03,
          2.24006847e-02, 1.38782873e-03, 1.78127608e-04, 1.45658385e-03,
          9.87586682e-04, -1.78609416e-02, -6.19775131e-02,
          1.78609416e-02, 6.19775131e-02, -6.07771724e-02,
          -3.22191775e-01, 7.32422024e-02, 3.22191775e-01,
          2.22048208e-01, -1.02414057e-01, 2.24559307e-01,
          1.59990400e-01, 5.68533242e-02, 4.29429151e-02, 5.68533242e-02,
          4.29429151e-02, -9.51813348e-03, -1.56377871e-02,
          9.51813348e-03, 2.35240664e-02, 5.99579997e-02,
          -8.40492398e-02, 7.92743713e-02, 9.82645452e-02,
          5.29749036e-01, 4.06597294e-02, 5.29749036e-01, 6.95032924e-02,
          8.50440562e-02, 3.01032159e-02, 8.50707963e-02, 3.12951207e-02,
          -2.65111378e-03, 8.29044543e-03, 2.65111378e-03,
          8.29044543e-03, -6.21649716e-03, 2.67902557e-02,
          1.39821926e-02, 2.67902557e-02, 7.85640255e-02,
          -2.59600813e-03, 7.85640255e-02, 7.12869316e-03,
          1.32913655e-02, -1.89676019e-03, 1.32913655e-02,
          1.89676019e-03, 1.83648104e-03, -9.02185217e-04,
          2.05012434e-03, 2.10006628e-03, 3.97252142e-02,
          -4.39343527e-02, 3.97252142e-02, 4.39343527e-02,
          4.65985872e-02, -2.94738021e-02, 4.70361225e-02,
          3.11334357e-02, -1.26337621e-03, 3.23179248e-03,
          2.15665181e-03, 3.23179248e-03, 9.50578321e-03, 4.57349867e-02,
          1.48040699e-02, 4.57349867e-02, -9.26430076e-02,
          1.20818794e-01, 1.75680742e-01, 1.97594523e-01, 5.03591537e-01,
          -1.06125042e-01, 5.03591537e-01, 1.40782297e-01,
          6.46419777e-03, -1.89530775e-02, 2.06180774e-02,
          1.97788477e-02, 4.09968533e-02, -1.94445644e-02,
          4.09968533e-02, 2.82427724e-02, -1.48952290e-01,
          1.92976385e-01, 1.64002851e-01, 2.45243311e-01, 2.43228763e-01,
          1.23610608e-01, 2.52715707e-01, 1.87630162e-01,
          -3.27184275e-02, -4.83304635e-02, 3.54110077e-02,
          4.83304635e-02, 7.48386094e-03, -1.02551272e-02,
          7.48386094e-03, 1.02551272e-02, 1.96946766e-02,
          -6.32188544e-02, 1.96946766e-02, 6.32188544e-02,
          -1.07208723e-02, -6.49874657e-02, 1.12593891e-02,
          6.49874657e-02, -7.96605647e-03, -1.03658792e-02,
          7.96605647e-03, 1.03658792e-02, 0., 0., 0., 0.,
          -2.22362042e-03, -4.63514728e-03, 2.80142389e-03,
          5.02778916e-03, 6.60013184e-02, 1.60782412e-02, 6.60013184e-02,
          1.83865726e-02, 1.05727874e-02, 6.65956177e-03, 1.06861051e-02,
          7.12908292e-03, -2.57970649e-03, -3.99202202e-03,
          2.57970649e-03, 3.99202202e-03, -6.48223832e-02,
          -3.02425846e-02, 6.48223832e-02, 3.02425846e-02,
          5.84194839e-01, -5.51473610e-02, 5.84194839e-01,
          1.13859698e-01, -1.10303704e-02, -9.18789282e-02,
          5.53087331e-02, 9.30065364e-02, 4.54127043e-03,
          -2.66561983e-04, 8.25795997e-03, 2.75111548e-03,
          6.22694194e-02, 1.48564294e-01, 8.59291628e-02, 1.63226232e-01,
          4.51057684e-03, -1.34045437e-01, 2.53698587e-01,
          2.52027065e-01, -8.95692483e-02, -1.11006357e-01,
          8.97445679e-02, 1.11160085e-01, 1.57015209e-04,
          -1.09007943e-03, 1.29598170e-03, 1.09007943e-03,
          3.28079215e-03, -5.20268790e-02, 1.24658123e-02,
          5.20268790e-02, -4.11111787e-02, -5.09804338e-02,
          4.28972133e-02, 5.09804338e-02, -9.33344476e-03,
          -8.26694159e-05, 9.39183496e-03, 1.63562014e-03,
          5.56831947e-04, -1.63123175e-03, 5.56831947e-04,
          1.63123175e-03, 9.68649052e-03, -1.17990933e-02,
          9.68649052e-03, 1.18245566e-02, 4.02020104e-02, 7.79041555e-03,
          4.02020104e-02, 9.81639978e-03, 5.22735063e-03, 4.41106036e-03,
          5.65544423e-03, 4.41106036e-03, -1.39440643e-03,
          3.07630952e-02, 3.35963909e-03, 3.20978500e-02, 3.51811685e-02,
          9.82436612e-02, 6.28452078e-02, 1.23548575e-01, 3.80987078e-01,
          -1.97948813e-02, 3.80987078e-01, 3.68719772e-02,
          3.53186205e-02, -5.48242498e-03, 4.06316258e-02,
          1.07693989e-02, -9.99891385e-03, 9.22344998e-02,
          1.04691619e-02, 9.22344998e-02, -2.27071613e-01,
          4.67496157e-01, 2.27071613e-01, 4.67496157e-01, 1.26925841e-01,
          6.46934435e-02, 2.17777610e-01, 1.34321764e-01, 4.40862998e-02,
          -2.53331959e-02, 4.45569232e-02, 2.57249624e-02,
          -1.24234473e-03, 7.01655680e-03, 1.35299598e-03,
          7.04659289e-03, -6.24769405e-02, 5.56541607e-02,
          6.24769405e-02, 5.56541607e-02, -5.00098430e-02,
          2.08689272e-02, 5.17673753e-02, 2.42990106e-02, 3.74373072e-03,
          -5.44123445e-03, 3.87950731e-03, 5.44123445e-03,
          3.07339383e-03, -5.18779596e-03, 3.07339383e-03,
          5.18779596e-03, 4.44725752e-02, -4.81923111e-02,
          4.44725752e-02, 4.81923111e-02, 2.22085379e-02,
          -1.79692302e-02, 2.47015059e-02, 1.97159089e-02,
          -6.38975122e-04, 1.88588910e-03, 1.19179708e-03,
          1.98997906e-03, -3.88311921e-03, -9.14031232e-04,
          7.24334642e-03, 1.14643387e-02, 2.60586709e-01,
          -1.47152856e-01, 2.67511815e-01, 1.71304464e-01,
          4.02611345e-01, -1.49338156e-01, 4.02611345e-01,
          1.49338156e-01, 1.54565647e-02, -3.93591775e-03,
          1.54565647e-02, 9.23753157e-03, -7.96629349e-04,
          1.52846482e-02, 5.15221246e-03, 1.54954307e-02, 2.16714069e-01,
          2.36190960e-01, 2.23639160e-01, 2.36190960e-01, 2.85200834e-01,
          1.26060501e-01, 2.89030224e-01, 1.42226681e-01, 1.45970974e-02,
          -1.85197145e-02, 1.65271442e-02, 1.85362101e-02,
          3.26020201e-03, -7.66957819e-04, 3.26020201e-03,
          9.96285235e-04, 6.20429553e-02, 4.32895645e-02, 6.20429553e-02,
          4.32895645e-02, 4.45194775e-03, 5.48506416e-02, 2.65921541e-02,
          5.48506416e-02, -8.68593983e-04, 2.31477176e-03,
          3.58816935e-03, 2.31477176e-03, 2.39038724e-03, 3.86803783e-03,
          2.39254581e-03, 3.86803783e-03, 6.21551462e-02, 3.65741737e-02,
          6.21551462e-02, 3.65741737e-02, 4.28267606e-02, 2.36763880e-02,
          4.28267606e-02, 2.36763880e-02, -9.61645914e-04,
          -7.82242045e-04, 1.38187117e-03, 9.93241440e-04,
          3.08531579e-02, 4.80617583e-03, 3.08531579e-02, 1.18542388e-02,
          4.19897497e-01, 1.13875240e-01, 4.19897497e-01, 1.17893018e-01,
          1.44323021e-01, 6.33500740e-02, 1.53343603e-01, 6.33500740e-02,
          -1.75874177e-02, 5.91362501e-03, 1.75874177e-02,
          7.69796548e-03, 3.56681608e-02, -1.93594061e-02,
          3.57778594e-02, 1.93862598e-02, 4.41133440e-01,
          -1.68067589e-01, 4.41133440e-01, 1.68067589e-01,
          1.63442299e-01, -1.33914262e-01, 1.64461046e-01,
          1.34933010e-01, -2.72370526e-03, -6.49855647e-04,
          7.61203421e-03, 1.04985582e-02, 2.66211829e-03, 1.56393554e-03,
          2.67840084e-03, 1.72628986e-03, 4.55437005e-02,
          -2.04681754e-02, 4.55437005e-02, 2.26976275e-02,
          2.96047423e-02, -4.52723503e-02, 2.96047423e-02,
          4.52723503e-02, 2.25516409e-03, -6.46415772e-03,
          2.25516409e-03, 6.46415772e-03, -8.83200672e-04,
          3.92385526e-04, 1.36016554e-03, 4.33629233e-04, 7.10071251e-03,
          1.62488967e-02, 7.78433634e-03, 1.62488967e-02,
          -4.32307273e-03, 3.34861092e-02, 5.47001325e-03,
          3.34861092e-02, -7.23140256e-04, 7.59512093e-03,
          1.33786537e-03, 7.59512093e-03, -5.28092543e-03,
          -6.84726844e-03, 6.10551145e-03, 6.84726844e-03,
          6.95092157e-02, -1.15465581e-01, 7.04585016e-02,
          1.18230127e-01, 2.58570403e-01, 2.63022687e-02, 2.58570403e-01,
          1.28674388e-01, 5.08347824e-02, 8.11155960e-02, 5.08347824e-02,
          8.11155960e-02, -4.86395461e-03, 1.72500759e-02,
          4.86395461e-03, 1.74517501e-02, -1.63832605e-02,
          4.91893850e-02, 7.14429915e-02, 1.04561791e-01, 5.93439102e-01,
          8.46858546e-02, 5.93439102e-01, 1.03291862e-01, 1.07782550e-01,
          5.08114398e-02, 1.07782550e-01, 5.08114398e-02,
          -6.75124815e-04, 7.95377232e-03, 7.17557559e-04,
          7.95377232e-03, -1.32915033e-02, 5.41552193e-02,
          1.44910673e-02, 5.41552193e-02, 7.70450532e-02, 2.85407864e-02,
          7.70450532e-02, 2.91612558e-02, 1.60190351e-02,
          -1.79543404e-03, 1.60190351e-02, 1.79543404e-03,
          -2.01060483e-03, -9.54685640e-03, 2.83074332e-03,
          9.54685640e-03, 6.49704784e-03, -7.84329697e-02,
          1.52364885e-02, 7.84329697e-02, 5.20050190e-02,
          -3.04143578e-02, 5.26665375e-02, 3.12599577e-02,
          2.68068141e-03, 1.23407855e-03, 3.00694560e-03, 1.30069442e-03,
          -2.34789383e-02, -6.86016865e-03, 2.34789383e-02,
          7.50428671e-03, 1.73765242e-01, 4.51806411e-02, 1.97619453e-01,
          7.41010532e-02, 4.78889883e-01, 3.57512869e-02, 4.78889883e-01,
          4.83044907e-02, 1.86920986e-02, -6.58315985e-05,
          2.24610157e-02, 4.36667958e-03, -7.46443309e-03,
          6.68752193e-03, 7.59951072e-03, 9.34134983e-03, 1.21440858e-01,
          1.25744636e-03, 1.31853804e-01, 3.91972996e-02, 4.37063545e-01,
          -8.18217024e-02, 4.37063545e-01, 8.18217024e-02,
          2.41228323e-02, -8.49925075e-03, 2.51490064e-02,
          8.59226752e-03, -1.77098089e-03, 2.67539499e-03,
          1.79952721e-03, 2.97763012e-03, 1.75534433e-03, 3.70539562e-03,
          1.47994999e-02, 5.46665490e-03, 6.17994256e-02,
          -9.79621400e-05, 6.17994256e-02, 2.63752392e-03,
          4.21462022e-03, 7.25683058e-04, 4.28144634e-03, 7.64839002e-04,
          8.30599398e-04, -7.21757184e-04, 9.19048965e-04,
          7.21757184e-04, 5.35894930e-02, -9.75068286e-03,
          5.35894930e-02, 9.75068286e-03, 5.34717888e-02,
          -7.68834725e-03, 5.34717888e-02, 7.83252344e-03,
          2.00576716e-04, 3.59658414e-04, 9.95675218e-04, 3.69713147e-04,
          2.86904373e-03, 4.26589418e-03, 4.00318811e-03, 5.38992975e-03,
          3.09464186e-01, -2.78692041e-02, 3.09464186e-01,
          4.12482582e-02, 4.18860048e-01, -5.98255806e-02,
          4.18860048e-01, 5.98255806e-02, 6.00399403e-03,
          -6.30758377e-03, 1.10582784e-02, 6.30758377e-03,
          -3.30995489e-03, 1.23557094e-02, 3.56008881e-03,
          1.23557094e-02, 2.59668797e-01, 6.30573481e-02, 2.59668797e-01,
          6.30573481e-02, 3.77227008e-01, 8.56876560e-03, 3.77227008e-01,
          3.40933539e-02, 3.74703342e-03, -8.42638686e-03,
          7.58813741e-03, 8.42638686e-03, -4.13505077e-05,
          2.51460024e-05, 7.01485085e-04, 3.82032275e-04, 3.69276628e-02,
          3.71340546e-03, 3.69276628e-02, 6.02064747e-03, 4.40424681e-02,
          1.12223602e-03, 4.40424681e-02, 2.51779682e-03, 6.71892310e-04,
          5.82597801e-04, 9.48954839e-04, 5.82597801e-04,
          -5.31191658e-03, 3.47050210e-03, 6.11459976e-03,
          3.47050210e-03, -4.00096625e-02, 5.23603056e-03,
          4.00096625e-02, 6.83485251e-03, 4.52747829e-02,
          -7.08665000e-04, 4.52747829e-02, 2.81358813e-03,
          1.05496217e-02, 4.96431312e-05, 1.05496217e-02, 1.71197404e-04,
          -6.19945899e-02, 1.83657254e-03, 6.40576780e-02,
          9.64766368e-03, -3.29730988e-01, -6.01264909e-02,
          3.29730988e-01, 6.43380210e-02, 3.40001166e-01,
          -2.62888335e-02, 3.40001166e-01, 2.62888335e-02,
          7.39228055e-02, 1.22575299e-03, 7.39228055e-02, 1.67082145e-03,
          -7.81667456e-02, -1.75661836e-02, 7.83263147e-02,
          1.77257601e-02, -2.60465264e-01, -7.54511058e-02,
          2.88611799e-01, 7.54511058e-02, 3.94401222e-01, 2.48746015e-02,
          3.94401222e-01, 3.08359414e-02, 7.37431273e-02, 5.21276472e-03,
          7.37431273e-02, 5.76743111e-03, -1.12220962e-02,
          -1.42466556e-03, 1.12220962e-02, 1.54016563e-03,
          -1.18920291e-02, 2.30732057e-02, 3.34246494e-02,
          2.50893533e-02, 6.29530549e-02, 5.37483282e-02, 6.29530549e-02,
          5.37483282e-02, 8.42343643e-03, 3.00244801e-03, 8.42343643e-03,
          3.00330156e-03, 3.37819592e-03, -1.90785469e-03,
          3.85018368e-03, 1.96576025e-03, 5.68267889e-02,
          -1.97967179e-02, 5.68267889e-02, 1.97967179e-02,
          1.85521785e-02, -6.93362486e-03, 1.89772192e-02,
          7.07838358e-03, -2.55573570e-04, 3.76810858e-05,
          2.55573570e-04, 6.68923894e-05, 7.55740097e-03,
          -4.16260166e-03, 1.96216479e-02, 5.13039203e-03,
          3.98627460e-01, -1.06465064e-01, 3.98627460e-01,
          1.06465064e-01, 2.36379638e-01, -4.76979613e-02,
          2.36379638e-01, 5.18828928e-02, -2.40774569e-03,
          2.33250670e-03, 2.40774569e-03, 2.36901920e-03, 1.99083262e-03,
          1.13100912e-02, 1.98479816e-02, 1.73549540e-02, 4.09171283e-01,
          2.01970950e-01, 4.09171283e-01, 2.18022496e-01, 2.14532346e-01,
          7.45155364e-02, 2.14532346e-01, 7.78571963e-02,
          -6.71719026e-04, -1.87174592e-04, 2.56348448e-03,
          1.27726491e-03, 3.15499096e-03, 5.38019231e-03, 5.16412966e-03,
          5.38019231e-03, 4.81521338e-02, 2.91928966e-02, 4.81521338e-02,
          2.97175944e-02, 2.86856736e-03, 3.88548523e-03, 4.21155524e-03,
          6.53778436e-03, 2.17726283e-05, -3.11991986e-04,
          2.28369478e-04, 3.11991986e-04 ]
      - [ 7.95348920e-03, -5.23987738e-03, 7.95348920e-03,
          5.23987738e-03, 5.78635186e-02, -2.74224635e-02,
          5.78635186e-02, 2.74224635e-02, 2.51522139e-02,
          -1.78271625e-02, 2.51723435e-02, 1.78271625e-02,
          -1.12338434e-03, -1.68341235e-03, 1.12338434e-03,
          1.68341235e-03, 5.58082163e-02, -1.09432992e-02,
          5.58082163e-02, 1.51920868e-02, 4.42888200e-01,
          -1.01645142e-01, 4.42888200e-01, 1.02899417e-01,
          2.26858005e-01, -7.97624439e-02, 2.26858005e-01,
          7.97624439e-02, 2.58721574e-03, -4.74881986e-03,
          5.18967770e-03, 4.92004724e-03, 4.16351780e-02, 3.54717150e-02,
          4.16553058e-02, 3.54717150e-02, 3.90920669e-01, 1.19984418e-01,
          3.90920669e-01, 1.19984418e-01, 2.27858439e-01, 4.44336534e-02,
          2.27858439e-01, 4.44336534e-02, 5.21498639e-03, 1.76245265e-03,
          5.74184442e-03, 2.01992947e-03, 2.90352106e-03, 8.98743793e-03,
          2.97057070e-03, 8.98743793e-03, 3.39686647e-02, 3.65058854e-02,
          3.39686647e-02, 3.65058854e-02, 1.67098586e-02, 9.49199311e-03,
          1.67098586e-02, 1.01659792e-02, 8.23521696e-05,
          -4.96610883e-04, 2.93335092e-04, 4.96610883e-04,
          4.42294200e-04, 9.89505570e-05, 4.42294200e-04, 9.89505570e-05,
          3.74730863e-02, 1.18787671e-02, 3.74730863e-02, 1.18787671e-02,
          1.76762044e-02, 1.71891861e-02, 1.82196163e-02, 1.71891861e-02,
          -4.31529916e-04, 2.00155145e-03, 4.31529916e-04,
          2.00155145e-03, 5.27119078e-03, 6.19416218e-03, 5.58154844e-03,
          6.19416218e-03, 3.32999974e-01, 5.33923581e-02, 3.32999974e-01,
          6.24128692e-02, 1.16271950e-01, 4.62812036e-02, 1.17132016e-01,
          8.73253569e-02, -3.03777121e-03, 8.64469260e-03,
          3.03777121e-03, 1.39593780e-02, -2.89871846e-03,
          -1.52606633e-03, 5.17396862e-03, 9.84474923e-03,
          1.91437885e-01, -2.62979597e-01, 1.98085338e-01,
          2.67099410e-01, 8.05009976e-02, -4.64193642e-01,
          8.05009976e-02, 4.64193642e-01, 8.26137513e-03,
          -5.85189760e-02, 8.65833461e-03, 5.85189760e-02,
          -5.47768222e-03, -5.92585048e-03, 5.47768222e-03,
          5.92585048e-03, -3.00104246e-02, -1.00995153e-01,
          3.00104246e-02, 1.00995153e-01, -3.82989587e-04,
          -1.39800057e-01, 8.63622315e-03, 1.39800057e-01,
          4.68566315e-03, -1.93254203e-02, 4.68566315e-03,
          1.93254203e-02, 1.79565474e-02, 7.62682268e-03, 1.79565474e-02,
          7.62682268e-03, 8.95976499e-02, 3.94153707e-02, 8.95976499e-02,
          3.94153707e-02, 2.88362689e-02, 1.60600189e-02, 3.54246497e-02,
          1.68658588e-02, -5.31532755e-03, -4.28557920e-04,
          5.31532755e-03, 1.48728234e-03, 1.23661943e-01, 3.07343081e-02,
          1.23661943e-01, 3.07343081e-02, 4.70455468e-01, 8.82546231e-02,
          4.70455468e-01, 1.03558443e-01, 7.08075389e-02,
          -5.65453283e-02, 1.46794870e-01, 7.19254985e-02,
          -4.19152156e-02, -1.46306707e-02, 4.19152156e-02,
          1.46306707e-02, 1.04985207e-01, 1.25033827e-02, 1.04985207e-01,
          1.40359169e-02, 2.72709101e-01, -1.43181399e-01,
          2.75903970e-01, 1.50989145e-01, -2.59343367e-02,
          -3.25287461e-01, 6.26178980e-02, 3.25287461e-01,
          -3.23687643e-02, -4.15407829e-02, 3.23687643e-02,
          4.15407829e-02, 9.27472580e-03, 7.35109861e-05, 9.27472580e-03,
          1.48681190e-03, 3.40833678e-03, -3.29787396e-02,
          1.24963121e-02, 3.29787396e-02, -9.43845976e-03,
          -4.55643982e-02, 9.43845976e-03, 4.58099768e-02,
          -1.65261899e-03, -4.53319261e-03, 1.65261899e-03,
          4.53319261e-03, 2.80084237e-02, 7.97752198e-03, 2.80084237e-02,
          7.99384061e-03, 9.87309963e-02, 2.57233270e-02, 9.87309963e-02,
          2.57233270e-02, -2.59691407e-03, 4.46835021e-03,
          1.77982412e-02, 7.58575276e-03, -3.91735183e-03,
          1.36747095e-03, 3.91735183e-03, 1.36747095e-03, 1.55639216e-01,
          5.56646921e-02, 1.55639216e-01, 5.56646921e-02, 4.35226262e-01,
          8.79596397e-02, 4.35226262e-01, 1.02748223e-01,
          -1.02869257e-01, -6.88356385e-02, 1.22910798e-01,
          7.74322227e-02, -1.42065734e-02, -6.94506615e-03,
          1.42065734e-02, 7.37422006e-03, 1.19452678e-01,
          -2.71052793e-02, 1.19452678e-01, 3.00772656e-02,
          2.99903899e-01, -2.80898720e-01, 2.99903899e-01,
          2.80898720e-01, -7.96095878e-02, -2.10168526e-01,
          8.52543116e-02, 2.10168526e-01, -5.38865570e-03,
          -1.65311545e-02, 5.38865570e-03, 1.65311545e-02,
          1.56052373e-02, -1.15362024e-02, 1.56052373e-02,
          1.15362024e-02, 5.86140901e-02, -6.29664585e-02,
          5.86140901e-02, 6.29664585e-02, 1.59191396e-02,
          -3.04083936e-02, 1.59191396e-02, 3.04083936e-02,
          -1.76020185e-04, -1.50497910e-03, 3.48264468e-04,
          1.56512880e-03, 1.41944503e-03, 8.75495898e-04, 1.41944503e-03,
          1.09066570e-03, 9.58921947e-03, 2.33939271e-02, 1.12985205e-02,
          2.34181602e-02, 2.41983496e-02, 5.57638183e-02, 2.45319530e-02,
          5.57638183e-02, 7.45181227e-03, 1.16863241e-02, 7.45181227e-03,
          1.16863241e-02, 1.62490234e-02, 6.25807373e-03, 1.62490234e-02,
          7.21216016e-03, 1.90709233e-01, 7.75863603e-02, 1.90709233e-01,
          8.70202109e-02, 3.50909531e-01, 1.89140707e-01, 3.50909531e-01,
          1.89140707e-01, 5.90492710e-02, 4.14919518e-02, 5.90492710e-02,
          4.14919518e-02, 1.18225273e-02, -1.91844273e-02,
          1.18225273e-02, 1.91844273e-02, 2.41357997e-01,
          -1.18700013e-01, 2.41357997e-01, 1.18700013e-01,
          4.46944326e-01, -5.95184192e-02, 4.46944326e-01,
          6.10284656e-02, 6.07608967e-02, -4.33365162e-03,
          6.07608967e-02, 8.18526465e-03, 1.34292792e-03,
          -4.49937629e-03, 1.36423297e-03, 4.49937629e-03,
          4.65813689e-02, -2.01292112e-02, 4.65813689e-02,
          2.03613564e-02, 7.15719163e-02, -8.55181552e-03,
          7.15719163e-02, 9.17982310e-03, 8.01061839e-03,
          -1.48575485e-03, 8.01061839e-03, 1.54926896e-03,
          -2.03131756e-04, -3.88299720e-03, 7.42781034e-04,
          3.88299720e-03, 5.66986576e-03, -4.09942344e-02,
          9.74955130e-03, 4.09942344e-02, 5.37356436e-02,
          -4.44013439e-02, 5.37356436e-02, 4.44013439e-02,
          1.13006365e-02, -4.83697886e-03, 1.13006365e-02,
          4.83697886e-03, -1.49061671e-02, -2.36636475e-02,
          1.49061671e-02, 2.36636475e-02, 3.97271588e-02,
          -1.62341073e-01, 9.49510187e-02, 1.62341073e-01,
          4.12632018e-01, -1.12351812e-01, 4.12632018e-01,
          1.12351812e-01, 9.08209160e-02, -1.04166670e-02,
          9.08209160e-02, 1.09265922e-02, -1.43929292e-02,
          8.28032102e-03, 1.43929292e-02, 1.33441146e-02, 9.63058546e-02,
          1.28657445e-01, 1.17533512e-01, 1.40875906e-01, 4.40410525e-01,
          1.62977979e-01, 4.40410525e-01, 1.62977979e-01, 8.91267732e-02,
          1.51415365e-02, 8.91267732e-02, 1.51415365e-02, 1.51846049e-04,
          7.32903462e-03, 7.59226037e-04, 7.32903462e-03, 2.27284562e-02,
          6.62553832e-02, 2.27284562e-02, 6.62553832e-02, 5.06366603e-02,
          5.57734147e-02, 5.06366603e-02, 5.57734147e-02, 1.06907440e-02,
          5.13245398e-03, 1.06907440e-02, 5.13245398e-03, 5.82962809e-03,
          -5.94188366e-03, 5.82962809e-03, 5.94188366e-03,
          4.89826947e-02, -3.49006653e-02, 4.89826947e-02,
          3.49006653e-02, 3.45473625e-02, -2.21951250e-02,
          3.45473625e-02, 2.21951250e-02, 1.64203253e-03,
          -1.00200251e-03, 1.64569833e-03, 1.00200251e-03,
          3.90395187e-02, -1.35851903e-02, 3.90395187e-02,
          1.35851903e-02, 3.61428350e-01, -1.01983763e-01,
          3.61428350e-01, 1.01983763e-01, 3.17865014e-01,
          -8.38882476e-02, 3.17865014e-01, 8.38882476e-02,
          2.21757833e-02, -3.69538809e-03, 2.21757833e-02,
          4.25381865e-03, 3.96104902e-02, 1.52203050e-02, 3.96104902e-02,
          1.52682569e-02, 3.49849552e-01, 1.03270747e-01, 3.49849552e-01,
          1.03270747e-01, 3.13639134e-01, 6.48954436e-02, 3.13639134e-01,
          6.60883561e-02, 2.70542540e-02, 4.64680744e-03, 2.70542540e-02,
          5.40052075e-03, 6.32757228e-03, 4.44800314e-03, 6.32757228e-03,
          4.44800314e-03, 4.77859229e-02, 3.26400585e-02, 4.77859229e-02,
          3.26400585e-02, 3.32630686e-02, 2.23343857e-02, 3.32630686e-02,
          2.23343857e-02, 2.75739701e-03, 1.35637575e-03, 2.75739701e-03,
          1.35637575e-03, 1.30812509e-03, -7.16181763e-04,
          1.38317922e-03, 8.07885255e-04, 2.38649976e-02, 1.04276361e-02,
          2.38649976e-02, 1.04802642e-02, 3.21943909e-02, 2.25586239e-02,
          3.21943909e-02, 2.25586239e-02, 3.94996768e-03, 4.77613788e-03,
          3.94996768e-03, 4.77613788e-03, 2.37528514e-02,
          -1.74964778e-02, 2.37528514e-02, 1.74964778e-02,
          2.77876467e-01, 7.76576810e-03, 2.77876467e-01, 4.20088731e-02,
          2.93019295e-01, 9.27025080e-02, 2.93019295e-01, 9.27025080e-02,
          3.52399200e-02, 2.20443215e-02, 3.52399200e-02, 2.20443215e-02,
          3.77844945e-02, -2.90395543e-02, 3.77844945e-02,
          2.90395543e-02, 3.88628513e-01, -1.18736237e-01,
          3.88628513e-01, 1.18736237e-01, 3.78041387e-01,
          -2.49695312e-03, 3.78041387e-01, 4.06873561e-02,
          3.85417789e-02, 7.20375776e-03, 3.85417789e-02, 7.21977791e-03,
          6.52078353e-03, -3.99409607e-03, 6.52078353e-03,
          3.99409607e-03, 6.99354857e-02, -1.82558764e-02,
          6.99354857e-02, 1.82558764e-02, 6.70532659e-02,
          -7.57658621e-03, 6.70532659e-02, 7.57658621e-03,
          5.79348207e-03, -2.53602338e-04, 5.79348207e-03,
          3.45305831e-04, -1.15462614e-03, 3.33416671e-03,
          2.56518670e-03, 3.42064258e-03, 3.48162614e-02,
          -1.20579237e-02, 3.48162614e-02, 1.29993325e-02,
          6.04741946e-02, -2.58337911e-02, 6.04741946e-02,
          2.58337911e-02, 1.01579223e-02, -2.45884270e-03,
          1.01579223e-02, 2.46125017e-03, -3.37009095e-02,
          3.64557505e-02, 3.37009095e-02, 3.64557505e-02, 1.92947723e-02,
          4.57202010e-02, 1.24795444e-01, 1.23533949e-01, 3.61068755e-01,
          -8.85300487e-02, 3.61068755e-01, 1.25539839e-01,
          8.08303803e-02, -1.58051215e-02, 8.08303803e-02,
          1.81633160e-02, -3.35970744e-02, 5.30476458e-02,
          3.35970744e-02, 5.30476458e-02, -1.49535045e-01,
          3.78856301e-01, 1.49535045e-01, 3.78856301e-01, 2.77609527e-01,
          2.30094641e-01, 2.90463090e-01, 2.42948219e-01, 7.10197911e-02,
          1.17863491e-02, 7.10197911e-02, 1.85048915e-02,
          -7.97552755e-04, 7.61815021e-03, 1.17525121e-03,
          7.62055768e-03, -1.64453033e-02, 8.22463185e-02,
          1.68424398e-02, 8.22463185e-02, 5.80211729e-03, 8.30879584e-02,
          1.70096066e-02, 8.30879584e-02, 6.61140541e-03, 6.63959375e-03,
          6.61140541e-03, 6.63959375e-03, -1.39624421e-02,
          -1.35650616e-02, 1.39624421e-02, 1.35650616e-02,
          -5.11775240e-02, -8.57548416e-02, 5.11775240e-02,
          8.57548416e-02, 9.99215711e-03, -6.06756397e-02,
          1.80487428e-02, 6.06756397e-02, 7.11009698e-03,
          -3.93088721e-03, 7.11009698e-03, 3.96521110e-03,
          -8.90142992e-02, -6.67978153e-02, 8.90142992e-02,
          6.67978153e-02, -2.11184919e-01, -3.08960825e-01,
          2.11184919e-01, 3.08960825e-01, 2.66320050e-01,
          -1.69178098e-01, 2.69475996e-01, 1.69178098e-01,
          7.90648535e-02, 1.42415089e-03, 7.90648535e-02, 8.92220903e-03,
          -6.28082007e-02, -3.61991003e-02, 6.28082007e-02,
          3.61991003e-02, -5.93386218e-02, -3.30195092e-02,
          1.17738679e-01, 8.39905813e-02, 4.11013454e-01, 1.27051637e-01,
          4.11013454e-01, 1.27051637e-01, 1.00449234e-01, 3.53913233e-02,
          1.00449234e-01, 3.53913233e-02, -3.36897722e-03,
          -3.24434513e-04, 3.53363995e-03, 1.80477323e-03,
          2.36796327e-02, 3.87718715e-02, 2.60757469e-02, 3.87718715e-02,
          7.60719851e-02, 6.22019470e-02, 7.60719851e-02, 6.22019470e-02,
          1.55246872e-02, 9.52417869e-03, 1.55246872e-02, 9.52417869e-03,
          -7.59562291e-03, -8.63349717e-03, 7.59562291e-03,
          8.63349717e-03, -3.32546532e-02, -6.95894286e-02,
          3.32546532e-02, 6.95894286e-02, 5.33462875e-03,
          -5.59939966e-02, 1.29878465e-02, 5.59939966e-02,
          5.54104568e-03, -4.53236653e-03, 5.54104568e-03,
          4.53236653e-03, -6.28872365e-02, -6.30224645e-02,
          6.28872365e-02, 6.30224645e-02, -1.65616393e-01,
          -3.55614424e-01, 1.65616393e-01, 3.55614424e-01,
          2.47343928e-01, -1.83510825e-01, 2.49037832e-01,
          1.85204729e-01, 6.36444017e-02, 3.60847963e-03, 6.36444017e-02,
          1.00601465e-02, -4.53475006e-02, -5.11007532e-02,
          4.53475006e-02, 5.11007532e-02, 2.57871822e-02,
          -1.10261284e-01, 1.28030166e-01, 1.27232239e-01,
          4.20879871e-01, 8.22416320e-02, 4.20879871e-01, 9.45987850e-02,
          8.27351511e-02, 2.86818594e-02, 8.27351511e-02, 2.86818594e-02,
          -1.19351991e-03, -4.42402484e-03, 2.02161865e-03,
          4.42402484e-03, 3.83902527e-02, 7.17749447e-03, 3.83902527e-02,
          1.25953034e-02, 7.99536407e-02, 3.00957877e-02, 7.99536407e-02,
          3.00957877e-02, 1.27093149e-02, 5.24335401e-03, 1.27093149e-02,
          5.24335401e-03, 4.12524026e-03, -1.02137011e-02,
          4.12524026e-03, 1.02137011e-02, 4.18253951e-02,
          -4.78758588e-02, 4.18253951e-02, 4.78758588e-02,
          4.18194495e-02, -2.59289369e-02, 4.18194495e-02,
          2.59289369e-02, 3.25052044e-03, -1.35224988e-03,
          3.25052044e-03, 1.36006274e-03, 4.95163500e-02,
          -1.97675880e-02, 4.95163500e-02, 2.27684658e-02,
          3.70767295e-01, -8.38277116e-02, 3.70767295e-01,
          1.17510788e-01, 3.43998522e-01, -1.02416985e-01,
          3.43998522e-01, 1.11652635e-01, 2.30871439e-02,
          -2.39982903e-02, 2.30871439e-02, 2.39982903e-02,
          5.41894026e-02, 4.84896637e-02, 5.41894026e-02, 4.84896637e-02,
          2.98906714e-01, 2.41119817e-01, 2.98906714e-01, 2.41119817e-01,
          2.17984781e-01, 6.59667999e-02, 2.17984781e-01, 9.38073471e-02,
          5.70532400e-03, -1.49343759e-02, 8.13056435e-03,
          1.53993573e-02, 5.86074963e-03, 1.14221359e-02, 5.86074963e-03,
          1.14221359e-02, 1.88628491e-02, 5.53835444e-02, 1.90721527e-02,
          5.53835444e-02, 2.94173183e-03, 3.04297246e-02, 5.73007809e-03,
          3.04297246e-02, -1.10538327e-03, 2.24026502e-03,
          1.11047889e-03, 2.24026502e-03, 2.38212830e-04,
          -3.45888198e-03, 1.70738960e-03, 3.50868749e-03,
          5.59136420e-02, -2.93049999e-02, 5.59136420e-02,
          3.26806344e-02, 1.93958972e-02, -1.52694844e-02,
          1.93958972e-02, 1.83969997e-02, 1.04959693e-03, 9.57940210e-05,
          1.10942195e-03, 2.08602491e-04, -2.98149814e-03,
          -1.24616660e-02, 5.99821936e-03, 1.44607741e-02,
          3.11877429e-01, -1.51697382e-01, 3.11877429e-01,
          1.67983621e-01, 3.37889582e-01, -1.47952840e-01,
          3.37889582e-01, 1.47952840e-01, 1.93312857e-02,
          -1.75577850e-04, 1.96191613e-02, 5.13369218e-03,
          6.90481439e-03, 7.80323008e-03, 7.83148687e-03, 9.33234394e-03,
          2.72207320e-01, 1.24692924e-01, 2.72207320e-01, 1.24692924e-01,
          3.61262590e-01, 1.03143089e-01, 3.61262590e-01, 1.03143089e-01,
          2.45882589e-02, 9.53675341e-03, 2.48646196e-02, 9.53675341e-03,
          2.19258154e-03, 2.34667561e-03, 2.19258154e-03, 2.34667561e-03,
          3.94683294e-02, 1.68493390e-02, 3.94683294e-02, 1.68493390e-02,
          4.58330549e-02, 1.04691908e-02, 4.58330549e-02, 1.05370572e-02,
          2.22814688e-03, 3.44652741e-04, 2.43905070e-03, 9.05833906e-04,
          -1.71289692e-04, -5.93349687e-04, 1.71289692e-04,
          5.93349687e-04, 1.22943465e-02, -1.51059171e-03,
          1.29212989e-02, 4.37217299e-03, 7.34176934e-02, 1.75272785e-02,
          7.34176934e-02, 1.75272785e-02, 1.91251549e-03, 3.14073084e-04,
          1.97203131e-03, 3.81698308e-04, -2.54663115e-04,
          5.68514783e-03, 8.70092888e-04, 5.98372053e-03, 2.19059318e-01,
          8.08874071e-02, 2.19059318e-01, 8.08874071e-02, 4.63826239e-01,
          8.67551565e-02, 4.63826239e-01, 8.67551565e-02, 1.18088373e-03,
          8.11313337e-04, 1.49891572e-03, 1.23565039e-03, 3.28873913e-03,
          9.09493119e-03, 3.28873913e-03, 9.30696260e-03, 1.34523004e-01,
          -7.90510513e-03, 1.44423857e-01, 7.53349587e-02,
          2.78557569e-01, -3.34551185e-01, 2.78557569e-01,
          3.34551185e-01, 1.83847137e-02, -5.82158603e-02,
          1.84507016e-02, 5.82158603e-02, 8.92403128e-04,
          -1.02448021e-03, 8.92403128e-04, 1.02448021e-03,
          -1.03223957e-02, -9.04769264e-03, 1.03223957e-02,
          9.04769264e-03, -5.05385315e-03, -2.99287997e-02,
          8.31046607e-03, 2.99287997e-02, 6.16716268e-03,
          -6.23239996e-03, 6.16716268e-03, 6.42677862e-03,
          -6.49469788e-04, -4.85336920e-03, 7.10379973e-04,
          5.04462654e-03, -7.25836447e-03, -1.75552890e-02,
          7.25836447e-03, 1.75842661e-02, 3.74971889e-04,
          -1.33770765e-04, 2.91108014e-03, 3.76276998e-03,
          -7.23001358e-05, 7.38218194e-04, 7.23001358e-05,
          7.85387470e-04, 9.18602757e-03, -6.54634610e-02,
          1.21070221e-02, 6.54634610e-02, 3.44224453e-01,
          -8.19329023e-02, 3.44224453e-01, 1.41669199e-01,
          9.19461064e-03, 1.11726120e-01, 3.34869809e-02, 1.11726120e-01,
          -1.68511458e-03, 1.15544563e-02, 2.30877311e-03,
          1.15544563e-02, 1.66248120e-02, 7.21778779e-04, 2.18927059e-02,
          2.36109761e-03, 5.82866967e-01, -3.39021650e-03,
          5.82866967e-01, 1.15423827e-02, -2.71324571e-02,
          2.38698814e-02, 5.32054156e-02, 2.38698814e-02,
          -3.45119624e-03, 3.99848260e-03, 3.45119624e-03,
          3.99848260e-03, 2.36049737e-03, -7.77426816e-04,
          3.04857711e-03, 7.77426816e-04, 8.64845291e-02,
          -3.40468017e-03, 8.64845291e-02, 3.55599751e-03,
          1.59615418e-04, -9.62388702e-04, 7.14467652e-03,
          1.41784945e-03, -4.12047899e-04, 4.23545920e-04,
          4.12047899e-04, 4.42308694e-04 ]
      - [ 1.20969967e-03, -1.16827190e-02, 1.21917145e-03,
          1.16827190e-02, 3.22616808e-02, -6.20654784e-02,
          3.22616808e-02, 6.20654784e-02, 2.09763404e-02,
          -1.47840530e-02, 2.12403052e-02, 1.49348602e-02,
          -4.44661327e-06, 1.27767871e-05, 1.91802101e-04,
          2.09604070e-04, -3.91528243e-03, -4.80584195e-03,
          1.05070025e-02, 1.94808468e-02, 3.47461581e-01,
          -1.11955822e-01, 3.47461581e-01, 1.22367956e-01,
          3.43814731e-01, -7.13290945e-02, 3.43814731e-01,
          7.13290945e-02, 1.27229409e-03, 4.34980466e-04, 3.94056644e-03,
          1.78818300e-03, -9.47475247e-03, 1.14066834e-02,
          1.54359089e-02, 1.18465209e-02, 2.87761301e-01, 1.20985724e-01,
          2.87761301e-01, 1.20985724e-01, 3.61417234e-01, 3.82168218e-02,
          3.61417234e-01, 6.62766322e-02, 1.58026244e-03, 8.08922516e-04,
          4.61918348e-03, 1.20303466e-03, -8.98994680e-04,
          8.58843513e-03, 1.99477910e-03, 8.58843513e-03, 3.35991010e-02,
          5.09177074e-02, 3.35991010e-02, 5.09177074e-02, 2.70530786e-02,
          2.01747809e-02, 2.71263495e-02, 2.03818511e-02,
          -3.82844271e-04, -9.14083867e-05, 3.82844271e-04,
          4.74980916e-04, -4.41061892e-03, -6.59577362e-03,
          4.41471394e-03, 6.59818854e-03, -9.45023261e-04,
          -6.86603487e-02, 7.44407251e-03, 6.86603487e-02,
          2.81261876e-02, -5.38371317e-02, 2.81261876e-02,
          5.38737029e-02, 2.60111759e-03, -1.38031738e-03,
          2.73720105e-03, 1.69143139e-03, -5.72939813e-02,
          -4.89916764e-02, 5.72939813e-02, 4.89916764e-02,
          -5.21678180e-02, -3.21618378e-01, 6.87809363e-02,
          3.21618378e-01, 3.78028303e-01, -2.87492037e-01,
          3.78028303e-01, 2.87492037e-01, 5.75801693e-02,
          -2.06326507e-02, 5.75984493e-02, 2.06326507e-02,
          -5.43308817e-02, -9.12995730e-03, 5.43308817e-02,
          2.43221950e-02, 8.73075128e-02, 4.76318505e-03, 1.32587895e-01,
          8.63071606e-02, 3.30091268e-01, 9.85326022e-02, 3.30091268e-01,
          1.17348686e-01, 6.73097894e-02, -1.22335795e-02,
          6.74156472e-02, 1.59478001e-02, -1.00042941e-02,
          9.26577020e-03, 1.00042941e-02, 9.26577020e-03, 5.67605207e-03,
          1.85932927e-02, 3.43253762e-02, 2.54031830e-02, 5.09247966e-02,
          2.56399135e-03, 5.09247966e-02, 1.95796322e-02, 1.12840999e-02,
          8.83498508e-03, 1.13543607e-02, 8.83498508e-03,
          -1.04791473e-03, 1.17931755e-04, 1.04985607e-03,
          1.63083547e-04, 4.97107673e-03, -1.68634951e-03,
          1.48505066e-02, 3.00805154e-03, 5.80236763e-02, 6.99129747e-03,
          5.80236763e-02, 7.23325368e-03, 1.31369452e-05,
          -3.35700432e-04, 2.23801588e-03, 9.91677167e-04,
          -4.57666395e-03, -1.56386010e-02, 4.80673788e-03,
          1.61606371e-02, 1.35356337e-01, 3.62266973e-02, 1.60408944e-01,
          7.35550225e-02, 3.58614743e-01, 1.23891167e-01, 3.58614743e-01,
          1.23891167e-01, -1.36991451e-02, 1.13508926e-04,
          1.45666134e-02, 3.15816281e-03, 8.26351251e-03,
          -3.72469611e-02, 8.26351251e-03, 3.72469611e-02,
          2.72916049e-01, -2.30152383e-01, 2.72916049e-01,
          2.30152383e-01, 3.91908258e-01, -1.88214049e-01,
          3.91908258e-01, 1.96160868e-01, -1.20122228e-02,
          -8.03621393e-03, 1.30601581e-02, 9.87914950e-03,
          2.28211540e-03, -2.39023706e-03, 2.31801509e-03,
          2.39116838e-03, 1.70909781e-02, -2.63449494e-02,
          1.80035383e-02, 2.65899841e-02, 6.56243265e-02,
          -3.95491160e-02, 6.56243265e-02, 4.02716920e-02,
          2.75006494e-03, -3.27002164e-03, 2.81601422e-03,
          3.29073612e-03, -8.36308755e-04, 2.41069341e-04,
          9.35271033e-04, 2.41069341e-04, 7.62428716e-03, 6.28222013e-03,
          1.31110335e-02, 6.59467001e-03, 5.27208038e-02, 2.73964740e-02,
          5.27208038e-02, 2.73964740e-02, -2.84627546e-04,
          2.01024022e-03, 2.71160435e-03, 2.06791330e-03,
          -4.91383439e-03, 2.25455407e-03, 5.08669717e-03,
          2.25455407e-03, 1.55396342e-01, 5.50453812e-02, 1.67323723e-01,
          5.50453812e-02, 4.33536798e-01, 1.24322549e-01, 4.33536798e-01,
          1.24322549e-01, -2.00176444e-02, 1.53305028e-02,
          2.02187039e-02, 1.53305028e-02, -4.74938238e-03,
          2.13297643e-03, 5.08293044e-03, 2.13297643e-03, 1.34669602e-01,
          -5.52240647e-02, 1.57623798e-01, 5.52240647e-02,
          4.68455285e-01, -1.16760425e-01, 4.68455285e-01,
          1.16760425e-01, -1.54242814e-02, -2.73683690e-04,
          1.79036818e-02, 4.79421066e-03, -1.13893976e-03,
          6.12953561e-04, 1.14307844e-03, 6.12953561e-04, 4.36948874e-04,
          8.79912637e-04, 1.43973427e-02, 7.20630679e-03, 6.98082224e-02,
          -1.26827462e-02, 6.98082224e-02, 1.31950844e-02,
          1.60990970e-03, 2.58636428e-04, 3.11019248e-03, 7.74536806e-04,
          6.07194845e-03, 7.56725902e-03, 6.07194845e-03, 7.56725902e-03,
          1.44862439e-02, 2.82110535e-02, 1.44862439e-02, 2.82110535e-02,
          3.78883467e-03, 4.09629531e-02, 7.20091676e-03, 4.09629531e-02,
          -1.60415110e-03, 5.97364409e-03, 1.75056816e-03,
          6.19152747e-03, 4.32614703e-03, 3.25878859e-02, 1.03581902e-02,
          3.25878859e-02, 2.65734762e-01, 2.44105890e-01, 2.65734762e-01,
          2.44105890e-01, 1.49038881e-01, 3.82113993e-01, 1.55813470e-01,
          3.82113993e-01, 2.07978510e-03, 9.25174579e-02, 1.43908542e-02,
          9.25174579e-02, 4.35510738e-04, 2.59195305e-02, 8.68862495e-03,
          2.68949922e-02, 1.48402289e-01, -7.78969303e-02,
          1.87859088e-01, 1.12783693e-01, 3.62685442e-01,
          -3.55674103e-02, 3.62685442e-01, 1.14060387e-01,
          3.75013836e-02, 4.41504223e-03, 3.77298184e-02, 1.10720880e-02,
          -2.86208582e-03, 5.56115573e-03, 4.37667547e-03,
          5.56115573e-03, 1.67591404e-02, 1.64940245e-02, 5.19557111e-02,
          1.64940245e-02, 6.75858110e-02, 4.89778034e-02, 6.98344484e-02,
          4.89778034e-02, 2.66342238e-03, 2.56225071e-03, 4.27346304e-03,
          3.30057158e-03, 9.37820971e-03, 1.33155787e-03, 9.37820971e-03,
          1.62571075e-03, 1.86301153e-02, 1.71042494e-02, 2.25019138e-02,
          1.71042494e-02, 1.38014145e-02, 8.17191042e-03, 1.42831737e-02,
          8.85225274e-03, -5.15414518e-04, 3.54613084e-03,
          1.09457865e-03, 3.78544023e-03, 6.84406087e-02, 8.88107624e-03,
          6.84406087e-02, 1.49180712e-02, -3.13464776e-02,
          -1.91042453e-01, 1.47302911e-01, 2.26826325e-01,
          2.39491329e-01, -8.46954361e-02, 2.39491329e-01,
          1.13230176e-01, 1.74369924e-02, 2.01706383e-02, 2.03369204e-02,
          2.01706383e-02, 2.10427288e-02, -2.56775487e-02,
          2.55738590e-02, 2.69584041e-02, 6.01002127e-02,
          -2.44451776e-01, 1.75562426e-01, 2.66993850e-01,
          5.13335824e-01, 9.65341255e-02, 5.13335824e-01, 1.30048573e-01,
          1.57736894e-02, 6.31175982e-03, 1.80740263e-02, 1.03602484e-02,
          -1.51989667e-03, -1.84953597e-03, 1.82559341e-03,
          2.55837454e-03, 6.78924173e-02, 2.59063672e-02, 6.87567815e-02,
          2.85082012e-02, 5.77631183e-02, 2.87322961e-02, 5.89120425e-02,
          2.93380693e-02, 1.09256105e-03, -1.33264228e-03,
          1.20175024e-03, 1.51027762e-03, 3.61981639e-03,
          -3.42122163e-03, 5.12628863e-03, 3.42122163e-03,
          5.05637117e-02, -6.72940584e-03, 5.05637117e-02,
          6.72940584e-03, 5.38762333e-03, -8.05288367e-03,
          6.93195034e-03, 8.80224444e-03, 2.61249399e-04,
          -8.59841937e-04, 1.40821270e-03, 1.39647059e-03,
          4.77997139e-02, -5.66541962e-03, 5.25341555e-02,
          8.84533953e-03, 3.99680138e-01, 1.01301568e-02, 3.99680138e-01,
          2.57519819e-02, -1.26987413e-01, -1.97837781e-02,
          1.39611468e-01, 8.74392763e-02, 2.09631398e-02,
          -2.84581054e-02, 2.11400576e-02, 2.88499203e-02,
          4.39016595e-02, 1.42458603e-02, 4.43764068e-02, 1.42458603e-02,
          4.71678674e-01, -5.23110069e-02, 4.71678674e-01,
          6.81537762e-02, -5.43563664e-02, 2.26998016e-01,
          1.71017542e-01, 2.35572442e-01, 2.54620193e-03, 5.18928096e-02,
          1.69450212e-02, 5.29994927e-02, 2.04782025e-03,
          -3.31855100e-03, 2.90509756e-03, 3.82449478e-03,
          6.11690208e-02, -4.49026562e-02, 6.11690208e-02,
          4.49026562e-02, 5.74654676e-02, -3.62139866e-02,
          5.74654676e-02, 4.16414440e-02, -6.23408414e-04,
          5.35200350e-04, 1.62584195e-03, 6.70384662e-03,
          -6.52048364e-03, 2.78283958e-03, 6.52048364e-03,
          2.89636012e-03, 4.93810996e-02, 5.46250232e-02, 6.10502996e-02,
          5.46250232e-02, 8.90606642e-02, 4.78271283e-02, 8.90606642e-02,
          4.78271283e-02, 5.48589334e-04, 2.37881811e-03, 1.07075262e-03,
          2.41182279e-03, -6.69507263e-03, 8.08875728e-03,
          8.51833727e-03, 8.88022315e-03, 4.30888444e-01, 2.10564002e-01,
          4.36337501e-01, 2.10564002e-01, 2.63041437e-01, 2.34627221e-02,
          2.77746767e-01, 1.04617871e-01, -7.13122357e-03,
          -2.29257550e-02, 7.16755912e-03, 2.29257550e-02,
          -7.67231220e-03, 3.89867499e-02, 8.53389595e-03,
          3.89867499e-02, 2.48705894e-01, -1.69635974e-02,
          2.68500566e-01, 1.44078285e-01, 2.11930245e-01,
          -2.07436159e-01, 2.18692511e-01, 2.07436159e-01,
          -3.77591234e-03, 4.57510678e-03, 1.32407583e-02,
          9.75851528e-03, 1.36763032e-03, 2.58368067e-03, 1.84136874e-03,
          3.70368874e-03, -1.57197025e-02, 4.56929170e-02,
          1.75403524e-02, 4.57406193e-02, 1.21726198e-02, 2.39355140e-03,
          2.27859337e-02, 2.35605948e-02, 4.77947807e-03,
          -4.00007563e-03, 4.90310555e-03, 4.12636390e-03,
          3.62650817e-03, 1.09561731e-03, 3.74397449e-03, 1.43059681e-03,
          4.85162735e-02, 1.86334774e-02, 4.85162735e-02, 1.86334774e-02,
          3.49618793e-02, 2.83875689e-02, 3.49618793e-02, 2.83875689e-02,
          -8.78876890e-04, 1.99494837e-03, 1.24509318e-03,
          2.23454461e-03, 2.92608663e-02, -9.23812622e-05,
          2.93183606e-02, 4.61353501e-03, 4.24427330e-01, 3.90498601e-02,
          4.24427330e-01, 4.44236137e-02, 2.17873290e-01, 5.52237332e-02,
          2.57498711e-01, 7.50326365e-02, -3.10047455e-02,
          -5.11440402e-03, 3.10047455e-02, 6.99590333e-03,
          1.40457451e-02, 1.37713936e-03, 1.61005408e-02, 5.49205858e-03,
          4.50675726e-01, -2.88943220e-02, 4.50675726e-01,
          3.02897338e-02, 1.77238643e-01, -5.34647107e-02,
          2.08026305e-01, 5.49358502e-02, -1.56508908e-02,
          9.14306380e-03, 1.57410558e-02, 9.53853037e-03, 1.95014267e-03,
          -1.42752950e-03, 2.03430466e-03, 1.44033530e-03,
          6.49848431e-02, -8.94427765e-03, 6.49848431e-02,
          8.94427765e-03, 3.32706869e-02, 1.78540613e-05, 3.32706869e-02,
          3.30638932e-03, -8.32368794e-04, 6.13429293e-04,
          8.32368794e-04, 7.64633238e-04, -3.39930085e-03,
          -7.41571095e-03, 3.57104582e-03, 7.41571095e-03,
          -1.25618698e-02, -3.33492570e-02, 2.29850616e-02,
          3.33492570e-02, 4.97528762e-02, 1.16440039e-02, 4.99790534e-02,
          1.62077677e-02, 6.86244713e-03, 4.32123849e-03, 6.86244713e-03,
          4.32123849e-03, -7.18532689e-03, -2.16752142e-02,
          8.47227126e-03, 2.16752142e-02, 1.68145835e-01, 2.76272558e-03,
          1.86943144e-01, 4.96499650e-02, 4.36615825e-01, 6.07658587e-02,
          4.36615825e-01, 7.04800710e-02, 6.35083690e-02, 2.22571325e-02,
          6.36053085e-02, 2.22571325e-02, 2.31122784e-03, 1.19902818e-02,
          3.27220047e-03, 1.45460060e-02, 1.29886687e-01, 3.56228240e-02,
          1.32086530e-01, 6.38173521e-02, 4.80316788e-01,
          -6.02041408e-02, 4.80316788e-01, 6.18117563e-02,
          6.66789711e-02, -6.28105458e-03, 6.75287545e-02,
          8.54404923e-03, 8.03875970e-04, 6.27122761e-04, 1.80506695e-03,
          1.49674551e-03, -1.81108131e-03, 2.17851205e-03,
          3.58119910e-03, 8.96435138e-03, 5.96234202e-02,
          -1.18841166e-02, 5.96234202e-02, 1.18841166e-02,
          9.62846633e-03, -2.33641360e-03, 9.62846633e-03,
          2.33982061e-03, 8.43526330e-03, 2.60566734e-03, 8.43743607e-03,
          2.60639167e-03, 4.18622009e-02, 3.29785198e-02, 4.18622009e-02,
          3.29785198e-02, 7.39544211e-03, 6.37913076e-03, 8.12503602e-03,
          9.36032832e-03, -7.39823910e-04, -1.37365167e-03,
          7.39823910e-04, 1.37365167e-03, 6.22246675e-02,
          -1.12423208e-02, 6.42071217e-02, 1.57913938e-02,
          3.76624525e-01, 2.52348091e-02, 3.76624525e-01, 7.88695291e-02,
          -1.15775786e-01, 5.22789843e-02, 1.15775786e-01,
          6.23118915e-02, -8.22621677e-03, -6.25243643e-03,
          8.22621677e-03, 6.25243643e-03, 1.30167194e-02, 2.90968381e-02,
          3.38950492e-02, 2.90968381e-02, 5.33110321e-01,
          -5.36988303e-02, 5.33110321e-01, 6.48073107e-02,
          -1.60225704e-01, 8.28565434e-02, 1.78435355e-01,
          8.28565434e-02, -1.49104856e-02, 6.37857942e-04,
          1.49104856e-02, 3.14228330e-03, -5.56398975e-03,
          7.71719916e-03, 5.56398975e-03, 7.71719916e-03, 6.75459802e-02,
          1.52344853e-02, 6.76412061e-02, 1.53247453e-02,
          -1.67194046e-02, 2.42885714e-03, 3.18510756e-02,
          6.02753460e-03, -3.59219708e-03, -1.50045467e-04,
          3.59219708e-03, 3.28969647e-04, -3.49450787e-03,
          -2.58005457e-03, 3.49450787e-03, 2.58005457e-03,
          2.28178930e-02, 1.59311648e-02, 2.51186211e-02, 1.74964257e-02,
          4.22087982e-02, 3.82600315e-02, 4.22087982e-02, 3.82600315e-02,
          4.78267623e-03, 2.23192107e-03, 4.78267623e-03, 2.28983746e-03,
          -5.98006509e-03, 1.08104979e-03, 6.97779423e-03,
          3.70173901e-03, 3.41930240e-01, 5.18655367e-02, 3.41930240e-01,
          8.50093663e-02, 2.76766360e-01, 1.47893384e-01, 2.76766360e-01,
          1.47893384e-01, 1.44547212e-03, 7.33014150e-03, 7.12382561e-03,
          8.59051384e-03, -1.39199393e-02, 2.96563040e-02,
          1.39199393e-02, 2.96942797e-02, 2.67922372e-01,
          -4.22320440e-02, 2.96198040e-01, 1.06642663e-01,
          4.19644594e-01, -5.17341681e-02, 4.19644594e-01,
          8.28988403e-02, -1.63078234e-02, 8.22724216e-03,
          1.63078234e-02, 8.51140358e-03, -5.25295828e-03,
          9.36265104e-03, 5.25295828e-03, 9.36265104e-03,
          -8.38690810e-03, 3.49359252e-02, 2.93571595e-02,
          3.49359252e-02, 6.97329417e-02, -7.29000010e-03,
          6.97329417e-02, 9.66500863e-03, -1.17159926e-03,
          1.46983122e-03, 2.23951275e-03, 1.46983122e-03, 2.00240081e-03,
          -2.17268476e-03, 2.00744183e-03, 2.19249306e-03,
          -2.65031215e-03, 1.20987780e-02, 8.37113056e-03,
          1.85206532e-02, -1.57740917e-02, 1.95118506e-02,
          1.58865284e-02, 2.05504168e-02, 8.48648138e-04,
          -5.84130350e-04, 1.15999684e-03, 8.95478996e-04,
          2.23069247e-02, -6.57272059e-03, 2.35795248e-02,
          6.75614970e-03, 2.50353813e-01, 1.70262098e-01, 2.50353813e-01,
          1.74016118e-01, -1.84107304e-01, 3.49128246e-01,
          1.86554238e-01, 3.49128246e-01, -2.02042777e-02,
          3.35823856e-02, 2.16186270e-02, 3.36137377e-02, 1.73125528e-02,
          -2.49263947e-03, 2.35624555e-02, 6.80294400e-03,
          4.47392225e-01, -7.54010975e-02, 4.47392225e-01,
          8.27418640e-02, -1.74963812e-03, 1.26944318e-01,
          1.58740029e-01, 1.59026816e-01, -3.80392969e-02,
          4.75713424e-02, 3.80392969e-02, 4.75713424e-02, 8.71553493e-04,
          7.02565187e-04, 2.04733131e-03, 7.02565187e-04, 5.71267903e-02,
          -7.12791085e-03, 5.71267903e-02, 7.86337815e-03,
          3.29553224e-02, -4.78683040e-03, 3.34480964e-02,
          6.63046865e-03, -2.63443007e-03, 2.58578942e-03,
          2.63443007e-03, 2.59569357e-03, 1.13135506e-03,
          -7.52880191e-03, 2.52649188e-03, 7.70885451e-03,
          -6.13496220e-03, 3.60786822e-03, 9.19207092e-03,
          9.05796420e-03, -7.07713142e-03, 4.68278816e-03,
          7.07713142e-03, 5.01235062e-03, 1.09995690e-05,
          -2.03598847e-05, 1.09995690e-05, 2.03598847e-05,
          9.01883915e-02, -4.90554199e-02, 9.01883915e-02,
          4.90554199e-02, 2.22395822e-01, 6.00416102e-02, 2.31363207e-01,
          1.16388500e-01, -1.30635500e-01, 1.66390926e-01,
          1.30635500e-01, 1.66390926e-01, -5.37328981e-03,
          3.32292193e-03, 5.37328981e-03, 3.32292193e-03, 1.12415969e-01,
          -3.57722938e-02, 1.12515077e-01, 3.57722938e-02,
          5.42691946e-01, 6.31787395e-03, 5.42691946e-01, 7.96239600e-02,
          -1.95518211e-01, 1.41679943e-01, 2.01693952e-01,
          1.41679943e-01, -2.49424651e-02, 1.07689509e-02,
          2.49424651e-02, 1.07689509e-02, 1.53907025e-02,
          -2.37430143e-03, 1.56976841e-02, 2.63215159e-03,
          1.05944917e-01, -1.78753398e-02, 1.05944917e-01,
          1.78753398e-02, -1.70817375e-02, 1.78880442e-03,
          3.03527135e-02, 7.81310722e-03, -4.82834643e-03,
          1.53122586e-03, 4.82834643e-03, 1.55209785e-03, 1.40810059e-02,
          -4.58572153e-03, 1.40810059e-02, 4.64292802e-03,
          5.29907383e-02, -3.57042849e-02, 5.37341461e-02,
          3.57042849e-02, -5.58601553e-03, -1.00920489e-02,
          6.71673100e-03, 1.00920489e-02, -2.68415594e-03,
          -2.34944117e-03, 2.74136197e-03, 2.34944117e-03,
          7.62600452e-02, 1.34242256e-03, 8.03278759e-02, 1.62164178e-02,
          5.48064291e-01, 4.97130714e-02, 5.48064291e-01, 7.61065409e-02,
          -1.12332799e-01, -4.45231190e-03, 1.31976113e-01,
          6.37180433e-02, -1.55213401e-02, -3.66553175e-03,
          1.56507101e-02, 6.80727139e-03, 5.10572381e-02, 6.68814331e-02,
          5.82871214e-02, 6.68814331e-02, 3.19398373e-01,
          -3.40267159e-02, 3.46552193e-01, 1.56795651e-01,
          -5.73679805e-02, -1.66927919e-01, 9.24475715e-02,
          1.70419782e-01, 7.12289382e-03, 1.30799878e-02, 8.25360883e-03,
          1.30799878e-02, 8.03785108e-04, 9.58079007e-03, 1.83155213e-03,
          1.02408016e-02, -2.67894994e-02, 7.50864949e-03,
          2.73847654e-02, 1.38528114e-02, 2.01166403e-02, 3.97237577e-03,
          2.01166403e-02, 6.23380672e-03, 1.96448597e-03, 7.20825396e-04,
          1.96448597e-03, 7.39420473e-04 ]
      - [ 2.41749221e-03, -5.44914146e-05, 2.59668543e-03,
          6.21048559e-04, -2.15475131e-02, 8.92656669e-03,
          2.30289828e-02, 2.03325059e-02, 9.20631513e-02, 1.29006123e-02,
          9.20631513e-02, 3.00346352e-02, 3.91124636e-02, 1.13873379e-02,
          3.91124636e-02, 1.13873379e-02, 2.23472156e-02,
          -2.05244124e-02, 2.23472156e-02, 2.05244124e-02,
          1.83617651e-01, 1.45750731e-01, 2.24107161e-01, 1.94496199e-01,
          2.70522654e-01, 1.66600183e-01, 3.09512168e-01, 2.75765866e-01,
          2.20316544e-01, -1.31099969e-01, 2.20316544e-01,
          1.31099969e-01, 1.07500106e-02, -7.28199957e-03,
          1.07500106e-02, 7.28199957e-03, 3.65571648e-01,
          -1.38109311e-01, 3.65571648e-01, 1.38109311e-01,
          -6.24574535e-02, -1.95449427e-01, 1.52452305e-01,
          1.95449427e-01, 5.93912788e-02, -6.40002713e-02,
          5.93912788e-02, 6.40002713e-02, 1.01116567e-03,
          -2.26219141e-04, 1.01116567e-03, 2.26219141e-04,
          2.81957965e-02, -1.87061541e-02, 2.81957965e-02,
          1.87061541e-02, 1.34934243e-02, -1.84361376e-02,
          1.52871702e-02, 2.14226302e-02, 5.24183153e-04, 3.08261631e-04,
          1.30622997e-03, 1.48318568e-03, -1.17650256e-03,
          -2.54110113e-04, 1.17650256e-03, 3.08840885e-04,
          2.69139595e-02, 2.87052873e-03, 2.75221113e-02, 4.50075278e-03,
          6.29252270e-02, 5.38928853e-03, 6.29252270e-02, 5.77214081e-03,
          1.73765910e-03, -3.54316144e-04, 3.77023988e-03,
          9.81398160e-04, -7.95485452e-03, 3.73094808e-03,
          7.95485452e-03, 3.73094808e-03, 2.48421088e-01, 5.95737547e-02,
          2.48421088e-01, 6.28717914e-02, 3.59620601e-01, 8.88907611e-02,
          3.59620601e-01, 8.96311700e-02, -4.27101925e-03,
          -8.05944111e-03, 1.66320205e-02, 9.01847240e-03,
          -1.43671399e-02, -1.57649517e-02, 1.43671399e-02,
          1.57649517e-02, 3.07828575e-01, -1.55410200e-01,
          3.08434516e-01, 1.55410200e-01, 3.94289762e-01,
          -7.89350197e-02, 3.94289762e-01, 1.06111974e-01,
          -1.93877257e-02, -3.45989410e-03, 1.95791535e-02,
          7.85036758e-03, -3.86984344e-03, 3.73915333e-04,
          3.86984344e-03, 1.10350922e-03, 2.84864008e-02,
          -2.17696540e-02, 3.35084945e-02, 2.38547865e-02,
          6.34503439e-02, -4.94394526e-02, 6.34503439e-02,
          4.94394526e-02, -6.02713728e-04, -5.58317034e-03,
          2.33441568e-03, 5.58317034e-03, 1.06686410e-02,
          -3.37559707e-03, 1.06686410e-02, 3.37559707e-03,
          5.31670637e-02, -6.13400806e-03, 5.31670637e-02,
          7.05375848e-03, -2.52031442e-02, -1.17006933e-03,
          2.79927664e-02, 6.94688736e-03, -8.58864281e-03,
          1.18727039e-03, 8.58864281e-03, 1.32029178e-03, 8.22090730e-02,
          1.26504255e-02, 8.22090730e-02, 1.34519804e-02, 3.90775919e-01,
          8.13601986e-02, 3.90775919e-01, 8.13601986e-02,
          -2.24027440e-01, 5.28225861e-02, 2.25596964e-01,
          6.18181750e-02, -5.84890805e-02, -2.91149854e-03,
          5.84890805e-02, 5.12087205e-03, 6.59235641e-02,
          -8.42976570e-03, 6.59235641e-02, 1.51852220e-02,
          4.34807539e-01, -1.04291618e-01, 4.34807539e-01,
          1.04291618e-01, -2.25430951e-01, 1.53495441e-03,
          2.44778126e-01, 5.38476110e-02, -6.16299324e-02,
          4.66565834e-03, 6.16299324e-02, 4.66565834e-03, 6.76844781e-03,
          -4.01860476e-03, 6.76844781e-03, 4.01860476e-03,
          7.65363574e-02, -2.88348515e-02, 7.65363574e-02,
          2.88348515e-02, -1.66266691e-02, -1.22540174e-02,
          3.07654217e-02, 1.22540174e-02, -8.51797685e-03,
          -4.11973888e-04, 8.51797685e-03, 4.11973888e-04,
          -2.47040354e-02, -3.19872312e-02, 2.47040354e-02,
          3.19872312e-02, -1.02214880e-01, -1.21513009e-01,
          1.02214880e-01, 1.21513009e-01, -1.01398844e-02,
          -1.14547219e-02, 3.67479846e-02, 3.75735909e-02,
          2.50025447e-02, 2.22204532e-03, 2.50025447e-02, 5.29546710e-03,
          -6.84389547e-02, -1.19100377e-01, 6.84389547e-02,
          1.19100377e-01, 1.41522065e-01, -3.23659070e-02,
          2.48946548e-01, 1.82288334e-01, 2.21931919e-01, 2.84315675e-01,
          2.21931919e-01, 2.84315675e-01, 1.30683333e-01, 1.61903743e-02,
          1.30683333e-01, 3.38564552e-02, 9.38683283e-03,
          -1.96287800e-02, 1.90508198e-02, 3.13169956e-02,
          3.91414672e-01, -1.22621879e-01, 3.91414672e-01,
          1.27493203e-01, 2.00710759e-01, -1.57603920e-01,
          2.00710759e-01, 1.64735779e-01, 6.14733323e-02,
          -5.80585524e-02, 6.14733323e-02, 5.80585524e-02,
          -4.31135902e-03, 9.75584332e-03, 4.31135902e-03,
          9.75584332e-03, 1.89824253e-02, -1.54333981e-03,
          2.44252272e-02, 2.67783441e-02, 2.11695097e-02,
          -3.79287116e-02, 2.12551989e-02, 3.91351506e-02,
          3.83853284e-03, -7.02964701e-03, 3.83853284e-03,
          7.02964701e-03, -5.38963010e-04, -3.71400290e-03,
          1.87229563e-03, 3.71400290e-03, -4.05077077e-02,
          -1.30117843e-02, 4.05077077e-02, 1.33543843e-02,
          9.06408671e-03, -6.36449270e-03, 2.60380395e-02,
          7.50124827e-03, 1.06002167e-02, 2.75934953e-03, 1.06002167e-02,
          2.75934953e-03, -3.62093863e-03, -3.54984328e-02,
          1.01312203e-02, 3.65070552e-02, -1.96235716e-01,
          -2.59210646e-01, 1.96235716e-01, 2.59210646e-01,
          2.61921048e-01, -2.86122914e-02, 3.01444501e-01,
          8.33766907e-02, 8.12227502e-02, 1.46661503e-02, 8.12227502e-02,
          1.47190243e-02, -6.26549944e-02, 6.90797642e-02,
          6.26549944e-02, 6.90797642e-02, -1.64713666e-01,
          5.89879639e-02, 1.94774076e-01, 1.41189888e-01, 4.67621893e-01,
          5.95926605e-02, 4.67621893e-01, 6.42885789e-02, 7.77081847e-02,
          1.80537961e-02, 7.77081847e-02, 1.84908006e-02,
          -2.14019492e-02, 2.29289718e-02, 2.14019492e-02,
          2.29289718e-02, -8.91572013e-02, 8.04184899e-02,
          8.91572013e-02, 8.04184899e-02, 4.36710604e-02,
          -1.06245382e-02, 5.34723327e-02, 2.26169378e-02,
          1.39444321e-02, -4.59733186e-03, 1.39444321e-02,
          4.59733186e-03, 6.57412282e-04, -3.15450761e-03,
          9.18056641e-04, 3.27375741e-03, -2.40089372e-02,
          -3.92580144e-02, 2.40651704e-02, 3.94222885e-02,
          -1.31863577e-04, -3.45660113e-02, 1.49362898e-02,
          3.45660113e-02, 1.77473784e-03, -4.32476168e-03,
          2.80852360e-03, 4.32476168e-03, -1.99266039e-02,
          -5.16525097e-02, 2.01074053e-02, 5.16525097e-02,
          -1.52928635e-01, -4.02652085e-01, 1.60942644e-01,
          4.02652085e-01, 2.63190120e-01, -1.74364626e-01,
          2.69277334e-01, 1.83124557e-01, 1.07630193e-02, 7.39939138e-03,
          2.60266084e-02, 1.18278796e-02, -1.94015671e-02,
          -2.09725238e-02, 1.94015671e-02, 2.09725238e-02,
          -2.64751073e-02, 2.47714464e-02, 1.06108777e-01,
          1.01916447e-01, 4.27190840e-01, 7.58422092e-02, 4.27190840e-01,
          7.76193812e-02, 1.61545761e-02, 5.56688709e-03, 3.24509144e-02,
          1.04107903e-02, -1.06702431e-03, 9.64445353e-05,
          1.06702431e-03, 1.96402980e-04, 1.19898198e-02, 5.80954831e-03,
          1.20029412e-02, 7.91852456e-03, 4.11511734e-02,
          -7.51297339e-04, 4.11511734e-02, 8.15774035e-03,
          1.67921174e-03, -2.89512193e-03, 3.03224591e-03,
          2.89512193e-03, -1.17636379e-03, -6.30780868e-03,
          1.96322287e-03, 6.30780868e-03, 1.60640720e-02,
