%YAML:1.0
opencv_ml_svm:
   format: 3
   svmType: ONE_CLASS
   kernel:
      type: RBF
      gamma: 1.0000000000000001e-01
   nu: 2.9999999999999999e-02
   term_criteria: { iterations:500 }
   var_count: 1408
   class_count: 1
   sv_total: 98
   support_vectors:
      - [ 3.96769290e-04, -2.06316196e-04, 3.96769290e-04,
          2.06316196e-04, 6.49604499e-02, -2.74082161e-02,
          6.49604499e-02, 2.74082161e-02, 3.11007481e-02,
          -4.00658771e-02, 3.11007481e-02, 4.00658771e-02,
          3.56448605e-03, -3.89027293e-03, 4.16725315e-03,
          3.89027293e-03, 7.32546672e-03, 2.29493063e-03, 7.84044154e-03,
          2.93448521e-03, 4.22053933e-01, 1.11044683e-01, 4.22053933e-01,
          1.11813165e-01, 2.18703181e-01, 8.38757530e-02, 2.18703181e-01,
          9.43553522e-02, 1.45177143e-02, -2.27969536e-03,
          1.76354293e-02, 1.43297520e-02, 7.25839334e-03,
          -2.21131486e-03, 8.11918266e-03, 3.46743735e-03,
          3.62364888e-01, -1.57191128e-01, 3.62364888e-01,
          1.57191128e-01, 1.26904458e-01, -2.63101131e-01,
          1.27672940e-01, 2.63101131e-01, 9.47632082e-03,
          -4.32110839e-02, 9.47632082e-03, 4.32110839e-02, 0., 0., 0.,
          0., 2.69364584e-02, -1.64087024e-02, 2.69364584e-02,
          1.64087024e-02, 2.42756829e-02, -2.43294071e-02,
          2.42756829e-02, 2.43294071e-02, 2.13303789e-03,
          -1.31205318e-03, 2.13303789e-03, 1.31205318e-03,
          7.09725078e-03, 3.62352189e-03, 7.09725078e-03, 3.62352189e-03,
          7.63950050e-02, 9.38075501e-03, 7.63950050e-02, 1.96789280e-02,
          4.01511379e-02, 1.16340611e-02, 4.02691402e-02, 2.70971321e-02,
          1.08020345e-03, 6.76482031e-03, 1.99719658e-03, 6.86841318e-03,
          5.77729456e-02, 1.35151315e-02, 5.77729456e-02, 1.35151315e-02,
          2.54945219e-01, -1.71152502e-03, 2.54945219e-01,
          6.75092340e-02, 4.68269348e-01, -1.23695582e-01,
          4.68269348e-01, 1.29404262e-01, -1.56720504e-02,
          -2.00540163e-02, 2.81080473e-02, 2.84328908e-02,
          6.54801503e-02, 1.98054779e-02, 6.54801503e-02, 1.98054779e-02,
          2.00608552e-01, 1.88248768e-01, 2.03826487e-01, 1.88248768e-01,
          2.78801531e-01, -3.85829830e-03, 2.86365032e-01,
          1.34052053e-01, -8.54375139e-02, -6.77986369e-02,
          8.54375139e-02, 6.77986369e-02, 9.16687958e-03, 3.52854072e-03,
          9.16687958e-03, 3.56116751e-03, 5.23334462e-03,
          -9.42525454e-03, 2.01877337e-02, 1.66833494e-02,
          -1.37423724e-02, -4.10972014e-02, 1.52859781e-02,
          4.14477997e-02, -1.69667713e-02, -8.35179351e-03,
          1.69667713e-02, 8.78832862e-03, -2.44407263e-03,
          1.55567285e-03, 2.44407263e-03, 1.58550276e-03, 2.32039578e-03,
          3.18490248e-03, 4.33558179e-03, 7.15968851e-03, 6.81945309e-02,
          1.05978660e-02, 6.81945309e-02, 1.23655675e-02, 2.03126799e-02,
          4.29571746e-03, 2.03126799e-02, 4.29571746e-03,
          -9.18272231e-03, -3.95197701e-03, 9.18272231e-03,
          4.87120356e-03, -1.80751532e-02, -1.06105546e-03,
          3.88288908e-02, 3.48735861e-02, 5.77031612e-01,
          -9.78663843e-03, 5.77031612e-01, 5.06794341e-02,
          1.36555389e-01, -1.26159983e-02, 1.37343302e-01,
          2.52265912e-02, 4.34580637e-04, 1.16483402e-02, 4.06974554e-03,
          1.16483402e-02, 1.39364004e-02, 1.29802361e-01, 3.55783664e-02,
          1.29802361e-01, 3.10326070e-01, 3.14465747e-03, 3.10326070e-01,
          1.23971857e-01, 1.03718676e-01, -8.26542899e-02,
          1.03718676e-01, 8.26542899e-02, 9.64175502e-04, 1.00382010e-03,
          9.64175502e-04, 1.00382010e-03, 7.07489997e-03, 1.05947452e-02,
          7.07489997e-03, 1.05947452e-02, 9.69988294e-03, 8.05118028e-03,
          9.69988294e-03, 9.15098190e-03, 2.92607513e-03,
          -3.01087182e-03, 2.95499619e-03, 3.03148618e-03,
          3.06990324e-03, -7.19287526e-03, 3.06990324e-03,
          7.19287526e-03, 2.44424026e-02, -4.04948182e-02,
          2.44424026e-02, 4.04948182e-02, 2.97375023e-02,
          -1.11637600e-02, 2.97375023e-02, 1.29508944e-02,
          -3.31461051e-04, 1.30381482e-03, 7.43722951e-04,
          1.30427314e-03, 1.41722364e-02, -1.86987370e-02,
          1.41722364e-02, 1.88782886e-02, 2.16268793e-01,
          -1.77528620e-01, 2.16268793e-01, 1.77528620e-01,
          3.75934660e-01, -1.49443612e-01, 3.75934660e-01,
          1.49443612e-01, 1.67915672e-02, -4.02693124e-03,
          1.73109472e-02, 6.92931702e-03, 6.49422687e-03, 8.41567013e-03,
          9.37231537e-03, 9.00078844e-03, 2.34760627e-01, 8.11104700e-02,
          2.34760627e-01, 8.45840350e-02, 4.08978850e-01, 1.37052342e-01,
          4.08978850e-01, 1.37052342e-01, 1.83758885e-02, 1.27922017e-02,
          2.02504154e-02, 1.29953064e-02, -2.44572479e-03,
          6.09305874e-03, 2.44572479e-03, 6.09305874e-03, 3.94247770e-02,
          1.57608259e-02, 4.00547050e-02, 1.57608259e-02, 5.62545843e-02,
          4.16287174e-03, 5.62545843e-02, 1.31778056e-02, 1.77143526e-03,
          -4.74880362e-04, 1.96372042e-03, 1.73297280e-03,
          -2.08132295e-03, -5.32337406e-04, 2.08132295e-03,
          8.37543397e-04, 2.54473630e-02, -1.29247205e-02,
          2.76362970e-02, 1.29247205e-02, 7.08991289e-02,
          -3.52879837e-02, 7.08991289e-02, 3.52879837e-02,
          2.50453711e-04, -8.25844612e-03, 2.13880977e-03,
          8.25844612e-03, -3.42602767e-02, 1.91983171e-02,
          3.42602767e-02, 1.91983171e-02, 6.07442893e-02,
          -2.11437475e-02, 1.28058225e-01, 5.12538888e-02,
          3.49849492e-01, -1.06692947e-01, 3.49849492e-01,
          1.17609024e-01, 1.54470867e-02, -1.97128975e-03,
          1.77105796e-02, 2.24308204e-02, -4.56058234e-02,
          5.11183850e-02, 4.56058234e-02, 5.11183850e-02,
          -3.76561247e-02, 3.51928890e-01, 1.23641849e-01,
          3.51928890e-01, 3.50667179e-01, 2.68920690e-01, 3.50667179e-01,
          2.68920690e-01, 3.90912369e-02, 4.68077101e-02, 4.05236036e-02,
          4.68077101e-02, -2.12442735e-03, 5.74372383e-03,
          2.24985043e-03, 5.74547146e-03, -1.00881001e-02,
          6.67367280e-02, 1.02487337e-02, 6.67367280e-02, 2.94889677e-02,
          5.15182614e-02, 2.95192152e-02, 5.15182614e-02, 5.58072422e-03,
          3.26995016e-03, 5.72639564e-03, 3.43262660e-03, 1.78413279e-03,
          1.70651742e-03, 2.01196340e-03, 1.77001173e-03, 9.40488651e-03,
          4.37769778e-02, 9.99932177e-03, 4.37769778e-02, 2.51903087e-02,
          5.87699786e-02, 2.51903087e-02, 5.87699786e-02,
          -4.34662867e-03, 5.21006482e-03, 4.37837560e-03,
          5.21747349e-03, 5.09656183e-02, -1.29384780e-02,
          5.14717251e-02, 1.45765310e-02, 3.32285613e-01, 1.97283074e-01,
          3.32285613e-01, 1.99411079e-01, 8.91773254e-02, 2.58981258e-01,
          1.70206040e-01, 2.60442644e-01, -7.59327039e-02,
          7.75595708e-03, 7.59327039e-02, 1.19816456e-02, 7.03487396e-02,
          -1.74957458e-02, 7.03487396e-02, 1.74957458e-02,
          4.28888351e-01, -1.38628870e-01, 4.28888351e-01,
          1.38628870e-01, 6.80379197e-02, -1.05846435e-01,
          1.78847954e-01, 1.05846435e-01, -8.50662813e-02,
          -1.71736837e-03, 8.50662813e-02, 5.60889905e-03,
          1.02379369e-02, -7.98705383e-04, 1.02379369e-02,
          8.53479374e-04, 5.69040664e-02, -7.43140467e-03,
          5.69040664e-02, 7.43140467e-03, 1.87779833e-02,
          -1.90304704e-02, 2.39538848e-02, 1.90304704e-02,
          -9.49396659e-03, -4.78832022e-04, 9.49396659e-03,
          1.37971854e-03, 2.44519254e-03, -8.03501927e-04,
          2.46794708e-03, 9.06995148e-04, 6.57692030e-02, 9.26400721e-03,
          6.57692030e-02, 9.46560968e-03, 5.59407920e-02, 8.31763435e-04,
          5.59407920e-02, 4.95321443e-03, 1.50885712e-03,
          -8.43596645e-04, 2.99202860e-03, 1.63455622e-03,
          3.65255624e-02, 1.42374197e-02, 3.65464054e-02, 1.45000117e-02,
          4.33800817e-01, 1.26975030e-01, 4.33800817e-01, 1.26975030e-01,
          2.60885090e-01, 3.05198802e-04, 2.60885090e-01, 5.97212128e-02,
          -2.99246842e-03, -1.26106665e-02, 1.85938422e-02,
          1.26106665e-02, 3.79935205e-02, 1.69478357e-02, 3.79935205e-02,
          1.69478357e-02, 2.41070241e-01, -1.37758180e-01,
          2.41070241e-01, 1.47866771e-01, 1.70173004e-01,
          -3.22994113e-01, 1.70173004e-01, 3.22994113e-01,
          6.59434358e-04, -4.53465208e-02, 1.81376990e-02,
          4.53465208e-02, 1.17131264e-03, 6.63054548e-03, 1.58997590e-03,
          6.63054548e-03, -6.18474279e-03, 7.00506615e-03,
          7.89706409e-03, 1.32162459e-02, 9.05339047e-03,
          -1.62432417e-02, 1.00059928e-02, 1.88831184e-02,
          9.50788148e-04, -4.31581400e-03, 2.08415650e-03,
          4.43638768e-03, 9.77087475e-05, -3.04544833e-03,
          9.05491004e-04, 3.07558244e-03, -4.83311154e-03,
          1.04358066e-02, 6.07425487e-03, 1.28198881e-02, 4.27892525e-03,
          2.38846783e-02, 7.49944616e-03, 2.53888108e-02,
          -6.59572135e-04, 4.15381463e-03, 1.35233754e-03,
          4.29827813e-03, 4.20702808e-02, -1.96329411e-02,
          4.24640924e-02, 1.96329411e-02, 2.40149543e-01, 1.86705619e-01,
          2.40149543e-01, 1.90839872e-01, 3.56445834e-02, 3.41843039e-01,
          5.15823662e-02, 3.41843039e-01, -2.14248709e-02,
          2.81205848e-02, 2.18717791e-02, 2.81205848e-02, 4.28324752e-02,
          -1.33195696e-02, 4.54717204e-02, 1.62719730e-02,
          4.85276729e-01, -1.27034321e-01, 4.85276729e-01,
          1.41569212e-01, 7.73089975e-02, 6.06664196e-02, 1.38191894e-01,
          8.94166529e-02, -3.18981670e-02, 1.97816510e-02,
          3.18981670e-02, 1.97816510e-02, -2.93882040e-04,
          1.66246959e-03, 3.13275983e-03, 2.03896244e-03, 7.55958855e-02,
          -1.90636702e-02, 7.55958855e-02, 1.93562973e-02,
          4.31071259e-02, -5.48154069e-03, 4.37124819e-02,
          9.69342329e-03, -3.51218833e-03, 1.78910478e-03,
          3.51218833e-03, 2.43331539e-03, 8.35722494e-06, 2.67927331e-04,
          1.87536032e-04, 3.83933686e-04, 7.90334027e-03, 1.72741786e-02,
          8.77914764e-03, 1.72846727e-02, 1.79143827e-02, 4.52880375e-02,
          1.79646555e-02, 4.52880375e-02, 2.38219183e-03, 9.15759429e-03,
          2.38219183e-03, 9.15759429e-03, 7.82997161e-03,
          -4.30812640e-03, 7.96660874e-03, 4.47308784e-03,
          2.47842178e-01, 8.09615031e-02, 2.47842178e-01, 8.61201435e-02,
          2.95655847e-01, 2.34076023e-01, 2.95655847e-01, 2.34076023e-01,
          1.13102915e-02, 3.70399058e-02, 1.15093114e-02, 3.70399058e-02,
          4.74579819e-03, -1.21677574e-02, 8.91770050e-03,
          1.23523073e-02, 3.24214756e-01, -1.44642755e-01,
          3.24214756e-01, 1.44642755e-01, 3.56093854e-01,
          -1.50902435e-01, 3.56093854e-01, 1.50902435e-01,
          9.94721334e-03, -1.12449424e-02, 1.22730145e-02,
          1.16083631e-02, -2.84348242e-03, 1.67816284e-03,
          2.84348242e-03, 1.99084543e-03, 2.04598345e-02,
          -3.47323641e-02, 2.49269437e-02, 3.57663743e-02,
          5.04713580e-02, -6.68936297e-02, 5.04713580e-02,
          6.68936297e-02, 3.77320684e-03, -9.52411722e-03,
          3.97136575e-03, 9.52411722e-03, 1.94849703e-03,
          -6.33058092e-03, 2.65301671e-03, 6.63222466e-03,
          3.34234200e-02, -8.26687142e-02, 3.52575667e-02,
          8.26687142e-02, -1.13883853e-01, -5.84498607e-02,
          1.13883853e-01, 5.93254454e-02, -8.34915973e-03,
          2.99971760e-03, 1.20237488e-02, 4.41836938e-03,
          -3.83243803e-03, 9.73320287e-03, 1.76296737e-02,
          1.89773347e-02, 1.67780265e-01, 1.13030389e-01, 1.73757702e-01,
          1.35732636e-01, -3.07601511e-01, 4.30215329e-01,
          3.16297114e-01, 4.43643957e-01, -2.18346668e-03,
          1.34128526e-01, 2.87181102e-02, 1.34128526e-01, 5.44707756e-03,
          -4.06798860e-03, 2.39379406e-02, 2.08562948e-02,
          2.74725914e-01, -5.21168523e-02, 2.74725914e-01,
          7.14954808e-02, 1.43737659e-01, 8.39026421e-02, 1.66365519e-01,
          1.50701866e-01, 1.57989487e-02, 4.91368435e-02, 1.65341627e-02,
          4.92049158e-02, -1.00703025e-03, 6.04178011e-03,
          1.28363993e-03, 6.04289956e-03, 1.39327170e-02, 1.69695262e-02,
          1.48752825e-02, 1.69695262e-02, 3.62040401e-02,
          -5.91570139e-03, 3.62040401e-02, 6.40751235e-03,
          2.66936678e-03, -6.44525047e-04, 2.95379665e-03,
          6.88258675e-04, 5.54755039e-04, -4.07625601e-04,
          9.45283566e-04, 4.67945240e-04, -9.62010957e-03,
          6.07291423e-03, 9.62010957e-03, 6.07291423e-03, 6.79978058e-02,
          -5.72529761e-03, 6.79978058e-02, 7.10903807e-03,
          1.81909800e-02, -1.70715258e-03, 1.81909800e-02,
          1.70715258e-03, 8.02323595e-03, -2.91232392e-03,
          8.02323595e-03, 2.91232392e-03, -8.97493437e-02,
          -3.06779537e-02, 9.27896276e-02, 3.06779537e-02,
          4.36861843e-01, -3.88695709e-02, 4.36861843e-01,
          4.33524586e-02, 1.26408145e-01, -7.68378726e-04,
          1.26408145e-01, 6.04129210e-03, 6.48531690e-03,
          -4.06741258e-03, 6.48531690e-03, 4.23554564e-03,
          -8.44783038e-02, -3.15711424e-02, 8.57800022e-02,
          3.41745615e-02, 4.95120764e-01, 4.28863838e-02, 4.95120764e-01,
          4.34060395e-02, 1.29981145e-01, 7.22490298e-03, 1.29981145e-01,
          1.05499476e-02, 5.38307359e-04, 8.66480405e-05, 5.38307359e-04,
          8.66480405e-05, -3.79653461e-03, 4.05981252e-03,
          6.86305901e-03, 4.05981252e-03, 6.51812032e-02,
          -2.21215375e-03, 6.51812032e-02, 8.26381892e-03,
          1.53044853e-02, -6.64654747e-03, 1.53044853e-02,
          6.64654747e-03, 2.71838508e-04, -5.51954005e-03,
          6.77271863e-04, 5.52074052e-03, -3.81034042e-04,
          -2.62622107e-02, 7.51069700e-03, 2.66304482e-02,
          -2.91577633e-02, 9.69823450e-03, 2.91577633e-02,
          1.59746595e-02, -2.07057316e-03, 8.09668563e-03,
          2.11970834e-03, 8.11111275e-03, 8.75184406e-03,
          -4.91369851e-02, 1.01664774e-02, 4.91369851e-02,
          1.54813126e-01, -2.75720626e-01, 1.54813126e-01,
          2.75720626e-01, 2.31042176e-01, 8.36481620e-03, 2.35969588e-01,
          1.10654682e-01, 2.88873743e-02, 5.39574176e-02, 2.88873743e-02,
          5.39574176e-02, 2.06481409e-03, 8.42312071e-03, 8.03962350e-03,
          1.69563945e-02, 2.46372536e-01, -2.01023929e-02,
          2.46372536e-01, 8.56964812e-02, 4.94820058e-01, 8.71788859e-02,
          4.94820058e-01, 9.18417871e-02, 4.33487557e-02, 2.03124695e-02,
          4.33487557e-02, 2.03124695e-02, -3.59480199e-03,
          1.15732076e-02, 3.59480199e-03, 1.15732076e-02, 2.85630301e-02,
          6.02349825e-02, 3.11178584e-02, 6.02349825e-02, 7.12040961e-02,
          3.89450863e-02, 7.12040961e-02, 3.89450863e-02, 4.17138683e-03,
          2.09092046e-03, 4.20068717e-03, 2.13311566e-03,
          -1.79757376e-03, 2.22983281e-03, 1.79757376e-03,
          2.23497185e-03, 5.35668768e-02, 4.33549583e-02, 5.37371635e-02,
          4.33549583e-02, 5.28694652e-02, 4.81690057e-02, 5.28694652e-02,
          4.81690057e-02, 4.16224328e-04, 1.97718479e-03, 1.75940921e-03,
          2.74699111e-03, 4.59995680e-03, 8.21162667e-03, 9.37809236e-03,
          8.21162667e-03, 4.31967199e-01, 7.61133283e-02, 4.31967199e-01,
          7.75786340e-02, 2.58611172e-01, 3.93787548e-02, 2.71146685e-01,
          5.22294976e-02, -3.69578488e-02, -9.80383717e-03,
          3.69578488e-02, 1.02464724e-02, 4.09052847e-03, 4.87307226e-03,
          6.52310345e-03, 4.87307226e-03, 3.79911423e-01,
          -3.64905261e-02, 3.79911423e-01, 4.12464365e-02,
          2.57050544e-01, -5.85113503e-02, 2.66849339e-01,
          5.85113503e-02, -3.80832180e-02, 5.69315394e-03,
          3.80832180e-02, 7.01496843e-03, -3.03997571e-04,
          5.26435360e-05, 5.44177135e-04, 2.61138455e-04, 4.53582443e-02,
          -7.69818388e-03, 4.53582443e-02, 7.69818388e-03,
          4.51874696e-02, -7.73246307e-03, 4.51874696e-02,
          7.74184940e-03, -1.73391448e-03, 8.02416005e-04,
          1.83248264e-03, 8.30670062e-04, 9.28948261e-03, 2.42041051e-03,
          9.30104684e-03, 2.43420294e-03, 7.65116736e-02, 1.79753993e-02,
          7.65116736e-02, 1.79753993e-02, -1.78172793e-02,
          -1.90082344e-03, 3.44580784e-02, 5.72723895e-03,
          -1.36674829e-02, -1.84796122e-03, 1.36674829e-02,
          1.85402948e-03, 7.80606791e-02, 1.08863767e-02, 7.80606791e-02,
          1.08863767e-02, 4.48675007e-01, 8.51295367e-02, 4.48675007e-01,
          8.51295367e-02, -1.79840922e-01, 6.20995350e-02,
          2.14560136e-01, 6.41761273e-02, -8.07364956e-02,
          2.97348630e-02, 8.07364956e-02, 3.01238000e-02, 7.05843717e-02,
          1.36732147e-03, 7.05843717e-02, 5.99341467e-03, 4.31883097e-01,
          -1.12263002e-01, 4.31883097e-01, 1.12263002e-01,
          -3.31283584e-02, 3.53403506e-03, 1.31280035e-01,
          8.92082453e-02, -3.99037935e-02, 4.48130257e-02,
          3.99037935e-02, 4.48130257e-02, 4.24686586e-03,
          -1.76774483e-05, 4.33388259e-03, 1.30012725e-03,
          5.21104485e-02, -3.95842642e-02, 5.21104485e-02,
          3.95842642e-02, 2.93464251e-02, -3.69647406e-02,
          2.93464251e-02, 3.69647406e-02, 2.75113882e-04,
          -4.73137596e-04, 1.16710085e-03, 1.69636577e-03,
          1.03633534e-02, -5.42434258e-03, 1.11830886e-02,
          5.42434258e-03, 6.48850724e-02, -6.19095331e-03,
          6.48850724e-02, 6.19095331e-03, -3.47879492e-02,
          5.61146997e-03, 3.47879492e-02, 5.61146997e-03,
          -4.36627073e-03, 5.79323969e-04, 4.36627073e-03,
          5.79323969e-04, 1.75258845e-01, -3.86148952e-02,
          1.75710186e-01, 4.13727090e-02, 4.71413136e-01, 3.65145840e-02,
          4.71413136e-01, 6.05848655e-02, -1.72261313e-01,
          1.88365560e-02, 1.82928249e-01, 5.40839024e-02,
          -3.75622958e-02, 1.08600399e-02, 3.75622958e-02,
          1.08600399e-02, 2.36351296e-01, 3.24565023e-02, 2.36351296e-01,
          3.66208442e-02, 2.63318777e-01, -8.80309641e-02,
          2.88959950e-01, 1.35185629e-01, -5.07559814e-02,
          -2.19230860e-01, 9.33958068e-02, 2.19230860e-01,
          -3.05429362e-02, 1.73536173e-04, 3.05429362e-02,
          3.36823030e-03, 2.32243147e-02, 1.14204213e-02, 2.32243147e-02,
          1.14204213e-02, -1.20701455e-02, 1.07060401e-02,
          2.69686840e-02, 1.22956298e-02, -7.21538207e-04,
          -4.47168527e-03, 9.09580849e-03, 9.52651724e-03,
          -1.24847260e-03, -1.55104056e-03, 1.24847260e-03,
          1.55104056e-03, -7.59069715e-03, 4.54751914e-03,
          7.59069715e-03, 4.54751914e-03, 4.12898660e-02, 2.52533406e-02,
          4.41996492e-02, 2.52533406e-02, 6.86749890e-02, 1.54856574e-02,
          6.86749890e-02, 1.54856574e-02, 6.24206616e-04, 5.95232064e-04,
          1.00510323e-03, 6.53314986e-04, -3.08811925e-02,
          -1.60102770e-02, 3.08811925e-02, 1.82248987e-02,
          2.26467699e-01, 2.59925127e-02, 2.32066721e-01, 6.51710033e-02,
          3.75134051e-01, -1.00404836e-01, 3.75134051e-01,
          1.07677050e-01, 1.02745788e-02, -9.07021947e-03,
          1.24857184e-02, 9.28528421e-03, 7.76790641e-03, 4.38580140e-02,
          2.03630067e-02, 4.50075604e-02, 1.50290221e-01, 3.90739769e-01,
          1.54035881e-01, 3.90739769e-01, 2.48467728e-01, 2.07578391e-01,
          2.48467728e-01, 2.07578391e-01, 1.16128502e-02, 7.59310322e-03,
          1.16818482e-02, 7.59310322e-03, 1.19447766e-03, 7.34300353e-03,
          2.30099843e-03, 7.34300353e-03, 9.55676287e-03, 2.79327761e-02,
          1.40446872e-02, 2.79327761e-02, 5.45632700e-03, 1.90105308e-02,
          5.50211128e-03, 1.90105308e-02, -3.67319226e-05,
          5.92500612e-04, 7.67933816e-05, 5.92500612e-04, 1.99601613e-02,
          -1.13498867e-02, 1.99601613e-02, 1.13498867e-02,
          2.56110169e-02, -1.56479441e-02, 3.29746194e-02,
          1.56479441e-02, -1.05127096e-02, -1.41333379e-02,
          1.05127096e-02, 1.41333379e-02, -5.38144901e-04,
          -9.37810109e-04, 9.76597192e-04, 1.02327124e-03,
          1.95111275e-01, -2.51445584e-02, 1.95111275e-01,
          2.56735142e-02, 3.91252846e-01, 1.59412045e-02, 4.22238290e-01,
          8.01953077e-02, -7.58863091e-02, 1.36871994e-01,
          7.58863091e-02, 1.36871994e-01, -6.38562255e-03,
          4.46729176e-03, 6.38562255e-03, 4.77085961e-03, 1.87900513e-01,
          2.86777411e-02, 1.87900513e-01, 2.86777411e-02, 4.59607273e-01,
          -3.39496918e-02, 4.59607273e-01, 5.25169224e-02,
          -9.58374068e-02, -5.45814112e-02, 9.58374068e-02,
          5.45814112e-02, -6.35865564e-03, -1.76336814e-03,
          6.35865564e-03, 4.55609290e-03, 1.77004021e-02, 5.55226579e-04,
          1.77004021e-02, 3.93232750e-03, 5.15057258e-02,
          -3.33522484e-02, 5.15057258e-02, 3.33522484e-02,
          -6.39455800e-04, -7.79775623e-03, 9.99474525e-03,
          9.31642205e-03, -7.95426953e-04, -2.86810333e-04,
          7.95426953e-04, 7.69703183e-04, -1.22823454e-02,
          -1.23627484e-02, 1.29524479e-02, 1.23773105e-02,
          -1.20643698e-01, -6.38735518e-02, 1.20643698e-01,
          6.38735518e-02, -8.78649577e-03, -6.99537573e-03,
          3.56876403e-02, 1.51874674e-02, 5.44088613e-03, 3.66202253e-03,
          5.61241386e-03, 3.66629381e-03, -6.82789609e-02,
          -1.09317161e-01, 6.86587691e-02, 1.09317161e-01,
          -4.03640091e-01, -3.41373146e-01, 4.03640091e-01,
          3.41373146e-01, 2.55197227e-01, -4.43900796e-03,
          2.75341243e-01, 5.55650219e-02, 3.51271667e-02, 3.21523007e-03,
          3.92405204e-02, 1.45519609e-02, -3.28391641e-02,
          -5.18072434e-02, 3.28391641e-02, 5.18072434e-02,
          -4.51769829e-02, -8.72305259e-02, 1.14992142e-01,
          1.28754243e-01, 2.87685871e-01, -2.01141629e-02,
          2.87685871e-01, 4.79714051e-02, 1.00569520e-02,
          -3.29275690e-02, 1.85099281e-02, 3.29275690e-02,
          -1.15006382e-03, 4.33599483e-03, 1.17028959e-03,
          4.33599483e-03, 6.30722800e-03, 3.51982266e-02, 6.98783994e-03,
          3.51982266e-02, 1.09515395e-02, 1.32224504e-02, 1.28751220e-02,
          1.57052763e-02, -7.05731974e-04, -2.50120624e-03,
          7.44531862e-04, 2.50120624e-03, 2.85521243e-03, 7.10001960e-03,
          3.35193239e-03, 7.54436059e-03, 4.45217080e-02, 4.61409241e-02,
          4.45217080e-02, 4.61409241e-02, 5.09161875e-02, 2.79141534e-02,
          5.09161875e-02, 2.79141534e-02, 3.04361666e-03, 5.58350293e-04,
          3.06059420e-03, 7.57742848e-04, -1.08322185e-02,
          3.56627032e-02, 2.39945743e-02, 3.56627032e-02, 1.04634397e-01,
          -1.05518222e-01, 1.87631398e-01, 1.39991656e-01,
          3.74728680e-01, -7.74295703e-02, 3.74728680e-01,
          7.88829848e-02, 9.98304132e-03, -1.80672738e-03,
          1.04623726e-02, 5.39209880e-03, -3.34098451e-02,
          -4.06024866e-02, 3.44410054e-02, 4.07193303e-02,
          1.56324789e-01, 9.08064190e-03, 2.47987390e-01, 8.68700892e-02,
          4.74143416e-01, 1.50564134e-01, 4.74143416e-01, 1.50564134e-01,
          9.88915330e-04, 1.31263714e-02, 7.92881381e-03, 1.31263714e-02,
          1.56235974e-03, -3.46252136e-03, 1.81356829e-03,
          3.89918475e-03, 6.49161115e-02, 1.98865253e-02, 6.49161115e-02,
          2.19307989e-02, 5.84568717e-02, 1.91262588e-02, 5.84801957e-02,
          1.93331242e-02, -1.36977981e-03, 3.00708663e-04,
          1.36977981e-03, 6.06736285e-04, -1.18077304e-02,
          -5.44731366e-03, 1.18077304e-02, 5.44731366e-03,
          -3.16811055e-02, -1.40138837e-02, 3.16811055e-02,
          1.40138837e-02, 3.87644321e-02, 1.71946958e-02, 3.87644321e-02,
          1.73170920e-02, 8.76767840e-03, 6.74664974e-03, 8.76767840e-03,
          6.74664974e-03, -7.50217140e-02, -1.47934891e-02,
          7.50217140e-02, 1.59832221e-02, -7.93686043e-03,
          4.43230290e-03, 1.65517315e-01, 4.58240248e-02, 4.31430370e-01,
          1.07674077e-01, 4.31430370e-01, 1.07674077e-01, 7.23444298e-02,
          2.59227194e-02, 7.23444298e-02, 2.59227194e-02,
          -7.61217698e-02, 5.62191289e-03, 7.61217698e-02,
          6.37676846e-03, -7.61066005e-03, -5.64483851e-02,
          1.56342879e-01, 5.79009950e-02, 4.78908986e-01,
          -9.05297250e-02, 4.78908986e-01, 9.05297250e-02,
          7.74749517e-02, -1.86471490e-03, 7.74749517e-02,
          2.82513187e-03, -1.25590740e-02, -5.12372761e-04,
          1.25590740e-02, 7.14676979e-04, -1.41965635e-02,
          -1.26739126e-02, 3.00581455e-02, 1.26739126e-02,
          7.98685104e-02, -8.84403568e-03, 7.98685104e-02,
          1.09321065e-02, 1.28136184e-02, 5.84572845e-04, 1.28136184e-02,
          5.99588733e-04, 2.32003368e-02, 4.81003569e-03, 2.32003368e-02,
          4.81003569e-03, 9.91777480e-02, 1.25174895e-02, 9.91777480e-02,
          1.39414789e-02, -1.73903815e-02, -5.31856902e-03,
          1.74933914e-02, 6.63641887e-03, -9.83945094e-04,
          1.26678089e-03, 9.83945094e-04, 1.26678089e-03, 1.49600431e-01,
          3.08322273e-02, 1.49600431e-01, 3.08322273e-02, 5.15631557e-01,
          4.13070284e-02, 5.15631557e-01, 5.30191399e-02,
          -9.56285223e-02, -1.73369776e-02, 1.12214193e-01,
          4.53005098e-02, -2.79906997e-03, -5.30193280e-03,
          2.79906997e-03, 7.22033437e-03, 1.33040801e-01, 1.35740303e-02,
          1.33040801e-01, 1.35740303e-02, 3.91551107e-01,
          -1.15124313e-02, 3.91551107e-01, 4.43656668e-02,
          -8.87411386e-02, -4.63970192e-02, 8.87411386e-02,
          5.81955463e-02, -2.59939407e-04, 1.82509795e-03,
          2.59939407e-04, 1.82509795e-03, 1.89577322e-02, 4.10640100e-03,
          1.89577322e-02, 4.10640100e-03, 4.30203751e-02, 1.47958789e-02,
          4.30203751e-02, 1.47958789e-02, -7.20190722e-03,
          1.12329032e-02, 7.92803336e-03, 1.12329032e-02,
          -7.71971303e-04, 6.45741937e-04, 7.73624284e-04,
          1.00101938e-03, 8.89691152e-03, -7.30305538e-03,
          8.89691152e-03, 7.30305538e-03, -2.20064446e-03,
          -5.84166916e-03, 1.09779537e-02, 5.84166916e-03,
          -5.02940360e-03, -1.61134906e-03, 8.39996524e-03,
          1.85117533e-03, -7.88195350e-04, -6.12561125e-05,
          7.88195350e-04, 2.67407944e-04, 1.25511751e-01,
          -7.39791468e-02, 1.25511751e-01, 7.39791468e-02,
          2.76894867e-01, -1.62668470e-02, 2.86295325e-01,
          1.19531475e-01, -7.29742646e-02, 1.36004686e-01,
          7.29742646e-02, 1.36004686e-01, -1.01467734e-02,
          8.73093121e-03, 1.01467734e-02, 8.73093121e-03, 1.47624731e-01,
          -4.99299075e-03, 1.47624731e-01, 3.67115475e-02,
          5.68915844e-01, -1.33561129e-02, 5.68915844e-01,
          8.91477615e-02, -6.39705062e-02, 7.40906373e-02,
          9.09306258e-02, 8.88937414e-02, -1.55660929e-02,
          1.35181909e-02, 1.55660929e-02, 1.35181909e-02, 1.72465127e-02,
          5.59729012e-03, 1.73269007e-02, 5.59729012e-03, 6.19322360e-02,
          1.15102893e-02, 6.19322360e-02, 1.46192107e-02,
          -8.13823892e-04, -2.08929158e-03, 7.92332739e-03,
          5.05878357e-03, -1.56300608e-03, 4.94235952e-04,
          1.56300608e-03, 1.03136699e-03 ]
      - [ 0., 0., 0., 0., 3.19924280e-02, -5.34437364e-03,
          3.19924280e-02, 6.30995585e-03, 7.09702596e-02,
          -1.07065644e-02, 7.09702596e-02, 1.74706131e-02,
          1.01453124e-03, 2.78024643e-04, 1.04175159e-03, 2.87405215e-04,
          -2.29635989e-04, 1.83875440e-04, 5.86994982e-04,
          1.83875440e-04, 1.11448549e-01, -1.21227354e-02,
          1.11448549e-01, 2.81902794e-02, 5.11155725e-01,
          -9.62683111e-02, 5.11155725e-01, 9.62683111e-02,
          1.56298988e-02, -1.92289602e-03, 1.64106507e-02,
          4.33210935e-03, 5.40453708e-03, 2.37913663e-03, 5.85364830e-03,
          3.01461178e-03, 1.04575373e-01, 1.12610273e-01, 1.04575373e-01,
          1.12610273e-01, 4.23971474e-01, 3.26826796e-02, 4.23971474e-01,
          6.31496012e-02, 2.31190100e-02, -4.50516958e-03,
          2.31190100e-02, 6.48892811e-03, 2.81218346e-03, 2.59435293e-03,
          2.84313457e-03, 2.59435293e-03, 2.66099703e-02, 2.67657917e-02,
          2.66099703e-02, 2.67657917e-02, 3.57579738e-02, 2.74730138e-02,
          3.57579738e-02, 2.74730138e-02, 3.52414488e-03, 2.00242590e-04,
          3.52414488e-03, 2.31961778e-04, -7.63416057e-04,
          -9.74250864e-03, 9.29185888e-04, 9.74250864e-03,
          3.42144221e-02, -5.75485490e-02, 3.42144221e-02,
          5.75485490e-02, 2.25889403e-02, -1.26075707e-02,
          2.27754749e-02, 1.38711343e-02, -4.74433735e-04,
          2.82858411e-04, 4.74433735e-04, 3.00694926e-04,
          -2.33922172e-02, -1.14209885e-02, 2.33922172e-02,
          1.14823319e-02, 3.30241948e-01, -1.07844435e-01,
          3.30241948e-01, 1.17499337e-01, 3.62123519e-01,
          -7.86130205e-02, 3.62123519e-01, 7.89641589e-02,
          -3.52273928e-03, 1.14435672e-04, 4.07849718e-03,
          2.40039360e-03, -3.82779189e-03, 4.82609682e-03,
          1.42093999e-02, 1.51404282e-02, 3.03135574e-01, 1.28136292e-01,
          3.03135574e-01, 1.28136292e-01, 3.44300091e-01, 4.97864485e-02,
          3.44300091e-01, 6.36541843e-02, -1.48793601e-03,
          -5.49061049e-04, 4.03538300e-03, 2.07803398e-03,
          -1.36664917e-03, 1.05884140e-02, 1.86798593e-03,
          1.05884140e-02, 3.45197953e-02, 4.86653708e-02, 3.45339105e-02,
          4.86653708e-02, 2.42804904e-02, 1.66510306e-02, 2.44551506e-02,
          1.69574413e-02, -9.43327905e-04, -4.97053436e-04,
          9.43327905e-04, 4.97053436e-04, -9.08668386e-04,
          -7.63404975e-03, 1.05162221e-03, 7.63404975e-03,
          1.72637794e-02, -4.19837013e-02, 1.72637794e-02,
          4.19837013e-02, 1.38020674e-02, -1.23348674e-02,
          1.41244223e-02, 1.33684622e-02, -3.44458793e-04,
          8.11769743e-04, 3.44458793e-04, 8.11769743e-04, 7.21215503e-04,
          -3.02056838e-02, 5.75202191e-03, 3.02056838e-02,
          2.02023908e-01, -2.29448780e-01, 2.02023908e-01,
          2.29448780e-01, 3.53228331e-01, -8.14077407e-02,
          3.53228331e-01, 9.28040817e-02, 2.64800969e-03, 7.16870138e-03,
          5.06520178e-03, 7.16870138e-03, -7.26133725e-03,
          2.01434325e-02, 7.52368383e-03, 2.36827694e-02, 2.23135397e-01,
          9.24616605e-02, 2.36116558e-01, 1.23443305e-01, 4.37182903e-01,
          9.55279917e-02, 4.37182903e-01, 9.55279917e-02, 1.59489762e-04,
          6.84805389e-04, 5.03762346e-03, 2.06973101e-03,
          -3.42994550e-04, 3.62000195e-03, 9.15916113e-04,
          3.62000195e-03, 3.94114256e-02, 4.67931405e-02, 4.10218909e-02,
          4.67931405e-02, 3.21716815e-02, 1.75648276e-02, 3.26667614e-02,
          1.85553990e-02, -8.73759738e-04, -6.85872277e-04,
          8.73759738e-04, 6.85872277e-04, -3.90225998e-03,
          -7.73971435e-03, 3.90225998e-03, 7.73971435e-03,
          6.06462685e-03, -5.67434393e-02, 1.13671022e-02,
          5.67434393e-02, 3.24123316e-02, -3.70830894e-02,
          3.24123316e-02, 3.70830894e-02, 1.80259359e-03, 2.32633261e-04,
          1.90650939e-03, 6.28087670e-04, -2.06958149e-02,
          -2.89196223e-02, 2.06958149e-02, 2.89196223e-02,
          2.74657737e-02, -1.73226029e-01, 3.89015786e-02,
          1.73226029e-01, 4.12170947e-01, -1.63425267e-01,
          4.12170947e-01, 1.63425267e-01, 3.57589498e-02,
          -1.95935857e-03, 3.63027342e-02, 3.04304482e-03,
          -7.12386519e-03, 2.58604083e-02, 1.33349020e-02,
          2.58604083e-02, -2.02224050e-02, 2.14204535e-01,
          4.93862256e-02, 2.14204535e-01, 4.21737492e-01, 1.77614421e-01,
          4.21737492e-01, 1.77614421e-01, 3.24639641e-02, 5.29416976e-03,
          3.34863700e-02, 6.35467796e-03, -2.98633799e-03,
          4.92346752e-03, 2.98633799e-03, 4.92346752e-03, 1.29833147e-02,
          3.77971232e-02, 1.39368279e-02, 3.77971232e-02, 4.34301607e-02,
          4.15455140e-02, 4.36394364e-02, 4.15758491e-02, 1.10411516e-03,
          -3.26889392e-04, 1.33330654e-03, 5.90525684e-04,
          6.36922847e-03, -5.16159087e-03, 6.36922847e-03,
          5.16159087e-03, 6.98430687e-02, -4.51246239e-02,
          6.98430687e-02, 4.51246239e-02, 8.34404305e-03,
          -1.69181060e-02, 1.16665792e-02, 1.69466585e-02,
          -1.42904778e-03, -2.33103288e-03, 1.42904778e-03,
          2.53726635e-03, 5.39157018e-02, 1.50902923e-02, 5.39157018e-02,
          1.99658647e-02, 5.21370769e-01, 1.06679320e-01, 5.21370769e-01,
          1.14932381e-01, 6.69701472e-02, 6.73496351e-02, 1.47777721e-01,
          6.92830309e-02, -1.76917017e-02, 5.01752459e-03,
          1.86890606e-02, 1.15419412e-02, 5.44057563e-02, 3.79465632e-02,
          5.44057563e-02, 3.79465632e-02, 2.76561141e-01,
          -9.81673673e-02, 2.76561141e-01, 1.31073251e-01,
          1.01076789e-01, -2.77236104e-01, 1.33950844e-01,
          2.77236104e-01, -1.59120001e-02, -2.69829631e-02,
          1.59120001e-02, 2.74773203e-02, 1.34942739e-03, 1.63132488e-03,
          1.55959511e-03, 1.93137396e-03, 1.39565207e-03,
          -9.63839889e-03, 3.34370416e-03, 9.63839889e-03,
          2.61331210e-03, -2.58886106e-02, 4.64037899e-03,
          2.58886106e-02, -8.88144830e-04, -4.41520568e-03,
          8.90878553e-04, 4.45053633e-03, 4.06163977e-04,
          -1.93170400e-03, 8.57044244e-04, 2.04580743e-03,
          -1.46163488e-03, 3.90511309e-03, 4.21085162e-03,
          5.43621276e-03, 2.28326917e-02, 2.80784760e-02, 2.29536612e-02,
          2.83454880e-02, 4.42094728e-03, 6.21113786e-03, 4.43359604e-03,
          6.21113786e-03, 3.32192332e-02, -3.33761722e-02,
          3.32192332e-02, 3.33761722e-02, 2.79778063e-01, 5.44386804e-02,
          2.79778063e-01, 1.30974233e-01, 2.01976031e-01, 2.16832593e-01,
          2.02599794e-01, 2.17456356e-01, 2.07700115e-03,
          -1.47824257e-03, 1.01052579e-02, 1.33643318e-02,
          1.84120145e-02, -4.54106973e-03, 1.84120145e-02,
          7.42793689e-03, 5.36157429e-01, -8.57189223e-02,
          5.36157429e-01, 1.01279594e-01, 8.79373103e-02,
          -5.72071038e-02, 1.36937276e-01, 8.89810845e-02,
          -1.09184049e-02, -1.29987104e-02, 1.09184049e-02,
          1.29987104e-02, 3.68291116e-03, 3.12238256e-03, 3.68291116e-03,
          3.14948405e-03, 5.79760820e-02, 1.43640926e-02, 5.79760820e-02,
          1.67288072e-02, 1.71971619e-02, -1.02511859e-02,
          1.77598558e-02, 1.08892648e-02, -1.29104604e-03,
          -2.72819569e-04, 1.29104604e-03, 3.60247213e-04,
          4.07998217e-03, 1.20227849e-02, 4.16856166e-03, 1.20227849e-02,
          1.76130887e-02, 1.04581788e-01, 1.76968034e-02, 1.04581788e-01,
          -9.19416174e-03, 1.38490140e-01, 1.80324689e-02,
          1.38490140e-01, -9.27278586e-03, 1.59447808e-02,
          9.27663129e-03, 1.59447808e-02, 4.09279540e-02, 2.52041351e-02,
          4.09279540e-02, 2.64973734e-02, 4.65657227e-02, 4.60670479e-02,
          1.49321571e-01, 1.24072582e-01, 3.82339060e-01, 5.39260060e-02,
          4.64597046e-01, 2.54657328e-01, -1.20539784e-01,
          2.34344788e-02, 1.20539784e-01, 5.69597855e-02, 8.58860761e-02,
          -4.01255824e-02, 8.58860761e-02, 4.01255824e-02,
          7.15553537e-02, 2.59112954e-01, 1.56950504e-01, 2.81348884e-01,
          1.02150083e-01, 9.39375237e-02, 2.53422320e-01, 2.70241827e-01,
          -1.66017488e-01, -5.43647073e-02, 1.66017488e-01,
          6.75765276e-02, 1.37139428e-02, 5.92728378e-04, 1.37556326e-02,
          3.94197693e-03, 6.75495416e-02, -4.16376954e-03,
          6.75495416e-02, 1.61719043e-02, 1.47886807e-03, 3.59517001e-02,
          2.53096689e-02, 3.89089696e-02, -2.58680079e-02,
          1.80057865e-02, 2.58680079e-02, 1.80057865e-02, 4.61871410e-03,
          1.33019208e-03, 4.80708899e-03, 1.36147195e-03, 5.60599267e-02,
          1.51299722e-02, 5.60599267e-02, 1.51299722e-02,
          -3.29352915e-02, 9.27029457e-03, 3.29714306e-02,
          9.30326525e-03, -2.05159560e-03, 1.53069280e-03,
          3.30806570e-03, 1.53069280e-03, 3.69441062e-02, 6.09159842e-03,
          3.87399718e-02, 6.09159842e-03, 4.09569114e-01, 7.76312575e-02,
          4.09569114e-01, 7.76312575e-02, -2.18518570e-01,
          1.22477628e-01, 2.18518570e-01, 1.22477628e-01,
          -1.23991594e-02, 2.42977552e-02, 1.45501252e-02,
          2.42977552e-02, 2.80774646e-02, -2.76400149e-03,
          3.13170478e-02, 4.58586356e-03, 4.68516320e-01,
          -8.61365050e-02, 4.68516320e-01, 8.61365050e-02,
          -1.39202997e-01, 2.47148890e-02, 1.54596761e-01,
          4.61678877e-02, -1.84239261e-02, 8.50397442e-03,
          1.84239261e-02, 8.50397442e-03, 1.65188627e-03, 5.87390568e-05,
          2.24525621e-03, 2.89873540e-04, 6.96184188e-02,
          -1.66411567e-02, 6.96184188e-02, 1.66411567e-02,
          -1.21677003e-03, -2.13622837e-03, 2.21042857e-02,
          7.23634940e-03, -2.04162928e-03, 1.27233344e-03,
          2.04162928e-03, 1.35818508e-03, -6.78760093e-03,
          2.14754883e-03, 6.78760093e-03, 3.02417949e-03, 6.47387132e-02,
          8.21082573e-03, 6.47387132e-02, 2.27604657e-02, 5.78229837e-02,
          -3.28678195e-03, 5.78229837e-02, 9.81402677e-03,
          -7.89122496e-05, 3.57399695e-03, 1.67125638e-03,
          3.58188944e-03, 2.65252916e-03, 4.95247580e-02, 1.13058938e-02,
          4.98251766e-02, 2.01769561e-01, 2.98007369e-01, 2.01769561e-01,
          2.98007369e-01, 2.54162878e-01, 9.44921523e-02, 2.54162878e-01,
          1.16839133e-01, 4.09644097e-02, 1.92427319e-02, 4.13045324e-02,
          2.22420152e-02, -1.74229220e-02, -1.36404783e-02,
          2.17974987e-02, 2.96255983e-02, 1.27564877e-01,
          -2.44634926e-01, 1.66914448e-01, 2.44634926e-01,
          4.19303685e-01, 4.49105389e-02, 4.19303685e-01, 1.20105319e-01,
          3.28607373e-02, 2.73201447e-02, 4.36622947e-02, 3.18851843e-02,
          -4.81440732e-03, -6.81213615e-03, 5.57322754e-03,
          6.99842023e-03, 6.13077059e-02, 2.05962323e-02, 6.32717982e-02,
          2.98521556e-02, 8.35932642e-02, 2.93037258e-02, 8.42814222e-02,
          3.35450619e-02, -5.67181828e-03, -6.58667833e-03,
          7.22303893e-03, 6.89692283e-03, 4.40736330e-04, 4.98269359e-03,
          2.07670801e-03, 5.01261977e-03, 3.30589190e-02, 2.88600624e-02,
          3.30589190e-02, 2.88600624e-02, 2.79051811e-02,
          -1.75766577e-03, 2.79051811e-02, 6.39978098e-03,
          6.80187717e-03, 1.63294247e-03, 6.89984392e-03, 1.68898061e-03,
          1.86844617e-02, 2.30643880e-02, 2.07697116e-02, 2.31511723e-02,
          -1.12672277e-01, -1.48103043e-01, 1.39424533e-01,
          1.80456698e-01, 2.82019407e-01, -1.90854818e-01,
          2.82019407e-01, 1.90854818e-01, 5.92408627e-02,
          -3.99166718e-03, 6.25840351e-02, 5.33175049e-03,
          -2.07214747e-02, -4.32249362e-04, 3.47328894e-02,
          1.85543615e-02, -2.20405564e-01, -1.67737126e-01,
          2.62373745e-01, 1.70877934e-01, 4.81722742e-01, 4.53826934e-02,
          4.81722742e-01, 8.63266513e-02, 2.33576577e-02,
          -1.72286462e-02, 4.45267819e-02, 1.88871194e-02,
          -9.32405237e-03, -7.32693449e-03, 9.43550840e-03,
          7.34285638e-03, 1.98073182e-02, -1.71293388e-03,
          4.15170155e-02, 2.36970317e-02, 6.43900335e-02, 2.29968578e-02,
          6.65459111e-02, 2.62212753e-02, -7.63433380e-03,
          -7.31865270e-03, 7.63433380e-03, 7.31865270e-03,
          1.53160433e-03, 1.09100598e-03, 2.24347576e-03, 1.09100598e-03,
          -2.37208139e-02, -1.73141528e-02, 2.38111056e-02,
          1.73141528e-02, 5.31687848e-02, -2.18142048e-02,
          5.31687848e-02, 2.18142048e-02, -5.93503704e-04,
          -2.50065024e-03, 4.73790197e-03, 2.50065024e-03,
          1.36515626e-03, 8.51790514e-03, 2.03711968e-02, 8.51790514e-03,
          -2.64336705e-01, -4.92263809e-02, 2.64336705e-01,
          5.50117977e-02, 3.83289844e-01, -4.82804589e-02,
          3.83289844e-01, 5.42624593e-02, -1.53185064e-02,
          -1.33217070e-02, 3.27234454e-02, 1.33217070e-02,
          -1.36731276e-02, -7.29453238e-03, 3.48510891e-02,
          8.34247284e-03, -2.37327799e-01, -8.57826099e-02,
          2.92807281e-01, 9.18872803e-02, 4.27830070e-01, 5.81577271e-02,
          4.27830070e-01, 6.25731573e-02, -4.04061303e-02,
          -1.66070927e-02, 4.11952808e-02, 1.66070927e-02,
          -3.32234590e-03, -6.62280654e-04, 6.27583684e-03,
          6.62280654e-04, -1.33857327e-02, 8.93575314e-04,
          4.28386219e-02, 4.26299591e-03, 5.39720617e-02, 2.57182098e-03,
          5.67051508e-02, 7.04131322e-03, -9.48686805e-03,
          -2.30208994e-03, 9.48686805e-03, 2.30473676e-03,
          3.28914518e-03, 1.81501987e-03, 3.28914518e-03, 1.81501987e-03,
          2.32286360e-02, -9.08683985e-03, 2.32286360e-02,
          1.39475819e-02, 2.98721883e-02, -8.11276864e-03,
          2.99925767e-02, 1.11196944e-02, -2.01152405e-03,
          2.21264828e-03, 2.01152405e-03, 2.21264828e-03, 5.36373467e-04,
          -2.15154234e-02, 1.07088974e-02, 2.17325259e-02,
          1.63316071e-01, -1.65267155e-01, 1.74562946e-01,
          1.65267155e-01, 3.59560341e-01, 2.92512961e-03, 3.59560341e-01,
          6.43591657e-02, -8.94629024e-03, 8.08598474e-03,
          1.19499583e-02, 8.60188808e-03, -6.48818910e-03,
          -9.83464718e-03, 9.34084412e-03, 1.34034511e-02,
          2.80499667e-01, -5.41562797e-04, 2.83975899e-01,
          4.94028181e-02, 4.69774067e-01, 5.38263619e-02, 4.69774067e-01,
          5.70616610e-02, -2.08710842e-02, 5.79457264e-03,
          2.08710842e-02, 6.72846613e-03, 3.47853726e-04, 2.58412538e-03,
          5.67974872e-04, 2.58412538e-03, 4.21595797e-02, 1.99846961e-02,
          4.21595797e-02, 1.99846961e-02, 5.28146364e-02,
          -2.86628050e-03, 5.28146364e-02, 9.98398382e-03,
          -1.62124517e-03, -1.16408954e-03, 2.61855964e-03,
          1.55784492e-03, 6.05942355e-03, 2.30505620e-03, 6.05942355e-03,
          2.30505620e-03, -4.87456247e-02, -1.35415737e-02,
          4.88803759e-02, 1.51570458e-02, 3.64120603e-02, 1.38578517e-03,
          3.74096297e-02, 8.42772517e-03, -1.99893513e-03,
          1.14758767e-03, 3.99068324e-03, 1.47357036e-03, 2.81229988e-02,
          -1.89719237e-02, 2.81229988e-02, 1.98587626e-02,
          -3.57193917e-01, -3.91431451e-02, 3.57193917e-01,
          4.14371975e-02, 3.84482026e-01, -8.88498407e-03,
          3.84482026e-01, 3.12346891e-02, -4.73281443e-02,
          -1.75122581e-02, 4.77289036e-02, 1.92931611e-02,
          2.37267725e-02, -2.61010695e-03, 2.41723731e-02,
          1.58824828e-02, -2.80909687e-01, -3.26372636e-03,
          2.80909687e-01, 6.25891015e-02, 3.52798671e-01,
          -1.36542767e-02, 3.52798671e-01, 3.66914645e-02,
          -6.77411184e-02, -1.09183574e-02, 6.77411184e-02,
          1.10036591e-02, 2.35356879e-03, 8.43287853e-04, 2.35356879e-03,
          2.69614183e-03, -3.93084139e-02, 1.71572547e-02,
          3.94941568e-02, 1.78425554e-02, 3.21712792e-02, 5.00261411e-03,
          3.31715830e-02, 1.03443237e-02, -9.89012420e-03,
          -2.45292066e-03, 9.89012420e-03, 2.45292066e-03,
          -3.63998627e-03, 4.24438668e-03, 5.62700676e-03,
          4.25633416e-03, 6.03773557e-02, 7.23572969e-02, 6.05063625e-02,
          7.23572969e-02, 1.32353036e-02, 3.19964066e-02, 2.00010501e-02,
          3.85752693e-02, 2.06389534e-03, 1.91444263e-03, 2.65023205e-03,
          3.35132587e-03, -2.50921547e-02, 2.84405407e-02,
          3.37823629e-02, 2.84405407e-02, 4.07550693e-01, 3.92424092e-02,
          4.07550693e-01, 6.68700933e-02, -2.10715413e-01,
          3.69181186e-02, 2.30010793e-01, 9.68028978e-02, 3.09232138e-02,
          -2.22206339e-02, 3.12117636e-02, 2.22206339e-02,
          -5.32487035e-02, 1.99110769e-02, 5.32487035e-02,
          1.99110769e-02, 4.19536322e-01, -6.22141287e-02,
          4.31983173e-01, 6.87959045e-02, -2.21391872e-01,
          8.02335069e-02, 2.75298119e-01, 8.02335069e-02, 1.80313475e-02,
          -4.66198241e-03, 2.52861176e-02, 7.72478571e-03,
          -9.82733630e-03, 2.80938926e-04, 9.82733630e-03,
          3.89182416e-04, 5.94308935e-02, 2.50314595e-03, 6.53449446e-02,
          3.97201395e-03, -1.13627659e-02, 9.17187519e-03,
          4.14490588e-02, 9.31575801e-03, -1.94167462e-03,
          1.06103171e-03, 4.57324646e-03, 1.54688500e-03, 2.55922065e-03,
          8.18755012e-03, 7.67777953e-03, 8.85919016e-03, 3.05167399e-03,
          1.32584959e-01, 4.09519151e-02, 1.32584959e-01,
          -6.20396994e-02, 1.82252735e-01, 6.20396994e-02,
          1.82252735e-01, -1.49887679e-02, 2.89615951e-02,
          1.49887679e-02, 2.89615951e-02, 8.03300738e-02, 5.92971221e-02,
          8.18501934e-02, 5.95187321e-02, -1.90085724e-01,
          -7.45875835e-02, 2.79096276e-01, 2.32759327e-01,
          1.64910689e-01, 8.59295428e-02, 2.40958840e-01, 1.93067923e-01,
          -9.22767296e-02, 8.08735192e-02, 9.22767296e-02,
          8.08735192e-02, 1.98194738e-02, 2.10197140e-02, 4.99224328e-02,
          3.14779095e-02, -2.62131602e-01, -1.31433770e-01,
          3.69259953e-01, 1.48217276e-01, 3.67011458e-01, 2.22176220e-02,
          3.68632168e-01, 5.84006272e-02, -3.15712318e-02,
          1.15084345e-03, 3.20215151e-02, 2.14720573e-02,
          -1.00120446e-02, -4.30212216e-03, 1.06052943e-02,
          4.96786647e-03, 2.12203637e-02, 1.22443810e-02, 5.56894168e-02,
          2.65928060e-02, 1.03845382e-02, 1.84906237e-02, 3.45353708e-02,
          2.72192676e-02, 1.48549134e-05, -3.76953860e-03,
          1.88475451e-03, 3.81070003e-03, 8.32701474e-03, 3.59890540e-03,
          8.32701474e-03, 3.60223977e-03, 8.30426365e-02, 4.12602499e-02,
          8.30426365e-02, 4.12602499e-02, 2.00866722e-02, 1.84917711e-02,
          2.57644672e-02, 1.84917711e-02, -8.66800314e-04,
          1.23968709e-03, 1.45886256e-03, 1.23968709e-03, 8.37132260e-02,
          1.75388474e-02, 8.37132260e-02, 1.75388474e-02, 4.68563080e-01,
          1.54058203e-01, 4.68563080e-01, 1.54058203e-01,
          -5.06462110e-03, -1.86075475e-02, 7.87588805e-02,
          7.89738521e-02, -5.11824805e-03, -1.29099134e-02,
          7.41407461e-03, 1.95564590e-02, 8.65326673e-02,
          -1.90898962e-02, 8.66137370e-02, 1.92688107e-02,
          4.26838100e-01, -1.30670786e-01, 4.26838100e-01,
          1.30670786e-01, -8.07994977e-02, -6.84252456e-02,
          8.48593637e-02, 1.33816779e-01, -2.61615729e-03,
          4.55058739e-03, 7.06743263e-03, 2.33070739e-02, 7.22744176e-03,
          9.46649932e-04, 7.61137623e-03, 2.23764428e-03, 8.11462849e-02,
          -2.33089253e-02, 8.11462849e-02, 2.34280583e-02,
          1.17095076e-02, -3.29797529e-03, 1.17095076e-02,
          1.91084538e-02, 8.30632052e-04, 1.00229234e-04, 8.81386164e-04,
          3.48662888e-03, -6.99406082e-04, 8.97655962e-04,
          7.31504289e-04, 8.97655962e-04, 2.78475285e-02,
          -6.41431846e-03, 2.98863128e-02, 7.07433140e-03,
          8.48160610e-02, -1.70562994e-02, 8.48160610e-02,
          1.80819891e-02, 1.32923527e-03, -1.52402383e-03,
          2.09115306e-03, 1.59981276e-03, -1.55098420e-02,
          4.26205285e-02, 1.55098420e-02, 4.26205285e-02,
          -5.39622223e-03, 1.69185370e-01, 1.17136560e-01,
          1.76714778e-01, 5.12509048e-01, -7.80275241e-02,
          5.12509048e-01, 1.02202848e-01, 3.38327698e-02,
          -1.35977967e-02, 3.46140005e-02, 1.68006048e-02,
          -8.77911411e-03, 2.44375784e-02, 1.04620028e-02,
          2.45790239e-02, -1.06852427e-01, 2.98057735e-01,
          1.06852427e-01, 2.98057735e-01, 2.03903958e-01, 1.60384208e-01,
          2.03903958e-01, 1.99363321e-01, 2.78593376e-02,
          -2.69904025e-02, 2.78593376e-02, 3.22043672e-02,
          1.86247495e-03, 8.76251797e-05, 1.86247495e-03, 4.57964052e-04,
          1.38704870e-02, 2.94075012e-02, 1.38704870e-02, 3.04429512e-02,
          1.97673193e-03, 4.83795814e-02, 4.96536121e-03, 4.86654155e-02,
          7.57956412e-04, 5.82991494e-03, 9.20553342e-04, 5.83553221e-03,
          -1.68183353e-02, -4.95235808e-02, 1.68183353e-02,
          4.95235808e-02, -6.59746751e-02, -2.55243689e-01,
          6.91680983e-02, 2.55243689e-01, -1.07502965e-02,
          -8.12469870e-02, 4.22981903e-02, 8.12469870e-02,
          3.86136072e-03, -2.41961388e-04, 4.13220003e-03,
          1.01738086e-03, -1.66157857e-01, 4.47392501e-02,
          1.66157857e-01, 8.85538086e-02, 1.93649128e-01, 3.32256220e-02,
          3.48235071e-01, 1.82425186e-01, 1.98448747e-01, 6.14814870e-02,
          2.42868453e-01, 1.36675224e-01, -8.25506356e-03,
          -2.56192368e-02, 1.85951684e-02, 2.56192368e-02,
          -2.78011054e-01, 4.87938672e-02, 2.78011054e-01,
          5.46688810e-02, 2.05730461e-02, -8.09646025e-03,
          3.71058911e-01, 1.25808105e-01, 1.56675935e-01,
          -6.60980791e-02, 2.38156766e-01, 1.45888373e-01,
          -8.61529633e-03, 1.28255393e-02, 1.51592828e-02,
          2.94985864e-02, -3.84879820e-02, -2.11102175e-04,
          3.84879820e-02, 8.73855432e-04, -9.67880338e-03,
          1.37057127e-02, 4.89267297e-02, 1.48042059e-02, 8.50991234e-02,
          8.93347338e-02, 8.50991234e-02, 8.93347338e-02,
          -4.15100250e-03, 1.79368462e-02, 4.15100250e-03,
          1.79368462e-02, -4.31192992e-03, -1.39287533e-03,
          4.31192992e-03, 1.39287533e-03, 6.82437941e-02, 1.03492849e-02,
          6.82607889e-02, 1.05057806e-02, 3.47937346e-02, 4.41404153e-03,
          3.58050019e-02, 4.94708586e-03, -2.39084568e-03,
          -4.11779154e-04, 2.39084568e-03, 4.11779154e-04,
          -6.76996424e-04, -3.95661965e-03, 2.61746775e-02,
          6.67694304e-03, 4.87853050e-01, 6.55886903e-02, 4.87853050e-01,
          6.55886903e-02, 1.53203502e-01, 1.39631974e-02, 1.72946230e-01,
          1.83889959e-02, -1.59238316e-02, -1.26504898e-03,
          1.59238316e-02, 3.34848929e-03, 1.69831887e-02, 1.65732854e-04,
          2.84074843e-02, 2.85715051e-03, 4.35855985e-01,
          -1.18582072e-02, 4.35855985e-01, 2.73097195e-02,
          1.60471961e-01, -3.93548571e-02, 1.69940561e-01,
          4.17356715e-02, -1.21780774e-02, 4.72912099e-03,
          1.21780774e-02, 4.72912099e-03, 3.85815697e-03, 5.83971501e-04,
          4.23105527e-03, 6.99123018e-04, 5.77697009e-02, 1.12574361e-02,
          5.77697009e-02, 1.12574361e-02, 2.13066917e-02, 1.64822186e-03,
          2.13312320e-02, 4.43506846e-03, -1.09378144e-03,
          -8.16351909e-04, 1.09378144e-03, 8.16351909e-04, 0., 0., 0.,
          0., 3.40143293e-02, 7.73513876e-03, 3.40143293e-02,
          7.73513876e-03, 3.51609290e-02, 1.98151469e-02, 4.14811373e-02,
          2.09905878e-02, -1.47751449e-02, -5.11061028e-03,
          1.47751449e-02, 5.11061028e-03, 0., 0., 0., 0., 3.76437515e-01,
          4.68580052e-02, 3.76437515e-01, 6.33390918e-02, 6.76237047e-02,
          4.20931391e-02, 3.45587343e-01, 1.00637801e-01,
          -1.75939336e-01, -4.58695628e-02, 1.75939336e-01,
          4.58695628e-02, 0., 0., 0., 0., 3.39058131e-01,
          -5.72212152e-02, 3.39058131e-01, 6.71116337e-02,
          8.58249664e-02, -4.10180800e-02, 4.00899470e-01,
          1.09795175e-01, -1.81070983e-01, 5.03387637e-02,
          1.81070983e-01, 6.45955503e-02, 7.85173615e-05, 2.22976567e-04,
          1.79884606e-04, 2.22976567e-04, 2.59042010e-02,
          -5.79098891e-03, 2.60230321e-02, 7.63491308e-03,
          5.17372042e-02, -3.37966569e-02, 5.34661599e-02,
          3.67792584e-02, -1.16938902e-02, 3.20434687e-03,
          1.16938902e-02, 9.57718212e-03, -8.58558633e-04,
          -2.18757824e-03, 2.74182763e-03, 3.01054562e-03,
          4.41241488e-02, -7.89415240e-02, 4.64345142e-02,
          7.89415240e-02, -2.44054440e-02, 2.35788766e-02,
          4.38346677e-02, 5.69487847e-02, 4.04265663e-03, 2.00390499e-02,
          4.52351803e-03, 2.00390499e-02, -2.68945452e-02,
          2.19865181e-02, 2.68945452e-02, 2.19865181e-02, 5.52057987e-03,
          1.93284154e-02, 1.65407881e-01, 1.73542663e-01, 5.08312345e-01,
          -1.12458482e-01, 5.08312345e-01, 1.68009654e-01,
          2.81637572e-02, 6.59578713e-04, 3.24630104e-02, 3.00553311e-02,
          -1.19467620e-02, 2.56245416e-02, 1.40197603e-02,
          2.64478754e-02, -9.91145819e-02, 2.52786607e-01,
          1.05635829e-01, 2.52786607e-01, 2.11182088e-01,
          -2.85346247e-02, 2.67307192e-01, 2.08041698e-01,
          -2.87246965e-02, -1.11690558e-01, 4.10296880e-02,
          1.11690558e-01, 1.52950024e-03, -5.52732847e-04,
          1.73609983e-03, 9.12232848e-04, -7.82270916e-03,
          2.85567250e-02, 1.44122876e-02, 2.85567250e-02,
          -7.86739737e-02, -5.59012080e-03, 7.86739737e-02,
          4.83205542e-02, -1.36517994e-02, -1.40479999e-02,
          1.36517994e-02, 1.63211152e-02, 9.06782877e-03,
          -7.34339468e-03, 9.13841743e-03, 7.51631055e-03,
          -4.04366069e-02, -8.85555334e-03, 7.67548308e-02,
          6.82519004e-02, -2.17077509e-01, 2.11702779e-01,
          2.17077509e-01, 2.11702779e-01, -6.71461038e-03,
          4.02483493e-02, 6.91997120e-03, 4.02483493e-02,
          -1.42426705e-02, -1.71251986e-02, 1.74503028e-02,
          1.80307943e-02, 1.14243418e-01, -3.78077447e-01,
          1.65873334e-01, 4.08062816e-01, 8.83709826e-03, 8.35129842e-02,
          3.25849414e-01, 3.50053906e-01, -1.19598322e-02,
          1.22625776e-01, 1.22039001e-02, 1.24637939e-01,
          -4.03455738e-03, -7.29756244e-03, 8.69868603e-03,
          7.29756244e-03, 1.28278464e-01, 1.40745267e-01, 1.75725877e-01,
          1.57133654e-01, 1.64256781e-01, 6.81641996e-02, 1.76759675e-01,
          1.53106049e-01, -9.88989789e-03, -2.68192999e-02,
          9.88989789e-03, 2.89378185e-02, 6.29262708e-04,
          -9.89686348e-04, 6.29262708e-04, 9.89686348e-04,
          3.17251272e-02, 2.07896531e-03, 3.17251272e-02, 2.82227248e-03,
          5.26969554e-03, -5.66797284e-03, 1.55844018e-02,
          5.66797284e-03, -1.51759712e-03, -4.25450671e-05,
          1.51759712e-03, 2.48811266e-04 ]
      - [ 7.63003947e-03, -1.13596879e-02, 7.64262117e-03,
          1.13596879e-02, 2.63692867e-02, -1.16875647e-02,
          2.63692867e-02, 1.31359380e-02, 2.81033339e-04, 8.00619274e-03,
          9.13037639e-03, 8.00619274e-03, -4.00152057e-03,
          1.65967934e-03, 4.00152057e-03, 1.66629511e-03, 1.24384977e-01,
          -4.64813113e-02, 1.24384977e-01, 4.64813113e-02,
          4.78279948e-01, -4.14901152e-02, 4.78279948e-01,
          6.59184903e-02, -1.46431318e-02, -1.48211839e-03,
          5.45461923e-02, 3.63640487e-02, -2.46083569e-02,
          5.13368541e-05, 2.46083569e-02, 2.16168235e-03, 1.27744243e-01,
          3.28281894e-02, 1.27744243e-01, 3.28281894e-02, 4.70158726e-01,
          2.29602885e-02, 4.70158726e-01, 6.98380247e-02,
          -1.80617701e-02, -4.45943065e-02, 3.71754020e-02,
          4.75541838e-02, -2.40676105e-02, -2.19660718e-03,
          2.40676105e-02, 4.08913288e-03, 1.33374529e-02, 1.35949403e-02,
          1.33402301e-02, 1.35949403e-02, 2.36443058e-02, 2.68738531e-02,
          2.86207981e-02, 2.68738531e-02, -2.75930623e-03,
          -3.60304280e-03, 8.37834086e-03, 3.98122054e-03,
          -3.32897436e-03, -7.29468127e-04, 3.32897436e-03,
          7.29468127e-04, -3.54076060e-03, -1.27279945e-02,
          3.54076060e-03, 1.27279945e-02, 2.03961805e-02,
          -7.93752149e-02, 2.06057243e-02, 7.93752149e-02,
          4.22011316e-02, -4.88619134e-02, 4.23129983e-02,
          4.88619134e-02, 8.86629452e-04, -1.91937710e-04,
          1.20589009e-03, 7.81043258e-04, -2.39623189e-02,
          -4.71885502e-03, 2.58852728e-02, 1.93156414e-02,
          1.19677663e-01, -7.79314712e-02, 1.19677663e-01,
          1.08087316e-01, 4.64116693e-01, -1.30448043e-01,
          4.64116693e-01, 1.30448043e-01, 2.92119030e-02,
          -1.01554627e-02, 2.96050478e-02, 1.01554627e-02,
          -4.05739658e-02, 3.68293934e-02, 4.05739658e-02,
          3.68293934e-02, 9.60185528e-02, 2.11892173e-01, 9.74100009e-02,
          2.11892173e-01, 3.73711646e-01, 1.61000431e-01, 3.73711646e-01,
          1.63473874e-01, 3.28686200e-02, 6.55235257e-03, 3.28686200e-02,
          6.55235257e-03, -5.46523277e-03, 8.38565361e-03,
          5.46523277e-03, 8.38565361e-03, 1.40985977e-02, 5.97045608e-02,
          1.48701742e-02, 5.97045608e-02, 3.38998958e-02, 4.61188853e-02,
          3.38998958e-02, 4.61188853e-02, 1.70746585e-03, 2.32386636e-03,
          1.71547709e-03, 2.32386636e-03, 1.95908882e-02,
          -8.05011019e-03, 1.95908882e-02, 8.05011019e-03,
          9.48855504e-02, -5.37132323e-02, 9.48855504e-02,
          5.37132323e-02, -1.11863099e-03, -6.28822297e-02,
          6.17516041e-03, 6.28822297e-02, -2.23453389e-03,
          -8.45700875e-03, 2.23453389e-03, 8.45700875e-03,
          1.18881010e-01, 2.01080311e-02, 1.18881010e-01, 2.34804545e-02,
          5.67828000e-01, -4.08205837e-02, 5.67828000e-01,
          9.82660800e-02, -7.89473802e-02, -1.40574187e-01,
          8.12008232e-02, 1.40574187e-01, -4.35967464e-03,
          -2.65938044e-02, 9.48215649e-03, 2.65938044e-02,
          8.58948752e-02, 8.54570344e-02, 8.58948752e-02, 8.54570344e-02,
          2.46064410e-01, 3.34309079e-02, 2.50681907e-01, 1.24867901e-01,
          -9.75520983e-02, -1.34705156e-01, 9.75520983e-02,
          1.34705156e-01, -1.40810246e-02, -2.47698892e-02,
          1.40810246e-02, 2.47698892e-02, 2.44652899e-03, 4.49503632e-03,
          2.44652899e-03, 4.60065901e-03, -9.48207267e-03,
          -5.67386532e-03, 1.07587688e-02, 9.52117890e-03,
          -1.68130379e-02, -1.70622189e-02, 1.68130379e-02,
          1.70622189e-02, -2.09103245e-03, -1.80959608e-03,
          2.09103245e-03, 1.80959608e-03, 3.52105289e-03,
          -9.79502918e-04, 3.52105289e-03, 9.79502918e-04,
          1.87544450e-02, -4.94542764e-03, 1.89458579e-02,
          6.58142520e-03, 2.87972745e-02, 2.12944299e-02, 3.04992571e-02,
          2.22973228e-02, 5.86493453e-03, 1.05066914e-02, 5.94786042e-03,
          1.05066914e-02, 3.08928397e-02, -9.58453957e-03,
          3.08928397e-02, 9.58453957e-03, 1.73532918e-01, 4.29268815e-02,
          1.73532918e-01, 6.34105131e-02, 3.97315919e-01, 1.37275234e-01,
          3.97315919e-01, 1.38862520e-01, 3.28528397e-02, 9.09161195e-03,
          3.28528397e-02, 1.70078333e-02, 2.34375391e-02,
          -1.71211157e-02, 2.34375391e-02, 1.71211157e-02,
          2.94038177e-01, -1.86987579e-01, 2.94038177e-01,
          1.86987579e-01, 3.47066611e-01, -1.86358169e-01,
          3.47066611e-01, 1.93612665e-01, 1.03381956e-02,
          -4.46930937e-02, 1.17191095e-02, 4.46930937e-02,
          1.26480503e-04, -1.26480503e-04, 1.26480503e-04,
          1.26480503e-04, 2.95601431e-02, -2.51406170e-02,
          2.95601431e-02, 2.51406170e-02, 4.33533825e-02,
          -3.82430479e-02, 4.33533825e-02, 3.82430479e-02,
          2.41955160e-03, -3.87344882e-03, 2.41955160e-03,
          3.87344882e-03, 8.17693304e-03, -1.37643085e-03,
          8.17693304e-03, 2.92097428e-03, 1.56448036e-02, 1.54775567e-03,
          2.98572034e-02, 2.02122722e-02, -3.76497097e-02,
          1.44090792e-02, 3.76497097e-02, 1.44090792e-02,
          -2.44119158e-03, 1.94812124e-03, 2.44119158e-03,
          1.94812124e-03, 4.00526673e-02, -1.53538026e-02,
          4.03783843e-02, 1.55085092e-02, 3.36967826e-01,
          -3.53137366e-02, 3.44950259e-01, 5.98750822e-02,
          -3.17476660e-01, 6.49615452e-02, 3.17476660e-01,
          7.08353966e-02, -2.26655882e-02, -1.29764089e-02,
          2.27346253e-02, 1.29764089e-02, 3.11674606e-02, 1.24240750e-02,
          3.25825959e-02, 1.30203720e-02, 4.09532011e-01, 2.54077744e-02,
          4.09532011e-01, 4.28564437e-02, -3.03386360e-01,
          5.40395044e-02, 3.03386360e-01, 5.40395044e-02,
          -3.95847932e-02, 8.90913606e-03, 3.95847932e-02,
          9.93770361e-03, 6.98907813e-03, -2.50968221e-03,
          6.98907813e-03, 3.39035317e-03, 4.86866795e-02, 9.57881752e-03,
          4.86866795e-02, 1.53893186e-02, -3.86295021e-02,
          2.66797282e-03, 3.86295021e-02, 3.22279613e-03,
          -5.80767030e-03, 1.51689188e-03, 5.80767030e-03,
          1.51689188e-03, 6.12221984e-03, 2.19772570e-03, 6.12221984e-03,
          2.19772570e-03, 1.74983070e-04, 2.90032458e-02, 8.87662917e-03,
          2.90032458e-02, 3.12708654e-02, 3.13327797e-02, 3.12708654e-02,
          3.13327797e-02, -1.56589004e-03, 5.34349401e-03,
          2.97206291e-03, 5.34349401e-03, 2.97434684e-02,
          -1.61362253e-02, 3.15718353e-02, 1.82182621e-02,
          2.72844285e-01, 1.97492857e-02, 2.72844285e-01, 1.23045564e-01,
          1.68202162e-01, 2.37297565e-01, 1.68202162e-01, 2.37297565e-01,
          -1.37343695e-02, 2.51910966e-02, 1.64913721e-02,
          2.52558123e-02, 2.30773073e-03, 8.97821411e-03, 1.49512645e-02,
          1.10125942e-02, 4.69415843e-01, -5.57824410e-02,
          4.69415843e-01, 6.90449998e-02, 2.93496609e-01, 5.98754957e-02,
          2.93496609e-01, 9.23082456e-02, -2.02428289e-02,
          3.91869359e-02, 3.33129540e-02, 3.93753983e-02,
          -6.69550092e-04, 6.53634546e-04, 6.69550092e-04,
          7.87036843e-04, 5.56896515e-02, -2.41699326e-03,
          5.56896515e-02, 3.81543627e-03, 7.65057951e-02, 1.28520271e-02,
          7.65057951e-02, 1.28520271e-02, -8.77278915e-04,
          3.48008098e-03, 6.63622003e-03, 3.84232565e-03,
          -9.92213609e-04, -3.90637171e-04, 1.70650589e-03,
          1.62794662e-03, 8.10114294e-02, -5.42466976e-02,
          8.10114294e-02, 5.42466976e-02, 4.50628512e-02,
          -7.21265525e-02, 5.10478206e-02, 7.26535916e-02,
          -6.07010815e-03, -1.66068505e-03, 6.07010815e-03,
          2.68786470e-03, -9.04246699e-03, 1.65537838e-02,
          1.10020814e-02, 1.67494565e-02, 1.17504492e-01, 2.46187225e-02,
          1.47801206e-01, 1.35857821e-01, 3.99157852e-01,
          -1.96414158e-01, 3.99157852e-01, 2.23999396e-01,
          2.10633501e-02, 1.47148045e-02, 3.14910896e-02, 2.55761072e-02,
          1.72010604e-02, -9.17819887e-03, 1.72010604e-02,
          1.23949479e-02, 3.14446241e-02, 1.11737520e-01, 5.91769218e-02,
          1.16704479e-01, 4.35714900e-01, 1.69754505e-01, 4.35714900e-01,
          1.69754505e-01, 6.35751337e-02, 4.88819294e-02, 6.46477714e-02,
          4.88819294e-02, 4.64892061e-03, -4.91501577e-03,
          4.64892061e-03, 4.91501577e-03, 3.17944475e-02,
          -2.11951416e-02, 3.17944475e-02, 2.42707767e-02,
          8.40960443e-02, 6.58236153e-04, 8.40960443e-02, 2.66837105e-02,
          1.73664279e-02, 9.98797920e-03, 1.74656678e-02, 1.11917807e-02,
          2.17030232e-04, 2.37985761e-04, 6.09179551e-04, 5.02576760e-04,
          2.10581999e-02, -2.09616119e-04, 2.10581999e-02,
          2.65147816e-03, 8.52365717e-02, -2.78198887e-02,
          8.52365717e-02, 2.78198887e-02, 4.46367729e-03,
          -7.36072240e-03, 4.46367729e-03, 7.36072240e-03, 0., 0., 0.,
          0., 5.24024218e-02, -1.19192582e-02, 5.24024218e-02,
          2.76580434e-02, 4.59083289e-01, -9.43628326e-02,
          4.59083289e-01, 1.51359051e-01, 4.74979877e-02, 1.91004854e-02,
          4.86107096e-02, 2.97589879e-02, 3.18942871e-03, 3.18942871e-03,
          3.18942871e-03, 3.18942871e-03, 7.20351562e-02, 1.24155745e-01,
          7.20351562e-02, 1.24155745e-01, 4.65257198e-01, 1.07311755e-01,
          4.65257198e-01, 1.33541420e-01, 6.13498986e-02,
          -4.76471521e-03, 6.38077855e-02, 2.36738455e-02,
          4.45297081e-03, 3.69497738e-03, 4.45297081e-03, 3.69497738e-03,
          6.21805491e-04, 3.18535194e-02, 1.75948031e-02, 3.18535194e-02,
          3.03747747e-02, -1.65062230e-02, 3.50125097e-02,
          1.88661367e-02, 6.25019381e-03, -6.15729019e-03,
          6.25019381e-03, 6.15890883e-03, 6.05500862e-03,
          -1.37864728e-03, 6.05500862e-03, 1.37864728e-03,
          7.02965946e-04, 3.46350041e-03, 2.69639902e-02, 7.36132869e-03,
          -5.35487533e-02, 2.45933756e-02, 5.35487533e-02,
          2.45933756e-02, -2.26715021e-03, 1.47179153e-03,
          2.34114425e-03, 1.53347885e-03, 3.78644802e-02, 5.98588027e-04,
          3.78644802e-02, 1.50637899e-03, 2.15710089e-01, 7.56758302e-02,
          2.37282366e-01, 8.13027769e-02, -3.23617667e-01,
          2.88766503e-01, 3.23617667e-01, 2.88766503e-01,
          -5.27781434e-02, 1.50971804e-02, 5.27781434e-02,
          1.64914969e-02, 2.63739228e-02, 4.35619708e-03, 2.63739228e-02,
          5.12749748e-03, 3.81359994e-01, -7.05902278e-02,
          3.81359994e-01, 7.44764283e-02, -2.08715305e-01,
          1.14902444e-01, 3.04750443e-01, 1.22781038e-01,
          -8.86506736e-02, 1.63925216e-02, 8.86506736e-02,
          1.72662567e-02, 1.07532833e-03, 2.89032049e-03, 1.35851966e-03,
          2.89032049e-03, 4.50415164e-02, -2.96663865e-03,
          4.50939983e-02, 9.26971994e-03, -1.10091111e-02,
          -2.92685367e-02, 4.10921574e-02, 2.92685367e-02,
          -1.18536539e-02, -1.51636417e-03, 1.18562430e-02,
          3.33786756e-03, 6.15128595e-03, -4.89569735e-04,
          6.15128595e-03, 8.61105626e-04, 5.20978570e-02, 7.35778827e-04,
          5.20978570e-02, 1.53116579e-03, 5.17488122e-02, 9.24865063e-03,
          5.45452535e-02, 1.34515977e-02, -9.88868903e-03,
          6.98859757e-03, 9.88868903e-03, 6.98859757e-03, 5.83222099e-02,
          2.18602642e-02, 5.83222099e-02, 2.22430862e-02, 1.90768540e-01,
          7.75423348e-02, 1.90768540e-01, 1.05541058e-01, 5.07147849e-01,
          -8.19786787e-02, 5.07147849e-01, 9.72134098e-02,
          -5.01846410e-02, 1.15041826e-02, 5.24454378e-02,
          1.93171948e-02, 6.06210232e-02, 2.07483750e-02, 6.06210232e-02,
          2.11996362e-02, 4.79303338e-02, 1.26840621e-01, 8.67903009e-02,
          1.48091197e-01, 2.31155679e-01, -1.82821408e-01,
          2.79966295e-01, 2.28680655e-01, -4.65771146e-02,
          -1.08861014e-01, 4.77075130e-02, 1.08861014e-01,
          6.41303370e-03, -4.13043099e-03, 6.43117353e-03,
          4.13043099e-03, -8.19482561e-03, -6.35927692e-02,
          1.82210002e-02, 6.35927692e-02, -7.40796775e-02,
          -1.24579810e-01, 7.40796775e-02, 1.24579810e-01,
          -1.19666513e-02, -2.78340150e-02, 1.23414621e-02,
          2.78340150e-02, 7.55609525e-03, 1.73912663e-03, 7.78230047e-03,
          3.85206100e-03, 3.70988846e-02, 3.20135243e-02, 3.70988846e-02,
          3.20135243e-02, -1.32942777e-02, 7.39990128e-03,
          1.63616277e-02, 1.08715007e-02, -4.19849623e-03,
          1.43344654e-03, 4.21096431e-03, 2.17049033e-03, 1.19814888e-01,
          -7.72038847e-03, 1.19814888e-01, 1.69537887e-02,
          2.50773787e-01, 2.14112878e-01, 2.50773787e-01, 2.19705805e-01,
          -9.23743695e-02, 3.09858054e-01, 9.23743695e-02,
          3.09858054e-01, -2.48594079e-02, 4.66912612e-02,
          2.48594079e-02, 4.66912612e-02, 1.37422010e-01,
          -3.14900465e-02, 1.37422010e-01, 3.14900465e-02,
          4.61792916e-01, -6.14077188e-02, 4.61792916e-01,
          8.85060057e-02, -7.49304891e-02, 3.63427326e-02,
          8.68610442e-02, 6.42036274e-02, -1.53913181e-02,
          1.80296004e-02, 1.60845891e-02, 1.80296004e-02, 1.63645744e-02,
          -8.45693517e-03, 1.64054763e-02, 8.45693517e-03,
          1.10127345e-01, -5.38929850e-02, 1.10127345e-01,
          5.38929850e-02, 1.84478462e-02, 2.59465408e-02, 2.22255513e-02,
          2.75668185e-02, 9.51931230e-04, 8.46578367e-03, 9.80049488e-04,
          8.46668519e-03, -1.52821268e-03, 2.45238771e-03,
          1.70381996e-03, 2.45238771e-03, -2.42407843e-02,
          7.01547693e-03, 2.42407843e-02, 8.36858433e-03, 2.14089714e-02,
          1.07432688e-02, 2.16691233e-02, 1.19929230e-02, 3.27214994e-03,
          5.29788528e-03, 3.59780947e-03, 5.29788528e-03,
          -6.96728751e-03, -2.17721055e-04, 1.35265244e-02,
          1.01901833e-02, -2.44769469e-01, -4.88512181e-02,
          2.44769469e-01, 6.32945821e-02, 3.02136809e-01, 1.65579226e-02,
          3.02136809e-01, 4.29369323e-02, 1.28432931e-02, 4.44938242e-03,
          1.99004356e-02, 8.15400295e-03, -1.28228841e-02,
          -4.60898131e-02, 1.66755691e-02, 4.60898131e-02,
          -1.25743195e-01, -2.66765386e-01, 2.18008593e-01,
          2.66765386e-01, 4.63542342e-01, 3.94603536e-02, 4.63542342e-01,
          8.11266378e-02, 2.22723205e-02, 2.89326888e-02, 2.26107575e-02,
          2.89326888e-02, -6.33302005e-03, -4.22463426e-03,
          6.33302005e-03, 4.24779812e-03, 5.47780888e-03,
          -5.41781597e-02, 3.91527265e-02, 5.41781597e-02,
          1.04346521e-01, -5.08384928e-02, 1.04346521e-01,
          5.08384928e-02, 7.34869530e-03, -1.32203801e-03,
          7.34869530e-03, 2.26537581e-03, 2.52540293e-03, 2.91509088e-03,
          2.52540293e-03, 2.91509088e-03, 3.86374146e-02, 3.49898301e-02,
          3.86374146e-02, 3.49898301e-02, 8.04396160e-03, 3.69563773e-02,
          8.04396160e-03, 3.69563773e-02, 1.22716860e-03, 3.83939734e-03,
          1.22716860e-03, 3.83939734e-03, 2.73838229e-02, 3.85553460e-03,
          2.73838229e-02, 4.35832422e-03, 4.17283267e-01, 1.34999931e-01,
          4.17283267e-01, 1.34999931e-01, 8.92365500e-02, 1.91343859e-01,
          8.92365500e-02, 2.04456002e-01, 1.67680287e-03, 2.88704485e-02,
          2.08566478e-03, 3.90717424e-02, 3.50490697e-02,
          -9.19128186e-04, 3.50490697e-02, 5.73040312e-03,
          2.86760896e-01, -1.73283488e-01, 2.86760896e-01,
          1.77090898e-01, 6.29818365e-02, -3.62757802e-01,
          6.29818365e-02, 3.62757802e-01, -2.70098750e-03,
          -5.55486269e-02, 2.70098750e-03, 5.55486269e-02,
          3.71355447e-03, -2.33379262e-03, 3.71355447e-03,
          2.37239595e-03, 1.90475322e-02, -2.38326434e-02,
          1.90475322e-02, 2.56042611e-02, 4.32824111e-03,
          -2.22470332e-02, 5.02317399e-03, 2.22470332e-02,
          -4.93954693e-04, -3.85039346e-03, 4.93954693e-04,
          3.85039346e-03, 1.07831489e-04, -2.03085641e-04,
          2.94969184e-04, 7.89835118e-04, 3.51257399e-02,
          -6.82102097e-03, 3.51257399e-02, 7.77279073e-03,
          4.13601249e-02, -2.05026157e-02, 4.13601249e-02,
          2.05026157e-02, 2.80610344e-04, -1.22285192e-03,
          5.31868427e-04, 1.23012462e-03, -3.99375940e-03,
          2.42620464e-02, 6.80492818e-03, 2.80292016e-02, 1.09001428e-01,
          -1.38206268e-02, 1.26623809e-01, 1.03445552e-01,
          3.15972656e-01, -8.28523561e-02, 3.15972656e-01,
          1.00841478e-01, 1.59978084e-02, 2.20838329e-03, 1.59978084e-02,
          1.11608459e-02, -2.84380466e-02, 9.47052985e-02,
          2.84380466e-02, 9.47052985e-02, -1.40031174e-01,
          4.86920595e-01, 1.54982165e-01, 4.86920595e-01, 2.45754763e-01,
          1.70112729e-01, 2.63878524e-01, 1.70112729e-01, 2.77923681e-02,
          2.06854399e-02, 2.81242970e-02, 2.06854399e-02,
          -3.54365050e-03, 3.96503368e-03, 3.54365050e-03,
          4.20199661e-03, -4.60665859e-02, 3.32185440e-02,
          4.60665859e-02, 3.36187445e-02, -5.12631331e-03,
          1.65597778e-02, 2.60672662e-02, 1.77663174e-02, 4.08413727e-03,
          -1.97199406e-03, 4.09422303e-03, 1.97199406e-03,
          5.85065456e-03, 9.00568739e-06, 5.90115786e-03, 5.68822550e-04,
          5.91663606e-02, -1.58880427e-02, 5.91663606e-02,
          1.59395710e-02, 3.19122314e-03, -8.73839855e-03,
          7.95466267e-03, 9.10949893e-03, -1.63797187e-04,
          6.12846998e-05, 3.80609737e-04, 2.65574694e-04, 2.10123006e-02,
          -1.11900158e-02, 2.15054434e-02, 1.29542863e-02,
          4.05159026e-01, -1.80082053e-01, 4.05159026e-01,
          1.80082053e-01, 1.37780473e-01, -8.22110102e-02,
          1.38292223e-01, 9.46341082e-02, 6.22018240e-03, 2.10538320e-03,
          6.22018240e-03, 4.66192421e-03, -1.92567091e-02,
          7.46868551e-02, 2.16865074e-02, 7.46868551e-02, 3.52309823e-01,
          1.75690114e-01, 3.63338143e-01, 1.75690114e-01, 2.63991624e-01,
          1.82137936e-01, 2.63991624e-01, 1.82137936e-01, 9.73012764e-04,
          2.49745846e-02, 5.88151207e-03, 2.49745846e-02,
          -8.50054715e-03, 9.83325299e-03, 8.50054715e-03,
          9.85199865e-03, 3.97167262e-03, 2.88741644e-02, 3.41577493e-02,
          2.89919190e-02, 4.33066897e-02, -2.23080325e-03,
          4.33066897e-02, 7.91805144e-03, -1.05595763e-03,
          1.37016250e-04, 1.11914345e-03, 1.02158252e-03,
          -1.55605264e-02, -4.62773954e-03, 1.55605264e-02,
          4.62773954e-03, -3.67428772e-02, -1.11306487e-02,
          3.67428772e-02, 1.11306487e-02, 6.06101081e-02, 1.55615024e-02,
          6.06101081e-02, 1.58481319e-02, 1.34540433e-02, 6.92271860e-03,
          1.34540433e-02, 6.92271860e-03, -8.51899683e-02,
          -3.63920592e-02, 8.51899683e-02, 3.63920592e-02,
          -1.05831139e-01, 1.67223904e-02, 1.32445410e-01,
          5.13207465e-02, 5.24308026e-01, -1.36484336e-02,
          5.24308026e-01, 5.70802353e-02, 1.09195046e-01, 1.11008482e-02,
          1.09195046e-01, 1.97891779e-02, -3.58534306e-02,
          -2.63551343e-02, 3.69483829e-02, 2.63551343e-02,
          -2.15349514e-02, 5.87199107e-02, 5.00208922e-02,
          7.96735957e-02, 3.91565382e-01, 5.23573020e-03, 3.93735915e-01,
          6.95576146e-02, 1.13952920e-01, -2.86354367e-02,
          1.13952920e-01, 2.86354367e-02, 6.78964658e-04,
          -1.85725547e-03, 2.48644501e-03, 5.11981593e-03,
          1.10995583e-02, -1.18130883e-02, 1.19854966e-02,
          2.75808852e-02, 2.64548995e-02, -1.95584819e-02,
          2.88255438e-02, 2.35197376e-02, 1.38474684e-02,
          -7.77875818e-03, 1.38474684e-02, 7.78475823e-03,
          6.02398813e-03, 1.71583801e-04, 6.03675097e-03, 3.87270789e-04,
          6.45248741e-02, -5.85825043e-03, 6.45248741e-02,
          8.01849179e-03, 1.38742123e-02, -4.35653469e-03,
          1.61619764e-02, 5.12521714e-03, -1.32458948e-03,
          8.78758692e-06, 1.32458948e-03, 4.12009249e-04, 2.25761514e-02,
          1.44219177e-03, 2.25761514e-02, 4.82409587e-03, 4.40275580e-01,
          -7.20033869e-02, 4.40275580e-01, 7.53935948e-02,
          1.50718331e-01, -2.22320240e-02, 1.57462254e-01,
          4.77012210e-02, -3.79082165e-03, 7.94674852e-04,
          3.79082165e-03, 2.47490173e-03, 1.26280645e-02, 1.74322035e-04,
          1.27951037e-02, 1.52306596e-03, 4.73740339e-01, 2.13268865e-02,
          4.73740339e-01, 4.02666517e-02, 1.77890256e-01, 6.25196770e-02,
          1.89622834e-01, 6.25196770e-02, -7.76600232e-03,
          4.25471412e-03, 8.11214931e-03, 4.74759843e-03, 1.73857750e-03,
          -1.60944578e-03, 2.02724081e-03, 1.62465882e-03,
          7.68687576e-02, -1.35552194e-02, 7.68687576e-02,
          1.35552194e-02, 3.05279531e-02, -1.25671548e-04,
          3.28116231e-02, 4.87116864e-03, -1.72388763e-03,
          8.69168958e-04, 1.72388763e-03, 8.90800380e-04,
          -1.01856086e-02, -6.96266128e-04, 1.05913160e-02,
          2.39765341e-03, -3.62435989e-02, 4.99041425e-03,
          5.13879694e-02, 8.27974640e-03, 9.37425122e-02,
          -2.51487363e-02, 9.37425122e-02, 2.51487363e-02,
          8.78557563e-03, -3.18897236e-03, 8.83443654e-03,
          3.18897236e-03, -3.81104136e-03, -6.61987811e-02,
          2.54148170e-02, 6.61987811e-02, -2.52105981e-01,
          -7.50366449e-02, 2.54018724e-01, 7.50366449e-02,
          4.92499501e-01, -1.06518760e-01, 4.92499501e-01,
          1.06518760e-01, 8.49097446e-02, -1.95637662e-02,
          8.49097446e-02, 1.95637662e-02, 1.21727986e-02,
          -4.31116065e-03, 1.42617933e-02, 1.96434036e-02,
          -3.66450474e-02, 3.80696505e-02, 5.62444143e-02,
          7.08590522e-02, 3.61958563e-01, 6.98569790e-02, 3.61958563e-01,
          8.68774205e-02, 8.84751752e-02, -1.17342947e-02,
          8.84751752e-02, 1.17342947e-02, -3.03567154e-03,
          2.83987937e-03, 3.03567154e-03, 2.83987937e-03, 9.54546907e-04,
          3.56243178e-03, 6.12781756e-03, 6.49299799e-03, 3.37848067e-02,
          -7.97422510e-03, 3.37848067e-02, 9.18274932e-03,
          1.13920160e-02, -3.06904013e-03, 1.13920160e-02,
          3.06904013e-03, 3.71711282e-03, -1.05428952e-03,
          4.36021714e-03, 1.05624576e-03, 7.34048560e-02, 2.37211697e-02,
          7.34048560e-02, 2.37211697e-02, 2.11038385e-02, 1.88913085e-02,
          2.50856318e-02, 1.88913085e-02, -1.47703465e-03,
          1.19176155e-04, 1.49048970e-03, 1.95865534e-04, 3.91350240e-02,
          1.14922794e-02, 4.70114052e-02, 1.19367754e-02, 5.43774128e-01,
          7.27699772e-02, 5.43774128e-01, 8.24510232e-02, 3.47187072e-02,
          5.98734478e-03, 1.00482352e-01, 3.75991315e-02,
          -1.10913478e-02, -5.21486043e-04, 1.10913478e-02,
          3.08930874e-03, 3.75540219e-02, 3.86974998e-02, 4.19010893e-02,
          3.86974998e-02, 3.91521960e-01, 4.81531546e-02, 3.91521960e-01,
          1.55781716e-01, 4.43833731e-02, -7.93304145e-02,
          7.51727223e-02, 9.22191069e-02, -1.05799120e-02,
          -6.87618926e-03, 1.05799120e-02, 6.87618926e-03,
          5.32525871e-03, 9.88478493e-03, 5.41580003e-03, 1.01264752e-02,
          4.15968196e-03, 3.67348827e-02, 1.36586763e-02, 4.08739299e-02,
          -7.98625033e-03, -1.40927848e-03, 8.82472657e-03,
          8.86297040e-03, -1.04396639e-03, -1.08512398e-03,
          1.04396639e-03, 1.08512398e-03, 6.17274409e-03,
          -4.35392791e-03, 6.17274409e-03, 4.35392791e-03,
          4.63505052e-02, -2.71817483e-02, 4.63505052e-02,
          2.71817483e-02, -2.72505265e-03, -8.79983883e-03,
          6.14136271e-03, 9.82400682e-03, -1.28559058e-03,
          8.10434176e-06, 1.28559058e-03, 2.54526502e-04, 1.17150778e-02,
          -4.95438324e-03, 1.94118023e-02, 1.92180872e-02,
          3.33421826e-01, -2.66637564e-01, 3.33421826e-01,
          2.66637564e-01, 1.94532573e-01, -1.23825714e-01,
          1.95574060e-01, 1.49761736e-01, -2.76230206e-03,
          4.24108841e-03, 6.08032662e-03, 4.94202971e-03,
          -3.00208870e-02, 3.78580205e-02, 3.00208870e-02,
          3.78580205e-02, 2.90262014e-01, 1.04114048e-01, 3.02578479e-01,
          1.40006676e-01, 3.55135262e-01, 1.32722646e-01, 3.62389684e-01,
          1.47723839e-01, -1.92875415e-02, -1.06808252e-03,
          1.92875415e-02, 8.55597667e-03, -3.27164517e-03,
          4.50317655e-03, 3.36742960e-03, 4.51685395e-03, 2.58759912e-02,
          4.04777713e-02, 2.75756009e-02, 4.04777713e-02, 1.88309196e-02,
          -8.27186555e-03, 2.23451219e-02, 1.35447728e-02,
          -1.86913752e-03, -1.86844892e-03, 1.86913752e-03,
          1.87071122e-03, 2.98273750e-03, -2.62075150e-03,
          3.34555516e-03, 2.89480551e-03, 3.67728844e-02,
          -3.57470475e-02, 3.67728844e-02, 3.57897468e-02,
          9.95897688e-03, -1.37312440e-02, 1.00443764e-02,
          1.43887307e-02, 6.73807575e-04, -7.00394332e-04,
          6.90295943e-04, 7.76313886e-04, -2.46193297e-02,
          1.20938448e-02, 2.55775619e-02, 1.52843660e-02, 2.11181968e-01,
          -1.71681434e-01, 2.23058611e-01, 1.72743693e-01,
          2.91524827e-01, -5.90928495e-02, 2.91524827e-01,
          1.06961153e-01, 7.72563415e-03, 1.14382915e-02, 8.60219635e-03,
          1.14382915e-02, -5.64407222e-02, 2.90198810e-02,
          5.64407222e-02, 2.90198810e-02, 1.35119304e-01, 8.12301338e-02,
          2.40590557e-01, 9.76411179e-02, 4.98706013e-01, 1.43866181e-01,
          4.98706013e-01, 1.43866181e-01, -1.30470023e-02,
          1.50496429e-02, 1.50604853e-02, 1.58382580e-02,
          -6.69951690e-03, 3.19678057e-03, 6.69951690e-03,
          3.21006216e-03, 1.68739241e-02, 4.68453579e-02, 3.20045874e-02,
          4.68453579e-02, 5.73406741e-02, 2.24615820e-02, 5.76799698e-02,
          2.26160176e-02, -4.49853903e-03, -7.33546622e-04,
          4.49853903e-03, 8.34424514e-04, 1.17893261e-03,
          -3.67824943e-03, 1.26452255e-03, 3.71606485e-03,
          8.85194447e-03, -2.31894315e-03, 9.07127839e-03,
          5.24515053e-03, 1.63934112e-03, 1.91137323e-03, 5.31596085e-03,
          4.06257249e-03, -1.28470696e-04, -2.81055574e-04,
          2.57751148e-04, 3.99638579e-04, 3.92364450e-02,
          -4.34545763e-02, 3.92364450e-02, 4.34545763e-02,
          3.07944655e-01, 4.59176265e-02, 3.07944655e-01, 1.15257896e-01,
          -8.74493197e-02, 1.14971630e-01, 9.77885723e-02,
          1.14971630e-01, 3.51641770e-03, 1.98210287e-03, 4.25965292e-03,
          2.63575907e-03, 3.66546102e-02, -2.82698218e-03,
          4.16836552e-02, 1.87590290e-02, 5.66462159e-01,
          -6.30017295e-02, 5.66462159e-01, 8.41271132e-02,
          -1.80037111e-01, 4.72259708e-02, 1.94427460e-01,
          6.11023456e-02, -1.41855667e-03, -2.86279689e-03,
          1.07343281e-02, 8.22040625e-03, 8.04776617e-04, 6.85105613e-03,
          3.30489990e-03, 6.85105613e-03, 6.97437897e-02, 2.01605596e-02,
          6.97437897e-02, 2.10929345e-02, -8.78370553e-03,
          7.12414132e-03, 2.40662824e-02, 9.95371770e-03,
          -2.07940862e-03, 2.07124255e-03, 2.30615493e-03,
          2.09683017e-03 ]
      - [ 1.33247208e-02, -6.96207210e-03, 1.33247208e-02,
          6.96207210e-03, 3.54083888e-02, -2.11256854e-02,
          3.58379073e-02, 2.18141768e-02, -1.08058890e-02,
          -3.62229126e-04, 1.62505526e-02, 8.49619694e-03,
          -4.00963752e-03, -2.61042616e-04, 4.00963752e-03,
          5.55612030e-04, 9.25411358e-02, -3.47339697e-02,
          9.25411358e-02, 3.47339697e-02, 4.47206169e-01,
          -1.64639845e-01, 4.47206169e-01, 1.64639845e-01,
          3.49069647e-02, -4.15394939e-02, 1.32688954e-01,
          5.67273647e-02, -2.33655553e-02, 1.46624930e-02,
          2.33655553e-02, 1.47939436e-02, 9.39458832e-02, 2.70287227e-02,
          9.39458832e-02, 2.70287227e-02, 4.56311166e-01, 1.39041036e-01,
          4.56311166e-01, 1.39041036e-01, 8.08426291e-02, 3.53589468e-02,
          8.56109113e-02, 4.29694168e-02, -6.90583885e-03,
          9.05146636e-03, 6.90583885e-03, 9.33352672e-03, 1.11035435e-02,
          9.25339852e-03, 1.11035435e-02, 9.25339852e-03, 3.86869870e-02,
          2.72877272e-02, 3.98230478e-02, 2.72877272e-02,
          -5.86209772e-03, -1.27290981e-03, 7.43758166e-03,
          6.38986379e-03, -2.95180253e-05, -1.14565867e-03,
          6.68029126e-04, 1.14565867e-03, 3.55092366e-03,
          -7.40046613e-03, 3.55500868e-03, 7.40046613e-03,
          4.74670120e-02, -3.55579033e-02, 4.74670120e-02,
          3.55579033e-02, 2.65669357e-02, -1.47518693e-02,
          2.67027970e-02, 1.50007000e-02, -6.67214452e-04,
          -1.12226684e-04, 6.67214452e-04, 6.30289840e-04,
          2.67117023e-02, -1.46390833e-02, 2.67117023e-02,
          1.70446951e-02, 4.06804919e-01, -9.25396085e-02,
          4.06804919e-01, 1.05149023e-01, 2.73888081e-01,
          -6.83298036e-02, 2.73888081e-01, 7.32739419e-02,
          3.12435301e-03, -3.85755766e-03, 4.88087162e-03,
          3.85755766e-03, 3.23414393e-02, 1.33068385e-02, 3.23414393e-02,
          1.33068385e-02, 3.92333388e-01, 9.05609876e-02, 3.92333388e-01,
          9.39380154e-02, 2.62862831e-01, 5.10312915e-02, 2.62862831e-01,
          5.27348705e-02, 8.88096634e-04, -1.92385027e-03,
          4.46816301e-03, 2.63273041e-03, 5.43898810e-03, 2.55141687e-03,
          5.43898810e-03, 2.55141687e-03, 5.20161279e-02, 1.70763321e-02,
          5.20161279e-02, 1.70763321e-02, 2.50557344e-02, 4.78523644e-03,
          2.50557344e-02, 5.00008464e-03, -6.12207921e-04,
          -4.42332297e-04, 6.12207921e-04, 7.01509358e-04,
          7.16842012e-04, 2.09634367e-04, 7.16842012e-04, 2.09634367e-04,
          3.15173678e-02, 3.25771086e-02, 3.15173678e-02, 3.25771086e-02,
          1.67402029e-02, 2.98475474e-02, 1.67402029e-02, 2.98475474e-02,
          2.72128033e-03, 3.11926613e-03, 2.72128033e-03, 3.11926613e-03,
          3.20456810e-02, 1.28261438e-02, 3.25432308e-02, 1.28261438e-02,
          3.70784193e-01, 2.66130596e-01, 3.70784193e-01, 2.66130596e-01,
          -4.02107649e-02, 2.84684062e-01, 6.11118749e-02,
          2.84684062e-01, 9.95446276e-03, 2.46622600e-02, 1.00356182e-02,
          2.46622600e-02, 3.83924432e-02, -4.77105938e-03,
          3.87897156e-02, 1.29654454e-02, 3.83676946e-01,
          -1.60734251e-01, 3.83676946e-01, 1.67687163e-01,
          6.29447252e-02, -4.94604111e-02, 9.27663371e-02,
          1.31833240e-01, -5.21156238e-03, 9.03245993e-03,
          5.21156238e-03, 9.03245993e-03, 1.46925042e-03,
          -8.21186230e-03, 2.71899882e-03, 8.21186230e-03,
          5.85074462e-02, -6.48851991e-02, 5.85074462e-02,
          6.48851991e-02, 4.84173857e-02, -2.59016864e-02,
          4.84173857e-02, 2.63495464e-02, 9.93903144e-04, 2.04383908e-03,
          1.43823924e-03, 2.04383908e-03, -5.45461546e-04,
          -2.10594328e-04, 1.19625032e-03, 9.99721582e-04,
          4.17225529e-03, 1.68420766e-02, 4.21996089e-03, 1.68897808e-02,
          -4.77214996e-03, 1.39735108e-02, 6.70403568e-03,
          1.39735108e-02, -1.76981592e-03, 1.87429215e-03,
          1.76981592e-03, 1.87429215e-03, 4.33873460e-02,
          -3.71271335e-02, 4.33873460e-02, 3.71271335e-02,
          2.22140759e-01, 1.13087781e-01, 2.22140759e-01, 1.50390312e-01,
          -1.55011594e-01, 1.99720427e-01, 1.56198367e-01,
          1.99720427e-01, -8.83675553e-03, 1.29219880e-02,
          8.83675553e-03, 1.51699800e-02, 9.36702043e-02,
          -5.64086512e-02, 9.36702043e-02, 5.64086512e-02,
          5.29299021e-01, -1.10494971e-01, 5.29299021e-01,
          1.17941804e-01, -9.85276997e-02, 1.57470912e-01,
          1.79712817e-01, 1.64736077e-01, -2.16536280e-02,
          2.65984815e-02, 2.16536280e-02, 2.77032387e-02, 1.67252291e-02,
          -4.53960663e-03, 1.67252291e-02, 4.56974842e-03,
          9.95945260e-02, -2.25759447e-02, 9.95945260e-02,
          2.35945024e-02, 1.24116261e-02, -1.37693314e-02,
          2.63944808e-02, 1.56018268e-02, -5.05982712e-03,
          -1.41872559e-03, 5.08156186e-03, 1.76348106e-03,
          7.43511179e-03, 3.00618028e-03, 7.57388398e-03, 3.07261548e-03,
          5.29307686e-03, 4.30202633e-02, 1.83061138e-02, 4.30202633e-02,
          -3.75658497e-02, 5.62110618e-02, 3.75658497e-02,
          5.62110618e-02, -3.91495274e-03, 5.54961804e-03,
          4.00827825e-03, 5.91353932e-03, 6.21534064e-02, 2.49374914e-03,
          6.21534064e-02, 8.21736734e-03, 2.62924492e-01, 1.48442686e-01,
          2.66494930e-01, 1.55345485e-01, -1.14268325e-01,
          4.10813123e-01, 1.37595415e-01, 4.10813123e-01,
          -4.68154624e-02, 7.67324194e-02, 4.68154624e-02,
          7.67324194e-02, 5.60227297e-02, -6.48969738e-03,
          5.60227297e-02, 1.14046270e-02, 4.09904957e-01,
          -9.75893065e-02, 4.09904957e-01, 9.80644152e-02,
          9.40376520e-02, -7.09517440e-03, 1.32874861e-01,
          1.01045579e-01, -3.12654488e-02, 2.37553604e-02,
          3.12654488e-02, 2.62088422e-02, 5.06560458e-03, 4.65013459e-03,
          5.06560458e-03, 4.65013459e-03, 4.34952676e-02, 5.69142867e-03,
          4.34952676e-02, 9.81873553e-03, 1.97927691e-02,
          -1.35637084e-02, 1.97927691e-02, 1.36730326e-02,
          -8.73356068e-04, -1.15264696e-03, 9.52223199e-04,
          1.31023896e-03, -2.73688533e-03, -2.80085858e-03,
          2.73688533e-03, 2.84096459e-03, 1.26240021e-02,
          -1.84368845e-02, 1.49358623e-02, 1.84368845e-02,
          4.18022871e-02, -1.47317890e-02, 4.18022871e-02,
          1.47317890e-02, 8.98700114e-03, -3.21694301e-03,
          8.98700114e-03, 3.21694301e-03, -3.28275599e-02,
          1.44961849e-02, 3.28275599e-02, 1.90736931e-02, 5.34016937e-02,
          1.02640741e-01, 9.04998779e-02, 1.94742203e-01, 3.04397792e-01,
          -6.74952120e-02, 3.04397792e-01, 6.74952120e-02,
          6.63821846e-02, 3.94993229e-03, 6.63821846e-02, 8.52291007e-03,
          1.98254362e-02, 2.06654891e-02, 4.44381274e-02, 2.23472025e-02,
          -2.24907160e-01, 4.21570659e-01, 3.49349648e-01,
          4.21570659e-01, 2.12836727e-01, 7.26134703e-02, 3.32236081e-01,
          7.26134703e-02, 8.49548951e-02, 2.81683542e-02, 8.49548951e-02,
          2.81683542e-02, 6.05038973e-03, -4.21125069e-03,
          8.26349109e-03, 4.21125069e-03, -3.14636454e-02,
          -5.08704484e-02, 6.55018240e-02, 5.08704484e-02,
          2.50877608e-02, -2.11903243e-03, 6.21169694e-02,
          1.10606104e-02, 1.42452680e-02, -4.26523125e-04,
          1.42452680e-02, 2.31545535e-03, -1.44302601e-03,
          -2.91642570e-03, 1.44302601e-03, 2.91642570e-03,
          6.53632125e-03, -5.02035394e-03, 1.17993653e-02,
          8.61447491e-03, 2.17653140e-02, 2.30870303e-02, 2.17653140e-02,
          2.30870303e-02, -6.46365399e-04, 4.90463758e-03,
          1.04459946e-03, 5.00107231e-03, 1.42166829e-02, 3.66409905e-02,
          1.73394550e-02, 3.97161692e-02, -3.12751457e-02,
          1.79353520e-01, 1.29891291e-01, 1.82105064e-01, 3.78815353e-01,
          7.35516623e-02, 3.78815353e-01, 9.53337997e-02, 1.90458149e-02,
          5.29004708e-02, 2.16257796e-02, 5.29004708e-02, 5.24902418e-02,
          -1.66906428e-03, 5.30654192e-02, 3.32912467e-02,
          -2.99352199e-01, 4.82194312e-02, 3.07445079e-01,
          1.77889302e-01, 4.18392599e-01, -6.89883903e-02,
          4.18392599e-01, 8.53489861e-02, 6.02247752e-02,
          -6.15380413e-04, 6.02247752e-02, 1.78243555e-02,
          1.30011758e-03, -3.97539278e-03, 3.09918122e-03,
          4.52871295e-03, -1.14223054e-02, -4.11162823e-02,
          1.36802625e-02, 4.20680940e-02, 3.96916494e-02,
          -2.57360544e-02, 3.96916494e-02, 2.58560777e-02,
          9.13065113e-03, -7.81876873e-03, 9.13065113e-03,
          7.81876873e-03, 1.75222997e-02, -8.18484649e-03,
          1.75222997e-02, 8.23268667e-03, 9.32256281e-02,
          -7.05780163e-02, 9.32256281e-02, 7.05780163e-02,
          -4.14121384e-03, -4.46208939e-02, 8.84081796e-03,
          4.47512679e-02, -2.94259260e-03, -3.12121329e-03,
          2.94259260e-03, 3.29791941e-03, 6.87208623e-02, 3.97162959e-02,
          7.27606565e-02, 4.79101539e-02, 5.74865997e-01,
          -6.21767826e-02, 5.74865997e-01, 1.55111983e-01,
          5.74073847e-03, -2.24626437e-01, 4.67237420e-02,
          2.24626437e-01, -1.70330647e-02, -4.15748358e-02,
          1.70330647e-02, 4.15748358e-02, 2.54656840e-02, 5.81258535e-02,
          3.27663422e-02, 5.81258535e-02, 2.02801839e-01, 2.15906538e-02,
          2.02801839e-01, 1.27421349e-01, -4.72746529e-02,
          -1.50520429e-01, 4.72746529e-02, 1.50520429e-01,
          -8.54584295e-03, -1.36362268e-02, 8.54584295e-03,
          1.36362268e-02, -2.71858016e-06, 4.72807384e-04,
          1.52868347e-03, 1.00656901e-03, 1.45782751e-03,
          -5.96922357e-03, 1.45782751e-03, 5.96922357e-03,
          -3.03845247e-03, -3.03845247e-03, 3.03845247e-03,
          3.03845247e-03, 0., 0., 0., 0., -1.78772595e-03,
          1.44302228e-03, 1.78772595e-03, 1.61871663e-03, 4.51095449e-03,
          -9.57651343e-03, 1.10571077e-02, 1.41087789e-02,
          2.20404528e-02, -4.92833927e-02, 2.20404528e-02,
          4.92833927e-02, 1.80691818e-03, -8.27849377e-03,
          1.88558770e-03, 8.27849377e-03, -8.23774468e-03,
          1.33825475e-02, 8.73118639e-03, 1.33825475e-02,
          -2.22001225e-01, 3.68519872e-02, 2.22001225e-01,
          5.18393666e-02, 4.88379598e-01, 1.54489815e-01, 4.88379598e-01,
          1.81253105e-01, 6.04544824e-04, 5.37603199e-02, 4.06311154e-02,
          6.85657039e-02, -2.56293709e-03, -3.54822888e-03,
          6.57511596e-03, 8.59020557e-03, -1.84192672e-01,
          1.20165236e-01, 1.85554013e-01, 1.24773674e-01, 2.61769652e-01,
          -7.07083493e-02, 2.67944902e-01, 2.62859315e-01,
          -7.71851325e-03, -7.32932538e-02, 2.75982432e-02,
          8.78458023e-02, 1.58268074e-03, -2.64344201e-03,
          1.58268074e-03, 2.70513771e-03, 2.34983936e-02, 2.15761438e-02,
          2.34983936e-02, 2.32886076e-02, 2.48408113e-02, 9.12763923e-02,
          2.48408113e-02, 9.12763923e-02, -8.27491225e-04,
          1.76057778e-02, 8.51437915e-04, 1.76057778e-02, 1.69788636e-02,
          3.65124852e-03, 1.69788636e-02, 3.69086140e-03, 8.43038559e-02,
          2.09728032e-02, 8.43038559e-02, 2.11989600e-02, 2.07531992e-02,
          2.02505272e-02, 2.07531992e-02, 2.11528689e-02, 9.41721781e-04,
          2.55037099e-03, 9.41721781e-04, 2.69930833e-03, 9.76698473e-02,
          4.52666506e-02, 9.76698473e-02, 4.52666506e-02, 5.39565742e-01,
          9.87974256e-02, 5.39565742e-01, 9.87974256e-02, 1.16252460e-01,
          2.93438099e-02, 1.19122818e-01, 8.20326582e-02, 8.00586957e-03,
          3.88281839e-03, 8.00586957e-03, 1.13324225e-02, 5.61967343e-02,
          4.53421436e-02, 5.61967343e-02, 4.53421436e-02, 2.80519366e-01,
          -5.03511950e-02, 2.80519366e-01, 1.16585717e-01,
          9.06966105e-02, -2.38572925e-01, 9.06966105e-02,
          2.38572925e-01, 5.17799193e-03, -3.37573774e-02,
          6.62366487e-03, 3.37573774e-02, 7.69366859e-04, 7.89589540e-04,
          1.80482713e-03, 2.15086062e-03, 4.37786977e-04,
          -3.07734087e-02, 6.16514357e-03, 3.07734087e-02,
          1.25707155e-02, -3.94528322e-02, 1.27730304e-02,
          3.94528322e-02, -8.88924114e-04, -6.30270084e-03,
          1.15918415e-03, 6.30270084e-03, 6.13079348e-04, 8.61531880e-04,
          6.20861072e-04, 1.07781286e-03, 2.90216692e-02, 2.41746027e-02,
          2.90738866e-02, 2.41959710e-02, 6.09122701e-02, 3.95993292e-02,
          6.09122701e-02, 3.95993292e-02, 6.50624046e-03, 4.28827293e-03,
          6.50624046e-03, 4.28827293e-03, 1.11147342e-02, 1.41727803e-02,
          1.11147342e-02, 1.41727803e-02, 2.92382717e-01, 1.23206966e-01,
          2.92382717e-01, 1.23206966e-01, 4.02557254e-01, 9.55141932e-02,
          4.02557254e-01, 1.26288444e-01, 3.26794162e-02, 1.11050426e-03,
          3.27316336e-02, 1.47768129e-02, 1.05272597e-02,
          -3.98284337e-03, 1.05974562e-02, 4.63833567e-03,
          2.24907681e-01, -1.09791376e-01, 2.24907681e-01,
          1.09791376e-01, 2.95619309e-01, -2.45906293e-01,
          2.95619309e-01, 2.45906293e-01, 2.21292097e-02,
          -5.37220091e-02, 2.22241655e-02, 5.37220091e-02,
          2.80088396e-04, -1.65611284e-03, 9.23599582e-04,
          1.66961353e-03, 1.64103340e-02, -1.97145548e-02,
          1.64103340e-02, 2.02479605e-02, 1.90095361e-02,
          -3.65573317e-02, 1.93404406e-02, 3.66108567e-02,
          -1.44345657e-04, -9.30219050e-03, 6.91070571e-04,
          9.30219050e-03, 1.82203315e-02, 8.93515535e-03, 1.82203315e-02,
          8.93515535e-03, 1.01995036e-01, 3.98118161e-02, 1.01995036e-01,
          3.99652906e-02, 3.19061242e-02, -6.11191941e-03,
          3.57777439e-02, 1.79179031e-02, -1.01337384e-03,
          -7.61282304e-03, 1.19838922e-03, 7.61282304e-03,
          1.21641435e-01, 3.85748297e-02, 1.21641435e-01, 3.85748297e-02,
          4.64962065e-01, 1.50638655e-01, 4.64962065e-01, 1.60202742e-01,
          -1.40133023e-01, -1.04284167e-01, 2.06540525e-01,
          1.31417736e-01, -2.64290832e-02, -3.97620685e-02,
          2.70512663e-02, 3.97620685e-02, 9.18518305e-02, 1.61821544e-02,
          9.18518305e-02, 1.61821544e-02, 3.36848199e-01,
          -9.22688991e-02, 3.36848199e-01, 9.59938169e-02,
          -2.04979643e-01, -6.14959635e-02, 2.04979643e-01,
          9.34097022e-02, -2.74247490e-02, 6.59370609e-03,
          2.78862566e-02, 1.54020349e-02, 8.31646007e-03, 4.83942637e-03,
          8.31646007e-03, 4.83942637e-03, 3.68390083e-02, 7.72174215e-03,
          3.68390083e-02, 7.72174215e-03, -5.80609357e-03,
          1.45966895e-02, 1.10957772e-02, 1.45966895e-02,
          -2.35126656e-03, 5.03293192e-03, 2.35126656e-03,
          5.03293192e-03, -9.88545129e-04, 2.73494492e-03,
          1.15908950e-03, 2.86118942e-03, 2.24633254e-02, 1.38182119e-02,
          2.24633254e-02, 1.62129514e-02, 2.23651864e-02, 1.41429836e-02,
          2.39812322e-02, 2.11170968e-02, 8.32763733e-04, 9.37031582e-03,
          2.61240453e-03, 9.37031582e-03, 1.51502527e-02,
          -4.35015187e-03, 1.57012846e-02, 5.73046599e-03,
          -4.92029376e-02, -7.52442926e-02, 1.00382544e-01,
          9.54677910e-02, 2.79736519e-01, -1.82729572e-01,
          2.79736519e-01, 1.90309897e-01, 1.08820282e-01, 4.70011830e-02,
          1.08820282e-01, 4.70011830e-02, 1.61754005e-02,
          -1.30674969e-02, 1.61754005e-02, 1.34168081e-02,
          -1.06703848e-01, -8.43033642e-02, 1.29380211e-01,
          1.21403791e-01, 4.94467646e-01, 1.04328744e-01, 4.94467646e-01,
          1.63717091e-01, 1.86842710e-01, 6.17297851e-02, 1.86842710e-01,
          6.17297851e-02, 3.35405581e-04, 4.45937598e-03, 3.35405581e-04,
          4.45937598e-03, 2.39922088e-02, 5.90084903e-02, 2.39922088e-02,
          5.90084903e-02, 1.08144492e-01, 1.14706390e-01, 1.08144492e-01,
          1.14706390e-01, 2.63465606e-02, 1.37589108e-02, 2.63465606e-02,
          1.37589108e-02, -2.56576156e-03, 1.23539101e-03,
          2.56576156e-03, 1.96310249e-03, 3.04605346e-02, 2.57938802e-02,
          3.07739060e-02, 3.15980911e-02, 2.81943772e-02, 3.22253220e-02,
          2.81943772e-02, 3.81111391e-02, 3.87341133e-03, 5.09167323e-03,
          3.87341133e-03, 5.29995793e-03, -3.56838806e-03,
          1.78444814e-02, 1.85265653e-02, 1.78444814e-02, 3.68841469e-01,
          2.42156774e-01, 3.68841469e-01, 2.42156774e-01, 1.53638676e-01,
          2.78835326e-01, 1.59583017e-01, 2.84779698e-01, 8.58904887e-03,
          1.74305178e-02, 1.57711580e-02, 2.13677455e-02,
          -2.13933010e-02, 2.66627222e-02, 2.13933010e-02,
          2.66627222e-02, 2.65131652e-01, -1.06012255e-01,
          2.67504722e-01, 1.30642250e-01, 1.27715945e-01,
          -2.99619406e-01, 1.48006052e-01, 2.99619406e-01,
          1.36808287e-02, -2.47120783e-02, 1.36808287e-02,
          2.47120783e-02, -4.41088667e-03, 3.40083032e-03,
          4.41088667e-03, 3.43837822e-03, -3.91801959e-03,
          1.80252921e-02, 7.40531459e-03, 1.80252921e-02, 5.30432956e-03,
          1.87693292e-03, 7.62588531e-03, 1.25111565e-02, 3.16179753e-03,
          -1.82117603e-03, 3.16179753e-03, 3.03692487e-03,
          1.92026645e-02, -9.26066749e-03, 1.92026645e-02,
          9.26066749e-03, 6.23355880e-02, -1.63153540e-02,
          6.24652132e-02, 1.83528177e-02, -1.24253975e-02,
          5.06045623e-03, 2.15040650e-02, 6.68719830e-03,
          -3.50535102e-03, -8.60269764e-04, 3.50535102e-03,
          1.06742675e-03, 1.47212118e-01, 2.42769588e-02, 1.47212118e-01,
          2.91381273e-02, 5.01418114e-01, 6.41297102e-02, 5.01418114e-01,
          7.59321153e-02, -1.81223378e-01, -9.66423899e-02,
          2.00209454e-01, 9.98670906e-02, -1.32747963e-02,
          -5.45356935e-03, 1.32747963e-02, 5.45356935e-03,
          9.14184898e-02, 3.96984257e-02, 9.14184898e-02, 3.96984257e-02,
          3.08626622e-01, -1.56587332e-01, 3.08626622e-01,
          1.64041147e-01, -1.39115259e-01, -1.38522208e-01,
          1.39115259e-01, 1.38522208e-01, 0., 0., 0., 0., 4.98300826e-04,
          9.15191043e-03, 2.44585448e-03, 9.15191043e-03, 1.78234838e-02,
          1.48196123e-03, 1.87372994e-02, 9.69741214e-03,
          -1.79640672e-04, -1.09634816e-03, 3.61922989e-03,
          1.92110240e-03, 0., 0., 0., 0., 1.01359584e-03,
          -6.34193348e-05, 1.57900283e-03, 4.78049187e-04,
          4.82382290e-02, -5.75708644e-03, 4.82382290e-02,
          6.52387412e-03, 4.29618023e-02, 5.67870075e-03, 4.29618023e-02,
          7.96815846e-03, 1.18469528e-03, 1.66265306e-03, 1.30612333e-03,
          1.71671202e-03, -9.52478033e-03, -3.30155669e-03,
          1.09194135e-02, 4.61745262e-03, 3.24235618e-01,
          -7.23254904e-02, 3.24235618e-01, 7.23254904e-02,
          3.78083706e-01, -6.72357902e-02, 3.78083706e-01,
          6.82292059e-02, 5.88821340e-03, -2.43279850e-03,
          7.96897896e-03, 4.67730034e-03, -9.96894855e-03,
