%YAML:1.0
opencv_ml_svm:
   format: 3
   svmType: ONE_CLASS
   kernel:
      type: RBF
      gamma: 1.0000000000000001e-01
   nu: 1.0000000000000001e-01
   term_criteria: { iterations:500 }
   var_count: 1920
   class_count: 1
   sv_total: 92
   support_vectors:
      - [ 0., 0., 0., 0., -2.58811209e-02, -2.40015667e-02,
          1.25645608e-01, 4.84994687e-02, 5.42129613e-02, 2.94616614e-02,
          8.52280483e-02, 4.04769294e-02, -1.56046683e-02,
          4.37995372e-03, 1.56046683e-02, 4.37995372e-03, 0., 0., 0., 0.,
          2.75327086e-01, -9.71297026e-02, 3.60492587e-01,
          2.03981027e-01, 3.14733535e-01, 1.13496855e-01, 3.23598415e-01,
          1.65443063e-01, -3.23461182e-02, 2.16661766e-02,
          3.29181999e-02, 3.40620168e-02, 0., 0., 0., 0., 2.03307793e-01,
          1.11174956e-02, 2.03307793e-01, 9.78859887e-02, 2.85517365e-01,
          -2.00335354e-01, 4.12643313e-01, 2.58277625e-01,
          -2.20438596e-02, -3.92589346e-02, 3.28181125e-02,
          4.58067879e-02, 0., 0., 0., 0., 3.12898383e-02, 2.49068476e-02,
          5.06118946e-02, 4.50114459e-02, -6.79830974e-03,
          -5.85832028e-03, 9.92005691e-03, 1.45674469e-02,
          7.30091124e-05, -5.62384259e-04, 1.08955987e-03,
          8.32536956e-04, 0., 0., 0., 0., 1.52523164e-02, 7.36664934e-03,
          1.52523164e-02, 7.36664934e-03, 3.74573916e-02, 4.66374308e-02,
          5.90203367e-02, 4.76415753e-02, -5.52309903e-05,
          7.58917117e-03, 1.42306020e-03, 8.15614033e-03, 0., 0., 0., 0.,
          1.10457398e-01, -7.55567709e-03, 1.10457398e-01,
          4.51798216e-02, 3.86574447e-01, 2.21734010e-02, 4.21275944e-01,
          2.02522352e-01, -1.36635238e-02, -1.07600894e-02,
          1.64133534e-02, 1.20963296e-02, 0., 0., 0., 0., 1.01361685e-01,
          -1.31065818e-02, 1.01361685e-01, 6.19061776e-02,
          1.80692077e-01, -3.06258053e-01, 4.50425357e-01,
          4.69711781e-01, -1.66329909e-02, -1.88736469e-02,
          3.89258564e-02, 9.43845510e-02, 0., 0., 0., 0., 0., 0., 0., 0.,
          4.87057343e-02, 1.68553852e-02, 5.53138666e-02, 5.25662415e-02,
          -7.02573033e-03, -9.68834199e-03, 7.02573033e-03,
          9.68834199e-03, 0., 0., 0., 0., 4.46843021e-02, 6.86147762e-03,
          4.46843021e-02, 6.97043678e-03, 1.88873298e-02, 2.47957800e-02,
          3.10814548e-02, 2.58072019e-02, -5.04489639e-04,
          3.55510623e-03, 1.22894987e-03, 4.22321120e-03, 0., 0., 0., 0.,
          1.90351397e-01, 1.45091601e-02, 1.90351397e-01, 6.95251673e-02,
          2.91418582e-01, 1.53095881e-02, 3.71944129e-01, 1.83272049e-01,
          -2.95046531e-02, -4.96004373e-02, 3.23419310e-02,
          5.02686724e-02, 0., 0., 0., 0., 5.76834045e-02,
          -4.87989523e-02, 5.76834045e-02, 4.87989523e-02,
          1.57155901e-01, -3.00698996e-01, 4.19983864e-01,
          5.77171385e-01, -9.95159522e-03, 2.67224982e-02,
          4.14757133e-02, 7.71565214e-02, 0., 0., 0., 0., 0., 0., 0., 0.,
          3.63220759e-02, -3.95436734e-02, 4.98606376e-02,
          3.95436734e-02, -7.01440498e-03, -1.00856917e-02,
          7.01440498e-03, 1.00856917e-02, 0., 0., 0., 0., 0., 0., 0., 0.,
          0., 0., 0., 0., 0., 0., 0., 0., 0., 0., 0., 0., 4.36964668e-02,
          4.36964668e-02, 4.36964668e-02, 4.36964668e-02,
          -3.09208850e-03, 3.56862277e-01, 1.84648618e-01,
          3.56862277e-01, 2.49518100e-02, 6.01595789e-02, 3.35190073e-02,
          6.01595789e-02, 0., 0., 0., 0., 1.05599634e-01,
          -4.03738059e-02, 1.05599634e-01, 4.03738059e-02,
          1.13144383e-01, -6.24530353e-02, 7.58654594e-01,
          2.06722781e-01, 1.09736130e-01, -1.96572468e-02,
          1.13476850e-01, 3.11468933e-02, 0., 0., 0., 0., 0., 0., 0., 0.,
          8.40464421e-03, -5.14369644e-02, 4.58623245e-02,
          5.14369644e-02, 1.09669212e-02, -4.08376241e-03,
          1.09835658e-02, 4.18820558e-03, 0., 0., 0., 0., 8.92591197e-03,
          9.43354610e-03, 8.92591197e-03, 9.43354610e-03, 3.50061245e-02,
          5.12246303e-02, 6.34570643e-02, 5.42071760e-02,
          -1.05625251e-03, 2.07056920e-03, 1.43484259e-03,
          2.98895896e-03, 0., 0., 0., 0., 2.68756419e-01, 4.73799510e-03,
          2.68756419e-01, 1.29306853e-01, 2.49952182e-01, 4.57574390e-02,
          2.99247593e-01, 2.01674089e-01, -1.17924958e-02,
          5.98534569e-03, 1.64307877e-02, 2.04898044e-02, 0., 0., 0., 0.,
          3.65167171e-01, -1.87492222e-02, 3.65167171e-01,
          1.23581603e-01, 1.20268483e-02, -2.84264743e-01,
          2.95908451e-01, 3.93960178e-01, -4.14669327e-02,
          -3.96878310e-02, 4.19978574e-02, 7.36548007e-02, 0., 0., 0.,
          0., 0., 0., 0., 0., 5.23485988e-02, 5.27855009e-02,
          5.99389039e-02, 7.81178176e-02, -7.62756635e-03,
          -6.20500534e-04, 7.62756635e-03, 1.07382853e-02, 0., 0., 0.,
          0., 0., 0., 0., 0., 3.25156525e-02, 1.00043993e-02,
          4.24939096e-02, 1.43000279e-02, -2.18993262e-03,
          2.73248239e-04, 2.57783779e-03, 6.23525411e-04, 0., 0., 0., 0.,
          1.21250749e-01, 4.53490280e-02, 1.21250749e-01, 4.53490280e-02,
          2.73945957e-01, 3.28839391e-01, 4.26197648e-01, 3.41280580e-01,
          -3.79931694e-03, 4.06274162e-02, 1.14959935e-02,
          4.49869856e-02, 0., 0., 0., 0., 1.77255332e-01,
          -2.71731131e-02, 1.77255332e-01, 6.02085739e-02,
          3.97951186e-01, -3.28079499e-02, 4.38782752e-01,
          2.02914745e-01, -1.39112147e-02, -1.12820100e-02,
          1.72755923e-02, 1.25581268e-02, 0., 0., 0., 0., 2.16272715e-02,
          -4.08119988e-03, 2.16272715e-02, 6.11170381e-03,
          3.12739201e-02, -5.56953102e-02, 8.30287486e-02,
          6.81681335e-02, -3.85371363e-03, -9.74627677e-03,
          6.33092644e-03, 1.72815993e-02, 0., 0., 0., 0., 0., 0., 0., 0.,
          0., 0., 0., 0., 0., 0., 0., 0., 0., 0., 0., 0., 3.17455083e-02,
          1.99222863e-01, 5.21281511e-02, 1.99222863e-01, 9.57290083e-03,
          1.59058377e-01, 9.43372846e-02, 1.59058377e-01,
          -1.43897207e-02, 4.20372300e-02, 1.44799659e-02,
          4.20372300e-02, 0., 0., 0., 0., 3.38700384e-01, 1.19156037e-02,
          3.82963657e-01, 2.02787355e-01, -1.32469729e-01,
          5.26724160e-02, 6.95791900e-01, 1.85547322e-01,
          -1.53297009e-02, 2.15372071e-02, 2.17095688e-02,
          2.80351676e-02, 0., 0., 0., 0., 3.13849263e-02,
          -2.94065271e-02, 3.15204151e-02, 2.94065271e-02,
          -2.68280553e-03, -3.43644843e-02, 6.15692325e-02,
          3.43644843e-02, 1.10813614e-03, -1.39137835e-03,
          1.60626986e-03, 1.95402186e-03, 0., 0., 0., 0., 0., 0., 0., 0.,
          0., 0., 0., 0., 0., 0., 0., 0., 0., 0., 0., 0., 4.21975628e-02,
          4.02535237e-02, 4.21975628e-02, 4.02535237e-02, 3.79885286e-02,
          3.01709205e-01, 1.94610342e-01, 3.01709205e-01, 6.30381750e-03,
          6.64513409e-02, 2.87064333e-02, 6.64513409e-02, 0., 0., 0., 0.,
          8.35514739e-02, -3.82076874e-02, 8.35514739e-02,
          3.82076874e-02, 1.36574104e-01, -1.46642238e-01,
          7.66103089e-01, 3.23123127e-01, 7.67550245e-02,
          -2.02104356e-02, 7.94448555e-02, 2.89238114e-02, 0., 0., 0.,
          0., 0., 0., 0., 0., 5.13888255e-04, -5.44994697e-03,
          5.07767266e-03, 5.44994697e-03, 7.61828525e-03,
          -7.67069217e-03, 7.74243940e-03, 7.68163288e-03, 0., 0., 0.,
          0., 0., 0., 0., 0., 7.00146600e-04, 7.74842734e-03,
          6.58118352e-03, 7.74842734e-03, 0., 0., 0., 0., 0., 0., 0., 0.,
          8.15197378e-02, 3.31740491e-02, 8.15197378e-02, 3.31740491e-02,
          1.27766117e-01, 6.88777864e-02, 7.25259602e-01, 3.12491804e-01,
          4.09735972e-03, 5.36495447e-02, 4.43039238e-02, 5.47229201e-02,
          0., 0., 0., 0., 3.64131555e-02, -3.54902819e-02,
          3.64131555e-02, 3.54902819e-02, 2.51308113e-01,
          -1.10584021e-01, 3.70237350e-01, 3.32222521e-01,
          -5.93927596e-03, 3.75707005e-03, 1.62793119e-02,
          9.67767462e-03, 0., 0., 0., 0., 1.54306320e-03, 1.15801801e-03,
          1.54306320e-03, 1.15801801e-03, 3.81939486e-02, 2.49618624e-05,
          4.07584533e-02, 1.28340647e-02, -2.54647667e-03,
          -5.07909292e-03, 2.80489470e-03, 5.20896260e-03, 0., 0., 0.,
          0., 9.86346626e-04, 9.86346626e-04, 9.86346626e-04,
          9.86346626e-04, 3.13007943e-02, 1.83455311e-02, 4.34708111e-02,
          2.46917009e-02, 2.22232920e-05, 4.70391184e-04, 3.01621825e-04,
          5.41864254e-04, 0., 0., 0., 0., 3.71857524e-01,
          -1.88517869e-02, 3.71857524e-01, 1.40652269e-01,
          6.27342314e-02, 1.11679435e-01, 1.57090038e-01, 1.97002023e-01,
          -3.37020941e-02, 2.15486437e-03, 3.37647200e-02,
          3.78413051e-02, 0., 0., 0., 0., 3.85542899e-01, 1.49413729e-02,
          3.85542899e-01, 1.63372174e-01, -6.29658401e-02,
          -2.13790864e-01, 2.11441562e-01, 4.15937752e-01,
          -5.14339693e-02, -3.03626135e-02, 5.14339693e-02,
          4.97279912e-02, 0., 0., 0., 0., 4.33733367e-04, 1.34790607e-04,
          4.33733367e-04, 4.33733367e-04, 4.53183353e-02, 2.93081906e-02,
          7.18476847e-02, 8.57354999e-02, -8.92358180e-03,
          -3.29520297e-03, 8.92358180e-03, 3.57983983e-03, 0., 0., 0.,
          0., 5.39175533e-02, 1.68849677e-02, 5.39175533e-02,
          2.30230838e-02, 7.07003102e-03, 4.57882276e-03, 1.32294409e-02,
          1.13773607e-02, -8.39251000e-03, -4.75866674e-03,
          8.40078760e-03, 5.99348126e-03, 0., 0., 0., 0., 1.95748553e-01,
          -4.53596897e-02, 1.95748553e-01, 1.23894580e-01,
          1.05727362e-02, 1.10703379e-01, 2.82784194e-01, 6.57875896e-01,
          -3.63931321e-02, -5.54700568e-03, 3.63931321e-02,
          2.54554357e-02, 0., 0., 0., 0., 8.08011070e-02,
          -3.77943031e-02, 8.08011070e-02, 3.77943031e-02,
          2.25780369e-03, -3.73614371e-01, 2.73960233e-01,
          3.73614371e-01, -5.84253436e-03, -6.06063567e-03,
          5.84253436e-03, 6.06063567e-03, 0., 0., 0., 0., 0., 0., 0., 0.,
          0., 0., 0., 0., 0., 0., 0., 0., 3.38573894e-03,
          -1.55576959e-03, 3.38573894e-03, 1.55576959e-03,
          8.20274502e-02, -5.77842183e-02, 1.04784779e-01,
          5.92674389e-02, 4.56934236e-03, -4.92273942e-02,
          6.01645373e-02, 5.12720197e-02, -1.19645870e-03,
          -2.54292437e-03, 5.25078829e-03, 7.43309641e-03, 0., 0., 0.,
          0., 6.52477965e-02, 4.66653109e-02, 6.52477965e-02,
          6.41891807e-02, 3.47882241e-01, -6.60609752e-02,
          5.31911731e-01, 2.87933618e-01, -3.05490172e-03,
          -2.50277412e-03, 6.20658277e-03, 5.52037638e-03, 0., 0., 0.,
          0., 1.86581910e-01, -4.78359759e-02, 1.86581910e-01,
          4.78359759e-02, 1.60410225e-01, -2.73674279e-01,
          3.02183300e-01, 4.39844966e-01, -2.12330651e-03,
          1.63319730e-03, 8.12135264e-03, 8.99035763e-03, 0., 0., 0., 0.,
          0., 0., 0., 0., 1.36042060e-02, -8.98674317e-03,
          1.36042060e-02, 8.98674317e-03, 8.13479908e-03,
          -1.83794613e-03, 9.71842650e-03, 7.10871071e-03, 0., 0., 0.,
          0., 2.62889098e-02, 9.03342199e-03, 2.62889098e-02,
          9.03342199e-03, 1.27776992e-02, 4.46097143e-02, 3.48007493e-02,
          4.49793898e-02, -1.50722801e-03, 4.08349838e-03,
          1.89739838e-03, 4.36679786e-03, 0., 0., 0., 0., 3.27152759e-01,
          -2.67825667e-02, 3.27152759e-01, 1.01435937e-01,
          -5.80431819e-02, -3.40457439e-01, 1.88601390e-01,
          3.90894443e-01, -3.96408811e-02, -2.95583848e-02,
          4.03844528e-02, 3.10259555e-02, 0., 0., 0., 0., 7.35324770e-02,
          -1.89004075e-02, 7.35324770e-02, 5.14018945e-02,
          4.41919640e-02, 6.55185059e-02, 3.56488496e-01, 5.55067420e-01,
          -3.29220644e-03, 2.83624133e-04, 3.29220644e-03,
          2.91957590e-03, 0., 0., 0., 0., 0., 0., 0., 0., 0., 0., 0., 0.,
          0., 0., 0., 0., 0., 0., 0., 0., 0., 0., 0., 0., 0., 0., 0., 0.,
          0., 0., 0., 0., 0., 0., 0., 0., 3.23762707e-02, 3.23762707e-02,
          3.23762707e-02, 3.23762707e-02, 6.26024082e-02, 2.81193405e-01,
          1.94411904e-01, 2.81193405e-01, -1.76210292e-02,
          6.46754354e-02, 2.06875224e-02, 6.46754354e-02, 0., 0., 0., 0.,
          7.61167407e-02, -3.02977283e-02, 7.61167407e-02,
          3.02977283e-02, 2.00014323e-01, -1.64686769e-01,
          7.81385422e-01, 3.06881636e-01, 1.23117855e-02,
          -1.36175724e-02, 2.38215234e-02, 2.16704942e-02, 0., 0., 0.,
          0., 0., 0., 0., 0., 5.19717636e-04, -5.19717636e-04,
          5.19717636e-04, 5.19717636e-04, 5.67358453e-03,
          -7.04036141e-03, 6.90634875e-03, 7.29667023e-03, 0., 0., 0.,
          0., 0., 0., 0., 0., 0., 0., 0., 0., 0., 0., 0., 0., 0., 0., 0.,
          0., 8.69569853e-02, 3.66211496e-02, 8.69569853e-02,
          3.66211496e-02, 1.11602113e-01, 1.39331400e-01, 6.83928430e-01,
          3.62427145e-01, -3.55304703e-02, 4.31333408e-02,
          3.55304703e-02, 4.31333408e-02, 0., 0., 0., 0., 3.90008651e-02,
          -3.90008651e-02, 3.90008651e-02, 3.90008651e-02,
          3.13947201e-01, -6.51761293e-02, 3.76652390e-01,
          2.94358075e-01, -3.68067771e-02, 8.84586666e-03,
          4.03478071e-02, 2.85784565e-02, 0., 0., 0., 0., 5.43164928e-03,
          3.93425254e-03, 5.43164928e-03, 4.71685361e-03, 3.34375687e-02,
          -4.19547781e-04, 4.01885509e-02, 2.84307785e-02,
          -2.71433173e-03, -3.27342330e-03, 3.51112708e-03,
          3.71570047e-03, 0., 0., 0., 0., 1.32671138e-03, 1.32671138e-03,
          1.32671138e-03, 1.32671138e-03, 2.97760852e-02, 1.14991320e-02,
          4.63664271e-02, 1.50596434e-02, 2.99825129e-04, 6.16091420e-04,
          7.03466183e-04, 7.93616578e-04, 0., 0., 0., 0., 3.57049972e-01,
          -1.65550262e-02, 3.57049972e-01, 1.37670100e-01,
          5.46556413e-02, 1.19535550e-01, 1.39377162e-01, 2.07387134e-01,
          -6.74166530e-02, -1.88911501e-02, 6.91178665e-02,
          3.99406329e-02, 0., 0., 0., 0., 2.57276207e-01,
          -1.08406814e-02, 2.57276207e-01, 8.42904970e-02,
          -1.76912383e-03, -1.89947829e-01, 3.92421544e-01,
          5.37276268e-01, -4.09702733e-02, -9.12664831e-03,
          4.09702733e-02, 3.19953226e-02, 0., 0., 0., 0., 0., 0., 0., 0.,
          1.92345623e-02, -4.84214127e-02, 5.94764687e-02,
          4.84214127e-02, -1.06475584e-03, -1.06475584e-03,
          1.06475584e-03, 1.06475584e-03, 0., 0., 0., 0.,
          -1.42609058e-02, -3.83431911e-02, 1.15677565e-01,
          6.35244474e-02, 3.24342698e-02, 6.95918426e-02, 1.12706535e-01,
          7.03283474e-02, -3.46161937e-03, 3.86943505e-03,
          3.46161937e-03, 3.86943505e-03, 0., 0., 0., 0., 4.19424683e-01,
          -7.45925978e-02, 4.41985875e-01, 1.31204143e-01,
          9.08924490e-02, -1.93323463e-01, 3.25406790e-01,
          2.72504151e-01, -7.11746290e-02, 1.07990047e-02,
          7.49699175e-02, 3.37859690e-02, 0., 0., 0., 0., 2.96413779e-01,
          1.11764103e-01, 3.01987827e-01, 2.53999710e-01,
          -4.56957780e-02, -1.10029653e-01, 1.38766691e-01,
          1.72440186e-01, -1.22989034e-02, -5.89799602e-03,
          3.39294262e-02, 2.31371764e-02, 0., 0., 0., 0., 4.27944101e-02,
          -1.01979263e-02, 4.27944101e-02, 1.34559078e-02,
          -4.09401488e-03, -2.93329149e-03, 1.13430237e-02,
          1.22419335e-02, -7.15964474e-03, -4.38423082e-03,
          8.46465398e-03, 4.38423082e-03, 0., 0., 0., 0., 8.46685655e-03,
          7.60184927e-03, 8.46685655e-03, 7.60184927e-03, 2.14174595e-02,
          3.95622440e-02, 4.05558906e-02, 4.06589247e-02,
          -1.72794200e-04, 5.49766351e-04, 1.15301239e-03,
          8.06426455e-04, 0., 0., 0., 0., 3.26259732e-01,
          -1.47180604e-02, 3.26259732e-01, 1.14271730e-01,
          -8.49950463e-02, -3.06160867e-01, 2.51060367e-01,
          4.59580243e-01, -1.84923131e-02, -2.13149600e-02,
          2.01578401e-02, 2.94215400e-02, 0., 0., 0., 0., 7.19999075e-02,
          -2.11716127e-02, 7.19999075e-02, 6.41889870e-02,
          1.18537173e-02, 2.91028284e-02, 3.23040903e-01, 5.20288289e-01,
          0., 0., 0., 0., 0., 0., 0., 0., 0., 0., 0., 0., 0., 0., 0., 0.,
          0., 0., 0., 0., 0., 0., 0., 0., 0., 0., 0., 0., 0., 0., 0., 0.,
          0., 0., 0., 0., 0., 0., 0., 0., 2.12636858e-01, 3.86016779e-02,
          2.12636858e-01, 4.80691604e-02, -6.71148971e-02,
          1.59786776e-01, 6.01526022e-01, 3.72733116e-01,
          -2.54406314e-02, 1.13724303e-02, 2.54406314e-02,
          1.13724303e-02, 0., 0., 0., 0., 4.52362560e-02,
          -4.99699973e-02, 4.52362560e-02, 4.99699973e-02,
          3.34478259e-01, -2.66821999e-02, 4.33661997e-01,
          2.25934684e-01, -5.71122728e-02, 2.51565054e-02,
          5.78265898e-02, 5.30046448e-02, 0., 0., 0., 0., 1.44068301e-02,
          6.16036262e-03, 1.44068301e-02, 1.09711941e-02, 1.63591113e-02,
          6.04534475e-03, 2.40375213e-02, 3.32796797e-02,
          -1.03515887e-03, -1.32987066e-03, 4.04856540e-03,
          1.95024139e-03, 0., 0., 0., 0., 0., 0., 0., 0., 0., 0., 0., 0.,
          0., 0., 0., 0., 0., 0., 0., 0., 3.48133333e-02, 3.38029638e-02,
          3.48133333e-02, 3.38029638e-02, 1.39113948e-01, 2.90338069e-01,
          3.03072631e-01, 3.58660847e-01, -9.36915260e-03,
          6.12313561e-02, 2.75904126e-02, 6.41438663e-02, 0., 0., 0., 0.,
          4.25416827e-02, -3.34483795e-02, 4.25416827e-02,
          3.34483795e-02, 1.87848628e-01, -2.46655628e-01,
          6.41700029e-01, 3.79460871e-01, 1.19289113e-02,
          -4.10546958e-02, 3.30019072e-02, 4.18279208e-02, 0., 0., 0.,
          0., 0., 0., 0., 0., 0., 0., 0., 0., 2.79450836e-03,
          -5.58426254e-04, 2.90613784e-03, 1.66364282e-03, 0., 0., 0.,
          0., 1.25102728e-04, 1.25102728e-04, 1.25102728e-04,
          1.25102728e-04, 5.13797961e-02, 3.16032395e-02, 6.94810972e-02,
          4.31873575e-02, -3.37916380e-03, 4.54691937e-03,
          3.89448996e-03, 4.75893589e-03, 0., 0., 0., 0., 1.54686615e-01,
          2.79077217e-02, 1.54686615e-01, 1.00096621e-01, 7.74308890e-02,
          5.59862256e-02, 3.23213309e-01, 6.81372046e-01,
          -2.34043319e-02, -2.99980752e-02, 2.55063903e-02,
          2.99980752e-02, 0., 0., 0., 0., 9.43671837e-02,
          -4.08008099e-02, 9.43671837e-02, 4.08008099e-02,
          -4.48351726e-02, -3.86099160e-01, 1.69666111e-01,
          3.86099160e-01, 0., 0., 0., 0., 0., 0., 0., 0., 0., 0., 0., 0.,
          0., 0., 0., 0., 0., 0., 0., 0., 0., 0., 0., 0., 0., 0., 0., 0.,
          2.45940257e-02, 2.67943107e-02, 3.15940417e-02, 2.85283495e-02,
          -8.89826515e-06, 1.94232166e-03, 9.47925088e-04,
          2.97060725e-03, 0., 0., 0., 0., 2.34564200e-01, 2.07000244e-02,
          2.34564200e-01, 8.55814144e-02, 6.76841289e-02,
          -1.80882603e-01, 4.15795743e-01, 5.54817259e-01,
          -7.48827029e-03, -3.00425496e-02, 1.56546999e-02,
          3.42869312e-02, 0., 0., 0., 0., 1.45827770e-01,
          -2.46143732e-02, 1.45827770e-01, 1.10124588e-01,
          -8.23524892e-02, -7.35870302e-02, 2.53613830e-01,
          4.76328850e-01, 0., 0., 0., 0., 0., 0., 0., 0., 0., 0., 0., 0.,
          0., 0., 0., 0., 0., 0., 0., 0., 0., 0., 0., 0., 0., 0., 0., 0.,
          0., 0., 0., 0., 0., 0., 0., 0., 0., 0., 0., 0., 1.13745667e-01,
          5.42935207e-02, 1.13745667e-01, 5.42935207e-02,
          -5.23175187e-02, 2.39934012e-01, 4.94915098e-01,
          3.33386183e-01, 0., 0., 0., 0., 0., 0., 0., 0., 6.84578568e-02,
          -4.33036126e-02, 6.84578568e-02, 7.05452710e-02,
          2.73721784e-01, 3.40162851e-02, 5.60179412e-01, 3.66293371e-01,
          -5.82373738e-02, 1.14337895e-02, 5.82373738e-02,
          2.00180709e-02, 0., 0., 0., 0., 3.30416597e-02, 1.44159468e-02,
          3.30416597e-02, 2.89545376e-02, 7.04581151e-04,
          -1.13494294e-02, 1.71853937e-02, 1.98755879e-02,
          -9.82988905e-03, -1.99342729e-04, 9.82988905e-03,
          9.54587478e-04, 0., 0., 0., 0., 7.62439158e-04, 7.62439158e-04,
          7.62439158e-04, 7.62439158e-04, 4.43921983e-02, 4.47268225e-02,
          7.08131716e-02, 4.48190719e-02, -1.75291754e-03,
          2.13137618e-03, 2.95391819e-03, 2.91702733e-03, 0., 0., 0., 0.,
          1.98589474e-01, 8.96746852e-03, 1.98589474e-01, 1.01111963e-01,
          -3.64228263e-02, -2.17580229e-01, 3.40262860e-01,
          8.38979661e-01, -3.26559483e-03, -2.06960887e-02,
          8.26733466e-03, 2.07477286e-02, 0., 0., 0., 0., 2.72050463e-02,
          -2.72050463e-02, 2.72050463e-02, 2.72050463e-02,
          -2.17349492e-02, -1.14598788e-01, 2.87881084e-02,
          1.14598788e-01, 0., 0., 0., 0., 0., 0., 0., 0., 0., 0., 0., 0.,
          0., 0., 0., 0., 0., 0., 0., 0., 0., 0., 0., 0., 0., 0., 0., 0.,
          1.99847240e-02, 2.89743766e-02, 2.31075864e-02, 3.10127921e-02,
          9.21854982e-04, 3.76174762e-03, 1.47080794e-03, 5.75396884e-03,
          0., 0., 0., 0., 3.05760503e-01, 2.32839901e-02, 3.05760503e-01,
          1.09243236e-01, -4.97266874e-02, -1.70551553e-01,
          4.11970854e-01, 6.18855417e-01, -7.79877091e-03,
          -2.93460712e-02, 3.56749147e-02, 3.78497280e-02, 0., 0., 0.,
          0., 1.68803379e-01, -3.40859592e-02, 1.68803379e-01,
          8.11362043e-02, -1.29347250e-01, -7.93871284e-02,
          2.08931029e-01, 2.80090511e-01, 0., 0., 0., 0., 0., 0., 0., 0.,
          0., 0., 0., 0., 0., 0., 0., 0., 0., 0., 0., 0., 0., 0., 0., 0.,
          0., 0., 0., 0., 0., 0., 0., 0., 2.23340074e-04, 6.82927377e-04,
          4.38468385e-04, 6.82927377e-04, 0., 0., 0., 0., 5.64426854e-02,
          3.08582224e-02, 5.64426854e-02, 3.08582224e-02, 2.94489920e-01,
          1.54533520e-01, 4.26622182e-01, 6.97609365e-01,
          -3.12791578e-02, -3.41846701e-03, 3.56051438e-02,
          5.72653301e-02, 0., 0., 0., 0., 3.19805779e-02,
          -3.19805779e-02, 3.19805779e-02, 3.19805779e-02,
          -4.38914262e-03, -2.92597473e-01, 1.72774643e-01,
          2.92597473e-01, 1.31749846e-02, -2.44332664e-02,
          1.89746264e-02, 2.44332664e-02, 0., 0., 0., 0., 0., 0., 0., 0.,
          0., 0., 0., 0., 0., 0., 0., 0., 0., 0., 0., 0., 0., 0., 0., 0.,
          0., 0., 0., 0., 0., 0., 0., 0., 0., 0., 0., 0., 1.29884288e-01,
          5.08020334e-02, 1.29884288e-01, 5.08020334e-02,
          -8.18564817e-02, 2.60829747e-01, 3.54364067e-01,
          3.19755286e-01, 0., 0., 0., 0., 0., 0., 0., 0., 7.86023065e-02,
          -1.87979676e-02, 7.86023065e-02, 9.03443992e-02,
          1.95611417e-01, 1.66908056e-02, 6.72817171e-01, 3.76565397e-01,
          -1.41967442e-02, 3.75120109e-03, 1.41967442e-02,
          3.75120109e-03, 0., 0., 0., 0., 3.92793380e-02,
          -8.10514111e-03, 3.92793380e-02, 1.28131378e-02,
          -1.40615515e-02, -6.10970287e-03, 1.61959846e-02,
          1.93401277e-02, -3.87338758e-03, -7.03308324e-04,
          3.87338758e-03, 8.52634781e-04, 0., 0., 0., 0., 0., 0., 0., 0.,
          5.40723186e-03, 2.16966197e-02, 5.98085159e-03, 2.16966197e-02,
          5.72057383e-04, 9.14919470e-03, 1.22632098e-03, 9.14919470e-03,
          0., 0., 0., 0., 2.51198471e-01, 6.66636229e-02, 2.51198471e-01,
          6.66636229e-02, 4.99099642e-02, 6.72546625e-02, 4.71806973e-01,
          4.97630030e-01, -4.14149277e-02, -3.10402866e-02,
          4.73728515e-02, 3.83795388e-02, 0., 0., 0., 0., 1.93532482e-01,
          -6.88461214e-02, 1.93532482e-01, 1.43233076e-01,
          -1.56956315e-01, -2.57418394e-01, 2.42972761e-01,
          3.60536903e-01, 0., 0., 0., 0., 0., 0., 0., 0., 0., 0., 0., 0.,
          0., 0., 0., 0., 0., 0., 0., 0., 0., 0., 0., 0., 0., 0., 0., 0.,
          0., 0., 0., 0., 0., 0., 0., 0., 0., 0., 0., 0., 5.75541146e-02,
          5.32769449e-02, 5.75541146e-02, 5.32769449e-02, 2.87457317e-01,
          2.02640399e-01, 4.63767201e-01, 6.21187747e-01,
          -1.60142072e-02, 3.01182345e-02, 1.91039927e-02,
          3.97561453e-02, 0., 0., 0., 0., 5.48277646e-02,
          -5.34020364e-02, 5.48277646e-02, 5.34020364e-02,
          -3.55282961e-03, -3.28579336e-01, 1.62867561e-01,
          3.28579336e-01, 1.20057622e-02, -4.77870554e-02,
          3.23367752e-02, 4.77870554e-02, 0., 0., 0., 0., 0., 0., 0., 0.,
          0., 0., 0., 0., 0., 0., 0., 0., 0., 0., 0., 0., 0., 0., 0., 0.,
          1.82049125e-02, 4.32433374e-02, 1.82049125e-02, 4.32433374e-02,
          -4.39918367e-03, 4.47340263e-03, 4.39918367e-03,
          4.47340263e-03, 0., 0., 0., 0., 3.68560195e-01, 3.41950096e-02,
          3.68560195e-01, 8.11363906e-02, -2.03568116e-01,
          -1.35499433e-01, 4.43456411e-01, 5.05779147e-01,
          -7.34254997e-03, -1.21943057e-02, 7.34254997e-03,
          1.21943057e-02, 0., 0., 0., 0., 8.50020349e-02,
          -5.65563291e-02, 8.50020349e-02, 5.65563291e-02,
          -5.89413755e-02, -1.13131948e-01, 3.08290958e-01,
          2.66940594e-01, 0., 0., 0., 0., 0., 0., 0., 0., 0., 0., 0., 0.,
          0., 0., 0., 0., 0., 0., 0., 0. ]
      - [ 0., 0., 0., 0., 0., 0., 0., 0., 2.17769179e-03, 2.33081402e-03,
          2.17769179e-03, 2.33081402e-03, 2.78187264e-03, 1.24251181e-02,
          6.66463841e-03, 1.24251181e-02, 0., 0., 0., 0., 6.65488988e-02,
          5.89576289e-02, 6.65488988e-02, 6.72812462e-02, 3.66274297e-01,
          3.02557021e-01, 4.33603704e-01, 4.70903248e-01, 6.61916053e-03,
          1.06704980e-02, 1.60541404e-02, 1.63530912e-02, 0., 0., 0., 0.,
          1.95720881e-01, -5.24029285e-02, 1.95720881e-01,
          5.39236180e-02, 2.53449261e-01, -1.77376330e-01,
          3.56784046e-01, 1.83621630e-01, 5.83515549e-03,
          -1.09141888e-02, 1.30927498e-02, 1.48617467e-02, 0., 0., 0.,
          0., 0., 0., 0., 0., 3.39590237e-02, -3.52798812e-02,
          5.20715155e-02, 4.08069976e-02, -5.39152930e-03,
          -1.14021646e-02, 5.39152930e-03, 1.14021646e-02, 0., 0., 0.,
          0., 0., 0., 0., 0., 6.13382608e-02, 4.28860113e-02,
          7.21558481e-02, 4.94216718e-02, 4.83051117e-05, 2.06382200e-03,
          1.84951723e-03, 2.08642683e-03, 0., 0., 0., 0., 3.98515582e-01,
          -1.05635799e-03, 3.98515582e-01, 2.70117223e-01,
          1.16780050e-01, 2.18197536e-02, 2.48403221e-01, 1.76846191e-01,
          3.15123471e-04, -3.28434422e-03, 9.67780128e-03,
          9.34089534e-03, 0., 0., 0., 0., 1.59107313e-01,
          -2.86803134e-02, 1.59107313e-01, 4.96036373e-02,
          2.54669160e-01, -3.03650618e-01, 3.89067411e-01,
          3.50934118e-01, -7.15533737e-03, -2.66889762e-02,
          3.78193222e-02, 3.27558033e-02, 0., 0., 0., 0., 0., 0., 0., 0.,
          5.77361498e-04, -5.77361498e-04, 5.77361498e-04,
          5.77361498e-04, 1.30088185e-03, -6.26933016e-03,
          3.07664159e-03, 6.26933016e-03, 0., 0., 0., 0., 7.28781521e-02,
          -1.65429041e-02, 7.29983225e-02, 1.86836813e-02,
          -5.19363070e-03, -1.65305892e-03, 7.55311595e-03,
          6.36721775e-03, -3.32525466e-03, -3.29183112e-03,
          4.21345001e-03, 5.11149503e-03, 0., 0., 0., 0., 4.54218626e-01,
          -9.18749496e-02, 4.54218626e-01, 9.18749496e-02,
          -1.43529996e-02, -4.63882200e-02, 1.87024698e-01,
          8.71881843e-02, -2.33816635e-02, 5.64707625e-05,
          4.12147790e-02, 1.42130610e-02, 0., 0., 0., 0., 4.37060148e-01,
          1.13254949e-01, 4.37060148e-01, 2.43819609e-01,
          -5.69699481e-02, -2.73611192e-02, 1.64347172e-01,
          1.16965152e-01, -6.19906140e-03, 1.01288268e-03,
          3.26786190e-02, 1.06819971e-02, 0., 0., 0., 0., 6.47934899e-02,
          -1.29490318e-02, 6.47934899e-02, 1.29490318e-02,
          -1.25255678e-02, -1.99775137e-02, 3.42875235e-02,
          2.93972567e-02, -2.14256207e-03, -5.44261513e-03,
          3.74472956e-03, 6.90090004e-03, 0., 0., 0., 0., 0., 0., 0., 0.,
          4.85002500e-04, 4.85002500e-04, 4.85002500e-04, 4.85002500e-04,
          1.43706042e-03, 6.32801699e-03, 3.06570088e-03, 6.32801699e-03,
          0., 0., 0., 0., 1.51642025e-01, 2.99591031e-02, 1.51642025e-01,
          4.90000620e-02, 2.90991068e-01, 3.01210672e-01, 3.95817608e-01,
          3.66306871e-01, 1.06025254e-03, 2.48916522e-02, 1.98143404e-02,
          3.13337594e-02, 0., 0., 0., 0., 3.86251450e-01,
          -4.44954319e-04, 3.86251450e-01, 2.70881206e-01,
          9.83815119e-02, -7.03507438e-02, 2.31332362e-01,
          1.77397281e-01, 3.94132361e-03, -6.82251155e-03,
          1.05224447e-02, 1.24132065e-02, 0., 0., 0., 0., 0., 0., 0., 0.,
          4.59662303e-02, -3.90560478e-02, 6.47800639e-02,
          4.90993299e-02, -5.47558302e-03, -1.35116810e-02,
          5.47558302e-03, 1.35116810e-02, 0., 0., 0., 0., 4.57000472e-02,
          -1.50146382e-02, 4.57000472e-02, 1.50146382e-02,
          1.57576595e-02, -5.39534166e-03, 4.58634868e-02,
          1.46883167e-02, -6.82199083e-04, 9.78990429e-05,
          4.30353731e-03, 2.57479562e-03, 0., 0., 0., 0., 4.46317643e-02,
          3.28452624e-02, 4.46317643e-02, 4.39927131e-02, 4.14558738e-01,
          1.44807503e-01, 4.41666663e-01, 3.25491458e-01,
          -1.65632786e-03, 1.06229102e-02, 1.79481134e-02,
          1.25861820e-02, 0., 0., 0., 0., 9.73401666e-02,
          -3.54711041e-02, 9.73401666e-02, 3.54711041e-02,
          4.21800673e-01, -1.29443586e-01, 4.91372585e-01,
          1.50878683e-01, -4.49053757e-03, -7.16219936e-03,
          7.71215046e-03, 9.16376803e-03, 0., 0., 0., 0., 0., 0., 0., 0.,
          5.92396520e-02, -3.17398086e-02, 6.70042336e-02,
          4.10145409e-02, -3.27099906e-03, -1.92415167e-03,
          3.35522997e-03, 5.89748379e-03, 0., 0., 0., 0., 0., 0., 0., 0.,
          1.43606929e-04, 1.43606929e-04, 1.43606929e-04, 1.43606929e-04,
          2.02167826e-03, 6.64268527e-03, 3.34503828e-03, 6.64268527e-03,
          0., 0., 0., 0., 3.42286341e-02, 3.42286341e-02, 3.42286341e-02,
          3.42286341e-02, 3.44087511e-01, 3.15861732e-01, 4.25048947e-01,
          4.41366971e-01, 1.09407054e-02, 1.91311222e-02, 1.75587349e-02,
          2.18961760e-02, 0., 0., 0., 0., 6.83193356e-02,
          -3.26645039e-02, 6.83193356e-02, 3.26645039e-02,
          3.47204834e-01, -1.86056837e-01, 4.36679780e-01,
          1.92346305e-01, 8.91957898e-03, -7.17098033e-03,
          1.20621389e-02, 1.02828061e-02, 0., 0., 0., 0., 0., 0., 0., 0.,
          3.25787440e-02, -2.96770800e-02, 4.59764600e-02,
          3.48607302e-02, -4.78511397e-03, -1.17776366e-02,
          4.78511397e-03, 1.17776366e-02, 0., 0., 0., 0., 0., 0., 0., 0.,
          6.57873228e-02, 3.80725116e-02, 8.25110450e-02, 5.66698238e-02,
          -2.76160263e-03, -1.16062269e-03, 3.00144707e-03,
          1.23454980e-03, 0., 0., 0., 0., 1.38710469e-01, 5.13633527e-02,
          1.38710469e-01, 5.13633527e-02, 3.24229985e-01, 6.62440807e-02,
          5.94959974e-01, 1.53654799e-01, -5.16206073e-03,
          -2.44192732e-03, 1.46123245e-02, 1.24809742e-02, 0., 0., 0.,
          0., 7.76982605e-02, -5.49639836e-02, 7.76982605e-02,
          5.49639836e-02, 1.26600981e-01, -4.41685289e-01,
          1.44152492e-01, 4.43081528e-01, 7.87061919e-03,
          -4.95578125e-02, 2.76455954e-02, 5.75346723e-02, 0., 0., 0.,
          0., 0., 0., 0., 0., 0., 0., 0., 0., 0., 0., 0., 0., 0., 0., 0.,
          0., 4.85992022e-02, -1.10693630e-02, 4.85992022e-02,
          1.24198180e-02, 1.63373481e-02, -1.63393503e-03,
          4.61730473e-02, 1.65639482e-02, -2.83414475e-03,
          -5.95479563e-04, 6.23380998e-03, 5.85619314e-03, 0., 0., 0.,
          0., 5.35590686e-02, 3.40533294e-02, 5.35590686e-02,
          5.08476198e-02, 4.35485661e-01, 1.23556584e-01, 4.74168867e-01,
          2.84966558e-01, -2.64386199e-02, 1.28139770e-02,
          5.33025898e-02, 1.58177894e-02, 0., 0., 0., 0., 1.35816500e-01,
          -3.69877927e-02, 1.35816500e-01, 3.69877927e-02,
          4.10299897e-01, -7.64362812e-02, 4.71424103e-01,
          1.21777311e-01, -1.60403326e-02, -3.37462849e-03,
          2.32181940e-02, 1.46155292e-02, 0., 0., 0., 0., 0., 0., 0., 0.,
          5.00409193e-02, -6.70639575e-02, 6.03647865e-02,
          7.11674169e-02, -3.73579236e-03, -9.44245607e-03,
          3.73579236e-03, 1.06307715e-02, 0., 0., 0., 0., 0., 0., 0., 0.,
          3.71176787e-02, 5.81402443e-02, 3.86097543e-02, 5.81402443e-02,
          -2.57184001e-04, 1.42547570e-03, 2.51497817e-03,
          1.56278955e-03, 0., 0., 0., 0., 8.99028555e-02, 4.21024002e-02,
          8.99028555e-02, 4.21024002e-02, 3.84507507e-01, 1.34165585e-01,
          4.56552029e-01, 1.78147942e-01, -7.28811789e-03,
          -1.49024371e-03, 1.61281060e-02, 1.23337219e-02, 0., 0., 0.,
          0., 4.43090163e-02, -4.43090163e-02, 4.43090163e-02,
          4.43090163e-02, 3.09188038e-01, -3.41695964e-01,
          3.76584351e-01, 4.44236279e-01, -1.35113467e-02,
          -3.58458050e-02, 4.39713672e-02, 3.72839347e-02, 0., 0., 0.,
          0., 0., 0., 0., 0., 0., 0., 0., 0., 5.94152589e-05,
          -2.01379531e-04, 1.46300546e-04, 2.01379531e-04, 0., 0., 0.,
          0., 0., 0., 0., 0., 0., 0., 0., 0., 0., 0., 0., 0., 0., 0., 0.,
          0., 4.54682335e-02, 4.54682335e-02, 4.54682335e-02,
          4.54682335e-02, 3.18793327e-01, 3.64149362e-01, 3.77484202e-01,
          4.54661518e-01, -6.09899056e-04, 4.02946360e-02,
          2.31450368e-02, 4.47089262e-02, 0., 0., 0., 0., 1.10850438e-01,
          -4.20633033e-02, 1.10850438e-01, 4.20633033e-02,
          3.46397847e-01, -1.54355660e-01, 4.35909271e-01,
          1.73530445e-01, -4.09061601e-03, -2.73932572e-02,
          1.36908274e-02, 3.44593897e-02, 0., 0., 0., 0., 0., 0., 0., 0.,
          1.29774362e-02, -6.47093654e-02, 3.69338468e-02,
          6.47093654e-02, -1.48318463e-03, -2.44742027e-03,
          1.48318463e-03, 2.44742027e-03, 0., 0., 0., 0., 0., 0., 0., 0.,
          5.57931401e-02, 6.74028248e-02, 6.82351887e-02, 6.91980943e-02,
          -1.88739132e-03, -1.85626687e-03, 2.63175461e-03,
          1.87069993e-03, 0., 0., 0., 0., 1.14226654e-01, 4.56308722e-02,
          1.14226654e-01, 4.56308722e-02, 3.53998721e-01, 6.52852803e-02,
          5.79322755e-01, 1.78131014e-01, -1.07205082e-02,
          -5.66334790e-03, 3.18366252e-02, 1.47848669e-02, 0., 0., 0.,
          0., 5.24400696e-02, -4.88742031e-02, 5.24400696e-02,
          4.88742031e-02, 1.34416819e-01, -4.44218159e-01,
          1.48652017e-01, 4.45641726e-01, 6.53744955e-03,
          -4.82020155e-02, 4.69541177e-02, 5.81425354e-02, 0., 0., 0.,
          0., 0., 0., 0., 0., 0., 0., 0., 0., 0., 0., 0., 0., 0., 0., 0.,
          0., 7.76880383e-02, -1.40214218e-02, 7.82341212e-02,
          1.40214218e-02, -5.51283173e-03, 3.65993753e-03,
          8.63442570e-03, 8.48154817e-03, -6.60058111e-03,
          2.31327652e-03, 8.19053687e-03, 2.57466245e-03, 0., 0., 0., 0.,
          3.91382962e-01, -4.33465205e-02, 3.91382962e-01,
          6.65161684e-02, 7.02137351e-02, -5.66843897e-02,
          2.43793339e-01, 8.54587182e-02, -5.75842075e-02,
          -1.29220157e-03, 7.73036182e-02, 2.53827032e-02, 0., 0., 0.,
          0., 4.82555538e-01, 4.84325662e-02, 4.82555538e-01,
          2.13939771e-01, -9.04857889e-02, -2.02198122e-02,
          1.76287353e-01, 1.31009579e-01, -1.57095063e-02,
          5.34903910e-03, 6.37487248e-02, 1.61330644e-02, 0., 0., 0., 0.,
          3.52278203e-02, -1.01560280e-02, 3.52278203e-02,
          1.01560280e-02, -6.75235176e-03, -7.30989352e-02,
          2.48375461e-02, 7.30989352e-02, -2.15302594e-03,
          -1.29299862e-02, 2.21244921e-03, 1.29299862e-02, 0., 0., 0.,
          0., 5.95942773e-02, -6.66230172e-03, 5.95942773e-02,
          1.42655168e-02, 2.11571739e-03, 1.10870944e-02, 2.87002753e-02,
          2.96569671e-02, -6.00483827e-03, 3.46942805e-03,
          1.36984233e-02, 3.78345465e-03, 0., 0., 0., 0., 8.45422074e-02,
          3.11268736e-02, 8.45422074e-02, 6.82096556e-02, 4.28045660e-01,
          1.16780542e-01, 4.72337276e-01, 2.48372957e-01,
          -8.17496926e-02, 1.09767299e-02, 8.97681043e-02,
          2.99528241e-02, 0., 0., 0., 0., 1.49773121e-01,
          -4.36900184e-02, 1.49773121e-01, 4.36900184e-02,
          3.95125538e-01, -1.18196480e-01, 4.55378592e-01,
          1.61921203e-01, -4.88877296e-02, -1.64781639e-03,
          6.09432273e-02, 2.00082306e-02, 0., 0., 0., 0., 0., 0., 0., 0.,
          2.21306067e-02, -7.63288364e-02, 4.35717180e-02,
          7.63288364e-02, -2.33767391e-03, -1.26104094e-02,
          2.33767391e-03, 1.26104094e-02, 0., 0., 0., 0., 0., 0., 0., 0.,
          3.49877477e-02, 2.07271166e-02, 3.65561172e-02, 2.07271166e-02,
          -2.40897498e-04, 1.02512958e-03, 2.68503744e-03,
          1.70712557e-03, 0., 0., 0., 0., 9.73113477e-02, 4.76052985e-02,
          9.73113477e-02, 4.76052985e-02, 3.89743745e-01, 1.89647853e-01,
          4.61786926e-01, 2.43807003e-01, -2.91038752e-02,
          -6.94930973e-03, 3.84884775e-02, 2.20190156e-02, 0., 0., 0.,
          0., 4.98427041e-02, -4.98427041e-02, 4.98427041e-02,
          4.98427041e-02, 3.07817996e-01, -3.64547372e-01,
          3.49380940e-01, 3.72410089e-01, -6.15795776e-02,
          -4.06706557e-02, 6.51154146e-02, 4.06706557e-02, 0., 0., 0.,
          0., 0., 0., 0., 0., 0., 0., 0., 0., 0., 0., 0., 0., 0., 0., 0.,
          0., 3.08401138e-02, -5.76039450e-03, 3.08401138e-02,
          7.07399799e-03, 4.91301157e-02, 4.54035355e-03, 6.03183769e-02,
          1.49610993e-02, -8.32188129e-03, 2.93890596e-03,
          9.23644844e-03, 3.48457391e-03, 0., 0., 0., 0., 5.02786227e-02,
          3.90834548e-02, 5.02786227e-02, 4.95978147e-02, 4.35787231e-01,
          8.15394521e-03, 5.50758302e-01, 2.08218679e-01,
          -6.19286187e-02, -4.45364043e-03, 8.20100382e-02,
          2.27117073e-02, 0., 0., 0., 0., 2.01179460e-01,
          -3.27742808e-02, 2.01179460e-01, 3.27742808e-02,
          2.13134155e-01, -1.63854584e-01, 4.72837985e-01,
          2.13884696e-01, -2.67207958e-02, -1.73962917e-02,
          6.60765916e-02, 3.70948985e-02, 0., 0., 0., 0., 0., 0., 0., 0.,
          3.14789359e-03, -3.85334156e-02, 1.74996294e-02,
          3.85334156e-02, -5.42494054e-05, -5.42494054e-05,
          5.42494054e-05, 5.42494054e-05, 0., 0., 0., 0., 7.40012154e-02,
          -4.57064249e-03, 7.40012154e-02, 1.00103850e-02,
          -2.53357762e-03, 2.03324575e-02, 1.01812063e-02,
          2.32947394e-02, -1.33244442e-02, 3.00410064e-03,
          1.33244442e-02, 3.16051533e-03, 0., 0., 0., 0., 3.81416798e-01,
          -2.50246357e-02, 3.81416798e-01, 4.51191850e-02,
          9.48589891e-02, -7.26199970e-02, 2.36031666e-01,
          9.07214433e-02, -1.03344493e-01, -9.55273677e-03,
          1.03344493e-01, 3.37777175e-02, 0., 0., 0., 0., 4.77409631e-01,
          4.46033143e-02, 4.77409631e-01, 1.72737449e-01,
          -6.37068227e-02, -3.64829153e-02, 2.18505830e-01,
          1.35025546e-01, -8.17877501e-02, 5.58602950e-03,
          8.33846778e-02, 2.73835007e-02, 0., 0., 0., 0., 2.25835461e-02,
          -1.52176833e-02, 2.25835461e-02, 1.52176833e-02,
          -1.18530979e-02, -9.43397880e-02, 1.18530979e-02,
          9.43397880e-02, -1.20205001e-03, -4.29854589e-03,
          1.20205001e-03, 4.29854589e-03, 0., 0., 0., 0., 0., 0., 0., 0.,
          0., 0., 0., 0., 0., 0., 0., 0., 0., 0., 0., 0., 5.12061603e-02,
          5.12061603e-02, 5.12061603e-02, 5.12061603e-02, 2.90969223e-01,
          4.13966328e-01, 3.03117990e-01, 4.29123402e-01,
          -1.99126936e-02, 5.18936329e-02, 2.60120910e-02,
          5.30614331e-02, 0., 0., 0., 0., 1.38585940e-01,
          -4.62805331e-02, 1.38585940e-01, 4.62805331e-02,
          3.33979696e-01, -2.32097462e-01, 4.19374168e-01,
          2.47666284e-01, -1.72638446e-02, -3.71108465e-02,
          1.78105868e-02, 5.06418347e-02, 0., 0., 0., 0., 0., 0., 0., 0.,
          1.58613513e-03, -2.09500268e-02, 1.06427222e-02,
          2.09500268e-02, 0., 0., 0., 0., 0., 0., 0., 0., 4.50710207e-02,
          1.08018937e-03, 4.50710207e-02, 1.04688490e-02, 1.51915494e-02,
          2.62153614e-02, 2.89182439e-02, 4.81335670e-02,
          -1.65311899e-02, 2.96914205e-03, 1.65311899e-02,
          2.96914205e-03, 0., 0., 0., 0., 1.16488546e-01, 3.17416117e-02,
          1.16488546e-01, 7.99258575e-02, 3.81734729e-01, 1.23024657e-01,
          5.04121006e-01, 2.08858743e-01, -1.14678062e-01,
          -1.32700615e-03, 1.14678062e-01, 2.58316696e-02, 0., 0., 0.,
          0., 2.42674410e-01, -4.11751159e-02, 2.42674410e-01,
          4.11751159e-02, 3.07047606e-01, -1.91105142e-01,
          3.59725922e-01, 2.36098468e-01, -1.21640563e-01,
          -4.02046513e-04, 1.21640563e-01, 3.00705396e-02, 0., 0., 0.,
          0., 0., 0., 0., 0., 5.48324827e-03, -3.95951308e-02,
          1.69486962e-02, 3.95951308e-02, -5.39951201e-04,
          -6.52718416e-04, 5.39951201e-04, 6.52718416e-04, 0., 0., 0.,
          0., 0., 0., 0., 0., 5.22366539e-02, 3.29565108e-02,
          5.95453717e-02, 3.32905687e-02, -1.61622057e-03,
          6.88041328e-04, 5.53707173e-03, 3.72767774e-03, 0., 0., 0., 0.,
          3.75766754e-01, 1.24529507e-02, 3.75766754e-01, 1.67969823e-01,
          1.63354889e-01, 5.09155504e-02, 2.58077919e-01, 2.62865454e-01,
          -1.05934955e-01, -3.99988145e-02, 1.10530458e-01,
          4.14128117e-02, 0., 0., 0., 0., 8.73664543e-02,
          -3.82168032e-02, 8.73664543e-02, 3.82168032e-02,
          8.38555172e-02, -4.35255259e-01, 2.90438622e-01,
          4.35255259e-01, -1.33097107e-02, -8.88219010e-03,
          1.33097107e-02, 8.88219010e-03, 0., 0., 0., 0., 0., 0., 0., 0.,
          0., 0., 0., 0., 0., 0., 0., 0., 0., 0., 0., 0., 0., 0., 0., 0.,
          0., 0., 0., 0., 0., 0., 0., 0., 0., 0., 0., 0., 6.80736601e-02,
          6.05607405e-02, 6.80736601e-02, 6.20076656e-02, 2.49617606e-01,
          4.06724304e-01, 3.38718355e-01, 4.22248572e-01,
          -3.17353872e-03, 5.05920500e-02, 1.73779875e-02,
          5.27593717e-02, 0., 0., 0., 0., 1.42370984e-01,
          -5.66673763e-02, 1.42370984e-01, 5.66673763e-02,
          2.42752522e-01, -3.24106932e-01, 3.50898176e-01,
          3.39073390e-01, -2.05653738e-02, -5.09722121e-02,
          2.71233656e-02, 6.33570477e-02, 0., 0., 0., 0., 0., 0., 0., 0.,
          0., 0., 0., 0., 0., 0., 0., 0., 0., 0., 0., 0., 0., 0., 0., 0.,
          4.23739217e-02, 1.34498449e-02, 4.59445864e-02, 1.38349561e-02,
          -5.23372437e-04, 2.68330332e-03, 4.09889733e-03,
          4.07946901e-03, 0., 0., 0., 0., 1.32442519e-01, 4.10016850e-02,
          1.32442519e-01, 4.10016850e-02, 3.84277761e-01, 1.73799857e-01,
          4.14504379e-01, 2.27372304e-01, -8.28596354e-02,
          -3.20345126e-02, 9.11002755e-02, 3.71366553e-02, 0., 0., 0.,
          0., 4.72047925e-02, -4.55459282e-02, 4.72047925e-02,
          4.55459282e-02, 2.33829156e-01, -4.14630711e-01,
          3.29808116e-01, 4.29509997e-01, -6.67027235e-02,
          -2.15286799e-02, 6.67027235e-02, 2.15286799e-02, 0., 0., 0.,
          0., 0., 0., 0., 0., 0., 0., 0., 0., 0., 0., 0., 0., 0., 0., 0.,
          0., 2.43826043e-02, 1.02534685e-02, 2.43826043e-02,
          1.02534685e-02, 9.85791208e-04, 7.27272183e-02, 3.36195901e-02,
          7.27272183e-02, -1.35344232e-03, 9.07966692e-04,
          1.35344232e-03, 9.07966692e-04, 0., 0., 0., 0., 1.67943373e-01,
          2.21631471e-02, 1.67943373e-01, 8.63691717e-02, 1.59078985e-01,
          1.01552546e-01, 5.61232150e-01, 1.98713556e-01,
          -1.80553086e-02, -3.90760228e-03, 1.80553086e-02,
          6.99310238e-03, 0., 0., 0., 0., 2.71644801e-01,
          -3.87173630e-02, 2.71644801e-01, 3.87173630e-02,
          6.78634197e-02, -2.68296897e-01, 4.49402452e-01,
          3.17961037e-01, -2.60510668e-02, 2.78887269e-03,
          2.60510668e-02, 1.12080649e-02, 0., 0., 0., 0., 0., 0., 0., 0.,
          0., 0., 0., 0., 0., 0., 0., 0., 0., 0., 0., 0., 0., 0., 0., 0.,
          3.48015353e-02, 1.96479037e-02, 3.76073569e-02, 1.96479037e-02,
          -3.58983944e-03, 4.26526880e-03, 4.66075586e-03,
          6.22679153e-03, 0., 0., 0., 0., 2.15823144e-01, 2.83749383e-02,
          2.15823144e-01, 9.62965861e-02, 2.56362766e-01, 1.70991927e-01,
          3.86649072e-01, 3.41546506e-01, -7.17624500e-02,
          -4.83112521e-02, 7.28146434e-02, 5.43990843e-02, 0., 0., 0.,
          0., 6.82880059e-02, -3.69395576e-02, 6.82880059e-02,
          3.69395576e-02, 6.61976337e-02, -4.27751809e-01,
          3.66096199e-01, 4.27751809e-01, -1.53748132e-03,
          -1.53748132e-03, 1.53748132e-03, 1.53748132e-03, 0., 0., 0.,
          0., 0., 0., 0., 0., 0., 0., 0., 0., 0., 0., 0., 0., 0., 0., 0.,
          0., 0., 0., 0., 0., 6.32801130e-02, 1.39800971e-02,
          7.68015310e-02, 1.94237009e-02, -1.29877180e-02,
          -2.69287731e-03, 1.29877180e-02, 4.70543932e-03, 0., 0., 0.,
          0., 3.32046926e-01, 2.46449336e-02, 3.32046926e-01,
          5.32012582e-02, 4.23991643e-02, 4.45179977e-02, 4.77867186e-01,
          1.89151868e-01, -1.93077233e-02, -9.11079813e-03,
          1.93077233e-02, 9.11079813e-03, 0., 0., 0., 0., 4.89251055e-02,
          -4.89251055e-02, 4.89251055e-02, 4.89251055e-02,
          6.21800534e-02, -4.59137082e-01, 2.47645512e-01,
          4.59137082e-01, 0., 0., 0., 0., 0., 0., 0., 0., 0., 0., 0., 0.,
          0., 0., 0., 0., 0., 0., 0., 0., 0., 0., 0., 0., 9.90264770e-03,
          9.90264770e-03, 9.90264770e-03, 9.90264770e-03,
          -2.84921681e-03, 8.09067264e-02, 1.57485940e-02,
          8.09067264e-02, 0., 0., 0., 0., 0., 0., 0., 0., 2.81213582e-01,
          2.97852829e-02, 2.81213582e-01, 8.31916183e-02,
          -6.03189878e-02, 1.08874626e-01, 4.88136470e-01,
          2.00267851e-01, 0., 0., 0., 0., 0., 0., 0., 0., 2.88226604e-01,
          -5.33139668e-02, 2.88226604e-01, 5.33139668e-02,
          -9.42926481e-02, -2.95085669e-01, 3.95334482e-01,
          3.19880068e-01, 0., 0., 0., 0., 0., 0., 0., 0., 0., 0., 0., 0.,
          0., 0., 0., 0., 0., 0., 0., 0., 0., 0., 0., 0., 0., 0., 0., 0.,
          0., 0., 0., 0., 0., 0., 0., 0., 0., 0., 0., 0., 1.15719244e-01,
          5.08814715e-02, 1.15719244e-01, 5.08814715e-02, 1.78110674e-01,
          4.06790465e-01, 2.49679983e-01, 4.23200428e-01,
          -3.41150956e-03, 4.73807976e-02, 3.27994525e-02,
          4.73807976e-02, 0., 0., 0., 0., 8.97294804e-02,
          -5.22612445e-02, 8.97294804e-02, 5.22612445e-02,
          9.64025334e-02, -4.33368772e-01, 3.23403805e-01,
          4.38334823e-01, -5.34938136e-03, -6.45557567e-02,
          8.01131967e-03, 6.45557567e-02, 0., 0., 0., 0., 0., 0., 0., 0.,
          0., 0., 0., 0., 0., 0., 0., 0., 0., 0., 0., 0., 0., 0., 0., 0.,
          0., 0., 0., 0., 0., 0., 0., 0., 0., 0., 0., 0., 3.37680057e-02,
          3.37680057e-02, 3.37680057e-02, 3.37680057e-02, 2.50284877e-02,
          4.19973135e-01, 1.57389671e-01, 4.19973135e-01, 0., 0., 0., 0.,
          0., 0., 0., 0., 7.32969269e-02, -3.18882354e-02,
          7.32969269e-02, 3.18882354e-02, 2.52816916e-01,
          -6.79273084e-02, 6.94064260e-01, 2.09887460e-01,
          -1.43891051e-02, 4.93439427e-03, 1.43891051e-02,
          1.18982196e-02, 0., 0., 0., 0., 0., 0., 0., 0., 4.92824875e-02,
          -2.11364906e-02, 7.03268126e-02, 3.89353409e-02,
          -1.16471834e-02, 3.95138894e-04, 1.16471834e-02,
          3.20317177e-03, 0., 0., 0., 0., 0., 0., 0., 0., 2.50919685e-02,
          7.33665377e-02, 7.71398395e-02, 7.33665377e-02, 0., 0., 0., 0.,
          0., 0., 0., 0., 2.31892660e-01, 5.43832146e-02, 2.31892660e-01,
          5.43832146e-02, 1.69384405e-02, -3.02218087e-02,
          6.98984325e-01, 2.02579081e-01, 0., 0., 0., 0., 0., 0., 0., 0.,
          6.85064197e-02, -6.43434525e-02, 6.85064197e-02,
          6.43434525e-02, -2.86112539e-02, -3.93161178e-01,
          1.03619538e-01, 3.93161178e-01, 0., 0., 0., 0., 0., 0., 0., 0.,
          0., 0., 0., 0., 0., 0., 0., 0., 0., 0., 0., 0., 0., 0., 0., 0.,
          0., 0., 0., 0., 0., 0., 0., 0., 0., 0., 0., 0., 0., 0., 0., 0.,
          2.89648436e-02, 2.89648436e-02, 2.89648436e-02, 2.89648436e-02,
          1.18836202e-02, 3.72072995e-01, 1.82708785e-01, 3.72072995e-01,
          0., 0., 0., 0., 0., 0., 0., 0., 5.74982576e-02,
          -2.76556909e-02, 5.74982576e-02, 2.76556909e-02,
          1.97535232e-01, -4.75066379e-02, 7.67962456e-01,
          1.92923591e-01, -1.59084122e-03, 1.59084122e-03,
          1.59084122e-03, 1.59084122e-03, 0., 0., 0., 0., 0., 0., 0., 0.,
          2.30104774e-02, -5.28519154e-02, 5.99738881e-02,
          5.38603887e-02, -1.88541424e-03, -7.68592989e-04,
          1.88541424e-03, 7.68592989e-04, 0., 0., 0., 0., 0., 0., 0., 0.,
          0., 0., 0., 0., 0., 0., 0., 0., 0., 0., 0., 0., 6.19336590e-02,
          5.46095483e-02, 6.19336590e-02, 5.46095483e-02,
          -2.14221720e-02, 3.03735018e-01, 2.19883502e-01,
          3.03735018e-01, 0., 0., 0., 0., 0., 0., 0., 0., 9.69477221e-02,
          -5.30030467e-02, 9.69477221e-02, 5.30030467e-02,
          9.10372213e-02, -8.07203278e-02, 7.75468826e-01,
          3.33777905e-01, 0., 0., 0., 0., 0., 0., 0., 0., 0., 0., 0., 0.,
          2.04912736e-03, -2.10377667e-02, 1.33210327e-02,
          2.10377667e-02, 0., 0., 0., 0. ]
      - [ 0., 0., 0., 0., 0., 0., 0., 0., 5.71148284e-02, 2.12375391e-02,
          8.24665651e-02, 2.89687868e-02, 1.25784590e-03,
          -1.09648251e-03, 1.34090241e-03, 1.61965680e-03, 0., 0., 0.,
          0., 1.46303609e-01, 5.47966100e-02, 1.46303609e-01,
          5.47966100e-02, 3.12273443e-01, 8.86736959e-02, 5.81412673e-01,
          1.33890003e-01, 7.45322322e-03, 1.37590226e-02, 1.28878728e-02,
          1.56241972e-02, 0., 0., 0., 0., 7.98614174e-02,
          -5.86802363e-02, 7.98614174e-02, 5.86802363e-02,
          1.32347286e-01, -4.48896676e-01, 1.45229146e-01,
          4.56412822e-01, 1.13911135e-02, -6.05240948e-02,
          2.55604200e-02, 7.28558525e-02, 0., 0., 0., 0., 0., 0., 0., 0.,
          0., 0., 0., 0., 0., 0., 0., 0., 0., 0., 0., 0., 0., 0., 0., 0.,
          4.23942767e-02, 1.06481314e-01, 4.23942767e-02, 1.06481314e-01,
          1.81206036e-04, 9.75976232e-03, 3.33701633e-03, 9.90555342e-03,
          0., 0., 0., 0., 5.58509529e-02, 6.33415654e-02, 5.58509529e-02,
          6.33415654e-02, 4.53650087e-01, 8.13547447e-02, 4.69762802e-01,
          3.23207468e-01, -1.80058554e-02, -8.18838831e-03,
          2.30719019e-02, 8.18838831e-03, 0., 0., 0., 0., 3.52306634e-01,
          -3.92175950e-02, 3.52306634e-01, 8.10631365e-02,
          1.47037119e-01, -2.46945117e-02, 3.31739306e-01,
          1.36065602e-01, -3.91279813e-03, 5.94492862e-03,
          1.08079482e-02, 7.99197238e-03, 0., 0., 0., 0., 3.14893754e-04,
          -3.14893754e-04, 3.14893754e-04, 3.14893754e-04,
          6.54947832e-02, -2.66931150e-02, 8.65631625e-02,
          2.87433937e-02, 1.59491308e-03, -1.54227659e-03,
          2.20398232e-03, 2.65370449e-03, 0., 0., 0., 0., 0., 0., 0., 0.,
          6.62807226e-02, 8.68832413e-03, 9.04720277e-02, 2.11061649e-02,
          3.36115772e-04, 1.33577210e-04, 9.46135900e-04, 1.01671740e-03,
          0., 0., 0., 0., 1.40690103e-01, 5.08699492e-02, 1.40690103e-01,
          5.08699492e-02, 3.15093189e-01, 1.15020916e-01, 4.97036159e-01,
          1.47042528e-01, 3.23909009e-03, -6.17676787e-03,
          1.23266643e-02, 2.05635689e-02, 0., 0., 0., 0., 7.44001716e-02,
          -5.48709184e-02, 7.44001716e-02, 5.48709184e-02,
          1.51139602e-01, -4.70955223e-01, 1.53088659e-01,
          5.16533911e-01, -3.59887443e-03, -4.94391769e-02,
          1.90830529e-02, 7.43855760e-02, 0., 0., 0., 0., 0., 0., 0., 0.,
          0., 0., 0., 0., 0., 0., 0., 0., 0., 0., 0., 0., 0., 0., 0., 0.,
          5.46547249e-02, 6.46317974e-02, 5.59244938e-02, 6.95287660e-02,
          -9.44924890e-04, 4.71536489e-03, 3.69165093e-03,
          5.68703189e-03, 0., 0., 0., 0., 5.20184189e-02, 4.97019701e-02,
          5.20184189e-02, 4.97019701e-02, 4.07564521e-01, 1.28929526e-01,
          4.16476250e-01, 3.30022395e-01, -1.73301529e-02,
          -4.25752811e-03, 1.98926572e-02, 6.19463017e-03, 0., 0., 0.,
          0., 9.99924988e-02, -4.71207127e-02, 9.99924988e-02,
          4.92339246e-02, 3.60718220e-01, -1.30504429e-01,
          5.51140010e-01, 1.57251984e-01, 2.02949927e-03, 2.54088384e-03,
          9.32129007e-03, 6.15406735e-03, 0., 0., 0., 0., 0., 0., 0., 0.,
          5.28548807e-02, -2.27304995e-02, 6.53076619e-02,
          2.44734194e-02, 1.03542523e-03, -1.68263016e-03,
          1.60334597e-03, 3.27214110e-03, 0., 0., 0., 0., 0., 0., 0., 0.,
          5.82643934e-02, 2.19803024e-02, 8.67079049e-02, 2.73292847e-02,
          1.53605780e-03, -4.97700064e-04, 1.60038087e-03,
          1.42777176e-03, 0., 0., 0., 0., 1.28754020e-01, 3.54684144e-02,
          1.28754020e-01, 3.54684144e-02, 3.46655220e-01, 5.36292829e-02,
          6.08407617e-01, 1.30764768e-01, 5.71244350e-03, 1.53222848e-02,
          1.20006306e-02, 1.69673171e-02, 0., 0., 0., 0., 3.80808152e-02,
          -4.04800251e-02, 4.02695239e-02, 4.04800251e-02,
          1.13780938e-01, -4.45605218e-01, 1.13780938e-01,
          4.45605218e-01, 1.44093577e-02, -7.07949549e-02,
          2.53386814e-02, 7.70923570e-02, 0., 0., 0., 0., 0., 0., 0., 0.,
          0., 0., 0., 0., 0., 0., 0., 0., 0., 0., 0., 0., 7.40642939e-03,
          -2.43022153e-03, 7.40642939e-03, 4.66487790e-03,
          5.87127283e-02, 7.67171150e-04, 6.22255579e-02, 4.04751003e-02,
          -1.12149771e-03, 1.94876431e-03, 2.05731951e-03,
          3.91061744e-03, 0., 0., 0., 0., 7.47533739e-02, 5.48041277e-02,
          7.47533739e-02, 5.48041277e-02, 3.85643065e-01, 1.46119192e-01,
          4.13760722e-01, 3.15313637e-01, -1.87225116e-03,
          -4.31115925e-03, 9.29021370e-03, 7.08134286e-03, 0., 0., 0.,
          0., 1.16469182e-01, -5.25092781e-02, 1.16469182e-01,
          5.25092781e-02, 3.34183544e-01, -9.65021476e-02,
          5.81868172e-01, 1.66047171e-01, 1.87856928e-02, 5.28524118e-03,
          2.00060382e-02, 6.57357508e-03, 0., 0., 0., 0., 0., 0., 0., 0.,
          5.81989028e-02, -2.51150522e-02, 8.50492492e-02,
          2.99753416e-02, 2.02255556e-03, -5.46843512e-03,
          4.24928451e-03, 6.49216771e-03, 0., 0., 0., 0., 0., 0., 0., 0.,
          0., 0., 0., 0., 4.81883808e-06, 4.81883808e-06, 4.81883808e-06,
          4.81883808e-06, 0., 0., 0., 0., 3.66982929e-02, 3.66982929e-02,
          3.66982929e-02, 3.66982929e-02, 1.47928938e-01, 4.62345541e-01,
          1.47928938e-01, 4.73752260e-01, 2.44063903e-02, 4.70337421e-02,
          2.60567609e-02, 7.37981126e-02, 0., 0., 0., 0., 8.16580132e-02,
          -3.44536379e-02, 8.16580132e-02, 3.44536379e-02,
          3.59281629e-01, -1.27954394e-01, 5.49298465e-01,
          1.77432343e-01, 9.55215562e-03, 4.44583548e-03, 1.26218395e-02,
          1.26324613e-02, 0., 0., 0., 0., 0., 0., 0., 0., 5.14559560e-02,
          -3.01312376e-02, 6.54116422e-02, 3.16301249e-02,
          1.21835107e-03, -5.12905559e-03, 3.62012000e-03,
          5.19926799e-03, 0., 0., 0., 0., 0., 0., 0., 0., 0., 0., 0., 0.,
          0., 0., 0., 0., 0., 0., 0., 0., 6.50100261e-02, 6.50100261e-02,
          6.50100261e-02, 6.50100261e-02, 1.22031368e-01, 5.28791964e-01,
          1.22031368e-01, 5.37498116e-01, -3.97523772e-03,
          5.65199777e-02, 2.98489518e-02, 7.79757500e-02, 0., 0., 0., 0.,
          1.92949086e-01, -5.64959571e-02, 1.92949086e-01,
          5.64959571e-02, 2.77373075e-01, -1.06767386e-01,
          3.71880293e-01, 2.27298990e-01, 1.45523110e-03, 1.88004167e-03,
          1.01292208e-02, 1.74534023e-02, 0., 0., 0., 0., 0., 0., 0., 0.,
          5.39561287e-02, -5.32618165e-02, 7.97817856e-02,
          5.32618165e-02, 3.86450370e-03, -4.26987465e-03,
          5.94188040e-03, 6.01186045e-03, 0., 0., 0., 0., 0., 0., 0., 0.,
          6.29215911e-02, 2.32206490e-02, 7.82925636e-02, 2.92307790e-02,
          4.58168535e-04, -1.07785547e-03, 2.07564491e-03,
          1.78622082e-03, 0., 0., 0., 0., 1.53087646e-01, 5.05001247e-02,
          1.53087646e-01, 5.05001247e-02, 3.17103475e-01, 1.21170774e-01,
          4.74136889e-01, 1.76083013e-01, -7.65665341e-03,
          -1.43491179e-02, 1.77866761e-02, 2.84719020e-02, 0., 0., 0.,
          0., 5.35260364e-02, -5.60207143e-02, 5.35260364e-02,
          5.60207143e-02, 1.66112483e-01, -4.68580663e-01,
          1.85034424e-01, 5.14492810e-01, -1.19584706e-02,
          -4.20863442e-02, 3.38787101e-02, 5.40968254e-02, 0., 0., 0.,
          0., 0., 0., 0., 0., 0., 0., 0., 0., 0., 0., 0., 0., 0., 0., 0.,
          0., 3.47717628e-02, 3.09569179e-04, 3.47717628e-02,
          1.44827608e-02, 2.59683672e-02, 1.97281670e-02, 3.37120444e-02,
          6.31911606e-02, -2.10087188e-03, 1.91520061e-03,
          5.66778658e-03, 4.85508703e-03, 0., 0., 0., 0., 7.57904500e-02,
          4.50401269e-02, 7.57904500e-02, 7.22267777e-02, 4.09308702e-01,
          7.63463676e-02, 4.62533385e-01, 3.09117734e-01,
          -3.38399969e-03, 6.45025680e-03, 2.17628330e-02,
          9.98871494e-03, 0., 0., 0., 0., 1.70794085e-01,
          -5.17230257e-02, 1.70794085e-01, 5.17230257e-02,
          3.07190180e-01, -8.28747973e-02, 5.35026252e-01,
          1.55356646e-01, 3.49171646e-03, 6.96262298e-03, 2.90270653e-02,
          1.53764328e-02, 0., 0., 0., 0., 0., 0., 0., 0., 4.77988943e-02,
          -4.34758514e-02, 7.50330687e-02, 4.57038544e-02,
          -3.22202803e-03, -1.63063779e-02, 3.38452403e-03,
          1.63063779e-02, 0., 0., 0., 0., 0., 0., 0., 0., 0., 0., 0., 0.,
          2.01935491e-05, 6.49794165e-05, 6.49794165e-05, 6.49794165e-05,
          0., 0., 0., 0., 4.97334562e-02, 4.50881310e-02, 4.97334562e-02,
          4.50881310e-02, 2.25487009e-01, 4.60871249e-01, 2.67053962e-01,
          4.67565089e-01, 1.14153628e-03, 3.77158187e-02, 5.19186109e-02,
          4.39729653e-02, 0., 0., 0., 0., 1.12704538e-01,
          -2.42336225e-02, 1.12704538e-01, 6.34972379e-02,
          3.54950190e-01, -1.01075113e-01, 4.29027408e-01,
          2.63842642e-01, -1.04764849e-02, -1.24126452e-03,
          2.50914264e-02, 1.22349989e-02, 0., 0., 0., 0., 1.07331416e-02,
          -9.56144836e-03, 1.07331416e-02, 9.56144836e-03,
          5.35356812e-02, -2.72358991e-02, 7.63808936e-02,
          3.29958461e-02, 3.94415372e-04, 9.03169392e-04, 2.45303428e-03,
          2.07165978e-03, 0., 0., 0., 0., 0., 0., 0., 0., 2.67266408e-02,
          7.40201101e-02, 2.67266408e-02, 7.40201101e-02,
          -1.41504826e-03, 8.66710208e-03, 1.15554007e-02,
          9.31003969e-03, 0., 0., 0., 0., 3.38186115e-01,
          -4.75160684e-03, 3.38186115e-01, 1.28901601e-01,
          1.52961746e-01, 2.60711275e-02, 2.98493534e-01, 2.02727780e-01,
          -6.94945687e-03, 1.19638524e-03, 4.41174805e-02,
          1.97058693e-02, 0., 0., 0., 0., 4.63303387e-01, 2.25439183e-02,
          4.63303387e-01, 2.92564631e-01, 1.07329730e-02, 4.92710713e-03,
          2.00052992e-01, 1.23654142e-01, -1.46811269e-02,
          5.52219385e-03, 2.86758989e-02, 2.64745206e-02, 0., 0., 0., 0.,
          2.54900591e-03, -2.54900591e-03, 2.54900591e-03,
          2.54900591e-03, 6.21371344e-02, -3.35853733e-02,
          7.72237480e-02, 3.99717167e-02, -2.23312341e-03,
          -2.75633484e-03, 3.39060044e-03, 7.54570542e-03, 0., 0., 0.,
          0., 0., 0., 0., 0., 1.09139988e-02, 3.00792381e-02,
          1.09139988e-02, 3.00792381e-02, -6.73954055e-05,
          1.14035578e-02, 8.68134387e-03, 1.14035578e-02, 0., 0., 0., 0.,
          7.46994242e-02, 4.42355908e-02, 7.46994242e-02, 6.21539652e-02,
          3.84634256e-01, 1.66017711e-01, 4.87861812e-01, 3.85030538e-01,
          -1.49322851e-02, 5.03278477e-03, 4.78821956e-02,
          2.04944275e-02, 0., 0., 0., 0., 1.51618361e-01,
          -4.24946994e-02, 1.51618361e-01, 4.47008982e-02,
          3.17696929e-01, -1.16197594e-01, 4.67961729e-01,
          1.47975802e-01, -2.74716858e-02, -6.50410831e-04,
          3.52540985e-02, 2.87501197e-02, 0., 0., 0., 0., 0., 0., 0., 0.,
          4.85465154e-02, -2.49423999e-02, 5.94464652e-02,
          3.51788811e-02, -4.33012517e-03, -6.36005867e-03,
          5.09941718e-03, 1.24182440e-02, 0., 0., 0., 0., 0., 0., 0., 0.,
          4.29565571e-02, 5.31133562e-02, 4.67554182e-02, 5.31133562e-02,
          -2.36383697e-04, 4.12076944e-04, 1.74930587e-03,
          3.88575462e-03, 0., 0., 0., 0., 9.37165543e-02, 4.93605770e-02,
          9.37165543e-02, 4.93605770e-02, 3.59732181e-01, 1.34323329e-01,
          5.42428076e-01, 1.85601667e-01, -9.10945237e-03,
          -1.12842042e-02, 2.22749468e-02, 2.72903815e-02, 0., 0., 0.,
          0., 5.13920374e-02, -5.13920374e-02, 5.13920374e-02,
          5.13920374e-02, 1.84863955e-01, -4.37149763e-01,
          1.88609079e-01, 4.59199905e-01, -4.02497202e-02,
          -4.49056849e-02, 4.50628363e-02, 4.84551117e-02, 0., 0., 0.,
          0., 0., 0., 0., 0., 0., 0., 0., 0., 0., 0., 0., 0., 0., 0., 0.,
          0., 1.72452368e-02, 1.07084848e-02, 1.72452368e-02,
          1.07084848e-02, 3.32436040e-02, 6.51077032e-02, 4.01134603e-02,
          9.00446847e-02, -5.79023408e-03, 4.30847099e-03,
          1.12112612e-02, 6.94650365e-03, 0., 0., 0., 0., 1.04019284e-01,
          3.70348692e-02, 1.04019284e-01, 8.45417529e-02, 3.84220511e-01,
          5.33953123e-02, 4.49696571e-01, 2.76619166e-01,
          -1.86234955e-02, 1.50122717e-02, 4.77746241e-02,
          1.86192840e-02, 0., 0., 0., 0., 1.81619272e-01,
          -5.34836911e-02, 1.81619272e-01, 5.34836911e-02,
          3.30017358e-01, -7.15965927e-02, 5.36607921e-01,
          1.58017501e-01, -4.06178944e-02, -1.73410140e-02,
          4.34371345e-02, 4.51100022e-02, 0., 0., 0., 0., 0., 0., 0., 0.,
          2.21039988e-02, -7.87137821e-02, 6.12840839e-02,
          7.87137821e-02, -2.78660539e-03, -8.23327713e-03,
          2.78660539e-03, 8.23327713e-03, 0., 0., 0., 0., 0., 0., 0., 0.,
          0., 0., 0., 0., 0., 0., 0., 0., 0., 0., 0., 0., 4.24484648e-02,
          4.24484648e-02, 4.24484648e-02, 4.24484648e-02, 2.34821379e-01,
          4.59942847e-01, 2.70897686e-01, 4.61660475e-01,
          -4.04917821e-02, 4.22048457e-02, 5.97843304e-02,
          4.81530726e-02, 0., 0., 0., 0., 1.25558943e-01,
          -3.15491632e-02, 1.25558943e-01, 7.36868307e-02,
          3.30152690e-01, -9.70275775e-02, 4.50050145e-01,
          2.37007245e-01, -1.27399061e-02, 3.08722560e-03,
          3.84116285e-02, 2.65854280e-02, 0., 0., 0., 0., 1.48705742e-03,
          -1.48705742e-03, 1.48705742e-03, 1.48705742e-03,
          6.05740771e-02, -3.62024233e-02, 7.72402883e-02,
          4.29671407e-02, -1.33197580e-03, -5.62985369e-04,
          4.15966148e-03, 3.47074121e-03, 0., 0., 0., 0., 0., 0., 0., 0.,
          6.85749063e-03, 1.16884019e-02, 6.85749063e-03, 1.16884019e-02,
          -3.52092064e-03, 4.28830739e-03, 3.52092064e-03,
          4.28830739e-03, 0., 0., 0., 0., 3.25663745e-01,
          -5.49094286e-03, 3.25663745e-01, 1.16412461e-01,
          1.24375924e-01, 1.60464987e-01, 2.62784362e-01, 3.36138964e-01,
          -5.40005527e-02, 2.14489214e-02, 8.49825367e-02,
          3.41414511e-02, 0., 0., 0., 0., 4.54132468e-01, 4.13132757e-02,
          4.54132468e-01, 2.43897200e-01, -2.36141868e-03,
          7.56998034e-03, 1.74886599e-01, 1.29718289e-01,
          -4.81045954e-02, -4.73630242e-03, 5.90434223e-02,
          3.02763488e-02, 0., 0., 0., 0., 5.17207617e-03,
          -5.17207617e-03, 5.17207617e-03, 5.17207617e-03,
          5.32140322e-02, -2.84290779e-02, 7.38055781e-02,
          4.03865762e-02, -5.92425792e-03, -3.45737953e-03,
          6.36657421e-03, 7.47467717e-03, 0., 0., 0., 0., 0., 0., 0., 0.,
          1.89059193e-03, 2.12053722e-03, 1.89059193e-03, 2.12053722e-03,
          -7.31479668e-04, 2.76548369e-03, 7.31479668e-04,
          2.76548369e-03, 0., 0., 0., 0., 4.52973396e-02, 4.18298356e-02,
          4.52973396e-02, 4.52973396e-02, 3.56945008e-01, 2.30621919e-01,
          4.49455351e-01, 4.21095669e-01, -3.92527953e-02,
          2.11605988e-02, 7.27274120e-02, 2.85171401e-02, 0., 0., 0., 0.,
          9.38254893e-02, -3.96192409e-02, 9.38254893e-02,
          3.96192409e-02, 3.49640846e-01, -9.66179222e-02,
          4.76540953e-01, 1.60713196e-01, -6.36661723e-02,
          -9.64720733e-03, 6.36661723e-02, 2.74656434e-02, 0., 0., 0.,
          0., 0., 0., 0., 0., 2.49710027e-02, -5.79383783e-02,
          4.75501195e-02, 5.79383783e-02, -3.28351068e-03,
          -1.04792183e-02, 3.28351068e-03, 1.04792183e-02, 0., 0., 0.,
          0., 0., 0., 0., 0., 0., 0., 0., 0., 0., 0., 0., 0., 0., 0., 0.,
          0., 4.37864959e-02, 4.37864959e-02, 4.37864959e-02,
          4.37864959e-02, 1.58721089e-01, 4.26243395e-01, 1.74949259e-01,
          4.72319067e-01, -9.50128492e-03, 6.08225651e-02,
          3.41108479e-02, 6.08225651e-02, 0., 0., 0., 0., 8.87616947e-02,
          -4.16325964e-02, 8.87616947e-02, 4.16325964e-02,
          3.50826681e-01, -1.98336467e-01, 4.82367694e-01,
          3.25470924e-01, -1.04475289e-03, -1.85932405e-02,
          1.68925524e-02, 3.17812786e-02, 0., 0., 0., 0., 0., 0., 0., 0.,
          5.55558223e-03, -2.06716433e-02, 1.56860258e-02,
          2.06716433e-02, -1.31769141e-03, -6.41961023e-03,
          1.31769141e-03, 6.41961023e-03, 0., 0., 0., 0., 0., 0., 0., 0.,
          5.90169691e-02, 4.79533896e-02, 6.93870708e-02, 5.00392169e-02,
          -4.27345280e-03, 1.41605188e-03, 5.62324934e-03,
          6.94550015e-03, 0., 0., 0., 0., 1.03910215e-01, 4.50366884e-02,
          1.03910215e-01, 4.50366884e-02, 3.96546066e-01, 8.33847299e-02,
          5.08382857e-01, 1.73707098e-01, -6.40601441e-02,
          -3.80322076e-02, 6.87399581e-02, 4.74549383e-02, 0., 0., 0.,
          0., 4.79029901e-02, -4.79029901e-02, 4.79029901e-02,
          4.79029901e-02, 1.44521818e-01, -4.54228342e-01,
          1.53017923e-01, 4.79031295e-01, -5.32441102e-02,
          -2.05804259e-02, 5.32441102e-02, 2.05804259e-02, 0., 0., 0.,
          0., 0., 0., 0., 0., 0., 0., 0., 0., 0., 0., 0., 0., 0., 0., 0.,
          0., 5.07566240e-03, 5.07566240e-03, 5.07566240e-03,
          5.07566240e-03, 2.48993747e-02, 1.03948206e-01, 2.50550974e-02,
          1.03948206e-01, -8.96346103e-03, 3.67180887e-03,
          8.96346103e-03, 3.67180887e-03, 0., 0., 0., 0., 1.70367077e-01,
          4.21446674e-02, 1.70367077e-01, 1.15868330e-01, 3.48176390e-01,
          4.43741418e-02, 4.07294571e-01, 2.51323313e-01,
          -7.86511078e-02, 3.00090425e-02, 1.00770131e-01,
          3.06857992e-02, 0., 0., 0., 0., 2.11414531e-01,
          -5.64301498e-02, 2.11414531e-01, 5.64301498e-02,
          2.98482329e-01, -1.65900677e-01, 4.76823300e-01,
          2.61337548e-01, -9.01832059e-02, -3.88330109e-02,
          9.01832059e-02, 6.93920702e-02, 0., 0., 0., 0., 0., 0., 0., 0.,
          2.64237099e-03, -3.35244462e-02, 1.70665123e-02,
          3.35244462e-02, 0., 0., 0., 0., 0., 0., 0., 0., 0., 0., 0., 0.,
          0., 0., 0., 0., 0., 0., 0., 0., 0., 0., 0., 0., 5.16194664e-02,
          4.23564911e-02, 5.16194664e-02, 4.98386696e-02, 3.37044239e-01,
          2.68978268e-01, 4.47627187e-01, 3.80239815e-01,
          -9.49549451e-02, 2.23763045e-02, 9.49549451e-02,
          2.23763045e-02, 0., 0., 0., 0., 1.04777232e-01,
          -4.01294157e-02, 1.04777232e-01, 4.01294157e-02,
          3.04841518e-01, -1.45282075e-01, 4.83584672e-01,
          2.17192858e-01, -8.44666213e-02, -2.09873375e-02,
          8.44666213e-02, 3.50934826e-02, 0., 0., 0., 0., 0., 0., 0., 0.,
          4.44629882e-03, -4.39123698e-02, 2.00282931e-02,
          4.39123698e-02, 0., 0., 0., 0., 0., 0., 0., 0., 0., 0., 0., 0.,
          0., 0., 0., 0., 0., 0., 0., 0., 0., 0., 0., 0., 5.73671199e-02,
          5.48681282e-02, 5.73671199e-02, 5.48681282e-02, 9.42011327e-02,
          4.68852162e-01, 2.97447830e-01, 4.71732944e-01,
          -1.12904962e-02, 1.00298524e-02, 1.12904962e-02,
          1.00298524e-02, 0., 0., 0., 0., 1.99987531e-01,
          -4.03423160e-02, 1.99987531e-01, 1.02951489e-01,
          2.68459529e-01, -9.60755870e-02, 4.38759148e-01,
          2.19626978e-01, -1.02268502e-01, 1.77664440e-02,
          1.02268502e-01, 2.88665444e-02, 0., 0., 0., 0., 0., 0., 0., 0.,
          4.41089012e-02, -4.60845865e-02, 6.33604527e-02,
          5.09207100e-02, -7.93854613e-03, -7.23525230e-03,
          7.93854613e-03, 7.23525230e-03, 0., 0., 0., 0., 0., 0., 0., 0.,
          4.57934029e-02, 5.68725057e-02, 5.01862578e-02, 6.07501045e-02,
          -7.65690906e-03, 9.86059662e-03, 7.75777735e-03,
          1.11619122e-02, 0., 0., 0., 0., 1.18063219e-01, 5.02619259e-02,
          1.18063219e-01, 5.02619259e-02, 3.58970284e-01, 7.94936046e-02,
          5.32152712e-01, 2.19046712e-01, -5.39027937e-02,
          -5.05935326e-02, 6.80873320e-02, 5.79678752e-02, 0., 0., 0.,
          0., 5.88979684e-02, -5.33966348e-02, 5.88979684e-02,
          5.33966348e-02, 6.12332821e-02, -4.52607810e-01,
          2.11735070e-01, 4.57364231e-01, -6.18335139e-03,
          -4.79574641e-03, 6.18335139e-03, 4.79574641e-03, 0., 0., 0.,
          0., 0., 0., 0., 0., 0., 0., 0., 0., 0., 0., 0., 0., 0., 0., 0.,
          0., 0., 0., 0., 0., 0., 0., 0., 0., 0., 0., 0., 0., 0., 0., 0.,
          0., 4.83465008e-02, 4.83465008e-02, 4.83465008e-02,
          4.83465008e-02, 4.93577458e-02, 4.43581641e-01, 2.97533333e-01,
          4.43581641e-01, 0., 0., 0., 0., 0., 0., 0., 0., 1.81888863e-01,
          -3.60574834e-02, 1.81888863e-01, 7.31982887e-02,
          1.50376901e-01, -8.92951339e-02, 5.85968196e-01,
          2.14977816e-01, -2.64253560e-02, 5.33272373e-03,
          2.64253560e-02, 1.36037953e-02, 0., 0., 0., 0., 0., 0., 0., 0.,
          1.69318970e-02, -6.54847622e-02, 5.18638194e-02,
          6.54847622e-02, -1.53791206e-03, -1.53791206e-03,
          1.53791206e-03, 1.53791206e-03, 0., 0., 0., 0., 0., 0., 0., 0.,
          1.64910369e-02, 4.91829179e-02, 2.81302221e-02, 4.91829179e-02,
          -2.91457190e-03, 8.21367744e-03, 2.91457190e-03,
          8.21367744e-03, 0., 0., 0., 0., 7.30080903e-02, 3.70975472e-02,
          7.30080903e-02, 3.70975472e-02, 3.73644948e-01, 9.56997499e-02,
          5.78986526e-01, 2.90286005e-01, -6.91861585e-02,
          -3.37230042e-02, 6.91861585e-02, 4.67921235e-02, 0., 0., 0.,
          0., 3.86728980e-02, -3.86728980e-02, 3.86728980e-02,
          3.86728980e-02, 3.96478474e-02, -4.16411608e-01,
          2.12183625e-01, 4.16411608e-01, 0., 0., 0., 0., 0., 0., 0., 0.,
          0., 0., 0., 0., 0., 0., 0., 0., 0., 0., 0., 0., 0., 0., 0., 0.,
          0., 0., 0., 0., 0., 0., 0., 0., 0., 0., 0., 0., 0., 0., 0., 0.,
          5.09152859e-02, 5.09152859e-02, 5.09152859e-02, 5.09152859e-02,
          1.27799392e-01, 4.42079335e-01, 2.03731969e-01, 4.53675866e-01,
          -1.82283353e-02, 5.27590625e-02, 3.81332301e-02,
          5.27590625e-02, 0., 0., 0., 0., 9.44223106e-02,
          -4.88219112e-02, 9.44223106e-02, 4.88219112e-02,
          2.79326260e-01, -3.11002344e-01, 3.89764875e-01,
          4.06258941e-01, -4.35122438e-02, -4.37883586e-02,
          4.61030416e-02, 5.42082675e-02, 0., 0., 0., 0., 0., 0., 0., 0.,
          0., 0., 0., 0., 0., 0., 0., 0., 0., 0., 0., 0., 0., 0., 0., 0.,
          0., 0., 0., 0., 0., 0., 0., 0., 0., 0., 0., 0., 3.70798670e-02,
          3.70798670e-02, 3.70798670e-02, 3.70798670e-02, 2.39952635e-02,
          3.91999602e-01, 2.20899522e-01, 3.91999602e-01, 0., 0., 0., 0.,
          0., 0., 0., 0., 1.36936903e-01, -2.88896263e-02,
          1.36936903e-01, 6.85483664e-02, 1.03948474e-01,
          -1.36426359e-01, 6.89603269e-01, 2.95940787e-01,
          -6.29275455e-04, 1.14287359e-04, 6.29275455e-04,
          6.29275455e-04, 0., 0., 0., 0., 0., 0., 0., 0., 2.99545843e-03,
          -2.96099856e-02, 2.11864021e-02, 2.96099856e-02, 0., 0., 0.,
          0., 0., 0., 0., 0., 0., 0., 0., 0., 6.50978647e-04,
          4.75595519e-03, 4.75595519e-03, 4.75595519e-03, 0., 0., 0., 0.,
          0., 0., 0., 0., 8.15601796e-02, 4.20306884e-02, 8.15601796e-02,
          4.20306884e-02, 2.85330385e-01, 1.55824900e-01, 5.90790510e-01,
          4.27974671e-01, -5.78908622e-02, -7.05792336e-03,
          5.78908622e-02, 2.58234516e-02, 0., 0., 0., 0., 4.37647961e-02,
          -4.37647961e-02, 4.37647961e-02, 4.37647961e-02,
          1.28501859e-02, -3.78770858e-01, 2.07420394e-01,
          3.78770858e-01, 0., 0., 0., 0., 0., 0., 0., 0., 0., 0., 0., 0.,
          0., 0., 0., 0., 0., 0., 0., 0., 0., 0., 0., 0., 0., 0., 0., 0.,
          0., 0., 0., 0., 0., 0., 0., 0., 0., 0., 0., 0., 8.70122984e-02,
          4.92184199e-02, 8.70122984e-02, 4.92184199e-02, 1.44278079e-01,
          2.07922533e-01, 6.08256161e-01, 4.74044800e-01,
          -4.28696815e-03, -5.03489049e-04, 4.28696815e-03,
          2.61681131e-03, 0., 0., 0., 0., 5.08763865e-02,
          -5.08763865e-02, 5.08763865e-02, 5.08763865e-02,
          -6.85151853e-03, -3.56187522e-01, 2.38929629e-01,
          3.56187522e-01, 0., 0., 0., 0., 0., 0., 0., 0., 0., 0., 0., 0.,
          0., 0., 0., 0., 0., 0., 0., 0. ]
      - [ 0., 0., 0., 0., 0., 0., 0., 0., 0., 0., 0., 0., 0., 0., 0., 0.,
          0., 0., 0., 0., 3.13715369e-01, 4.34304588e-02, 5.69011331e-01,
          2.50737339e-01, -3.42051476e-01, 8.90972763e-02,
          3.51846516e-01, 8.96918699e-02, 7.37770647e-02, 6.87512457e-02,
          7.37770647e-02, 6.94206879e-02, 0., 0., 0., 0., 9.15867463e-02,
          -1.22864828e-01, 9.15867463e-02, 1.22864828e-01,
          1.30082339e-01, -7.12821856e-02, 3.14954668e-01,
          2.41111070e-01, 5.79377003e-02, 1.32323448e-02, 5.81613146e-02,
          4.44305837e-02, 0., 0., 0., 0., 0., 0., 0., 0., 4.49924031e-04,
          -4.49924031e-04, 4.49924031e-04, 4.49924031e-04,
          1.42735848e-02, -1.09735020e-02, 1.44161871e-02,
          1.09735020e-02, 0., 0., 0., 0., 0., 0., 0., 0., 0., 0., 0., 0.,
          0., 0., 0., 0., 0., 0., 0., 0., 7.03380778e-02, 7.03380778e-02,
          7.03380778e-02, 7.03380778e-02, -6.37284517e-02,
          2.07835734e-01, 7.37207904e-02, 2.07835734e-01, 2.97052953e-02,
          2.57498827e-02, 2.97052953e-02, 2.57498827e-02, 0., 0., 0., 0.,
          1.24468088e-01, -6.78545162e-02, 1.24468088e-01,
          6.78545162e-02, -3.68528068e-02, -1.19925730e-01,
          7.44807065e-01, 5.02669036e-01, 8.77259821e-02,
          -1.35010749e-03, 8.77259821e-02, 4.96461913e-02, 0., 0., 0.,
          0., 0., 0., 0., 0., 0., 0., 0., 0., 2.11882940e-03,
          -2.94706156e-03, 2.11882940e-03, 2.94706156e-03, 0., 0., 0.,
          0., 0., 0., 0., 0., 5.97033314e-02, 5.04457802e-02,
          7.09334388e-02, 5.04457802e-02, -2.96472991e-03,
          9.27344058e-03, 3.26126721e-03, 9.27344058e-03, 0., 0., 0., 0.,
          2.41784707e-01, 3.28928679e-02, 2.41784707e-01, 3.38273793e-02,
          3.18411529e-01, 4.88683134e-02, 3.22834730e-01, 5.78206480e-02,
          -2.67193560e-02, -1.84709243e-02, 2.79510580e-02,
          1.96970087e-02, 0., 0., 0., 0., 1.59890324e-01, 2.53090225e-02,
          1.59890324e-01, 1.24961101e-01, 1.94536865e-01,
          -2.76576459e-01, 3.36249143e-01, 5.93607187e-01,
          -2.78131422e-02, -1.91491153e-02, 3.74762602e-02,
          3.42289917e-02, 2.04526877e-05, 2.04526877e-05, 2.04526877e-05,
          2.04526877e-05, 2.75798794e-02, 1.27822603e-03, 3.67339589e-02,
          1.99260283e-02, -5.75278362e-04, -2.54331436e-03,
          2.46756687e-03, 3.18744686e-03, 5.92679076e-04,
          -8.53140955e-04, 2.32744613e-03, 9.66804102e-04, 0., 0., 0.,
          0., 0., 0., 0., 0., 0., 0., 0., 0., 3.18789296e-03,
          4.26215958e-03, 3.22055002e-03, 4.33213823e-03, 0., 0., 0., 0.,
          6.49448559e-02, 5.22661246e-02, 6.49448559e-02, 5.22661246e-02,
          2.75327433e-02, 5.37949443e-01, 7.55153075e-02, 5.37949443e-01,
          6.04314953e-02, 4.84260209e-02, 7.06377178e-02, 5.68451732e-02,
          0., 0., 0., 0., 2.63843715e-01, -3.53379287e-02,
          2.63843715e-01, 3.61362211e-02, 2.99969733e-01,
          -6.11622706e-02, 3.54695499e-01, 9.34511125e-02,
          1.71259147e-04, 9.50491708e-03, 1.41760055e-02, 1.28794722e-02,
          0., 0., 0., 0., 1.07863612e-04, 3.43443127e-04, 1.07863612e-04,
          3.43443127e-04, 5.98911270e-02, -6.55935705e-02,
          6.03735186e-02, 6.59009218e-02, -4.60565835e-03,
          -8.99698399e-03, 4.60565835e-03, 8.99698399e-03,
          8.44399165e-03, -2.14887364e-03, 8.70394148e-03,
          3.67534463e-03, -6.33506291e-03, 9.24058631e-03,
          6.95951749e-03, 9.57921986e-03, -1.26685211e-02,
          -9.08394437e-03, 3.35908569e-02, 2.73899827e-02,
          -1.59060946e-04, 1.38823802e-04, 1.59060946e-04,
          1.59060946e-04, 1.97522454e-02, -8.40433314e-03,
          1.97522454e-02, 8.40433314e-03, 2.30505779e-01,
          -2.34412119e-01, 2.77551919e-01, 3.35485548e-01,
          1.22716673e-01, 1.44864738e-01, 2.24812388e-01, 2.32190385e-01,
          -6.28297254e-02, 3.33148316e-02, 6.28297254e-02,
          3.69597860e-02, 0., 0., 0., 0., 4.84021991e-01, 1.06071256e-01,
          4.84021991e-01, 1.32971615e-01, 2.95369513e-02,
          -1.85458979e-03, 7.76807591e-02, 1.04876868e-01,
          -4.62843664e-02, -2.46266611e-02, 4.64395322e-02,
          3.78632881e-02, 0., 0., 0., 0., 1.49332108e-02,
          -3.46190892e-02, 1.50922574e-02, 3.46190892e-02,
          -3.65166506e-03, -1.07591517e-01, 1.49020972e-02,
          1.07591517e-01, -1.62225298e-03, -1.92245713e-03,
          2.62327213e-03, 2.33489973e-03, 0., 0., 0., 0., 1.48422012e-04,
          1.48422012e-04, 1.48422012e-04, 1.48422012e-04,
          -1.35399852e-04, 4.32243862e-04, 1.35399852e-04,
          4.32243862e-04, 7.14220456e-04, 1.38715003e-03, 7.14220456e-04,
          1.38715003e-03, 0., 0., 0., 0., 2.37532958e-01, 3.96580622e-02,
          2.37532958e-01, 6.90799281e-02, 1.57710075e-01, 3.42738867e-01,
          3.98939490e-01, 4.00642127e-01, -3.62154911e-03,
          6.55928850e-02, 3.75917591e-02, 6.63197711e-02,
          -9.51795606e-04, 5.70656266e-03, 4.14380757e-03,
          5.70656266e-03, 3.28518331e-01, -2.15308256e-02,
          3.30018759e-01, 1.09591469e-01, 2.56352484e-01,
          -4.53223363e-02, 2.57895917e-01, 1.20044090e-01,
          -1.54720685e-02, -5.47485612e-03, 1.70177668e-02,
          1.56506263e-02, 4.90612676e-03, 2.90299137e-03, 8.12567584e-03,
          1.77149735e-02, -1.92552153e-02, 1.21614886e-02,
          2.78583169e-02, 3.65368798e-02, 2.50014346e-02,
          -1.10892884e-01, 3.03958245e-02, 1.10892884e-01,
          -4.12647519e-03, -1.67136882e-02, 4.40225424e-03,
          1.67136882e-02, 0., 0., 0., 0., 0., 0., 0., 0., 0., 0., 0., 0.,
          0., 0., 0., 0., 0., 0., 0., 0., 5.89206740e-02, 1.05246417e-01,
          7.49967813e-01, 2.75703102e-01, -9.07923877e-02,
          7.07972124e-02, 1.39049560e-01, 7.07972124e-02, 5.95262051e-02,
          7.90508687e-02, 5.95262051e-02, 7.99627602e-02, 0., 0., 0., 0.,
          5.07420190e-02, -1.81544065e-01, 9.19490308e-02,
          1.81544065e-01, 2.19505787e-01, -8.24064855e-03,
          3.34713221e-01, 2.19641149e-01, 3.80114242e-02, 7.02175545e-03,
          3.84836644e-02, 1.91309378e-02, 0., 0., 0., 0., 0., 0., 0., 0.,
          4.92739584e-03, -5.06901741e-03, 4.92739584e-03,
          5.06901741e-03, 1.54903140e-02, -1.13549083e-02,
          1.56390984e-02, 1.13549083e-02, 0., 0., 0., 0., 0., 0., 0., 0.,
          0., 0., 0., 0., 0., 0., 0., 0., 0., 0., 0., 0., 9.60304141e-02,
          9.39178243e-02, 9.60304141e-02, 9.39178243e-02,
          -9.20452997e-02, 1.80774316e-01, 9.20452997e-02,
          1.80774316e-01, 8.48825201e-02, 7.85058811e-02, 8.71410444e-02,
          7.93290511e-02, 0., 0., 0., 0., 1.70767382e-01,
          -9.04887766e-02, 1.70767382e-01, 9.04887766e-02,
          -8.53018016e-02, -1.11406133e-01, 6.63727820e-01,
          4.82243270e-01, 1.97155967e-01, -1.99913643e-02,
          1.97297320e-01, 9.27427933e-02, 0., 0., 0., 0., 0., 0., 0., 0.,
          0., 0., 0., 0., 3.18462262e-03, -5.42184291e-03,
          3.18721426e-03, 5.42184291e-03, 0., 0., 0., 0., 0., 0., 0., 0.,
          3.40936123e-03, 3.49610969e-02, 2.49039307e-02, 3.49610969e-02,
          5.61626512e-04, 1.33220758e-03, 7.03918515e-04, 1.33220758e-03,
          -1.76112560e-04, 6.55379263e-04, 6.55379263e-04,
          6.55379263e-04, 1.99466646e-01, 1.01076746e-02, 1.99466646e-01,
          9.19908211e-02, 2.66433716e-01, 1.63521007e-01, 4.25032943e-01,
          2.56988764e-01, -1.38141811e-02, 4.32773679e-02,
          2.91135665e-02, 5.06430566e-02, 3.41206416e-02, 4.00747592e-03,
          3.41206416e-02, 5.42605706e-02, 6.06452413e-02, 4.94426908e-03,
          2.84480512e-01, 2.35035926e-01, 2.38258138e-01,
          -3.47854882e-01, 2.43531093e-01, 4.10392940e-01,
          -3.17431465e-02, -4.75561544e-02, 4.87031862e-02,
          5.07761203e-02, 0., 0., 0., 0., 0., 0., 0., 0., 0., 0., 0., 0.,
          0., 0., 0., 0., 0., 0., 0., 0., 0., 0., 0., 0., 1.00906449e-03,
          1.18541496e-03, 1.00906449e-03, 1.18541496e-03, 8.29331111e-03,
          1.82286631e-02, 1.47350403e-02, 1.82286631e-02, 0., 0., 0., 0.,
          1.36920273e-01, 5.05890921e-02, 4.40090656e-01, 4.50841695e-01,
          1.62849590e-01, 1.74995333e-01, 5.28678775e-01, 1.75398320e-01,
          2.87782513e-02, 2.19862964e-02, 4.02710661e-02, 2.43243296e-02,
          0., 0., 0., 0., 7.28969499e-02, -1.07924514e-01,
          7.28969499e-02, 1.07924514e-01, 8.11894163e-02,
          -2.13157833e-01, 2.29749218e-01, 2.13157833e-01,
          4.02868539e-02, -1.05246745e-01, 4.36293334e-02,
          1.05310962e-01, 0., 0., 0., 0., 0., 0., 0., 0., 0., 0., 0., 0.,
          0., 0., 0., 0., 0., 0., 0., 0., 0., 0., 0., 0., 5.54983621e-04,
          5.54983621e-04, 5.54983621e-04, 5.54983621e-04, 5.84865268e-03,
          1.53334802e-02, 1.17181158e-02, 1.53334802e-02, 0., 0., 0., 0.,
          2.76436154e-02, 1.91283211e-01, 3.85722101e-01, 4.23154831e-01,
          2.56674618e-01, 1.82316288e-01, 4.07161027e-01, 2.37804607e-01,
          1.74721815e-02, 2.23704129e-02, 3.40312049e-02, 2.47848742e-02,
          0., 0., 0., 0., 8.97951946e-02, -2.19809651e-01,
          8.97951946e-02, 2.19809651e-01, 9.22975913e-02,
          -2.09870130e-01, 2.87954390e-01, 2.09870130e-01,
          3.05164233e-02, -8.80475119e-02, 3.49204056e-02,
          8.91185477e-02, 0., 0., 0., 0., 0., 0., 0., 0., 0., 0., 0., 0.,
          0., 0., 0., 0., 7.86070060e-03, 2.22071467e-04, 7.86070060e-03,
          1.32554036e-03, -1.00484607e-03, 3.72651289e-03,
          4.26791748e-03, 6.30439119e-03, -1.48386555e-02,
          1.92944997e-03, 3.44326459e-02, 1.36696985e-02, 0., 0., 0., 0.,
          5.20165497e-03, -3.74829909e-03, 5.20165497e-03,
          3.74829909e-03, 2.14425817e-01, -1.96669206e-01,
          2.84537792e-01, 2.80610204e-01, 6.89376965e-02, 1.85154945e-01,
          3.11771780e-01, 2.70715833e-01, -7.92198479e-02,
          2.50577759e-02, 7.92198479e-02, 2.56175939e-02, 0., 0., 0., 0.,
          4.44968790e-01, 2.77951621e-02, 4.44968790e-01, 1.26644194e-01,
          -1.54789025e-02, -1.79975182e-01, 1.00458935e-01,
          2.54232228e-01, -6.33606613e-02, -1.71734393e-02,
          6.36123642e-02, 4.17064838e-02, 0., 0., 0., 0., 2.28734556e-04,
          -7.26004946e-04, 2.28734556e-04, 7.26004946e-04,
          2.46469426e-04, -7.40418397e-03, 3.80014046e-03,
          7.40418397e-03, 1.80689106e-03, 1.28233805e-03, 3.34432698e-03,
          1.87640858e-03, 0., 0., 0., 0., 0., 0., 0., 0., 0., 0., 0., 0.,
          1.26252207e-03, 3.97606241e-03, 3.39671923e-03, 3.97606241e-03,
          0., 0., 0., 0., 1.00037172e-01, 1.00037172e-01, 1.00037172e-01,
          1.00037172e-01, 9.45428014e-02, 2.32638702e-01, 2.85227776e-01,
          2.33979642e-01, 1.42326578e-01, 7.11167976e-02, 1.73565358e-01,
          7.44906217e-02, 0., 0., 0., 0., 1.31178603e-01,
          -9.86083597e-02, 1.31178603e-01, 9.86083597e-02,
          1.87004693e-02, -2.07391232e-01, 5.11606097e-01,
          5.40469706e-01, 8.07118416e-02, -1.33131593e-01,
          8.14421251e-02, 1.33542240e-01, 0., 0., 0., 0., 0., 0., 0., 0.,
          0., 0., 0., 0., 0., 0., 0., 0., 0., 0., 0., 0., 0., 0., 0., 0.,
          0., 0., 0., 0., 1.50868218e-05, 4.85468372e-05, 4.85468372e-05,
          4.85468372e-05, 0., 0., 0., 0., 1.61318123e-01, 8.09990466e-02,
          3.55161071e-01, 2.66185015e-01, 9.51095447e-02, 2.30520263e-01,
          4.58087146e-01, 2.30520263e-01, 1.28450533e-02, 7.90782124e-02,
          7.50438869e-02, 8.06892440e-02, 0., 0., 0., 0., 9.27919745e-02,
          -1.10144839e-01, 9.27919745e-02, 1.10144839e-01,
          2.32066527e-01, -2.19183221e-01, 4.19172972e-01,
          3.05542231e-01, 2.50293948e-02, -7.44784102e-02,
          4.76892255e-02, 7.61658400e-02, 0., 0., 0., 0., 0., 0., 0., 0.,
          0., 0., 0., 0., 4.05887171e-04, -2.95511476e-04,
          4.05887171e-04, 2.95511476e-04, 0., 0., 0., 0., 0., 0., 0., 0.,
          1.97502504e-05, 2.15684384e-04, 2.15684384e-04, 2.15684384e-04,
          0., 0., 0., 0., 8.38752557e-03, 8.38752557e-03, 8.38752557e-03,
          8.38752557e-03, 1.15696728e-01, 4.50649671e-02, 1.45147413e-01,
          7.78067484e-02, 1.97847486e-01, 2.87757427e-01, 4.62788999e-01,
          3.26568186e-01, -4.60186927e-03, 4.33555208e-02,
          2.92685553e-02, 4.71769832e-02, 1.82577725e-02,
          -7.93466438e-03, 1.82577725e-02, 7.93466438e-03,
          1.05556600e-01, -3.13503370e-02, 2.89893329e-01,
          2.22218052e-01, 1.91800788e-01, -3.32081050e-01,
          2.13748395e-01, 4.00243282e-01, -4.03184853e-02,
          -3.91186327e-02, 7.26941973e-02, 4.12701741e-02, 0., 0., 0.,
          0., 0., 0., 0., 0., 0., 0., 0., 0., 1.48032326e-04,
          -1.78203045e-04, 1.48032326e-04, 1.78203045e-04, 0., 0., 0.,
          0., 0., 0., 0., 0., 3.67733301e-03, 3.71320359e-02,
          2.64066644e-02, 3.71320359e-02, 6.71997084e-04, 1.94003619e-03,
          8.94269499e-04, 1.94003619e-03, 1.13362800e-02, 5.34114707e-03,
          1.13362800e-02, 5.34114707e-03, 1.13422044e-01, 1.27486736e-01,
          2.11056903e-01, 1.68967351e-01, 2.93617159e-01, 1.71282336e-01,
          4.37432140e-01, 2.16853127e-01, -2.54296456e-02,
          1.37831895e-02, 4.15816829e-02, 5.24433441e-02, 5.60414605e-03,
          -5.60414605e-03, 5.60414605e-03, 5.60414605e-03,
          1.07220318e-02, -1.32705539e-01, 1.52359575e-01,
          1.47612393e-01, 1.80521041e-01, -4.46686566e-01,
          1.82897717e-01, 4.46686566e-01, -3.55340987e-02,
          -3.53458226e-02, 5.43073788e-02, 3.66994999e-02, 0., 0., 0.,
          0., 0., 0., 0., 0., 0., 0., 0., 0., 0., 0., 0., 0., 0., 0., 0.,
          0., 0., 0., 0., 0., 0., 0., 0., 0., 6.66045707e-06,
          1.07153028e-05, 6.66045707e-06, 1.07153028e-05, 0., 0., 0., 0.,
          6.32468909e-02, 2.88520698e-02, 6.32468909e-02, 3.06798797e-02,
          2.57934332e-01, 3.04329455e-01, 4.56739277e-01, 3.20865780e-01,
          -2.12136234e-04, 4.07783538e-02, 3.50921303e-02,
          4.38391007e-02, 2.91405269e-03, 2.74485414e-04, 2.91405269e-03,
          2.72221258e-03, 1.50729027e-02, 2.29339860e-03, 2.02857524e-01,
          2.27556527e-01, 2.97092795e-01, -3.28529567e-01,
          3.08844149e-01, 3.47151577e-01, -4.16562743e-02,
          -4.38662544e-02, 5.72624356e-02, 4.97416221e-02, 0., 0., 0.,
          0., 0., 0., 0., 0., 0., 0., 0., 0., 0., 0., 0., 0., 0., 0., 0.,
          0., 3.29151051e-04, -3.00685409e-04, 2.39606667e-02,
          2.62857340e-02, -1.28586288e-03, 2.04482041e-02,
          1.12670148e-02, 2.04874240e-02, 0., 0., 0., 0., 0., 0., 0., 0.,
          4.17226940e-01, 1.57941896e-02, 4.35408443e-01, 1.99320406e-01,
          -3.14219415e-01, 2.05624271e-02, 3.86828631e-01,
          3.34170759e-01, 0., 0., 0., 0., 0., 0., 0., 0., 2.07871810e-01,
          -2.90516540e-02, 2.26481155e-01, 1.97210833e-01,
          -1.08773008e-01, -8.96162167e-02, 2.12935776e-01,
          1.73211396e-01, 0., 0., 0., 0., 1.83086813e-04, 6.43799358e-05,
          1.83086813e-04, 1.83086813e-04, 1.76468119e-02, 1.01005957e-02,
          2.47570332e-02, 1.93539001e-02, -2.36884616e-02,
          -1.22297211e-02, 3.38473842e-02, 3.10465433e-02, 0., 0., 0.,
          0., 0., 0., 0., 0., 0., 0., 0., 0., 0., 0., 0., 0.,
          5.32178910e-06, 1.51343647e-05, 1.51343647e-05, 1.51343647e-05,
          0., 0., 0., 0., 2.16229185e-01, 2.02457868e-02, 2.16229185e-01,
          5.52550517e-02, 1.22739628e-01, 2.95840770e-01, 3.92750144e-01,
          3.60613585e-01, -1.46475043e-02, 1.26172807e-02,
          2.19571665e-02, 3.29366475e-02, 0., 0., 0., 0., 6.12845384e-02,
          -1.16143245e-02, 2.43343130e-01, 2.05994815e-01,
          9.18566659e-02, -4.14706439e-01, 2.30984807e-01,
          4.15553451e-01, 3.42503190e-03, -3.10941972e-02,
          1.21205971e-02, 3.28784175e-02, 0., 0., 0., 0., 0., 0., 0., 0.,
          0., 0., 0., 0., 0., 0., 0., 0., 0., 0., 0., 0., 0., 0., 0., 0.,
          5.05627868e-05, 6.74665847e-04, 4.40432137e-04, 6.74665847e-04,
          0., 0., 0., 0., 0., 0., 0., 0., 1.26292750e-01, 1.33529052e-01,
          2.10246831e-01, 1.33529052e-01, 1.96026355e-01, 2.68774360e-01,
          4.52424198e-01, 2.97592103e-01, -1.02282483e-02,
          1.62378214e-02, 3.06157246e-02, 3.99688110e-02, 0., 0., 0., 0.,
          3.24454382e-02, -1.39386475e-01, 1.47007450e-01,
          1.39386475e-01, 9.88438278e-02, -4.32029009e-01,
          2.23724917e-01, 4.32029009e-01, 1.95795558e-02,
          -2.75816061e-02, 2.65014917e-02, 2.96467040e-02, 0., 0., 0.,
          0., 0., 0., 0., 0., 0., 0., 0., 0., 1.23607651e-05,
          -1.23607651e-05, 1.23607651e-05, 1.23607651e-05, 0., 0., 0.,
          0., 0., 0., 0., 0., 1.02432241e-04, 1.02432241e-04,
          1.02432241e-04, 1.02432241e-04, -6.47196357e-05,
          6.47196357e-05, 6.47196357e-05, 6.47196357e-05, 0., 0., 0., 0.,
          7.93476850e-02, 7.93476850e-02, 7.93476850e-02, 7.93476850e-02,
          3.38497341e-01, 2.67691404e-01, 4.87910360e-01, 2.67691404e-01,
          -2.74801999e-02, 7.50096589e-02, 4.41336036e-02,
          8.45140889e-02, 0., 0., 0., 0., 8.51835832e-02,
          -7.90799186e-02, 8.51835832e-02, 7.90799186e-02,
          7.60203078e-02, -2.95309395e-01, 4.09096628e-01,
          3.74471992e-01, 1.46336518e-02, -1.30887538e-01,
          3.62822562e-02, 1.30887538e-01, 0., 0., 0., 0., 0., 0., 0., 0.,
          0., 0., 0., 0., 0., 0., 0., 0., 0., 0., 0., 0., 3.26766558e-02,
          5.29469131e-03, 3.26766558e-02, 5.54895308e-03,
          -4.11845418e-03, 1.06733702e-02, 2.03302130e-02,
          1.65587850e-02, -4.63086367e-03, -1.82877562e-03,
          4.64428170e-03, 1.82877562e-03, 0., 0., 0., 0., 1.40533060e-01,
          1.00267539e-02, 1.40533060e-01, 6.29220754e-02, 1.52462289e-01,
          1.73337057e-01, 5.49561799e-01, 2.66008794e-01,
          -1.13860471e-02, -1.47348735e-03, 1.13860471e-02,
          3.98514140e-03, 0., 0., 0., 0., 3.81225646e-02,
          -3.81225646e-02, 3.81225646e-02, 3.81225646e-02,
          4.87626866e-02, -4.55144316e-01, 2.15310678e-01,
          5.15052378e-01, -3.95447155e-03, 6.59764773e-05,
          3.95447155e-03, 3.95447155e-03, 0., 0., 0., 0., 0., 0., 0., 0.,
          0., 0., 0., 0., 0., 0., 0., 0., 0., 0., 0., 0., 0., 0., 0., 0.,
          0., 0., 0., 0., 0., 0., 0., 0., 0., 0., 0., 0., 4.31700498e-02,
          1.36912419e-02, 2.34676182e-01, 1.59815893e-01,
          -2.08032727e-02, 3.67888123e-01, 7.84946382e-02,
          3.83220285e-01, 0., 0., 0., 0., 0., 0., 0., 0., 4.18926656e-01,
          1.46138377e-03, 4.18926656e-01, 8.77688751e-02,
          -1.83455124e-01, -3.74202989e-02, 3.78342211e-01,
          2.99196988e-01, -6.74597220e-03, 3.58276465e-03,
          6.74597220e-03, 3.58276465e-03, 0., 0., 0., 0., 2.35499498e-02,
          5.55504160e-03, 2.35499498e-02, 7.34929089e-03, 7.83820637e-03,
          -5.25922049e-03, 2.12837998e-02, 1.33659970e-02,
          -6.57729711e-03, -4.59335832e-04, 6.57729711e-03,
          8.16229731e-04, 0., 0., 0., 0., 0., 0., 0., 0., 0., 0., 0., 0.,
          0., 0., 0., 0., 0., 0., 0., 0., 6.04458265e-02, 6.04458265e-02,
          6.04458265e-02, 6.04458265e-02, 3.62435937e-01, 2.64961302e-01,
          4.78632838e-01, 2.73330957e-01, -7.18395635e-02,
          9.59267393e-02, 8.32575709e-02, 1.02094434e-01, 0., 0., 0., 0.,
          6.80253878e-02, -6.00980707e-02, 6.80253878e-02,
          6.00980707e-02, 1.62420958e-01, -2.96644956e-01,
          4.08300310e-01, 3.50883424e-01, -9.82451625e-03,
          -1.14316456e-01, 3.64515744e-02, 1.14562511e-01, 0., 0., 0.,
          0., 0., 0., 0., 0., 0., 0., 0., 0., 0., 0., 0., 0., 0., 0., 0.,
          0., 1.47937201e-02, 1.08294766e-02, 1.47937201e-02,
          1.08294766e-02, -1.48806721e-02, 8.93430877e-03,
          1.48806721e-02, 8.93430877e-03, 0., 0., 0., 0., 0., 0., 0., 0.,
          3.73487175e-01, 3.60616930e-02, 3.73487175e-01, 9.60663110e-02,
          -2.52010226e-01, 1.75485373e-01, 3.14848095e-01,
          4.44369465e-01, 0., 0., 0., 0., 0., 0., 0., 0., 2.53237963e-01,
          1.08047975e-02, 2.53237963e-01, 1.27357617e-01,
          -1.45950139e-01, -1.30698875e-01, 2.73322791e-01,
          2.32170478e-01, 0., 0., 0., 0., 0., 0., 0., 0., 2.68680993e-02,
          1.12648879e-03, 4.07430567e-02, 2.84603536e-02,
          -2.95642391e-02, -2.17483435e-02, 3.97580042e-02,
          2.45799460e-02, 0., 0., 0., 0., 0., 0., 0., 0., 1.25657618e-02,
          5.61963068e-03, 1.25657618e-02, 5.61963068e-03, 1.60231516e-02,
          1.05560916e-02, 3.07561588e-02, 2.29326934e-02,
          -5.30122826e-03, -2.24886392e-03, 5.30122826e-03,
          3.20228701e-03, 0., 0., 0., 0., 1.75542116e-01, 2.70762648e-02,
          1.75542116e-01, 8.18772912e-02, 3.22154425e-02, 1.88459277e-01,
          5.39845169e-01, 2.99076498e-01, -1.15539522e-04,
          -1.15539522e-04, 1.15539522e-04, 1.15539522e-04, 0., 0., 0.,
          0., 5.44031672e-02, -5.21082692e-02, 5.44031672e-02,
          5.21082692e-02, 1.64114423e-02, -4.19960946e-01,
          2.57157207e-01, 5.07042229e-01, 0., 0., 0., 0., 0., 0., 0., 0.,
          0., 0., 0., 0., 0., 0., 0., 0., 0., 0., 0., 0., 0., 0., 0., 0.,
          0., 0., 0., 0., 0., 0., 0., 0., 0., 0., 0., 0., 0., 0., 0., 0.,
          9.17613059e-02, 3.29577550e-02, 1.14279836e-01, 1.38476148e-01,
          -7.34710544e-02, 3.20515335e-01, 1.09909728e-01,
          3.56060088e-01, 0., 0., 0., 0., 0., 0., 0., 0., 4.32194829e-01,
          3.70312273e-03, 4.32194829e-01, 9.35505405e-02,
          -2.69403607e-01, -4.18631211e-02, 3.83873522e-01,
          3.20850939e-01, 0., 0., 0., 0., 0., 0., 0., 0., 3.52886543e-02,
          8.27347301e-03, 3.52886543e-02, 1.12876697e-02,
          -2.08166447e-02, -1.01719555e-02, 2.82002985e-02,
          1.63545720e-02, 0., 0., 0., 0., 0., 0., 0., 0., 0., 0., 0., 0.,
          0., 0., 0., 0., 0., 0., 0., 0., 0., 0., 0., 0., 7.95206651e-02,
          4.76151258e-02, 1.36620700e-01, 1.59072667e-01,
          -4.83686887e-02, 4.06826317e-01, 1.66288003e-01,
          4.06826317e-01, 0., 0., 0., 0., 0., 0., 0., 0., 2.59345561e-01,
          -4.01171409e-02, 2.59345561e-01, 5.67598492e-02,
          -9.85656679e-02, -1.66290611e-01, 5.65128326e-01,
          2.92951852e-01, 0., 0., 0., 0., 0., 0., 0., 0., 2.52823345e-02,
          2.50808406e-03, 2.52823345e-02, 9.40150954e-03,
          -1.12979878e-02, -8.68268497e-03, 4.60145436e-02,
          2.88120918e-02, 0., 0., 0., 0., 0., 0., 0., 0., 2.81112455e-03,
          2.81112455e-03, 2.81112455e-03, 2.81112455e-03, 2.32748780e-02,
          2.07871012e-02, 5.10457009e-02, 3.60805690e-02,
          -3.59214912e-03, -9.83132049e-04, 3.59214912e-03,
          2.61121732e-03, 0., 0., 0., 0., 1.62059799e-01, 2.50302684e-02,
          1.62059799e-01, 6.78349286e-02, 1.87545866e-02, 1.73176289e-01,
          6.33860886e-01, 2.76634961e-01, -6.60130827e-05,
          -6.60130827e-05, 6.60130827e-05, 6.60130827e-05, 0., 0., 0.,
          0., 4.32690047e-02, -4.32690047e-02, 4.32690047e-02,
          4.32690047e-02, 7.14303320e-03, -4.10503179e-01,
          2.15673789e-01, 4.53963012e-01, 0., 0., 0., 0., 0., 0., 0., 0.,
          0., 0., 0., 0., 0., 0., 0., 0., 0., 0., 0., 0., 0., 0., 0., 0.,
          0., 0., 0., 0., 0., 0., 0., 0., 0., 0., 0., 0., 0., 0., 0., 0.,
          4.43062596e-02, 4.01667468e-02, 1.35406315e-01, 8.13452229e-02,
          -2.71723140e-02, 3.67476523e-01, 1.45690933e-01,
          3.67476523e-01, 0., 0., 0., 0., 0., 0., 0., 0., 2.04638496e-01,
          -3.78478132e-02, 2.04638496e-01, 6.84731454e-02,
          -6.11424409e-02, -1.37785271e-01, 6.92268252e-01,
          2.83163339e-01, 0., 0., 0., 0., 0., 0., 0., 0., 6.27771253e-03,
          3.73905023e-05, 6.27771253e-03, 3.67737608e-03, 6.12091832e-03,
          -1.46127073e-02, 7.61482790e-02, 3.56760882e-02, 0., 0., 0.,
          0. ]
      - [ 0., 0., 0., 0., 0., 0., 0., 0., 0., 0., 0., 0., 0., 0., 0., 0.,
          0., 0., 0., 0., 5.58810942e-02, 6.34748563e-02, 5.70356734e-02,
          6.34748563e-02, 8.16535652e-02, 4.72185582e-01, 8.16535652e-02,
          4.72185582e-01, -4.34112595e-03, 6.28631413e-02,
          2.87596937e-02, 6.83054775e-02, 0., 0., 0., 0., 3.88748616e-01,
          -3.31459418e-02, 3.88748616e-01, 6.85834959e-02,
          -5.80182076e-02, -9.59864929e-02, 3.14183652e-01,
          2.76242048e-01, 4.88401274e-04, -2.47596335e-02,
          6.29264023e-03, 4.19884436e-02, 0., 0., 0., 0., 1.43653550e-03,
          -1.43653550e-03, 1.43653550e-03, 1.43653550e-03,
          2.73657087e-02, -8.91857147e-02, 4.35699746e-02,
          8.91857147e-02, 3.59307462e-03, -6.63617812e-03,
          6.71471702e-03, 1.06903324e-02, 0., 0., 0., 0., 6.93101510e-02,
          -1.68853179e-02, 6.97943568e-02, 2.34274361e-02,
          -2.60500796e-02, 9.12959222e-03, 3.66956554e-02,
          2.56805681e-02, 9.99951852e-04, 4.67838254e-04, 2.14995933e-03,
          1.47025438e-03, 0., 0., 0., 0., 1.01331420e-01, 3.77761684e-02,
          1.01331420e-01, 9.09733027e-02, 2.24690825e-01, 6.47160709e-02,
          5.55207312e-01, 2.09562942e-01, 1.27623966e-02,
          -3.12091876e-03, 5.22435904e-02, 2.44726297e-02, 0., 0., 0.,
          0., 3.04974049e-01, -3.96314897e-02, 3.04974049e-01,
          3.96314897e-02, 2.84852684e-02, -3.30415592e-02,
          5.54888189e-01, 1.11893415e-01, 3.68283712e-03, 8.18138663e-03,
          1.01895295e-01, 2.80355979e-02, 0., 0., 0., 0., 4.47308598e-03,
          -2.37134099e-03, 4.47308598e-03, 2.56191147e-03,
          5.07501289e-02, -2.82205287e-02, 7.67709389e-02,
          1.16895832e-01, -9.06378310e-03, -1.11552933e-02,
          9.06378310e-03, 1.11552933e-02, 0., 0., 0., 0., 2.42281263e-03,
          2.08009942e-03, 2.42281263e-03, 2.47211615e-03, 4.34895344e-02,
          8.66957568e-03, 9.11247209e-02, 2.68512517e-02, 1.01228058e-03,
          -5.09168778e-04, 5.46102272e-03, 2.53142300e-03, 0., 0., 0.,
          0., 1.56766877e-01, 6.21983632e-02, 1.56766877e-01,
          1.12564065e-01, 1.68892369e-01, 5.40035032e-02, 6.71650350e-01,
          2.03663170e-01, -7.42027827e-04, 2.50382209e-03,
          7.78922299e-03, 7.40223238e-03, 0., 0., 0., 0., 3.87722135e-01,
          -3.61557528e-02, 3.87722135e-01, 8.26051310e-02,
          -6.94080666e-02, -8.91210735e-02, 2.34599233e-01,
          1.31573245e-01, 1.44585245e-03, 1.25685346e-03, 7.29077449e-03,
          6.79201167e-03, 0., 0., 0., 0., 2.88256607e-03,
          -2.88256607e-03, 2.88256607e-03, 2.88256607e-03,
          3.79492827e-02, -1.68513060e-02, 5.44749238e-02,
          1.94188114e-02, 5.14471554e-04, -3.15360987e-04,
          5.96866768e-04, 4.52525710e-04, 0., 0., 0., 0., 1.05949137e-02,
          -3.14180483e-03, 1.05949137e-02, 7.22551439e-03,
          3.13022546e-02, -8.17807950e-03, 9.56929997e-02,
          3.23963799e-02, 1.63903250e-03, -9.56014672e-04,
          1.09955594e-02, 2.81035365e-03, 0., 0., 0., 0., 2.11054310e-01,
