%YAML:1.0
opencv_ml_svm:
   format: 3
   svmType: ONE_CLASS
   kernel:
      type: RBF
      gamma: 1.0000000000000001e-01
   nu: 5.0000000000000003e-02
   term_criteria: { iterations:500 }
   var_count: 1408
   class_count: 1
   sv_total: 124
   support_vectors:
      - [ 8.36201571e-03, -1.02707073e-02, 8.38911161e-03,
          1.03290388e-02, 3.41016124e-03, 2.54079513e-03, 1.16145909e-02,
          1.14120729e-02, -9.47381184e-03, 1.30788321e-02,
          9.47381184e-03, 1.30788321e-02, -6.71379734e-04,
          6.71379734e-04, 6.71379734e-04, 6.71379734e-04, 1.63182154e-01,
          -6.29394799e-02, 1.63182154e-01, 6.29394799e-02,
          3.23499382e-01, 3.89799327e-02, 3.23499382e-01, 1.03223823e-01,
          -1.22769825e-01, 1.07290201e-01, 1.22769825e-01,
          1.07290201e-01, -8.10947455e-03, 6.98280381e-03,
          8.10947455e-03, 6.98280381e-03, 1.99894637e-01,
          -2.63115838e-02, 1.99894637e-01, 2.63931416e-02,
          5.05576134e-01, -6.53257594e-02, 5.05576134e-01,
          8.93164426e-02, -1.38324887e-01, -2.23562284e-03,
          1.38324887e-01, 4.00661863e-02, -1.78799331e-02,
          -2.78568128e-03, 1.78799331e-02, 4.47419751e-03,
          2.59619523e-02, 1.43194722e-03, 2.59619523e-02, 2.52922252e-03,
          8.70568976e-02, -1.13171544e-02, 8.70568976e-02,
          1.43264458e-02, -1.49261085e-02, -1.55460206e-03,
          1.95846390e-02, 1.55460206e-03, -3.01461015e-03,
          -6.08504633e-04, 3.01461015e-03, 6.08504633e-04,
          -9.73228249e-04, 4.14137641e-04, 9.73228249e-04,
          4.14137641e-04, 3.86421592e-03, 5.03299013e-03, 7.59252254e-03,
          5.25301648e-03, 5.21600842e-02, 2.89063696e-02, 5.21600842e-02,
          2.89063696e-02, 1.04557183e-02, 5.61475661e-03, 1.04557183e-02,
          5.61475661e-03, -2.86113517e-03, 4.61715041e-03,
          3.21091525e-03, 4.65237070e-03, 7.58732408e-02, 6.23979196e-02,
          9.08781737e-02, 6.23979196e-02, 4.87402320e-01, 8.62747803e-02,
          4.87402320e-01, 8.62747803e-02, 4.96286787e-02, 1.50343450e-02,
          5.06701730e-02, 1.51680820e-02, 1.12347514e-03,
          -1.18185731e-03, 1.85514672e-03, 1.29050086e-03,
          5.46775870e-02, -2.32589263e-02, 6.19565248e-02,
          2.88194474e-02, 4.66843694e-01, -1.00813322e-01,
          4.66843694e-01, 1.00813322e-01, 5.11197448e-02,
          -1.95295960e-02, 5.29619642e-02, 1.95295960e-02,
          -2.48541211e-04, -2.08689540e-04, 3.46726127e-04,
          2.08689540e-04, 2.91524734e-03, -6.72553782e-04,
          5.27211325e-03, 1.69567426e-03, 4.40242030e-02,
          -1.41990772e-02, 4.40242030e-02, 1.42762922e-02,
          6.68699946e-03, -7.29769235e-03, 6.68699946e-03,
          7.29769235e-03, -3.77117714e-04, -3.74383084e-03,
          1.37940736e-03, 3.74383084e-03, 2.89476551e-02,
          -3.42125669e-02, 2.89476551e-02, 3.42125669e-02,
          3.64592224e-02, -3.12789232e-02, 3.64922024e-02,
          3.12789232e-02, 3.61705036e-03, 9.40864498e-04, 3.61705036e-03,
          1.04555616e-03, -5.27583063e-03, -1.39080025e-02,
          7.18486495e-03, 1.39080025e-02, 1.24312170e-01,
          -1.50479764e-01, 1.24312170e-01, 1.50479764e-01,
          4.08393502e-01, -9.67652947e-02, 4.08393502e-01,
          1.07942916e-01, 4.08448391e-02, -2.64954870e-03,
          4.08448391e-02, 2.81994720e-03, -2.07228567e-02,
          2.88747884e-02, 2.07228567e-02, 2.88747884e-02, 1.28580004e-01,
          1.14584126e-01, 1.42287135e-01, 1.34923130e-01, 4.65597451e-01,
          1.25544667e-01, 4.65597451e-01, 1.25544667e-01, 3.17760855e-02,
          6.10457361e-03, 3.19405943e-02, 6.58735121e-03,
          -4.68504755e-03, 1.02402978e-02, 4.68504755e-03,
          1.02402978e-02, 1.14089428e-02, 6.79183826e-02, 1.99408103e-02,
          6.79183826e-02, 4.79903892e-02, 4.61008772e-02, 4.79903892e-02,
          4.61008772e-02, 1.55818427e-03, 1.56658969e-03, 1.69298705e-03,
          1.56658969e-03, 5.97384851e-03, 3.78723256e-03, 5.99886198e-03,
          3.78723256e-03, 7.33804703e-02, 6.04422130e-02, 7.33804703e-02,
          6.04422130e-02, 3.36137079e-02, 3.37227434e-02, 3.36137079e-02,
          3.45826335e-02, -2.04348634e-03, -6.10422925e-04,
          2.41736881e-03, 2.10602768e-03, 7.74869919e-02, 1.46558313e-02,
          7.74869919e-02, 1.47504173e-02, 4.74530786e-01, 1.32275000e-01,
          4.74530786e-01, 1.56459570e-01, -8.13825577e-02,
          -4.04320061e-02, 1.02578335e-01, 8.38561580e-02,
          -1.15888212e-02, -1.06633436e-02, 1.15888212e-02,
          1.14403656e-02, 7.06483647e-02, -4.05616174e-03,
          7.06483647e-02, 9.61795915e-03, 3.67095202e-01,
          -2.30195209e-01, 3.67095202e-01, 2.30195209e-01,
          -5.70756495e-02, -1.45047352e-01, 7.64243007e-02,
          1.45047352e-01, -9.38506157e-04, -5.71551546e-03,
          4.78154188e-03, 5.75718703e-03, 6.47136848e-03,
          -4.96719731e-03, 6.47136848e-03, 4.96719731e-03,
          5.32573946e-02, -3.47191244e-02, 5.32573946e-02,
          3.47191244e-02, 1.72948297e-02, -1.46752261e-02,
          1.73130650e-02, 1.46752261e-02, -9.09719791e-04,
          -2.48480937e-03, 1.09082076e-03, 2.48480937e-03,
          -7.36494607e-04, 6.73722615e-03, 1.17818243e-03,
          6.73722615e-03, 4.01530899e-02, 4.19858247e-02, 4.01530899e-02,
          4.19858247e-02, 6.88285232e-02, 5.01884148e-02, 6.88285232e-02,
          5.01884148e-02, 6.11213408e-03, 5.87665010e-03, 6.11213408e-03,
          5.87665010e-03, -2.00692695e-02, 7.22821197e-03,
          2.00692695e-02, 7.71640195e-03, 2.91947633e-01, 8.90122540e-03,
          2.93122828e-01, 3.14572342e-02, 4.69151497e-01,
          -4.78173904e-02, 4.69151497e-01, 9.44826752e-02,
          3.61085758e-02, -1.07300365e-02, 3.61085758e-02,
          1.68413427e-02, -1.03729134e-02, 7.97876623e-03,
          1.14368433e-02, 8.81179329e-03, 2.28248835e-01, 1.05158664e-01,
          2.29424074e-01, 1.05158664e-01, 3.23221356e-01,
          -3.94582860e-02, 3.23221356e-01, 6.79113716e-02,
          3.83381955e-02, -2.23461967e-02, 3.83381955e-02,
          2.31099017e-02, 9.20269929e-04, 1.00473070e-03, 1.00773235e-03,
          1.02269638e-03, 2.55560335e-02, 6.85759261e-03, 2.55560335e-02,
          7.87564740e-03, 3.78294438e-02, 1.12618748e-02, 3.78294438e-02,
          1.22264642e-02, 4.99873748e-03, 2.35787570e-03, 4.99873748e-03,
          2.35863379e-03, 4.08561295e-03, 5.54041332e-03, 5.81065565e-03,
          5.72044449e-03, 3.27234045e-02, 1.04294512e-02, 3.28440741e-02,
          1.23260934e-02, -1.14467426e-03, 2.61050835e-02,
          1.77986640e-02, 2.80017275e-02, 3.18853161e-03, 9.87309963e-03,
          3.18853161e-03, 9.87309963e-03, 1.93182472e-02, 4.47026268e-02,
          2.16972791e-02, 4.47026268e-02, -1.28957853e-01,
          -6.89128116e-02, 1.58143625e-01, 1.55316934e-01,
          3.28453928e-01, -4.76502478e-02, 3.28453928e-01,
          9.52104628e-02, 2.44059041e-02, 2.14108508e-02, 2.80946642e-02,
          2.14108508e-02, -8.40018317e-03, -7.03104539e-04,
          1.46614676e-02, 1.60314497e-02, -2.02011824e-01,
          5.42937852e-02, 2.02011824e-01, 1.88137755e-01, 4.92823243e-01,
          1.22870833e-01, 4.92823243e-01, 1.57338083e-01, 3.44609432e-02,
          2.45318525e-02, 3.47366817e-02, 2.45318525e-02, 2.02800706e-03,
          9.82932467e-03, 2.02800706e-03, 9.82932467e-03,
          -7.49587314e-03, 1.08359970e-01, 9.43205040e-03,
          1.08359970e-01, 4.33690995e-02, 8.03042129e-02, 4.62226495e-02,
          8.12919140e-02, 4.58631385e-03, 4.27240599e-03, 5.36662200e-03,
          6.78029377e-03, 8.73979274e-03, -3.10778175e-03,
          8.73979274e-03, 3.12588667e-03, 5.19874953e-02,
          -2.26836465e-02, 5.19874953e-02, 2.26836465e-02,
          2.05329638e-02, -1.57129485e-02, 2.19638795e-02,
          1.57129485e-02, -2.20636977e-03, -1.18111318e-03,
          2.20636977e-03, 1.81263778e-03, 6.27640113e-02, 4.79764072e-03,
          6.27640113e-02, 1.03668934e-02, 3.57771099e-01, 8.97339806e-02,
          3.57771099e-01, 8.97339806e-02, 5.81200682e-02,
          -3.50862555e-02, 9.14792866e-02, 6.73100352e-02,
          2.69948761e-03, -1.70613695e-02, 5.51069714e-03,
          2.07990725e-02, 6.78626150e-02, -4.59620580e-02,
          6.78626150e-02, 4.59620580e-02, 3.59434813e-01,
          -3.48088086e-01, 3.59434813e-01, 3.48088086e-01,
          -2.77844612e-02, -2.69782126e-01, 6.87836558e-02,
          2.69782126e-01, 5.72887622e-03, -2.31365189e-02,
          1.39145302e-02, 3.04895323e-02, 4.46493924e-03,
          -5.56296529e-03, 4.50404454e-03, 5.60385874e-03,
          5.18308729e-02, -7.59837776e-02, 5.18308729e-02,
          7.59837776e-02, 4.85546701e-02, -4.90426198e-02,
          4.85546701e-02, 4.94930223e-02, 5.65808406e-03, 3.46184243e-03,
          5.66998776e-03, 4.12744284e-03, 1.01222713e-02,
          -5.53965522e-03, 1.01222713e-02, 5.53965522e-03,
          1.48158344e-02, -3.16697024e-02, 1.48158344e-02,
          3.17552164e-02, 1.04567511e-02, -2.97741946e-02,
          1.48379542e-02, 2.97990274e-02, 2.46053166e-03,
          -4.57910559e-04, 2.73443293e-03, 1.56051246e-03,
          6.62216917e-02, -2.72158943e-02, 6.62216917e-02,
          2.81344503e-02, 2.95391679e-01, 1.94081527e-04, 2.95391679e-01,
          1.38824105e-01, 4.89718616e-02, 1.49722397e-01, 6.53998181e-02,
          1.85131684e-01, 2.25711670e-02, -1.07118422e-02,
          2.25959998e-02, 1.07118422e-02, 5.13758026e-02,
          -1.76159702e-02, 5.16195856e-02, 1.86885130e-02,
          5.70760965e-01, -5.76086864e-02, 5.70760965e-01,
          1.02081358e-01, -2.81362645e-02, 7.33339638e-02,
          1.20610997e-01, 1.01021953e-01, -1.31665859e-02,
          -1.38795963e-02, 1.52257495e-02, 1.38795963e-02,
          8.83594900e-03, -6.09720685e-03, 8.83594900e-03,
          6.21713186e-03, 9.99349877e-02, -3.09012458e-02,
          9.99349877e-02, 3.10115907e-02, 1.33442208e-02,
          -6.96092332e-03, 3.18143219e-02, 9.25623626e-03,
          -5.50395250e-03, 2.21042748e-04, 5.50395250e-03,
          1.03145232e-03, 1.34242428e-02, 2.40759179e-03, 1.34287905e-02,
          2.41041859e-03, 8.33364576e-02, 1.16378777e-02, 8.33364576e-02,
          1.16378777e-02, -1.00094667e-02, -3.69949313e-03,
          1.87649019e-02, 4.44227504e-03, -2.87774345e-03,
          -2.46364158e-04, 2.87774345e-03, 2.47224641e-04,
          9.49945450e-02, 5.41323749e-03, 9.49945450e-02, 5.57393581e-03,
          4.97022510e-01, 1.85864046e-02, 4.97022510e-01, 2.35607177e-02,
          -1.15015417e-01, -5.17073981e-02, 1.22146174e-01,
          5.17073981e-02, -2.99022347e-02, -1.78084783e-02,
          2.99022347e-02, 1.78084783e-02, 9.68927965e-02, 9.57274530e-03,
          9.68927965e-02, 9.57274530e-03, 4.05512631e-01, 2.11423263e-03,
          4.05512631e-01, 3.10159102e-02, -1.80842966e-01,
          -7.67215192e-02, 1.80842966e-01, 7.72540346e-02,
          -3.36832665e-02, -1.22886626e-02, 3.36832665e-02,
          1.45203518e-02, 1.37142921e-02, 7.41289521e-04, 1.37142921e-02,
          7.75130349e-04, 5.14664724e-02, 7.66309164e-03, 5.14664724e-02,
          7.66309164e-03, -2.44357027e-02, 1.10052368e-02,
          2.44357027e-02, 1.10052368e-02, -4.43251245e-03,
          1.72164827e-03, 4.43251245e-03, 1.72164827e-03, 3.31847137e-03,
          1.02143630e-03, 3.35567002e-03, 1.03322649e-03, 5.48055023e-02,
          1.69330798e-02, 5.48055023e-02, 1.69330798e-02, 2.76185889e-02,
          1.48127107e-02, 2.85248067e-02, 1.48127107e-02,
          -2.02481658e-03, 1.04393973e-03, 2.02481658e-03,
          1.04393973e-03, 2.60873269e-02, -5.45570685e-04,
          2.64566503e-02, 3.02341045e-03, 4.42429096e-01, 2.26710141e-02,
          4.42429096e-01, 3.77139971e-02, 1.40771180e-01, 5.28793298e-02,
          1.68251753e-01, 5.28793298e-02, -1.46350572e-02,
          3.97336716e-03, 1.46350572e-02, 3.97336716e-03, 1.60571672e-02,
          -3.60196177e-03, 1.91989802e-02, 4.48480435e-03,
          4.82771277e-01, -5.72169609e-02, 4.82771277e-01,
          5.72169609e-02, 1.54967263e-01, -2.91084219e-02,
          1.77870080e-01, 3.10789235e-02, -1.43117998e-02,
          1.31665764e-03, 1.43117998e-02, 1.45789899e-03, 8.52882105e-04,
          3.83394508e-04, 1.68365100e-03, 5.11893770e-04, 6.33343160e-02,
          -1.43922456e-02, 6.33343160e-02, 1.43922456e-02,
          3.46622393e-02, -1.12078516e-02, 3.53895947e-02,
          1.12078516e-02, -2.19854410e-03, -3.34664452e-04,
          2.19854410e-03, 3.38330778e-04, 1.48683297e-03,
          -1.00139587e-03, 1.85394764e-03, 1.14801247e-03,
          8.31420626e-03, 2.44898126e-02, 9.90946870e-03, 2.48040017e-02,
          4.45315726e-02, 2.59268451e-02, 4.45315726e-02, 2.62836795e-02,
          7.91651569e-03, 3.34846135e-03, 7.91651569e-03, 3.34846135e-03,
          3.55454981e-02, -4.07569809e-03, 3.62699032e-02,
          5.00613265e-03, 2.34181225e-01, 1.38129547e-01, 2.34181225e-01,
          1.43465459e-01, 2.72237003e-01, 2.50445276e-01, 2.72237003e-01,
          2.50445276e-01, 3.12466454e-02, 1.90517697e-02, 3.25490646e-02,
          1.94718465e-02, 1.50204701e-02, -3.53939249e-03,
          2.14014556e-02, 8.41799285e-03, 3.80532116e-01,
          -1.37192085e-01, 3.80532116e-01, 1.37192085e-01,
          3.28401059e-01, -3.71177122e-02, 3.28401059e-01,
          9.56947580e-02, 1.00110145e-02, -2.31917808e-03,
          1.70529373e-02, 8.93565174e-03, -4.21784847e-04,
          8.94704310e-04, 1.82071817e-03, 9.24622349e-04, 4.77419570e-02,
          3.98605975e-04, 4.77419570e-02, 1.13359392e-02, 4.71432395e-02,
          -1.95927545e-02, 4.71432395e-02, 2.07668431e-02,
          2.43790424e-03, -3.59755824e-03, 2.94449111e-03,
          3.59815173e-03, 2.12338865e-02, 8.86911899e-03, 2.12338865e-02,
          8.86911899e-03, 6.97773173e-02, 1.98978949e-02, 6.97773173e-02,
          2.19484940e-02, 6.86720479e-03, -5.44747896e-03,
          9.01118666e-03, 7.32709514e-03, -2.44918349e-03,
          2.05560680e-03, 2.44918349e-03, 2.05560680e-03, 1.23441592e-01,
          3.84668037e-02, 1.23441592e-01, 3.84668037e-02, 3.38311434e-01,
          1.83797956e-01, 3.38311434e-01, 1.83797956e-01,
          -1.00929271e-02, 1.96057707e-01, 3.09982263e-02,
          1.96057707e-01, -1.63297262e-03, 1.79760884e-02,
          3.66237387e-03, 1.79760884e-02, 9.20247510e-02,
          -2.00079866e-02, 9.20247510e-02, 2.26707179e-02,
          4.49642777e-01, -2.11814314e-01, 4.49642777e-01,
          2.11814314e-01, 8.85867029e-02, 4.46344130e-02, 1.12286553e-01,
          1.09976821e-01, -8.05643573e-03, 2.35729069e-02,
          8.05643573e-03, 2.35729069e-02, 7.67467590e-03,
          -5.42428950e-03, 7.68351136e-03, 5.43491822e-03,
          7.53565654e-02, -6.36921078e-02, 7.53565654e-02,
          6.36921078e-02, 5.48993647e-02, -5.55333234e-02,
          5.48993647e-02, 5.55333234e-02, 1.10392936e-03,
          -2.23626546e-03, 1.49459695e-03, 2.85376306e-03,
          -1.18761891e-02, 5.74940490e-03, 1.19426344e-02,
          5.74940490e-03, 3.72683071e-02, -4.02956307e-02,
          4.45378013e-02, 4.02956307e-02, 3.66513170e-02,
          -2.91733798e-02, 3.69854867e-02, 2.97243800e-02,
          5.26677526e-04, 9.54347081e-04, 5.53455495e-04, 9.64279985e-04,
          -9.49654281e-02, 2.72970763e-03, 9.49654281e-02,
          2.22923290e-02, -4.49548922e-02, 7.68537521e-02,
          2.59002328e-01, 1.76888034e-01, 4.69748914e-01,
          -7.71575272e-02, 4.69748914e-01, 9.30937678e-02,
          1.26635320e-02, -3.77018470e-03, 1.46876089e-02,
          6.64381823e-03, -9.86258965e-03, -2.75379885e-02,
          2.66242754e-02, 2.75379885e-02, -5.53778261e-02,
          3.04362625e-01, 1.09447517e-01, 3.04362625e-01, 2.59549648e-01,
          1.77559048e-01, 2.59549648e-01, 1.87075004e-01, 1.08948424e-02,
          -5.05842920e-03, 1.19617861e-02, 9.37758852e-03,
          3.39762494e-03, 4.06495854e-03, 4.73618042e-03, 4.06495854e-03,
          2.18887068e-02, 2.22886093e-02, 2.18887068e-02, 2.22886093e-02,
          4.78268694e-03, 2.25151349e-02, 5.17452322e-03, 2.25151349e-02,
          8.03635994e-05, 1.36613043e-03, 3.95295356e-04, 1.36613043e-03,
          6.50070980e-03, -1.70704257e-03, 6.50070980e-03,
          1.73177349e-03, 2.04648599e-02, 7.79333990e-03, 2.04648599e-02,
          1.01565365e-02, 2.29558256e-02, 2.34862641e-02, 2.29558256e-02,
          2.34862641e-02, 1.04365777e-03, 3.04183713e-03, 1.04365777e-03,
          3.04183713e-03, 5.01260348e-02, -1.32927727e-02,
          5.01260348e-02, 1.32927727e-02, 3.64105105e-01, 5.99544682e-02,
          3.64105105e-01, 8.05765390e-02, 1.66184828e-01, 1.71229064e-01,
          1.66866839e-01, 1.71229064e-01, 1.47348549e-03, 1.64220743e-02,
          2.85436097e-03, 1.64220743e-02, 4.81567234e-02,
          -1.28089264e-02, 4.81567234e-02, 1.28089264e-02,
          4.87912148e-01, -1.19458266e-01, 4.87912148e-01,
          1.21166728e-01, 1.68726325e-01, -7.02698082e-02,
          1.73903480e-01, 8.97724554e-02, -4.53043409e-04,
          -3.32361157e-03, 4.53221938e-03, 4.32325341e-03,
          3.76045448e-03, -2.74630683e-03, 3.77042661e-03,
          2.75108241e-03, 6.19308315e-02, -4.68961112e-02,
          6.19308315e-02, 4.68961112e-02, 4.70974445e-02,
          -3.94455157e-02, 4.70974445e-02, 3.94455157e-02,
          2.60333973e-03, -5.85975125e-04, 2.60333973e-03,
          1.11625448e-03, -1.13876620e-02, -1.18081160e-02,
          1.13876620e-02, 1.18081160e-02, 1.33370602e-04,
          -1.43755497e-02, 2.12396737e-02, 1.82585008e-02,
          1.37404548e-02, 7.60007557e-03, 1.41433487e-02, 8.12507793e-03,
          6.10921561e-05, -7.66422017e-04, 2.25325537e-04,
          8.29991302e-04, -1.68929706e-04, -8.79891962e-02,
          3.42190564e-02, 8.79891962e-02, 3.46996278e-01,
          -1.17501743e-01, 3.48909229e-01, 1.21502966e-01,
          5.78021258e-02, -2.39926558e-02, 9.89164710e-02,
          4.52475548e-02, -4.92835278e-03, -1.24495290e-02,
          5.81269991e-03, 1.24495290e-02, 8.00251812e-02,
          -2.90425438e-02, 8.12544301e-02, 3.03814895e-02,
          5.53066909e-01, 6.35892153e-02, 5.53066909e-01, 8.15702528e-02,
          2.03816611e-02, 1.09266251e-01, 1.29906237e-01, 1.09266251e-01,
          -1.19369309e-02, 5.42609533e-03, 1.27147259e-02,
          5.42609533e-03, 1.48358364e-02, 2.14052433e-03, 1.48358364e-02,
          2.14052433e-03, 8.50462243e-02, 6.86408195e-04, 8.50462243e-02,
          7.55837606e-03, -5.69376210e-03, -1.35905696e-02,
          1.77342258e-02, 1.35905696e-02, -2.22058920e-03,
          -1.22551515e-03, 2.41422537e-03, 1.22551515e-03,
          4.19718958e-03, -5.90919703e-03, 5.46813849e-03,
          5.90919703e-03, 1.44995647e-02, -1.03404168e-02,
          2.00861711e-02, 1.07520912e-02, -1.29546467e-02,
          -7.13459915e-03, 1.29546467e-02, 7.13459915e-03,
          1.19430304e-03, -8.77910701e-04, 1.19430304e-03,
          8.77910701e-04, 8.88716504e-02, -4.72662933e-02,
          8.92499313e-02, 4.72662933e-02, 3.20057541e-01, 5.08924611e-02,
          3.21969151e-01, 9.94357616e-02, -1.34539708e-01,
          1.34136781e-01, 1.34539708e-01, 1.34136781e-01,
          -6.37420726e-06, 2.57058325e-03, 6.22604880e-03,
          3.73394554e-03, 1.28572494e-01, -3.26393098e-02,
          1.28572494e-01, 3.26393098e-02, 5.02552807e-01,
          -1.55386776e-01, 5.02552807e-01, 1.55386776e-01,
          -1.76403821e-01, -9.67588127e-02, 1.76403821e-01,
          1.13919467e-01, -7.97328167e-03, -1.16805704e-02,
          1.17032500e-02, 1.16805704e-02, 1.69796776e-02,
          -3.15687177e-03, 1.69796776e-02, 3.17625352e-03,
          7.49586299e-02, -2.79576406e-02, 7.49586299e-02,
          2.79576406e-02, -5.13624493e-03, -8.73455498e-03,
          1.02204094e-02, 1.35595510e-02, -1.53385379e-04,
          1.90739415e-03, 8.09068675e-04, 1.90739415e-03,
          -3.16596241e-04, 3.92026450e-05, 3.16596241e-04,
          3.92026450e-05, 1.03498558e-02, 1.63602699e-02, 1.03498558e-02,
          1.63602699e-02, 1.88000854e-02, 4.31069992e-02, 2.06414182e-02,
          4.31069992e-02, -5.32886805e-03, 9.40358441e-04,
          5.32886805e-03, 1.62436301e-03, 6.31940132e-03, 9.38609894e-03,
          1.63708441e-02, 9.38609894e-03, 3.45645368e-01, 1.98212624e-01,
          3.45645368e-01, 1.98212624e-01, 3.26083712e-02, 2.65217125e-01,
          2.49089420e-01, 2.65217125e-01, -9.37021077e-02,
          -4.04385210e-04, 9.37021077e-02, 1.87045373e-02,
          -1.05978586e-02, 3.24216112e-03, 1.05978586e-02,
          3.24216112e-03, 3.46003890e-01, -1.48613989e-01,
          3.46003890e-01, 1.48613989e-01, 4.02690321e-02,
          -2.19025746e-01, 2.31636822e-01, 2.19025746e-01,
          -9.11218449e-02, 9.57273226e-03, 9.11218449e-02,
          1.51339918e-02, -3.41797434e-03, 1.77153677e-03,
          3.41797434e-03, 1.92966836e-03, 2.35244725e-02,
          -6.78649172e-03, 2.36416161e-02, 1.15750683e-02,
          1.11101316e-02, -2.37884466e-02, 1.66798979e-02,
          2.37884466e-02, -8.06108117e-03, -6.33207324e-04,
          8.06108117e-03, 1.45412073e-03, 8.08169693e-03,
          -2.27038283e-03, 8.08169693e-03, 2.44751852e-03,
          1.96259599e-02, 1.59688145e-02, 1.96259599e-02, 1.65290143e-02,
          5.84638119e-03, 5.65134501e-03, 5.84638119e-03, 5.65134501e-03,
          0., 0., 0., 0., 1.34243160e-01, -4.35354039e-02,
          1.34243160e-01, 4.35354039e-02, 2.56519526e-01, 1.72168329e-01,
          2.56519526e-01, 1.82287246e-01, -1.05511211e-01,
          1.57702610e-01, 1.05511211e-01, 1.57702610e-01,
          -2.03351094e-03, 1.19903439e-03, 4.15661093e-03,
          4.35200846e-03, 2.12489948e-01, -6.48254752e-02,
          2.12489948e-01, 6.48254752e-02, 4.85949010e-01,
          -6.83017969e-02, 4.85949010e-01, 1.11816399e-01,
          -1.87573344e-01, 1.77458804e-02, 1.87573344e-01,
          7.26874694e-02, -1.16909957e-02, 5.96171804e-03,
          1.53505327e-02, 5.96171804e-03, 3.54094617e-02,
          -1.05139017e-02, 3.54094617e-02, 1.05139017e-02,
          9.52318460e-02, -4.63043004e-02, 9.88845527e-02,
          4.63043004e-02, -9.90677066e-03, -2.56835669e-02,
          1.43674314e-02, 2.56835669e-02, -3.95090174e-04,
          -1.16961985e-03, 1.44755654e-03, 1.21009257e-03,
          1.01048714e-02, -3.61950789e-03, 1.01048714e-02,
          3.61950789e-03, 1.60390362e-02, 1.28979015e-03, 1.68672856e-02,
          7.89875258e-03, -8.60687438e-03, 3.37353465e-03,
          9.10176523e-03, 5.95696596e-03, -5.64929610e-03,
          -1.83066109e-03, 5.64929610e-03, 1.83066109e-03,
          8.19030255e-02, -1.81979761e-02, 8.19030255e-02,
          1.81979761e-02, 2.83663094e-01, 4.93216328e-02, 2.83663094e-01,
          7.17120320e-02, -1.95630461e-01, 6.90331608e-02,
          1.95630461e-01, 7.53338337e-02, -4.98236977e-02,
          -1.22764315e-02, 4.98236977e-02, 1.22764315e-02,
          8.02562684e-02, -1.96345281e-02, 8.02562684e-02,
          1.96345281e-02, 4.56711143e-01, -6.78064227e-02,
          4.56711143e-01, 8.14223066e-02, -3.42855930e-01,
          -6.12030998e-02, 3.42855930e-01, 8.67810696e-02,
          -5.75762801e-02, -2.66127530e-02, 5.75762801e-02,
          2.66127530e-02, 8.73178244e-03, -2.65066978e-03,
          8.83727614e-03, 2.72543868e-03, 6.99339136e-02,
          -3.83391082e-02, 6.99897707e-02, 3.83391082e-02,
          -6.49158582e-02, -5.53718992e-02, 6.49158582e-02,
          5.53718992e-02, -5.84435416e-03, -5.26513020e-03,
          5.88061241e-03, 5.26513020e-03, 1.40943173e-02,
          -4.21673153e-03, 1.40943173e-02, 4.21673153e-03,
          -6.53525721e-03, -3.07021998e-02, 2.74052192e-02,
          3.08550783e-02, -8.50474387e-02, 5.80634065e-02,
          8.50474387e-02, 5.80634065e-02, -2.19882168e-02,
          2.87802350e-02, 2.19882168e-02, 2.87851412e-02, 9.41972286e-02,
          -7.25454232e-03, 9.41972286e-02, 7.25454232e-03,
          -5.19537479e-02, -9.76096019e-02, 1.16410658e-01,
          9.76096019e-02, 2.50787526e-01, 1.12290196e-01, 2.94924796e-01,
          1.89620286e-01, 1.88895985e-02, 1.37445673e-01, 4.62882705e-02,
          1.37445673e-01, 1.03376634e-01, -2.02211384e-02,
          1.03376634e-01, 2.02211384e-02, -7.49031827e-02,
          -3.80549841e-02, 1.54740497e-01, 5.82167618e-02,
          5.51569283e-01, -1.39436591e-02, 5.51569283e-01,
          2.50197072e-02, 5.32570481e-02, -4.66908142e-03,
          5.32570481e-02, 1.00776963e-02, 1.84642598e-02,
          -8.08642304e-04, 1.84642598e-02, 1.15800055e-03,
          -4.20533400e-03, 1.38481315e-02, 2.67010126e-02,
          1.38481315e-02, 6.09097481e-02, -6.24897704e-03,
          6.09097481e-02, 1.10544711e-02, 6.06888626e-03,
          -5.17253717e-03, 6.28547929e-03, 5.17253717e-03,
          -2.03430490e-03, -2.98137264e-03, 2.03430490e-03,
          3.11276922e-03, -4.87221126e-03, -8.45658593e-03,
          4.87221126e-03, 8.45658593e-03, 1.03208869e-04,
          -5.62699512e-04, 3.86069948e-03, 3.89005081e-03,
          -1.14935319e-05, 1.17815030e-03, 3.47103429e-04,
          1.22158346e-03, 1.58632901e-02, -5.89807257e-02,
          2.43370496e-02, 5.89807257e-02, 1.74376145e-01,
          -1.74108632e-02, 1.82023913e-01, 1.44399315e-01,
          2.39463747e-02, 1.81537122e-01, 2.56090760e-02, 1.81537122e-01,
          -4.16619796e-03, 2.05710214e-02, 5.61049348e-03,
          2.05710214e-02, 2.15072129e-02, -3.65636349e-02,
          4.75358590e-02, 3.87837701e-02, 6.22877002e-01,
          -4.50709340e-05, 6.22877002e-01, 1.32119194e-01,
          -1.13365930e-02, 1.04252569e-01, 1.61379576e-02,
          1.04252569e-01, -1.49275577e-02, 9.57354624e-03,
          1.49275577e-02, 1.01254527e-02, 4.45893919e-03, 2.10584770e-03,
          9.35633574e-03, 2.18289532e-03, 9.03928801e-02,
          -3.37633188e-03, 9.03928801e-02, 2.49879044e-02,
          8.52544385e-04, -9.51102283e-03, 4.83206986e-03,
          1.56911071e-02, -3.46780545e-03, -1.16845523e-03,
          3.46780545e-03, 1.16845523e-03, -1.00843154e-03,
          -6.38884073e-03, 1.39739632e-03, 6.38884073e-03,
          3.02638300e-02, -4.28783260e-02, 3.05434074e-02,
          4.53045852e-02, 4.16990556e-03, 4.11234703e-03, 1.14833526e-02,
          1.93396397e-02, -1.20572385e-03, 2.43629515e-03,
          1.20572385e-03, 2.43629515e-03, -3.57433520e-02,
          -3.30130719e-02, 3.57433520e-02, 3.30130719e-02,
          2.87753463e-01, -2.63513744e-01, 2.95475364e-01,
          2.65710235e-01, 3.17155808e-01, -2.34160155e-01,
          3.17616850e-01, 2.35543355e-01, 9.97611322e-04,
          -1.09963045e-02, 7.89718330e-03, 1.43079758e-02,
          -1.75737944e-02, -1.19192721e-02, 2.00009011e-02,
          1.23398863e-02, 2.92520404e-01, 8.17071572e-02, 2.92520404e-01,
          9.23833475e-02, 2.78999299e-01, 5.13555706e-02, 2.78999299e-01,
          1.13021024e-01, 6.69268798e-03, -9.59165022e-03,
          6.69268798e-03, 1.03035802e-02, 9.20728664e-04, 5.29078883e-04,
          2.41791178e-03, 1.09319494e-03, 5.43838590e-02, 1.77876242e-02,
          5.43838590e-02, 1.77876242e-02, 2.30487753e-02, 1.01816645e-02,
          2.32670661e-02, 1.02269575e-02, 4.42712808e-05, 9.31230807e-06,
          5.10208883e-05, 1.96110195e-05 ]
      - [ 0., 0., 0., 0., -4.70232079e-03, -7.16934772e-03,
          4.70232079e-03, 7.16934772e-03, -3.42075690e-03,
          -1.79954879e-02, 1.41790146e-02, 1.84506327e-02,
          2.71315454e-03, -1.78126141e-03, 2.71315454e-03,
          2.26541306e-03, -9.22081806e-03, -7.19128689e-03,
          9.22081806e-03, 1.14713944e-02, -1.52280778e-01,
          -1.60432413e-01, 1.52280778e-01, 1.67206571e-01,
          2.14414522e-01, -4.35724705e-02, 2.19557494e-01,
          1.76703647e-01, -2.25387979e-02, 7.09778350e-03,
          3.62042226e-02, 4.29342054e-02, -1.30904866e-02,
          -1.66687444e-02, 1.30904866e-02, 1.83773953e-02,
          -1.85214147e-01, -1.15335017e-01, 2.31207117e-01,
          1.18039310e-01, 4.84751374e-01, 4.86886203e-02, 5.30786037e-01,
          6.90589771e-02, -2.16896236e-01, -9.70877260e-02,
          2.16896236e-01, 9.70877260e-02, 4.99271528e-06,
          -9.36235574e-06, 4.99271528e-06, 9.36235574e-06,
          -1.33063039e-02, 2.23974138e-02, 2.93560419e-02,
          2.23974138e-02, 5.25846966e-02, 1.40035292e-02, 7.29366988e-02,
          2.03602798e-02, -4.46402133e-02, 2.61217868e-03,
          4.46402133e-02, 5.26273157e-03, 1.35670579e-03,
          -2.98763951e-03, 1.92019239e-03, 3.68604762e-03,
          -5.07275574e-03, 1.15706027e-03, 5.48607344e-03,
          2.75719445e-03, 7.55557185e-03, 7.77584792e-04, 7.58327171e-03,
          1.74577592e-03, 1.26231601e-03, 1.13799050e-03, 1.26231601e-03,
          1.13799050e-03, 6.84727654e-02, -6.46414161e-02,
          6.84727654e-02, 6.46414161e-02, 1.84398159e-01,
          -1.53704099e-02, 1.91395998e-01, 1.29568011e-01,
          3.95284630e-02, 1.56444162e-01, 3.95284630e-02, 1.56444162e-01,
          3.48146772e-03, 1.21996272e-02, 5.66056743e-03, 1.22690154e-02,
          9.23301503e-02, -3.80574577e-02, 9.23301503e-02,
          5.07493690e-02, 6.07154608e-01, 4.93150158e-03, 6.07154608e-01,
          1.67580530e-01, 1.56297558e-03, 1.31007999e-01, 7.34005794e-02,
          1.36366069e-01, -1.40329031e-02, -1.99914631e-03,
          1.40329031e-02, 6.26605609e-03, 1.57237835e-02, 1.35249430e-02,
          1.57237835e-02, 1.35249430e-02, 6.81930631e-02, 3.36477570e-02,
          6.85537010e-02, 3.58459391e-02, -1.73725858e-02,
          -1.63450707e-02, 2.12731808e-02, 1.63450707e-02,
          -2.22289935e-03, -1.61347713e-03, 2.23707291e-03,
          1.62408606e-03, -1.80017005e-03, -6.07198151e-03,
          1.82498014e-03, 6.09051855e-03, 7.56912492e-03,
          -4.19703275e-02, 8.81552510e-03, 4.20722626e-02,
          1.86651126e-02, -2.39066221e-02, 1.86651126e-02,
          2.49015391e-02, 2.09212024e-03, 7.29064108e-04, 2.15152814e-03,
          1.00659847e-03, -1.83712654e-02, -3.67383733e-02,
          1.83712654e-02, 3.67383733e-02, 3.69362533e-02,
          -2.81366229e-01, 4.50377688e-02, 2.81366229e-01,
          3.14240754e-01, -2.32204929e-01, 3.14240754e-01,
          2.32204929e-01, 3.94063294e-02, -6.98056445e-03,
          3.99415605e-02, 7.10671768e-03, -1.91952288e-02,
          -1.74288526e-02, 1.91952288e-02, 1.86498612e-02,
          6.93325698e-02, -9.32033211e-02, 8.80036056e-02,
          1.23275921e-01, 4.71311629e-01, 8.36740732e-02, 4.71311629e-01,
          1.16374195e-01, 3.27712558e-02, 2.90695741e-03, 3.43281254e-02,
          6.36192691e-03, -5.61686512e-03, 3.70529760e-03,
          5.61686512e-03, 3.70529760e-03, 3.85729745e-02, 2.75496449e-02,
          3.98738049e-02, 2.75496449e-02, 6.66327551e-02, 3.28917094e-02,
          6.66327551e-02, 3.28917094e-02, 1.06627436e-03, 5.68588206e-04,
          1.40530232e-03, 7.67790305e-04, 2.09215470e-03,
          -6.97762566e-03, 2.19185324e-03, 6.97762566e-03,
          1.92924570e-02, -3.89699154e-02, 1.93130895e-02,
          3.89699154e-02, 3.66223082e-02, -6.54549710e-03,
          3.66449244e-02, 1.40516032e-02, 4.94845212e-03, 2.20291736e-03,
          5.00395475e-03, 2.22573639e-03, -2.57836096e-03,
          -1.16933016e-02, 8.17678589e-03, 1.31020071e-02,
          1.62865907e-01, -1.94283366e-01, 1.63428545e-01,
          1.94283366e-01, 4.43893284e-01, -1.73937097e-01,
          4.43893284e-01, 1.73937097e-01, 3.36637087e-02,
          -2.33999752e-02, 3.41908969e-02, 2.33999752e-02,
          -7.10955495e-03, 1.30085135e-02, 8.22896138e-03,
          1.30085135e-02, 1.64145947e-01, 1.71978205e-01, 1.66347191e-01,
          1.71978205e-01, 3.59886587e-01, 1.06789567e-01, 3.59886587e-01,
          1.18061326e-01, 2.68013850e-02, -9.97406803e-03,
          2.68013850e-02, 1.13604413e-02, 7.11533881e-04, 6.51920447e-03,
          1.24872697e-03, 6.51920447e-03, 2.18160432e-02, 4.25064564e-02,
          2.18160432e-02, 4.25064564e-02, 1.93847977e-02, 1.16138048e-02,
          1.96093097e-02, 1.37994308e-02, 3.35239433e-03,
          -6.01298932e-04, 3.35239433e-03, 8.37211090e-04,
          3.00007802e-03, 1.49309495e-03, 3.00007802e-03, 1.57961389e-03,
          1.12122064e-02, 3.06135807e-02, 1.12122064e-02, 3.08626536e-02,
          -1.08589586e-02, 2.53370777e-02, 1.12645254e-02,
          2.71146242e-02, 1.01820775e-03, 1.51633882e-04, 1.86402595e-03,
          1.75310718e-03, 3.97931710e-02, 2.46279128e-02, 3.97931710e-02,
          2.46279128e-02, 2.71212250e-01, 3.00030887e-01, 2.71212250e-01,
          3.00030887e-01, -1.70126542e-01, 4.46263164e-01,
          1.81407243e-01, 4.46263164e-01, -4.37285490e-02,
          3.64846177e-02, 4.37285490e-02, 3.70927937e-02, 3.85389253e-02,
          1.79475602e-02, 3.85389253e-02, 1.79475602e-02, 2.61119217e-01,
          -7.24970549e-02, 2.61119217e-01, 9.56814811e-02,
          -1.90588143e-02, -5.02634533e-02, 1.41770616e-01,
          9.89094824e-02, -4.15125415e-02, 4.60808203e-02,
          4.32974994e-02, 4.60808203e-02, 2.88227806e-03, 1.28639722e-03,
          2.88227806e-03, 3.01928679e-03, 1.67802535e-02, 5.75291109e-04,
          1.67802535e-02, 1.14423595e-02, 3.07927933e-02, 8.53070896e-03,
          3.07927933e-02, 1.12267043e-02, 4.93698893e-03, 7.55454460e-03,
          5.29036485e-03, 7.59493839e-03, -1.50865130e-03,
          -2.50070752e-03, 1.85409421e-03, 2.50070752e-03,
          1.51125817e-02, -4.51488234e-03, 2.10845098e-02,
          2.13509668e-02, 1.24728121e-01, -6.42257407e-02,
          1.24728121e-01, 6.54526874e-02, 1.79416239e-02,
          -3.65336519e-03, 1.86682120e-02, 9.92946699e-03,
          7.97443136e-05, -8.75994842e-03, 1.15205701e-02,
          1.52801769e-02, 2.97819167e-01, 1.88471422e-01, 2.97819167e-01,
          1.97502047e-01, 1.54185534e-01, 1.20042585e-01, 2.57219374e-01,
          2.48919740e-01, 1.59567922e-01, -8.39312673e-02,
          1.59696460e-01, 8.39312673e-02, -2.22427631e-03,
          2.88063902e-02, 4.75503411e-03, 2.88063902e-02, 2.50034630e-01,
          -1.81115121e-01, 2.61960119e-01, 2.14337200e-01,
          1.36419773e-01, -1.13868080e-01, 1.87464431e-01,
          2.34091714e-01, 1.32370576e-01, 5.95540181e-02, 1.32370576e-01,
          7.51494691e-02, -2.88421987e-03, 2.66908109e-03,
          2.88938731e-03, 2.67424830e-03, -2.97465944e-04,
          8.08954425e-03, 3.02611478e-02, 2.92482749e-02, 1.69999421e-01,
          1.31775036e-01, 1.69999421e-01, 1.31775036e-01, 2.23830827e-02,
          3.21533680e-02, 2.25429032e-02, 3.21950689e-02, 2.59751617e-03,
          8.46950430e-03, 2.60376954e-03, 8.46950430e-03, 1.01181651e-02,
          6.30010590e-02, 1.01181651e-02, 6.30010590e-02, 4.48202603e-02,
          4.89221998e-02, 4.48202603e-02, 4.89221998e-02,
          -2.16125371e-03, 1.09515963e-02, 5.58206672e-03,
          1.09515963e-02, 4.96083014e-02, -4.78372760e-02,
          5.15996590e-02, 5.01702540e-02, 1.78223014e-01, 1.92971248e-02,
          1.78223014e-01, 1.60212830e-01, 1.98600024e-01, 1.57080233e-01,
          1.98600024e-01, 1.60861596e-01, -1.51412922e-03,
          -1.00917174e-02, 2.90746931e-02, 1.82670373e-02,
          3.59376781e-02, 1.09785115e-02, 4.19996344e-02, 2.96088029e-02,
          4.85641271e-01, -6.63314089e-02, 4.85641271e-01,
          1.44833043e-01, 2.68788248e-01, 1.85352385e-01, 2.68788248e-01,
          1.91019371e-01, -2.06088200e-02, 4.85079996e-02,
          2.42858268e-02, 4.93309125e-02, 2.28737574e-03, 5.46903349e-03,
          2.50815949e-03, 5.85311977e-03, 6.81373999e-02, 4.19389009e-02,
          6.81373999e-02, 4.19752039e-02, 7.74686038e-02, 4.99551482e-02,
          7.74686038e-02, 4.99551482e-02, 5.18439279e-04, 1.06907003e-02,
          5.97343640e-03, 1.07887797e-02, -2.65144953e-03,
          -2.77098012e-03, 3.03181331e-03, 3.08924261e-03,
          4.03826609e-02, -3.55067216e-02, 4.03826609e-02,
          3.55067216e-02, 5.24832271e-02, -1.86497793e-02,
          5.24832271e-02, 1.96601059e-02, 7.46165914e-03, 2.53150123e-03,
          7.46280048e-03, 2.53150123e-03, -1.99923366e-02,
          3.49892117e-02, 1.99923366e-02, 3.49892117e-02, 1.70148909e-01,
          2.03086272e-01, 1.70148909e-01, 2.04855904e-01, 4.09320652e-01,
          9.98221263e-02, 4.09320652e-01, 1.09660096e-01, 7.44882002e-02,
          1.73916314e-02, 7.44882002e-02, 1.74627658e-02,
          -1.27964644e-02, -8.91236681e-03, 1.29608708e-02,
          1.06749376e-02, 8.63094181e-02, -1.37427866e-01,
          1.05785444e-01, 1.37427866e-01, 4.33522224e-01,
          -8.05181488e-02, 4.33522224e-01, 8.86985809e-02,
          7.67481476e-02, -1.94252841e-03, 7.70131275e-02,
          4.56146477e-03, -4.78471210e-03, -2.28435756e-03,
          4.78471210e-03, 2.33319215e-03, 3.30351107e-02, 1.06523214e-02,
          3.56684774e-02, 1.85565464e-02, 7.23836273e-02, 3.29742879e-02,
          7.23836273e-02, 3.29742879e-02, 7.44180055e-03, 6.14624005e-04,
          8.18239246e-03, 2.15658126e-03, -1.13611296e-03,
          1.17294223e-03, 1.22125586e-03, 1.17294223e-03, 5.31766098e-03,
          9.85474046e-03, 1.90074984e-02, 1.24085238e-02, 8.04521069e-02,
          5.91750315e-04, 8.04521069e-02, 1.68491639e-02,
          -4.34562471e-03, -2.59505538e-03, 4.34562471e-03,
          2.59505538e-03, -5.86325477e-04, 1.05879433e-03,
          7.79773341e-04, 1.05879433e-03, 1.50174797e-01, 1.24101855e-01,
          1.65558875e-01, 1.24101855e-01, 4.76414293e-01, 1.51497975e-01,
          4.80372339e-01, 1.79314375e-01, -5.42406589e-02,
          6.01867912e-04, 5.42406589e-02, 1.45706898e-02,
          -1.45163701e-03, 6.94605638e-04, 2.95495754e-03,
          3.00067943e-03, 1.64878890e-01, -7.64459670e-02,
          1.69151172e-01, 7.78050721e-02, 2.81439811e-01,
          -2.66265780e-01, 2.94950992e-01, 2.66265780e-01,
          -4.91142720e-02, -4.85361144e-02, 4.91142720e-02,
          4.85361144e-02, -6.76445838e-04, 2.18484565e-04,
          6.80202618e-04, 2.18484565e-04, 7.93077052e-03, 2.17357930e-03,
          9.11547430e-03, 5.53313456e-03, 1.30875744e-02,
          -1.62352175e-02, 1.40122632e-02, 1.66203249e-02,
          -3.57162673e-03, -2.11620959e-03, 3.57162673e-03,
          2.20243447e-03, -5.50803496e-04, -7.80030573e-03,
          2.27582129e-03, 8.25142860e-03, 1.34329321e-02, 8.28228146e-03,
          1.49236526e-02, 2.24936139e-02, -1.13956267e-02,
          8.94344877e-03, 2.01570690e-02, 1.57012008e-02,
          -5.98313939e-03, 2.60028848e-03, 6.11391477e-03,
          5.12017077e-03, 1.36941476e-02, -2.33359616e-02,
          4.41480018e-02, 3.94507907e-02, 4.56965029e-01,
          -3.31950537e-03, 4.56965029e-01, 1.10969901e-01,
          -8.53474811e-02, 8.59542638e-02, 8.53474811e-02,
          9.35446620e-02, -3.34458542e-03, 2.43276227e-02,
          4.15350357e-03, 2.49874722e-02, -1.37054417e-02,
          5.71451187e-02, 3.23405005e-02, 5.93019426e-02, 2.27000535e-01,
          -7.40900561e-02, 2.63573974e-01, 1.96755469e-01,
          -1.19573183e-01, -3.93324286e-01, 1.19573183e-01,
          3.93324286e-01, -7.46956887e-03, -6.49391338e-02,
          7.46956887e-03, 6.49391338e-02, -8.72938777e-04,
          -9.98552795e-03, 1.28569943e-03, 9.98552795e-03,
          -1.09436586e-02, -5.35913669e-02, 1.33744292e-02,
          5.35913669e-02, -2.72822883e-02, -4.58044447e-02,
          2.72822883e-02, 4.58044447e-02, -1.11974264e-03,
          -5.94409415e-03, 1.12632464e-03, 5.94409415e-03,
          1.53386820e-04, 9.94969974e-04, 2.34627514e-04, 9.95618757e-04,
          5.11102099e-03, 7.91948568e-03, 5.11102099e-03, 8.32082052e-03,
          5.53835034e-02, 2.68273205e-02, 5.53835034e-02, 2.69081797e-02,
          5.89935482e-03, 3.85533576e-03, 6.54078322e-03, 4.11824882e-03,
          2.46664393e-03, 1.95878628e-03, 2.53678230e-03, 2.53851758e-03,
          1.06434494e-01, 3.66950557e-02, 1.06434494e-01, 3.76126021e-02,
          4.76696074e-01, 9.71734747e-02, 4.76696074e-01, 9.91850644e-02,
          -6.11649174e-03, -4.82015777e-03, 3.03683188e-02,
          1.27326036e-02, -5.05006465e-04, 6.42367592e-03,
          2.60307058e-03, 6.42367592e-03, 9.02247503e-02,
          -2.72089168e-02, 1.01575740e-01, 3.30574848e-02,
          4.73209143e-01, -8.34501162e-02, 4.73209143e-01,
          8.80469531e-02, -2.01921072e-02, -1.31136756e-02,
          2.25749370e-02, 1.33972690e-02, -7.27717066e-04,
          8.85457848e-04, 7.53543514e-04, 8.85457848e-04,
          -1.76888029e-03, 3.06501682e-03, 1.14863804e-02,
          5.55121014e-03, 5.93026578e-02, -9.56431683e-03,
          5.93026578e-02, 1.54988598e-02, -1.76883198e-03,
          -1.77852612e-03, 2.76291813e-03, 2.22480623e-03,
          -7.44051067e-03, -7.25783873e-04, 7.62433233e-03,
          2.03678082e-03, -1.39361632e-03, 5.15815616e-03,
          3.36078331e-02, 2.16845721e-02, 5.66613860e-02, 4.24669050e-02,
          5.66613860e-02, 4.28773463e-02, 4.31680866e-03, 5.11128502e-03,
          4.31680866e-03, 5.13451733e-03, -5.56903929e-02,
          2.77392901e-02, 5.56903929e-02, 2.77392901e-02, 1.22702993e-01,
          2.44252458e-01, 2.25021094e-01, 2.44252458e-01, 3.54534596e-01,
          1.82172209e-01, 3.54534596e-01, 1.82172209e-01,
          -1.93548054e-02, -2.33206246e-03, 2.30633635e-02,
          1.16930911e-02, -4.81971093e-02, -1.80977173e-02,
          4.81971093e-02, 2.20854115e-02, 4.85717803e-02,
          -1.61404923e-01, 1.89125329e-01, 1.65350512e-01,
          4.02587831e-01, -1.33984029e-01, 4.02587831e-01,
          1.37220070e-01, -3.60780731e-02, 1.44337527e-02,
          3.85181755e-02, 1.50718540e-02, -4.46866266e-03,
          -7.78379943e-03, 4.49189544e-03, 7.78379943e-03,
          2.85392837e-03, -2.68274788e-02, 1.47544304e-02,
          2.68274788e-02, 7.34530389e-02, -3.69794518e-02,
          7.34530389e-02, 3.69794518e-02, 2.82970397e-03,
          -1.08356390e-03, 5.51447133e-03, 3.09594814e-03,
          2.93950713e-03, 4.91179293e-04, 2.93950713e-03, 8.38775712e-04,
          2.92520653e-02, -8.77062231e-03, 2.92520653e-02,
          8.93583335e-03, -3.97928581e-02, -6.08118856e-03,
          4.16766554e-02, 8.36350955e-03, 7.98253063e-03,
          -2.90043652e-04, 8.11927207e-03, 7.43829412e-04,
          8.60097259e-03, -1.70908831e-02, 8.60097259e-03,
          1.71255637e-02, 3.41110706e-01, -1.24780294e-02,
          3.41110706e-01, 6.02881014e-02, -2.91077733e-01,
          9.77002755e-02, 2.96935230e-01, 9.77002755e-02, 4.68030535e-02,
          6.07537921e-04, 5.05714975e-02, 7.03561585e-03, 2.02738643e-02,
          -1.55518902e-02, 2.02738643e-02, 1.55518902e-02,
          4.42003340e-01, -5.20798452e-02, 4.42003340e-01,
          5.20798452e-02, -2.38068044e-01, 6.32782727e-02,
          2.62344599e-01, 8.07300359e-02, 4.66921479e-02, 1.64461806e-02,
          5.03639765e-02, 1.64461806e-02, 7.48786610e-03,
          -1.51210865e-02, 7.62096420e-03, 1.51210865e-02,
          8.39490145e-02, -5.37855774e-02, 8.39490145e-02,
          5.37855774e-02, 2.29715588e-04, -7.18641188e-03,
          2.81654783e-02, 1.92484818e-02, 7.19692046e-03, 2.94355769e-03,
          7.19692046e-03, 3.10327159e-03, 1.63757696e-03, 3.68689676e-03,
          1.63757696e-03, 3.68689676e-03, 2.74983272e-02, 2.71125156e-02,
          2.74983272e-02, 2.71125156e-02, 3.60594168e-02, 1.43031217e-02,
          3.60594168e-02, 1.43031217e-02, 4.14577220e-03,
          -4.98138310e-04, 5.31111751e-03, 1.66614132e-03,
          5.30996453e-03, -8.79314449e-03, 1.12771606e-02,
          1.12934252e-02, 1.51803926e-01, -9.55991670e-02,
          1.51803926e-01, 1.08069487e-01, 3.14772516e-01, 3.41034407e-04,
          3.14772516e-01, 8.40429217e-02, -2.10400652e-02,
          -5.12476824e-03, 3.18586230e-02, 1.08893011e-02,
          8.36813916e-03, -4.37571295e-02, 2.32877079e-02,
          4.37571295e-02, 2.24277571e-01, -5.20222634e-02,
          2.24277571e-01, 9.17247683e-02, 4.97928470e-01, 1.55494913e-01,
          5.05710185e-01, 1.61017075e-01, -6.32022172e-02,
          -4.00506333e-03, 6.42562807e-02, 1.16199004e-02,
          1.09191444e-02, -2.26558577e-02, 1.17115965e-02,
          2.26558577e-02, 1.08592257e-01, -5.37308119e-02,
          1.08592257e-01, 5.37308119e-02, 6.61369339e-02, 1.36679094e-02,
          7.67161474e-02, 1.88223403e-02, -8.48045293e-03,
          4.00846533e-04, 9.80502833e-03, 1.56287162e-03, 3.03357560e-03,
          -5.13555156e-03, 3.03357560e-03, 5.13555156e-03,
          -1.81290712e-02, -4.02409136e-02, 1.81290712e-02,
          4.02409136e-02, 3.83318886e-02, -3.11144558e-03,
          4.35248427e-02, 1.67913903e-02, -4.03927546e-03,
          2.94400891e-03, 4.03927546e-03, 2.99493875e-03, 3.82036380e-02,
          -6.78274082e-03, 3.82036380e-02, 1.54628223e-02,
          -1.87364370e-01, -2.66071351e-04, 2.37818703e-01,
          1.28954560e-01, 4.48576540e-01, -7.31661841e-02,
          4.48576540e-01, 8.27191770e-02, -3.45661566e-02,
          -2.32241750e-02, 3.45661566e-02, 2.35659424e-02,
          7.48157799e-02, -1.74722858e-02, 7.48157799e-02,
          2.22496763e-02, -1.39086321e-01, 2.23871082e-01,
          2.00894505e-01, 2.87438363e-01, 1.85931399e-01, 9.37860087e-02,
          2.48668611e-01, 1.64270461e-01, -3.03299241e-02,
          -1.18925795e-02, 3.03299241e-02, 2.62731779e-02,
          -1.46874739e-02, 5.19140298e-03, 1.74651872e-02,
          1.56747866e-02, 1.64405052e-02, -2.03236729e-01,
          3.27599272e-02, 2.03236729e-01, 3.29177454e-02,
          -1.34777144e-01, 3.29177454e-02, 1.34777144e-01,
          -5.78827166e-04, -6.72986452e-03, 4.22087638e-03,
          1.02234837e-02, 1.73010863e-02, 4.53138072e-03, 1.73010863e-02,
          4.54591261e-03, 7.90782794e-02, 9.39922035e-03, 7.90782794e-02,
          1.18637048e-02, 1.30919169e-03, -3.03714722e-03,
          1.18641360e-02, 5.14777889e-03, 1.68702929e-04, 1.01631958e-04,
          1.68702929e-04, 1.01631958e-04, 1.21060297e-01, 5.41531807e-03,
          1.21060297e-01, 1.31868338e-02, 4.04355526e-01,
          -5.06161302e-02, 4.04355526e-01, 7.06648380e-02,
          5.18430881e-02, -5.53136505e-03, 7.68364370e-02,
          3.39045189e-02, 2.78713927e-03, 4.56805201e-03, 2.78713927e-03,
          4.56805201e-03, 1.17214210e-01, -1.14403460e-02,
          1.17214210e-01, 1.19638126e-02, 4.97386813e-01, 1.27367005e-01,
          4.97386813e-01, 1.50180280e-01, 3.81875820e-02, 1.14160307e-01,
          6.69927821e-02, 1.14160307e-01, 9.66640422e-04, 5.72147593e-03,
          2.84548034e-03, 5.72147593e-03, 1.87073518e-02, 5.15463529e-03,
          1.87073518e-02, 5.15463529e-03, 8.85273367e-02, 2.55987532e-02,
          8.85273367e-02, 2.61991844e-02, -1.57746430e-02,
          2.05600560e-02, 1.58580672e-02, 2.10009608e-02,
          -1.42233586e-03, 7.97607994e-04, 1.42233586e-03,
          7.97607994e-04, 5.04099065e-03, -1.72955706e-03,
          5.05220657e-03, 1.72955706e-03, 7.09202886e-02,
          -9.28704906e-03, 7.09202886e-02, 9.90396924e-03,
          1.74559448e-02, -8.52468237e-03, 2.08362862e-02,
          1.03860516e-02, -6.01676235e-04, -8.26536678e-04,
          6.60541933e-04, 1.11081917e-03, 2.84876246e-02,
          -6.42948784e-03, 2.94357967e-02, 6.84583141e-03,
          4.71248269e-01, -8.92156959e-02, 4.71248269e-01,
          8.92156959e-02, 1.24743231e-01, -1.04754411e-01,
          1.33449763e-01, 1.04754411e-01, -4.54016932e-04,
          -1.45687414e-02, 1.83597254e-03, 1.45687414e-02,
          2.45359913e-02, 1.07368967e-02, 2.77260784e-02, 1.07368967e-02,
          4.56472576e-01, 9.00733173e-02, 4.56472576e-01, 9.00733173e-02,
          9.57247838e-02, 5.39367273e-02, 1.16946176e-01, 5.76377213e-02,
          -6.56820415e-03, 4.81792929e-04, 6.58595609e-03,
          5.38257277e-03, 4.78699105e-03, 1.05222571e-03, 5.07037807e-03,
          1.07481319e-03, 5.90710454e-02, 5.52874198e-03, 5.90710454e-02,
          7.39593757e-03, 9.65224765e-03, -2.33057281e-03,
          1.42496387e-02, 5.29957050e-03, -1.35904853e-03,
          7.68275058e-05, 1.40681409e-03, 4.70805069e-04, 1.65881757e-02,
          -8.16413853e-03, 1.65881757e-02, 8.16413853e-03,
          3.24697644e-02, -3.83327678e-02, 3.73463668e-02,
          3.83327678e-02, -7.35084247e-03, -2.23983545e-02,
          7.35084247e-03, 2.23983545e-02, -7.50104431e-04,
          -3.41924094e-03, 7.50104431e-04, 3.41924094e-03,
          1.07842192e-01, -1.14416219e-02, 1.07842192e-01,
          1.61092095e-02, 4.38537896e-01, 2.71714926e-02, 4.38537896e-01,
          9.93043408e-02, -8.17552879e-02, 8.27074572e-02,
          8.17552879e-02, 8.98993015e-02, 1.44799030e-03, 4.64938534e-03,
          1.94008660e-03, 7.06278998e-03, 1.02282383e-01, 1.88314368e-03,
          1.02282383e-01, 6.71865698e-03, 4.88859147e-01,
          -8.25899243e-02, 4.88859147e-01, 8.88280720e-02,
          -6.72479570e-02, -3.52518074e-02, 9.98399332e-02,
          6.74254373e-02, -7.06701365e-04, 1.05227657e-04,
          2.63437326e-03, 8.14108923e-03, 1.20506678e-02,
          -2.61847419e-03, 1.20506678e-02, 2.61847419e-03,
          6.85436279e-02, -2.48269532e-02, 6.85436279e-02,
          2.48269532e-02, 3.41144460e-03, -1.62142441e-02,
          8.19711946e-03, 1.62142441e-02, -4.42084216e-04,
          -1.12275674e-03, 5.78538864e-04, 1.12275674e-03,
          1.26740211e-04, -2.96229869e-03, 7.13642163e-04,
          2.97465664e-03, 1.13571733e-02, -9.37262643e-03,
          1.18291313e-02, 1.62982866e-02, -5.91369113e-03,
          1.18333563e-04, 7.28726853e-03, 6.44482020e-03, 9.96080344e-04,
          6.12893418e-05, 9.96080344e-04, 2.52563186e-04,
          -3.43658887e-02, -3.62604894e-02, 3.43658887e-02,
          3.62604894e-02, 1.80154845e-01, -4.21263576e-01,
          2.04662889e-01, 4.21263576e-01, 1.81069911e-01,
          -1.42572060e-01, 1.83293760e-01, 1.45550787e-01,
          1.13264071e-02, 2.36114603e-03, 1.13264071e-02, 2.66858074e-03,
          -4.85872813e-02, -2.18254346e-02, 4.85872813e-02,
          2.18254346e-02, 3.05650383e-01, 5.52042946e-02, 3.29864919e-01,
          8.51820037e-02, 3.20964873e-01, 9.86727253e-02, 3.20964873e-01,
          9.86727253e-02, 9.54422820e-03, 4.22017463e-03, 9.54422820e-03,
          5.43417502e-03, -2.62777810e-03, -2.96427426e-03,
          3.65511654e-03, 2.96427426e-03, 6.80845231e-02, 1.14082396e-02,
          6.80845231e-02, 1.21162860e-02, 3.68285403e-02, 1.65948272e-02,
          3.68481018e-02, 1.65948272e-02, -1.62426091e-04,
          1.20036502e-03, 2.82753550e-04, 1.20036502e-03, 1.48554705e-02,
          -2.50520254e-03, 1.48554705e-02, 2.50520254e-03,
          3.42847370e-02, -9.37457290e-03, 3.42847370e-02,
          9.37457290e-03, 1.19347824e-02, -8.76207836e-03,
          1.22196935e-02, 1.00056548e-02, -9.44046114e-05,
          -3.21180071e-03, 8.00307374e-04, 3.28268833e-03,
          9.68430117e-02, -9.75615717e-03, 9.68430117e-02,
          1.07357828e-02, 3.45341176e-01, 2.78805047e-02, 3.45341176e-01,
          5.97884506e-02, -1.01813246e-02, 9.78468060e-02,
          4.29080836e-02, 1.00812964e-01, -5.19634224e-02,
          -1.82480440e-02, 5.19980453e-02, 2.07351968e-02,
          1.04326077e-01, -3.09394617e-02, 1.04714982e-01,
          3.09740808e-02, 5.55039167e-01, -6.34418279e-02,
          5.55039167e-01, 7.16706812e-02, -2.99654063e-02,
          7.73720965e-02, 9.34608206e-02, 7.73720965e-02,
          -8.69097039e-02, 5.48567902e-03, 8.69097039e-02,
          1.11094713e-02, 1.32863987e-02, 3.80331971e-04, 1.35760149e-02,
          9.75224597e-04, 9.88010541e-02, 1.53231420e-04, 9.88010541e-02,
          6.48304913e-03, 1.36089383e-03, 5.95975574e-03, 2.08259802e-02,
          6.23842748e-03, -1.52776251e-02, -1.60971226e-03,
          1.52776251e-02, 1.60971226e-03, -1.07689779e-02,
          -1.27134928e-02, 1.07750548e-02, 1.50722675e-02,
          -1.44779617e-02, -1.22500584e-03, 3.56490016e-02,
          2.11269781e-02, 3.62378210e-02, -3.59197962e-03,
          3.65041569e-02, 1.46710323e-02, -1.89969607e-04,
          -3.86271975e-04, 4.80704359e-04, 4.03504848e-04,
          6.42043129e-02, -9.44263786e-02, 8.88846591e-02,
          9.44263786e-02, 4.10398901e-01, 9.33532268e-02, 4.10398901e-01,
          1.71612084e-01, 4.94151562e-02, 1.14931099e-01, 8.73671398e-02,
          1.14931099e-01, 1.91782671e-03, 3.09109688e-03, 1.91782671e-03,
          3.09109688e-03, 1.46554619e-01, -3.87093355e-03,
          1.47059575e-01, 1.44166108e-02, 4.80803341e-01,
          -9.77014825e-02, 4.80803341e-01, 1.14304222e-01,
          3.07697002e-02, -8.76750946e-02, 3.86361741e-02,
          8.89287516e-02, 5.02576120e-03, 4.81643900e-03, 5.02576120e-03,
          4.81643900e-03, 2.06540953e-02, 3.21243005e-03, 2.06540953e-02,
          3.23239458e-03, 4.81498390e-02, 1.23821311e-02, 4.86907698e-02,
          1.43662989e-02, 1.68357436e-02, -4.37805429e-03,
          1.75169874e-02, 1.36870872e-02, 1.06718595e-04,
          -4.71797958e-03, 1.76016835e-03, 4.71797958e-03,
          4.83411568e-04, 3.45652062e-03, 3.15709319e-03, 3.45652062e-03,
          1.01130225e-01, 1.26859464e-03, 1.01130225e-01, 6.56142505e-03,
          -1.84107423e-02, 2.44846451e-04, 3.86392586e-02,
          6.96412101e-03, -3.09905782e-03, -1.63106644e-03,
          3.41977645e-03, 1.63106644e-03, -1.73864029e-02,
          4.32941467e-02, 1.82821974e-02, 4.32941467e-02, 5.33316791e-01,
          1.31316692e-01, 5.33316791e-01, 1.37729764e-01,
          -2.07988411e-01, -1.26887932e-01, 2.81567276e-01,
          1.26887932e-01, -1.35902651e-02, -5.96654229e-03,
          1.89700071e-02, 8.13004002e-03, -7.94968940e-03,
          8.30985140e-03, 9.38001741e-03, 1.18183410e-02, 1.81447402e-01,
          -1.02264650e-01, 1.81447402e-01, 1.50007233e-01,
          -1.56969532e-01, -1.73074454e-01, 1.59069672e-01,
          1.78518012e-01, 5.21830190e-03, 7.87197426e-03, 7.00959703e-03,
          7.95337837e-03, -1.37476332e-03, 2.02367455e-03,
          1.41849613e-03, 2.02367455e-03, 1.37409521e-02, 1.61453746e-02,
          1.43837715e-02, 1.61453746e-02, -5.57843829e-03,
          1.70090720e-02, 6.83346065e-03, 1.70090720e-02, 4.25319216e-04,
          5.79603584e-05, 6.82399201e-04, 2.66875315e-04 ]
      - [ 9.80620924e-03, -8.33910983e-03, 9.80620924e-03,
          8.33910983e-03, 4.74016629e-02, -1.43548902e-02,
          4.74016629e-02, 1.49964439e-02, -5.98561298e-03,
          2.53211963e-03, 7.46367499e-03, 2.53211963e-03,
          -1.05970958e-03, 4.95242304e-04, 1.05970958e-03,
          4.95242304e-04, 8.56927410e-02, -2.35476363e-02,
          8.56927410e-02, 2.42600050e-02, 5.22357166e-01,
          -5.46079688e-02, 5.22357166e-01, 5.86336218e-02,
          -3.85416411e-02, -2.20496859e-02, 5.88932261e-02,
          3.37842628e-02, -8.95172730e-03, -3.33830970e-03,
          8.95172730e-03, 3.33830970e-03, 6.38557374e-02, 6.93897381e-02,
          6.75291345e-02, 6.93897381e-02, 4.26143467e-01, 9.48476866e-02,
          4.26143467e-01, 1.20550230e-01, -5.68547919e-02,
          -5.63176982e-02, 5.68547919e-02, 5.96859306e-02,
          -4.64236410e-03, -3.42568476e-03, 4.64236410e-03,
          4.76768985e-03, -8.79311556e-05, 9.65599623e-03,
          3.10915499e-03, 9.79543384e-03, 9.74181667e-03, 2.09116396e-02,
          1.39659261e-02, 2.15071645e-02, -7.30806729e-03,
          8.42812844e-03, 7.30806729e-03, 8.42812844e-03,
          -4.72011016e-04, 1.01554010e-03, 4.72011016e-04,
          1.01554010e-03, 6.03177678e-03, -6.34653447e-03,
          6.03177678e-03, 6.34653447e-03, 5.48945330e-02,
          -2.10993588e-02, 5.48945330e-02, 2.10993588e-02,
          5.38527872e-03, 2.26132048e-04, 1.14005068e-02, 3.46575584e-03,
          -1.11753435e-03, 8.75922415e-05, 1.11753435e-03,
          4.16845083e-04, 3.64764966e-02, -7.88169540e-03,
          3.78019549e-02, 2.04372369e-02, 5.29009044e-01,
          -6.12438396e-02, 5.29009044e-01, 8.01429376e-02,
          6.94673508e-02, -3.81812751e-02, 1.11912355e-01,
          3.81812751e-02, -7.94370193e-03, -4.58414666e-03,
          7.94370193e-03, 4.58414666e-03, 3.39167588e-03, 8.69155824e-02,
          2.52502337e-02, 8.69155824e-02, 3.67936701e-01, 2.26625368e-01,
          3.67936701e-01, 2.26625368e-01, 2.82846838e-02, 1.06087150e-02,
          8.13551769e-02, 4.01868559e-02, -2.35975138e-03,
          1.36324624e-03, 2.35975138e-03, 3.42402584e-03,
          -5.02705015e-03, 5.33673447e-03, 5.02705015e-03,
          5.67747885e-03, 8.22889525e-03, 1.43721830e-02, 9.92869493e-03,
          1.58001389e-02, -4.39759344e-03, 3.51829827e-03,
          4.61164257e-03, 4.11861064e-03, -5.43536851e-04,
          9.64693143e-04, 5.43536851e-04, 9.64693143e-04,
          -2.46126065e-03, 4.86895023e-03, 3.09480820e-03,
          4.88047255e-03, 3.34289740e-03, 6.07174821e-02, 2.29360443e-02,
          6.07174821e-02, 5.26359864e-02, 6.83698803e-02, 5.26359864e-02,
          6.83698803e-02, 4.05804720e-03, 7.52634369e-03, 4.68049338e-03,
          8.54620989e-03, 1.42649999e-02, -2.43059173e-03,
          2.15437021e-02, 2.78745722e-02, -1.96282879e-01,
          -1.96193252e-02, 2.14135513e-01, 1.03703238e-01,
          2.97874331e-01, -2.17795521e-01, 2.97874331e-01,
          2.17795521e-01, -1.75066534e-02, -3.40597294e-02,
          2.89928261e-02, 3.67470495e-02, 5.16602546e-02,
          -9.06328931e-02, 5.16602546e-02, 9.06328931e-02,
          -7.18773380e-02, -2.79566497e-01, 1.79179549e-01,
          2.79566497e-01, 4.07468647e-01, 1.20843731e-01, 4.07468647e-01,
          1.26892090e-01, -1.72461756e-02, 2.87767574e-02,
          2.93177031e-02, 3.21388617e-02, 4.10312042e-03,
          -6.84271986e-03, 4.19761008e-03, 6.94444356e-03,
          6.14227802e-02, -3.74668986e-02, 6.14227802e-02,
          3.85996625e-02, 7.66994134e-02, -1.25964507e-02,
          7.69642815e-02, 1.26857739e-02, -5.79309789e-03,
          -7.53217470e-03, 5.79309789e-03, 7.53217470e-03,
          -1.00612966e-03, 3.27829993e-03, 1.16226869e-03,
          3.28100077e-03, -1.20348809e-03, -3.22673097e-03,
          5.83811151e-03, 7.14102015e-03, -3.27290199e-03,
          -4.77575557e-03, 4.91414545e-03, 7.29563460e-03,
          -2.31534126e-04, -2.14682907e-04, 4.27891326e-04,
          5.36854786e-04, -6.49734735e-02, 2.53026858e-02,
          6.70111850e-02, 2.72023454e-02, -2.03566700e-01,
          -2.50342101e-01, 2.30061665e-01, 2.51542360e-01,
          1.34419993e-01, -1.97616771e-01, 1.37298524e-01,
          2.02878326e-01, 2.29556151e-02, 1.62030011e-02, 2.30764709e-02,
          1.65821817e-02, -1.08987413e-01, -4.72469404e-02,
          1.09108269e-01, 4.80151661e-02, -1.96570501e-01,
          -1.38020471e-01, 2.90921599e-01, 1.52594507e-01,
          4.44675922e-01, 1.35146871e-01, 4.44675922e-01, 1.55362740e-01,
          3.34579386e-02, 3.74701619e-02, 3.69311832e-02, 3.74942869e-02,
          -9.98260640e-03, -8.75486620e-03, 9.98260640e-03,
          8.75486620e-03, 1.54080819e-02, -5.05550019e-03,
          3.00128851e-02, 9.29494109e-03, 7.66146854e-02,
          -2.70574098e-03, 7.66146854e-02, 1.23513844e-02,
          2.54210434e-03, -2.30540475e-03, 3.95658985e-03,
          2.30540475e-03, 2.68234033e-03, -5.22648264e-03,
          3.00051435e-03, 5.22648264e-03, 9.61462129e-03, 2.87965126e-03,
          1.26807261e-02, 1.10839186e-02, -6.86871493e-03,
          9.10335127e-03, 6.94102794e-03, 9.50495992e-03,
          -5.25978568e-04, -6.62259525e-04, 6.34281954e-04,
          6.62259525e-04, 2.67050453e-02, -2.49754777e-03,
          3.76088172e-02, 1.39401322e-02, 3.47310781e-01, 1.45146504e-01,
          3.47310781e-01, 1.57036662e-01, -1.66966558e-01,
          2.54077315e-01, 1.66966558e-01, 2.54077315e-01,
          -1.84206199e-02, 1.58273485e-02, 1.89702809e-02,
          1.72159430e-02, 5.54620009e-03, 1.63880903e-02, 3.08339167e-02,
          1.63880903e-02, 4.25179809e-01, -1.68120816e-01,
          4.25179809e-01, 1.89003736e-01, -3.76873650e-02,
          -7.86689594e-02, 1.27560809e-01, 2.38315150e-01,
          -2.44644452e-02, 3.44356038e-02, 2.58804858e-02,
          3.59698012e-02, -4.51426581e-03, 7.25801010e-03,
          4.52450663e-03, 7.26050697e-03, -1.89033791e-03,
          -1.11066736e-02, 1.66044720e-02, 3.34799141e-02,
          2.47499850e-02, -6.73138872e-02, 2.80554816e-02,
          6.82404116e-02, 5.48264338e-03, -4.91966447e-03,
          5.59645193e-03, 5.41548477e-03, -1.80581212e-03,
          -7.39669718e-04, 2.01570359e-03, 1.03021460e-03,
          5.13162091e-02, 1.59789678e-02, 5.13162091e-02, 1.70411225e-02,
          4.44048010e-02, 9.76674538e-03, 4.44048010e-02, 1.31103108e-02,
          -1.05777581e-03, -3.11047048e-03, 1.45338511e-03,
          3.11289751e-03, 5.44658350e-03, 3.23554757e-03, 9.98956151e-03,
          4.44131391e-03, 4.45062876e-01, 6.28130287e-02, 4.45062876e-01,
          6.67537823e-02, 1.34635732e-01, 6.79681748e-02, 2.04506829e-01,
          7.15830177e-02, -2.61333361e-02, -1.10441241e-02,
          2.61333361e-02, 1.10441241e-02, -6.56454684e-03,
          7.34719727e-03, 1.11339893e-02, 7.34719727e-03, 4.42589074e-01,
          -9.27734524e-02, 4.42589074e-01, 9.27734524e-02,
          1.16244495e-01, -1.18744634e-01, 2.32607454e-01,
          1.20213397e-01, -3.42343859e-02, -1.25124892e-02,
          3.42343859e-02, 1.25124892e-02, -4.29416448e-03,
          2.11520214e-03, 4.29416448e-03, 2.11520214e-03, 3.50206457e-02,
          -5.21335006e-03, 3.53147388e-02, 1.30047482e-02,
          2.08984315e-02, -3.09681445e-02, 2.70762965e-02,
          3.10740266e-02, -2.61979783e-03, -1.98006793e-03,
          2.66168197e-03, 1.98006793e-03, -4.81930049e-03,
          -4.24707541e-04, 5.86344488e-03, 5.88756520e-04,
          -3.63387056e-02, 1.93363114e-03, 4.31857668e-02,
          3.65197146e-03, 5.62900938e-02, -2.85537890e-03,
          5.62900938e-02, 3.61417956e-03, 1.84206793e-03, 3.77870369e-04,
          2.38955789e-03, 3.77870369e-04, -2.26758793e-02,
          -3.27685848e-03, 3.38004529e-02, 4.71289223e-03,
          -2.78092355e-01, 1.16278138e-02, 2.98324525e-01,
          3.37503441e-02, 4.02597576e-01, -1.43859014e-02,
          4.02597576e-01, 2.14448720e-02, 1.62584074e-02, 4.57446906e-04,
          2.06354782e-02, 9.22698004e-04, 3.35889007e-03, 6.71916641e-03,
          2.24035941e-02, 8.72679427e-03, -3.28243971e-01,
          1.98188946e-01, 3.28243971e-01, 1.98188946e-01, 3.03659886e-01,
          -5.52482298e-03, 3.10225576e-01, 5.78179508e-02,
          1.87034216e-02, -8.20601825e-03, 2.54135597e-02,
          8.20601825e-03, 3.36120208e-03, -1.34710863e-03,
          3.39807291e-03, 1.35632628e-03, -5.42282350e-02,
          -7.80726084e-03, 5.42282350e-02, 1.48940301e-02,
          1.79456044e-02, -1.29527310e-02, 3.18980478e-02,
          1.31013067e-02, 3.86007642e-03, -1.48709235e-03,
          4.95781517e-03, 1.50818424e-03, 3.49586573e-03, 2.43425695e-03,
          7.88451359e-03, 3.49236839e-03, -1.72206317e-03,
          -9.33800917e-03, 2.60236766e-02, 1.21536329e-02,
          1.03787677e-02, 1.47628481e-03, 1.82306729e-02, 4.96176677e-03,
          3.49060399e-03, 1.39024761e-03, 3.49060399e-03, 1.39024761e-03,
          -1.17766276e-01, 6.12256527e-02, 1.21286437e-01,
          6.12256527e-02, 3.35844010e-02, -1.57257602e-01,
          7.79378116e-02, 1.64235681e-01, 2.15560064e-01, 9.77255311e-03,
          2.15560064e-01, 5.63406833e-02, 2.98837926e-02, 1.83075238e-02,
          3.08508016e-02, 1.83075238e-02, -2.68192410e-01,
          1.52516022e-01, 2.68192410e-01, 1.52516022e-01,
          -2.30344966e-01, 1.18314415e-01, 3.13400865e-01,
          1.86126426e-01, 4.22222793e-01, 4.76150103e-02, 4.22222793e-01,
          7.49121010e-02, 3.23176309e-02, 2.13195551e-02, 3.49512585e-02,
          2.13195551e-02, -4.27453592e-02, 7.39577459e-03,
          4.39476483e-02, 1.23487217e-02, -1.02044508e-01,
          3.74361724e-02, 1.11378916e-01, 3.87192145e-02, 8.12551230e-02,
          4.45265658e-02, 8.12551230e-02, 4.45265658e-02, 2.03575706e-03,
          3.96729121e-03, 3.55188921e-03, 3.96729121e-03, 1.65009983e-02,
          -2.12930259e-04, 1.65618770e-02, 8.46336246e-04,
          1.52660282e-02, -3.05642048e-03, 4.62951139e-02,
          7.98082072e-03, -6.20228536e-02, 8.75177607e-03,
          6.20228536e-02, 1.62558947e-02, -2.15513213e-03,
          7.24489056e-03, 3.63010052e-03, 7.27042323e-03, 1.02708988e-01,
          -6.64579100e-04, 1.05597816e-01, 5.47307497e-03,
          2.37850159e-01, 5.49065284e-02, 2.99520522e-01, 6.93337992e-02,
          -2.66615629e-01, 2.23221213e-01, 2.66615629e-01,
          2.23221213e-01, -1.13579687e-02, 5.15046669e-03,
          2.51272041e-02, 3.07078753e-02, 8.70144218e-02,
          -1.30124595e-02, 9.48523432e-02, 1.37058608e-02,
          4.05920476e-01, -3.41740511e-02, 4.05920476e-01,
          4.22162153e-02, -3.07174832e-01, 7.33099040e-03,
          3.07174832e-01, 2.58477516e-02, -7.80737475e-02,
          -2.83582937e-02, 7.80737475e-02, 2.83582937e-02,
          9.95612890e-03, -1.82096148e-04, 1.19640259e-02,
          1.48890226e-03, 7.27016777e-02, -7.74891069e-03,
          7.27016777e-02, 7.74891069e-03, -5.17598093e-02,
          -4.47911443e-03, 5.17598093e-02, 5.49335638e-03,
          -1.49695454e-02, -2.24487926e-03, 1.49695454e-02,
          2.24487926e-03, -7.20729222e-05, 5.59404783e-04,
          3.13628349e-04, 5.59404783e-04, 8.74898583e-03, 5.80372801e-03,
          9.36813373e-03, 6.05548918e-03, 3.38663869e-02, 3.55981290e-02,
          3.38663869e-02, 3.55981290e-02, 1.49145795e-04, 6.47406280e-03,
          1.00288389e-03, 6.47406280e-03, -5.40251285e-03,
          8.27317219e-03, 7.23033212e-03, 8.27317219e-03, 1.64943904e-01,
          3.33517194e-02, 1.83742687e-01, 4.06948924e-02, 4.00823712e-01,
          1.35798052e-01, 4.00823712e-01, 1.36393949e-01,
          -1.29844015e-02, 1.41684851e-02, 1.32850138e-02,
          2.13274937e-02, -1.55926170e-02, -2.20935047e-02,
          1.65668856e-02, 2.22201049e-02, 2.23693341e-01,
          -1.47912517e-01, 2.57180393e-01, 1.47912517e-01,
          4.28604424e-01, -4.75100428e-02, 4.41129953e-01,
          4.75100428e-02, -4.75670248e-02, -2.97348946e-02,
          4.75670248e-02, 2.97348946e-02, -4.59692162e-03,
          -5.39734541e-03, 4.59692162e-03, 5.39734541e-03,
          5.17230183e-02, -3.16704176e-02, 5.46813495e-02,
          3.16704176e-02, 7.68287852e-02, -1.76824573e-02,
          8.02185833e-02, 1.78327616e-02, -1.11809587e-02,
          -7.69102189e-05, 1.11809587e-02, 7.36622838e-04,
          7.03370257e-04, 7.50131556e-04, 8.08010343e-04, 7.50131556e-04,
          1.28053233e-03, 2.90737790e-03, 6.37161545e-03, 5.16750244e-03,
          -5.73085947e-03, 2.93335528e-03, 9.18444153e-03,
          3.94660654e-03, 3.27820261e-03, 4.05359501e-03, 3.27820261e-03,
          4.05359501e-03, -9.72488988e-03, -2.57222038e-02,
          1.09401373e-02, 2.61119474e-02, -1.39072095e-03,
          -2.75684655e-01, 3.69764715e-02, 2.75684655e-01,
          2.01254457e-01, -3.82776409e-02, 2.11351827e-01,
          1.12394214e-01, 5.22188582e-02, 3.44424918e-02, 5.22188582e-02,
          3.44424918e-02, -1.72754657e-02, -3.36237475e-02,
          1.72843039e-02, 3.36237475e-02, 1.20606750e-01,
          -1.38682410e-01, 1.60016790e-01, 1.51478350e-01,
          5.47396839e-01, 1.18292131e-01, 5.47396839e-01, 1.36103243e-01,
          2.46126335e-02, 6.87293988e-03, 3.47964317e-02, 1.83115527e-02,
          -3.27427173e-04, 2.41902439e-04, 6.11565076e-04,
          7.05891172e-04, 3.43901403e-02, 8.64194799e-03, 3.57702821e-02,
          8.64194799e-03, 8.85225236e-02, 4.05465765e-03, 8.85225236e-02,
          1.11639174e-02, -5.20705152e-03, -3.55968927e-03,
          5.20705152e-03, 3.55968927e-03, 1.39164962e-02,
          -8.50121584e-03, 1.39164962e-02, 8.50204192e-03,
          8.18116032e-03, -5.54897971e-02, 3.12014297e-02,
          5.54897971e-02, -3.49155301e-03, 1.35503160e-02,
          1.45795587e-02, 2.38309447e-02, 1.84463733e-03, 4.50382242e-03,
          1.84463733e-03, 4.50382242e-03, 6.45354763e-02,
          -5.55271609e-03, 6.45354763e-02, 1.25744306e-02,
          4.26675946e-01, 1.43844271e-02, 4.26675946e-01, 7.48323575e-02,
          1.20420635e-01, 1.51489899e-01, 1.24152921e-01, 1.54053062e-01,
          -4.49830666e-03, 9.48196836e-03, 5.40108513e-03,
          1.03386967e-02, 4.28908467e-02, 8.72629788e-03, 4.28908467e-02,
          1.03251617e-02, 4.88999873e-01, -6.57048523e-02,
          4.88999873e-01, 6.99796528e-02, 1.11436017e-01,
          -5.87815978e-02, 1.26172811e-01, 5.87815978e-02,
          -9.27943923e-03, -7.97132123e-03, 9.27943923e-03,
          7.97132123e-03, 5.53114759e-03, 1.67864573e-03, 5.53114759e-03,
          1.82592112e-03, 6.31548241e-02, 1.57774761e-02, 6.31548241e-02,
          1.57774761e-02, 1.37491217e-02, 6.57193246e-04, 1.84782688e-02,
          4.34423052e-03, -2.24112510e-03, -1.62992196e-03,
          2.24112510e-03, 1.62992196e-03, -1.50219654e-03,
          -5.33692865e-03, 1.72804680e-03, 5.33692865e-03,
          1.10807354e-02, 1.24326795e-02, 1.50847519e-02, 1.55883450e-02,
          -1.13832988e-02, 2.50084195e-02, 1.13832988e-02,
          2.50084195e-02, -9.31999588e-04, 4.66469768e-03,
          9.55953496e-04, 4.66469768e-03, 8.18620995e-03,
          -2.87715672e-03, 9.06884857e-03, 7.75311235e-03,
          1.48486093e-01, -1.13023423e-01, 1.48486093e-01,
          1.14745095e-01, 1.83145389e-01, 1.36505440e-01, 1.94307193e-01,
          1.68627501e-01, -5.67295728e-03, 5.97208813e-02,
          1.57065913e-02, 5.97208813e-02, -8.42232443e-03,
          4.47817706e-03, 8.44739377e-03, 5.40490169e-03, 1.75114766e-01,
          -1.94595139e-02, 1.88363492e-01, 6.19674437e-02,
          5.73965490e-01, 1.60448745e-01, 5.73965490e-01, 1.68019950e-01,
          -1.28803635e-02, 3.56425270e-02, 1.97431967e-02,
          3.56425270e-02, -2.97826569e-04, -2.49343429e-05,
          5.72729099e-04, 3.41449340e-04, 2.28421763e-02, 3.27984220e-03,
          2.43037380e-02, 5.89118898e-03, 7.60819390e-02,
          -3.39392871e-02, 7.60819390e-02, 3.39392871e-02,
          3.11688334e-03, -4.18570125e-03, 3.68004479e-03,
          4.65561077e-03, 0., 0., 0., 0., 5.46914227e-02,
          -2.31563533e-03, 5.46914227e-02, 8.97885114e-03,
          9.35909525e-03, 2.27036588e-02, 4.92366105e-02, 2.49890089e-02,
          -2.39696559e-02, -1.15861520e-02, 2.52795573e-02,
          1.15861520e-02, 0., 0., 0., 0., 1.92228332e-01,
          -7.11485520e-02, 1.92228332e-01, 7.11485520e-02,
          8.45833719e-02, -2.60187954e-01, 3.99024338e-01,
          2.60187954e-01, -2.74623454e-01, -2.06638835e-02,
          2.74623454e-01, 3.71904150e-02, 0., 0., 0., 0., 2.03344494e-01,
          7.26240203e-02, 2.03344494e-01, 7.80986100e-02, 9.33654979e-02,
          2.21993357e-01, 3.35894972e-01, 2.25434721e-01,
          -2.43067294e-01, 3.74364443e-02, 2.43067294e-01,
          4.67033871e-02, 2.05415141e-04, 1.04115228e-04, 2.21454364e-04,
          1.39725336e-04, 4.59534638e-02, 3.56942555e-03, 4.59534638e-02,
          8.84870440e-03, -3.00487882e-04, -1.50992274e-02,
          6.47816584e-02, 2.37649176e-02, -4.03611772e-02,
          -1.28339101e-02, 4.03611772e-02, 1.28339101e-02,
          8.77619954e-04, -1.54714275e-03, 1.76132680e-03,
          1.95193163e-03, 5.53809889e-02, -2.42890269e-02,
          5.53809889e-02, 2.42890269e-02, 8.69864319e-03,
          -1.35585926e-02, 2.76614781e-02, 1.57715958e-02,
          -7.77647924e-03, -7.04364618e-04, 7.77647924e-03,
          1.41224277e-03, -1.11503284e-02, 5.21596614e-03,
          1.92763042e-02, 9.94900614e-03, 2.80553341e-01,
          -1.11566044e-01, 2.80553341e-01, 1.18323945e-01,
          8.76643881e-02, -2.04346448e-01, 1.61553517e-01,
          2.28586644e-01, -3.83583382e-02, -7.49742379e-03,
          3.83583382e-02, 2.48234402e-02, -3.10385488e-02,
          1.23929167e-02, 3.26798260e-02, 1.23929167e-02, 2.34197155e-01,
          -2.31754500e-02, 2.37768456e-01, 3.93875763e-02,
          3.93824130e-01, 3.15204591e-01, 4.07029957e-01, 3.15204591e-01,
          -5.62236160e-02, 7.14772493e-02, 5.62236160e-02,
          7.14772493e-02, -9.97566897e-03, 2.93069985e-03,
          9.97566897e-03, 2.93069985e-03, 3.65915969e-02,
          -4.81517985e-03, 4.58390452e-02, 5.64476056e-03,
          9.92558450e-02, 7.73078864e-05, 9.92558450e-02, 5.75708179e-03,
          -5.25220996e-03, 4.79343813e-03, 5.51432930e-03,
          4.79343813e-03, 4.74390807e-03, -3.11374222e-03,
          4.74390807e-03, 3.11374222e-03, -1.61631666e-02,
          -1.97565537e-02, 2.31872052e-02, 2.10563187e-02,
          -2.53103115e-02, -6.46519428e-03, 2.58370060e-02,
          9.67342686e-03, 1.91844930e-03, -1.37732772e-03,
          1.91844930e-03, 1.38951093e-03, 1.99481342e-02,
          -1.44892270e-02, 1.99481342e-02, 1.47950351e-02,
          1.98748052e-01, 9.32582244e-02, 2.14905918e-01, 1.76911160e-01,
          -1.34253010e-01, 3.82490128e-01, 1.66215166e-01,
          3.82490128e-01, -2.03497689e-02, 2.62350794e-02,
          2.30631959e-02, 2.92656813e-02, 8.94908514e-03,
          -7.96158798e-03, 1.27824936e-02, 9.74466838e-03,
          4.48319107e-01, -9.19982716e-02, 4.48319107e-01,
          1.05220422e-01, 6.08059391e-02, 1.20353363e-01, 2.02090770e-01,
          1.58589870e-01, -5.02574928e-02, 5.00107184e-02,
          5.02574928e-02, 5.00107184e-02, -2.87762494e-03,
          1.30884966e-03, 2.87762494e-03, 1.45327311e-03, 6.08385950e-02,
          -1.78905688e-02, 6.10255487e-02, 1.80193502e-02,
          4.81367856e-02, -8.94466974e-03, 4.91828620e-02,
          1.03928046e-02, -3.66417179e-03, 3.00357584e-03,
          3.68254841e-03, 3.00357584e-03, 7.91789498e-03, 7.14173773e-04,
          9.42908414e-03, 1.54655427e-03, 9.14299190e-02, 1.61397643e-02,
          9.14299190e-02, 1.61397643e-02, 6.66545425e-03,
          -5.11146197e-03, 9.60365403e-03, 6.37059333e-03,
          -5.30052988e-04, -2.42100423e-03, 1.50748645e-03,
          2.44137179e-03, 8.09269249e-02, 1.12004364e-02, 8.38051662e-02,
          1.22306403e-02, 5.23163736e-01, 4.68662791e-02, 5.23163736e-01,
          4.68662791e-02, -1.42436512e-02, -3.50482017e-02,
          3.62758525e-02, 3.50482017e-02, -3.23716253e-02,
          -2.38145832e-02, 3.23716253e-02, 2.38145832e-02,
          8.41209814e-02, 5.91230066e-03, 8.49470124e-02, 6.67172531e-03,
          4.13806766e-01, -2.40593757e-02, 4.13806766e-01,
          4.25888300e-02, -7.22680390e-02, -8.71563628e-02,
          7.51800984e-02, 8.71563628e-02, -7.41087198e-02,
          -4.26877551e-02, 7.41087198e-02, 4.26877551e-02,
          1.32946894e-02, 1.01881835e-03, 1.33076105e-02, 1.17542909e-03,
          5.05377464e-02, 4.88591660e-03, 5.07426411e-02, 6.04570517e-03,
          -3.62119414e-02, -2.17374302e-02, 3.62119414e-02,
          2.17374302e-02, -1.35959499e-02, -7.93119799e-03,
          1.35992384e-02, 7.93119799e-03, 5.53539023e-03,
          -3.94349080e-03, 8.63608345e-03, 4.03673900e-03,
          9.08034518e-02, 3.30905728e-02, 9.08034518e-02, 3.30905728e-02,
          4.89599397e-03, 3.32587399e-02, 7.92046264e-03, 3.32587399e-02,
          -8.01256901e-05, 5.84364729e-03, 3.18343460e-04,
          5.84364729e-03, 1.11770354e-01, 2.40769591e-02, 1.14311598e-01,
          2.87147909e-02, 5.58894932e-01, 8.51366967e-02, 5.58894932e-01,
          1.33728266e-01, 2.76854616e-02, -4.44693454e-02,
          4.10650298e-02, 1.16940573e-01, -3.49837379e-03,
          -1.04883332e-02, 5.68142673e-03, 2.09018439e-02,
          1.09053373e-01, 4.02195416e-02, 1.09053373e-01, 4.02195416e-02,
          2.65967220e-01, -7.16669187e-02, 2.65967220e-01,
          1.20628528e-01, 3.46442335e-03, -2.13580281e-01,
          3.04782316e-02, 2.13580281e-01, -7.47953681e-03,
          -3.17746513e-02, 7.47953681e-03, 3.17746513e-02,
          9.67559032e-03, 4.84164758e-03, 9.67559032e-03, 4.85680299e-03,
          5.26693603e-03, -2.63842870e-03, 1.12017179e-02,
          5.77090913e-03, -4.13062237e-03, -1.28843365e-02,
          4.13062237e-03, 1.28843365e-02, -8.10242724e-04,
          -2.26290338e-03, 8.10242724e-04, 2.26290338e-03,
          -1.06648169e-02, 6.39967446e-04, 1.06648169e-02,
          6.48898305e-04, -1.41138490e-02, 7.75770936e-03,
          4.14496921e-02, 8.57235305e-03, 7.56188631e-02, 2.24110298e-02,
          7.56188631e-02, 2.24110298e-02, 2.47908966e-03, 2.02915305e-03,
          2.56875926e-03, 2.02915305e-03, -6.85428753e-02,
          -1.75448717e-04, 6.85428753e-02, 3.66739905e-03,
          5.73171042e-02, 1.49831638e-01, 2.74137229e-01, 1.49831638e-01,
          4.49768305e-01, 1.28844559e-01, 4.49768305e-01, 1.40892103e-01,
          5.71486168e-03, -2.68510863e-04, 8.02586973e-03,
          9.16508213e-03, -5.38459681e-02, -7.57391239e-03,
          5.38459681e-02, 7.57391239e-03, 4.04757634e-02,
          -9.03380290e-02, 2.32272789e-01, 9.06896740e-02,
          3.71162355e-01, -1.58731133e-01, 3.71162355e-01,
          1.58731133e-01, 6.20811479e-03, -1.82577372e-02,
          6.20811479e-03, 1.82577372e-02, -5.40916622e-03,
          4.46824939e-04, 5.40916622e-03, 9.97322262e-04,
          -1.00556975e-02, 1.67499371e-02, 2.58498136e-02,
          1.67499371e-02, 5.14355861e-02, -3.87650472e-03,
          5.14355861e-02, 7.10506830e-03, 7.09794695e-04,
          -1.41480553e-03, 7.79711467e-04, 1.41480553e-03,
          -7.49455532e-03, 4.94927680e-03, 7.49455532e-03,
          5.07856300e-03, 4.86453399e-02, 1.34923398e-01, 5.87988496e-02,
          1.34923398e-01, 8.30833688e-02, 9.99292731e-02, 8.30833688e-02,
          9.99292731e-02, 7.98989180e-03, 6.15210226e-03, 8.37394968e-03,
          6.15210226e-03, 1.91236399e-02, 2.79468056e-02, 2.37739645e-02,
          2.83278804e-02, 1.92205772e-01, 6.70587644e-02, 1.92205772e-01,
          1.75822377e-01, 3.63642573e-01, 4.65553813e-02, 3.63642573e-01,
          1.19173072e-01, 4.03368175e-02, 1.31651266e-02, 4.26456891e-02,
          2.39130948e-02, 1.99393071e-02, 1.39845153e-02, 1.99393071e-02,
          2.71862969e-02, 7.93326125e-02, 5.41668274e-02, 8.72364640e-02,
          9.28197652e-02, 2.51882613e-01, -2.85677046e-01,
          3.41217875e-01, 3.38808209e-01, -2.12739948e-02,
          -1.54527649e-01, 3.81212607e-02, 1.54527649e-01,
          3.44203017e-03, -1.61046032e-02, 3.77229764e-03,
          1.61046032e-02, 1.52906124e-02, -3.73372324e-02,
          3.60518657e-02, 3.82377356e-02, -1.32062465e-01,
          -1.23392940e-01, 1.32062465e-01, 1.28295943e-01,
          -1.01592802e-02, -3.06568071e-02, 1.01889735e-02,
          3.16738077e-02, 4.19365533e-04, -2.95317871e-03,
          4.82708128e-04, 3.01868794e-03, 5.16944192e-03,
          -1.56327486e-02, 5.72537584e-03, 1.56327486e-02,
          5.37165534e-03, -1.32618565e-02, 5.68940956e-03,
          1.32618565e-02, 4.06195351e-04, -1.26334198e-03,
          4.56621638e-04, 1.26334198e-03, 2.61042323e-02,
          -6.14706166e-02, 3.02022249e-02, 6.14706166e-02,
          2.48395622e-01, -7.28019029e-02, 2.48395622e-01,
          1.22404478e-01, 5.18801510e-02, 1.09923072e-01, 5.18801510e-02,
          1.09923072e-01, 1.59808702e-03, 1.57602914e-02, 2.32429663e-03,
          1.57602914e-02, 5.26452810e-03, -1.04741461e-03,
          3.68197896e-02, 2.89442502e-02, 5.94160140e-01,
          -6.82663620e-02, 5.94160140e-01, 8.51031244e-02,
          1.18198276e-01, 1.44539237e-01, 1.18198276e-01, 1.44539237e-01,
          1.22020263e-02, 3.53317894e-02, 1.22020263e-02, 3.53317894e-02,
          -8.07386264e-03, 3.59450118e-03, 8.07386264e-03,
          4.65741754e-03, 9.38588902e-02, -1.91729367e-02,
          9.40670967e-02, 2.03185100e-02, 4.72092330e-02, 1.16183134e-02,
          4.72092330e-02, 1.48486793e-02, 1.16295321e-03, 2.08364055e-03,
          1.46299438e-03, 2.67762481e-03, -2.70538172e-03,
          -6.62984559e-03, 2.70538172e-03, 6.62984559e-03,
          7.78860366e-03, -4.28841561e-02, 1.18878065e-02,
          4.28841561e-02, 1.80845764e-02, -1.64031386e-02,
          1.83012858e-02, 1.64031386e-02, 1.39139383e-03, 3.98109492e-04,
          1.39139383e-03, 3.98109492e-04, -8.19490384e-03,
          4.12131241e-03, 9.82575957e-03, 1.72399636e-02, 1.35006502e-01,
          7.33402148e-02, 1.41847134e-01, 1.12914607e-01, 2.15008795e-01,
          1.54468179e-01, 2.15008795e-01, 1.76745728e-01, 2.40643718e-03,
          1.46436254e-02, 7.83967320e-03, 1.75427832e-02,
          -2.76530311e-02, -2.16312464e-02, 2.76530311e-02,
          2.52275672e-02, 2.38944694e-01, -3.29083204e-01,
          3.06582928e-01, 3.29083204e-01, 4.31403786e-01,
          -2.56577916e-02, 4.31403786e-01, 1.35908976e-01,
          -1.35674290e-02, 1.76644996e-02, 1.36880511e-02,
          1.82150453e-02, -9.59548634e-03, 9.76869278e-03,
          9.59548634e-03, 9.76869278e-03, 3.74209955e-02, 7.88417310e-02,
          5.24384752e-02, 7.88417310e-02, 6.56432807e-02, 2.43199915e-02,
          6.62664101e-02, 2.79743522e-02, 5.16605796e-04, 9.24010237e-04,
          1.41021691e-03, 1.46910513e-03 ]
      - [ 0., 0., 0., 0., 1.40910875e-02, 1.12774195e-02, 1.40910875e-02,
          1.75941475e-02, 1.52222263e-02, 4.16888297e-02, 1.52222263e-02,
          4.16888297e-02, 5.21808770e-03, 5.19046979e-03, 5.78117836e-03,
          5.84091432e-03, 0., 0., 0., 0., 3.16834986e-01, 8.84304494e-02,
          3.16834986e-01, 8.84304494e-02, -2.93248054e-02,
          -3.01064383e-02, 2.14757472e-01, 2.08106086e-01,
          -1.02354012e-01, -1.26919895e-01, 1.05330341e-01,
          1.26919895e-01, 0., 0., 0., 0., 1.79704607e-01,
          -1.35782793e-01, 1.79704607e-01, 1.35782793e-01,
          -3.09031636e-01, -2.52567738e-01, 3.34810287e-01,
          3.12440842e-01, -2.59976149e-01, -8.07680190e-02,
          2.59976149e-01, 1.05499052e-01, 0., 0., 0., 0., 1.13888662e-02,
          9.36003460e-04, 1.13888662e-02, 1.81228330e-03, 8.52094032e-03,
          4.13315631e-02, 5.25336154e-02, 4.31126393e-02,
          -3.71239856e-02, 2.23074146e-02, 3.71239856e-02,
          2.23074146e-02, 1.63465496e-02, 7.82935321e-03, 1.63547397e-02,
          7.82935321e-03, 1.11009449e-01, 3.21665257e-02, 1.11009449e-01,
          3.21665257e-02, -1.50366817e-02, -3.15970462e-03,
          2.04339586e-02, 8.41676723e-03, -1.66617334e-03,
          -8.44083843e-04, 1.66617334e-03, 9.10254137e-04,
          1.23301700e-01, 2.85453312e-02, 1.23301700e-01, 2.85453312e-02,
          5.51393151e-01, 6.96176365e-02, 5.51393151e-01, 1.06313996e-01,
          -1.90390140e-01, -3.51349940e-03, 1.90390140e-01,
          4.36257422e-02, -1.50162203e-03, 4.81778244e-03,
          3.35789332e-03, 5.49009861e-03, 7.67199174e-02, 8.03724006e-02,
          7.67199174e-02, 8.03724006e-02, 2.93361962e-01, 1.90373976e-04,
          2.93361962e-01, 1.19380720e-01, -8.53749290e-02,
          -8.36202875e-02, 8.53749290e-02, 8.62857774e-02,
          -9.81708057e-04, 3.45258531e-03, 9.81708057e-04,
          3.45258531e-03, 1.67379680e-03, 6.96618203e-03, 1.69407227e-03,
          6.99303765e-03, -3.19621945e-03, 1.82228256e-02,
          1.02730375e-02, 1.93505324e-02, -7.63126276e-03,
          2.24609743e-03, 7.63126276e-03, 2.88514723e-03, 0., 0., 0., 0.,
          3.63731943e-03, 2.31134356e-03, 3.63731943e-03, 2.74517876e-03,
          6.97880611e-02, -1.22805638e-02, 6.97880611e-02,
          1.31175937e-02, 3.37862335e-02, -8.78566597e-03,
          3.57652009e-02, 1.03290463e-02, -1.90778018e-03,
          1.06378982e-03, 1.91363692e-03, 1.06378982e-03, 3.33020091e-03,
          -1.07972039e-04, 4.93246550e-03, 9.60639771e-03,
          3.46816599e-01, -8.48404095e-02, 3.46816599e-01,
          8.58688131e-02, 3.25894982e-01, -1.27909586e-01,
          3.25894982e-01, 1.27909586e-01, -3.79847223e-03,
          -5.52338129e-03, 4.61229542e-03, 6.60955068e-03,
          1.39056947e-02, 1.88021362e-02, 1.39056947e-02, 2.27591582e-02,
          3.19388688e-01, 2.30559438e-01, 3.19388688e-01, 2.30559438e-01,
          2.64475703e-01, 1.18553475e-01, 2.64475703e-01, 1.19841509e-01,
          2.81437067e-03, 4.96384921e-03, 4.01878124e-03, 7.09042139e-03,
          4.95797349e-03, 9.15065501e-03, 4.95797349e-03, 9.15065501e-03,
          2.81458274e-02, 4.64111343e-02, 2.81458274e-02, 4.64111343e-02,
          1.03357546e-02, 1.43248644e-02, 1.09906225e-02, 1.51204159e-02,
          -4.40414209e-04, -1.72687374e-04, 6.45685475e-04,
          3.77958757e-04, 6.22322969e-03, -2.09599943e-03,
          6.22322969e-03, 2.09599943e-03, -8.03293008e-03,
          -7.15188216e-03, 1.44920396e-02, 7.15188216e-03,
          7.75005221e-02, -2.81153657e-02, 7.75005221e-02,
          2.81153657e-02, 1.43140275e-02, -5.05411532e-03,
          1.43169006e-02, 5.05411532e-03, 3.39937434e-02,
          -1.65747236e-02, 3.39937434e-02, 1.68687794e-02,
          -5.56089282e-02, -1.87278777e-01, 8.46702829e-02,
          1.87278777e-01, 3.92784595e-01, -2.08780944e-01,
          3.92784595e-01, 2.08780944e-01, 1.13931812e-01,
          -2.85756048e-02, 1.13931812e-01, 2.85756048e-02,
          1.80843379e-02, 1.54182203e-02, 1.80843379e-02, 1.54182203e-02,
          -4.37421836e-02, 6.06665313e-02, 7.10992441e-02,
          8.79704952e-02, 4.19843525e-01, 1.74442738e-01, 4.19843525e-01,
          1.83099777e-01, 1.15662336e-01, 1.58137549e-02, 1.15662336e-01,
          1.60183012e-02, 1.01979217e-03, 7.89089361e-04, 1.01979217e-03,
          1.01171341e-03, 1.68707352e-02, 2.37351246e-02, 1.93859600e-02,
          2.37351246e-02, 6.80056587e-02, 4.60539050e-02, 6.80056587e-02,
          4.60539050e-02, 1.20938485e-02, 3.46816215e-03, 1.20938485e-02,
          3.47144483e-03, 2.89516570e-03, -4.05783812e-03,
          3.33076995e-03, 4.05783812e-03, 6.24886900e-02,
          -3.39467414e-02, 6.24886900e-02, 3.39467414e-02,
          2.29879171e-02, -9.30355676e-03, 2.32339222e-02,
          9.78240836e-03, -3.59764061e-04, 4.37862735e-04,
          3.78128345e-04, 6.23364351e-04, 1.12125389e-02, 2.12730817e-03,
          1.44593567e-02, 8.94415379e-03, 4.47540462e-01,
          -2.45111957e-02, 4.47540462e-01, 6.45171329e-02,
          2.82643288e-01, -4.16898690e-02, 2.82643288e-01,
          4.42295521e-02, -2.00870447e-03, 1.85411482e-03,
          4.40371223e-03, 3.97290848e-03, 1.66006498e-02, 1.38006583e-02,
          1.72780585e-02, 1.38006583e-02, 3.57581288e-01, 7.57560134e-02,
          3.57581288e-01, 8.52513164e-02, 2.67153382e-01,
          -7.56240357e-03, 2.67153382e-01, 2.87963040e-02,
          3.66892689e-03, -3.51668056e-03, 6.07921695e-03,
          3.51668056e-03, 3.80557356e-03, 8.27329408e-04, 3.80557356e-03,
          9.45214299e-04, 4.48233485e-02, 1.31030856e-02, 4.48233485e-02,
          1.31030856e-02, 2.71290839e-02, 4.51391796e-03, 2.71290839e-02,
          4.84222081e-03, 2.67881725e-04, -5.49997669e-04,
          4.48974024e-04, 5.61604043e-04, 2.15662061e-03, 1.38492149e-04,
          2.15662061e-03, 9.21588973e-04, 3.93690616e-02, 2.50221677e-02,
          3.93690616e-02, 2.50221677e-02, 3.66747342e-02, 3.04904114e-02,
          3.66747342e-02, 3.04904114e-02, 1.54608127e-03, 1.07796292e-03,
          1.72608485e-03, 1.26114709e-03, 2.83649713e-02,
          -1.01823332e-02, 2.88463105e-02, 1.01823332e-02,
          4.26120430e-01, 5.30264340e-02, 4.26120430e-01, 5.79925738e-02,
          1.74752459e-01, 8.06527510e-02, 1.76281512e-01, 8.21818039e-02,
          -4.62330272e-03, 1.98389729e-03, 5.95150376e-03,
          3.58709949e-03, 3.39999050e-02, -5.42735588e-03,
          3.46148163e-02, 5.42735588e-03, 4.68927979e-01,
          -8.13906938e-02, 4.68927979e-01, 8.13906938e-02,
          1.89148217e-01, -3.26274335e-02, 1.90677270e-01,
          4.01211567e-02, -2.71223835e-03, 7.33759999e-03,
          4.48881742e-03, 7.33759999e-03, 2.45140027e-03,
          -2.99998210e-04, 2.76007224e-03, 1.10939948e-03,
          6.49363846e-02, -2.70262472e-02, 6.49363846e-02,
          2.70507820e-02, 4.62278388e-02, -1.35542005e-02,
          4.62278388e-02, 1.36632370e-02, 1.90366199e-03, 1.15543325e-03,
          1.90366199e-03, 1.15543325e-03, 1.16802817e-02,
          -1.11854998e-02, 1.17349830e-02, 1.11854998e-02,
          -3.50479409e-02, -3.34063098e-02, 3.64087746e-02,
          3.40378955e-02, 2.44231261e-02, -1.43831139e-02,
          3.01585589e-02, 1.55424895e-02, 7.86587317e-03, 1.02379452e-03,
          7.86587317e-03, 1.71052350e-03, 9.77996588e-02,
          -2.55391132e-02, 9.77996588e-02, 2.55391132e-02,
          -1.22664742e-01, -1.77408159e-01, 1.62017941e-01,
          1.77408159e-01, 3.53121370e-01, -1.63111329e-01,
          3.53121370e-01, 1.75974622e-01, 5.93501925e-02, 7.57251261e-03,
          5.93501925e-02, 1.58835314e-02, 8.07239339e-02, 1.15818661e-02,
          8.07239339e-02, 1.46916136e-02, -1.27572417e-01,
          -2.41386946e-02, 1.59508273e-01, 8.20164084e-02,
          4.66149151e-01, 1.30984947e-01, 4.66149151e-01, 1.30984947e-01,
          5.69772720e-02, 6.19519828e-03, 5.69772720e-02, 1.60955768e-02,
          5.65158436e-03, 2.86093866e-03, 5.83128864e-03, 2.86093866e-03,
          -1.13688307e-02, -6.90902816e-04, 2.51965169e-02,
          1.14136599e-02, 8.38024616e-02, 1.38680898e-02, 8.38024616e-02,
          1.49012404e-02, 3.79658793e-03, 5.24426752e-04, 3.79658793e-03,
          5.24426752e-04, 2.17471994e-03, 4.41520679e-04, 2.17471994e-03,
          6.89156295e-04, 8.26321729e-03, -2.26202398e-03,
          8.26321729e-03, 5.42921340e-03, 4.02738191e-02, 4.90200613e-03,
          4.02738191e-02, 4.90200613e-03, 7.57299224e-03, 1.09538133e-03,
          7.57299224e-03, 1.09767180e-03, -4.95777419e-03,
          -4.90938080e-03, 7.17339525e-03, 5.67288464e-03,
          8.23118687e-02, -1.09166525e-01, 9.90759432e-02,
          1.09166525e-01, 3.92716825e-01, 6.10921392e-03, 3.92716825e-01,
          5.07439338e-02, 5.38442172e-02, 1.21899825e-02, 5.38442172e-02,
          1.21899825e-02, -1.65388379e-02, -1.01595921e-02,
          1.67081319e-02, 1.01595921e-02, 1.58508465e-01,
          -3.33875902e-02, 1.94991454e-01, 5.08795492e-02,
          5.17546952e-01, 8.40021968e-02, 5.17546952e-01, 8.40021968e-02,
          4.87874076e-02, 1.43304560e-02, 4.87874076e-02, 1.43304560e-02,
          -1.89504272e-03, -4.91175044e-04, 1.93563278e-03,
          6.06818998e-04, 3.79585102e-02, 1.18548023e-02, 3.89682911e-02,
          1.18548023e-02, 7.80429617e-02, 1.71729159e-02, 7.80429617e-02,
          1.71729159e-02, 5.70047833e-03, 1.17890479e-03, 5.70047833e-03,
          1.24839577e-03, -3.22898413e-04, -2.94276775e-04,
          3.80254729e-04, 3.22872569e-04, 3.40214074e-02,
          -5.50144864e-03, 3.40214074e-02, 5.50144864e-03,
          7.36242309e-02, -9.96761583e-03, 7.36242309e-02,
          9.96761583e-03, 4.81458660e-03, -1.70765689e-03,
          5.07429894e-03, 1.71451096e-03, -5.25591988e-03,
          -1.56961661e-03, 5.25591988e-03, 1.88570772e-03,
          2.05535233e-01, -3.49569246e-02, 2.08059669e-01,
          3.81831191e-02, 4.68046576e-01, -7.07953647e-02,
          4.68046576e-01, 7.07953647e-02, 3.77987139e-02,
          -1.58635788e-02, 3.81347984e-02, 1.58635788e-02,
          -3.19273351e-03, 7.33578438e-03, 4.18667682e-03,
          7.51011493e-03, 1.82615697e-01, 8.50704908e-02, 1.82615697e-01,
          8.50704908e-02, 4.18618262e-01, 3.94140631e-02, 4.18618262e-01,
          5.39044254e-02, 3.10745221e-02, -5.15733333e-03,
          3.10745221e-02, 5.63810207e-03, 9.04089713e-04, 2.74889823e-03,
          9.67853528e-04, 2.74889823e-03, 2.96255667e-02, 2.94099525e-02,
          2.96255667e-02, 2.94099525e-02, 4.44098450e-02, 2.24603899e-02,
          4.44098450e-02, 2.24603899e-02, 2.50774156e-03, 4.25892271e-04,
          2.62274267e-03, 5.09424019e-04, 1.49393762e-02, 1.90385769e-03,
          1.49393762e-02, 1.90385769e-03, 9.22416747e-02, 1.63733531e-02,
          9.22416747e-02, 1.63733531e-02, 5.84593741e-03,
          -5.58301620e-03, 1.57082360e-02, 6.13650773e-03,
          -8.48145282e-04, -2.04006769e-03, 8.48145282e-04,
          2.04006769e-03, 1.12708725e-01, 1.74807105e-02, 1.12708725e-01,
          1.74807105e-02, 5.31434774e-01, 6.35511577e-02, 5.31434774e-01,
          6.95352778e-02, -8.61221552e-02, -6.21994585e-02,
          1.15346402e-01, 6.80375770e-02, -1.88033111e-04,
          -6.49744645e-03, 1.88707584e-03, 6.49744645e-03,
          1.05987497e-01, 2.05490291e-02, 1.05987497e-01, 2.05490291e-02,
          3.79779726e-01, -4.46234569e-02, 3.79779726e-01,
          8.01754370e-02, -8.42007846e-02, -8.63818079e-02,
          8.65897015e-02, 8.63818079e-02, 1.19498838e-03,
          -1.00552645e-02, 1.19498838e-03, 1.00552645e-02,
          1.26377009e-02, 3.88640235e-03, 1.26377009e-02, 3.88640235e-03,
          3.22691090e-02, -3.18994862e-04, 3.24611664e-02,
          7.93185178e-03, -6.25128066e-03, -6.69037411e-03,
          6.25128066e-03, 6.69037411e-03, -2.12747313e-04,
          -6.87391497e-04, 2.12747313e-04, 6.87391497e-04,
          -4.05142969e-03, -7.68402778e-03, 4.20691259e-03,
          7.68402778e-03, 2.09944565e-02, -8.51284415e-02,
          2.19861660e-02, 8.53160769e-02, -3.21101472e-02,
          -5.37137762e-02, 3.21101472e-02, 5.42602353e-02,
          5.37222892e-04, 1.36066796e-04, 7.40033982e-04, 2.30723701e-04,
          -6.06709644e-02, -3.01029943e-02, 6.06709644e-02,
          3.01029943e-02, 4.77553457e-02, -3.66630495e-01,
          1.25413209e-01, 3.66630495e-01, 2.72036999e-01,
          -1.34023845e-01, 2.72036999e-01, 2.02941522e-01,
          1.46846324e-02, 8.25828128e-03, 1.46846324e-02, 8.25828128e-03,
          -5.87546974e-02, 8.46748427e-03, 5.87546974e-02,
          1.62291750e-02, 5.34606315e-02, 1.12620950e-01, 1.77050591e-01,
          1.48241371e-01, 4.32279646e-01, 6.74066618e-02, 4.32279646e-01,
          7.80738369e-02, 1.47889480e-02, 1.05388593e-02, 1.47889480e-02,
          1.05388593e-02, -4.95492201e-03, 7.54339062e-03,
          5.14494348e-03, 7.54339062e-03, -5.74466167e-03,
          5.79305142e-02, 1.33433724e-02, 5.79305142e-02, 3.87921333e-02,
          2.75138412e-02, 3.87921333e-02, 2.75138412e-02, 2.62569357e-03,
          1.35162252e-03, 2.62569357e-03, 1.52211613e-03, 1.18289713e-03,
          1.32878171e-02, 1.18289713e-03, 1.32878171e-02, 5.07143922e-02,
          4.97962311e-02, 5.07143922e-02, 5.20001687e-02, 5.36035784e-02,
          -5.71769588e-02, 5.43773659e-02, 5.89064099e-02,
          -2.36672722e-03, -8.30337312e-03, 3.55934538e-03,
          8.53443332e-03, -1.46946805e-02, -3.64908203e-02,
          1.46946805e-02, 3.67866606e-02, 1.27168328e-01,
          -3.34850729e-01, 1.30656511e-01, 3.34850729e-01,
          2.52182603e-01, -2.09061578e-01, 2.52182603e-01,
          2.21074298e-01, 3.40816714e-02, -4.47140541e-03,
          3.40816714e-02, 1.36967571e-02, -2.06725951e-02,
          -2.98817316e-03, 2.06725951e-02, 2.01680306e-02,
          1.87769815e-01, 1.26765240e-02, 2.01883957e-01, 1.04382277e-01,
          4.36213225e-01, 7.53675848e-02, 4.36213225e-01, 9.99886021e-02,
          2.24215947e-02, 3.91428173e-03, 2.58775111e-02, 2.03000829e-02,
          -1.05302688e-03, 6.24626921e-03, 1.14038063e-03,
          6.24626921e-03, 8.63150600e-03, 3.93655002e-02, 1.42646143e-02,
          3.93655002e-02, 4.16401401e-02, -1.11427521e-02,
          4.17803563e-02, 1.86240561e-02, -1.13042617e-04,
          -6.37243036e-03, 1.15784141e-03, 6.37243036e-03,
          1.33379083e-03, -5.30951936e-03, 1.77058426e-03,
          5.30951936e-03, 1.75658930e-02, -3.65094724e-03,
          2.94235423e-02, 2.76570637e-02, 3.03362459e-02, 8.44900385e-02,
          4.65072244e-02, 8.44900385e-02, 1.85191911e-02, 1.32252062e-02,
          1.85191911e-02, 1.36377299e-02, 6.27389969e-03,
          -1.25169376e-04, 1.10494131e-02, 1.42543903e-02,
          2.89923161e-01, -4.49358635e-02, 2.89923161e-01,
          1.13663681e-01, 3.73755455e-01, -1.00499690e-01,
          3.73755455e-01, 1.46312878e-01, 4.94704992e-02,
          -6.00659326e-02, 5.51117696e-02, 6.00659326e-02,
          1.05695911e-02, 3.42902318e-02, 1.85154416e-02, 3.42902318e-02,
          2.33678058e-01, 3.29427868e-01, 2.33678058e-01, 3.29427868e-01,
          1.84476927e-01, 1.89343899e-01, 1.84476927e-01, 1.89343899e-01,
          1.43551836e-02, 5.02093881e-03, 1.85455643e-02, 1.39021520e-02,
          2.62927706e-03, 1.82774186e-03, 3.11352126e-03, 2.09057238e-03,
          3.19258273e-02, -9.21957195e-04, 3.19258273e-02,
          1.82572380e-02, 9.72106121e-03, -1.80632237e-03,
          9.72106121e-03, 1.94180496e-02, 8.33581958e-04,
          -1.29211298e-03, 1.11668196e-03, 1.96190644e-03,
          6.37812493e-03, -1.21639483e-03, 6.37812493e-03,
          1.21639483e-03, -1.14996871e-03, 2.02962589e-02,
          2.45334748e-02, 2.05117259e-02, -1.21339401e-02,
          3.09718791e-02, 2.29810961e-02, 3.14966664e-02, 6.17236132e-03,
          2.06754776e-03, 6.17236132e-03, 2.10223137e-03, 5.85854836e-02,
          -1.17880653e-03, 5.85854836e-02, 2.41439277e-03,
          2.54651695e-01, 1.64149150e-01, 2.69190431e-01, 1.64149150e-01,
          -6.66452497e-02, 3.88401747e-01, 8.50571096e-02,
          3.88401747e-01, 1.48236251e-03, 2.96191573e-02, 1.45388320e-02,
          2.96493657e-02, 5.50424568e-02, -6.30463939e-03,
          5.50424568e-02, 6.53398270e-03, 3.91336381e-01,
          -1.72651693e-01, 3.91336381e-01, 1.80090383e-01,
          3.01166847e-02, -1.33385062e-01, 1.05906293e-01,
          2.37424240e-01, -2.68675461e-02, -4.76236828e-03,
          2.68675461e-02, 1.62217282e-02, 4.06315923e-03,
          -2.16142042e-03, 4.06315923e-03, 2.16142042e-03,
          2.27146707e-02, -5.64353354e-02, 2.28244569e-02,
          5.64353354e-02, 1.94864608e-02, -7.54449815e-02,
          1.94864608e-02, 7.54449815e-02, 1.53363589e-03,
          -5.14726480e-03, 1.98283931e-03, 5.14726480e-03,
          4.91815805e-03, -3.43429414e-03, 4.91815805e-03,
          3.43429414e-03, 5.51300030e-03, 1.09118819e-02, 1.07542351e-02,
          1.17164534e-02, -1.76664498e-02, 1.95507538e-02,
          1.76664498e-02, 1.95507538e-02, -2.31001806e-03,
          2.10096478e-03, 2.31001806e-03, 2.10096478e-03, 9.83291492e-02,
          -7.24197030e-02, 9.87025648e-02, 7.24197030e-02,
          2.96931207e-01, 1.65017303e-02, 3.07916462e-01, 1.20995380e-01,
          -8.27633142e-02, 1.89185634e-01, 8.27633142e-02,
          1.89185634e-01, -2.80036330e-02, 2.82070488e-02,
          2.80036330e-02, 2.82070488e-02, 1.09646618e-01, 1.63814388e-02,
          1.13629326e-01, 5.06454147e-02, 5.57031989e-01,
          -1.89314075e-02, 5.57031989e-01, 9.46228281e-02,
          -2.63417978e-02, 1.80224702e-02, 6.13546856e-02,
          8.93304050e-02, -2.55958810e-02, 1.51551636e-02,
          2.55958810e-02, 1.59597341e-02, 5.56578208e-03, 2.56794821e-02,
          6.10215869e-03, 2.56794821e-02, 1.43324928e-02, 5.25453575e-02,
          3.45679000e-02, 5.25453575e-02, -1.12626655e-02,
          -2.28757560e-02, 1.12626655e-02, 2.34865900e-02,
          4.54490335e-04, -4.31626057e-03, 7.97395594e-04,
          4.39958507e-03, -5.88680035e-04, 1.59168262e-02,
          1.36985560e-03, 1.59168262e-02, 1.00775808e-02, 5.86749390e-02,
          1.23725468e-02, 5.86749390e-02, 2.99557075e-02, 1.14599112e-02,
          2.99557075e-02, 1.89634003e-02, 3.34406993e-03, 1.90435792e-03,
          3.35268280e-03, 2.68207956e-03, -7.21629411e-02,
          7.09014712e-03, 7.21629411e-02, 4.18077148e-02,
          -2.30754912e-01, -3.01067561e-01, 2.40244448e-01,
          3.40114653e-01, 1.91023692e-01, -1.77665755e-01,
          1.91023692e-01, 1.77665755e-01, 3.24674957e-02,
