%YAML:1.0
opencv_ml_svm:
   format: 3
   svmType: ONE_CLASS
   kernel:
      type: RBF
      gamma: 7.4999999999999997e-02
   nu: 5.0000000000000003e-02
   term_criteria: { iterations:500 }
   var_count: 1408
   class_count: 1
   sv_total: 63
   support_vectors:
      - [ 1.24616688e-03, -5.58382878e-03, 1.71480386e-03,
          5.87833999e-03, -7.63944024e-03, -4.42738924e-03,
          7.63944024e-03, 5.07858954e-03, -1.24768398e-04,
          4.53978032e-03, 3.59619060e-03, 4.75289207e-03,
          -1.37194802e-04, 5.57425024e-04, 2.67303985e-04,
          5.57425024e-04, 8.87855366e-02, -1.17413968e-01,
          8.87855366e-02, 1.17413968e-01, 3.55472356e-01,
          -1.12041488e-01, 3.55472356e-01, 1.73040733e-01,
          -1.42556597e-02, 3.73089202e-02, 2.82951687e-02,
          4.17578481e-02, -3.35415709e-03, 1.75173208e-03,
          3.35415709e-03, 1.93424628e-03, 1.22908399e-01, 4.89619598e-02,
          1.22908399e-01, 5.49325906e-02, 5.20765781e-01, 1.33224726e-01,
          5.20765781e-01, 1.83652669e-01, -1.86840631e-02,
          8.77719820e-02, 6.80956990e-02, 9.12341028e-02,
          -7.61769153e-03, 6.59163110e-03, 7.61769153e-03,
          8.40483140e-03, 8.32063984e-03, 2.13539582e-02, 9.03076865e-03,
          2.13539582e-02, 2.80747544e-02, 3.77765037e-02, 3.11439838e-02,
          3.96091454e-02, -8.14334489e-03, 1.08664725e-02,
          8.64252262e-03, 1.24794496e-02, -2.02674465e-03,
          1.37174805e-03, 2.02674465e-03, 1.37174805e-03,
          -3.72125232e-03, -2.08462565e-03, 3.72837693e-03,
          2.25505093e-03, -5.47091011e-03, -4.70873564e-02,
          1.42570185e-02, 4.70873564e-02, 2.79098619e-02,
          -3.47772762e-02, 2.79381070e-02, 3.47772762e-02,
          1.60174142e-03, 8.46717230e-05, 1.93921092e-03, 9.36477678e-04,
          -5.22302575e-02, -2.44033337e-02, 5.22415377e-02,
          2.44146101e-02, -8.71104226e-02, -1.81675419e-01,
          1.69257745e-01, 1.81675419e-01, 3.76296461e-01,
          -1.46000594e-01, 3.76296461e-01, 1.52246073e-01,
          5.96747436e-02, 1.71178132e-02, 5.96747436e-02, 1.79054607e-02,
          -4.62027006e-02, -1.62175027e-04, 4.62027006e-02,
          1.42903132e-02, -3.06138825e-02, 1.91690415e-01,
          7.68028274e-02, 1.96609348e-01, 4.22757924e-01, 1.90745682e-01,
          4.22757924e-01, 1.90745682e-01, 8.41042846e-02, 2.01250166e-02,
          8.41042846e-02, 2.03025453e-02, -7.43415498e-04,
          5.80981048e-03, 1.29734736e-03, 5.80981048e-03, 5.18248556e-03,
          5.81877790e-02, 5.77547913e-03, 5.81877790e-02, 3.99237536e-02,
          4.93606441e-02, 3.99237536e-02, 4.93606441e-02, 7.92564545e-03,
          1.36349292e-03, 7.92564545e-03, 1.77837594e-03, 1.96393044e-03,
          1.01842918e-03, 2.03554798e-03, 1.02357706e-03, 2.86992197e-03,
          3.27776149e-02, 8.00933596e-03, 3.27776149e-02,
          -3.75579088e-03, 6.34116977e-02, 1.09019084e-02,
          6.34116977e-02, 3.50067625e-03, 1.68703459e-02, 3.83876404e-03,
          1.68703459e-02, 1.20809777e-02, 4.84048575e-03, 1.20809777e-02,
          5.80609357e-03, 4.33382206e-02, -7.88838193e-02,
          4.57570292e-02, 8.12278390e-02, 3.33627999e-01, 7.93251097e-02,
          3.33627999e-01, 1.25017196e-01, 5.65646328e-02, 5.95576912e-02,
          5.65646328e-02, 5.95576912e-02, 1.22599013e-03, 3.77240730e-03,
          8.13174155e-03, 4.86106612e-03, 1.37498118e-02,
          -4.74561490e-02, 1.01544462e-01, 4.89844233e-02,
          5.79937875e-01, 1.23443045e-02, 5.79937875e-01, 9.62188989e-02,
          3.81526835e-02, -1.36176422e-02, 4.04546335e-02,
          2.84117311e-02, -1.48767943e-03, -1.17188424e-03,
          1.81844330e-03, 1.22768432e-03, -3.17498809e-03,
          -1.80450641e-02, 1.62591450e-02, 1.80450641e-02,
          6.58982620e-02, -3.66119929e-02, 6.58982620e-02,
          3.66119929e-02, 3.84437572e-03, -6.54905755e-03,
          4.02695313e-03, 6.54905755e-03, 5.11361228e-04, 4.26123181e-04,
          6.78970537e-04, 4.26123181e-04, -1.05492463e-02,
          1.11920033e-02, 1.05492463e-02, 1.11920033e-02, 6.76598400e-02,
          1.48150381e-02, 6.76598400e-02, 1.48150381e-02, 1.72411855e-02,
          3.77875986e-03, 1.72719099e-02, 3.77875986e-03, 1.25321737e-02,
          -1.45366776e-03, 1.25321737e-02, 5.22589358e-03,
          -1.05292514e-01, -4.15382423e-02, 1.07680976e-01,
          7.27669150e-02, 4.52666312e-01, -1.23850428e-01,
          4.52666312e-01, 1.37022078e-01, 1.27543658e-01,
          -1.79595556e-02, 1.28053114e-01, 2.10332461e-02,
          1.23935640e-02, -3.37451953e-03, 1.23935640e-02,
          3.37451953e-03, -1.01665020e-01, 2.19114572e-02,
          1.02269866e-01, 6.81267977e-02, 4.31781501e-01, 1.13252141e-01,
          4.44469154e-01, 1.39540389e-01, 1.24308541e-01, 7.49135483e-03,
          1.24308541e-01, 1.37596279e-02, 2.10133055e-03,
          -1.01932813e-03, 2.10133055e-03, 1.01932813e-03,
          -5.02711220e-04, -5.72132366e-03, 4.20843577e-03,
          1.41759012e-02, 5.33252805e-02, -2.28884500e-02,
          5.37689812e-02, 3.23913544e-02, 1.59093011e-02,
          -8.50678422e-03, 1.59093011e-02, 8.50678422e-03,
          1.67269085e-03, 1.05174002e-03, 1.79918634e-03, 1.88883964e-03,
          3.40929106e-02, 5.60209006e-02, 3.45760547e-02, 5.60209006e-02,
          5.58608323e-02, 5.70220128e-02, 5.58608323e-02, 5.70220128e-02,
          5.28073311e-03, -2.27862061e-03, 5.45407878e-03,
          2.78048450e-03, 4.25988585e-02, -1.33649213e-03,
          4.28631343e-02, 6.83961017e-03, 4.46150750e-01, 1.57076910e-01,
          4.46150750e-01, 1.67540535e-01, 2.87892446e-02,
          -1.12567730e-02, 8.48320425e-02, 1.34476081e-01,
          1.19780870e-02, -2.12548636e-02, 1.21892188e-02,
          2.12548636e-02, 4.98889163e-02, -1.35766482e-02,
          5.06249331e-02, 1.36343045e-02, 3.38227779e-01,
          -2.39859149e-01, 3.38227779e-01, 2.39859149e-01,
          -5.25827259e-02, -2.55529940e-01, 7.00554028e-02,
          2.55529940e-01, 2.26227883e-02, -2.59793624e-02,
          2.27790605e-02, 2.59793624e-02, 4.35515353e-03,
          -2.68929196e-03, 4.47935238e-03, 2.70022149e-03,
          4.67491411e-02, -2.93579977e-02, 4.67491411e-02,
          2.93579977e-02, 1.15084685e-02, -1.00693870e-02,
          1.15314862e-02, 1.03704706e-02, 1.09196431e-03,
          -2.39240634e-03, 1.37282582e-03, 2.39240634e-03,
          1.59712369e-03, 9.68989858e-04, 1.59712369e-03, 1.40942726e-03,
          3.89620662e-02, 8.20916612e-03, 3.94185297e-02, 1.32263061e-02,
          -3.25261727e-02, 6.73057586e-02, 4.74762917e-02,
          6.73057586e-02, -1.80156566e-02, 1.53645137e-02,
          1.80156566e-02, 1.53645137e-02, 1.40727283e-02,
          -1.92693379e-02, 1.40727283e-02, 1.92693379e-02,
          3.49589407e-01, -9.08981785e-02, 3.49589407e-01,
          1.01397432e-01, 6.35951990e-03, -7.37418756e-02,
          3.31342578e-01, 9.70612094e-02, -1.36734217e-01,
          -2.39243284e-02, 1.36734217e-01, 3.18695344e-02,
          2.02561747e-02, -7.06625124e-03, 2.02561747e-02,
          7.17524532e-03, 4.15091634e-01, 4.55737747e-02, 4.15091634e-01,
          5.50457500e-02, -4.66958545e-02, 7.93052912e-02,
          3.54440242e-01, 7.93052912e-02, -1.56276077e-01,
          3.14589520e-03, 1.56276077e-01, 1.39963794e-02, 4.23532445e-03,
          -3.65411607e-03, 4.23532445e-03, 3.65411607e-03,
          7.09314719e-02, -1.31684151e-02, 7.09314719e-02,
          1.31684151e-02, -1.40694128e-02, -2.01471969e-02,
          5.40611967e-02, 2.01471969e-02, -2.12514903e-02,
          -4.02607210e-03, 2.12514903e-02, 4.05896734e-03,
          8.52560159e-03, 1.42840541e-03, 8.52560159e-03, 1.47198641e-03,
          4.14600372e-02, 2.05260217e-02, 4.14600372e-02, 2.05260217e-02,
          -3.48777212e-02, 1.70835527e-03, 3.50004770e-02,
          5.09136217e-03, -3.43012507e-03, 4.25520964e-04,
          3.43012507e-03, 1.09281659e-03, 7.10030794e-02,
          -4.09825705e-03, 7.10030794e-02, 5.61304856e-03,
          3.22009861e-01, 6.28669262e-02, 3.24497551e-01, 7.27022067e-02,
          -2.52503335e-01, 1.59770325e-01, 2.52503335e-01,
          1.59770325e-01, -2.02054139e-02, 2.17117388e-02,
          2.02054139e-02, 2.17117388e-02, 6.04817532e-02,
          -9.21856705e-03, 6.05854094e-02, 1.02939596e-02,
          4.73529905e-01, -7.78826773e-02, 4.73529905e-01,
          1.02039441e-01, -1.95488781e-01, 6.60564080e-02,
          2.06005722e-01, 8.36645588e-02, -2.68490911e-02,
          1.04915639e-02, 2.68490911e-02, 1.04915639e-02, 3.82751110e-03,
          -3.05835553e-03, 4.31810366e-03, 3.11753224e-03,
          8.45299140e-02, -3.90382893e-02, 8.45299140e-02,
          3.90382893e-02, -9.98656033e-04, -2.60122400e-03,
          2.62435060e-02, 1.09633300e-02, -4.03355015e-03,
          2.28554639e-03, 4.03355015e-03, 2.28554639e-03, 4.35806927e-04,
          1.23393853e-04, 4.35806927e-04, 7.93216284e-04, 2.62061153e-02,
          1.28455786e-02, 2.62375288e-02, 1.40523193e-02, 2.15860922e-02,
          3.21362242e-02, 2.16175076e-02, 3.21362242e-02, 2.40188139e-03,
          5.28442115e-03, 2.40188139e-03, 5.28442115e-03, 3.16978060e-03,
          -2.93904776e-03, 5.62938955e-03, 8.56692903e-03,
          3.24870318e-01, 5.34808896e-02, 3.24870318e-01, 6.32721856e-02,
          1.49685711e-01, 1.32149786e-01, 1.52443334e-01, 1.32149786e-01,
          2.03440022e-02, 2.45820545e-02, 2.03440022e-02, 2.45820545e-02,
          -1.99711490e-02, 2.76193745e-03, 2.12080702e-02,
          8.43132008e-03, 3.93861949e-01, -1.95251688e-01,
          4.01154816e-01, 1.95251688e-01, 3.61800820e-01,
          -6.79602148e-03, 3.61800820e-01, 1.33371085e-01,
          1.85487047e-02, 3.76804806e-02, 1.85487047e-02, 3.76804806e-02,
          -7.11324019e-03, 4.69041150e-03, 7.13296467e-03,
          4.69041150e-03, 3.29773128e-02, 7.96706136e-03, 4.45294306e-02,
          2.29083952e-02, 8.20656344e-02, -1.84463914e-02,
          8.20656344e-02, 2.11585537e-02, 5.65099344e-03,
          -1.47732545e-03, 5.65099344e-03, 1.70229853e-03,
          -9.23040265e-04, 2.29048822e-03, 1.32479926e-03,
          2.30721803e-03, 9.87358205e-03, -3.98921501e-03,
          1.91042013e-02, 6.92187343e-03, 4.76464666e-02, 1.37113780e-03,
          4.76464666e-02, 1.05784917e-02, 1.87412603e-03, 3.82157322e-03,
          1.94201875e-03, 3.82157322e-03, -1.71619859e-02,
          1.99957415e-02, 2.24947277e-02, 1.99957415e-02,
          -1.13445573e-01, 5.39509160e-03, 2.11881116e-01,
          1.01706602e-01, 4.59917963e-01, -1.20186903e-01,
          4.59917963e-01, 1.21504322e-01, 4.60782051e-02, 5.21938922e-03,
          4.60782051e-02, 1.06905336e-02, -1.11512812e-02,
          1.70563962e-02, 1.65725946e-02, 1.76090747e-02,
          -1.79371476e-01, 2.68897563e-01, 1.79371476e-01,
          2.68897563e-01, 3.00499618e-01, 1.80598021e-01, 3.00499618e-01,
          1.90313011e-01, 5.52769601e-02, -6.15797844e-03,
          5.52769601e-02, 1.23717478e-02, -5.63014823e-04,
          -3.96359805e-03, 5.89885574e-04, 3.96359805e-03,
          1.87488087e-03, -1.62744278e-03, 9.92077589e-03,
          1.24859838e-02, 2.84524262e-02, 1.83305573e-02, 2.84524262e-02,
          2.01370940e-02, 4.10220120e-03, 1.26084359e-03, 4.10220120e-03,
          1.58040377e-03, -3.30621400e-03, -1.16255283e-02,
          3.30621400e-03, 1.16255283e-02, -4.13167253e-02,
          -2.27259919e-02, 4.13167253e-02, 2.27259919e-02,
          -9.80135705e-03, -2.90017221e-02, 1.41866142e-02,
          2.90017221e-02, 1.55808567e-03, -4.42359038e-03,
          2.17527454e-03, 4.62989463e-03, 2.70760823e-02,
          -8.09692815e-02, 4.77221124e-02, 8.09692815e-02,
          1.98763803e-01, 2.65574660e-02, 2.64219314e-01, 1.67771488e-01,
          -2.45751619e-01, 3.11847150e-01, 2.47085258e-01,
          3.17773670e-01, -8.29142518e-03, 1.56905074e-02,
          2.04929728e-02, 3.52263227e-02, 6.47493303e-02, 4.55504376e-03,
          8.19292814e-02, 3.21963020e-02, 4.53661799e-01,
          -5.90431094e-02, 4.53661799e-01, 1.09028399e-01,
          -6.44679070e-02, -2.38019042e-02, 8.02323818e-02,
          2.17432901e-01, -1.50039801e-02, 4.31968793e-02,
          2.09751967e-02, 5.13356514e-02, 7.58490618e-03, 2.82717869e-03,
          7.73991598e-03, 3.94396530e-03, 1.03486534e-02,
          -4.37725745e-02, 1.92099772e-02, 4.54578511e-02,
          4.50030854e-03, -6.97599649e-02, 1.36881107e-02,
          6.97599649e-02, 4.37762262e-03, -8.77907313e-03,
          4.37762262e-03, 8.77907313e-03, 1.25057340e-04, 1.40067062e-03,
          7.76061846e-04, 1.47032808e-03, 1.13987981e-03, 2.86858734e-02,
          4.19164868e-03, 2.95458902e-02, 3.68727595e-02,
          -1.00294324e-02, 3.68727595e-02, 3.03727351e-02,
          5.99113526e-03, -1.40168220e-02, 6.25146367e-03,
          1.40415635e-02, 2.21076552e-02, 1.69764960e-03, 2.21076552e-02,
          3.97245307e-03, 1.92699477e-01, 1.85649082e-01, 1.92699477e-01,
          1.90374538e-01, -2.82556087e-01, 2.60077178e-01,
          2.96304792e-01, 2.90122241e-01, -2.39642765e-02,
          -3.41273881e-02, 4.25080098e-02, 4.94213514e-02,
          2.38923877e-02, -1.03877634e-02, 2.38923877e-02,
          1.03877634e-02, 3.74463201e-01, -7.31564313e-02,
          3.74463201e-01, 9.31762978e-02, -1.40852392e-01,
          1.91216126e-01, 3.14694017e-01, 2.05886051e-01,
          -6.99507073e-02, 6.60986230e-02, 7.15652630e-02,
          6.61537796e-02, 2.40325532e-03, -4.51618078e-04,
          2.40325532e-03, 4.51618078e-04, 5.50504103e-02,
          -1.29452972e-02, 5.50504103e-02, 1.33826146e-02,
          3.68547849e-02, -1.27315740e-04, 4.56197783e-02,
          1.29635995e-02, -8.27355403e-03, 6.33235881e-03,
          8.27355403e-03, 6.33235881e-03, 4.31185035e-04, 1.86914997e-03,
          8.10152572e-03, 5.33563970e-03, 1.10624410e-01,
          -1.45946844e-02, 1.10624410e-01, 3.21218483e-02,
          3.75263626e-04, -4.77288216e-02, 2.06924826e-02,
          4.87047285e-02, -3.56696825e-03, 6.16558315e-03,
          3.87527235e-03, 6.16558315e-03, 2.20129546e-02, 4.24966961e-02,
          3.10464613e-02, 4.27105203e-02, 1.94196150e-01,
          -1.73275888e-01, 1.94196150e-01, 2.19433978e-01,
          3.63062233e-01, -1.98904127e-01, 3.63062233e-01,
          2.02213541e-01, 2.39005461e-02, 7.71895749e-03, 3.54615003e-02,
          1.31654097e-02, -1.52841741e-02, 3.18271220e-02,
          1.59944501e-02, 3.48830074e-02, -2.05266140e-02,
          9.04242396e-02, 1.22523881e-01, 1.14150986e-01, 4.49529648e-01,
          6.25807047e-02, 4.49529648e-01, 9.70407352e-02, 3.53835151e-02,
          -9.51975584e-03, 3.89069095e-02, 1.04237655e-02,
          -1.61046116e-03, -1.31153339e-03, 2.17329082e-03,
          2.28406023e-03, 1.66515596e-02, 2.89179552e-02, 1.91012118e-02,
          2.94059087e-02, 2.75875889e-02, 7.12118903e-03, 2.86535695e-02,
          1.75659657e-02, 3.91412852e-03, -4.27958835e-03,
          3.91412852e-03, 4.27958835e-03, -2.59078719e-04,
          5.72844176e-04, 8.21134949e-04, 5.72844176e-04, 4.07598121e-03,
          -4.74456837e-03, 1.34916622e-02, 4.95931739e-03,
          1.23506114e-02, 1.38725443e-02, 2.70235334e-02, 1.96637101e-02,
          -1.09739937e-02, 1.28967082e-02, 1.09739937e-02,
          1.30184861e-02, 7.50953215e-04, 1.24598108e-02, 6.22706814e-03,
          1.24598108e-02, -5.74572124e-02, 1.07277520e-01,
          8.30081403e-02, 1.12341084e-01, 4.62448984e-01, 6.16620183e-02,
          4.62448984e-01, 7.57811368e-02, 1.23424586e-02, 8.26463848e-02,
          4.46765684e-02, 8.26463848e-02, 2.55333446e-02, 2.08428726e-02,
          2.55333446e-02, 2.08428726e-02, -1.19757183e-01,
          3.16453665e-01, 1.51588708e-01, 3.16453665e-01, 2.56442249e-01,
          -5.25104105e-02, 3.68698716e-01, 1.83545947e-01,
          6.78056628e-02, -4.80329059e-02, 7.49876276e-02,
          5.11933751e-02, 8.33307672e-03, 2.03058054e-03, 8.33307672e-03,
          2.03058054e-03, -3.22598331e-02, 2.48670168e-02,
          5.14080562e-02, 2.48670168e-02, -6.10387400e-02,
          -2.99708042e-02, 7.47148469e-02, 3.25596295e-02,
          1.26523087e-02, -1.09831104e-02, 1.26523087e-02,
          1.09984074e-02, 4.32856288e-03, 7.21443095e-04, 4.32856288e-03,
          7.21443095e-04, 5.24220765e-02, 1.30011318e-02, 5.24220765e-02,
          1.30011318e-02, 4.55609187e-02, 9.11800843e-03, 4.55609187e-02,
          9.11800843e-03, -4.65744728e-04, 5.11618040e-04,
          9.58275166e-04, 5.11618040e-04, 3.37654948e-02,
          -1.90832559e-03, 3.37654948e-02, 3.37727158e-03,
          4.20434088e-01, 4.91397120e-02, 4.20434088e-01, 5.21653332e-02,
          2.44611144e-01, 4.51173410e-02, 2.44611144e-01, 4.98403907e-02,
          -1.08906412e-02, -5.43822208e-03, 1.12410244e-02,
          5.43822208e-03, 3.08633726e-02, -3.77027667e-03,
          3.11251041e-02, 4.47311951e-03, 4.45187598e-01,
          -5.55843860e-02, 4.45187598e-01, 5.55843860e-02,
          1.93739861e-01, -7.65480697e-02, 1.93739861e-01,
          7.71026164e-02, -1.02866190e-02, -3.84305837e-03,
          1.08121941e-02, 7.88305048e-03, 2.55031185e-03,
          -9.28941474e-04, 2.79417029e-03, 1.11519359e-03,
          6.15906417e-02, -2.03405526e-02, 6.15906417e-02,
          2.03628428e-02, 4.52140383e-02, 1.92119204e-03, 4.52140383e-02,
          1.06591154e-02, 4.75108209e-05, 3.22275818e-03, 1.53013458e-03,
          3.25122033e-03, 8.46340263e-05, -1.67656865e-04,
          4.37150273e-04, 3.09231895e-04, 2.80495323e-02, 8.13847780e-03,
          2.80495323e-02, 8.86904448e-03, 5.76622188e-02, 1.13709588e-02,
          5.76622188e-02, 1.14004957e-02, 7.24833505e-03, 1.01507793e-03,
          7.24833505e-03, 1.01507793e-03, 5.12923300e-03,
          -6.67283661e-04, 7.34855188e-03, 8.64410657e-04,
          2.42937535e-01, 1.48903755e-02, 2.42937535e-01, 1.99396070e-02,
          3.97445321e-01, 5.19235060e-02, 3.97445321e-01, 5.19235060e-02,
          4.47243862e-02, 5.93715487e-03, 4.47243862e-02, 5.96409943e-03,
          4.49244399e-03, 2.95276986e-03, 6.59182761e-03, 4.21637995e-03,
          2.37014607e-01, -3.79582532e-02, 2.37014607e-01,
          3.96387689e-02, 4.56458151e-01, -1.20072439e-02,
          4.56458151e-01, 3.71819921e-02, 3.75613123e-02,
          -1.37919362e-03, 3.78242470e-02, 5.73515566e-03,
          -1.36715928e-04, 1.04791624e-03, 3.23482207e-04,
          1.04886421e-03, 2.38574576e-02, -4.22705943e-03,
          2.44024433e-02, 5.46418037e-03, 6.57934621e-02,
          -1.78421941e-02, 6.57934621e-02, 1.78421941e-02,
          5.04057575e-03, -2.52391724e-03, 5.04057575e-03,
          2.57327897e-03, 0., 0., 0., 0., 3.22495215e-02,
          -2.20882520e-03, 3.22495215e-02, 3.10713262e-03,
          2.75156535e-02, 2.52115037e-02, 4.05116454e-02, 2.77402420e-02,
          -2.19543800e-02, 5.34537015e-03, 2.19543800e-02,
          6.21334463e-03, 8.04397205e-05, -8.04397205e-05,
          8.04397205e-05, 8.04397205e-05, 1.37712702e-01,
          -1.05059437e-01, 1.37712702e-01, 1.05059437e-01,
          4.15860772e-01, -1.17503859e-01, 4.54558372e-01,
          1.25313058e-01, -1.76190734e-01, -5.57620078e-03,
          1.76190734e-01, 1.47556327e-02, -6.84087223e-04,
          -3.56373773e-03, 8.44966620e-04, 3.72461719e-03,
          1.58185735e-01, 6.39151335e-02, 1.67331606e-01, 8.35252702e-02,
          3.38693827e-01, 7.27112591e-02, 4.21239167e-01, 1.18073381e-01,
          -1.92335591e-01, -3.54328416e-02, 1.92335591e-01,
          3.54328416e-02, -4.63649594e-05, -8.69437208e-05,
          4.63649594e-05, 8.69437208e-05, 4.10874300e-02, 7.44310580e-03,
          4.10874300e-02, 9.83306020e-03, 1.50127923e-02,
          -3.53981997e-03, 5.67526892e-02, 1.58228632e-02,
          -3.38522568e-02, -8.19692854e-03, 3.38522568e-02,
          8.19692854e-03, -5.86737297e-04, 2.36098631e-03,
          9.70533816e-04, 2.44684867e-03, 5.22101037e-02,
          -1.75803695e-02, 5.22101037e-02, 1.99133884e-02,
          -7.42359459e-02, 2.13541999e-03, 8.93602297e-02,
          2.78142691e-02, -4.78830412e-02, 8.92115291e-03,
          4.78830412e-02, 8.92115291e-03, -1.40986368e-02,
          5.55878878e-03, 1.97096951e-02, 8.00634082e-03, 1.74688131e-01,
          -7.96934068e-02, 2.45333076e-01, 1.18377849e-01,
          -4.99198548e-02, 4.32035327e-02, 4.64259893e-01,
          1.65103257e-01, -2.80357242e-01, 9.66712460e-02,
          2.80357242e-01, 9.66712460e-02, 1.42980125e-02,
          -8.47936515e-03, 2.10864898e-02, 8.47936515e-03,
          9.01691020e-02, 1.41720191e-01, 1.32909283e-01, 1.49105787e-01,
          2.94095606e-01, 1.32260114e-01, 3.87048811e-01, 1.32260114e-01,
          -1.93570867e-01, 9.43111479e-02, 1.93570867e-01,
          9.43111479e-02, 4.57086880e-03, -2.74776272e-03,
          4.57086880e-03, 2.74776272e-03, 2.51303762e-02,
          -4.74887714e-03, 2.51303762e-02, 4.74887714e-03,
          5.06068282e-02, -8.52056872e-03, 5.06068282e-02,
          9.87557508e-03, -1.25583885e-02, 6.99863909e-03,
          1.34405326e-02, 7.12310662e-03, 8.83769430e-03,
          -3.08271777e-03, 8.83769430e-03, 3.08271777e-03,
          1.89428106e-02, -6.22148765e-03, 1.89428106e-02,
          7.73584563e-03, -1.22687211e-02, -3.12138395e-03,
          1.51270870e-02, 6.42333413e-03, -8.63708276e-03,
          -1.87759567e-03, 8.63708276e-03, 1.87759567e-03,
          6.76674992e-02, -4.67141811e-03, 6.76674992e-02,
          5.39178075e-03, 2.94151902e-01, 1.35725260e-01, 2.94151902e-01,
          1.39062166e-01, -2.00859606e-01, 1.65154204e-01,
          2.01999709e-01, 1.65154204e-01, -6.76101670e-02,
          -3.78651050e-04, 6.76101670e-02, 4.02732473e-03,
          6.78463131e-02, -1.68377962e-02, 6.78829029e-02,
          1.68796051e-02, 4.56314474e-01, -1.26005337e-01,
          4.56314474e-01, 1.50269598e-01, -2.26786047e-01,
          4.79697175e-02, 2.68416494e-01, 9.31561589e-02,
          -8.79127234e-02, 3.76197044e-03, 8.79127234e-02,
          5.77919371e-03, 5.45448344e-03, -3.42828827e-03,
          5.67869609e-03, 3.43070435e-03, 7.62373954e-02,
          -4.43129726e-02, 7.62373954e-02, 4.43129726e-02,
          2.34348327e-03, -2.09477674e-02, 4.41597328e-02,
          2.12353431e-02, -1.43947182e-02, -5.47007439e-05,
          1.43947182e-02, 3.79586098e-04, -5.90387790e-04,
          -3.04675149e-03, 9.57963639e-04, 3.12319701e-03,
          1.17945429e-02, -2.76539531e-02, 1.20095126e-02,
          3.31230611e-02, 2.51303357e-03, 2.00170628e-03, 3.67444218e-03,
          9.64657776e-03, -1.13777851e-03, 7.45511032e-04,
          1.13777851e-03, 7.45511032e-04, -3.98340933e-02,
          -3.11497264e-02, 3.98340933e-02, 3.11497264e-02,
          1.24847509e-01, -3.74758422e-01, 1.71348825e-01,
          3.74758422e-01, 2.70502776e-01, -2.60872424e-01,
          2.70502776e-01, 2.60872424e-01, 1.48034049e-03,
          -3.61351995e-03, 7.54859811e-03, 6.07271912e-03,
          -4.42106538e-02, -1.31682996e-02, 4.42106538e-02,
          1.31682996e-02, 1.21473707e-01, 3.14270779e-02, 1.76531017e-01,
          4.83299755e-02, 3.94934595e-01, 7.09517598e-02, 3.94934595e-01,
          7.86319375e-02, 9.78633296e-03, 5.23813954e-03, 1.02241235e-02,
          6.35924889e-03, -4.55313781e-03, -1.71994476e-03,
          4.55313781e-03, 1.73957960e-03, 3.55718061e-02, 8.20796005e-03,
          3.63044925e-02, 9.01466887e-03, 4.68052700e-02, 7.04264315e-03,
          4.68052700e-02, 7.64243770e-03, 1.17830711e-03,
          -7.06577732e-04, 1.17893179e-03, 7.26212398e-04,
          5.34837774e-04, -5.92555292e-03, 6.62531296e-04,
          5.92555292e-03, 6.89195329e-03, -1.49168139e-02,
          7.49333436e-03, 1.50330700e-02, -8.11639940e-04,
          -1.66867534e-03, 8.11639940e-04, 2.04196526e-03,
          -3.49534821e-04, -9.67783344e-05, 3.49534821e-04,
          1.97892950e-04, 1.81492995e-02, -6.12644255e-02,
          1.82642322e-02, 6.12644255e-02, 3.97882760e-01,
          -9.46064591e-02, 3.97882760e-01, 1.25146106e-01,
          -5.50443828e-02, 3.14840227e-02, 5.81021570e-02,
          3.51175517e-02, -1.00391426e-05, 1.00391426e-05,
          1.00391426e-05, 1.00391426e-05, 3.18607390e-02, 2.18529664e-02,
          3.21003161e-02, 2.98427641e-02, 5.43167233e-01, 9.38965604e-02,
          5.43167233e-01, 1.09635524e-01, -1.06609032e-01,
          1.64933614e-02, 1.06609032e-01, 1.64933614e-02,
          -1.07136171e-03, 3.00096552e-04, 1.07136171e-03,
          3.00096552e-04, 2.59038294e-03, 1.02513181e-02, 2.80971942e-03,
          1.02513181e-02, 3.58262956e-02, 1.69490799e-02, 3.58262956e-02,
          1.89547576e-02, -1.22303553e-02, -4.67395148e-05,
          1.22303553e-02, 2.87439930e-03, -4.19180898e-04,
          -1.21957055e-04, 4.21025237e-04, 1.21957055e-04,
          -3.12630972e-03, 1.74064946e-03, 3.39772366e-03,
          2.16497900e-03, 3.43594253e-02, -2.70646792e-02,
          3.46510261e-02, 2.73562782e-02, 5.44914715e-02,
          -3.28761078e-02, 5.44914715e-02, 3.28761078e-02,
          2.12388113e-03, -4.79837239e-04, 2.71751056e-03,
          7.49723811e-04, -4.68195118e-02, 3.78875099e-02,
          4.68195118e-02, 3.78875099e-02, -3.67398700e-03,
          7.03175813e-02, 1.33350670e-01, 1.19006634e-01, 3.89182180e-01,
          -9.84150022e-02, 3.89182180e-01, 1.10716648e-01,
          3.33114192e-02, -1.83035228e-02, 3.55555788e-02,
          1.83220766e-02, -3.79874483e-02, 2.94720288e-02,
          3.79874483e-02, 2.94905826e-02, -1.19005032e-01,
          3.03228796e-01, 1.52234495e-01, 3.03228796e-01, 3.04087013e-01,
          3.14929396e-01, 3.04087013e-01, 3.14929396e-01, 1.41018787e-02,
          1.89099237e-02, 2.01050509e-02, 2.18173042e-02,
          -2.08964362e-03, 3.64547217e-04, 2.08964362e-03,
          7.69055332e-04, 3.34734446e-03, 2.00521983e-02, 1.56106586e-02,
          2.00521983e-02, 3.73264030e-02, 2.63203755e-02, 3.73264030e-02,
          2.75497157e-02, -2.24704389e-03, 2.49837199e-03,
          2.24704389e-03, 2.80676293e-03, 3.26560484e-03,
          -5.61597571e-03, 3.26560484e-03, 5.61597571e-03,
          6.31173700e-02, -2.99747400e-02, 6.31173700e-02,
          3.08834221e-02, 2.95377243e-02, 2.21704338e-02, 3.23553383e-02,
          2.51352340e-02, -1.13019091e-03, 4.15779185e-03,
          1.43842888e-03, 4.15964657e-03, 4.98095527e-03, 5.74733317e-02,
          8.90632067e-03, 5.74733317e-02, 4.84798849e-01, 2.03296959e-01,
          4.84798849e-01, 2.03296959e-01, 3.11717659e-01, 1.95678473e-02,
          3.22782069e-01, 1.17681809e-01, -2.05335170e-02,
          5.19040134e-03, 2.05335170e-02, 1.69660095e-02,
          -8.87743942e-03, 4.77985628e-02, 8.87743942e-03,
          4.77985628e-02, 9.82103199e-02, 1.01816811e-01, 1.27876326e-01,
          1.36342004e-01, 1.84901521e-01, -2.00389504e-01,
          1.84901521e-01, 2.01827690e-01, 2.03542295e-03,
          -1.96531881e-02, 7.93447159e-03, 1.96531881e-02,
          -1.65815954e-03, 5.73283360e-05, 1.65815954e-03,
          3.16497637e-04, -5.33677684e-03, 1.07069407e-02,
          6.00742595e-03, 1.09160291e-02, 1.32175032e-02, 1.40603073e-02,
          1.32175032e-02, 1.40603073e-02, 1.00190239e-03, 6.08952309e-04,
          1.04101421e-03, 7.59642804e-04 ]
      - [ 5.34371648e-04, 6.53658016e-03, 1.34908094e-03, 6.53658016e-03,
          7.46478364e-02, 4.74919565e-02, 7.46478364e-02, 4.74919565e-02,
          3.45307626e-02, 9.54036973e-03, 5.39581329e-02, 2.21644305e-02,
          -5.06434869e-03, -2.47657974e-03, 5.06434869e-03,
          2.52158055e-03, 1.65718999e-02, 1.11293709e-02, 1.74327902e-02,
          1.11293709e-02, 5.08512259e-01, 1.24250293e-01, 5.08512259e-01,
          1.57499179e-01, -1.14111379e-01, -7.94584975e-02,
          2.35407829e-01, 1.39072105e-01, -1.59386434e-02,
          -9.60319862e-03, 1.59386434e-02, 1.17212525e-02,
          1.27506489e-02, 1.87335629e-02, 1.27506489e-02, 1.87335629e-02,
          2.42877066e-01, -1.54878095e-01, 2.42877066e-01,
          1.74567029e-01, -6.83612823e-02, -2.63697028e-01,
          9.43673775e-02, 2.63697028e-01, -3.88938352e-03,
          -9.22694057e-03, 5.75138489e-03, 9.22694057e-03,
          6.68167078e-04, 7.63411750e-04, 6.72718044e-04, 8.28667777e-04,
          4.24211193e-03, -8.63257272e-04, 4.24211193e-03,
          3.88435833e-03, 4.52656765e-03, 6.22203923e-04, 4.52656765e-03,
          2.07533711e-03, 1.51541084e-04, -5.58663509e-04,
          7.16640963e-04, 5.58663509e-04, 1.06846020e-02,
          -1.00364285e-02, 1.08792186e-02, 1.00364285e-02,
          2.42228322e-02, -2.40210257e-02, 3.76682542e-02,
          2.44707540e-02, -1.85111258e-02, 1.09660754e-03,
          1.85111258e-02, 2.58691772e-03, -2.90680700e-03,
          -4.43241697e-05, 2.90680700e-03, 4.77641297e-04,
          6.66362420e-02, -4.84399963e-03, 6.72697350e-02,
          1.33060738e-02, 4.48769987e-01, -2.15038490e-02,
          4.48769987e-01, 6.10484332e-02, -1.43373042e-01,
          5.66224568e-02, 1.43373042e-01, 5.66224568e-02,
          -1.75701194e-02, 6.66661886e-03, 1.75701194e-02,
          6.66661886e-03, 5.42726330e-02, 1.39799956e-02, 5.42726330e-02,
          1.39799956e-02, 4.86923605e-01, -2.20055692e-03,
          4.86923605e-01, 3.20645235e-02, -1.42151281e-01,
          2.00919695e-02, 1.42151281e-01, 2.43168380e-02,
          -1.11551015e-02, 3.88649176e-03, 1.11551015e-02,
          3.88649176e-03, 6.89211302e-03, 3.43436608e-03, 6.89211302e-03,
          3.43436608e-03, 5.99175468e-02, -3.68305878e-03,
          5.99175468e-02, 7.68677378e-03, -1.65474191e-02,
          1.70426647e-04, 2.10699122e-02, 3.76377301e-03,
          -1.38012331e-03, -3.57330107e-04, 1.38012331e-03,
          4.38112853e-04, 1.98704452e-04, 6.98993972e-05, 4.23392514e-04,
          7.78217218e-04, -1.22070527e-02, -1.24899158e-02,
          1.22070527e-02, 1.91319305e-02, 2.42455993e-02,
          -1.08594568e-02, 2.57140733e-02, 1.43655334e-02,
          3.82505916e-03, 7.34452158e-04, 4.62700706e-03, 7.34452158e-04,
          -8.65426008e-03, -4.63504009e-02, 9.72512271e-03,
          4.63504009e-02, -1.34216756e-01, -3.19276094e-01,
          1.34216756e-01, 3.19276094e-01, 3.62706661e-01,
          -2.17274532e-01, 3.62706661e-01, 2.17274532e-01,
          3.52154858e-02, -1.16815921e-02, 4.00525518e-02,
          1.16815921e-02, -2.85837776e-03, -1.63658038e-02,
          4.74924222e-03, 1.70567911e-02, -1.62979793e-02,
          2.83482186e-02, 4.94854525e-02, 6.60561025e-02, 4.13570195e-01,
          1.19531691e-01, 4.13570195e-01, 1.22231089e-01, 3.25147957e-02,
          2.24105641e-03, 3.63515913e-02, 8.19894765e-03,
          -4.18179494e-04, 1.75126374e-03, 7.52730819e-04,
          1.75126374e-03, 1.75683629e-02, 1.84049942e-02, 1.75683629e-02,
          1.84049942e-02, 6.05173558e-02, 2.90426854e-02, 6.05173558e-02,
          2.90426854e-02, 1.08236831e-03, 9.24054824e-04, 2.54736119e-03,
          1.07787864e-03, -3.50080733e-03, 1.77543343e-03,
          3.50080733e-03, 2.23710993e-03, 5.39744925e-03, 2.39357240e-02,
          1.11045698e-02, 2.39357240e-02, 3.66141796e-02, 1.75898895e-02,
          3.66141796e-02, 1.75898895e-02, -7.14818598e-04,
          4.67450882e-04, 1.98884867e-03, 7.57411181e-04,
          -7.10063567e-03, -1.11102955e-02, 7.54428655e-03,
          2.41008978e-02, 4.36553061e-02, -2.90143974e-02,
          1.10478461e-01, 1.09522782e-01, 3.03396881e-01, 1.48889184e-01,
          3.08425367e-01, 1.48889184e-01, -2.75604408e-02,
          1.24619175e-02, 2.75604408e-02, 1.24619175e-02,
          -1.48948766e-02, -6.42839298e-02, 1.48948766e-02,
          6.42839298e-02, 3.73781383e-01, -2.50918657e-01,
          3.78809929e-01, 2.50918657e-01, 3.69581372e-01,
          -3.14326421e-03, 3.97696137e-01, 3.98422703e-02,
          -3.31410877e-02, -6.91476744e-03, 3.31410877e-02,
          7.09052710e-03, -5.45480521e-04, 9.83427628e-04,
          1.01352693e-03, 1.31161732e-03, 7.84505531e-02, 2.32570749e-02,
          7.84505531e-02, 2.32570749e-02, 4.22788188e-02,
          -5.03123854e-04, 5.00344448e-02, 8.80399998e-03,
          -2.61869677e-03, -8.95845413e-04, 2.61869677e-03,
          1.06133975e-03, 4.33785934e-03, -3.58846341e-03,
          4.84118797e-03, 3.59615334e-03, 4.32990566e-02,
          -2.18777079e-02, 5.04682809e-02, 2.24364623e-02,
          -5.12591973e-02, -3.95719334e-03, 5.12591973e-02,
          7.22322054e-03, -3.49783571e-03, 1.47099141e-03,
          3.49783571e-03, 1.47099141e-03, 6.41358644e-02,
          -1.35493418e-02, 6.41358644e-02, 1.35493418e-02,
          3.28006834e-01, -4.26566489e-02, 3.36341470e-01,
          6.13744371e-02, -2.38994360e-01, 4.14507538e-02,
          2.38994360e-01, 8.39942917e-02, -2.19974760e-02,
          7.52433110e-03, 2.19974760e-02, 7.52433110e-03, 5.19440137e-02,
          1.10571943e-02, 5.19440137e-02, 1.33491745e-02, 4.59155262e-01,
          4.04503010e-03, 4.59155262e-01, 6.21899515e-02,
          -1.78721562e-01, 2.28727371e-01, 2.06153259e-01,
          2.28727371e-01, -2.76843570e-02, 2.02243458e-02,
          2.76843570e-02, 2.02243458e-02, 7.05896004e-04, 3.91955627e-03,
          1.90686318e-03, 4.21231985e-03, 8.53543580e-02,
          -8.53517931e-03, 8.55199695e-02, 1.21322572e-02,
          -3.39661073e-03, 1.47328423e-02, 4.40366380e-02,
          2.00979132e-02, -6.70100702e-03, 3.27740191e-03,
          6.70100702e-03, 3.27740191e-03, 1.01146463e-03,
          -2.60435074e-04, 1.01146463e-03, 6.76210795e-04,
          2.11470341e-03, -1.87964330e-03, 3.48336343e-03,
          3.35435756e-03, 1.96235627e-02, -4.21680929e-03,
          1.96616668e-02, 7.49346707e-03, -1.16305426e-03,
          2.27107294e-03, 1.16305426e-03, 2.27107294e-03, 3.75725655e-03,
          -4.82670777e-03, 6.36052433e-03, 9.60000046e-03,
          -6.75745457e-02, -1.11858934e-01, 6.85224682e-02,
          1.12806857e-01, 2.18313545e-01, -1.16343454e-01,
          2.18313545e-01, 1.16343454e-01, 1.62171777e-02, 6.69222930e-03,
          2.00357530e-02, 9.05727874e-03, -3.82072106e-02,
          -2.67787445e-02, 3.82072106e-02, 3.00888158e-02,
          2.04254799e-02, -3.37766618e-01, 1.23901360e-01,
          3.37766618e-01, 4.70050573e-01, 1.21187612e-01, 4.70050573e-01,
          1.63374737e-01, 1.72195677e-02, 5.32967672e-02, 2.49523763e-02,
          5.32967672e-02, -2.19428185e-02, -9.65003041e-04,
          2.19428185e-02, 5.32114366e-03, 3.55528668e-02,
          -1.01683490e-01, 7.32197016e-02, 1.01683490e-01,
          1.87996492e-01, -1.49122160e-02, 1.87996492e-01,
          5.25093898e-02, 7.46033434e-03, 1.95443258e-02, 1.03360945e-02,
          1.97785608e-02, -4.21441440e-03, 1.74457417e-03,
          4.21441440e-03, 1.75583118e-03, 6.33714274e-02, 4.25932091e-03,
          6.33714274e-02, 7.70525727e-03, -3.54283340e-02,
          1.19952802e-02, 4.94261868e-02, 1.61255971e-02,
          -5.70635963e-03, 1.71789061e-03, 5.70635963e-03,
          1.71789061e-03, 5.01554714e-05, -2.61774976e-02,
          1.80878751e-02, 2.68989988e-02, 4.31191713e-01, 6.79553524e-02,
          4.31191713e-01, 7.39699006e-02, -2.76337951e-01,
          -2.39750240e-02, 3.20072562e-01, 5.58624789e-02,
          -3.31601687e-02, 6.61479961e-03, 3.31601687e-02,
          7.33989477e-03, 5.14231995e-02, -5.21080429e-03,
          5.14231995e-02, 1.12079438e-02, 3.48616451e-01,
          -2.78203357e-02, 3.56881082e-01, 8.73041153e-02,
          -2.45720685e-01, -1.18641950e-01, 2.45720685e-01,
          1.24938302e-01, -2.64542177e-02, 1.08123168e-04,
          2.64542177e-02, 3.89684970e-03, 8.26673675e-03, 1.93353347e-03,
          8.26673675e-03, 1.93353347e-03, 2.96816155e-02, 8.83201789e-03,
          3.91288549e-02, 8.83201789e-03, -3.02595012e-02,
          1.23806635e-03, 3.02595012e-02, 6.12453884e-03,
          -3.23941745e-03, 3.39389866e-04, 3.23941745e-03,
          3.39389866e-04, 1.40799757e-03, -5.35585545e-03,
          2.20494648e-03, 5.35585545e-03, 2.61799917e-02,
          -1.43100321e-02, 2.66602468e-02, 1.67689808e-02,
          -5.57283405e-03, 8.37534759e-03, 1.37314703e-02,
          1.84736624e-02, -7.59074371e-03, 5.58636663e-03,
          7.59074371e-03, 5.58636663e-03, 5.20001054e-02,
          -1.63153112e-02, 5.41345291e-02, 1.63153112e-02,
          2.99507350e-01, 1.70315221e-01, 2.99507350e-01, 1.72760174e-01,
          -1.04383469e-01, 9.79617164e-02, 1.14635728e-01,
          1.22915186e-01, 1.07379619e-03, 2.05571689e-02, 1.93587989e-02,
          2.12494396e-02, 5.34952767e-02, -1.98726039e-02,
          5.76766208e-02, 2.00700294e-02, 5.08628845e-01,
          -1.34907395e-01, 5.08628845e-01, 1.39659628e-01,
          -1.14714652e-01, 1.80607349e-01, 1.65525049e-01,
          1.80607349e-01, 3.12328134e-02, 2.40259301e-02, 3.26712057e-02,
          2.83985175e-02, 5.56428730e-03, -1.06834150e-05,
          6.31336588e-03, 1.98365236e-03, 1.14230976e-01, 1.97390132e-02,
          1.14230976e-01, 2.23222151e-02, -4.29719395e-04,
          3.36682461e-02, 4.44056652e-02, 3.45632620e-02,
          -6.28810143e-03, -5.62885217e-03, 6.33214414e-03,
          5.62885217e-03, 3.81557993e-03, -1.63557765e-04,
          3.81557993e-03, 1.68202643e-03, -7.70826964e-03,
          1.93671230e-02, 8.15040525e-03, 1.95145011e-02, 1.80846173e-02,
          4.22585476e-03, 1.80846173e-02, 1.45999175e-02,
          -3.35184159e-03, -6.60340488e-03, 3.83794960e-03,
          6.62117777e-03, 4.36219983e-02, -3.95268388e-02,
          4.36219983e-02, 3.95268388e-02, 2.36908197e-01, 3.78412083e-02,
          2.39142865e-01, 1.25208870e-01, -2.42928982e-01,
          1.15463726e-01, 2.42928982e-01, 1.50115728e-01,
          -3.95792723e-02, -2.83486173e-02, 4.10951823e-02,
          2.91084573e-02, 4.81622145e-02, -8.63848254e-03,
          4.84317057e-02, 1.26869017e-02, 4.77773517e-01,
          -1.04249651e-02, 4.77773517e-01, 3.32841389e-02,
          -2.99978614e-01, 1.04477048e-01, 3.34115863e-01,
          1.04477048e-01, -4.57604975e-02, 1.71046834e-02,
          5.27877510e-02, 1.73450056e-02, 8.39191396e-03, 1.75381277e-03,
          8.42461269e-03, 1.75381277e-03, 6.33286461e-02, 7.50192674e-03,
          6.33286461e-02, 7.72464648e-03, -2.35614888e-02,
          4.60103387e-03, 3.55544351e-02, 5.78528456e-03,
          -9.63812321e-03, 1.77576893e-03, 9.71513800e-03,
          2.14874838e-03, 2.83001736e-03, -2.04174407e-03,
          3.25252861e-03, 2.09940039e-03, 3.61691080e-02,
          -2.66932566e-02, 3.61691080e-02, 2.72248015e-02,
          9.71738901e-03, 6.31872052e-03, 1.34114185e-02, 1.39462380e-02,
          -8.77300394e-04, 2.03100033e-03, 1.60041696e-03,
          2.60453881e-03, -1.34044187e-02, -1.50692882e-03,
          1.71288066e-02, 7.77041214e-03, 2.69962430e-01,
          -1.22924820e-01, 2.69962430e-01, 1.22924820e-01,
          3.62221897e-01, 7.00663368e-05, 3.62221897e-01, 5.66678718e-02,
          -3.64671834e-02, 1.42233148e-02, 3.64671834e-02,
          1.51104471e-02, -2.77851094e-02, -4.49804706e-04,
          2.77851094e-02, 1.68396975e-03, 3.10731828e-01, 7.10526183e-02,
          3.10731828e-01, 7.15440959e-02, 4.04279709e-01, 5.52780554e-02,
          4.04279709e-01, 5.52780554e-02, -3.06623112e-02,
          7.37347687e-03, 3.06623112e-02, 7.37347687e-03,
          -3.57641629e-03, 4.48583713e-04, 3.57641629e-03,
          4.48583713e-04, 5.57055399e-02, 1.12580582e-02, 5.57055399e-02,
          1.12580582e-02, 4.33455855e-02, 5.66382194e-03, 4.33455855e-02,
          7.13215116e-03, -3.06410203e-03, -1.97912304e-04,
          3.06410203e-03, 4.18001320e-04, 5.91129763e-04,
          -2.64656683e-03, 2.12616753e-03, 2.74142344e-03,
          4.92158122e-02, 1.88373798e-03, 4.92158122e-02, 6.51043095e-03,
          -2.32547551e-04, 5.33494260e-03, 1.53159490e-02,
          1.03114089e-02, -2.19931290e-03, 6.87755784e-03,
          2.19931290e-03, 6.87755784e-03, 1.94327161e-02, 1.04596941e-02,
          1.94847118e-02, 1.08548990e-02, 2.25171596e-01,
          -8.09904933e-02, 2.25171596e-01, 9.29736197e-02,
          2.85039932e-01, 4.99274433e-02, 2.85039932e-01, 1.12286054e-01,
          2.36508884e-02, 5.01877703e-02, 2.57675573e-02, 5.02356216e-02,
          -2.45025964e-03, 7.92557467e-03, 8.50569922e-03,
          7.92557467e-03, 2.31599420e-01, 2.35624076e-03, 2.35820830e-01,
          6.25513941e-02, 5.11460125e-01, 1.46975756e-01, 5.11460125e-01,
          1.47926196e-01, -4.34879446e-03, -1.09014008e-02,
          2.41252910e-02, 1.85951982e-02, -2.93072918e-03,
          1.94867095e-03, 2.93072918e-03, 1.94867095e-03, 5.19894958e-02,
          1.77611802e-02, 5.27630858e-02, 1.78329572e-02, 5.15361987e-02,
          -7.51458050e-04, 5.36877513e-02, 1.67212058e-02,
          -5.44395857e-03, -4.15006420e-03, 5.44395857e-03,
          4.15006420e-03, 1.18966738e-03, 1.32406727e-04, 1.85748166e-03,
          4.27220366e-04, 4.98524122e-02, -1.15615156e-04,
          4.98524122e-02, 5.63526200e-03, 3.30135375e-02, 1.07850106e-02,
          3.30135375e-02, 1.15552600e-02, -1.43822562e-03,
          9.27020621e-04, 1.47557165e-03, 9.95618524e-04,
          -1.25242499e-04, 5.45972865e-03, 9.85326152e-03,
          5.45972865e-03, 4.14388567e-01, 8.11431371e-03, 4.14388567e-01,
          3.65501381e-02, 2.57482409e-01, 7.15913773e-02, 2.64432907e-01,
          7.67555609e-02, -2.02876609e-02, 1.07892072e-02,
          2.02876609e-02, 1.07892072e-02, -1.55743267e-02,
          3.16472352e-02, 1.55908661e-02, 3.16472352e-02, 3.48411828e-01,
          1.10087516e-02, 3.53965938e-01, 6.43429235e-02, 3.40084285e-01,
          -2.62916815e-02, 3.41585279e-01, 4.04462703e-02,
          -2.85042189e-02, 2.13040784e-03, 2.85042189e-02,
          4.74636117e-03, -2.98748491e-03, 3.55138187e-03,
          3.07761994e-03, 3.90177267e-03, 1.05767930e-02,
          -2.10009282e-03, 3.04284133e-02, 1.32268658e-02,
          6.20084032e-02, -1.59709956e-02, 6.20084032e-02,
          1.59709956e-02, -5.21415472e-03, -4.66794212e-04,
          5.21415472e-03, 4.75907349e-04, -9.80267953e-03,
          1.79265626e-03, 9.80267953e-03, 2.11853115e-03,
          -1.77777093e-02, 2.56138993e-03, 2.60782652e-02,
          7.32474728e-03, 8.48504305e-02, -1.36643136e-02,
          8.48504305e-02, 1.41055332e-02, 1.23407189e-02,
          -3.19882180e-03, 1.23407189e-02, 3.35534452e-03,
          -5.34805469e-02, -4.31106705e-03, 5.34805469e-02,
          1.33115919e-02, -2.27612600e-01, 3.27636302e-02,
          2.29768336e-01, 3.72765996e-02, 4.34308916e-01,
          -7.10808188e-02, 4.34308916e-01, 8.27217922e-02,
          1.02337509e-01, -6.61415700e-03, 1.02337509e-01,
          1.78047754e-02, -1.19455513e-02, -1.46372737e-02,
          1.59068331e-02, 1.66542418e-02, -2.25477546e-01,
          1.11761838e-01, 2.25477546e-01, 1.12839706e-01, 3.73710513e-01,
          3.42296213e-02, 3.78021955e-01, 4.53598686e-02, 1.29302010e-01,
          1.54348882e-02, 1.29302010e-01, 1.73467491e-02,
          -3.86602333e-04, 6.24981895e-03, 2.15106737e-03,
          6.24981895e-03, -2.84449384e-02, 5.20136058e-02,
          3.09311338e-02, 5.20136058e-02, 2.41106655e-02, 3.02662831e-02,
          4.50567603e-02, 3.17878388e-02, 2.04829089e-02,
          -1.98315433e-03, 2.04829089e-02, 2.01593945e-03,
          -7.02419411e-03, -4.99674352e-03, 7.02419411e-03,
          4.99674352e-03, 2.97072530e-02, 1.15226042e-02, 3.99649478e-02,
          1.65453814e-02, 5.69279157e-02, 2.26461701e-02, 5.69279157e-02,
          2.26461701e-02, 1.79892231e-03, -9.26767883e-04,
          2.01265933e-03, 9.33147501e-04, -2.67084334e-02,
          -7.08236452e-03, 2.67084334e-02, 7.08236452e-03,
          4.17194009e-01, 7.53103867e-02, 4.18449938e-01, 7.70193711e-02,
          2.44423777e-01, 7.32162371e-02, 2.47307926e-01, 7.32162371e-02,
          -4.92092455e-03, -3.70642520e-04, 6.19380968e-03,
          5.17734187e-03, -2.27754638e-02, 2.53792922e-03,
          2.27754638e-02, 2.90769804e-03, 3.82823467e-01,
          -8.96875262e-02, 3.82823467e-01, 9.24836770e-02,
          2.52215236e-01, -1.56706288e-01, 2.52215236e-01,
          1.56706288e-01, -5.48468670e-04, -4.13554022e-03,
          7.65513070e-03, 1.07112825e-02, -4.80220700e-03,
          7.28243263e-04, 4.80220700e-03, 7.28243263e-04, 2.43463367e-02,
          -1.29698347e-02, 2.56583132e-02, 1.59755480e-02,
          3.50227132e-02, -4.35846522e-02, 3.50227132e-02,
          4.42250520e-02, 8.65088019e-04, -8.05916172e-03,
          2.13440205e-03, 8.05916172e-03, -5.34070190e-03,
          -3.15575348e-03, 5.34070190e-03, 3.15575348e-03,
          6.57575158e-03, 6.02038018e-03, 2.18770169e-02, 1.66024528e-02,
          4.66672368e-02, 5.25098704e-02, 4.66939397e-02, 5.26433885e-02,
          4.38664295e-03, 6.84903469e-03, 4.38664295e-03, 6.84903469e-03,
          -2.59013996e-02, -1.24119101e-02, 2.59013996e-02,
          1.24119101e-02, 3.32048923e-01, 9.33183804e-02, 3.36880922e-01,
          9.76262987e-02, 3.44871372e-01, 1.41013116e-01, 3.44871372e-01,
          1.41013116e-01, 7.45411089e-04, 4.44632489e-03, 4.86787502e-03,
          5.78073505e-03, 1.63145096e-03, 1.72154780e-03, 1.32285338e-02,
          9.17455275e-03, 3.10191870e-01, -1.22647956e-02,
          3.10191870e-01, 7.72828758e-02, 3.46978277e-01,
          -1.03347450e-01, 3.46978277e-01, 1.05223924e-01,
          -4.59216349e-03, -3.73077835e-03, 7.73675088e-03,
          8.76305904e-03, 3.27754300e-03, -9.87116480e-04,
          3.43752350e-03, 1.53266801e-03, 1.53369233e-02,
          -2.84800422e-03, 1.53369233e-02, 7.39717297e-03,
          3.70508730e-02, -3.68253291e-02, 3.72804105e-02,
          3.68253291e-02, -6.91727560e-04, -8.38795956e-03,
          1.80919783e-03, 8.38795956e-03, 5.00448514e-03, 1.89692562e-03,
          5.15743578e-03, 1.95373874e-03, 1.02536529e-02, 1.35298632e-02,
          1.49601828e-02, 1.35298632e-02, 2.21445542e-02, 4.07074541e-02,
          2.67597623e-02, 4.07074541e-02, 1.85480586e-03, 9.57578979e-03,
          2.19359575e-03, 9.57578979e-03, 2.62054168e-02, 3.54441023e-03,
          2.65973844e-02, 1.00939916e-02, 1.81861207e-01, 3.05584017e-02,
          1.83916241e-01, 7.41422996e-02, 3.54687393e-01, 2.32617438e-01,
          3.54687393e-01, 2.32617438e-01, 4.39734757e-03, 1.64880194e-02,
          7.12570501e-03, 1.69181079e-02, 4.95127030e-03,
          -1.09997215e-02, 8.75223987e-03, 1.31423632e-02,
          3.26628625e-01, -1.42826110e-01, 3.26628625e-01,
          1.44542024e-01, 3.34347844e-01, -1.86038509e-01,
          3.34347844e-01, 1.86038509e-01, -1.64268597e-03,
          -2.09103338e-02, 4.29440429e-03, 2.09103338e-02,
          -2.18220428e-03, 2.33817054e-03, 2.18220428e-03,
          2.33817054e-03, 1.85291898e-02, -1.60064828e-02,
          2.15453971e-02, 1.81308426e-02, 3.37003507e-02,
          -5.75480685e-02, 3.37003507e-02, 5.75480685e-02,
          1.62549794e-03, -9.31917410e-03, 1.62549794e-03,
          9.31917410e-03, -2.10412848e-03, 8.40612315e-03,
          2.13612150e-03, 8.54445342e-03, -6.99952897e-03,
          3.36926579e-02, 1.49585260e-02, 3.40382904e-02, 5.81909120e-02,
          -1.33920577e-03, 5.81909120e-02, 3.13539663e-03,
          5.94933704e-03, 5.28420496e-04, 6.05213502e-03, 5.92649681e-04,
          -1.82066914e-02, 1.57931242e-02, 1.82066914e-02,
          1.85512844e-02, -2.22037211e-01, 2.82319821e-02,
          2.22037211e-01, 8.61778855e-02, 3.73913914e-01, 1.71311479e-02,
          3.73913914e-01, 4.49870490e-02, 3.92118022e-02, 6.22011768e-03,
          4.04881947e-02, 6.22011768e-03, -6.94756284e-02,
          7.56146908e-02, 6.94756284e-02, 7.56146908e-02,
          -3.39569777e-01, 1.17915228e-01, 3.39569777e-01,
          1.75404072e-01, 3.70011926e-01, -1.62085202e-02,
          3.70011926e-01, 3.56005393e-02, 4.33269702e-02,
          -5.59372874e-03, 4.38332334e-02, 6.36112457e-03,
          -9.77896061e-03, 3.32037546e-03, 9.80729982e-03,
          3.60558811e-03, -9.23141167e-02, 9.88897309e-03,
          9.23141167e-02, 1.36407632e-02, 4.36447263e-02,
          -1.32141053e-04, 4.44601476e-02, 3.68545763e-03,
          7.62390811e-03, 2.68443313e-04, 7.62390811e-03, 5.47240314e-04,
          -1.85603474e-03, 2.17101397e-03, 1.86607498e-03,
          2.59112474e-03, 3.53318900e-02, 4.15114546e-03, 3.88530008e-02,
          7.74745271e-03, 4.79103290e-02, 2.21445709e-02, 5.10882474e-02,
          2.21445709e-02, 5.32446150e-03, 8.25781934e-03, 7.02242786e-03,
          8.25781934e-03, -3.36023793e-02, 5.38455835e-03,
          3.36023793e-02, 7.61291152e-03, 3.82222295e-01, 6.39676824e-02,
          4.64435995e-01, 6.95618615e-02, 2.96158135e-01, 6.82447013e-03,
          2.96158135e-01, 7.62434080e-02, 1.10353097e-01, 2.14201063e-02,
          1.10353097e-01, 3.20036225e-02, -1.43197374e-02,
          2.86807981e-03, 1.56039940e-02, 8.76416080e-03, 1.94629282e-01,
          6.77596480e-02, 2.21813321e-01, 1.26444235e-01, 1.52570754e-01,
          -3.21385235e-01, 1.75619125e-01, 3.21385235e-01,
          1.18666254e-01, -7.21471161e-02, 1.18666254e-01,
          7.21471161e-02, 4.23859310e-05, 4.50183684e-03, 7.00466859e-04,
          4.50183684e-03, -6.19190419e-03, 2.92738546e-02,
          1.09649617e-02, 2.92738546e-02, -1.39806774e-02,
          1.60554312e-02, 1.81472562e-02, 2.26550363e-02, 5.54428250e-03,
          -7.43852230e-03, 6.11247029e-03, 7.74501450e-03,
          -3.51388335e-05, 1.54205307e-03, 7.19328818e-04,
          1.63680897e-03, 3.27028371e-02, 1.55761279e-03, 3.27028371e-02,
          2.82995077e-03, 6.37587979e-02, 7.12023396e-03, 6.37587979e-02,
          7.16710789e-03, 1.00430136e-03, 1.26739935e-04, 1.63633237e-03,
          3.56408476e-04, -1.65077411e-02, 7.27231381e-03,
          1.65077411e-02, 7.27231381e-03, 2.54985899e-01, 2.69388445e-02,
          2.54985899e-01, 3.04979477e-02, 4.17362809e-01, 3.53360549e-02,
          4.17362809e-01, 3.74636687e-02, 5.69093216e-04,
          -1.37517182e-03, 8.08834843e-03, 2.40609120e-03,
          -3.16662267e-02, 3.39797279e-03, 3.16662267e-02,
          4.67615807e-03, 2.55918324e-01, -3.57313156e-02,
          2.64188826e-01, 3.57313156e-02, 4.20332551e-01,
          -2.42827460e-02, 4.20332551e-01, 2.42827460e-02,
          -6.59004436e-04, -8.17726541e-04, 7.44217075e-03,
          1.28005806e-03, -7.44118448e-03, 9.45891021e-04,
          7.44118448e-03, 9.57714336e-04, 3.92210186e-02,
          -5.15099289e-03, 4.33756709e-02, 5.38125355e-03,
          6.35772720e-02, 1.13458969e-04, 6.35772720e-02, 2.19433662e-03,
          3.53244192e-04, 5.14120737e-04, 1.24162738e-03, 5.14120737e-04,
          2.28825072e-03, -1.04001130e-03, 4.62166360e-03,
          1.09151448e-03, 2.22648382e-02, 2.56222603e-03, 3.17889191e-02,
          6.56319177e-03, -4.69269902e-02, 1.33824050e-02,
          4.71593067e-02, 1.34710213e-02, 4.99587832e-03,
          -1.79193867e-03, 4.99587832e-03, 1.79193867e-03,
          6.01962954e-03, 1.74291909e-03, 2.87361797e-02, 3.72812198e-03,
          3.00793529e-01, 3.66577730e-02, 3.01838398e-01, 4.90115061e-02,
          -3.44211280e-01, 1.62990108e-01, 3.44211280e-01,
          1.62990108e-01, 3.32257547e-03, -1.94701820e-03,
          2.70248223e-02, 7.17519317e-03, -7.21676601e-03,
          4.39093634e-03, 2.64556073e-02, 4.39093634e-03, 3.94078225e-01,
          -7.06860945e-02, 3.94078225e-01, 7.59208202e-02,
          -2.83791065e-01, 4.19891030e-02, 3.10658842e-01,
          8.16677138e-02, -2.99253389e-02, 4.26644785e-03,
          4.20370959e-02, 8.44799168e-03, -3.76194250e-03,
          1.44930114e-03, 3.76194250e-03, 1.44930114e-03, 4.45896722e-02,
          -1.46640893e-02, 4.46232036e-02, 1.51819726e-02,
          -1.41727692e-02, -1.21729560e-02, 3.20745222e-02,
          1.28032481e-02, -6.60207914e-03, 9.49976034e-04,
          7.12074153e-03, 1.08160020e-03, 6.35926099e-03, 8.46329785e-04,
          6.47283765e-03, 2.31442321e-03, 1.69290416e-02,
          -5.16947825e-03, 2.28631478e-02, 1.06349774e-02,
          -1.48091903e-02, 4.90153162e-03, 1.92895457e-02,
          1.49904657e-02, 4.22045728e-03, 4.01705224e-03, 4.22045728e-03,
          4.01705224e-03, 2.00192221e-02, 2.05642153e-02, 2.67028995e-02,
          2.05642153e-02, -1.58485085e-01, -2.78353959e-01,
          1.74770698e-01, 2.79523432e-01, 2.47869864e-01,
          -2.04200253e-01, 2.57676333e-01, 2.07496315e-01,
          3.82366255e-02, 7.33730057e-03, 3.82732078e-02, 7.33730057e-03,
          -3.42947878e-02, -1.10595860e-02, 3.93538885e-02,
          1.93527173e-02, -1.69435367e-01, -9.50256512e-02,
          2.40401521e-01, 1.29510984e-01, 4.50129002e-01, 1.23173535e-01,
          4.50129002e-01, 1.31918460e-01, 3.51302028e-02, 9.22427792e-03,
          3.51494402e-02, 9.22427792e-03, -9.59943794e-03,
          -4.21954645e-03, 9.59943794e-03, 4.24385443e-03,
          2.80248486e-02, 1.33044878e-02, 4.09355238e-02, 2.02224795e-02,
          6.28398433e-02, 3.19939964e-02, 6.28398433e-02, 3.19939964e-02,
          1.97150814e-03, 9.76443524e-04, 2.07119389e-03, 1.11680268e-03,
          -6.32662512e-03, 3.36291618e-03, 7.03084329e-03,
          3.38037964e-03, -4.51404369e-03, 4.44974154e-02,
          4.31990474e-02, 4.46325056e-02, 1.03424251e-01, 4.10252176e-02,
          1.03424251e-01, 4.10252176e-02, 1.70937018e-03, 1.82096992e-04,
          2.05146032e-03, 5.07584540e-04, -1.07455300e-03,
          -7.49348756e-03, 2.32750773e-02, 1.88146215e-02,
          1.10023052e-01, 2.71641850e-01, 1.75904915e-01, 2.73364246e-01,
          4.02791768e-01, 1.52860060e-01, 4.02791768e-01, 1.52860060e-01,
          5.08245220e-03, -5.98142680e-04, 5.08245220e-03,
          2.31948867e-03, 1.44303488e-02, -1.75347868e-02,
          1.62045415e-02, 1.89233292e-02, 2.09224164e-01,
          -1.70403108e-01, 2.09911779e-01, 1.70403108e-01,
          3.50443810e-01, -3.31944302e-02, 3.50443810e-01,
          4.00541574e-02, 5.39007550e-03, -9.60613892e-04,
          5.39007550e-03, 9.60613892e-04, -6.51138835e-04,
          2.52323807e-03, 6.84699102e-04, 2.52323807e-03, 3.79746817e-02,
          2.17164028e-02, 3.90939750e-02, 2.17164028e-02, 5.45162968e-02,
          9.06825252e-03, 5.45162968e-02, 9.06825252e-03, 2.16276778e-04,
          1.83937955e-04, 2.16276778e-04, 2.41308109e-04 ]
      - [ 0., 0., 0., 0., 3.00178141e-03, 6.10688934e-03, 3.40711488e-03,
          6.10688934e-03, 1.00775398e-01, 2.63607297e-02, 1.00775398e-01,
          2.78112348e-02, -6.96081622e-03, 9.77156684e-04,
          1.18698291e-02, 5.19422954e-03, 4.38223220e-03,
          -4.46622871e-04, 4.38223220e-03, 1.04015647e-03,
          1.12967439e-01, 4.67040725e-02, 1.12967439e-01, 4.90572117e-02,
          5.11370420e-01, 1.02638816e-02, 5.11370420e-01, 9.56404880e-02,
          -5.59386164e-02, -1.42037896e-02, 6.06202334e-02,
          4.56747785e-02, 3.65698035e-03, 3.14904522e-04, 3.65698035e-03,
          1.17187493e-03, 1.49077639e-01, -4.13264148e-02,
          1.49077639e-01, 6.65966421e-02, 3.90840799e-01,
          -1.22862861e-01, 3.90840799e-01, 1.60129085e-01,
          3.48421037e-02, 1.04052043e-02, 3.61684337e-02, 2.51019578e-02,
          0., 0., 0., 0., 4.69522458e-03, -2.29065609e-03,
          5.15135890e-03, 3.84339225e-03, 4.81322780e-02,
          -2.34348979e-02, 4.81322780e-02, 2.53225006e-02,
          1.26859816e-02, 5.75616816e-03, 1.28034335e-02, 5.75616816e-03,
          5.00953523e-04, -2.35678541e-04, 5.18228742e-04,
          3.51995812e-04, 2.63646375e-02, 1.60639733e-02, 2.63646375e-02,
          1.63056832e-02, 3.67293097e-02, 1.40144601e-02, 3.67293097e-02,
          1.84717029e-02, -7.06577906e-03, -7.89891928e-03,
          8.67747329e-03, 8.11373442e-03, 3.96514637e-03,
          -1.16150919e-03, 4.40990832e-03, 1.16150919e-03,
          2.49174520e-01, -6.53927624e-02, 2.49174520e-01,
          9.06157345e-02, 2.18936682e-01, -1.66116469e-02,
          2.19600379e-01, 1.06925011e-01, -4.05037999e-02,
          4.61864136e-02, 5.37911132e-02, 4.78538647e-02, 2.64892098e-03,
          -8.16510001e-04, 4.03448846e-03, 2.79825507e-03,
          3.38653892e-01, 1.23091735e-01, 3.38653892e-01, 1.61199093e-01,
          3.15810740e-01, 3.42188001e-01, 3.34915012e-01, 3.42188001e-01,
          -2.45188270e-02, 2.61165597e-03, 3.78061496e-02,
          1.49638532e-02, 1.28503214e-03, 1.13773067e-03, 1.32409192e-03,
          1.15993363e-03, 8.88679922e-02, 3.41390148e-02, 8.88679922e-02,
          3.41390148e-02, 3.13810930e-02, 1.94664970e-02, 4.63076979e-02,
          2.09937599e-02, -5.35472156e-03, 4.42568399e-03,
          5.35472156e-03, 4.57416940e-03, -4.79985774e-03,
          -4.22139838e-03, 4.91097895e-03, 4.25068196e-03,
          4.74453233e-02, -6.48357812e-03, 5.26336394e-02,
          2.03507412e-02, 4.30162949e-03, 3.53741832e-02, 2.71812323e-02,
          3.53741832e-02, -3.74243944e-03, 3.18944571e-03,
          3.74360755e-03, 3.18944571e-03, -5.27905412e-02,
          7.02626677e-03, 5.27905412e-02, 1.01944497e-02, 5.06491184e-01,
          4.89820801e-02, 5.31191945e-01, 5.85762039e-02, 2.52929702e-02,
          -5.34375547e-04, 1.59211189e-01, 3.80557440e-02,
          -2.92977691e-02, 7.51160225e-03, 2.92977691e-02,
          7.51160225e-03, -3.82034071e-02, -7.11559143e-04,
          3.82034071e-02, 1.13774361e-02, 4.30218548e-01, 3.10632568e-02,
          4.38246340e-01, 5.55316657e-02, 7.75231197e-02,
          -7.37094879e-03, 1.19551361e-01, 3.89538258e-02,
          -2.27772091e-02, 1.61443781e-02, 2.27772091e-02,
          1.61443781e-02, -3.10823298e-03, 3.42748850e-03,
          3.10823298e-03, 3.42936767e-03, 3.79108377e-02, 1.62690636e-02,
          3.79108377e-02, 1.68909431e-02, 1.50810378e-02, 1.05144118e-03,
          1.50810378e-02, 2.29205703e-03, -4.23976104e-04,
          9.26572131e-04, 7.60238443e-04, 9.26572131e-04,
          -9.26166400e-03, -1.68676570e-03, 9.26166400e-03,
          1.90237118e-03, -3.13219540e-02, -1.81503650e-02,
          4.03729901e-02, 1.81719325e-02, 1.75266862e-02, 1.68734614e-03,
          1.84847228e-02, 9.08794627e-03, 2.04061158e-03,
          -5.19378402e-04, 2.04061158e-03, 7.60841125e-04,
          -7.45690241e-02, -7.28786811e-02, 7.45690241e-02,
          7.28786811e-02, 1.04287125e-01, -1.28454730e-01,
          2.96093732e-01, 1.90003186e-01, 1.07834779e-01, 1.14230625e-01,
          1.61862150e-01, 1.14230625e-01, 1.36352878e-03, 2.55430746e-03,
          5.76932356e-03, 4.87871934e-03, -6.94713369e-02,
          -7.43819252e-02, 7.85626248e-02, 7.97682852e-02,
          5.55058539e-01, -7.57322311e-02, 5.59090912e-01,
          1.93106070e-01, 1.51757672e-01, -1.62073858e-02,
          1.85946733e-01, 5.61302081e-02, -2.55268393e-03,
          1.68336798e-02, 5.29757608e-03, 1.68336798e-02, 1.09262681e-02,
          2.78939097e-03, 1.47578456e-02, 6.95204223e-03, 3.82661112e-02,
          4.35868017e-02, 4.19167057e-02, 4.54315431e-02, 3.69071402e-02,
          8.19703564e-03, 3.74176428e-02, 1.70865580e-02,
          -1.25258975e-03, -7.41397555e-04, 1.25258975e-03,
          2.80870195e-03, 8.00984725e-03, 1.31392223e-03, 1.39892697e-02,
          1.70356932e-03, 8.22130069e-02, -6.00082614e-03,
          9.14345607e-02, 6.98921038e-03, -4.28589806e-02,
          1.64652448e-02, 4.28589806e-02, 1.82056166e-02,
          -7.89592881e-03, 3.19157355e-03, 7.89592881e-03,
          3.19157355e-03, 4.94354367e-02, 4.62272540e-02, 7.15016052e-02,
          4.70442288e-02, 5.40033102e-01, 1.91154995e-03, 5.40033102e-01,
          1.02656394e-01, -3.06721944e-02, 6.83881715e-02,
          1.16344139e-01, 9.54933092e-02, -5.22525571e-02,
          5.24975769e-02, 5.22525571e-02, 5.24975769e-02, 2.76616383e-02,
          2.08788738e-02, 4.18853275e-02, 2.47331411e-02, 3.88848394e-01,
          -4.75214841e-03, 3.88848394e-01, 8.19030777e-02,
          7.67891034e-02, 6.67447085e-03, 7.67891034e-02, 2.61716042e-02,
          -1.48619078e-02, 1.67456120e-02, 1.92739312e-02,
          1.74487215e-02, 8.14515632e-04, 8.74850841e-04, 2.72583356e-03,
          1.11995719e-03, 4.88277115e-02, -2.43686698e-02,
          4.88277115e-02, 2.52197087e-02, 2.39668936e-02,
          -2.74882521e-02, 2.42319703e-02, 2.74882521e-02,
          -2.07627076e-03, -4.97307861e-03, 2.43641436e-03,
          4.97307861e-03, -1.34290149e-03, -2.15487042e-03,
          1.77578989e-03, 2.16964562e-03, -4.45099501e-03,
          -2.79382593e-03, 2.69099493e-02, 1.54970549e-02,
          5.20625189e-02, 4.99301516e-02, 5.25746010e-02, 4.99301516e-02,
          4.38117003e-03, 2.69672461e-03, 4.54183435e-03, 2.69821892e-03,
          -2.98801390e-03, 7.23811507e-04, 1.07851634e-02,
          8.39411840e-03, 1.54897138e-01, 1.52073666e-01, 1.87892869e-01,
          1.54128149e-01, 3.65906745e-01, 8.79120082e-02, 3.65906745e-01,
          8.79120082e-02, 7.57639017e-03, 8.11593141e-03, 7.95311667e-03,
          8.11593141e-03, 1.11835171e-02, -3.25203687e-02,
          1.55133968e-02, 3.26000042e-02, 1.49226114e-01,
          -2.55905151e-01, 1.49226114e-01, 2.55905151e-01,
          4.02630121e-01, -1.98764056e-01, 4.02630121e-01,
          2.08412796e-01, 1.26132183e-02, -1.09431809e-02,
          1.38682844e-02, 1.84411779e-02, -2.77945353e-03,
          8.67764757e-04, 2.77945353e-03, 1.52658974e-03, 7.32916640e-03,
          -1.75061636e-02, 1.00580137e-02, 1.79845225e-02,
          5.40766120e-02, -5.37467711e-02, 5.40766120e-02,
          5.42700589e-02, 3.31125502e-03, -8.03192984e-03,
          4.10687737e-03, 8.15508235e-03, 1.34807359e-03,
          -9.49317706e-04, 2.27584341e-03, 1.18103495e-03,
          3.99179757e-02, -4.30924539e-03, 4.02356163e-02,
          1.16341980e-02, 2.50235423e-02, 3.83058563e-02, 2.55612805e-02,
          3.83058563e-02, 5.40606678e-04, 5.85452933e-03, 1.15048885e-03,
          5.85452933e-03, 1.43602667e-02, -1.18408604e-02,
          1.46022337e-02, 1.21387504e-02, 4.87069637e-01, 6.23482130e-02,
          4.87069637e-01, 7.00585619e-02, 1.89598456e-01, 1.03044100e-01,
          1.90597147e-01, 1.15113735e-01, -1.21572509e-03,
          8.76526441e-03, 1.59246626e-03, 9.04275849e-03, 3.93586978e-02,
          4.71470729e-02, 3.93586978e-02, 4.75851484e-02, 3.21057945e-01,
          6.46347329e-02, 3.23725700e-01, 1.34245723e-01, 2.33999014e-01,
          -1.57417104e-01, 2.35396400e-01, 1.66205689e-01,
          -1.57225281e-02, -2.44116895e-02, 1.57225281e-02,
          2.92335339e-02, 3.57523398e-03, 2.39221333e-03, 4.67314711e-03,
          4.19358397e-03, -1.62102375e-02, -2.11803894e-02,
          1.68412495e-02, 2.42867619e-02, 4.89237206e-03,
          -6.25880286e-02, 1.05458861e-02, 6.25880286e-02,
          -2.83904513e-03, -1.11948326e-02, 2.84664216e-03,
          1.11948326e-02, 1.83803320e-03, 8.20961595e-03, 2.34321505e-03,
          8.20961595e-03, -5.72439609e-03, 4.21611108e-02,
          2.15025861e-02, 4.21611108e-02, 5.70726022e-02, 6.66935146e-02,
          5.72160780e-02, 6.66935146e-02, -7.61327799e-03,
          1.00541105e-02, 7.61462376e-03, 1.00581478e-02,
          -2.61478452e-03, 2.15194258e-03, 2.22053081e-02,
          1.60089303e-02, 1.19640104e-01, 9.37625691e-02, 2.76583165e-01,
          1.21755682e-01, 3.47711831e-01, 1.40412524e-01, 4.04527545e-01,
          1.95133299e-01, -7.87138566e-02, -2.45571807e-02,
          7.87138566e-02, 3.29087973e-02, -1.36109497e-02,
          -1.57836452e-02, 2.22868603e-02, 2.17414927e-02,
          2.15806752e-01, -1.43520892e-01, 3.11170787e-01,
          1.97289467e-01, 2.03658625e-01, -2.14071110e-01,
          3.88516665e-01, 2.14071110e-01, -7.54551068e-02,
          -2.77562700e-02, 7.54551068e-02, 2.77971849e-02,
          1.03764585e-03, 5.94821153e-03, 1.55309029e-03, 5.94821153e-03,
          -1.97632937e-03, 5.16763888e-02, 1.76493935e-02,
          5.16763888e-02, 6.65343599e-03, -4.05825814e-03,
          3.09391376e-02, 1.58884693e-02, -7.69344252e-03,
          -1.59150746e-03, 7.71232741e-03, 1.87816902e-03,
          1.70758064e-03, -2.80513358e-03, 2.37022736e-03,
          2.89596268e-03, 5.80564083e-04, -1.08379293e-02,
          1.08031482e-02, 1.19318459e-02, 4.65587713e-02, 4.34858799e-02,
          4.71496098e-02, 4.35663760e-02, -2.25642347e-03,
          1.21894972e-02, 3.22716008e-03, 1.21901426e-02, 2.52469908e-02,
          -1.00135300e-02, 2.54995376e-02, 1.65039636e-02,
          1.22353718e-01, 2.83361617e-02, 1.29602224e-01, 1.00702628e-01,
          5.36782265e-01, -5.96994124e-02, 5.36782265e-01,
          1.07710592e-01, 6.85704919e-03, 5.21728443e-03, 3.89441624e-02,
          2.42045037e-02, 2.53293030e-02, 1.27698118e-02, 2.53293030e-02,
          1.51161598e-02, 1.94402725e-01, 2.81124353e-01, 1.94402725e-01,
          2.81124353e-01, 1.54786035e-01, 5.99119700e-02, 2.20417649e-01,
          1.65036008e-01, 3.44955474e-02, -5.22422157e-02,
          3.76865938e-02, 5.32252975e-02, 6.06933655e-03,
          -1.37979700e-03, 6.06933655e-03, 1.83950225e-03,
          4.69555855e-02, -5.82535658e-03, 4.69555855e-02,
          9.18392092e-03, -2.66638622e-02, 5.10800164e-03,
          2.70605255e-02, 1.22550502e-02, -4.52444510e-04,
          -2.58495938e-03, 2.24852748e-03, 4.53016767e-03,
          2.60178553e-04, 6.58226607e-04, 2.11119908e-03, 1.79839192e-03,
          9.06364527e-03, -6.37330636e-02, 1.80569571e-02,
          6.37330636e-02, 2.20911819e-02, -4.39988337e-02,
          2.60774139e-02, 4.39988337e-02, 4.44470253e-03, 6.16642530e-04,
          4.44470253e-03, 7.78118847e-04, 6.01594849e-03, 9.25539527e-03,
          2.98203845e-02, 2.09984016e-02, -3.32678020e-01,
          6.59607723e-02, 3.59161317e-01, 1.80663913e-01, 4.48500067e-01,
          -9.47896317e-02, 4.48500067e-01, 1.28608972e-01,
          2.39260215e-02, -1.82731971e-02, 2.39260215e-02,
          1.82731971e-02, 3.26888748e-02, -4.16350663e-02,
          3.26888748e-02, 4.17530388e-02, -1.54193550e-01,
          1.39254749e-01, 2.17795327e-01, 2.14697286e-01, 8.76818299e-02,
          1.28190637e-01, 2.05890477e-01, 2.26906493e-01, 1.48743317e-02,
          -5.15326038e-02, 1.88521314e-02, 5.15326038e-02,
          2.66262377e-03, -8.79141226e-05, 2.66262377e-03,
          1.51047180e-03, 5.09260148e-02, 1.91384163e-02, 5.09260148e-02,
          2.03704648e-02, -4.15135175e-02, 3.60450931e-02,
          4.45527285e-02, 3.60450931e-02, 1.10412692e-03, 7.34148314e-03,
          5.00243483e-03, 7.34148314e-03, -7.58888316e-04,
          4.76366561e-03, 1.99619494e-03, 7.28604430e-03, 7.63026029e-02,
          5.59026599e-02, 7.71202520e-02, 5.63244335e-02,
          -1.00043297e-04, 3.19520012e-02, 4.15193327e-02,
          3.64885740e-02, -2.57385545e-03, 4.02238918e-03,
          2.73698964e-03, 4.02238918e-03, 1.41515927e-02,
          -8.12921487e-03, 1.41515927e-02, 1.92537718e-02,
          1.96625367e-01, -1.83501109e-01, 1.96625367e-01,
          2.17584074e-01, 1.73067585e-01, -2.06225619e-01,
          2.34665155e-01, 2.19156370e-01, -2.02994775e-02,
          7.03408674e-04, 2.11289879e-02, 1.13271279e-02, 3.25058214e-03,
          -7.59478239e-03, 3.25058214e-03, 7.70936953e-03,
          1.72901243e-01, -6.27415255e-02, 1.72901243e-01,
          1.30612433e-01, 4.84228551e-01, 1.77651778e-01, 4.87983286e-01,
          1.87057287e-01, -4.46735322e-02, 3.95846143e-02,
          4.46735322e-02, 3.98864746e-02, 1.90346527e-05, 1.90346527e-05,
          1.90346527e-05, 1.90346527e-05, 4.23876755e-02, 1.54653452e-02,
          4.23876755e-02, 1.54653452e-02, 7.19883516e-02,
          -3.84040107e-03, 7.19883516e-02, 1.54958116e-02,
          -4.08402039e-03, 2.54277140e-03, 6.11176481e-03,
          2.70590559e-03, -3.17913597e-04, 4.97947168e-03,
          1.67374848e-03, 4.97947168e-03, -4.06787684e-03,
          3.71034108e-02, 6.53626584e-03, 3.99628244e-02, 3.95257995e-02,
          2.37535778e-02, 3.95257995e-02, 2.92333513e-02, 2.13166475e-02,
          -1.52710616e-03, 2.13166475e-02, 2.51354603e-03,
          5.55261387e-04, 3.40435631e-03, 3.40399379e-03, 1.14291934e-02,
          1.42840892e-01, 1.53945193e-01, 1.51386246e-01, 2.01333657e-01,
          1.83639273e-01, 3.58416855e-01, 1.83639273e-01, 3.58416855e-01,
          9.47858766e-02, 1.91690940e-02, 9.47858766e-02, 2.11990736e-02,
          -3.13402899e-03, -1.70269795e-02, 4.78507113e-03,
          1.70899462e-02, 3.24142724e-01, -1.64257780e-01,
          3.24966431e-01, 1.64257780e-01, 3.20905358e-01, 1.08740255e-01,
          3.32251668e-01, 1.38390064e-01, 1.92196388e-02,
          -2.60220785e-02, 4.35152873e-02, 3.13476510e-02,
          -2.21996470e-05, 8.77200800e-05, 1.26867683e-03,
          9.80382902e-04, 5.15299104e-02, -5.29480679e-03,
          5.39085157e-02, 8.35995004e-03, 9.42779183e-02, 6.44260552e-03,
          1.05932906e-01, 2.48732418e-02, -1.75037421e-02,
          7.32209766e-04, 1.76083390e-02, 4.34847455e-03,
          -3.76843498e-04, 1.09673780e-03, 1.61397783e-03,
          2.10018642e-03, -1.00178301e-01, 1.12464808e-01,
          1.00178301e-01, 1.12464808e-01, 1.55279145e-01, 1.54670849e-01,
          1.64442629e-01, 1.54670849e-01, -1.05546201e-02,
          -5.02499938e-03, 2.24161632e-02, 1.26937982e-02,
          5.69964806e-03, -5.23863547e-03, 7.03825708e-03,
          7.75162550e-03, -1.65280282e-01, 6.75662141e-03,
          1.90700457e-01, 1.28307074e-01, 4.30464476e-01,
          -1.29818752e-01, 4.79745865e-01, 3.39405805e-01,
          -1.90467119e-01, -1.23491481e-01, 1.90467119e-01,
          1.23491481e-01, 1.04211667e-03, -2.00263201e-03,
          2.25699623e-03, 5.89162111e-03, -2.94405539e-02,
          2.43645683e-02, 4.24305052e-02, 5.84061034e-02,
          -1.59289017e-01, -1.30328648e-02, 1.59289017e-01,
          1.53431877e-01, -1.35675684e-01, -1.33017888e-02,
          1.35675684e-01, 6.93087876e-02, 1.05264341e-03,
          -2.69763381e-03, 1.05264341e-03, 2.69763381e-03,
          2.24287156e-03, -1.31217213e-02, 3.70851811e-03,
          1.31217213e-02, 1.45328922e-05, 1.84405723e-03, 7.24976650e-03,
          1.02642011e-02, -5.43754082e-03, 1.26230419e-02,
          5.95918857e-03, 1.28533151e-02, 1.89848500e-03, 1.48909586e-02,
          4.18904144e-03, 1.48909586e-02, -4.69736308e-02,
          1.90732256e-02, 4.96873148e-02, 4.00365256e-02, 3.02128820e-03,
          3.67016392e-03, 9.78917535e-03, 7.69208511e-03,
          -8.35905084e-05, 3.16352933e-04, 7.83763709e-04,
          3.49562004e-04, 4.64420812e-03, -1.67402804e-01,
          3.39012556e-02, 1.67402804e-01, 1.95962921e-01,
          -2.68780679e-01, 3.09367597e-01, 3.09875250e-01,
          4.07898519e-03, 6.64968565e-02, 3.22003365e-02, 7.31685087e-02,
          -7.05801125e-04, -3.42445390e-04, 1.48945174e-03,
          9.23790911e-04, 7.72474036e-02, 5.07929013e-04, 7.79785365e-02,
          2.35566199e-02, 5.42278826e-01, 6.72509372e-02, 5.42278826e-01,
          7.71716684e-02, -4.52656783e-02, -1.72992684e-02,
          5.25360256e-02, 1.80320423e-02, -1.74765463e-03,
          1.02636358e-03, 4.05469304e-03, 1.02636358e-03, 1.46850608e-02,
          3.61353252e-03, 1.46850608e-02, 3.61353252e-03, 4.95441705e-02,
          9.36498120e-03, 4.95952740e-02, 1.13666849e-02,
          -2.14438443e-03, -2.42723362e-03, 3.33845965e-03,
          2.72577186e-03, 4.92533785e-04, 5.79875603e-04, 7.97067652e-04,
          7.82479707e-04, 7.36293732e-04, -6.15401834e-04,
          1.04204903e-03, 3.52448761e-03, -1.62375011e-02,
          1.05582895e-02, 1.83203872e-02, 2.48568002e-02,
          -4.32351045e-02, 1.26161585e-02, 4.32351045e-02,
          1.39045743e-02, -2.73690996e-04, 1.41328853e-03,
          8.08837649e-04, 1.41328853e-03, 1.16814263e-02,
          -5.80217503e-02, 1.16814263e-02, 5.80217503e-02,
          -2.32206378e-02, -4.06513989e-01, 4.64953780e-02,
          4.06513989e-01, 4.55038585e-02, -5.70510589e-02,
          1.58404380e-01, 1.76951960e-01, -1.02622304e-02,
          4.82787639e-02, 1.13269147e-02, 4.82787639e-02,
          -1.11568291e-02, 2.89911628e-02, 1.20813902e-02,
          3.29876430e-02, -1.33249862e-02, 5.35811968e-02,
          4.59204167e-02, 1.18255891e-01, 5.11712730e-01, 8.68458301e-02,
          5.11712730e-01, 1.07221790e-01, -1.30560519e-02,
          5.09412512e-02, 4.05393168e-02, 5.09836562e-02,
          -3.07047507e-03, 6.73469668e-03, 3.08265141e-03,
          6.73469668e-03, -1.98745430e-02, 5.44289201e-02,
          1.98745430e-02, 5.44289201e-02, 6.36064038e-02, 2.79303752e-02,
          6.37156963e-02, 2.94061154e-02, -1.78700301e-03,
          -1.22509641e-03, 7.25905458e-03, 1.53261109e-03,
          4.40752041e-03, -1.74844870e-04, 4.40752041e-03,
          1.74844870e-04, 3.79922129e-02, 6.58502057e-03, 3.79922129e-02,
          1.04570733e-02, 1.66595951e-02, 1.95235815e-02, 1.94324628e-02,
          2.04349756e-02, -3.61335627e-03, -4.46644286e-03,
          4.13642079e-03, 5.28990850e-03, 2.58538630e-02,
          -1.34935987e-03, 2.58538630e-02, 5.25543513e-03,
          4.56607819e-01, 8.55590254e-02, 4.56607819e-01, 1.09917730e-01,
          -1.97770849e-01, -9.58571583e-02, 2.46099174e-01,
          1.89961001e-01, -3.77915651e-02, -1.82572771e-02,
          3.87331396e-02, 2.59611681e-02, 2.78465506e-02,
          -4.69301548e-03, 2.78465506e-02, 5.85032441e-03,
          2.89253145e-01, -2.09704950e-01, 2.89253145e-01,
          2.09704950e-01, -1.74472213e-01, -2.06188768e-01,
          1.80080056e-01, 2.11796597e-01, 1.36961241e-03, 1.00781843e-02,
          8.51256121e-03, 1.00781843e-02, 3.14262626e-03,
          -5.95665479e-04, 3.14262626e-03, 1.15985796e-03,
          2.12990679e-02, -1.09158037e-02, 2.12990679e-02,
          1.12550389e-02, 4.85029770e-03, -6.29254710e-03,
          7.04326993e-03, 6.71554077e-03, 1.08034338e-03, 6.96279283e-04,
          2.13355827e-03, 7.45520636e-04, -4.18208679e-03,
          -9.74213704e-04, 5.11423126e-03, 1.34160521e-03,
          7.33535439e-02, 2.34905798e-02, 7.33535439e-02, 2.35039871e-02,
          1.27594490e-02, 7.20968144e-03, 1.41019458e-02, 7.60972779e-03,
          9.74886818e-04, 1.13155763e-03, 9.74886818e-04, 1.30165333e-03,
          2.29594111e-03, 1.93751277e-03, 3.12878713e-02, 6.84218667e-03,
          4.97352779e-01, 6.38876110e-02, 4.97352779e-01, 6.38876110e-02,
          7.92160481e-02, 7.34789670e-02, 8.00516307e-02, 7.59857148e-02,
          2.04092963e-03, 3.65039590e-03, 3.60539602e-03, 8.78654234e-03,
          1.64233625e-03, 1.94331445e-02, 2.43422110e-02, 1.94331445e-02,
          4.58929062e-01, -4.96637709e-02, 4.58929062e-01,
          7.29919448e-02, 7.41458312e-02, -7.95064718e-02,
          8.51172581e-02, 7.95064718e-02, -2.25424665e-04,
          -7.31638959e-03, 1.63118867e-03, 7.31638959e-03,
          -2.52812565e-03, 6.65656663e-03, 2.52812565e-03,
          6.65656663e-03, 3.49339992e-02, 2.15188805e-02, 3.49339992e-02,
          2.15188805e-02, 1.35340923e-02, -3.32414196e-03,
          1.35340923e-02, 3.43448459e-03, 5.04434167e-04,
          -4.19731572e-04, 5.08233614e-04, 4.19731572e-04,
          1.31415529e-03, -1.45536952e-03, 2.19447096e-03,
          1.70290482e-03, 9.64985602e-03, 2.65229872e-04, 1.16071831e-02,
          4.38961387e-03, 4.13164832e-02, 1.72100104e-02, 4.77709994e-02,
          1.83632970e-02, -5.50283538e-03, -1.92575413e-03,
          5.52601507e-03, 1.92575413e-03, 6.35620356e-02,
          -4.65109274e-02, 6.41386807e-02, 4.65109274e-02,
          1.50414020e-01, -1.22209853e-02, 1.53634354e-01,
          6.34758398e-02, 1.55453354e-01, -7.55134225e-02,
          3.02102447e-01, 8.94573033e-02, -2.57547908e-02,
          -1.50375906e-02, 2.71171909e-02, 1.53130032e-02,
          8.54838267e-02, -9.26259309e-02, 8.63140672e-02,
          9.26259309e-02, 5.43966472e-01, -1.48238495e-01,
          5.43966472e-01, 2.27357030e-01, -5.98953292e-02,
          -2.79736221e-02, 1.74230784e-01, 1.01595759e-01,
          -1.95827638e-03, 2.04700325e-03, 7.46128336e-03,
          6.34516729e-03, 8.49922374e-03, -5.90979680e-03,
          1.02412160e-02, 7.45577924e-03, 1.06536202e-01,
          -8.60237107e-02, 1.06903791e-01, 8.99085775e-02,
          6.17358973e-03, -9.93203372e-02, 1.62632912e-02,
          9.93203372e-02, 5.18980203e-03, -2.73089157e-03,
          5.33722853e-03, 3.16457078e-03, -4.34112689e-03,
          -4.28292464e-04, 4.86651435e-03, 6.62829611e-04,
          -1.45804044e-03, -5.65433176e-03, 3.84530984e-02,
          9.72850341e-03, 6.04592115e-02, -1.60896759e-02,
          6.04748316e-02, 1.63351651e-02, -1.33868377e-03,
          1.43256015e-03, 1.49379240e-03, 1.50212098e-03,
          -2.95884255e-02, -1.00911688e-02, 3.07383724e-02,
          1.03748515e-02, -1.16180718e-01, -3.46268788e-02,
          2.18148738e-01, 6.16395772e-02, 4.73330140e-01,
          -8.60022008e-02, 4.73330140e-01, 1.02426678e-01,
          2.05977838e-02, -5.73459035e-03, 2.15572231e-02,
          1.13189807e-02, -1.58770997e-02, -4.99297050e-04,
          1.92481093e-02, 8.65411758e-03, 6.43899217e-02, 2.53901273e-01,
          1.65528134e-01, 2.54874557e-01, 2.68129379e-01, 2.67643660e-01,
          2.68129379e-01, 2.69590199e-01, 3.48297879e-02, 1.09672919e-02,
          3.48297879e-02, 1.56462081e-02, 9.76079144e-04,
          -1.94389373e-04, 1.68591656e-03, 5.94009762e-04,
          2.77957954e-02, 1.16897188e-02, 2.85322685e-02, 1.17053362e-02,
          2.05120333e-02, -2.29307567e-03, 2.05120333e-02,
          6.23517158e-03, 4.83622262e-03, 2.05426128e-03, 4.90941899e-03,
          2.26547825e-03, -4.81141033e-03, 1.62070279e-03,
          6.00103149e-03, 3.01979226e-03, 5.75357042e-02,
          -8.10027868e-03, 5.75357042e-02, 1.17674144e-02,
          1.04160048e-02, 1.72281079e-02, 2.05071960e-02, 2.03212164e-02,
          9.01403464e-03, 3.95106152e-03, 9.01403464e-03, 4.65938635e-03,
          -5.40975071e-02, 1.54061476e-02, 5.40975071e-02,
          1.63176190e-02, 3.09603781e-01, -4.87042181e-02,
          3.09603781e-01, 6.42373413e-02, 3.16162169e-01,
          -3.55428271e-02, 3.16162169e-01, 9.94551331e-02,
          3.58010083e-02, -3.32681369e-03, 3.58010083e-02,
          1.83138959e-02, -7.95145407e-02, 4.20617908e-02,
          7.95145407e-02, 4.20617908e-02, 2.90318340e-01, 2.35221431e-01,
          3.04627687e-01, 2.35221431e-01, 1.85841396e-01, 2.51298606e-01,
          1.85841396e-01, 3.26235533e-01, 7.09339790e-03,
          -5.31344488e-03, 2.02901326e-02, 5.98135740e-02,
          -1.47872018e-02, 6.90461975e-03, 1.47872018e-02,
          6.90461975e-03, 5.85798584e-02, 5.06610703e-03, 7.49627948e-02,
          1.83459055e-02, 6.87896833e-02, 5.70029430e-02, 6.87896833e-02,
          5.74179962e-02, -4.16950695e-03, 1.53868003e-02,
          4.16950695e-03, 1.56600308e-02, -6.19836990e-03,
          -4.42217570e-03, 6.39989832e-03, 4.42217570e-03,
          2.65523307e-02, 1.07273431e-02, 4.31279205e-02, 2.05549784e-02,
          2.18511522e-02, 1.91373844e-02, 2.38913428e-02, 1.91373844e-02,
          8.87174392e-04, 4.50413791e-04, 8.87174392e-04, 6.23677450e-04,
          -2.16209851e-02, -1.75070297e-02, 2.24168468e-02,
          1.75070297e-02, 4.34410870e-01, 1.11887395e-01, 4.40196991e-01,
          1.28221646e-01, -4.20713983e-02, 1.29457846e-01,
          1.34246767e-01, 1.29457846e-01, -2.95090512e-03,
          6.81563839e-03, 7.10417284e-03, 8.05565435e-03, 1.01988753e-02,
          -1.66702382e-02, 1.55292926e-02, 1.66702382e-02,
          3.00235450e-01, -1.88090399e-01, 3.03497016e-01,
          1.97041675e-01, 7.41887912e-02, -3.49313170e-01,
          1.04479857e-01, 3.52574766e-01, -1.32804345e-02,
          -1.72349624e-02, 1.35546587e-02, 2.33566612e-02,
          2.47461675e-03, -2.93969270e-03, 2.48563988e-03,
          3.36301629e-03, 5.68454433e-03, -3.46897282e-02,
          1.19939847e-02, 4.23241034e-02, 3.00733000e-02,
          -2.40518078e-02, 3.14645991e-02, 3.79854403e-02,
          -2.67321360e-03, -4.41405410e-03, 2.86252517e-03,
          4.96410392e-03, 1.12349888e-04, 5.11343766e-04, 5.01001370e-04,
          5.11343766e-04, -1.08266948e-02, -1.38659421e-02,
          1.09636933e-02, 1.43375453e-02, 6.34389324e-03,
          -2.12533791e-02, 6.34389324e-03, 2.12533791e-02,
          1.60526819e-04, -7.44390476e-04, 1.97646892e-04,
          7.44390476e-04, -1.89661048e-02, -1.83742270e-02,
          1.99699774e-02, 1.88165773e-02, -2.45073259e-01,
          -3.50007385e-01, 2.45073259e-01, 3.50007385e-01,
          2.17007101e-01, -2.10369393e-01, 2.18054667e-01,
          2.11416975e-01, 1.68260708e-02, -6.00983901e-03,
          1.68260708e-02, 7.71514559e-03, -4.71558906e-02,
          -1.41932163e-02, 4.71558906e-02, 2.28520576e-02,
          -1.35802358e-01, -2.84446385e-02, 2.56168276e-01,
          1.81588501e-01, 3.84537309e-01, 1.01753436e-01, 3.84537309e-01,
          1.01753436e-01, 9.56014358e-03, -1.53604406e-03,
          9.56014358e-03, 3.51044210e-03, -3.83700337e-03,
          3.98589391e-03, 3.85774719e-03, 3.98589391e-03,
          -2.87197828e-02, 3.15263607e-02, 3.07054725e-02,
          3.18150483e-02, 4.33487296e-02, -1.03188297e-02,
          4.34750617e-02, 1.25687514e-02, 1.12261332e-03, 2.08967784e-03,
          1.32372172e-03, 2.08967784e-03 ]
      - [ 0., 0., 0., 0., -4.70232079e-03, -7.16934772e-03,
          4.70232079e-03, 7.16934772e-03, -3.42075690e-03,
          -1.79954879e-02, 1.41790146e-02, 1.84506327e-02,
          2.71315454e-03, -1.78126141e-03, 2.71315454e-03,
          2.26541306e-03, -9.22081806e-03, -7.19128689e-03,
          9.22081806e-03, 1.14713944e-02, -1.52280778e-01,
          -1.60432413e-01, 1.52280778e-01, 1.67206571e-01,
          2.14414522e-01, -4.35724705e-02, 2.19557494e-01,
          1.76703647e-01, -2.25387979e-02, 7.09778350e-03,
          3.62042226e-02, 4.29342054e-02, -1.30904866e-02,
          -1.66687444e-02, 1.30904866e-02, 1.83773953e-02,
          -1.85214147e-01, -1.15335017e-01, 2.31207117e-01,
          1.18039310e-01, 4.84751374e-01, 4.86886203e-02, 5.30786037e-01,
          6.90589771e-02, -2.16896236e-01, -9.70877260e-02,
          2.16896236e-01, 9.70877260e-02, 4.99271528e-06,
          -9.36235574e-06, 4.99271528e-06, 9.36235574e-06,
          -1.33063039e-02, 2.23974138e-02, 2.93560419e-02,
          2.23974138e-02, 5.25846966e-02, 1.40035292e-02, 7.29366988e-02,
          2.03602798e-02, -4.46402133e-02, 2.61217868e-03,
          4.46402133e-02, 5.26273157e-03, 1.35670579e-03,
          -2.98763951e-03, 1.92019239e-03, 3.68604762e-03,
          -5.07275574e-03, 1.15706027e-03, 5.48607344e-03,
          2.75719445e-03, 7.55557185e-03, 7.77584792e-04, 7.58327171e-03,
          1.74577592e-03, 1.26231601e-03, 1.13799050e-03, 1.26231601e-03,
          1.13799050e-03, 6.84727654e-02, -6.46414161e-02,
          6.84727654e-02, 6.46414161e-02, 1.84398159e-01,
          -1.53704099e-02, 1.91395998e-01, 1.29568011e-01,
          3.95284630e-02, 1.56444162e-01, 3.95284630e-02, 1.56444162e-01,
          3.48146772e-03, 1.21996272e-02, 5.66056743e-03, 1.22690154e-02,
          9.23301503e-02, -3.80574577e-02, 9.23301503e-02,
          5.07493690e-02, 6.07154608e-01, 4.93150158e-03, 6.07154608e-01,
          1.67580530e-01, 1.56297558e-03, 1.31007999e-01, 7.34005794e-02,
          1.36366069e-01, -1.40329031e-02, -1.99914631e-03,
          1.40329031e-02, 6.26605609e-03, 1.57237835e-02, 1.35249430e-02,
          1.57237835e-02, 1.35249430e-02, 6.81930631e-02, 3.36477570e-02,
          6.85537010e-02, 3.58459391e-02, -1.73725858e-02,
          -1.63450707e-02, 2.12731808e-02, 1.63450707e-02,
          -2.22289935e-03, -1.61347713e-03, 2.23707291e-03,
          1.62408606e-03, -1.80017005e-03, -6.07198151e-03,
          1.82498014e-03, 6.09051855e-03, 7.56912492e-03,
          -4.19703275e-02, 8.81552510e-03, 4.20722626e-02,
          1.86651126e-02, -2.39066221e-02, 1.86651126e-02,
          2.49015391e-02, 2.09212024e-03, 7.29064108e-04, 2.15152814e-03,
          1.00659847e-03, -1.83712654e-02, -3.67383733e-02,
          1.83712654e-02, 3.67383733e-02, 3.69362533e-02,
          -2.81366229e-01, 4.50377688e-02, 2.81366229e-01,
          3.14240754e-01, -2.32204929e-01, 3.14240754e-01,
          2.32204929e-01, 3.94063294e-02, -6.98056445e-03,
          3.99415605e-02, 7.10671768e-03, -1.91952288e-02,
          -1.74288526e-02, 1.91952288e-02, 1.86498612e-02,
          6.93325698e-02, -9.32033211e-02, 8.80036056e-02,
          1.23275921e-01, 4.71311629e-01, 8.36740732e-02, 4.71311629e-01,
          1.16374195e-01, 3.27712558e-02, 2.90695741e-03, 3.43281254e-02,
          6.36192691e-03, -5.61686512e-03, 3.70529760e-03,
          5.61686512e-03, 3.70529760e-03, 3.85729745e-02, 2.75496449e-02,
          3.98738049e-02, 2.75496449e-02, 6.66327551e-02, 3.28917094e-02,
          6.66327551e-02, 3.28917094e-02, 1.06627436e-03, 5.68588206e-04,
          1.40530232e-03, 7.67790305e-04, 2.09215470e-03,
          -6.97762566e-03, 2.19185324e-03, 6.97762566e-03,
          1.92924570e-02, -3.89699154e-02, 1.93130895e-02,
          3.89699154e-02, 3.66223082e-02, -6.54549710e-03,
          3.66449244e-02, 1.40516032e-02, 4.94845212e-03, 2.20291736e-03,
          5.00395475e-03, 2.22573639e-03, -2.57836096e-03,
          -1.16933016e-02, 8.17678589e-03, 1.31020071e-02,
          1.62865907e-01, -1.94283366e-01, 1.63428545e-01,
          1.94283366e-01, 4.43893284e-01, -1.73937097e-01,
          4.43893284e-01, 1.73937097e-01, 3.36637087e-02,
          -2.33999752e-02, 3.41908969e-02, 2.33999752e-02,
          -7.10955495e-03, 1.30085135e-02, 8.22896138e-03,
          1.30085135e-02, 1.64145947e-01, 1.71978205e-01, 1.66347191e-01,
          1.71978205e-01, 3.59886587e-01, 1.06789567e-01, 3.59886587e-01,
          1.18061326e-01, 2.68013850e-02, -9.97406803e-03,
          2.68013850e-02, 1.13604413e-02, 7.11533881e-04, 6.51920447e-03,
          1.24872697e-03, 6.51920447e-03, 2.18160432e-02, 4.25064564e-02,
          2.18160432e-02, 4.25064564e-02, 1.93847977e-02, 1.16138048e-02,
          1.96093097e-02, 1.37994308e-02, 3.35239433e-03,
          -6.01298932e-04, 3.35239433e-03, 8.37211090e-04,
          3.00007802e-03, 1.49309495e-03, 3.00007802e-03, 1.57961389e-03,
          1.12122064e-02, 3.06135807e-02, 1.12122064e-02, 3.08626536e-02,
          -1.08589586e-02, 2.53370777e-02, 1.12645254e-02,
          2.71146242e-02, 1.01820775e-03, 1.51633882e-04, 1.86402595e-03,
          1.75310718e-03, 3.97931710e-02, 2.46279128e-02, 3.97931710e-02,
          2.46279128e-02, 2.71212250e-01, 3.00030887e-01, 2.71212250e-01,
          3.00030887e-01, -1.70126542e-01, 4.46263164e-01,
          1.81407243e-01, 4.46263164e-01, -4.37285490e-02,
          3.64846177e-02, 4.37285490e-02, 3.70927937e-02, 3.85389253e-02,
          1.79475602e-02, 3.85389253e-02, 1.79475602e-02, 2.61119217e-01,
          -7.24970549e-02, 2.61119217e-01, 9.56814811e-02,
          -1.90588143e-02, -5.02634533e-02, 1.41770616e-01,
          9.89094824e-02, -4.15125415e-02, 4.60808203e-02,
          4.32974994e-02, 4.60808203e-02, 2.88227806e-03, 1.28639722e-03,
          2.88227806e-03, 3.01928679e-03, 1.67802535e-02, 5.75291109e-04,
          1.67802535e-02, 1.14423595e-02, 3.07927933e-02, 8.53070896e-03,
          3.07927933e-02, 1.12267043e-02, 4.93698893e-03, 7.55454460e-03,
          5.29036485e-03, 7.59493839e-03, -1.50865130e-03,
          -2.50070752e-03, 1.85409421e-03, 2.50070752e-03,
          1.51125817e-02, -4.51488234e-03, 2.10845098e-02,
          2.13509668e-02, 1.24728121e-01, -6.42257407e-02,
          1.24728121e-01, 6.54526874e-02, 1.79416239e-02,
          -3.65336519e-03, 1.86682120e-02, 9.92946699e-03,
          7.97443136e-05, -8.75994842e-03, 1.15205701e-02,
          1.52801769e-02, 2.97819167e-01, 1.88471422e-01, 2.97819167e-01,
          1.97502047e-01, 1.54185534e-01, 1.20042585e-01, 2.57219374e-01,
          2.48919740e-01, 1.59567922e-01, -8.39312673e-02,
          1.59696460e-01, 8.39312673e-02, -2.22427631e-03,
          2.88063902e-02, 4.75503411e-03, 2.88063902e-02, 2.50034630e-01,
          -1.81115121e-01, 2.61960119e-01, 2.14337200e-01,
          1.36419773e-01, -1.13868080e-01, 1.87464431e-01,
          2.34091714e-01, 1.32370576e-01, 5.95540181e-02, 1.32370576e-01,
          7.51494691e-02, -2.88421987e-03, 2.66908109e-03,
          2.88938731e-03, 2.67424830e-03, -2.97465944e-04,
          8.08954425e-03, 3.02611478e-02, 2.92482749e-02, 1.69999421e-01,
          1.31775036e-01, 1.69999421e-01, 1.31775036e-01, 2.23830827e-02,
          3.21533680e-02, 2.25429032e-02, 3.21950689e-02, 2.59751617e-03,
          8.46950430e-03, 2.60376954e-03, 8.46950430e-03, 1.01181651e-02,
          6.30010590e-02, 1.01181651e-02, 6.30010590e-02, 4.48202603e-02,
          4.89221998e-02, 4.48202603e-02, 4.89221998e-02,
          -2.16125371e-03, 1.09515963e-02, 5.58206672e-03,
          1.09515963e-02, 4.96083014e-02, -4.78372760e-02,
          5.15996590e-02, 5.01702540e-02, 1.78223014e-01, 1.92971248e-02,
          1.78223014e-01, 1.60212830e-01, 1.98600024e-01, 1.57080233e-01,
          1.98600024e-01, 1.60861596e-01, -1.51412922e-03,
          -1.00917174e-02, 2.90746931e-02, 1.82670373e-02,
          3.59376781e-02, 1.09785115e-02, 4.19996344e-02, 2.96088029e-02,
          4.85641271e-01, -6.63314089e-02, 4.85641271e-01,
          1.44833043e-01, 2.68788248e-01, 1.85352385e-01, 2.68788248e-01,
          1.91019371e-01, -2.06088200e-02, 4.85079996e-02,
          2.42858268e-02, 4.93309125e-02, 2.28737574e-03, 5.46903349e-03,
          2.50815949e-03, 5.85311977e-03, 6.81373999e-02, 4.19389009e-02,
          6.81373999e-02, 4.19752039e-02, 7.74686038e-02, 4.99551482e-02,
          7.74686038e-02, 4.99551482e-02, 5.18439279e-04, 1.06907003e-02,
          5.97343640e-03, 1.07887797e-02, -2.65144953e-03,
          -2.77098012e-03, 3.03181331e-03, 3.08924261e-03,
          4.03826609e-02, -3.55067216e-02, 4.03826609e-02,
          3.55067216e-02, 5.24832271e-02, -1.86497793e-02,
          5.24832271e-02, 1.96601059e-02, 7.46165914e-03, 2.53150123e-03,
          7.46280048e-03, 2.53150123e-03, -1.99923366e-02,
          3.49892117e-02, 1.99923366e-02, 3.49892117e-02, 1.70148909e-01,
          2.03086272e-01, 1.70148909e-01, 2.04855904e-01, 4.09320652e-01,
          9.98221263e-02, 4.09320652e-01, 1.09660096e-01, 7.44882002e-02,
          1.73916314e-02, 7.44882002e-02, 1.74627658e-02,
          -1.27964644e-02, -8.91236681e-03, 1.29608708e-02,
          1.06749376e-02, 8.63094181e-02, -1.37427866e-01,
          1.05785444e-01, 1.37427866e-01, 4.33522224e-01,
          -8.05181488e-02, 4.33522224e-01, 8.86985809e-02,
          7.67481476e-02, -1.94252841e-03, 7.70131275e-02,
          4.56146477e-03, -4.78471210e-03, -2.28435756e-03,
          4.78471210e-03, 2.33319215e-03, 3.30351107e-02, 1.06523214e-02,
          3.56684774e-02, 1.85565464e-02, 7.23836273e-02, 3.29742879e-02,
          7.23836273e-02, 3.29742879e-02, 7.44180055e-03, 6.14624005e-04,
          8.18239246e-03, 2.15658126e-03, -1.13611296e-03,
          1.17294223e-03, 1.22125586e-03, 1.17294223e-03, 5.31766098e-03,
          9.85474046e-03, 1.90074984e-02, 1.24085238e-02, 8.04521069e-02,
          5.91750315e-04, 8.04521069e-02, 1.68491639e-02,
          -4.34562471e-03, -2.59505538e-03, 4.34562471e-03,
          2.59505538e-03, -5.86325477e-04, 1.05879433e-03,
          7.79773341e-04, 1.05879433e-03, 1.50174797e-01, 1.24101855e-01,
          1.65558875e-01, 1.24101855e-01, 4.76414293e-01, 1.51497975e-01,
          4.80372339e-01, 1.79314375e-01, -5.42406589e-02,
          6.01867912e-04, 5.42406589e-02, 1.45706898e-02,
          -1.45163701e-03, 6.94605638e-04, 2.95495754e-03,
          3.00067943e-03, 1.64878890e-01, -7.64459670e-02,
          1.69151172e-01, 7.78050721e-02, 2.81439811e-01,
          -2.66265780e-01, 2.94950992e-01, 2.66265780e-01,
          -4.91142720e-02, -4.85361144e-02, 4.91142720e-02,
          4.85361144e-02, -6.76445838e-04, 2.18484565e-04,
          6.80202618e-04, 2.18484565e-04, 7.93077052e-03, 2.17357930e-03,
          9.11547430e-03, 5.53313456e-03, 1.30875744e-02,
          -1.62352175e-02, 1.40122632e-02, 1.66203249e-02,
          -3.57162673e-03, -2.11620959e-03, 3.57162673e-03,
          2.20243447e-03, -5.50803496e-04, -7.80030573e-03,
          2.27582129e-03, 8.25142860e-03, 1.34329321e-02, 8.28228146e-03,
          1.49236526e-02, 2.24936139e-02, -1.13956267e-02,
          8.94344877e-03, 2.01570690e-02, 1.57012008e-02,
          -5.98313939e-03, 2.60028848e-03, 6.11391477e-03,
          5.12017077e-03, 1.36941476e-02, -2.33359616e-02,
          4.41480018e-02, 3.94507907e-02, 4.56965029e-01,
          -3.31950537e-03, 4.56965029e-01, 1.10969901e-01,
          -8.53474811e-02, 8.59542638e-02, 8.53474811e-02,
          9.35446620e-02, -3.34458542e-03, 2.43276227e-02,
          4.15350357e-03, 2.49874722e-02, -1.37054417e-02,
          5.71451187e-02, 3.23405005e-02, 5.93019426e-02, 2.27000535e-01,
          -7.40900561e-02, 2.63573974e-01, 1.96755469e-01,
          -1.19573183e-01, -3.93324286e-01, 1.19573183e-01,
          3.93324286e-01, -7.46956887e-03, -6.49391338e-02,
          7.46956887e-03, 6.49391338e-02, -8.72938777e-04,
          -9.98552795e-03, 1.28569943e-03, 9.98552795e-03,
          -1.09436586e-02, -5.35913669e-02, 1.33744292e-02,
          5.35913669e-02, -2.72822883e-02, -4.58044447e-02,
          2.72822883e-02, 4.58044447e-02, -1.11974264e-03,
          -5.94409415e-03, 1.12632464e-03, 5.94409415e-03,
          1.53386820e-04, 9.94969974e-04, 2.34627514e-04, 9.95618757e-04,
          5.11102099e-03, 7.91948568e-03, 5.11102099e-03, 8.32082052e-03,
          5.53835034e-02, 2.68273205e-02, 5.53835034e-02, 2.69081797e-02,
          5.89935482e-03, 3.85533576e-03, 6.54078322e-03, 4.11824882e-03,
          2.46664393e-03, 1.95878628e-03, 2.53678230e-03, 2.53851758e-03,
          1.06434494e-01, 3.66950557e-02, 1.06434494e-01, 3.76126021e-02,
          4.76696074e-01, 9.71734747e-02, 4.76696074e-01, 9.91850644e-02,
          -6.11649174e-03, -4.82015777e-03, 3.03683188e-02,
          1.27326036e-02, -5.05006465e-04, 6.42367592e-03,
          2.60307058e-03, 6.42367592e-03, 9.02247503e-02,
          -2.72089168e-02, 1.01575740e-01, 3.30574848e-02,
          4.73209143e-01, -8.34501162e-02, 4.73209143e-01,
          8.80469531e-02, -2.01921072e-02, -1.31136756e-02,
          2.25749370e-02, 1.33972690e-02, -7.27717066e-04,
          8.85457848e-04, 7.53543514e-04, 8.85457848e-04,
          -1.76888029e-03, 3.06501682e-03, 1.14863804e-02,
          5.55121014e-03, 5.93026578e-02, -9.56431683e-03,
          5.93026578e-02, 1.54988598e-02, -1.76883198e-03,
          -1.77852612e-03, 2.76291813e-03, 2.22480623e-03,
          -7.44051067e-03, -7.25783873e-04, 7.62433233e-03,
          2.03678082e-03, -1.39361632e-03, 5.15815616e-03,
          3.36078331e-02, 2.16845721e-02, 5.66613860e-02, 4.24669050e-02,
          5.66613860e-02, 4.28773463e-02, 4.31680866e-03, 5.11128502e-03,
          4.31680866e-03, 5.13451733e-03, -5.56903929e-02,
          2.77392901e-02, 5.56903929e-02, 2.77392901e-02, 1.22702993e-01,
          2.44252458e-01, 2.25021094e-01, 2.44252458e-01, 3.54534596e-01,
          1.82172209e-01, 3.54534596e-01, 1.82172209e-01,
          -1.93548054e-02, -2.33206246e-03, 2.30633635e-02,
          1.16930911e-02, -4.81971093e-02, -1.80977173e-02,
          4.81971093e-02, 2.20854115e-02, 4.85717803e-02,
          -1.61404923e-01, 1.89125329e-01, 1.65350512e-01,
          4.02587831e-01, -1.33984029e-01, 4.02587831e-01,
          1.37220070e-01, -3.60780731e-02, 1.44337527e-02,
          3.85181755e-02, 1.50718540e-02, -4.46866266e-03,
          -7.78379943e-03, 4.49189544e-03, 7.78379943e-03,
          2.85392837e-03, -2.68274788e-02, 1.47544304e-02,
          2.68274788e-02, 7.34530389e-02, -3.69794518e-02,
          7.34530389e-02, 3.69794518e-02, 2.82970397e-03,
          -1.08356390e-03, 5.51447133e-03, 3.09594814e-03,
          2.93950713e-03, 4.91179293e-04, 2.93950713e-03, 8.38775712e-04,
          2.92520653e-02, -8.77062231e-03, 2.92520653e-02,
          8.93583335e-03, -3.97928581e-02, -6.08118856e-03,
          4.16766554e-02, 8.36350955e-03, 7.98253063e-03,
          -2.90043652e-04, 8.11927207e-03, 7.43829412e-04,
          8.60097259e-03, -1.70908831e-02, 8.60097259e-03,
          1.71255637e-02, 3.41110706e-01, -1.24780294e-02,
          3.41110706e-01, 6.02881014e-02, -2.91077733e-01,
          9.77002755e-02, 2.96935230e-01, 9.77002755e-02, 4.68030535e-02,
          6.07537921e-04, 5.05714975e-02, 7.03561585e-03, 2.02738643e-02,
          -1.55518902e-02, 2.02738643e-02, 1.55518902e-02,
          4.42003340e-01, -5.20798452e-02, 4.42003340e-01,
          5.20798452e-02, -2.38068044e-01, 6.32782727e-02,
          2.62344599e-01, 8.07300359e-02, 4.66921479e-02, 1.64461806e-02,
          5.03639765e-02, 1.64461806e-02, 7.48786610e-03,
          -1.51210865e-02, 7.62096420e-03, 1.51210865e-02,
          8.39490145e-02, -5.37855774e-02, 8.39490145e-02,
          5.37855774e-02, 2.29715588e-04, -7.18641188e-03,
          2.81654783e-02, 1.92484818e-02, 7.19692046e-03, 2.94355769e-03,
          7.19692046e-03, 3.10327159e-03, 1.63757696e-03, 3.68689676e-03,
          1.63757696e-03, 3.68689676e-03, 2.74983272e-02, 2.71125156e-02,
          2.74983272e-02, 2.71125156e-02, 3.60594168e-02, 1.43031217e-02,
          3.60594168e-02, 1.43031217e-02, 4.14577220e-03,
          -4.98138310e-04, 5.31111751e-03, 1.66614132e-03,
          5.30996453e-03, -8.79314449e-03, 1.12771606e-02,
          1.12934252e-02, 1.51803926e-01, -9.55991670e-02,
          1.51803926e-01, 1.08069487e-01, 3.14772516e-01, 3.41034407e-04,
          3.14772516e-01, 8.40429217e-02, -2.10400652e-02,
          -5.12476824e-03, 3.18586230e-02, 1.08893011e-02,
          8.36813916e-03, -4.37571295e-02, 2.32877079e-02,
          4.37571295e-02, 2.24277571e-01, -5.20222634e-02,
          2.24277571e-01, 9.17247683e-02, 4.97928470e-01, 1.55494913e-01,
          5.05710185e-01, 1.61017075e-01, -6.32022172e-02,
          -4.00506333e-03, 6.42562807e-02, 1.16199004e-02,
          1.09191444e-02, -2.26558577e-02, 1.17115965e-02,
          2.26558577e-02, 1.08592257e-01, -5.37308119e-02,
          1.08592257e-01, 5.37308119e-02, 6.61369339e-02, 1.36679094e-02,
          7.67161474e-02, 1.88223403e-02, -8.48045293e-03,
          4.00846533e-04, 9.80502833e-03, 1.56287162e-03, 3.03357560e-03,
          -5.13555156e-03, 3.03357560e-03, 5.13555156e-03,
          -1.81290712e-02, -4.02409136e-02, 1.81290712e-02,
          4.02409136e-02, 3.83318886e-02, -3.11144558e-03,
          4.35248427e-02, 1.67913903e-02, -4.03927546e-03,
          2.94400891e-03, 4.03927546e-03, 2.99493875e-03, 3.82036380e-02,
          -6.78274082e-03, 3.82036380e-02, 1.54628223e-02,
          -1.87364370e-01, -2.66071351e-04, 2.37818703e-01,
          1.28954560e-01, 4.48576540e-01, -7.31661841e-02,
          4.48576540e-01, 8.27191770e-02, -3.45661566e-02,
          -2.32241750e-02, 3.45661566e-02, 2.35659424e-02,
          7.48157799e-02, -1.74722858e-02, 7.48157799e-02,
          2.22496763e-02, -1.39086321e-01, 2.23871082e-01,
          2.00894505e-01, 2.87438363e-01, 1.85931399e-01, 9.37860087e-02,
          2.48668611e-01, 1.64270461e-01, -3.03299241e-02,
          -1.18925795e-02, 3.03299241e-02, 2.62731779e-02,
          -1.46874739e-02, 5.19140298e-03, 1.74651872e-02,
          1.56747866e-02, 1.64405052e-02, -2.03236729e-01,
          3.27599272e-02, 2.03236729e-01, 3.29177454e-02,
          -1.34777144e-01, 3.29177454e-02, 1.34777144e-01,
          -5.78827166e-04, -6.72986452e-03, 4.22087638e-03,
          1.02234837e-02, 1.73010863e-02, 4.53138072e-03, 1.73010863e-02,
          4.54591261e-03, 7.90782794e-02, 9.39922035e-03, 7.90782794e-02,
          1.18637048e-02, 1.30919169e-03, -3.03714722e-03,
