%YAML:1.0
opencv_ml_svm:
   format: 3
   svmType: ONE_CLASS
   kernel:
      type: RBF
      gamma: 1.0000000000000001e-01
   nu: 5.0000000000000003e-02
   term_criteria: { iterations:500 }
   var_count: 1280
   class_count: 1
   sv_total: 126
   support_vectors:
      - [ 2.75381543e-02, -6.14514807e-03, 2.75381543e-02,
          6.14514807e-03, 3.63297202e-02, -3.25426944e-02,
          4.88956757e-02, 3.35110389e-02, -1.86834317e-02,
          -3.20675410e-02, 1.86834317e-02, 3.20675410e-02,
          -3.07002710e-03, -3.84568307e-03, 3.07002710e-03,
          3.84568307e-03, 1.93259865e-01, -2.05333419e-02,
          1.93259865e-01, 2.08271891e-02, 3.77886951e-01,
          -2.14670580e-02, 3.81542027e-01, 1.19838543e-01,
          -1.73103005e-01, 3.33494507e-02, 1.73103005e-01,
          8.23660642e-02, -1.25252353e-02, -2.53130728e-03,
          1.25252353e-02, 1.05122048e-02, 1.87831268e-01, 1.72457732e-02,
          1.87831268e-01, 1.72457732e-02, 4.34444577e-01,
          -2.53227982e-03, 4.38099653e-01, 3.76692563e-02,
          -2.01590225e-01, -1.54438224e-02, 2.01590225e-01,
          3.78792286e-02, -9.03800968e-03, 7.29233259e-04,
          9.63363145e-03, 7.92813394e-03, 2.23035123e-02, 5.25086839e-03,
          2.23035123e-02, 5.25086839e-03, 4.60184589e-02, 4.50417353e-03,
          4.83278334e-02, 8.92030727e-03, -1.45146027e-02,
          1.00599062e-02, 1.52911199e-02, 1.00599062e-02,
          -2.17539724e-03, 1.24357711e-03, 2.26008310e-03,
          1.29278889e-03, 6.63390663e-03, -7.03297695e-03,
          7.08850799e-03, 7.03297695e-03, 7.61082098e-02,
          -1.08719999e-02, 7.61082098e-02, 1.27163446e-02,
          -3.29156546e-03, -2.21308833e-03, 4.91691334e-03,
          4.05743439e-03, -2.81386892e-04, -6.61198166e-04,
          2.81386892e-04, 6.61198166e-04, 4.99173030e-02, 2.27869917e-02,
          4.99173030e-02, 2.79714894e-02, 6.12396955e-01,
          -1.68885440e-02, 6.12396955e-01, 7.39788264e-02,
          -4.77639660e-02, -3.29905786e-02, 7.24611282e-02,
          4.41550389e-02, 0., -2.95597757e-03, 0., 2.95597757e-03,
          3.17321084e-02, 6.61106631e-02, 3.17321084e-02, 6.61106631e-02,
          2.80895025e-01, 1.01033717e-01, 2.80895025e-01, 1.34209871e-01,
          4.72953841e-02, -7.70025253e-02, 5.65141775e-02,
          7.70025253e-02, -1.91811984e-03, -7.28739891e-03,
          1.91811984e-03, 7.28739891e-03, 1.41580054e-03, 6.09932793e-03,
          1.57941261e-03, 6.22972194e-03, -7.17693754e-03,
          1.83857679e-02, 8.55777785e-03, 2.09100470e-02,
          -4.81498573e-05, -1.77311851e-03, 3.34265735e-03,
          3.95847717e-03, -2.15807828e-04, -7.02055113e-04,
          2.15807828e-04, 7.02055113e-04, 4.19103028e-03,
          -9.20328218e-03, 5.80117106e-03, 9.20328218e-03,
          2.38097850e-02, -2.58145481e-02, 3.73856202e-02,
          2.97784526e-02, -5.37202461e-03, -8.97814461e-04,
          5.39502967e-03, 4.68208827e-03, 3.66415421e-04, 2.07182617e-04,
          3.66415421e-04, 2.52709724e-04, 2.39499062e-02,
          -3.17885391e-02, 3.87233123e-02, 3.17885391e-02,
          3.75042826e-01, -2.73994237e-01, 3.77910107e-01,
          2.73994237e-01, 1.37374997e-01, -6.37348220e-02,
          1.39255166e-01, 7.73168355e-02, 2.14743009e-03, 1.55923807e-03,
          2.14743009e-03, 1.55923807e-03, 3.03883571e-02, 7.35653890e-03,
          3.34015898e-02, 1.21436510e-02, 4.30939525e-01, 1.09112024e-01,
          4.30939525e-01, 1.09112024e-01, 2.07305059e-01, 9.17149708e-02,
          2.07877398e-01, 9.17149708e-02, -4.79288306e-03,
          5.26241492e-03, 4.79288306e-03, 5.26241492e-03, 6.17925683e-03,
          4.74063121e-03, 6.17925683e-03, 4.74063121e-03, 5.66493794e-02,
          2.73415335e-02, 5.66493794e-02, 2.73415335e-02, 2.20813472e-02,
          1.54718142e-02, 2.35917568e-02, 1.54718142e-02,
          -1.58582453e-03, 1.52649696e-03, 1.58582453e-03,
          1.52649696e-03, 2.42186785e-02, -1.72317820e-03,
          2.42186785e-02, 2.09189882e-03, 9.17219520e-02,
          -9.59922094e-03, 9.17219520e-02, 1.53313950e-02,
          -2.19470207e-02, -9.30706679e-04, 2.20108088e-02,
          4.71489597e-03, 1.95972179e-03, -3.74677853e-04,
          1.95972179e-03, 5.43535454e-04, 1.27973393e-01, 6.43215626e-02,
          1.27973393e-01, 7.27939829e-02, 6.08954966e-01, 2.87575158e-03,
          6.08954966e-01, 1.07315309e-01, -7.94654191e-02,
          -5.48810065e-02, 7.94654191e-02, 5.48810065e-02,
          8.31571128e-03, -4.62222518e-03, 8.68085027e-03,
          4.62222518e-03, 2.71475036e-02, 8.30131769e-02, 2.81371772e-02,
          8.30769613e-02, 2.43223295e-01, 4.81033213e-02, 2.43223295e-01,
          1.27242044e-01, -2.86669210e-02, -7.85856843e-02,
          2.86669210e-02, 7.85856843e-02, 6.71959994e-03,
          -5.40500833e-03, 7.08473893e-03, 5.40500833e-03,
          1.80333806e-03, -1.84949211e-04, 1.89543737e-03,
          1.18922384e-03, 8.02575517e-03, 3.56598943e-03, 8.02575517e-03,
          4.55566589e-03, 0., 0., 0., 0., 1.95351371e-04,
          -1.83136362e-04, 1.95351371e-04, 1.83136362e-04,
          -1.74380292e-03, -8.83803703e-03, 2.26872228e-03,
          8.83896183e-03, 1.87511593e-02, -3.82675081e-02,
          2.10853200e-02, 3.86410952e-02, -1.28584048e-02,
          -4.34199162e-03, 1.28584048e-02, 6.15976471e-03,
          -3.08618502e-04, -1.07679938e-04, 3.08618502e-04,
          1.76926551e-04, 7.35813659e-03, -5.34269512e-02,
          2.41718460e-02, 5.34269512e-02, 4.68738705e-01,
          -5.01246266e-02, 4.68738705e-01, 1.23479545e-01,
          -5.61404228e-02, 3.45156342e-02, 1.04274012e-01,
          4.63404134e-02, 0., 0., 0., 0., 4.26573567e-02, 1.37477992e-02,
          4.31032144e-02, 1.92720722e-02, 4.91384834e-01,
          -4.89323400e-02, 4.91384834e-01, 8.02413151e-02,
          -3.39915641e-02, -6.86528087e-02, 6.39007911e-02,
          7.00864568e-02, -5.34320541e-04, 1.97888725e-03,
          1.19784474e-03, 1.97888725e-03, 5.34487749e-03, 7.89287221e-03,
          5.34487749e-03, 7.89287221e-03, 3.34135294e-02, 2.61943098e-02,
          3.34135294e-02, 2.61943098e-02, 7.47366203e-03, 1.93280599e-03,
          8.35675281e-03, 3.44685512e-03, 1.04940940e-04, 5.14702464e-04,
          1.04940940e-04, 5.14702464e-04, -2.54356884e-03,
          -1.21761078e-03, 2.54356884e-03, 1.51037099e-03,
          -1.64995547e-02, -1.11911362e-02, 1.64995547e-02,
          1.32982684e-02, -8.07400513e-03, 2.86501553e-03,
          1.08182048e-02, 6.18061796e-03, -1.72931561e-03,
          1.75803027e-04, 1.72931561e-03, 5.13607461e-04, 1.96810178e-02,
          -8.34606811e-02, 3.19643840e-02, 8.34606811e-02,
          1.42991468e-01, 8.24076533e-02, 1.65346250e-01, 1.68606251e-01,
          -1.79489180e-01, 7.35940486e-02, 1.83832437e-01,
          1.20291479e-01, -1.34741208e-02, -1.51653681e-02,
          1.43858250e-02, 1.53567456e-02, 1.25748232e-01,
          -7.03180134e-02, 1.25748232e-01, 7.03180134e-02,
          4.81803030e-01, -2.98781302e-02, 5.04608810e-01,
          8.34976807e-02, -3.32698256e-01, 1.10280119e-01,
          3.32698256e-01, 1.10280119e-01, -9.80909355e-03,
          1.56135131e-02, 1.21325823e-02, 1.69625524e-02, 2.42582895e-02,
          -1.00198351e-02, 2.42582895e-02, 1.00198351e-02,
          1.13898747e-01, -2.81945039e-02, 1.13898747e-01,
          2.81945039e-02, -2.41847504e-02, 1.85586642e-02,
          3.01687066e-02, 1.93787534e-02, -2.51984061e-03,
          4.80780937e-03, 2.51984061e-03, 4.80780937e-03, 1.78315826e-02,
          6.08570036e-03, 1.78315826e-02, 6.08570036e-03, 5.21600284e-02,
          6.41803294e-02, 5.21600284e-02, 6.41803294e-02,
          -2.39163777e-03, 7.35268742e-02, 2.39163777e-03,
          7.35268742e-02, 1.50128687e-03, 9.79710277e-03, 1.50128687e-03,
          9.79710277e-03, 1.48608446e-01, 1.24556683e-02, 1.48608446e-01,
          1.26396064e-02, 4.41681296e-01, 1.44317836e-01, 4.41681296e-01,
          1.71836570e-01, -4.71349098e-02, 1.23922534e-01,
          6.67280033e-02, 1.64933145e-01, -5.18169347e-03,
          1.16392821e-02, 6.90072682e-03, 1.70681365e-02, 1.50948524e-01,
          -3.20175500e-03, 1.50948524e-01, 6.38691569e-03,
          3.90944272e-01, -1.02197424e-01, 3.90944272e-01,
          1.04735084e-01, -7.16833845e-02, -1.57773048e-01,
          7.16833845e-02, 1.57773048e-01, -6.84685074e-03,
          -2.26614643e-02, 6.84685074e-03, 2.26614643e-02,
          1.97512954e-02, 3.27787688e-03, 1.97512954e-02, 3.27787688e-03,
          4.68183011e-02, 1.05740167e-02, 4.68183011e-02, 1.08129494e-02,
          -1.58609152e-02, 3.72619880e-03, 1.58609152e-02,
          4.62121144e-03, -1.37640210e-03, -7.21165852e-04,
          1.37640210e-03, 8.33337486e-04, -8.92956858e-04,
          -9.21336841e-03, 1.68012478e-03, 9.21336841e-03,
          -3.21104797e-03, -6.04955852e-02, 1.65171213e-02,
          6.04955852e-02, 3.56828906e-02, -3.13187800e-02,
          3.56828906e-02, 3.13187800e-02, 7.33928173e-04,
          -5.40632347e-04, 1.01019372e-03, 5.40632347e-04,
          4.01133625e-03, -4.45711091e-02, 5.92137640e-03,
          4.45711091e-02, 5.15158549e-02, -1.53225958e-01,
          7.91782066e-02, 1.67676970e-01, 4.88026381e-01,
          -9.01394635e-02, 4.88026381e-01, 9.01394635e-02,
          8.89148004e-03, -1.61836448e-03, 1.45097580e-02,
          3.67320934e-03, 2.42424514e-02, 7.67802866e-03, 2.42424514e-02,
          1.40248528e-02, 1.60140276e-01, 1.88257039e-01, 1.60140276e-01,
          1.88257039e-01, 3.70870322e-01, 9.90074798e-02, 3.70870322e-01,
          1.10620804e-01, 1.62690189e-02, -9.41857230e-03,
          1.65841617e-02, 9.41857230e-03, 5.25347469e-03, 7.77536770e-03,
          5.25347469e-03, 7.77536770e-03, 2.88175568e-02, 4.88100573e-02,
          2.88175568e-02, 4.88100573e-02, 1.50291594e-02, 2.96683665e-02,
          1.54194413e-02, 2.96683665e-02, 9.18322417e-04,
          -1.40723860e-04, 1.15152693e-03, 6.71825605e-04,
          1.07824979e-02, -1.74438618e-02, 1.07824979e-02,
          1.74438618e-02, 1.53446887e-02, -3.38931940e-02,
          2.29686815e-02, 3.54389474e-02, 5.73849538e-03, 4.31688735e-03,
          1.07816225e-02, 6.35229843e-03, -1.53284066e-03,
          -1.02512736e-03, 1.53284066e-03, 1.16110255e-03,
          1.05052173e-01, -4.59526386e-03, 1.05052173e-01,
          7.90113807e-02, 5.84250033e-01, -1.88985076e-02,
          5.84250033e-01, 1.35293409e-01, -1.05773225e-01,
          -1.05160534e-01, 1.18876792e-01, 1.21426381e-01,
          -1.54142799e-02, -1.98911820e-02, 1.54142799e-02,
          1.98911820e-02, 5.52708097e-02, 9.80731472e-02, 5.71220368e-02,
          9.86902267e-02, 1.69043899e-01, -9.56782233e-03,
          2.05101237e-01, 1.82726130e-01, -9.08573940e-02,
          -1.82525203e-01, 9.08573940e-02, 1.82525203e-01,
          -4.20956081e-03, -1.20881563e-02, 4.37393505e-03,
          1.20881563e-02, 2.39156478e-04, -2.82091252e-03,
          2.64162803e-03, 3.00498586e-03, -7.01845484e-03,
          -1.20347179e-02, 7.01845484e-03, 1.21306591e-02,
          -1.81652687e-03, -1.29735691e-03, 1.81652687e-03,
          1.29735691e-03, 0., 0., 0., 0., 1.45351060e-03, 2.16676574e-03,
          2.01770291e-03, 2.16676574e-03, 4.95456792e-02,
          -3.49386042e-04, 4.95456792e-02, 5.69399865e-03,
          5.66513203e-02, -6.40554214e-03, 5.66513203e-02,
          1.19569013e-02, 1.30497036e-03, 1.11455192e-04, 1.76702207e-03,
          8.15662846e-04, -1.60290506e-02, 2.53705233e-02,
          1.67360771e-02, 2.53705233e-02, 1.92181066e-01,
          -3.03201918e-02, 1.94984183e-01, 6.33713156e-02,
          4.01739299e-01, -1.07421957e-01, 4.01739299e-01,
          1.07421957e-01, 2.09539998e-02, -8.46209470e-03,
          2.17907503e-02, 8.49456713e-03, -1.76307280e-02,
          3.94320935e-02, 1.81880053e-02, 3.94320935e-02, 1.23460896e-01,
          3.90127987e-01, 1.31624267e-01, 3.90127987e-01, 2.50135690e-01,
          2.12987453e-01, 2.50135690e-01, 2.12987453e-01, 2.11941041e-02,
          -1.35007512e-03, 2.13581752e-02, 4.30752570e-03,
          1.05281186e-03, 4.62682731e-03, 1.23766379e-03, 4.62682731e-03,
          7.38459872e-03, 2.92756744e-02, 7.84105714e-03, 3.11874524e-02,
          3.48769641e-03, 1.10116927e-02, 4.22172248e-03, 1.20674549e-02,
          7.03790167e-04, 1.58917450e-04, 7.03790167e-04, 1.93815999e-04,
          3.99570636e-05, -4.47746692e-03, 9.23830085e-04,
          4.53000609e-03, -1.89712811e-02, -3.16755027e-02,
          1.89712811e-02, 3.17843109e-02, 1.08899921e-02,
          -2.39393935e-02, 1.09608024e-02, 2.39771549e-02,
          -1.27148465e-03, -5.73972415e-04, 1.27148465e-03,
          6.76237047e-04, -7.58838048e-03, -6.72526658e-02,
          7.84106553e-03, 6.72526658e-02, -7.11019859e-02,
          -4.08884764e-01, 7.11019859e-02, 4.08884764e-01,
          2.77926475e-01, -1.81808680e-01, 2.77926475e-01,
          1.99073240e-01, 7.96003826e-03, -4.60528210e-03,
          1.28269494e-02, 8.26288294e-03, -2.38257670e-03,
          -1.90752223e-02, 4.05572541e-03, 2.52537504e-02,
          1.12083256e-01, -9.25620738e-03, 1.20024845e-01,
          1.14316538e-01, 4.22614574e-01, 6.35771751e-02, 4.22614574e-01,
          7.19790384e-02, 1.18148171e-04, 2.42726237e-04, 9.64973867e-03,
          9.17013083e-03, 5.73024387e-04, 5.38355997e-03, 6.37646357e-04,
          5.38355997e-03, 2.25004181e-02, 3.92548181e-02, 2.25004181e-02,
          3.92548181e-02, 3.42668220e-02, 1.36467395e-02, 3.42668220e-02,
          1.59512721e-02, 7.89267884e-04, -3.93023482e-04,
          9.14428907e-04, 5.06400946e-04, 3.49309295e-03,
          -7.62482965e-03, 3.49309295e-03, 7.62482965e-03,
          -1.48512167e-03, -5.58679178e-02, 1.74373016e-03,
          5.58679178e-02, 1.34878624e-02, -3.79196666e-02,
          1.37328887e-02, 3.79196666e-02, 1.24877272e-03,
          -1.27311202e-03, 1.29879592e-03, 1.27311202e-03,
          1.33235557e-02, -4.72500809e-02, 1.33235557e-02,
          4.72500809e-02, 1.11982096e-02, -2.95627296e-01,
          1.94299966e-02, 2.95627296e-01, 3.80078673e-01,
          -1.32468030e-01, 3.80078673e-01, 1.40083641e-01,
          1.61978677e-02, 2.17776326e-03, 1.76138598e-02, 5.91070345e-03,
          1.72007568e-02, 1.01164682e-03, 1.72007568e-02, 1.56232277e-02,
          9.55331177e-02, 8.58175308e-02, 9.55331177e-02, 1.25177160e-01,
          4.60110098e-01, 6.96054250e-02, 4.60110098e-01, 7.17220679e-02,
          9.00464691e-03, -1.83958025e-03, 1.56481583e-02,
          4.15413082e-03, 3.23547539e-03, 7.52736395e-03, 3.23547539e-03,
          7.52736395e-03, 1.68843251e-02, 4.50444706e-02, 1.68843251e-02,
          4.50444706e-02, 3.32291052e-02, 1.86551139e-02, 3.32291052e-02,
          1.88618284e-02, 1.13258883e-03, -1.00100937e-03,
          1.28592306e-03, 1.00100937e-03, -5.21747163e-04,
          2.18433933e-03, 8.15725070e-04, 2.18433933e-03, 2.66152024e-02,
          -4.23137797e-03, 2.70824097e-02, 8.44403356e-03,
          6.80160373e-02, -1.69876721e-02, 6.80160373e-02,
          1.69876721e-02, 1.01450291e-02, -2.14197952e-03,
          1.01450291e-02, 2.14197952e-03, -8.56241211e-03,
          6.76826341e-03, 1.01773450e-02, 6.76826341e-03, 5.80633730e-02,
          -1.07336342e-02, 1.11302868e-01, 3.21995951e-02,
          4.83276993e-01, -4.45611030e-02, 4.83276993e-01,
          4.87939455e-02, 8.10912699e-02, 1.33474928e-03, 8.10912699e-02,
          3.42255714e-03, -1.14201549e-02, 7.83296395e-03,
          1.14946123e-02, 7.83296395e-03, 1.76054630e-02, 6.82018772e-02,
          8.10406059e-02, 6.82018772e-02, 4.71428156e-01, 3.00701093e-02,
          4.71428156e-01, 3.84325162e-02, 8.72868747e-02, 2.06703623e-03,
          8.72868747e-02, 3.91194504e-03, -1.48736674e-03,
          5.67042967e-04, 1.48736674e-03, 6.13209442e-04, 7.71228503e-03,
          1.41324634e-02, 1.05088158e-02, 1.41324634e-02, 5.82953170e-02,
          1.06336046e-02, 5.82953170e-02, 1.06336046e-02, 1.21981297e-02,
          2.49961362e-04, 1.21981297e-02, 4.83602373e-04, 9.71757434e-03,
          4.71971976e-03, 9.71757434e-03, 4.71971976e-03, 7.27023780e-02,
          3.28887664e-02, 7.27023780e-02, 3.28887664e-02, 3.07346396e-02,
          7.24205095e-03, 3.07346396e-02, 1.10085756e-02, 1.91639178e-03,
          -1.26646331e-03, 1.91915408e-03, 1.26646331e-03,
          8.70170593e-02, 2.14168094e-02, 8.70170593e-02, 2.14168094e-02,
          4.10483986e-01, 1.86776996e-01, 4.10483986e-01, 1.86776996e-01,
          8.61598272e-03, 1.04274422e-01, 4.45646048e-02, 1.08452208e-01,
          7.99063127e-03, -4.46025515e-03, 7.99063127e-03,
          5.48733072e-03, 8.41744170e-02, -2.14149598e-02,
          8.41744170e-02, 2.14149598e-02, 4.63713229e-01,
          -1.67218804e-01, 4.63713229e-01, 1.76183641e-01,
          -8.07407871e-03, -3.26702073e-02, 1.07063480e-01,
          5.27304001e-02, -1.15595805e-03, -4.30788117e-04,
          3.62207391e-03, 1.45786407e-03, 7.49718491e-03,
          -2.91214115e-03, 7.52507010e-03, 3.57950246e-03,
          8.08045566e-02, -3.49826254e-02, 8.08045566e-02,
          3.76975127e-02, 2.57523656e-02, -1.47718228e-02,
          2.78609414e-02, 1.47718228e-02, -9.50933900e-04,
          -3.03958514e-04, 1.03569264e-03, 3.03958514e-04,
          7.39263045e-03, 2.04322906e-03, 7.39263045e-03, 2.04322906e-03,
          4.10728604e-02, 3.10996883e-02, 4.10728604e-02, 3.10996883e-02,
          9.39941872e-03, 4.21351567e-02, 9.70056839e-03, 4.21351567e-02,
          1.86256645e-03, 5.74249867e-03, 1.86256645e-03, 5.74249867e-03,
          6.24582171e-02, -1.05502526e-03, 6.24582171e-02,
          4.44531441e-03, 4.09812242e-01, 9.48932022e-02, 4.09812242e-01,
          9.62930992e-02, 9.28961039e-02, 1.64691910e-01, 9.69729498e-02,
          1.64691910e-01, 1.17296113e-04, 1.66625325e-02, 3.64095601e-03,
          1.69036668e-02, 6.38720244e-02, -1.51093751e-02,
          6.38720244e-02, 1.51093751e-02, 4.89206642e-01,
          -1.05565071e-01, 4.89206642e-01, 1.05565071e-01,
          9.69316289e-02, -6.08678721e-02, 1.25337988e-01,
          6.55513853e-02, -6.16841065e-03, -1.04742534e-02,
          6.16841065e-03, 1.04742534e-02, 8.01202469e-03,
          -1.78903935e-03, 8.01202469e-03, 1.82389666e-03,
          7.49628991e-02, -1.56418327e-02, 7.49628991e-02,
          1.56418327e-02, 2.18238048e-02, -6.72516599e-03,
          2.28073169e-02, 7.51927309e-03, -1.48924650e-03,
          6.93940638e-06, 1.48924650e-03, 4.87064535e-04, 4.66303155e-03,
          2.43239407e-03, 4.66303155e-03, 2.43469677e-03, 5.28549887e-02,
          3.85730676e-02, 5.28549887e-02, 3.85730676e-02, 3.83493900e-02,
          2.88420003e-02, 3.83493900e-02, 2.88420003e-02, 2.36506155e-03,
          6.77183489e-05, 2.36506155e-03, 6.64412975e-04, 5.11859730e-02,
          7.86255486e-03, 5.11859730e-02, 7.86255486e-03, 4.26236898e-01,
          1.35507509e-01, 4.26236898e-01, 1.35507509e-01, 1.23367712e-01,
          1.33906573e-01, 1.32783905e-01, 1.33906573e-01,
          -1.27127324e-03, 3.98543943e-03, 5.04665542e-03,
          4.80791414e-03, 4.33967225e-02, -2.88570975e-03,
          4.35693935e-02, 6.06448110e-03, 4.59443122e-01,
          -1.16304681e-01, 4.59443122e-01, 1.16304681e-01,
          1.34936035e-01, -6.27385005e-02, 1.54522002e-01,
          6.27385005e-02, -7.47377472e-03, 7.14430935e-04,
          7.90674519e-03, 2.46992381e-03, 2.86495639e-03, 2.39863968e-03,
          3.17736156e-03, 2.64760037e-03, 5.81845641e-02,
          -7.11493252e-04, 5.81845641e-02, 1.56998225e-02,
          3.33380252e-02, -7.55448360e-03, 3.33380252e-02,
          8.53361282e-03, -7.85859476e-04, -5.35872707e-04,
          7.89169979e-04, 5.35872707e-04, 6.58901175e-03, 4.36048862e-03,
          6.60762889e-03, 4.36048862e-03, 5.75846769e-02, 2.23190989e-02,
          5.75846769e-02, 2.23190989e-02, 3.76290232e-02, 8.51362664e-03,
          3.76290232e-02, 8.51362664e-03, -3.30339069e-04,
          6.66860898e-04, 1.00921444e-03, 6.66860898e-04, 5.17923161e-02,
          9.85084847e-03, 5.17923161e-02, 1.31484447e-02, 3.41873795e-01,
          9.57194269e-02, 3.41873795e-01, 9.57194269e-02, 2.03232780e-01,
          8.39678049e-02, 2.04870820e-01, 8.39678049e-02,
          -8.98471102e-03, 3.30551877e-03, 9.39787645e-03,
          3.51655320e-03, 5.52862398e-02, -3.44640985e-02,
          5.52862398e-02, 3.44640985e-02, 3.64433169e-01,
          -2.56207436e-01, 3.64433169e-01, 2.56207436e-01,
          2.23423034e-01, -2.20167816e-01, 2.23423034e-01,
          2.21805856e-01, -6.25891518e-03, -1.82604454e-02,
          9.80289187e-03, 2.09927559e-02, 4.70242091e-03,
          -4.80219116e-03, 4.70242091e-03, 4.81467275e-03,
          3.99581343e-02, -6.65843040e-02, 3.99581343e-02,
          6.65843040e-02, 3.56901139e-02, -8.71913508e-02,
          3.56901139e-02, 8.71913508e-02, 3.39813554e-03,
          -1.10664060e-02, 3.39813554e-03, 1.10664060e-02,
          2.16230862e-02, 3.36231431e-04, 2.16230862e-02, 1.99702941e-03,
          8.63444731e-02, 8.71679652e-03, 8.63444731e-02, 1.52213750e-02,
          1.38119953e-02, 1.07033295e-03, 1.38119953e-02, 1.72217586e-03,
          -6.37393794e-04, -1.19783951e-03, 9.87633481e-04,
          1.19783951e-03, 1.56596616e-01, 2.80772038e-02, 1.56596616e-01,
          2.80772038e-02, 5.21986008e-01, 9.84511077e-02, 5.21986008e-01,
          9.84511077e-02, -2.42940616e-02, -3.41069177e-02,
          9.49167237e-02, 6.61416724e-02, -7.37370178e-03,
          -1.08368751e-02, 7.37370178e-03, 1.08368751e-02,
          1.39309973e-01, 1.37452623e-02, 1.39309973e-01, 1.47529002e-02,
          3.57149959e-01, -1.06783345e-01, 3.57149959e-01,
          1.10778265e-01, -1.78360604e-02, -1.17319368e-01,
          5.15724681e-02, 1.17319368e-01, -6.00868603e-03,
          -1.05993254e-02, 6.00868603e-03, 1.05993254e-02,
          1.34876035e-02, 6.11658534e-03, 1.35109490e-02, 6.11658534e-03,
          3.86127010e-02, -1.06464447e-02, 3.86127010e-02,
          1.47121614e-02, 7.09250430e-03, -1.26639446e-02,
          9.37966816e-03, 1.26639446e-02, -1.05375331e-03,
          -1.30248885e-03, 1.05375331e-03, 1.30248885e-03,
          7.87291967e-04, 3.22982739e-03, 1.14794273e-03, 3.22982739e-03,
          7.04300823e-03, 8.62950925e-03, 1.63564198e-02, 1.28016919e-02,
          8.79267156e-02, -2.80661043e-02, 8.79267156e-02,
          2.80661043e-02, 1.93055365e-02, -4.12611291e-03,
          1.93055365e-02, 4.12611291e-03, 4.80742473e-03, 1.64695270e-02,
          1.02379611e-02, 1.64695270e-02, -1.24598905e-01,
          6.31019101e-02, 1.24598905e-01, 7.24715739e-02, 4.82245624e-01,
          -6.13542758e-02, 4.82245624e-01, 8.28843042e-02,
          1.50108680e-01, -9.25729144e-03, 1.50108680e-01,
          9.25729144e-03, -1.10320300e-02, 1.67449452e-02,
          1.35087473e-02, 1.67449452e-02, -1.26605585e-01,
          1.11155324e-01, 1.26605585e-01, 1.11155324e-01, 3.79445523e-01,
          1.09986357e-01, 3.79445523e-01, 1.14631668e-01, 1.45995483e-01,
          -9.13915981e-04, 1.45995483e-01, 8.49098153e-03,
          -2.36178306e-03, 7.31104694e-04, 2.36178306e-03,
          7.52551481e-04, -5.45475399e-03, 1.14420103e-02,
          1.24556888e-02, 1.14420103e-02, 4.47893590e-02, 2.15391573e-02,
          4.47893590e-02, 2.15391573e-02, 1.90652087e-02, 4.30188404e-04,
          1.90652087e-02, 6.45213586e-04, 5.51500311e-03,
          -1.98199833e-03, 5.51500311e-03, 1.98419089e-03,
          1.42622739e-02, 7.32411398e-03, 1.42622739e-02, 8.46369565e-03,
          5.93935838e-03, 3.66151333e-03, 6.81800442e-03, 3.66151333e-03,
          1.47052022e-04, 9.42623068e-04, 6.37590187e-04, 9.42623068e-04,
          8.40533748e-02, -4.65393141e-02, 8.40533748e-02,
          4.65393141e-02, 2.05375478e-01, 7.00565800e-02, 2.05375478e-01,
          1.12695664e-01, -6.30824715e-02, 7.80615136e-02,
          7.85246044e-02, 9.35036391e-02, 1.04363984e-03,
          -5.07906778e-03, 3.40346736e-03, 5.07906778e-03,
          1.42276064e-01, -5.93437627e-02, 1.42276064e-01,
          6.00165427e-02, 5.55517256e-01, 3.38000320e-02, 5.55517256e-01,
          1.34601623e-01, -2.08627820e-01, 1.61287114e-01,
          2.08627820e-01, 1.61287114e-01, -8.31765309e-03,
          -9.25418572e-04, 8.31765309e-03, 4.76483628e-03,
          2.04592142e-02, 1.08092679e-02, 2.04592142e-02, 1.08092679e-02,
          1.08369350e-01, 2.55979598e-02, 1.08369350e-01, 2.55979598e-02,
          -3.93824913e-02, 2.73811240e-02, 3.93824913e-02,
          2.73811240e-02, -3.86723340e-03, 1.70577329e-03,
          3.86723340e-03, 1.70577329e-03 ]
      - [ 0., 0., 0., 0., 4.48687328e-03, 3.45137756e-04, 4.92305588e-03,
          6.23452303e-04, 6.16561547e-02, 2.00506523e-02, 6.16561547e-02,
          2.00506523e-02, 4.48221993e-03, 2.72708246e-03, 4.78224177e-03,
          3.05945263e-03, 0., 0., 0., 0., 1.50618672e-01, 3.90895419e-02,
          1.50618672e-01, 3.90895419e-02, 4.92452741e-01, 1.18488356e-01,
          4.92452741e-01, 1.21237211e-01, 1.60438241e-03,
          -3.02715530e-03, 1.49442609e-02, 1.08825173e-02, 0., 0., 0.,
          0., 1.56201482e-01, -4.01027277e-02, 1.63125217e-01,
          5.29438816e-02, 3.72323632e-01, -2.13088229e-01,
          3.72323632e-01, 2.13088229e-01, 5.66337258e-03,
          -3.73952799e-02, 1.67754125e-02, 3.81813049e-02, 0., 0., 0.,
          0., 7.55156763e-03, -2.91937380e-03, 7.55156763e-03,
          2.91937380e-03, 2.38531139e-02, -2.12197863e-02,
          2.43312456e-02, 2.12197863e-02, 6.72849640e-03,
          -2.48926971e-03, 6.72849640e-03, 2.72306427e-03,
          7.53636891e-03, 1.99267250e-02, 7.53636891e-03, 1.99267250e-02,
          2.28297077e-02, -3.68807353e-02, 4.14588265e-02,
          7.02349395e-02, 5.11890240e-02, -1.12833664e-01,
          5.36428355e-02, 1.12833664e-01, -1.81956380e-03,
          -5.12660062e-03, 3.58122052e-03, 6.20698417e-03,
          -2.91752536e-02, -6.37663752e-02, 3.39550711e-02,
          6.47307634e-02, -9.14080665e-02, -2.63084024e-01,
          1.32010177e-01, 2.99456477e-01, 4.22598183e-01,
          -2.53276110e-01, 4.22598183e-01, 2.53276110e-01,
          8.33621994e-02, -6.58985600e-03, 8.41261968e-02,
          1.73272528e-02, 2.32260432e-02, 4.84204153e-03, 2.32260432e-02,
          1.13580599e-02, -1.45147191e-02, 2.23584935e-01,
          2.41552573e-02, 2.23584935e-01, 2.35968202e-01, 9.59057435e-02,
          2.35968202e-01, 1.46288380e-01, 9.29854363e-02,
          -3.53017710e-02, 9.29854363e-02, 3.53017710e-02,
          6.16608979e-03, -2.66903173e-03, 6.16608979e-03,
          2.66903173e-03, 1.17018381e-02, 6.40320452e-03, 1.17018381e-02,
          1.39052793e-02, 1.44663046e-03, 6.30372670e-03, 1.20981485e-02,
          7.32320081e-03, 7.73178274e-03, -3.89570626e-03,
          7.73178274e-03, 3.89570626e-03, 0., 0., 0., 0., 3.23770717e-02,
          2.70126592e-02, 3.23770717e-02, 2.70126592e-02, 4.95276302e-02,
          4.76029329e-02, 4.95276302e-02, 4.76029329e-02, 2.16500694e-03,
          1.70409726e-03, 2.23952346e-03, 2.10108468e-03, 1.25633432e-02,
          3.13149858e-03, 1.36690633e-02, 4.58887406e-03, 4.47133094e-01,
          1.54860884e-01, 4.47133094e-01, 1.54860884e-01, 1.28325805e-01,
          4.34830748e-02, 1.73956737e-01, 1.45765513e-01, 1.17023161e-03,
          6.22609211e-03, 2.22274195e-02, 1.94703359e-02, 1.42207555e-02,
          -1.15475256e-03, 1.42207555e-02, 4.26922599e-03,
          3.28262627e-01, -1.59256414e-01, 3.28262627e-01,
          1.59256414e-01, 1.58746496e-01, -1.86539099e-01,
          1.86724409e-01, 2.36210555e-01, 1.00196578e-01, 6.92194849e-02,
          1.00196578e-01, 6.92194849e-02, 5.92594908e-04,
          -5.92594908e-04, 5.92594908e-04, 5.92594908e-04,
          3.12207956e-02, -1.03804357e-02, 3.12207956e-02,
          1.24292886e-02, 8.90308022e-02, 2.92174015e-02, 8.90308022e-02,
          3.14000696e-02, 2.15775985e-02, 9.65337642e-03, 2.17247084e-02,
          9.75442491e-03, -8.20538553e-04, 2.40836875e-03,
          1.71899435e-03, 2.40836875e-03, 1.09672081e-02, 1.96779128e-02,
          2.05595251e-02, 2.02633888e-02, 7.80433789e-02, 2.12778337e-02,
          7.80433789e-02, 2.16473434e-02, 7.64410663e-03, 1.19293891e-02,
          7.64410663e-03, 1.19293891e-02, 1.13767143e-02, 9.03248414e-03,
          1.13767143e-02, 9.19418223e-03, -3.92505191e-02,
          7.99505934e-02, 7.82769546e-02, 8.91430303e-02, 5.57981730e-01,
          -6.98794872e-02, 5.57981730e-01, 7.72933885e-02,
          1.06345475e-01, -9.38982412e-04, 1.06345475e-01,
          1.40870009e-02, 2.77251881e-02, -5.92039572e-03,
          2.77251881e-02, 7.85000250e-03, 6.11440232e-03, 1.37451738e-01,
          7.20716044e-02, 1.39057606e-01, 3.14256459e-01, 6.15934841e-02,
          3.14256459e-01, 1.33574814e-01, 1.35639891e-01,
          -2.03175116e-02, 1.35639891e-01, 2.40451302e-02,
          6.14485051e-03, -1.35937380e-03, 6.14485051e-03,
          1.35937380e-03, 3.09140347e-02, 9.64564551e-03, 3.09140347e-02,
          1.28867272e-02, 2.88142310e-03, 2.37802397e-02, 1.28511246e-02,
          2.61170138e-02, 1.67409368e-02, -6.36166381e-03,
          1.67409368e-02, 6.36166381e-03, 4.45635663e-03, 1.19922112e-03,
          4.45635663e-03, 1.19922112e-03, 3.03271245e-02, 5.38419606e-03,
          3.03271245e-02, 6.83272909e-03, -1.74488884e-03,
          -2.24481663e-03, 1.30922655e-02, 9.30603594e-03,
          1.12779103e-02, 7.04173651e-03, 1.12779103e-02, 7.06498092e-03,
          2.57026348e-02, -1.00908922e-02, 2.57026348e-02,
          1.00908922e-02, 1.10952184e-01, -1.74993962e-01,
          1.24225162e-01, 1.74993962e-01, 2.81183898e-01,
          -1.26625681e-02, 2.91170746e-01, 1.22399859e-01,
          1.02487706e-01, 3.80064696e-02, 1.03040643e-01, 3.97648811e-02,
          1.09588392e-02, -3.98155907e-03, 1.09588392e-02,
          5.14373370e-03, 1.40145689e-01, -8.48677903e-02,
          1.40145689e-01, 8.81779566e-02, 5.51874697e-01, 7.30143413e-02,
          5.51874697e-01, 7.87572265e-02, 7.52980337e-02, 8.56909156e-03,
          8.09361190e-02, 1.47688482e-02, 0., 0., 0., 0., 3.00109163e-02,
          -2.42245407e-03, 3.00109163e-02, 2.54553766e-03,
          8.35211575e-02, -5.70398336e-03, 8.35211575e-02,
          1.08951358e-02, 6.89391140e-03, -4.20260988e-03,
          7.54953502e-03, 4.20260988e-03, 3.23757227e-03,
          -1.00627495e-03, 3.23757227e-03, 1.00627495e-03,
          6.64441939e-03, -1.54236620e-02, 9.67205875e-03,
          1.54236620e-02, 2.80818045e-02, -6.69630105e-03,
          3.30228806e-02, 7.69943558e-03, 1.19742481e-02, 1.12200691e-03,
          1.19920680e-02, 1.13982649e-03, 1.33807017e-02, 2.76258471e-03,
          1.33807017e-02, 2.76258471e-03, -2.24145688e-02,
          -6.84421808e-02, 7.37198964e-02, 6.84421808e-02,
          3.50153595e-01, -3.76696326e-02, 3.59269828e-01,
          7.84571841e-02, 8.45299214e-02, 1.53652653e-02, 8.74457359e-02,
          1.57324336e-02, 7.51296384e-03, 1.22799061e-03, 7.51296384e-03,
          1.22799061e-03, -8.65927935e-02, -3.40187512e-02,
          9.17111710e-02, 5.20273261e-02, 5.66364169e-01, 8.36486593e-02,
          5.66364169e-01, 8.76649395e-02, 7.11325034e-02, 2.86364686e-02,
          7.52114579e-02, 2.86364686e-02, 8.20123067e-04, 5.94804471e-04,
          8.20123067e-04, 5.95938123e-04, -5.31726377e-03,
          1.13378996e-02, 5.61261643e-03, 1.13378996e-02, 9.33050215e-02,
          7.67392851e-03, 9.33050215e-02, 9.93555319e-03, 1.52764739e-02,
          4.58269659e-03, 1.56954583e-02, 5.01095364e-03, 1.15959952e-03,
          -2.37954268e-03, 1.15959952e-03, 2.39024218e-03,
          2.39874367e-02, -8.00182868e-04, 2.52432823e-02,
          9.53133032e-03, 6.68308735e-02, 1.87000465e-02, 6.68308735e-02,
          2.06584949e-02, -4.98305366e-04, -4.52663517e-03,
          2.28378200e-03, 4.93093440e-03, 9.35143791e-03,
          -1.18747670e-02, 9.35143791e-03, 1.18747670e-02,
          3.69500369e-01, 3.54427584e-02, 3.69500369e-01, 5.21334149e-02,
          3.24264556e-01, 4.58741300e-02, 3.53403568e-01, 6.19325712e-02,
          -2.90335156e-02, -1.35337356e-02, 3.01759169e-02,
          1.35337356e-02, 1.54418917e-02, -3.28786718e-03,
          1.54418917e-02, 3.28786718e-03, 3.89371157e-01,
          -2.59848107e-02, 3.89371157e-01, 4.70098369e-02,
          2.40110680e-01, -1.20297223e-01, 2.66702324e-01,
          1.20297223e-01, -2.81308796e-02, -6.69280021e-03,
          2.81308796e-02, 7.88522698e-03, 1.55406026e-03,
          -4.95958084e-04, 1.55716145e-03, 5.18763321e-04,
          4.34249304e-02, -1.55490097e-02, 4.34249304e-02,
          1.55490097e-02, 3.45617421e-02, -1.66052394e-02,
          3.58689949e-02, 1.66052394e-02, -1.36006344e-03,
          -2.51687947e-03, 1.43937930e-03, 2.54655560e-03,
          -1.23127420e-02, -5.52566443e-03, 1.23127420e-02,
          5.53632341e-03, 4.34859097e-03, -3.75162549e-02,
          1.99915487e-02, 3.75162549e-02, -1.62142923e-03,
          -7.90258963e-03, 1.47592081e-02, 1.01806391e-02,
          -6.42721308e-04, 4.64905432e-04, 7.31102482e-04,
          5.88425144e-04, -5.44072129e-02, -9.42122713e-02,
          6.13215975e-02, 9.42122713e-02, 3.27300131e-01, 1.89561711e-03,
          3.39109629e-01, 1.27342343e-01, -9.36161669e-04,
          7.53846243e-02, 7.23818839e-02, 7.53846243e-02,
          -8.59845802e-03, 7.82297284e-04, 8.67177360e-03,
          2.88854423e-03, 5.91704100e-02, -5.72486483e-02,
          6.99734017e-02, 5.81687354e-02, 5.75836957e-01,
          -6.23394996e-02, 5.75836957e-01, 6.62214905e-02,
          -6.34642616e-02, -5.63939735e-02, 8.45844075e-02,
          5.80578558e-02, -3.71536333e-03, -1.07142352e-03,
          6.82076532e-03, 3.37138562e-03, 1.69942342e-02,
          -2.21868177e-05, 1.69942342e-02, 7.74596992e-04,
          7.53889978e-02, 1.68568897e-03, 7.53889978e-02, 2.33808230e-03,
          -5.78221818e-03, -6.02538348e-04, 1.07423654e-02,
          4.58655553e-03, 5.71151963e-04, -4.49468615e-04,
          5.89644536e-04, 5.76836697e-04, 1.77508208e-03, 6.63932937e-04,
          1.78346911e-03, 6.72865077e-04, 5.17844148e-02, 2.00026445e-02,
          5.17844148e-02, 2.00026445e-02, 6.41379356e-02, 1.90718584e-02,
          6.41379356e-02, 2.14075223e-02, 4.26086655e-04,
          -2.47220579e-03, 2.78168847e-03, 3.27544590e-03,
          2.21293475e-02, 2.91349366e-03, 2.21293475e-02, 4.49509080e-03,
          4.43997681e-01, 1.05323695e-01, 4.43997681e-01, 1.18374430e-01,
          1.98061526e-01, -2.92135496e-02, 1.99744225e-01,
          9.54494476e-02, -1.25924349e-02, -2.04392392e-02,
          1.25924349e-02, 2.10005436e-02, 2.83109657e-02, 3.16963973e-03,
          2.83109657e-02, 5.44924429e-03, 2.83166081e-01,
          -1.74873933e-01, 2.83166081e-01, 1.78518042e-01,
          1.24125466e-01, -3.27044129e-01, 1.24125466e-01,
          3.27044129e-01, 1.93952192e-02, -1.61595047e-02,
          2.28453875e-02, 2.00476777e-02, 3.22653400e-03,
          -3.37320438e-04, 3.22653400e-03, 3.37320438e-04,
          1.11722918e-02, -5.76557545e-03, 1.30376434e-02,
          5.76557545e-03, 5.00802184e-03, -3.52160521e-02,
          1.45445764e-02, 3.52160521e-02, 9.60312504e-03,
          -6.07872941e-03, 9.60312504e-03, 6.10595709e-03,
          4.98335576e-05, -4.98335576e-05, 4.98335576e-05,
          4.98335576e-05, 3.08877993e-02, -2.06921846e-02,
          3.23990323e-02, 2.32884157e-02, 1.22796558e-01, 8.42452340e-04,
          1.22796558e-01, 3.65968831e-02, -1.81218814e-02,
          3.86289181e-03, 1.81218814e-02, 1.19351996e-02,
          -1.79983745e-03, 1.27749443e-02, 1.79983745e-03,
          1.27749443e-02, 3.35121572e-01, 6.70541078e-02, 3.35121572e-01,
          1.14141703e-01, 8.72994289e-02, -3.64271343e-01,
          3.00030589e-01, 3.78464490e-01, 4.88059372e-02,
          -1.19423673e-01, 7.69570097e-02, 1.28808171e-01,
          -1.52124942e-03, 5.72983967e-03, 1.52124942e-03,
          5.72983967e-03, 1.34625226e-01, -3.64916138e-02,
          1.38549477e-01, 6.28794432e-02, -2.94301897e-01,
          -1.39874712e-01, 2.94301897e-01, 2.22135976e-01,
          9.85039547e-02, -7.69924326e-03, 9.85039547e-02,
          5.36007993e-02, 0., 0., 0., 0., -3.78609472e-03,
          1.92610454e-02, 7.62521708e-03, 2.13829093e-02, 1.46473874e-03,
          2.11385656e-02, 1.91334654e-02, 2.21941769e-02, 6.59702113e-03,
          5.72863920e-03, 6.59702113e-03, 6.15573116e-03, 1.01684142e-04,
          7.11403671e-04, 2.13337655e-04, 7.47552956e-04, 1.94848198e-02,
          2.31553055e-02, 1.94848198e-02, 2.33405549e-02, 4.41251919e-02,
          5.88499494e-02, 4.41251919e-02, 5.88499494e-02, 6.44340692e-03,
          1.64361130e-02, 6.44340692e-03, 1.64361130e-02, 2.04232167e-02,
          1.95140708e-02, 2.04232167e-02, 1.95140708e-02, 1.99753806e-01,
          1.76283553e-01, 1.99753806e-01, 1.76283553e-01, 4.36198920e-01,
          5.46377078e-02, 4.36198920e-01, 1.72147110e-01, 7.56967887e-02,
          7.43685383e-03, 7.56967887e-02, 3.63426283e-02, 2.03078929e-02,
          1.97774395e-02, 2.03078929e-02, 1.97774395e-02, 4.80248071e-02,
          -1.13571659e-01, 1.22997001e-01, 1.55767441e-01,
          3.34324241e-01, -2.15699837e-01, 3.34324241e-01,
          2.17038020e-01, 9.13292170e-02, -6.73890114e-03,
          9.15682614e-02, 1.65499542e-02, -1.81147561e-03,
          2.85176933e-03, 2.49607605e-03, 2.85176933e-03,
          -3.24329808e-02, -4.28913627e-03, 3.56303751e-02,
          2.84739938e-02, 9.77323502e-02, 3.44335772e-02, 9.77323502e-02,
          5.24277575e-02, 1.40351262e-02, 7.66592240e-03, 1.46330241e-02,
          7.66592240e-03, -1.13152796e-02, -1.12849493e-02,
          1.13152796e-02, 1.12860715e-02, 2.13244725e-02,
          -1.17831258e-02, 2.92235799e-02, 2.00322717e-02,
          7.83896819e-03, 3.65792424e-03, 1.41945006e-02, 8.43277946e-03,
          -1.20494014e-03, 5.60660381e-04, 1.21705397e-03,
          5.79425308e-04, 3.27340439e-02, -7.48333707e-02,
          5.58638275e-02, 7.48333707e-02, 4.87901211e-01, 3.93013395e-02,
          4.87901211e-01, 8.49898160e-02, -5.32163344e-02,
          2.42014155e-02, 7.77040794e-02, 5.69504686e-02,
          -7.49691809e-03, -1.75469113e-03, 7.79051194e-03,
          3.20010143e-03, 1.09294817e-01, 8.14535748e-03, 1.09294817e-01,
          1.84689350e-02, 4.61569965e-01, -4.61007189e-03,
          4.61569965e-01, 6.36920854e-02, -7.04565644e-02,
          -7.86376074e-02, 7.11512193e-02, 7.86376074e-02,
          1.72022334e-03, 4.27750580e-04, 4.92204120e-03, 2.02958705e-03,
          1.73917264e-02, -7.44706776e-04, 1.73917264e-02,
          1.19202444e-03, 5.48597723e-02, 8.47162120e-03, 5.48597723e-02,
          9.51601006e-03, -1.33407656e-02, 8.27775244e-03,
          1.40326442e-02, 8.71665310e-03, 5.99587336e-04,
          -5.38565509e-04, 6.17229845e-04, 5.38565509e-04,
          2.55598308e-04, -8.29698329e-05, 2.55598308e-04,
          8.29698329e-05, 0., 0., 0., 0., 3.97248194e-04,
          -6.70468551e-04, 3.97248194e-04, 6.70468551e-04,
          1.15836156e-03, -1.19297288e-03, 1.15836156e-03,
          1.19297288e-03, 1.56757664e-02, -3.17574181e-02,
          1.59752630e-02, 3.17574181e-02, 1.76886842e-01, 6.39704913e-02,
          1.76886842e-01, 1.55978441e-01, -7.61379525e-02,
          2.11947113e-01, 7.61379525e-02, 2.11947113e-01,
          -2.84157507e-03, 1.77952405e-02, 5.32647595e-03,
          1.83623563e-02, 2.22345837e-03, 1.27930464e-02, 2.23614089e-02,
          4.75759357e-02, 4.08499092e-01, -5.92640489e-02,
          4.08499092e-01, 1.14699215e-01, -6.31959587e-02,
          -6.83708787e-02, 1.06331594e-01, 2.06513762e-01,
          4.16369317e-03, 2.91441870e-03, 6.50192797e-03, 4.04074527e-02,
          -6.19084015e-03, -3.47328447e-02, 6.19084015e-03,
          3.47328447e-02, 1.37335705e-02, -2.68825024e-01,
          1.99292954e-02, 2.68825024e-01, -3.73038240e-02,
          -3.39106530e-01, 3.73038240e-02, 3.39106530e-01,
          1.09786366e-03, -5.60623482e-02, 3.95166967e-03,
          5.60623482e-02, 1.71924895e-03, 1.29044650e-03, 1.71924895e-03,
          1.61744689e-03, 4.28241789e-02, 1.11889956e-03, 4.28241789e-02,
          1.41587239e-02, -6.42860169e-03, -1.48600312e-02,
          6.83528483e-02, 2.76840050e-02, -3.02142557e-02,
          -2.47460138e-03, 3.03041544e-02, 3.41491657e-03,
          1.61489267e-02, -1.04748637e-04, 1.61489267e-02,
          1.01780547e-02, -4.27486002e-02, -2.20303252e-01,
          1.10448331e-01, 2.24589840e-01, 2.31349334e-01,
          -2.26724446e-01, 3.93847883e-01, 2.54650772e-01,
          -2.09412381e-01, 5.81099465e-02, 2.09412381e-01,
          6.04992881e-02, 4.74531116e-04, -3.81142047e-04,
          3.83401685e-03, 6.77127484e-03, -7.58752152e-02,
          7.81289637e-02, 1.08971998e-01, 1.11657307e-01, 4.26283211e-01,
          9.91321504e-02, 4.30676997e-01, 9.91321504e-02,
          -9.48152095e-02, 6.90942183e-02, 9.59234610e-02,
          6.90942183e-02, 5.26697084e-04, 3.59020458e-04, 5.26697084e-04,
          3.59020458e-04, 4.82204882e-03, 1.86232626e-02, 7.04937428e-03,
          1.86232626e-02, 4.06062640e-02, 1.00793364e-02, 4.06062640e-02,
          1.45832822e-02, 4.09788592e-03, 2.54751067e-03, 5.77434711e-03,
          4.15939465e-03, 3.67971067e-03, -2.10985498e-04,
          3.67971067e-03, 3.34466313e-04, -2.94470266e-02,
          -6.97137881e-03, 3.36230136e-02, 2.18323916e-02,
          -1.84622779e-01, 1.01213217e-01, 1.84622779e-01,
          1.04814976e-01, -3.92016880e-02, 2.91357841e-02,
          3.92016880e-02, 2.91357841e-02, 1.08153252e-02,
          -1.20625868e-02, 1.08153252e-02, 1.20625868e-02,
          -2.01601550e-01, -1.77926689e-01, 2.01601550e-01,
          1.77926689e-01, -5.15084304e-02, 1.42804727e-01,
          3.13960314e-01, 2.92519957e-01, -2.09666938e-01,
          2.31329486e-01, 2.09666938e-01, 2.31329486e-01,
          -3.44375079e-03, -1.58004259e-04, 3.44375079e-03,
          3.44375079e-03, -1.83916479e-01, 3.34698558e-02,
          1.83916479e-01, 5.31015731e-02, 3.59787315e-01, 9.91087581e-05,
          3.59787315e-01, 9.80591699e-02, -3.15730162e-02,
          4.31375168e-02, 7.00428113e-02, 7.66970888e-02,
          -1.43085001e-03, -4.99792630e-04, 1.43085001e-03,
          4.99792630e-04, -1.92336198e-02, 5.63468027e-04,
          1.92336198e-02, 6.83489582e-03, 4.80697816e-03,
          -1.93966944e-02, 1.50088044e-02, 2.04883162e-02,
          4.54007648e-03, -1.32139418e-02, 5.49097965e-03,
          1.32139418e-02, 2.34911684e-03, 2.06566649e-03, 2.34911684e-03,
          2.06566649e-03, 1.35789607e-02, 7.25291111e-03, 1.35789607e-02,
          8.18873476e-03, -2.16804128e-02, 1.31908329e-02,
          4.28233407e-02, 2.19538957e-02, 4.58641872e-02, 1.27539067e-02,
          4.58641872e-02, 1.27539067e-02, 1.86286997e-02, 5.98746073e-03,
          1.86286997e-02, 1.21536143e-02, 1.91704601e-01, 1.53010488e-01,
          1.91704601e-01, 1.53010488e-01, -4.70652841e-02,
          2.67037898e-01, 2.60456353e-01, 2.67037898e-01, 3.72712106e-01,
          2.36575846e-02, 3.72712106e-01, 2.70403493e-02, 2.10947357e-02,
          -1.10017043e-02, 2.10947357e-02, 1.30980555e-02,
          2.70201921e-01, -1.00784063e-01, 2.70201921e-01,
          1.15203425e-01, -4.95369285e-02, -6.37879297e-02,
          1.58154115e-01, 9.67071354e-02, 2.69441575e-01,
          -1.00404032e-01, 2.69441575e-01, 1.00404032e-01,
          2.21161684e-03, 1.18494651e-03, 2.21161684e-03, 1.39519118e-03,
          2.10465491e-02, -9.38684959e-03, 2.10465491e-02,
          9.38684959e-03, 6.67669810e-04, -1.10865552e-02,
          2.22545005e-02, 1.31670339e-02, 4.33106907e-03,
          -8.99722800e-03, 8.68563354e-03, 9.28491168e-03,
          2.20725732e-03, -1.68922811e-03, 2.36834213e-03,
          1.68922811e-03, 7.41511211e-02, 2.96483152e-02, 7.41511211e-02,
          2.96483152e-02, 2.82729138e-02, -1.37353828e-02,
          3.71310562e-02, 2.86802445e-02, 1.57484770e-04,
          -6.41527167e-03, 1.67230295e-03, 6.62750471e-03,
          4.59425040e-02, 7.04132533e-03, 4.59425040e-02, 9.77867376e-03,
          4.91043895e-01, 1.01037137e-01, 4.91043895e-01, 1.05312474e-01,
          -1.80270135e-01, -9.26426873e-02, 1.98852673e-01,
          9.60561857e-02, 2.24952567e-02, -2.55560707e-02,
          2.24952567e-02, 2.55956165e-02, 5.69895655e-02,
          -8.82711203e-04, 5.69895655e-02, 5.95822977e-03,
          3.53257507e-01, -1.16323002e-01, 3.53257507e-01,
          1.22200780e-01, -1.93520412e-01, -9.34375972e-02,
          1.93520412e-01, 9.77611616e-02, -9.93079040e-03,
          -1.49864880e-02, 1.42399073e-02, 2.42092498e-02,
          7.15215225e-03, -1.79041305e-03, 7.15215225e-03,
          1.79041305e-03, 4.15578447e-02, -1.67529266e-02,
          4.16264497e-02, 1.67529266e-02, -7.54010724e-03,
          -1.89498197e-02, 8.62525683e-03, 1.89498197e-02,
          -9.27605361e-05, 1.22588594e-03, 1.12397876e-03,
          2.89591239e-03, 2.49066427e-02, -1.66275445e-02,
          2.49066427e-02, 1.66696645e-02, 5.75111732e-02,
          -1.29840285e-01, 5.89661598e-02, 1.29840285e-01,
          1.53093981e-02, -8.47345293e-02, 1.83097776e-02,
          8.47345293e-02, 4.59070783e-03, -6.77526277e-03,
          4.70801396e-03, 6.77526277e-03, 5.95073625e-02, 8.00597072e-02,
          5.95073625e-02, 9.12496671e-02, 2.69675553e-01,
          -1.01894222e-01, 2.69675553e-01, 3.49425256e-01,
          3.94431859e-01, -2.36403078e-01, 3.94431859e-01,
          2.36403078e-01, 4.00859416e-02, -3.51216160e-02,
          4.08233367e-02, 3.51216160e-02, 8.01443588e-03, 4.81122062e-02,
          8.01443588e-03, 5.09963334e-02, -4.41735312e-02,
          2.28684142e-01, 6.80235177e-02, 2.36391202e-01, 1.92815229e-01,
          5.57014486e-03, 1.92815229e-01, 1.22673467e-01, 1.22568076e-02,
          -4.41344306e-02, 1.40495813e-02, 4.41344306e-02,
          2.90517521e-04, -2.94631929e-03, 8.18732078e-04,
          2.96016550e-03, -5.88183152e-03, -1.18409926e-02,
          6.37918198e-03, 1.18409926e-02, -4.75512026e-03,
          -1.18316375e-02, 6.11761259e-03, 1.26111088e-02,
          1.50848983e-03, -1.87020213e-03, 1.50848983e-03,
          2.19780416e-03, 5.21777151e-03, 1.53719168e-03, 5.21777151e-03,
          2.27954984e-03, 9.08470228e-02, 4.89916131e-02, 9.08470228e-02,
          4.90928479e-02, 2.72383504e-02, 5.87511202e-03, 3.54492925e-02,
          3.32588926e-02, 5.24997711e-04, -8.73907004e-03,
          1.62438059e-03, 8.91735684e-03, 7.00357035e-02, 1.93592142e-02,
          7.00357035e-02, 1.93592142e-02, 4.88572240e-01, 7.48414546e-02,
          4.88572240e-01, 1.48466751e-01, -2.19224080e-01,
          -1.69171438e-01, 2.32774347e-01, 1.75479919e-01,
          2.58331858e-02, -2.76117660e-02, 2.68939808e-02,
          2.78205443e-02, 7.48865455e-02, 2.39666412e-03, 7.48865455e-02,
          3.22089437e-03, 2.64568985e-01, -1.16470776e-01,
          2.71810830e-01, 1.20491371e-01, -1.86645806e-01,
          -1.22913040e-01, 1.86645806e-01, 1.40418708e-01,
          -4.11677267e-03, -1.64061673e-02, 1.85511690e-02,
          3.07501648e-02, 1.06623331e-02, -1.59108371e-03,
          1.06623331e-02, 1.59108371e-03, 1.23766968e-02,
          -4.14437018e-02, 1.37053235e-02, 4.14437018e-02,
          1.04536014e-02, -2.75023822e-02, 1.17822280e-02,
          2.85631772e-02, -1.22218917e-04, 3.42038926e-03,
          2.30526295e-03, 4.28937702e-03, 2.52130511e-03,
          -4.79050330e-04, 2.52130511e-03, 4.79050330e-04,
          -4.79212031e-03, -1.02516795e-02, 9.26880352e-03,
          1.02516795e-02, 5.87777793e-02, -1.11098420e-02,
          5.87777793e-02, 1.12312008e-02, 8.59546568e-03, 4.99469985e-04,
          9.24019702e-03, 5.07712422e-04, 1.03343884e-02, 4.78927715e-04,
          1.03343884e-02, 1.97210955e-03, -8.23916122e-02,
          -3.85648198e-02, 8.73281881e-02, 3.97700705e-02,
          4.99881059e-01, -1.03461603e-02, 4.99881059e-01,
          3.00657768e-02, 6.94737807e-02, 1.65740233e-02, 7.20729604e-02,
          1.65740233e-02, 6.11143373e-03, 1.39769819e-03, 6.11143373e-03,
          3.98192415e-03, -4.23386209e-02, 5.74362203e-02,
          4.81906645e-02, 5.90237379e-02, 4.55426931e-01,
          -1.55366701e-03, 4.57014412e-01, 6.58235475e-02,
          1.18438624e-01, 2.28131516e-03, 1.18868522e-01, 2.29672287e-02,
          1.19849865e-03, 2.94876925e-04, 1.19849865e-03, 4.76285641e-04,
          1.44075451e-03, 7.88239948e-03, 5.95261157e-03, 8.84206872e-03,
          2.61611659e-02, -5.07330243e-03, 3.31206955e-02,
          1.26005020e-02, 1.82652064e-02, -9.96252894e-03,
          1.82652064e-02, 9.96252894e-03 ]
      - [ -7.26107880e-03, 4.86835092e-03, 7.26107880e-03,
          4.86835092e-03, -1.41990348e-03, -1.25085758e-02,
          2.73811929e-02, 1.54545428e-02, 4.36589755e-02,
          -1.49293160e-02, 4.36589755e-02, 1.59941167e-02,
          2.33106199e-03, 1.45939086e-03, 2.33106199e-03, 1.45939086e-03,
          -1.01415239e-01, -1.52043311e-03, 1.01415239e-01,
          1.23511981e-02, -1.23355307e-01, -8.40454251e-02,
          2.00202540e-01, 1.11675590e-01, 4.22375888e-01,
          -7.05420375e-02, 4.22375888e-01, 9.13208425e-02,
          2.29377560e-02, 7.27006188e-03, 2.29377560e-02, 1.05815111e-02,
          -7.95802623e-02, -4.76885103e-02, 8.24900642e-02,
          4.76885103e-02, 2.16127578e-02, 2.51342922e-01, 1.65398419e-01,
          2.60435790e-01, 3.25624436e-01, 2.31678516e-01, 3.25624436e-01,
          2.42648229e-01, 3.06846891e-02, 5.34032704e-03, 3.06846891e-02,
          1.42906569e-02, 1.81990601e-02, -2.20317859e-02,
          1.81990601e-02, 2.20317859e-02, 7.45740831e-02, 4.89203222e-02,
          7.45740831e-02, 5.89980781e-02, -3.16420221e-03,
          5.21630272e-02, 1.30042089e-02, 5.21630272e-02, 1.65159593e-03,
          9.07314534e-04, 2.06384645e-03, 9.15816985e-04, 3.13206972e-03,
          -6.49854634e-03, 3.13206972e-03, 6.49854634e-03,
          2.11906787e-02, -6.38994277e-02, 2.11906787e-02,
          6.38994277e-02, 2.33548004e-02, -2.27413978e-02,
          3.16618830e-02, 3.52098458e-02, -1.15152951e-02,
          1.42163215e-02, 1.15152951e-02, 1.42163215e-02,
          -5.44027193e-04, 8.55693035e-03, 7.22679636e-03,
          2.23794412e-02, 5.99493571e-02, -7.83204883e-02,
          1.30005822e-01, 2.08746418e-01, 4.41388220e-01,
          -1.60198748e-01, 4.41388220e-01, 1.60198748e-01,
          5.75165674e-02, 5.93386032e-03, 6.39485046e-02, 2.25398988e-02,
          7.21342030e-06, 3.13962772e-02, 1.20837288e-02, 3.13962772e-02,
          -1.05836578e-02, 3.32635969e-01, 6.02624118e-02,
          3.32635969e-01, 2.77734190e-01, 1.92036733e-01, 2.77734190e-01,
          2.08665371e-01, 3.16041410e-02, -3.55346948e-02,
          3.23082395e-02, 3.78015600e-02, 9.24034743e-04, 3.37870955e-03,
          9.24034743e-04, 3.37870955e-03, 7.20073143e-03, 1.07432427e-02,
          8.53977352e-03, 1.07432427e-02, 3.48685496e-03, 7.82169029e-03,
          3.48685496e-03, 7.82169029e-03, -1.14775577e-03,
          -1.86331221e-04, 1.14775577e-03, 8.12312763e-04,
          1.93236186e-03, -5.16634062e-03, 2.09787604e-03,
          5.16634062e-03, -5.71098998e-02, -3.80075760e-02,
          6.00991696e-02, 4.34686132e-02, -1.26437321e-01,
          1.05268352e-01, 1.27738431e-01, 1.05268352e-01, 2.91875005e-03,
          4.25367840e-02, 6.31893845e-03, 4.25367840e-02,
          -3.46673541e-02, -2.49127168e-02, 3.46673541e-02,
          2.49127168e-02, -2.15549186e-01, -3.70816886e-01,
          2.15549186e-01, 3.70816886e-01, 1.46032974e-01,
          -3.40943076e-02, 2.81851351e-01, 2.06223965e-01,
          1.31017506e-01, 5.88601418e-02, 1.31017506e-01, 6.48865029e-02,
          -4.86397035e-02, 7.21659092e-03, 4.86397035e-02,
          1.15655316e-02, -2.13313624e-01, 6.09650165e-02,
          2.52169669e-01, 1.08215958e-01, 3.26035112e-01, 2.20397916e-02,
          3.26035112e-01, 4.56541777e-02, 1.01663142e-01,
          -3.53542492e-02, 1.01663142e-01, 3.53542492e-02,
          -3.95872584e-03, 1.34010217e-03, 3.95872584e-03,
          1.66845717e-03, -3.91212553e-02, 2.50269901e-02,
          3.91212553e-02, 2.50269901e-02, 2.24552024e-02, 1.11588626e-03,
          2.49945521e-02, 1.22996792e-02, 5.32197580e-03,
          -6.83070486e-03, 5.32197580e-03, 6.83070486e-03,
          3.66991176e-03, -5.45171183e-03, 3.66991176e-03,
          5.45171183e-03, 2.98832022e-02, -4.34863791e-02,
          2.98832022e-02, 4.37093489e-02, -1.00480961e-02,
          9.02783778e-03, 3.68441716e-02, 2.96843927e-02,
          -3.13225351e-02, 1.64602362e-02, 3.13225351e-02,
          1.64602362e-02, -9.79992840e-03, 7.46238278e-03,
          1.10304058e-02, 2.27573905e-02, 2.40285277e-01,
          -1.32454872e-01, 2.53841043e-01, 1.57104507e-01,
          3.81053120e-01, -4.70192023e-02, 3.94090682e-01,
          1.04494341e-01, -8.21367949e-02, 7.61470050e-02,
          9.23434049e-02, 7.61470050e-02, -1.45711983e-02,
          3.58059742e-02, 1.59703009e-02, 3.58059742e-02, 1.22512490e-01,
          2.75062501e-01, 1.54487431e-01, 2.75062501e-01, 3.70589137e-01,
          3.40819396e-02, 3.70589137e-01, 9.72991735e-02, 2.01926269e-02,
          -3.29672499e-03, 5.57236932e-02, 3.21371630e-02,
          5.11080958e-04, 1.47593475e-03, 1.20135280e-03, 1.47593475e-03,
          1.20379846e-03, 1.24456482e-02, 3.22388764e-03, 1.24456482e-02,
          5.70974359e-03, 2.47078249e-04, 8.63699056e-03, 8.47492181e-03,
          3.45500279e-03, -6.46809489e-03, 3.95657541e-03,
          6.46809489e-03, 6.41924416e-05, -3.94305644e-05,
          9.83020436e-05, 3.94305644e-05, 6.14126911e-04, 1.31072616e-03,
          2.39437399e-03, 2.67147576e-03, 3.28141404e-03, 8.64119735e-03,
          3.28141404e-03, 8.64119735e-03, 1.53905700e-03, 4.20590723e-03,
          1.54306961e-03, 4.20590723e-03, 2.39190273e-03, 3.37941153e-03,
          2.55512865e-03, 5.86125022e-03, 1.31707743e-01, 1.04618527e-01,
          1.31707743e-01, 1.11000776e-01, 1.89070076e-01, 3.48015010e-01,
          1.89070076e-01, 3.48015010e-01, 2.53042039e-02, 5.91596104e-02,
          2.53042039e-02, 5.91596104e-02, -1.39675969e-02,
          -1.01663368e-02, 1.45386774e-02, 1.34344697e-02,
          3.78325731e-01, -1.66982949e-01, 3.95878345e-01,
          1.80066675e-01, 3.31634581e-01, 8.38294998e-02, 3.31634581e-01,
          1.15650512e-01, 1.26112858e-02, 7.43745686e-03, 1.26112858e-02,
          9.20657534e-03, -6.03093952e-03, 2.46754172e-03,
          6.56414963e-03, 2.47155409e-03, 4.55428399e-02,
          -8.45839083e-03, 5.90735041e-02, 1.39191449e-02,
          7.50757605e-02, -2.01662946e-02, 7.53132701e-02,
          2.01662946e-02, -1.48331444e-03, -4.08500899e-03,
          1.52680790e-03, 4.08500899e-03, 9.24429670e-03,
          -4.82194638e-03, 9.24429670e-03, 4.82194638e-03,
          9.81134083e-03, 4.70868452e-03, 1.31555637e-02, 8.24280828e-03,
          -1.34942606e-02, 1.04414802e-02, 1.34942606e-02,
          1.04414802e-02, -2.45070690e-03, 1.83122291e-03,
          2.45070690e-03, 1.83122291e-03, 1.16486713e-01,
          -4.47449721e-02, 1.16486713e-01, 4.47449721e-02,
          2.92295516e-01, 6.67477101e-02, 2.92295516e-01, 1.11031517e-01,
          -1.40043005e-01, 1.68228626e-01, 1.40043005e-01,
          1.68228626e-01, -1.34324683e-02, 1.85710620e-02,
          1.34324683e-02, 1.85710620e-02, 1.53915271e-01,
          -3.74048352e-02, 1.53915271e-01, 3.74048352e-02,
          5.27108014e-01, -1.03993945e-01, 5.27108014e-01,
          1.19803652e-01, -1.11262187e-01, 2.66492367e-03,
          1.18725553e-01, 9.42121297e-02, -1.49152204e-02,
          1.04405582e-02, 1.49152204e-02, 1.23955077e-02, 2.31018327e-02,
          -7.62219657e-04, 2.31018327e-02, 1.35775516e-03,
          6.53857514e-02, -2.53006406e-02, 6.57590553e-02,
          2.53006406e-02, -4.32096515e-03, -4.99715023e-02,
          7.20584905e-03, 4.99715023e-02, 8.53167498e-04,
          -4.05259198e-03, 1.16579328e-03, 4.05259198e-03,
          8.63323454e-04, -1.34108879e-03, 8.63323454e-04,
          1.34108879e-03, -2.10293176e-04, 6.94314670e-03,
          4.74679563e-03, 9.84248519e-03, -3.68046784e-03,
          -3.27647035e-03, 1.28018130e-02, 1.42226070e-02,
          4.43371199e-03, -3.28953052e-03, 4.59390040e-03,
          3.29394522e-03, 1.52958902e-02, -1.96780101e-03,
          1.53509164e-02, 2.86663137e-03, 2.08633885e-01, 1.72936872e-01,
          2.13348135e-01, 1.72936872e-01, -4.88918982e-02,
          4.28485900e-01, 7.61148930e-02, 4.28485900e-01, 1.91807747e-02,
          6.32677972e-02, 2.06136443e-02, 6.32677972e-02, 9.61536635e-03,
          -3.57897347e-03, 9.74388421e-03, 3.62074934e-03,
          3.94759446e-01, -1.16015919e-01, 3.94759446e-01,
          1.19444966e-01, 1.98273584e-01, 6.35183230e-02, 1.98273584e-01,
          1.70629665e-01, 3.82590014e-03, 2.69529074e-02, 9.26570129e-03,
          3.04337535e-02, 1.66339625e-04, -2.37239874e-04,
          3.97317344e-04, 3.90923233e-04, 3.65027711e-02,
          -2.26305015e-02, 3.65027711e-02, 2.26806998e-02,
          5.57261147e-02, -3.73924710e-02, 5.57261147e-02,
          3.73924710e-02, 8.30150268e-04, -2.44375179e-03,
          1.10645255e-03, 2.45763105e-03, 2.36472040e-02, 9.20964114e-04,
          2.36472040e-02, 1.57932774e-03, 6.86336234e-02, 2.74979193e-02,
          6.86336234e-02, 2.75373235e-02, -2.03211214e-02,
          1.51806148e-02, 2.03211214e-02, 1.51806148e-02,
          -3.17526911e-03, 5.32760867e-04, 3.17526911e-03,
          5.32760867e-04, 1.74786270e-01, 4.01541479e-02, 1.74786270e-01,
          4.01541479e-02, 4.45736736e-01, 9.79701057e-02, 4.45736736e-01,
          1.26164094e-01, -2.27434754e-01, 7.62507021e-02,
          2.27434754e-01, 8.24015811e-02, -2.50413697e-02,
          1.44756446e-02, 2.50413697e-02, 1.44756446e-02, 1.23150758e-01,
          3.61377709e-02, 1.23150758e-01, 3.79958116e-02, 2.44882166e-01,
          -2.61488259e-01, 2.44882166e-01, 2.71094739e-01,
          -4.73207757e-02, -1.79836959e-01, 1.02635242e-01,
          1.84747934e-01, -2.17529181e-02, 4.36920952e-03,
          2.17529181e-02, 6.85913488e-03, 4.86272294e-03, 2.50000320e-03,
          5.54181729e-03, 3.89952352e-03, 8.50060768e-03,
          -3.22382525e-02, 1.90655123e-02, 3.73763703e-02,
          2.94192936e-02, -3.04746777e-02, 2.94192936e-02,
          3.06720845e-02, -3.54235846e-04, -1.63314817e-03,
          1.85933127e-03, 1.77182804e-03, -5.14154416e-03,
          -1.41765177e-03, 5.14154416e-03, 1.76273566e-03,
          2.34223437e-03, 9.89072397e-03, 1.55213829e-02, 1.65498406e-02,
          3.72724384e-02, 3.51843983e-02, 3.89950871e-02, 3.80902439e-02,
          -2.03965185e-03, 1.94444507e-02, 6.32198853e-03,
          1.94444507e-02, -1.72011796e-02, -6.23876520e-04,
          1.72011796e-02, 5.37891034e-03, 1.90908834e-01, 1.29067063e-01,
          2.05870554e-01, 1.30566791e-01, 4.58131552e-01, 1.99435934e-01,
          4.58131552e-01, 2.30735123e-01, 4.77144942e-02, 2.36240495e-02,
          5.32015860e-02, 4.43663597e-02, -8.14017095e-03,
          -5.19949803e-03, 8.14017095e-03, 5.19949803e-03,
          2.06456721e-01, -6.82999045e-02, 2.06456721e-01,
          7.97657222e-02, 2.79469341e-01, -2.12890998e-01,
          2.79469341e-01, 2.12890998e-01, 3.12199388e-02,
          -7.68849999e-02, 3.14275436e-02, 7.68849999e-02,
          -9.91057139e-04, -9.35131684e-04, 9.91057139e-04,
          9.35131684e-04, 1.65543482e-02, -7.23710144e-03,
          1.65543482e-02, 7.23710144e-03, 2.49834768e-02,
          -1.29542463e-02, 2.49834768e-02, 1.29542463e-02,
          -6.28461072e-04, -2.23509967e-03, 9.73544957e-04,
          2.62572896e-03, -1.51576567e-02, 2.14892849e-02,
          1.51576567e-02, 2.14892849e-02, 8.73370003e-03, 8.87981728e-02,
          2.75216959e-02, 8.87981728e-02, 4.93680350e-02, 8.08044150e-02,
          4.93680350e-02, 8.08044150e-02, 6.49910094e-03, 1.08258007e-02,
          6.55523781e-03, 1.08258007e-02, -1.00172423e-01,
          4.52639908e-03, 1.13071926e-01, 4.90623899e-02,
          -3.13874185e-01, 2.94959079e-03, 3.35467070e-01,
          1.15200460e-01, 3.95071059e-01, -1.13103986e-01,
          3.95071059e-01, 1.29701793e-01, 2.45713573e-02,
          -1.81962214e-02, 2.81468239e-02, 1.88944787e-02,
          -2.21321583e-02, -7.12392628e-02, 5.96947744e-02,
          7.16270357e-02, -2.04980716e-01, -1.82962548e-02,
          2.55267918e-01, 1.24315709e-01, 3.28396797e-01, 8.27222094e-02,
          3.28396797e-01, 8.63528028e-02, 1.37599325e-02,
          -1.10949157e-02, 1.91759653e-02, 1.10949157e-02,
          -2.58831563e-03, -2.19254172e-03, 3.12775793e-03,
          2.56955018e-03, 1.31501136e-02, 8.50972068e-03, 1.84545312e-02,
          1.16126752e-02, 2.58185938e-02, 7.26622390e-03, 2.60286741e-02,
          1.14662824e-02, -8.04912823e-04, -3.04210535e-03,
          1.24609319e-03, 3.04210535e-03, -2.78743934e-02,
          1.68911228e-03, 2.78743934e-02, 3.45490198e-03, 6.80418089e-02,
          7.98656140e-03, 8.91828761e-02, 1.04420073e-02,
          -7.71107370e-05, -1.19580550e-03, 2.19154358e-02,
          5.80624444e-03, -1.44626014e-03, -5.49776712e-04,
          1.44626014e-03, 5.49776712e-04, -1.71583265e-01,
          -2.10755281e-02, 1.71583265e-01, 3.06995157e-02,
          5.48040628e-01, 3.99637297e-02, 6.17867887e-01, 7.88082629e-02,
          -9.03522968e-02, -9.35498103e-02, 1.02961078e-01,
          9.68939811e-02, -1.11350538e-02, -8.90812650e-03,
          1.11350538e-02, 8.90812650e-03, -7.54868686e-02,
          6.86172105e-04, 7.54868686e-02, 3.00433468e-02, 1.98831439e-01,
          1.46552011e-01, 2.39294261e-01, 1.79222167e-01,
          -7.15786740e-02, -9.89449248e-02, 9.99320596e-02,
          9.89449248e-02, -4.10344359e-03, -6.98375003e-03,
          4.10344359e-03, 6.98375003e-03, -5.46898169e-04,
          -2.06849235e-03, 6.69353758e-04, 2.08312273e-03,
          -2.22682441e-03, -7.11706933e-03, 2.70212651e-03,
          8.45080148e-03, 0., 0., 0., 0., 0., 0., 0., 0.,
          -1.78098734e-02, 1.71813518e-02, 1.78098734e-02,
          1.71813518e-02, -7.70207669e-04, 1.21288113e-01,
          1.78129710e-02, 1.21288113e-01, 2.02177837e-02, 1.62656128e-01,
          2.16454975e-02, 1.62656128e-01, 4.50948346e-03, 2.42964048e-02,
          4.50948346e-03, 2.42964048e-02, -1.25892147e-01,
          -6.30741799e-03, 1.27345473e-01, 3.01876683e-02,
          7.01351836e-02, -5.69139645e-02, 2.66902834e-01,
          1.57262832e-01, 4.08062398e-01, 6.99600726e-02, 4.08062398e-01,
          1.75242648e-01, 9.06322710e-03, 1.33978333e-02, 1.89077463e-02,
          3.62605602e-02, -6.03332147e-02, -4.71555553e-02,
          6.24942482e-02, 4.71555553e-02, 1.43082425e-01, 1.06408685e-01,
          2.57398903e-01, 1.28821358e-01, 3.64970028e-01, 1.71790086e-02,
          3.64970028e-01, 8.93643796e-02, -8.49195383e-03,
          -2.48636436e-02, 1.19695766e-02, 2.48636436e-02,
          -1.30882006e-04, 2.60781380e-04, 1.45544810e-03,
          1.57634367e-03, 3.00735738e-02, 1.99220907e-02, 3.00735738e-02,
          2.00377908e-02, 1.74552053e-02, -3.34135187e-03,
          1.94384661e-02, 1.32766860e-02, -2.83220084e-03,
          -4.28013317e-03, 2.83220084e-03, 4.28013317e-03,
          4.45628632e-03, 1.38585083e-03, 4.45628632e-03, 1.38585083e-03,
          7.45890616e-03, 3.32903536e-03, 1.50714284e-02, 6.23324374e-03,
          2.17780825e-02, 1.20404409e-02, 2.55116187e-02, 1.31275617e-02,
          1.30955661e-02, 5.80773270e-03, 1.34643568e-02, 5.83799882e-03,
          2.67089903e-02, -3.36318719e-03, 2.67089903e-02,
          6.48918981e-03, 3.11034936e-02, -1.08390160e-01,
          6.35390207e-02, 1.08390160e-01, 3.52119923e-01, 4.58557252e-03,
          3.52119923e-01, 7.78170601e-02, 6.79082423e-02, 1.28789954e-02,
          8.80291462e-02, 2.18690969e-02, 1.04334624e-02, 5.28842323e-02,
          1.88914184e-02, 5.28842323e-02, -9.37346742e-02,
          9.12133977e-03, 1.30812496e-01, 1.07744016e-01, 5.50450802e-01,
          -6.94481703e-03, 5.50450802e-01, 1.01218872e-01,
          1.20219421e-02, -1.91238876e-02, 7.21818581e-02,
          2.05558036e-02, -7.55591900e-04, 1.30237509e-02,
          6.49322011e-03, 1.30237509e-02, -8.66952091e-02,
          3.73029672e-02, 8.66952091e-02, 3.91890407e-02, 8.78416598e-02,
          -1.03669828e-02, 8.78416598e-02, 2.35852115e-02,
          -5.45520894e-03, -5.99865895e-03, 1.01823034e-02,
          5.99865895e-03, 1.27873719e-02, -1.47359120e-03,
          1.29317734e-02, 1.47359120e-03, 7.10773319e-02, 7.31320772e-03,
          7.10773319e-02, 9.91491228e-03, 2.91108247e-03, 1.44758737e-02,
          1.29158981e-02, 1.44758737e-02, -2.05552205e-03,
          7.77363253e-04, 2.05552205e-03, 7.83977332e-04, 9.80251208e-02,
          1.27294855e-02, 9.86749679e-02, 1.31268958e-02, 5.51210999e-01,
          6.85160160e-02, 5.51210999e-01, 7.91274980e-02,
          -8.22851434e-03, 3.59590165e-02, 1.09672472e-01,
          5.59849180e-02, -1.64867304e-02, 9.22817178e-03,
          1.64867304e-02, 9.22817178e-03, 9.68970880e-02, 3.43088992e-02,
          9.68970880e-02, 3.43088992e-02, 3.28017652e-01,
          -2.89491657e-02, 3.29472244e-01, 1.06439061e-01,
          3.35344933e-02, -1.95713356e-01, 6.28849417e-02,
          1.95713356e-01, -4.53530485e-03, -6.62299339e-03,
          6.89402362e-03, 7.71833025e-03, 9.43966117e-03, 4.86648129e-03,
          9.43966117e-03, 4.86648129e-03, 6.00843970e-03,
          -6.51071873e-03, 1.39934812e-02, 1.62258986e-02,
          9.14566871e-03, -2.07977891e-02, 1.23957898e-02,
          2.25695875e-02, 1.87445024e-03, -2.28790217e-03,
          1.88919855e-03, 2.28790217e-03, 1.01869544e-02, 2.39719753e-03,
          1.01869544e-02, 2.43071234e-03, 9.95221511e-02, 2.06606723e-02,
          9.95221511e-02, 2.06606723e-02, 2.07069814e-02, 1.24114547e-02,
          3.42972800e-02, 1.24114547e-02, -5.45640150e-03,
          2.20801309e-03, 5.45640150e-03, 2.20801309e-03, 7.18711466e-02,
          4.98001426e-02, 7.18711466e-02, 4.98001426e-02, 5.61157703e-01,
          1.39303029e-01, 5.61157703e-01, 1.50163904e-01, 6.04708456e-02,
          -3.74381989e-02, 1.52631581e-01, 8.55384022e-02,
          -3.16547118e-02, -1.80496450e-03, 3.16547118e-02,
          6.66940073e-03, 2.51288712e-02, 5.64881116e-02, 2.72896960e-02,
          5.64881116e-02, 2.17467204e-01, -7.41568282e-02,
          2.18044177e-01, 1.32359579e-01, 6.70590699e-02,
          -2.35396057e-01, 9.82759818e-02, 2.35396057e-01,
          -1.54597163e-02, -1.56536773e-02, 1.54597163e-02,
          1.56536773e-02, -2.60422123e-03, 1.61621580e-03,
          2.60422123e-03, 1.69466517e-03, -4.76081157e-03,
          -5.53307403e-03, 7.94647448e-03, 6.26214640e-03,
          8.42720922e-03, -1.55962100e-02, 8.42720922e-03,
          1.55962100e-02, -4.23948251e-04, -2.18652794e-03,
          4.80533228e-04, 2.18652794e-03, 1.27352616e-02, 1.13687268e-03,
          1.35273607e-02, 1.55604992e-03, 1.09475628e-01, 1.34712243e-02,
          1.09475628e-01, 1.38194915e-02, 1.52402520e-02, 1.17428675e-02,
          2.55846679e-02, 1.17428675e-02, -3.17026977e-03,
          1.99970370e-03, 3.17026977e-03, 1.99970370e-03, 1.04227424e-01,
          3.84453870e-02, 1.05172008e-01, 3.85393985e-02, 5.53149462e-01,
          7.16516301e-02, 5.53149462e-01, 1.14605598e-01, 8.95683020e-02,
          -1.68301523e-01, 1.13532811e-01, 1.68301523e-01,
          -9.53128934e-03, -7.03279721e-03, 1.01508331e-02,
          9.77229886e-03, 9.04139057e-02, 4.69373837e-02, 9.04139057e-02,
          4.69373837e-02, 1.97356194e-01, -2.90067568e-02,
          2.10625380e-01, 1.17934279e-01, 3.26646827e-02,
          -2.24998504e-01, 6.83273748e-02, 2.29952827e-01,
          1.67279504e-02, -2.32883357e-02, 1.71976686e-02,
          2.32883357e-02, 7.46654859e-03, 1.42565556e-02, 7.46654859e-03,
          1.42565556e-02, -1.28353685e-02, 6.55926764e-02,
          1.96361281e-02, 6.55926764e-02, -1.57471839e-02,
          2.30615549e-02, 1.98017266e-02, 2.30615549e-02, 2.68513942e-03,
          -1.30098022e-03, 2.68513942e-03, 1.34039565e-03,
          8.36140383e-03, -8.68127495e-03, 8.36140383e-03,
          8.70728958e-03, 8.27520248e-03, -3.35980509e-03,
          1.07721621e-02, 8.81656446e-03, 2.02803663e-03, 1.26481969e-02,
          2.96247541e-03, 1.26481969e-02, -6.82127895e-04,
          5.41791786e-04, 8.65510665e-04, 5.41791786e-04, 1.29835874e-01,
          -5.77919148e-02, 1.29835874e-01, 5.77919148e-02,
          3.42930853e-01, -1.54151432e-02, 3.42930853e-01,
          9.75688994e-02, -2.65411139e-02, 7.54386038e-02,
          3.71680893e-02, 7.54386038e-02, -9.05274600e-03,
          2.85933004e-03, 9.05274600e-03, 2.85933004e-03, 1.64871961e-01,
          -2.64098234e-02, 1.64871961e-01, 2.78026331e-02,
          5.50546110e-01, -3.04351631e-03, 5.50546110e-01,
          6.87855929e-02, -7.14937598e-02, 2.75634080e-02,
          9.45277289e-02, 3.59387882e-02, -1.20866252e-02,
          -1.82634650e-03, 1.20866252e-02, 4.14777873e-03,
          2.43545137e-02, 2.70039029e-03, 2.43545137e-02, 2.70039029e-03,
          8.65325257e-02, 1.01786479e-02, 8.65325257e-02, 1.01786479e-02,
          -1.51733421e-02, 4.71500587e-03, 1.51733421e-02,
          5.16571524e-03, -2.10512429e-03, 1.73357746e-03,
          2.10512429e-03, 1.73357746e-03, -2.71319691e-03,
          -9.12764017e-03, 4.46218718e-03, 9.14210267e-03,
          1.89347062e-02, -1.07340291e-02, 1.91817433e-02,
          1.40160983e-02, -5.05307631e-04, -2.42653489e-03,
          4.52464726e-03, 4.20310302e-03, 1.68692466e-04,
          -3.49488080e-04, 2.53438222e-04, 3.49488080e-04,
          2.97542233e-02, -4.86129262e-02, 6.51554614e-02,
          4.86129262e-02, 3.76811326e-01, 3.99394892e-02, 3.76811326e-01,
          9.03849974e-02, -6.03144839e-02, 7.74669126e-02,
          6.61770925e-02, 7.99191445e-02, 2.37192214e-03, 1.28828560e-03,
          2.37192214e-03, 1.73818576e-03, 7.60767907e-02,
          -2.57632360e-02, 9.77137312e-02, 2.57632360e-02,
          5.48196316e-01, -1.80597398e-02, 5.48196316e-01,
          5.96730076e-02, -1.26315013e-01, 2.91599724e-02,
          1.26315013e-01, 5.79762235e-02, -6.64608832e-03,
          -4.53490065e-03, 8.31092708e-03, 5.56300534e-03,
          1.36970766e-02, -2.03509675e-03, 1.55354049e-02,
          2.03509675e-03, 8.67718682e-02, -1.87823270e-02,
          8.67718682e-02, 1.87823270e-02, -1.43624963e-02,
          -8.29076394e-03, 1.64010730e-02, 8.38652439e-03,
          -2.29005050e-03, -1.43006409e-03, 2.31406582e-03,
          1.51922659e-03, 7.15426868e-03, 1.40079688e-02, 7.15426868e-03,
          1.40079688e-02, 1.39966875e-03, 6.73577338e-02, 1.09632080e-02,
          6.73577338e-02, 2.15791725e-02, 6.74687475e-02, 2.15791725e-02,
          6.74687475e-02, 4.13834956e-03, 1.17666591e-02, 4.13834956e-03,
          1.17666591e-02, -8.90888739e-03, 1.21639222e-02,
          2.42064372e-02, 3.18943895e-02, -1.76215023e-01,
          -2.08661720e-01, 1.77380905e-01, 2.37599060e-01,
          3.77200365e-01, -1.10678919e-01, 3.77200365e-01,
          1.45471156e-01, 3.64166312e-02, 1.13065029e-02, 3.76479514e-02,
          1.65560786e-02, -3.24723721e-02, -3.59092206e-02,
          3.24723721e-02, 3.59092206e-02, -6.21704906e-02,
          -1.35653755e-02, 1.54823065e-01, 1.06108546e-01,
          4.60383564e-01, 9.78173018e-02, 4.60383564e-01, 1.02156699e-01,
          2.65944283e-02, -1.59567781e-02, 3.05879023e-02,
          1.59567781e-02, -9.77637246e-04, 5.26175027e-05,
          9.89196007e-04, 9.83239734e-04, 1.16905877e-02, 2.49937549e-03,
          1.44822756e-02, 6.36791484e-03, 3.71350013e-02,
          -2.34936476e-02, 3.71818654e-02, 2.44162902e-02,
          -1.73844537e-03, -9.06564016e-03, 1.97116379e-03,
          9.06564016e-03, -6.77742157e-03, -4.54415986e-03,
          6.78239716e-03, 5.48759941e-03, 2.27822177e-03,
          -1.52059039e-02, 8.77320580e-03, 1.52709931e-02,
          1.03839545e-03, -2.40511552e-04, 1.03839545e-03,
          6.08111732e-04, 3.41244740e-04, -4.10893466e-04,
          4.08227264e-04, 4.21121513e-04, -4.06326614e-02,
          -6.76911175e-02, 5.16172796e-02, 6.76911175e-02,
          3.27488005e-01, -7.51682892e-02, 3.27488005e-01,
          1.23484768e-01, -1.69410370e-02, 4.10640240e-02,
          3.34847905e-02, 5.33394665e-02, 4.21830406e-03,
          -1.64762535e-03, 4.21830406e-03, 2.67070811e-03,
          9.40573460e-04, -3.72176394e-02, 6.12271130e-02,
          3.72176394e-02, 5.89599729e-01, 1.40737975e-02, 5.89599729e-01,
          6.45024404e-02, -6.79262653e-02, 6.79243430e-02,
          6.79262653e-02, 6.79243430e-02, -5.97658858e-04,
          3.10584833e-03, 3.45383701e-03, 4.16104496e-03, 6.50694082e-03,
          -3.12561262e-03, 1.11499298e-02, 3.12561262e-03,
          9.80374813e-02, -7.54326489e-03, 9.80374813e-02,
          7.54326489e-03, -9.60664637e-03, -4.46682191e-03,
          1.20873405e-02, 5.46494266e-03, -1.78774388e-03,
          -7.38148286e-04, 1.80218241e-03, 7.38148286e-04 ]
      - [ 1.24263775e-03, 2.31382292e-04, 1.24263775e-03, 2.31382292e-04,
          4.35701152e-03, 9.21410334e-04, 5.21452306e-03, 3.65888700e-03,
          1.30854063e-02, 1.45449489e-02, 1.90995522e-02, 1.60267316e-02,
          -1.15787517e-02, 9.86340269e-03, 1.15787517e-02,
          9.90283862e-03, 9.65958089e-03, 2.21951143e-03, 9.65958089e-03,
          2.21951143e-03, -2.74276808e-02, -1.37342652e-02,
          4.91794273e-02, 1.84082128e-02, 4.13624704e-01, 1.54998293e-02,
          4.13624704e-01, 8.28236267e-02, -2.13773977e-02,
          7.60091320e-02, 6.07724227e-02, 7.60091320e-02, 7.94432033e-03,
          -1.93790440e-03, 7.94432033e-03, 2.30265106e-03,
          -5.94315417e-02, -4.34017442e-02, 6.62508458e-02,
          4.71284166e-02, 5.37560284e-01, 4.26882925e-03, 5.37560284e-01,
          5.11705279e-02, 4.54512388e-02, 2.54203733e-02, 9.32823941e-02,
          2.54203733e-02, 5.97820384e-04, -5.07920107e-04,
          5.97820384e-04, 5.57473686e-04, 3.97588854e-04, 3.50806164e-03,
          8.64607468e-03, 4.93796170e-03, 1.03556044e-01, 3.78720164e-02,
          1.03556044e-01, 3.78720164e-02, 8.74740072e-03, 7.17061386e-03,
          1.37554407e-02, 7.17061386e-03, 3.22562701e-04, 7.05459272e-04,
          8.07632750e-04, 7.05459272e-04, -8.94223899e-03,
          1.01118314e-03, 1.11501515e-02, 2.51580332e-03, 7.72297382e-02,
          -3.54882586e-03, 7.72297382e-02, 4.02586954e-03,
          1.38217360e-02, 3.03852372e-04, 1.45040238e-02, 1.00579078e-03,
          2.26718839e-03, 1.46076817e-03, 7.03843404e-03, 1.86274038e-03,
          -7.48251602e-02, 1.97443049e-02, 7.60249272e-02,
          1.97443049e-02, 5.71087301e-01, 3.25105414e-02, 5.71087301e-01,
          4.31736708e-02, 6.15278631e-02, -2.11971290e-02,
          8.44067112e-02, 2.58228853e-02, 7.41189579e-03,
          -3.79977771e-03, 8.86147749e-03, 3.79977771e-03,
          -3.78161371e-02, 5.29704206e-02, 4.52126265e-02,
          5.41701801e-02, 3.56296510e-01, -8.11606720e-02,
          3.56296510e-01, 1.22969672e-01, -1.45941153e-02,
          -9.89186466e-02, 5.25937900e-02, 9.89186466e-02,
          2.07141554e-03, -1.18602766e-03, 2.07141554e-03,
          1.18602766e-03, 4.95345099e-03, 2.41045980e-03, 4.95345099e-03,
          4.83599817e-03, -2.82357656e-03, -4.00383212e-03,
          6.38916856e-03, 1.04829753e-02, -8.23490880e-03,
          -4.77288384e-03, 8.23490880e-03, 5.27230743e-03,
          8.97194186e-05, -6.38408153e-07, 4.37916489e-04,
          7.72606436e-05, 2.30629630e-02, -1.05181872e-03,
          2.32768636e-02, 5.34150237e-03, -7.52055505e-03,
          4.52774279e-02, 3.49683277e-02, 4.52774279e-02,
          -1.19051253e-02, 7.64528196e-03, 1.19051253e-02,
          7.65481452e-03, -2.05918332e-03, -5.35394996e-04,
          4.03505331e-03, 8.37311789e-04, 1.79077834e-01,
          -4.12636623e-02, 1.95793614e-01, 4.12636623e-02,
          3.20278227e-01, 5.12790792e-02, 4.07891423e-01, 1.02536596e-01,
          -1.07955888e-01, 4.35848907e-02, 1.07955888e-01,
          4.35848907e-02, -4.38515190e-03, -4.03271662e-03,
          5.49138011e-03, 4.03271662e-03, 1.78748503e-01, 2.22685002e-02,
          1.90920919e-01, 4.29081470e-02, 4.88468468e-01, 8.91799331e-02,
          4.99839187e-01, 9.30557773e-02, -8.88433233e-02,
          3.82721275e-02, 8.88433233e-02, 3.82721275e-02,
          -1.58819937e-04, 4.96475404e-05, 2.81018874e-04,
          2.94798374e-04, 3.99284996e-02, 7.37989275e-03, 3.99284996e-02,
          8.17003567e-03, 7.63999820e-02, 6.67483360e-03, 7.63999820e-02,
          1.66650303e-02, -9.12330672e-03, 2.13872967e-03,
          9.12330672e-03, 3.69232008e-03, 1.00733960e-04, 3.19454615e-04,
          1.11119659e-03, 3.19454615e-04, -1.18065886e-02,
          1.13055506e-03, 1.18065886e-02, 1.27734081e-03, 8.63232091e-02,
          1.20372111e-02, 8.63232091e-02, 1.22643057e-02, 1.33999912e-02,
          1.80977210e-03, 1.46709038e-02, 2.75771599e-03, 2.22909288e-03,
          -1.45294715e-03, 7.69655081e-03, 2.59588938e-03,
          -4.70812805e-02, 4.38441858e-02, 6.92053959e-02,
          4.48257178e-02, 6.21523321e-01, 1.12377107e-03, 6.21523321e-01,
          1.08473018e-01, 1.39342304e-02, -7.42779896e-02,
          6.53933361e-02, 7.60964081e-02, 1.12160333e-02,
          -3.83301103e-03, 1.12160333e-02, 4.64985985e-03,
          2.90539698e-03, 5.93583435e-02, 3.20059061e-02, 6.01035282e-02,
          1.71661884e-01, -1.58289641e-01, 2.08004221e-01,
          1.80806637e-01, -6.72676042e-02, -1.08481936e-01,
          6.72676042e-02, 1.08481936e-01, 2.42800475e-03,
          -1.06169784e-03, 2.42800475e-03, 1.06169784e-03,
          9.10591148e-03, 2.98782485e-04, 9.10591148e-03, 4.28912090e-03,
          -2.27695834e-02, -9.99048643e-05, 2.27695834e-02,
          4.02407581e-03, -9.75311548e-03, 1.34990423e-03,
          9.75561701e-03, 2.53031403e-03, 4.28965548e-04,
          -1.62230543e-04, 4.28965548e-04, 2.50386161e-04,
          1.44885490e-02, 1.73882619e-02, 1.44885490e-02, 1.73882619e-02,
          -7.31602544e-04, 3.85983214e-02, 7.76914647e-03,
          3.85983214e-02, -2.03262549e-03, 4.18781769e-03,
          2.03598361e-03, 4.19435650e-03, 9.46492702e-03,
          -6.12884614e-05, 1.00894412e-02, 3.22798057e-03,
          3.15862417e-01, 9.09029841e-02, 3.15862417e-01, 9.34332982e-02,
          6.87983930e-02, 1.87013656e-01, 1.19421929e-01, 1.95342034e-01,
          -2.18148921e-02, 3.28572541e-02, 2.18148921e-02,
          3.28572541e-02, 9.15788952e-03, -9.82272159e-03,
          1.02873137e-02, 1.09315636e-02, 2.26321161e-01,
          -2.39238620e-01, 2.26321161e-01, 2.39238620e-01,
          2.19442844e-02, -4.68617916e-01, 8.00870731e-02,
          4.68617916e-01, -1.42227160e-02, -7.07940832e-02,
          1.42227160e-02, 7.07940832e-02, -5.01687871e-04,
          -5.21535566e-03, 5.85870643e-04, 5.24830818e-03,
          2.92112381e-04, -4.73196842e-02, 2.70044059e-03,
          4.79292385e-02, -6.72282698e-03, -5.00841811e-02,
          7.47691654e-03, 5.28366491e-02, -6.88289176e-04,
          -5.45783108e-03, 7.66728190e-04, 6.38953829e-03,
          5.57647320e-03, -5.61635650e-04, 5.57647320e-03,
          5.61635650e-04, 2.00890917e-02, 2.33050203e-03, 3.14938761e-02,
          7.72310281e-03, -6.83240825e-03, 2.85061616e-02,
          4.00804169e-02, 2.99075581e-02, 4.23255600e-02, 1.13814138e-02,
          4.23255600e-02, 1.24516329e-02, 3.47591639e-02,
          -6.15891628e-03, 3.47591639e-02, 9.05534253e-03,
          3.05846542e-01, 3.97860855e-02, 3.10167968e-01, 7.16592148e-02,
          1.35371312e-02, 1.43234327e-01, 1.14884518e-01, 1.82850897e-01,
          8.40653330e-02, -1.46923646e-01, 1.12925939e-01,
          1.50193647e-01, 2.89398842e-02, -5.16282674e-03,
          2.92302296e-02, 5.32129547e-03, 4.68847334e-01,
          -4.54888046e-02, 4.68847334e-01, 4.54888046e-02,
          -2.19325230e-01, -2.86739897e-02, 3.09185982e-01,
          1.03477880e-01, -1.46308646e-01, -4.82194312e-02,
          1.46308646e-01, 6.57586232e-02, 2.68452778e-03,
          -2.49679200e-04, 2.68452778e-03, 8.35970917e-04,
          6.17714636e-02, -1.64524149e-02, 6.17714636e-02,
          1.66108813e-02, -1.89786665e-02, -2.13993546e-02,
          2.46771462e-02, 2.33864672e-02, -1.20289838e-02,
          1.12429485e-02, 1.32441847e-02, 1.12429485e-02,
          -1.29569862e-05, -2.80332199e-04, 1.29569862e-05,
          2.80332199e-04, 7.02955062e-03, -1.64753490e-03,
          7.02955062e-03, 1.64753490e-03, 3.14257219e-02, 1.24061238e-02,
          3.14257219e-02, 1.24061238e-02, -1.76362135e-03,
          3.90284578e-04, 7.14938156e-03, 3.09109036e-03, 5.84551424e-04,
          -8.11795052e-03, 1.49098283e-03, 8.11795052e-03,
          2.39389073e-02, -1.06837213e-01, 6.59174547e-02,
          1.06837213e-01, 2.97506869e-01, -9.32052433e-02,
          3.08905184e-01, 1.03508338e-01, -1.22126743e-01,
          -8.64790827e-02, 1.23564258e-01, 8.79165903e-02,
          1.45009644e-02, 7.01968325e-03, 1.50244776e-02, 1.36778103e-02,
          2.30187085e-02, 2.31286496e-01, 8.07327107e-02, 2.55148709e-01,
          -1.02472976e-01, -1.11511312e-01, 4.38108176e-01,
          2.91786999e-01, -2.62258232e-01, -1.76452667e-01,
          2.62258232e-01, 1.76452667e-01, 4.27612336e-03, 5.42760175e-03,
          4.27612336e-03, 5.42760175e-03, -3.66045465e-03,
          2.15173047e-02, 3.37640159e-02, 3.66325378e-02,
          -1.82506129e-01, -1.03902422e-01, 1.82506129e-01,
          1.03902422e-01, -3.61836888e-02, -2.11454872e-02,
          3.63170877e-02, 2.11454872e-02, -2.29774407e-04,
          -6.30342693e-05, 3.39733233e-04, 1.66442667e-04,
          3.47911380e-02, 1.59120969e-02, 3.47911380e-02, 1.59717500e-02,
          3.52562927e-02, 4.21748757e-02, 4.07714769e-02, 4.21748757e-02,
          -8.73050466e-03, 4.87234676e-03, 8.73050466e-03,
          4.87234676e-03, 5.04438626e-03, 1.81532178e-05, 7.56072532e-03,
          9.62621183e-04, 4.01962698e-01, 9.32498649e-02, 4.01962698e-01,
          9.32498649e-02, 2.10940808e-01, 9.13272128e-02, 3.06168616e-01,
          9.94893238e-02, -7.34696761e-02, 5.20465337e-03,
          7.34696761e-02, 5.20465337e-03, 3.80915054e-03, 8.87416885e-04,
          6.90618576e-03, 1.19867269e-03, 3.93384725e-01,
          -8.88832211e-02, 3.93384725e-01, 8.88832211e-02,
          2.14054093e-01, -8.48656520e-02, 2.84766018e-01,
          8.48656520e-02, -5.65835945e-02, 6.95770560e-03,
          5.65835945e-02, 7.45683722e-03, -7.05344544e-04,
          2.49902339e-04, 7.05344544e-04, 2.49902339e-04, 4.28043790e-02,
          -1.18416632e-02, 4.28594127e-02, 1.19117294e-02,
          4.66542728e-02, -1.02984086e-02, 5.28712943e-02,
          1.02984086e-02, -7.88868219e-03, -2.24140240e-03,
          7.88868219e-03, 2.24140240e-03, 1.30116418e-02,
          -4.78962465e-04, 1.30311521e-02, 6.28329464e-04,
          5.41589335e-02, 1.16341456e-03, 5.41589335e-02, 6.03353605e-03,
          -1.02677634e-02, -7.68518541e-04, 1.21628186e-02,
          7.31201284e-03, 4.13395988e-04, 1.50799198e-04, 4.81096853e-04,
          2.63256166e-04, 1.00830913e-01, -8.69784597e-03,
          1.00861788e-01, 9.62091703e-03, 4.34379995e-01, 5.56400158e-02,
          4.34379995e-01, 5.81637062e-02, -9.01686847e-02,
          8.38117748e-02, 9.09368917e-02, 8.38117748e-02,
          -2.59365281e-03, 3.78746772e-03, 3.34792119e-03,
          3.78746772e-03, 1.17035702e-01, -9.08732135e-03,
          1.17066577e-01, 1.06939971e-02, 4.94114518e-01,
          -7.09488317e-02, 4.94114518e-01, 7.09488317e-02,
          -8.79747048e-02, -2.30632257e-03, 8.79747048e-02,
          2.42838524e-02, -4.67367191e-03, 5.29653043e-04,
          5.04257018e-03, 3.05407657e-03, 1.10733779e-02,
          -8.27108452e-04, 1.21213840e-02, 2.48539913e-03,
          8.62159878e-02, -2.44656503e-02, 8.62159878e-02,
          2.44656503e-02, -4.00905823e-03, -1.85384037e-04,
          1.11738686e-02, 4.04296163e-03, -1.56094422e-04,
          5.22817019e-04, 3.52205127e-04, 6.69337227e-04, 1.97001477e-03,
          -2.95231529e-02, 6.98392559e-03, 2.95231529e-02,
          -2.41938718e-02, -4.06262726e-02, 2.85101533e-02,
          4.14301269e-02, -3.53871845e-03, 3.39925219e-03,
          5.55399200e-03, 3.39925219e-03, -6.65583182e-04,
          4.81618452e-04, 6.65583182e-04, 5.48335316e-04, 1.40809834e-01,
          -9.64426026e-02, 1.40809834e-01, 9.64426026e-02,
          4.45721000e-01, -9.97523665e-02, 4.54033166e-01,
          1.21983536e-01, -6.62565380e-02, 2.56319679e-02,
          7.08662122e-02, 3.69189829e-02, -3.39994812e-03,
          -1.66571059e-03, 3.39994812e-03, 1.89393107e-03,
          1.79519713e-01, 4.65111285e-02, 1.79519713e-01, 4.69390936e-02,
          4.33608174e-01, 6.26831055e-02, 4.42164421e-01, 1.15187854e-01,
          -5.65730780e-02, -8.21209773e-02, 6.29508495e-02,
          8.21209773e-02, -4.25248221e-03, -4.84311208e-03,
          4.25248221e-03, 4.84311208e-03, 2.50536893e-02, 2.05849321e-03,
          2.50536893e-02, 3.25871841e-03, 2.20721755e-02, 3.62028531e-03,
          3.99036556e-02, 1.28423022e-02, -6.88339025e-03,
          2.74565560e-03, 1.16286948e-02, 3.37232114e-03,
          -7.49956176e-04, -1.67369901e-04, 7.49956176e-04,
          2.61291367e-04, -3.44723277e-03, -1.08584147e-02,
          3.95108853e-03, 1.20073427e-02, -1.55952238e-02,
          -3.55872558e-03, 1.55952238e-02, 1.00074746e-02,
          -1.04455613e-02, 9.70538985e-03, 1.04455613e-02,
          9.70538985e-03, -2.51927850e-04, 2.51927850e-04,
          2.51927850e-04, 2.51927850e-04, 1.39591306e-01,
          -9.78838131e-02, 1.39591306e-01, 9.78838131e-02,
          2.42475227e-01, 4.56249192e-02, 2.88200319e-01, 1.37833789e-01,
          -1.01058520e-01, 1.61633119e-01, 1.01058520e-01,
          1.61633119e-01, -8.78605247e-03, 1.41439326e-02,
          8.78605247e-03, 1.41439326e-02, 1.23978205e-01, 7.14206249e-02,
          1.29317328e-01, 7.14206249e-02, 5.18422008e-01, 3.86387892e-02,
          5.18422008e-01, 8.24092478e-02, -7.11196661e-02,
          2.01614961e-01, 9.50430632e-02, 2.11122125e-01,
          -2.35857721e-02, 3.51755545e-02, 2.35857721e-02,
          3.51755545e-02, -7.40748597e-04, 1.45883830e-02,
          6.06846297e-03, 1.47710610e-02, 2.14884281e-02, 2.62540784e-02,
          4.33465838e-02, 4.41922992e-02, -3.85766570e-03,
          -6.19969480e-02, 1.32798655e-02, 6.19969480e-02,
          -9.29176284e-04, -5.50343841e-03, 2.85405619e-03,
          5.93577279e-03, 6.41711464e-04, -1.75429072e-04,
          7.26671249e-04, 1.75429072e-04, 3.46513242e-02, 2.13217735e-02,
          3.46766189e-02, 2.13217735e-02, -8.28559510e-03,
          5.53007200e-02, 2.47869771e-02, 5.53007200e-02,
          -7.93837663e-03, 5.75790089e-03, 7.93837663e-03,
          5.75790089e-03, 8.87600239e-03, 1.11848407e-03, 9.71419923e-03,
          1.67332892e-03, 4.38737482e-01, 8.07240084e-02, 4.38737482e-01,
          8.07240084e-02, -3.08621535e-03, 1.51769683e-01,
          2.52138197e-01, 1.51769683e-01, -6.90599754e-02,
          2.68593840e-02, 6.90599754e-02, 2.68593840e-02, 1.08060213e-02,
          -2.08563241e-03, 1.20489374e-02, 2.51408783e-03,
          4.25452530e-01, -8.51367489e-02, 4.25452530e-01,
          8.84392038e-02, 1.06125601e-01, -6.81298748e-02,
          2.28767574e-01, 9.20898840e-02, -5.24339341e-02,
          2.43713781e-02, 5.24339341e-02, 2.43713781e-02, 1.82381438e-04,
          1.48576699e-04, 6.81044126e-04, 3.49171489e-04, 3.81750874e-02,
          -2.41963826e-02, 3.82183716e-02, 2.42396593e-02,
          4.67458554e-02, -2.76552252e-02, 4.72220778e-02,
          2.76552252e-02, -5.72492369e-03, 4.90267528e-04,
          5.72492369e-03, 8.88268813e-04, -5.04150195e-03,
          3.53266811e-03, 5.48201799e-03, 3.53266811e-03, 5.67610636e-02,
          -1.98398214e-02, 5.67610636e-02, 1.98398214e-02,
          2.73918640e-02, -8.33514892e-03, 2.85047051e-02,
          9.20470711e-03, -7.41454598e-04, 5.84747584e-04,
          8.30987410e-04, 5.89503557e-04, -8.00531060e-02,
          1.41542908e-02, 8.00531060e-02, 1.41542908e-02, 2.92681068e-01,
          -7.94614106e-02, 3.40183169e-01, 8.18536058e-02,
          3.04322809e-01, -5.80848753e-02, 3.04322809e-01,
          5.80848753e-02, -2.52816919e-03, -2.77433009e-03,
          3.29817412e-03, 3.68401338e-03, -8.83458406e-02,
          -1.40427640e-02, 8.83458406e-02, 1.40427640e-02,
          3.26181144e-01, 4.05625030e-02, 3.89624894e-01, 6.77884817e-02,
          3.23654681e-01, 1.42845690e-01, 3.26948285e-01, 1.48539752e-01,
          -6.49884623e-03, 1.02184834e-02, 9.63350013e-03,
          1.72197986e-02, -1.21912714e-02, -1.42807039e-04,
          1.21912714e-02, 5.79860702e-04, 8.47270116e-02, 1.72125623e-02,
          8.79146606e-02, 1.77402124e-02, 7.03428984e-02, 7.00465217e-02,
          7.30363503e-02, 7.00465217e-02, -4.95712506e-03,
          1.18337646e-02, 4.95712506e-03, 1.18337646e-02, 5.01435772e-02,
          -1.25781940e-02, 5.01435772e-02, 1.25781940e-02,
          7.88803026e-02, -1.56433787e-02, 9.07775387e-02,
          1.98107548e-02, -2.22624689e-02, -3.94937256e-03,
          2.26406027e-02, 6.99186418e-03, -2.23242142e-03,
          -8.91213771e-04, 2.23242142e-03, 8.94539524e-04,
          3.52193803e-01, 1.03201360e-01, 3.52193803e-01, 1.03201360e-01,
          2.24761531e-01, 5.07711507e-02, 4.34382498e-01, 1.96404189e-01,
          -3.78912464e-02, -1.20436311e-01, 7.82290995e-02,
          1.20436311e-01, -9.14462004e-03, -8.57056119e-03,
          9.14462004e-03, 1.07456874e-02, 3.02988529e-01,
          -2.88108084e-02, 3.02988529e-01, 5.58458902e-02,
          7.05278963e-02, -4.05574851e-02, 3.51703465e-01,
          1.25206098e-01, -5.27563803e-02, 7.47783706e-02,
          9.68743339e-02, 9.20279920e-02, -8.79574195e-03,
          -7.07547806e-05, 8.79574195e-03, 6.07807608e-03,
          3.89118977e-02, -1.60667319e-02, 3.89118977e-02,
          1.60667319e-02, 1.08010098e-01, -1.95059143e-02,
          1.08010098e-01, 3.68888751e-02, -3.07732671e-02,
          2.57470068e-02, 3.07732671e-02, 2.57470068e-02,
          -1.41879637e-03, 1.11371651e-03, 1.41879637e-03,
          1.12956017e-03, -8.24861322e-03, 6.33132039e-03,
          8.24861322e-03, 6.33132039e-03, 5.23549244e-02, 7.88627472e-03,
          5.49031757e-02, 7.88627472e-03, 5.24279177e-02,
          -1.02153164e-03, 5.24279177e-02, 3.57803307e-03,
          -8.54343059e-04, -3.99729615e-04, 8.54343059e-04,
          4.12240741e-04, -9.41134319e-02, 1.62448045e-02,
          9.41134319e-02, 1.62903741e-02, 2.45431066e-01,
          -6.24202983e-03, 3.44045907e-01, 2.66804639e-02,
          3.72303635e-01, -1.96654573e-02, 3.72303635e-01,
          2.73624100e-02, -4.86065168e-03, 5.56619896e-04,
          4.86065168e-03, 2.28554173e-03, -9.34055150e-02,
          -2.04671882e-02, 9.34055150e-02, 2.04671882e-02,
          2.46575058e-01, -9.31765046e-03, 3.41057986e-01,
          4.34946567e-02, 3.87816966e-01, 1.54407825e-02, 3.87816966e-01,
          2.64430027e-02, -4.15839162e-03, -1.71005051e-03,
          4.30770591e-03, 2.76316935e-03, -8.32326990e-03,
          -4.52454062e-03, 8.51701107e-03, 4.57379501e-03,
          6.33033440e-02, 2.95712333e-02, 6.44471273e-02, 3.07150073e-02,
          3.25907171e-02, 1.92814972e-02, 3.42448764e-02, 2.10087337e-02,
          6.25850589e-05, -3.89328372e-04, 4.72039450e-04,
          5.86854701e-04, 9.24037362e-04, -2.29721470e-03,
          9.91761568e-04, 2.29721470e-03, 4.99201892e-03, 3.39316484e-03,
          6.49322802e-03, 7.11513404e-03, -6.77947840e-03,
          4.83004795e-03, 6.83867000e-03, 6.64319796e-03, 3.51762021e-04,
          -7.14655092e-04, 3.52437084e-04, 7.15330185e-04,
          2.35762466e-02, -2.60922741e-02, 2.58853957e-02,
          2.60922741e-02, 2.96906441e-01, 8.92015919e-02, 2.96906441e-01,
          1.26784950e-01, -1.44287795e-01, 2.79664725e-01,
          1.46909386e-01, 2.79664725e-01, -1.46586094e-02,
          1.66475214e-02, 1.49999727e-02, 1.75689645e-02, 2.78990772e-02,
          1.44737540e-03, 3.15890610e-02, 1.15028927e-02, 5.04413068e-01,
          -5.22755831e-02, 5.04413068e-01, 7.07854852e-02,
          6.20998675e-03, 1.06722482e-01, 1.80590317e-01, 1.48013815e-01,
          -3.45468968e-02, 4.20116074e-02, 3.45468968e-02,
          4.20116074e-02, 5.39978174e-03, 3.60546703e-03, 5.48934843e-03,
          3.60546703e-03, 4.24519703e-02, 8.90027266e-03, 4.24519703e-02,
          1.39024723e-02, 3.00741717e-02, -1.88490711e-02,
          3.02061588e-02, 1.95090063e-02, -1.19935314e-03,
          2.34298036e-03, 2.12163315e-03, 2.82990350e-03, 9.73951165e-03,
          -4.80577676e-03, 1.09924758e-02, 4.80577676e-03,
          4.94185127e-02, -7.16771465e-03, 4.94185127e-02,
          7.16771465e-03, -1.14786159e-02, -1.01577472e-02,
          1.14786159e-02, 1.01577472e-02, 5.57822932e-04,
          -7.36865622e-04, 6.78198587e-04, 8.28488322e-04,
          1.13837674e-01, -1.44314384e-02, 1.16768397e-01,
          1.44314384e-02, 3.98619622e-01, 4.64812703e-02, 3.98619622e-01,
          5.76734282e-02, -1.02082491e-01, 7.29221478e-02,
          1.02082491e-01, 7.29221478e-02, 4.47701989e-03, 2.14854651e-03,
          4.47701989e-03, 3.42576974e-03, 1.15675226e-01,
          -1.19428253e-02, 1.18231185e-01, 1.24472007e-02,
          5.17915666e-01, -4.31862585e-02, 5.17915666e-01,
          5.41467331e-02, -9.41294283e-02, 4.93428446e-02,
          1.09384574e-01, 4.93428446e-02, -2.12488836e-03,
          8.72511882e-03, 5.51655050e-03, 8.72511882e-03, 1.51280845e-02,
          1.90559332e-03, 1.54202599e-02, 1.90559332e-03, 8.91141817e-02,
          1.38317570e-02, 8.91141817e-02, 1.38317570e-02,
          -1.61392875e-02, 1.38202915e-02, 1.61392875e-02,
          1.38202915e-02, -7.42948439e-04, 6.99654454e-04,
          7.42948439e-04, 6.99654454e-04, 1.72519078e-03,
          -2.05029221e-03, 1.72519078e-03, 2.05029221e-03,
          5.15362024e-02, 8.57243594e-03, 5.15362024e-02, 1.25891622e-02,
          3.23842950e-02, 1.43196816e-02, 3.64649594e-02, 1.43196816e-02,
          -6.85142167e-03, -8.01294285e-04, 6.85142167e-03,
          8.01294285e-04, 3.73677686e-02, -1.82225835e-03,
          3.73677686e-02, 5.57801127e-03, 4.27545935e-01, 8.93447474e-02,
          4.27545935e-01, 9.98059809e-02, 1.46754617e-02,
          -9.26867649e-02, 1.75777584e-01, 1.39246762e-01,
          -4.86769378e-02, -3.07624806e-02, 4.86769378e-02,
          3.07624806e-02, 4.61066291e-02, -1.43170441e-02,
          4.61066291e-02, 1.43170441e-02, 3.08824092e-01,
          -2.20879808e-01, 3.08824092e-01, 2.20879808e-01,
          -1.30649835e-01, -3.19117069e-01, 1.43373340e-01,
          3.19117069e-01, -2.37818174e-02, -2.61965990e-02,
          2.37994902e-02, 2.61965990e-02, 4.98238904e-03,
          -8.43960850e-04, 4.98238904e-03, 1.50118675e-03,
          2.79754270e-02, -1.56885237e-02, 2.79754270e-02,
          1.70488749e-02, -5.54703409e-03, -1.48903467e-02,
          7.50455447e-03, 1.49628762e-02, -3.18364560e-04,
          -2.65820599e-05, 3.44677857e-04, 2.87282222e-04,
          1.62573028e-02, -2.06218902e-02, 1.65326279e-02,
          2.06218902e-02, 1.91975497e-02, -1.27998658e-03,
          2.71048434e-02, 3.07509489e-02, -1.26845213e-02,
          1.27065806e-02, 1.58361271e-02, 1.68607160e-02,
          -2.96963099e-03, -1.04728865e-03, 2.97762523e-03,
          1.20190077e-03, 1.49628207e-01, 5.81388688e-03, 1.49628207e-01,
          5.83404414e-02, 5.30571043e-01, -6.02866933e-02,
          5.30571043e-01, 9.96889398e-02, -2.16043368e-01,
          -7.85465017e-02, 2.16043368e-01, 8.11480731e-02,
          -1.97794903e-02, -9.74721089e-03, 1.97794903e-02,
          9.74721089e-03, 6.98842853e-02, 1.00907467e-01, 6.98842853e-02,
          1.00907467e-01, 2.26565927e-01, 5.29831834e-03, 2.46857971e-01,
          1.39102921e-01, -1.76870495e-01, -1.38026118e-01,
          1.76870495e-01, 1.38026118e-01, -9.54934675e-03,
          -6.03994448e-03, 9.54934675e-03, 6.03994448e-03,
          3.19308165e-04, 2.17513926e-03, 5.27886208e-04, 2.88403337e-03,
          -1.22281807e-02, -3.40085477e-03, 1.31756263e-02,
          7.50934659e-03, -1.71601698e-02, -7.12539069e-03,
          1.74184665e-02, 7.12539069e-03, 0., 0., 0., 0., 3.79766943e-03,
          -2.47130025e-04, 3.79766943e-03, 1.76509668e-03,
          5.20431856e-03, 1.59834214e-02, 2.49526799e-02, 1.59834214e-02,
          -2.51137242e-02, 4.37048301e-02, 2.51137242e-02,
          4.37048301e-02, -2.96444981e-03, 5.57414582e-03,
          2.96444981e-03, 5.63961687e-03, 3.70893814e-02,
          -5.04222978e-03, 3.75232361e-02, 9.40833800e-03,
          2.94369161e-01, 8.58915076e-02, 3.00826490e-01, 1.09383591e-01,
          -9.05815810e-02, 2.93152958e-01, 1.18799321e-01,
          2.93152958e-01, -9.55963060e-02, 5.14019141e-03,
          9.55963060e-02, 2.93775890e-02, 3.23084183e-02,
          -7.12335343e-03, 3.23084183e-02, 8.06214940e-03,
          4.40593570e-01, -1.00916490e-01, 4.40593570e-01,
          1.00916490e-01, -1.14968136e-01, -1.32121071e-01,
          2.07845777e-01, 1.80761561e-01, -1.57395169e-01,
          -3.13536972e-02, 1.57395169e-01, 3.13536972e-02,
          1.62224320e-03, -1.62224320e-03, 1.62224320e-03,
          1.62224320e-03, 4.65786122e-02, -3.23492885e-02,
          4.65786122e-02, 3.23492885e-02, -1.41381128e-02,
          -4.46612351e-02, 2.08035260e-02, 4.46612351e-02,
          -2.17645597e-02, -1.58208903e-04, 2.17645597e-02,
          1.89996115e-03 ]
      - [ 3.04943183e-04, 3.04943183e-04, 3.04943183e-04, 3.04943183e-04,
          4.08491679e-02, 1.97839923e-02, 4.08491679e-02, 1.97839923e-02,
          5.35676703e-02, 1.68383047e-02, 5.35676703e-02, 2.33919881e-02,
          7.00832671e-03, -4.38131206e-03, 7.00832671e-03,
          6.15422660e-03, 1.12650879e-02, 2.04500556e-03, 1.12650879e-02,
          5.37867239e-03, 3.00692320e-01, 3.36115360e-02, 3.00692320e-01,
          3.36115360e-02, -4.64803576e-02, -2.66941637e-01,
          2.24029034e-01, 2.70768583e-01, -4.42788750e-02,
          -1.29510596e-01, 4.69868034e-02, 1.29510596e-01,
          1.52772274e-02, -1.79848157e-05, 1.52772274e-02,
          3.79368640e-03, 2.06448078e-01, -2.60247793e-02,
          2.10275024e-01, 3.60306390e-02, -4.42265630e-01,
          -1.77135363e-01, 4.42265630e-01, 2.16957107e-01,
          -2.22457740e-02, 1.55879781e-02, 5.75773306e-02,
          6.27968162e-02, 2.05273274e-03, 2.80132634e-04, 2.05273274e-03,
          3.96915013e-04, 1.59554537e-02, -4.40994371e-03,
          1.96116287e-02, 5.68128051e-03, -3.43219340e-02,
          -1.67961372e-03, 3.88039947e-02, 1.65169146e-02,
          1.20172184e-02, 1.05950739e-02, 1.20172184e-02, 1.20200366e-02,
          -9.21508763e-03, -4.65932377e-02, 9.83743928e-03,
          4.66029681e-02, -9.19269919e-02, -3.13819289e-01,
          9.21690017e-02, 3.13819289e-01, -9.67895910e-02,
          -1.03341781e-01, 9.80575830e-02, 1.04456946e-01,
          1.29846460e-03, 1.37367228e-03, 2.00143247e-03, 1.79458444e-03,
          -6.87678307e-02, -9.42137614e-02, 6.87678307e-02,
          9.42137614e-02, 1.91617623e-01, -2.83716351e-01,
          2.68328696e-01, 4.05208945e-01, 2.31368244e-02,
          -5.34267500e-02, 1.33186474e-01, 1.72789112e-01,
          -1.89490933e-02, -3.41415145e-02, 2.14660708e-02,
          3.41415145e-02, -2.37256773e-02, -1.72232352e-02,
          2.41099820e-02, 1.96346790e-02, 2.04675272e-01,
          -1.00539200e-01, 2.09702387e-01, 1.29220739e-01,
